Intercept__0,predicted__0,setsize__0,gaze_influence_sd
17.382095997791968,-5.89272819638152,0.2847488073167424,12.194290230288804
19.59443304764835,-3.978031084248865,0.26381379456170706,12.238871813891365
19.011283660144116,-4.440868292890446,0.216331762298793,12.440321614871646
19.43664107295359,-4.444286781258168,0.22566054341555034,12.28178587504696
20.83660194887289,-6.763574313481675,0.2277688346646301,11.900575986781627
19.48159443820418,-5.656016766168795,0.2745604471499381,12.13628594194252
18.860124542855758,-5.978698980802867,0.2969481907276151,12.5644692782869
20.385248084052336,-4.645896477165341,0.19017645268949246,11.891760476333515
21.03575652924864,-4.5643728855705685,0.20928539091107387,12.281736477408037
18.954852540708362,-5.202032724769283,0.28279431979566444,12.26634947341951
21.55923543847597,-5.036233447957996,0.1132946820062879,11.762238902553069
21.808572218633255,-2.8009022581541614,0.13426386745415325,12.436496153450971
19.65183224878499,-7.333042037905047,0.2589147207414291,12.428224968005278
20.771171130954805,-6.623769661437756,0.27543642777320054,12.060480862206056
20.779628891581226,-6.522856042013129,0.24831021854746424,11.823240894017642
19.992543804472948,-6.4295271157091,0.2878070614322334,12.472576151588148
21.058849780273967,-5.656319330153654,0.20376153003723657,11.836421320012873
21.857680182508922,-2.8872285429170432,0.10370090625642543,12.611131272799938
22.11975683066827,-4.693395856239405,0.09223369623722324,12.036192940735829
21.022099823363884,-5.579435629812532,0.22665377049884178,11.603239974476187
20.02536357673522,-6.2717431405258575,0.22454691628563977,12.468064258112323
21.11731162222108,-5.589972032052604,0.16189987191261876,12.259494009210535
22.81417890088593,-5.524333022035279,0.11394800429176166,12.184696643111156
19.862266972712515,-4.394854967095859,0.22093015516068448,12.198747911336897
21.008495183156512,-2.782172561676168,0.08820139790244697,12.065606180907798
21.834959788737,-3.527462027980985,0.12494829725060991,12.374481759979298
22.269616015126356,-7.074137989217977,0.19657495424192048,12.632592689979578
21.593967210305824,-5.744957846398954,0.16762245978965543,12.570521729556152
19.45003590761052,-4.061259967246824,0.21668037006367077,11.7641822786692
20.22741789334623,-4.0842953458441595,0.23577720021464685,12.043791152464546
20.14922132394696,-5.581834390631555,0.2038319729059891,12.685101596292121
21.23731887185381,-5.297565083832666,0.1715079942826952,12.744218074543623
21.08114712446864,-3.723980483222159,0.13542658698861457,12.638664247295969
22.441905043994964,-3.820244138215676,0.12554797128262682,12.538195274240458
22.309898341844214,-6.488137002074656,0.16436427058545486,12.367209982470865
21.437072071276127,-5.033152639823542,0.1672813440902916,12.3259714305475
21.99971299235228,-3.9974942743061455,0.15880877854610154,12.182442804642463
20.781028766059233,-6.5154034755004755,0.2592575805369138,12.14787732076546
20.781028766059233,-6.5154034755004755,0.2592575805369138,12.14787732076546
20.99584060160406,-5.77637108065324,0.2024806727551744,12.176213224871557
18.90649929096264,-4.819149969298258,0.265162381508744,11.994459004766888
18.874864337940483,-5.018565045890028,0.24070731780773993,12.597175287225786
19.283623135681307,-4.9263980820417075,0.2674463194973437,12.621826907640784
19.425684483115297,-5.356046518045843,0.23820120216402094,11.873809289462168
19.455439116421807,-5.178181575194069,0.26004390798863786,12.199340518534521
17.886988192918942,-2.8036697131509043,0.24919990385986637,12.55890311200062
17.948523598770702,-4.241397434133549,0.2393880239313782,12.46726485221923
18.198314853179543,-4.0504279101276035,0.24158179058983417,12.18675019527699
18.78634665812404,-3.920940483966789,0.2614874067354435,12.428777870313935
19.869845991008216,-6.045718326504619,0.2571394248930807,12.43732274551508
22.017603483938572,-4.094236875563145,0.126153939199244,12.157672241933525
22.544069951232252,-5.329884225012992,0.12028489935217919,11.930357355965654
21.243454695993286,-5.114818923780843,0.17185892966580207,12.091522539438234
25.846157269421905,-5.235061616652743,0.03898480226574488,12.088114622904744
25.563246857867657,-5.247401467718054,0.01711649246083411,12.301609339785163
23.180071697606984,-6.905596299597326,0.15052824934067624,12.518062671711498
22.383385540540363,-4.673311218859714,0.09530699064117343,11.962335490120042
17.40130851212067,-4.344252152685703,0.33992856570746705,12.125554447604756
18.85004075121596,-5.3228362300110454,0.2771889880973107,12.248246061670478
18.031795461026142,-5.990511026420105,0.36761743935080216,12.571913013513063
21.538751370717634,-2.074833728763786,0.11833586630824657,12.552493930790034
20.776215116804913,-2.1581350777249804,0.07753958717942824,12.27652773766106
22.006252605031467,-6.435808610213073,0.20795260675198604,12.1700882676616
22.185179885617362,-6.7923056092766565,0.1598188434907287,11.901944283326522
20.169504286134117,-3.2504282198746886,0.15296747002576894,12.133221038177204
20.169504286134117,-3.2504282198746886,0.15296747002576894,12.133221038177204
20.57306552548568,-4.520424751750358,0.18724326116356055,12.276425286471854
20.696614231995248,-3.6809980517641185,0.16770206062707074,12.027651113906517
19.449142165072423,-6.318207271107598,0.28329038473650314,12.078724768245806
18.70701969231855,-2.494035491565923,0.2503970427561987,12.297779614059822
18.843676668569373,-4.353171558248287,0.24210073907298835,12.320805381723405
17.505739815139634,-3.762805328982684,0.28873694194676525,12.393224883917856
17.91604525657163,-5.6849685648856925,0.34081880666030107,12.12032520807025
18.913385473674172,-3.8519653839501453,0.2463150194902106,12.60399271481162
17.54724012869259,-2.8759083932245635,0.2356325572306236,11.686962789755762
17.54724012869259,-2.8759083932245635,0.2356325572306236,11.686962789755762
19.548276495739717,-2.577248324622649,0.22112890383533737,12.401829312299341
18.515002729735063,-3.168911897171224,0.19932496436424238,11.56761826813153
18.515002729735063,-3.168911897171224,0.19932496436424238,11.56761826813153
18.92024551000065,-5.927786311614604,0.32569004618171093,12.730348766541214
19.313909442945505,-4.315282672420104,0.2640505161694678,11.358013341278319
24.067922759656106,-6.39827055614944,0.12709169062426753,12.622823164119152
21.171478083677883,-3.693080773973459,0.1766883148508408,11.84336031429071
22.37103089740937,-6.452351721722614,0.20412602588463022,12.3490826149184
19.067139337989612,-2.417567959129001,0.22087140947028527,12.515442597435813
19.247020077178252,-3.917929880273615,0.2070767635248084,11.98912035646012
20.9042182424561,-5.567208390591014,0.18558783757601668,12.447063048615188
20.88348159880342,-5.495240852305921,0.17191444809255418,12.57918218624891
22.536736633221874,-4.701983904360848,0.12030289851928719,12.283205407473178
23.225000909293044,-6.000388983451774,0.09114702895404284,12.076002792609671
23.001869887917675,-4.824385106149772,0.0919464590904534,12.318093174216404
22.217008277008567,-4.741662687855624,0.13899141279367594,12.2086813009522
22.043210626573547,-6.831124526113389,0.1671254133351682,12.503430046538279
24.01138697043755,-4.263891623126699,0.0282847510205142,12.381825177325979
19.810997386906116,-5.989541665055207,0.2656429482219648,12.230949337266445
18.831118507046895,-4.5268069217882045,0.2772688033924604,12.262422012005997
18.83936682532791,-4.908403003354697,0.268953069204663,12.258864203472914
18.97513415982656,-3.610722546977172,0.2780251997005541,12.168395608624072
19.62343745120586,-6.748159835121153,0.30098108379806093,12.326799607042531
20.776525039896324,-2.7375057980536406,0.149287469298492,11.848696349036759
20.721009825403673,-4.548028386422433,0.1316345658096139,12.425227264986862
19.0134095278141,-6.128287527101371,0.22470644616102856,12.055879566720435
22.491358274598195,-4.9268857395881875,0.08557071856214185,12.415902896875071
21.42673184726727,-5.334323874016179,0.15152023636797807,11.952624437889455
18.9633814169717,-5.036112531806946,0.25092409878752336,12.231005410187514
19.985957177109746,-6.739278578846929,0.2967037735158797,12.153189692356237
20.277429083590693,-5.436302506389645,0.259660076123475,12.501058358245164
20.926404415038206,-6.529502700224849,0.19926503751622854,12.00198458411427
17.729238732555505,-4.226593256058498,0.20996883815250203,12.124435722800252
18.31255018661724,-3.888619026872625,0.23363074987230853,12.279704694935324
18.320111674386066,-2.744003462655926,0.25936445179108425,11.745605729216914
17.878592882859717,-4.036046180823151,0.321596792020439,12.49008210450375
20.463370335118714,-5.043773623077828,0.19925499612711978,12.379482003862194
21.134530813118257,-4.431699488606619,0.21490193949878642,12.227601695978137
20.91024906323024,-5.437078713757836,0.19312617256936998,12.250431156447585
21.46951500360663,-4.1501296065726025,0.12816314168119455,12.376747669645663
22.79770943416533,-6.158405119274142,0.12849496735918542,11.747888236133853
22.775761262206636,-4.297772719160881,0.10120041530541443,12.238259228742061
24.443872960373856,-6.132878894511798,0.07571589482646823,12.494553589425855
24.443872960373856,-6.132878894511798,0.07571589482646823,12.494553589425855
23.008371969816245,-6.8993280459604245,0.14121757211559402,11.178960607681242
23.714607211842203,-6.811872565525042,0.18473981093795366,12.201261852470658
24.626417076560966,-5.519315437703571,0.10069619915974111,12.176987162136735
24.024827813431287,-5.791700935116757,0.08372366948517758,11.941014806632179
24.024827813431287,-5.791700935116757,0.08372366948517758,11.941014806632179
24.421251557731495,-5.471050165812563,0.0778847594033287,11.570805907327438
24.08944593143046,-4.154201456106395,0.07480738152917508,12.592309467577268
23.303915464688185,-3.7827961185168153,0.05588126502724411,12.682981441907357
22.50055183852449,-5.192260113987653,0.13166782669918017,12.283402906156242
22.171368385080612,-4.376010886292569,0.12522724617716008,11.939097006317525
22.346101085205856,-4.187810964253808,0.10927091884136719,12.160387934778655
19.94449105892042,-6.465725041169087,0.250222653969484,11.748835567371742
19.94449105892042,-6.465725041169087,0.250222653969484,11.748835567371742
20.330585675610838,-6.433159749864131,0.2572289768397276,12.310408353123716
19.341982314560372,-5.980941578053797,0.26140759691975385,11.932511022250917
19.478106740096834,-5.217345604641667,0.24723551788286233,12.231038888280278
19.351722632038612,-5.925773169625799,0.2509883957303384,11.487671936536172
23.21269127866103,-4.3878019066156115,0.0875052295679075,12.701776075680675
21.767970513482865,-4.1605730635583775,0.1554831917326983,12.274875252662579
21.48969213933052,-5.2842396612598,0.1489421090260046,12.595260080826318
21.628645066395993,-5.230396602553517,0.19742970302323037,12.665224138232924
22.13813467089282,-5.188070789058787,0.1821001342995028,12.326486450773096
22.110760301594183,-5.004781971335726,0.17461641827942825,12.210696898048289
19.883297056433385,-3.987362627136566,0.16966962197096058,12.000684195352523
18.98097424288105,-7.973840248362236,0.3618333032430503,12.544066172425122
17.78121887624927,-7.4626462085069445,0.3657846937952378,12.13174354873132
17.515191730149684,-3.9684649472165066,0.28941026456268365,12.535976254065716
17.681241524538255,-3.362441888378567,0.29659585650453085,11.782582186087218
17.681241524538255,-3.362441888378567,0.29659585650453085,11.782582186087218
17.681241524538255,-3.362441888378567,0.29659585650453085,11.782582186087218
22.20232054294949,-4.553730749256079,0.11401219575881508,12.467869213516813
22.612409536377875,-6.181920497170675,0.14073124678168164,12.372197836556285
22.4661935350147,-4.883652202912251,0.11437116572878608,12.056054148347227
21.921202605870857,-4.926033720418707,0.16337984842053507,12.219773752937275
21.389130129087878,-3.4802994196071313,0.16316520533650408,12.1408761537107
19.261833754711574,-3.4324841276639404,0.18897217497008897,12.035074027632074
18.860753158889327,-2.1563663496090317,0.2548110618734513,12.486704863366118
17.59613970672325,-2.8801927837483365,0.22633222871536957,12.041301545003591
18.50104656158768,-3.366219710462634,0.27443341933381055,12.10036800634379
18.834653114898604,-3.43371853531799,0.2256527567217059,12.60208270997234
20.024432696751948,-3.9496875675929535,0.2288917361508145,11.75866993654984
20.001306879053395,-4.193177744771977,0.20194381586980403,12.380047740463326
21.925348917679727,-6.476288611949595,0.1889915896868511,12.388929114729235
21.379472138374766,-5.9638383553395995,0.18289934727612822,12.512166841696605
21.270633285251265,-4.895319661948807,0.16130701459935842,12.214729246547622
21.912045285328645,-5.261686692669008,0.17552153261630687,12.396894839689105
22.152135473843426,-5.482274491494253,0.15339233070755925,12.560690128200479
20.518335309949087,-5.37298903861584,0.19978220315324532,12.414305649191201
22.373932910361685,-5.467638263825018,0.13078154875819065,12.414705780996991
22.482718529358234,-5.278499664330032,0.16698038839154494,12.53062035735721
21.85714401219228,-5.367824770623083,0.12566444942675029,12.36919384536477
17.165898360461124,-4.20689319039994,0.3565539057937394,12.396084791242616
16.44151931924757,-4.473934831553196,0.3661772743446605,12.4929090629523
17.02867342003712,-4.71732877744036,0.32311625970331287,12.17685972041019
17.522509267981246,-3.6892471396531326,0.2552726051435599,12.386535569020326
20.30727753218159,-5.995988550730241,0.2335368087643845,12.436384449821299
22.280660245122466,-6.526719598681488,0.1299313171045192,12.407150529046751
21.57047211128745,-7.007048366500322,0.19509751960435118,11.988922575665406
19.751472043874195,-6.430431352631157,0.2660245208674606,12.359771738872814
20.49263557409006,-6.1795466056685715,0.2412838584148179,11.861536175972148
21.244614297404247,-6.808139553347456,0.2328135022297298,12.596654156930706
21.823750402114083,-6.189283506754961,0.17704042396948327,12.647646025411966
22.745398980504696,-5.859794459865668,0.149006562447736,12.709752462089522
23.999995314531112,-5.3253785517762395,0.09998264291373557,12.706576416133814
17.25763609341743,-4.517286120160965,0.29393147901642175,11.745050052461748
21.080538022217883,-4.8117085076346005,0.19902254934524674,12.39651403673082
19.79828868842482,-4.8022989719080735,0.20889814430262132,12.394492943232475
21.059472234213455,-4.6654822631162975,0.18061427850166223,12.55476816092892
20.810078001800143,-4.9352730640084195,0.17896769412509425,12.390773404744603
20.817889161611888,-3.2213362561400256,0.1709692564090123,12.332156163410048
20.524846499730568,-3.507968319698231,0.1731789406908085,12.197786873363757
20.81341929707242,-3.340169046819511,0.1951566696868544,12.298928007501802
20.76543354339205,-3.362543493960982,0.1999234105919222,12.38199321591039
19.92907004280204,-8.122488734408336,0.24800543527546276,11.861389122382699
20.983560368703834,-7.349797058089926,0.27366748516045003,11.90953777903033
20.983560368703834,-7.349797058089926,0.27366748516045003,11.90953777903033
19.8612702017647,-7.5383934431368615,0.26987847203918675,12.384068885478987
18.408117236075388,-3.919463197402787,0.2641518294845412,12.546518925795127
18.856997581584622,-5.1158485165402485,0.27657699568377714,12.343597037385296
18.40731783603473,-5.140958395281889,0.27193262126060586,12.383312920931749
19.324657450992934,-3.9088118391392808,0.21768318073078896,12.054733877089253
19.414466973405297,-2.3095797472421924,0.20389030667576064,12.155080075622994
20.457541396633736,-4.738395208053365,0.21462180558858107,12.30318550343128
19.904603516440954,-5.176816137205785,0.24396242465098852,12.10649275738886
20.005854470286277,-4.623053211337434,0.20623499665510922,12.053247305511364
20.965950950550493,-6.566099396350834,0.21091209902424018,12.12263673915966
19.50902553872884,-4.139650641432924,0.22375015129419515,12.001526444650601
19.860916578708768,-3.852363063509314,0.24077159578680174,12.283340012046603
19.610385568999078,-5.063700863161385,0.18518377845833214,12.165117168077094
20.89474126439162,-4.231602480392732,0.2333633762098973,12.721953344600628
20.269554867998057,-4.7957240075370775,0.22446461093096445,12.453484239703295
17.99133895195402,-4.807135381553762,0.30292152969238006,11.736035218677472
17.383396885801996,-4.73672116770446,0.31778376693317323,12.341833589252065
17.488267869824128,-4.696368981645728,0.32676988951292135,12.432518948980093
17.488267869824128,-4.696368981645728,0.32676988951292135,12.432518948980093
18.085525347078807,-5.487354150068416,0.35403613569331516,11.630470309474532
17.91174143892661,-4.646363190955542,0.31463539545329033,12.559112284118342
18.556155236871227,-4.620918556803814,0.2930026146031075,12.707630067086834
18.754190616501457,-3.1677298692149325,0.25950832822438535,12.60669265926011
18.663451541826557,-4.061657344179028,0.25204165719861005,11.922161559683085
18.235134649450313,-3.4931563806098755,0.26880315994728543,12.377956566961782
18.366390100430124,-3.6589892321518236,0.28568599465929817,11.870147670287897
17.844428043236665,-4.028628665744661,0.251661739223089,12.47818208745878
18.54694540648875,-3.546767919622499,0.29362434321750736,12.176114086630722
17.154274301056518,-1.4074235682631033,0.19739856414724635,12.173994137049505
18.466062036210307,-3.0577420748298643,0.28745899402168973,12.243757738451237
19.476242597742594,-3.8402346960623253,0.2581707056697747,12.130877023321439
19.978328148928686,-4.476236638800055,0.24415617661277392,12.16404230694177
20.383892780992696,-4.501759917329128,0.21576770044415275,12.453532901738395
21.99458099508066,-4.966053983102306,0.17502462525711526,12.50716946094729
22.270952092429617,-3.6649715196022554,0.1365492872735313,11.637146431382174
21.778233723793015,-4.627735183618291,0.16867053810975657,12.155263369565622
20.017227944364283,-4.745497270944421,0.2220372093162363,12.277836030876522
21.09787251968318,-5.500763775036528,0.18568030366089927,12.06885849323514
18.93004696677862,-4.4156702393508285,0.226696680858781,12.104484126787126
18.990339854999185,-3.785896222153726,0.20978105907526234,12.416445629052232
23.121240421312798,-6.758811537214723,0.13039748657821054,12.097957246232221
23.239875450469302,-5.844005839713474,0.11382312657266634,12.693139066653337
24.78163932568098,-6.270739758310219,0.05786654640028497,12.196670699259238
24.78163932568098,-6.270739758310219,0.05786654640028497,12.196670699259238
23.983068926043043,-5.409402864003541,0.0701403776370759,12.196694668246801
23.814515022525914,-6.0421533758523935,0.0717819433014439,12.011203830589047
23.731949061565295,-4.879432234125164,0.058901158839729545,12.280456006648308
21.617164573491827,-5.975791708784321,0.16077707892208443,12.544332870458012
22.15826793871045,-5.289505124904241,0.21305421634133795,12.270381266275924
19.650328233009393,-5.590360047696239,0.21040872781708383,12.407738370749506
19.630766932572914,-5.8500985592136345,0.21549714435830805,12.411173402056507
19.09833190746617,-3.6717414144349085,0.23441322261142994,12.516067527873004
19.044546494143543,-3.065230355970645,0.22568659659252918,12.528711496666128
20.42228593458358,-3.0811507969341805,0.15156823191847113,12.463809362366877
20.87021218349975,-3.726576332295956,0.16962711152704174,11.967126638136508
21.079906206580734,-4.909292332754553,0.16049123106016813,12.095820328046344
23.177768450537474,-4.515521504920112,0.09120080857330404,12.05134600283928
23.235007890838276,-4.333638518768185,0.07504806203889303,12.116981915907584
22.32970652183096,-3.2517286139109025,0.04642669655819995,12.2558661162967
22.961418318626343,-7.259483240515247,0.11809080531818508,12.228162759850505
23.39261247884361,-6.586812918427635,0.13024969699727823,12.340019592980617
21.08646777463952,-5.564261856182765,0.2111799406484575,11.844404353658101
20.744602576901066,-6.788433503685827,0.21467328437997976,12.242596450965317
22.102241730537024,-7.659253935410674,0.23074640463397336,12.316100423547603
20.72201872289413,-3.422007970399405,0.1510621419352193,12.108680366359868
20.272271250752006,-3.9093291544845217,0.17551012634956928,12.154306220106987
22.303798328760383,-7.959131476488259,0.1950293461063116,12.362098309342928
22.454893589666124,-7.2227601820160485,0.19939007858890873,11.874933170459638
21.204545786178898,-5.7558630521190794,0.17706103565942188,12.199448456135867
20.746665140640104,-2.995183216011746,0.15607672885661225,12.242406376048065
21.544734948287086,-6.516868332654926,0.20935864290147485,12.510458907653767
21.277405609769687,-5.701676084181491,0.18146837293514756,12.551156746243043
21.201025175931026,-3.798769330963266,0.15396219457116297,12.66428621158022
20.93555614534831,-6.094365306088035,0.21134453889765437,11.942534215393833
20.15062631176187,-3.38316891882419,0.18263569695357915,12.239629863120243
21.124514597521255,-5.025784485573376,0.1882391409377612,12.606312401384052
21.58315943445539,-5.202243769224871,0.17309999433575238,12.045391783238975
21.764218758923796,-5.133056439840439,0.14928335163781525,12.144481837914752
18.9507888292034,-4.572255733137497,0.2770195851322553,12.507686522220627
20.655205729141432,-4.744431808911558,0.17786399062090885,11.562598031290058
20.618688281207316,-4.550821009984008,0.17217943051269463,12.398850769243337
19.986266036750564,-4.862519383936789,0.21639107346788375,11.799085626206587
19.02987676625188,-5.036212256898624,0.24396080203896683,12.274395812058506
19.934371779416796,-3.792389408663647,0.22493535715953844,12.34204277088958
18.092936491477538,-4.908086499346667,0.27828214136732543,11.50612517868292
18.454611321827493,-4.66304140189666,0.32277013766725576,11.403117072786387
17.64307845868707,-5.750522444956637,0.3580320227800499,11.630447729530944
16.385479306083923,-3.813836912004514,0.3511429158716824,12.706358272786877
17.222866395212172,-5.354780208759317,0.335463899884475,12.569430816163703
20.481828129752152,-4.645831035054545,0.17844513587548838,12.752872020346333
20.272057179107197,-4.615769623196953,0.21345172487969136,12.743583710252556
20.755083680980203,-5.400804239446566,0.204771544127726,12.747392473924636
19.854185089435767,-4.451067258829273,0.2149909966034978,12.737796834949437
17.190840486186726,-1.9473525236175386,0.2573210413383112,11.236921783144068
17.190840486186726,-1.9473525236175386,0.2573210413383112,11.236921783144068
17.655381323800626,-2.9116372076912356,0.26840255122257656,12.591579586329146
19.375400069620643,-5.66740149403317,0.28397331885683047,11.747770534709142
18.34895754789591,-4.130961981250235,0.28925294473790397,12.468306760963833
21.895636779396142,-5.932951131315205,0.1838709094693537,12.149352137342804
20.732968648594106,-2.858260843497076,0.1385564090466937,12.092517471336782
21.090950520304805,-3.9907825487327413,0.13842564622603803,12.249958436838464
20.926283489939145,-4.092185756269959,0.1563735380638515,11.917023519479457
21.298658160811026,-3.4003311246441457,0.11750951928590538,12.466496246800808
22.996754025893466,-6.117229504023326,0.10743857405759316,11.760897078122207
24.543049872560204,-5.614816793216363,0.11491046762530013,11.470520139797628
23.77596887079152,-5.511747919919579,0.10263534072042615,12.052507479974032
23.09630829165842,-3.9094556894092554,0.10839464001673878,11.691949221421748
22.24829732328688,-4.93243620541141,0.10063751198712073,12.322936334692926
18.925009800140117,-5.1565539365561905,0.26785276322747514,12.391915744450653
19.179283491117616,-3.3113738504253867,0.21936459475981934,12.704340303467118
18.466562214943508,-5.161714900088181,0.30706862972720134,12.153544833298694
18.59015199601701,-5.676158855883472,0.3244213487850744,11.899874875120142
18.59015199601701,-5.676158855883472,0.3244213487850744,11.899874875120142
18.50154625960547,-6.0629373926461865,0.3313192439898233,11.526868480273379
19.39361094392115,-5.219350084493334,0.250136052161661,12.352518618255967
20.909725713745313,-5.284491608685398,0.18099472990412335,12.351926330307112
21.3092465789735,-5.104973816496209,0.189685757980294,12.115304621373017
21.580787728391567,-5.632755978123897,0.13489360621458832,12.67385349928877
20.558813784938398,-6.014040283170443,0.19164336461168946,11.914109153585546
20.558813784938398,-6.014040283170443,0.19164336461168946,11.914109153585546
22.554574668036054,-4.823008729148851,0.11456234327009594,11.914235009482326
19.449850046477266,-4.582433741046214,0.23994105718342695,12.536528883652435
18.454056787841534,-3.0785121163364515,0.23777165044627974,12.696788842664027
18.247427025867612,-5.332756713273067,0.3058779114108663,12.753158998818318
18.574573471040402,-5.7274440478289375,0.3233125635951727,12.760291538390431
18.772018623503463,-6.1926028181334045,0.32311009209653585,12.75505995231112
20.193166781208728,-3.599946880141892,0.18752085919497888,11.155398893277155
20.193166781208728,-3.599946880141892,0.18752085919497888,11.155398893277155
21.063401380130625,-3.9270051860131634,0.1956432698681975,12.631572546158075
21.11642121978782,-6.438367257012288,0.25552151695531516,11.843733270727023
19.918440969605424,-4.348374339340452,0.17750002674623688,12.324920763540842
21.185182368514095,-4.687558282766359,0.20263193172898306,11.928438125078065
20.690482395509697,-6.045644431407249,0.21120312085531037,12.399657661116226
20.70088840144618,-6.2804802299833185,0.18673254707972758,12.086144365796644
21.342626383144736,-6.322528233220676,0.23724238440764406,12.007284909423465
21.969909237274763,-3.103073686835464,0.13301378098574357,11.899252763567944
22.209821547716857,-6.063253116595661,0.17827256818996481,12.652986227079166
20.65309682585066,-3.0376386855832704,0.15415968493625615,12.529536919374113
21.657911278929006,-6.218822480545947,0.21309517356642205,11.65834243346595
21.657911278929006,-6.218822480545947,0.21309517356642205,11.65834243346595
21.657911278929006,-6.218822480545947,0.21309517356642205,11.65834243346595
21.166191256072523,-5.5662617224210384,0.1933143159661079,11.783485327334486
21.639924200177518,-5.567751148214608,0.23054496518753986,11.772137507339178
21.568220986488694,-6.0056762242314985,0.2248656855552129,11.862035913813516
21.37757102713299,-4.701524833563591,0.13669852669283541,12.334738518509276
21.708041151070645,-4.714764670698965,0.15512445828759028,12.636111779661535
21.803421201660594,-5.63376152443597,0.172073315621553,12.122454464190229
22.437923343699083,-6.028252670719132,0.12140229555072607,12.529843825382148
23.071678810120275,-4.973876398786435,0.13128622299161022,12.323906149933435
21.21825391120236,-3.4156507577664996,0.19812058303372354,12.580692280871752
21.096843881902682,-4.783719258359503,0.19833244912718362,12.616482052300455
19.54147764892163,-4.289282407892207,0.19421565351527945,12.6222476997553
20.21296893647751,-4.2397857826108165,0.20974498238350614,12.726736345971299
19.836029481826973,-3.6463638266404916,0.21842471280012404,12.715174946950773
19.836029481826973,-3.6463638266404916,0.21842471280012404,12.715174946950773
19.307760001440258,-3.5547664099227636,0.22187658602567198,12.713295088539464
19.46494851908675,-3.3836172337818082,0.21768578126951144,12.721945173234257
19.2772762618404,-3.9947664770397897,0.2163151165664678,12.67493781299236
24.293887826209104,-4.725385723656999,0.030968881713366772,12.713575012464005
22.36605516213419,-3.6478848417378953,0.08010875147068883,11.824464518013311
18.247967785205436,-5.5230932165711994,0.3202796374299244,11.709264678940523
20.157797006396258,-3.6629727072456575,0.2098063839551461,12.63727517726534
20.642152448903968,-5.370123121590499,0.23012972881055388,12.419422333948539
20.269409348585913,-6.94518013688584,0.23676130608210588,12.264989108918464
20.47259982840044,-6.151497362869382,0.25850337306029303,12.076103952435238
22.074009222513656,-4.8169215118202615,0.15831023750282638,12.128691760812629
24.665083120020874,-5.7839317873904115,0.08619954830698037,12.759557095865311
23.7913315354751,-5.632689948786051,0.04985056711132416,12.635524007412132
21.777926277115803,-5.065566413281067,0.16948984923376825,12.483538870616469
20.83730546680573,-4.926666702941441,0.13472415880193217,12.61915638846254
21.14980998722313,-5.593081097776282,0.18788188355660537,12.680663667555203
21.42539827567854,-5.0801070027907365,0.15676640546202386,12.444344607521868
20.237494756223683,-4.9515666664599,0.2027526028712674,12.012458185466642
20.237494756223683,-4.9515666664599,0.2027526028712674,12.012458185466642
20.237494756223683,-4.9515666664599,0.2027526028712674,12.012458185466642
21.840269723001803,-4.758021796611903,0.15140113194451008,12.008914579362994
18.39485375343235,-5.341842042204988,0.29298700375114983,12.058691719565484
18.471904576821537,-4.522761791860933,0.30223006792683366,12.073924930562953
18.56311840935828,-4.441333122792509,0.30685787707778445,12.181820468107267
19.551942731309786,-3.8018179232386005,0.24803289836784814,11.701061642171828
22.825359753210144,-6.270302570438608,0.12015384835782195,12.03633244011655
21.030056235902705,-4.557438500907818,0.1872722343463442,11.989877325539968
20.21954775599084,-4.98924457941636,0.20838620830063634,12.468976408578015
20.16086911505843,-4.5934444502547995,0.2086600199325328,12.225914416316515
20.71196086728371,-4.938910812465393,0.20549085567006728,12.494203555484768
19.143423374887984,-4.700351728308249,0.2338840487874205,12.2936106181611
20.788831301288234,-6.145134099198928,0.21494182140650858,12.224524642770778
20.935390646955753,-3.4459707079312865,0.16800922649307595,12.011542656493754
19.0224527647701,-3.944414549093837,0.2259330118473536,12.105161902756347
17.879452499290718,-3.4639905388197323,0.21723481745587084,12.27530811326627
18.694327281483012,-2.476018270131074,0.23638268491860367,12.472792750565803
18.33366632543158,-6.872680469271804,0.32532365864498175,12.445981270306472
19.009486477729745,-2.2891993824125154,0.21452133849435343,12.564448549617246
19.81869742050551,-4.219878831792993,0.21183264889004869,11.831368237107604
19.983348436523855,-5.28167936096502,0.202860546688863,11.70365732834741
19.060882565041396,-3.7505114301841456,0.267176407220719,12.428327188368943
22.411299302271832,-5.808891168708383,0.15312922620269126,12.350051473619947
19.271053507128755,-5.726896165241274,0.27042610627873537,12.214364736455588
20.745931003621738,-6.607401472469163,0.2401331218123265,12.386401059894983
22.193564996003076,-4.139689772445843,0.1256000183231316,12.645779119305374
21.210637211414955,-5.372295490902835,0.20352000793727837,12.698707215359066
20.188643591857115,-4.469149004093896,0.17298487953244296,12.103748135669967
20.188643591857115,-4.469149004093896,0.17298487953244296,12.103748135669967
23.86070532705181,-5.4875899426395245,0.10343199148426906,12.065273596062953
21.155792773040506,-3.889746892600275,0.1695896377972773,12.202967768571408
21.03956697316728,-5.483519074542084,0.18060058852273764,12.68705950318833
21.44855669282594,-5.826981632306783,0.21647928810289777,12.621178762002808
22.69730289033833,-4.386627622405862,0.13928737861210216,12.419159112222127
21.1860857424301,-4.7576983458240205,0.19767652822520815,11.682041224184204
20.65053774655,-4.46962390311281,0.1638524528080436,12.254361149583433
20.09485822183981,-6.2050380337702045,0.20945348483946313,12.201025955156467
20.8743691570668,-4.035078993538659,0.21858270116283948,12.195054313998478
20.543744068592492,-5.823526060535411,0.2115429482891931,12.476384628998083
22.509604205906292,-3.245415164282984,0.11902139891792343,12.567334776126476
21.640798809030784,-4.213603686019189,0.11895936419184765,12.590614760418422
21.966682139279925,-4.004581842319003,0.1037968528829575,12.670927848131342
22.0995131475751,-4.237922083846417,0.1307709641791913,12.714731465736662
17.817350992463496,-3.86348751255995,0.28323853905222596,12.601142390925663
17.848553835333703,-2.6446775797056516,0.27939063088475186,12.559098407774046
17.912613367546662,-2.466124398191025,0.2575471782171169,12.605690358944482
20.198405395275284,-5.349535542655274,0.22176285607725404,11.558333173575601
17.671304056611767,-2.614386136575786,0.2968879105170205,12.595040642157228
21.423943891420517,-6.81140758588858,0.23388153636057518,11.516789514635557
19.989212211149006,-2.8807816409356444,0.22119787684591527,12.589158169852062
18.765667947153908,-5.5942166540353,0.2394782671287192,11.655359394616584
19.20112717706687,-4.338138318336541,0.2712310003072282,11.709613488235606
19.556206687883268,-5.223059688901693,0.27864978604606017,12.169933122018437
21.55859844385698,-4.679777115661985,0.12107233543894966,12.171997171163532
21.334422882289328,-5.027099398219625,0.13409130487932172,12.311031804703186
21.322859048443508,-4.024638317342079,0.1291699317126955,11.313865824544889
21.038984288820362,-3.3469339015617656,0.16479578642146858,11.700511767384363
20.883294957547243,-2.5894872748943585,0.1311595960931332,11.911129805000312
20.883294957547243,-2.5894872748943585,0.1311595960931332,11.911129805000312
20.59999640470021,-4.499703138660834,0.17999735916545795,12.220942232071698
20.386713427278963,-4.54222573261228,0.19801260552427913,11.738075970557524
21.915100825321705,-5.075981214708198,0.1385389858989882,12.744607133054517
22.4505826764229,-4.933662059045744,0.15163678943497608,12.030699666749127
21.492688040693174,-5.7675068974900725,0.19024894274729096,12.512893763763115
21.430043025754273,-6.031878849360775,0.20155153026664108,11.817045878798316
17.524293489536326,-3.9366321996491775,0.2952832528811768,12.10419715776531
17.524293489536326,-3.9366321996491775,0.2952832528811768,12.10419715776531
21.16856691568947,-5.167249537683063,0.18761873884569014,12.012587245105056
21.19396491389301,-5.478568213746886,0.17600972520077426,12.455639767919564
20.962757700040616,-7.116123061560117,0.22777336892002997,12.08471266110159
21.355317986684828,-6.489678471749605,0.2314817311987643,12.346806890130877
22.370080322544098,-8.406627307832638,0.2041336924037276,11.992621549334661
20.157713964665387,-3.738124651682703,0.18660086685038055,12.269896861279818
20.281324506396558,-3.9487140558915677,0.1769240268445357,12.352126998715143
18.91289660624666,-5.9330339167974975,0.293976738868808,11.964486183144281
21.0015886252946,-3.4581853154331177,0.16415629912314017,11.74481994946446
21.034224589151073,-3.799830888572878,0.16320401100723084,12.259729192488258
20.89812101666221,-3.7289152729893167,0.13384952453130455,11.830960066619236
21.31871838320147,-4.13557260972739,0.156753689537701,12.068770476797958
21.35947743854232,-3.8874154407126205,0.12912007886358012,11.975916782785196
22.350800671258362,-4.302591434704648,0.16221921641073903,12.392410288014949
22.20109744026693,-5.932204147854856,0.15724368850631845,12.47882038430924
19.76511703022136,-4.120294991934997,0.2363647039666513,12.167415375490826
19.92918152362927,-4.229861173800895,0.20889112531293672,11.997073755337478
19.665255147137113,-5.319639673586567,0.24091332419331596,12.429812749043734
20.653120228677647,-4.8834755227312465,0.20601358986551147,12.52584468023614
21.645862723529667,-5.755142408974016,0.19713385793045157,12.743629187483547
20.316645518282233,-6.900432848514708,0.20776456425479897,12.691467935742327
20.079523984921956,-6.398597294533672,0.22093996885183434,12.704466414558096
20.976799864921254,-5.962462006839272,0.23610824879026737,12.666630394026788
20.30211272051712,-6.099686796802606,0.2386938097885853,12.144528358975112
21.35947350028141,-4.740726630338558,0.14043838024936847,12.518853767188547
21.00577869938249,-5.349021792580331,0.14537919405289196,12.680215660094737
21.656662615488386,-5.612281468622386,0.16736661266206682,12.703706508518462
20.789724881455637,-4.830055272319054,0.15118048886350358,12.471454248032133
18.674315168602647,-4.517264053085156,0.25351236022874996,11.71473076053768
18.982040828430765,-3.8000556915937063,0.26106102260920444,12.08218488853592
18.51579298347032,-5.7905249684839895,0.27629799634990954,12.424363044035399
20.249539944259688,-3.6429809484998996,0.20876893306657368,11.94834175094439
19.899476646294293,-4.324823016015084,0.16694964441536697,12.513231336809902
23.333196218363675,-5.971398534422973,0.15372162905007736,12.590212094946166
20.493561054817096,-2.459661655301579,0.15487828362980965,11.890890773400352
20.493561054817096,-2.459661655301579,0.15487828362980965,11.890890773400352
20.528436613274938,-3.7555756080350413,0.1361311608944157,12.493522127499245
20.707903991241913,-4.412365773944699,0.19854577547731597,12.326224987097966
20.784039601533017,-4.367144108908159,0.21870695249971958,12.29586654590725
22.318614559978815,-5.8742441761807225,0.136270363709349,12.50052356628213
20.05365485510724,-3.890615065990487,0.18318306170959392,12.32330519580045
19.419291162727188,-4.525552325650302,0.250367629775095,12.45173161199265
20.381695238674823,-4.671690693154913,0.19924407791757812,12.363693667915912
20.10509983820995,-4.851393827547591,0.2311855005918326,12.414354929003016
20.068000757552564,-5.78696400642448,0.2722106883868629,12.329864384444734
21.122208107042578,-5.273951091253354,0.18285543131398058,12.694160995116189
22.34852601950894,-6.829505968613562,0.1794116763377908,12.496810642361494
21.79469051790994,-4.355424812117734,0.13829007684345324,12.665284448125474
20.78018873524833,-3.426127988842574,0.1412130682913673,12.616419508300801
21.24059033785459,-5.1745123850971435,0.1748165208035898,11.606985854471851
21.51285285779498,-4.998637154687683,0.20763159234452977,11.3614264602256
21.5605574863645,-6.452957408304439,0.1835187164698378,11.08034769252265
21.563742641223392,-5.971694627812752,0.22945278747058245,12.382386294427267
21.672579910229825,-5.47873532400146,0.18429100470446644,12.424176194483767
22.1568644898405,-6.36677806786026,0.13284623145556673,12.098822688280583
22.80920095017266,-5.14722358871653,0.11533851684699259,12.340822203391989
21.489746996388504,-6.083591281847949,0.20408606447881153,12.340451862488925
21.882575943578107,-6.74213476122102,0.19522607612002582,12.575009155625883
17.101469665917087,-4.023266696566022,0.34743968512839535,11.874982633530877
17.231560902849207,-4.282190381797108,0.32141040613746685,12.480968579418759
17.028039073947667,-2.5601016207542,0.2672449338714257,11.859173856468086
19.55965178828545,-6.60477973297751,0.2905607166697642,12.277526837440899
19.31497725544866,-6.96597794810874,0.31793430608361045,12.452193839725902
20.180333747928966,-5.600929879649757,0.2707427948601646,12.179625509865044
21.374806410499804,-4.15476034242365,0.13918548565978203,12.068568554996885
21.97755369149503,-5.454480176608083,0.1590838474348566,12.35953247782255
21.50043575927553,-6.445083064521425,0.22132872758965697,12.187853405524825
20.786559672944925,-4.661859047387654,0.15072354222491827,11.830632146109295
19.89435834378711,-4.932299590689989,0.22136892702668065,12.29692637597436
21.139578481738642,-5.057545889804012,0.19699242583095677,12.226169871656113
20.81612770653398,-6.063765397633477,0.20050457151256446,12.574946792500237
21.111426390257108,-5.8224725258963925,0.2149572133993353,12.612315385753412
23.505759004570667,-4.968217255619475,0.09831844435440681,12.283411871185557
20.7069227308555,-5.8164120802333645,0.22819019328442816,12.089270280582602
21.024890546865983,-5.537825574880391,0.16875414283430126,12.486516341252187
18.942869740478603,-5.230597576832786,0.27758702124057255,12.248155112576912
21.850608211015754,-4.84163649940901,0.1423409690707977,12.24814279720138
22.253272257140132,-4.270425063781045,0.18150922572788541,12.475978940832105
20.8743781695416,-3.5652604880287195,0.09241573270616701,12.166511487264174
19.677128197714282,-6.442799913075185,0.33813507344440835,12.566237142506743
19.315296457182583,-7.230140884081083,0.2891548609063069,12.513663821920522
18.945424649759975,-1.883794553354872,0.19591334944420186,12.015696726217268
19.28490598952446,-2.1792072285946746,0.16058229626533047,12.62456695183148
19.79031431605645,-2.3686572845700153,0.2138742567674857,12.740901742048548
18.30819446606611,-2.0287297121602488,0.1856410739180292,12.714023692734695
20.868595055144386,-7.223075846006419,0.2700608707041354,12.39066867520716
20.868595055144386,-7.223075846006419,0.2700608707041354,12.39066867520716
20.395030854141112,-7.710826051986399,0.2569103472688679,12.523120652421783
20.7639871926166,-6.42591480006271,0.24506951424468518,12.042961677556393
20.741297872287777,-5.5378219575634455,0.20004876797383367,12.285279842241135
19.256318810148212,-3.1011745922546745,0.19248682589597113,11.894380390157218
18.91774807532381,-4.1888286570062405,0.25669853457668595,12.22255624527122
18.509488786833,-3.738020597736281,0.2595739451598238,11.926730202251958
20.834129234123342,-3.6910833452203473,0.15226827024702444,12.335212781153608
20.075256195226338,-5.812620793480275,0.2642338411291069,11.512479693413194
19.99395806649463,-7.088889835186314,0.2379538579456345,12.605437609180846
17.830623681580743,-3.318154295754256,0.22550928680658047,12.33258779365337
18.220935896572872,-4.252012005215169,0.24691761373185905,12.301615391615256
21.58935149074948,-6.057438065869389,0.18088550780074616,12.180062154868745
22.210734155735388,-6.558723712709277,0.1766049050438011,12.405749047281086
20.376906398395395,-5.365777482578843,0.22138567415510646,12.484840764182458
19.130976186670836,-4.823676530741445,0.21384609027793441,12.669516841209294
18.086841511717935,-4.001164950315572,0.29288835600228674,12.613218947170413
18.7921243367721,-5.046662557491825,0.30697146682653864,12.635570955206257
18.733372550886017,-4.71752532145439,0.22704686518387862,12.081705179286056
19.657290797387404,-4.235873860769368,0.23260192522188727,12.542519070761161
19.867596882767057,-3.076886801585729,0.150934658293488,11.599962748025506
20.26731912479817,-2.0875794928103244,0.18730759015379822,12.244047156374444
22.728567467153333,-7.218670336664968,0.09669524184096279,12.08545078521114
22.728567467153333,-7.218670336664968,0.09669524184096279,12.08545078521114
24.059239355681697,-5.817200824378878,0.1475415370204611,11.76028605417604
23.536339263726614,-6.848162195943245,0.12228897909409145,12.017652419805493
21.245866096278412,-4.723676142623276,0.17327081845902173,12.475896489651559
20.93417692041936,-4.7864645885598565,0.2030456439064619,12.21198851091106
21.069697376090936,-4.865504898646616,0.17589618928830122,12.235114051887852
22.133536080349387,-5.28503991390861,0.18514375815839473,12.361450589466447
21.536137685767095,-5.822602880765777,0.16935717626268776,12.43612481406143
22.84604775749854,-5.209723053265595,0.1007717275307409,12.1812579655226
22.967980862960903,-4.334065781966431,0.09843545971453688,12.087580704115359
19.935551819758647,-5.428012914676274,0.2217071748775038,11.972174104563361
20.657257161678345,-2.9095375411150854,0.1471658322675187,12.49663498889842
22.613380006289567,-4.84370191817964,0.11107279727413241,12.652051587450641
19.645155747968335,-6.409186338022641,0.2728840416671809,11.868685788190444
17.378335975740022,-3.118074531703496,0.30524131799249316,12.753493927382626
19.161994993610875,-5.074750171119076,0.22956594692479404,12.758358954132293
17.196758615663846,-4.134892395931983,0.2881641749017392,12.578441549072444
18.85785566545809,-4.107158977401946,0.23068560523607473,12.117378833750982
19.921559573004146,-2.8900404397860533,0.18282754735991177,12.220798230541858
19.812623482521538,-3.91316334437379,0.21002642339795935,12.35344302553124
19.98574760706643,-4.664240653890665,0.187072313058996,11.869683804140763
21.34476112116632,-5.476808702276796,0.16505443029234665,12.657044473771986
22.42849886615237,-4.725816900464744,0.1367965146306057,11.832901764821697
21.19461730015624,-3.579801090852374,0.11987543145235711,12.194130197597575
19.96040160102122,-4.282094995402336,0.1875548053645005,12.289228405599626
20.759961257835755,-6.160321364376874,0.23292591658863787,12.208440646652623
20.95462463694032,-6.122103552598906,0.18710789944977022,12.541174531494143
20.04141147289753,-3.6048567164419376,0.16647843288784356,12.514973641975393
20.47327873301433,-3.3237874544557267,0.1882203043559437,12.25702876788035
21.99882091056174,-6.315112959313268,0.1902323129651278,12.301924211196374
20.78526495951127,-3.3644541686058296,0.149680356805053,11.961553356618264
19.36431331422445,-6.382352001616646,0.29938842229670065,12.225973121159322
17.87528668691428,-2.4016274971903036,0.23329549171862943,12.447196254832642
19.723644227667286,-3.4987768660639342,0.21238516639533186,12.6342453218603
17.55832672018489,-4.676665214438671,0.3223989708365967,12.740699565997172
19.358804376122098,-4.087616597477379,0.21757628921547278,11.56017651912502
19.552364297708326,-4.107224300468182,0.21643953612418995,11.89376162542996
18.803209964233133,-2.916920204233511,0.2466763339027384,12.306169875917668
21.804607435098553,-8.107104467054851,0.25047159419172815,11.936992682178976
21.700520379628877,-7.415426476718805,0.2006254367842401,12.283059395304667
21.914846294934026,-6.827420070713855,0.19912968868627234,12.041358519276068
21.914846294934026,-6.827420070713855,0.19912968868627234,12.041358519276068
22.211216983589022,-7.88981776270239,0.19821032027785207,12.192087658834996
19.428713425435145,-5.550922826292284,0.2603021045906675,12.155380614797329
19.800174587012922,-4.814223194040888,0.22585752897091077,12.511237978155057
20.25969206210575,-5.378106341200835,0.2344143747278099,11.592603611047586
20.044480764922405,-4.7757667227684975,0.22542700159822304,12.255839893332384
20.75030102634163,-6.060085492886779,0.16502593274197067,12.397393654588578
19.30750867704861,-4.8003333788899445,0.21302794997076022,11.704510517464332
19.628292257451232,-3.8658358485903945,0.23081888994354854,12.455129679273691
21.46228825283738,-3.783018793038175,0.160226211465361,11.698829428304844
20.042137342784876,-5.156923617712991,0.24985776961333217,12.550799384547819
18.886355121883813,-7.299013134154151,0.2661919698964625,12.116630170230664
17.644725021303792,-4.136638185693254,0.30862031359813097,12.263264554708766
18.582446198460655,-4.532425364000751,0.2783376455715556,11.852865237926622
21.03590650444959,-4.930671406638255,0.21889472782778957,12.368606814258605
20.142659229161737,-3.776403660737278,0.18938529152672356,12.489390610565964
22.251183965242987,-6.130885059245574,0.15231481866759009,12.580668310027978
21.391978126117902,-2.9898216796729593,0.12276491239253093,11.972665710101023
23.640513726780547,-7.576139529171303,0.11593255118227426,12.133881135957617
24.202035289659765,-6.450235819445795,0.1293013609301903,12.103350516058725
16.808513341053185,-3.0327017834711953,0.27150891647993824,11.537122847920461
17.3407714568158,-3.859834417185675,0.33346037835967024,12.4096791591362
20.900315795390892,-4.758293197400697,0.20078593714653256,12.290378912262165
20.21943979354386,-4.750006118280348,0.21417340388438288,12.173782986451908
20.307921603080537,-4.445831815069475,0.21290377902541652,11.916340865756483
21.00711205601514,-5.8973735518029295,0.21617251673869223,12.304101928228462
18.519782709918776,-4.180348490661858,0.21157401919785954,12.313927040225556
19.114225260558065,-4.692010104837549,0.24549291072344528,12.227351029051013
18.615537011871886,-3.93003062165399,0.2783895795395404,12.162952270728503
20.11649376335698,-2.833895756818517,0.15350760724388784,12.376900463787386
20.591646891094836,-6.188551638724858,0.22229256474132028,12.690664981029604
20.618117140571538,-4.227081508613373,0.20240425573816923,11.71401596034666
17.777386968524606,-4.783801910275361,0.30263926443662653,12.324730913084137
19.650946177619986,-5.81484879874657,0.2972667690115842,12.082334196709402
19.370533353883413,-5.597950762680199,0.2486447779650724,12.039463111289612
19.65237410351332,-5.569243763023712,0.2929042926532894,12.218049406302622
19.550475116153805,-4.2958543367378725,0.27035533360886344,11.900191371165288
21.841737059435005,-5.03353295860377,0.10353767661604049,11.913219387984302
21.683218608169096,-5.820665730925271,0.2151576542581574,12.302014788342385
21.114882010943138,-5.050909665250935,0.1804319320006301,12.02228124402415
21.20052473035672,-6.0656319170698065,0.20052575143361437,12.175072647118967
22.102776839033453,-5.700950700695493,0.19126793606929873,12.151875538994005
19.68846676966929,-4.408813680437913,0.26373851033015666,12.484021453122287
18.724477347991147,-4.563180360378288,0.23908223869449832,12.593751466420061
18.667144560362445,-5.837365154815773,0.27141965614639657,11.366311299402788
19.175047937345706,-3.769501223840066,0.19879188312398627,12.612483908379444
19.414861019083546,-5.45506802832184,0.2456102938311643,12.395919560871956
19.04736561027153,-5.132712015626154,0.26345676674716345,12.399636788002049
22.397994848098364,-4.533072186774657,0.1172335059535795,12.230108803065969
22.5829876364836,-5.5514426359125855,0.12585329007794097,12.111038815019862
22.44393613491331,-6.922096656154735,0.17578413677575774,12.409515592008546
22.14485568342315,-7.687752369527401,0.17109751639057197,11.701076233174675
24.67837013770381,-5.585441932649877,0.012388608792285809,12.614703582785312
22.32921978656055,-5.890770695612281,0.12690866961161001,12.38555003060824
21.818779349925244,-6.744748144185955,0.22520830685625817,12.617497189535769
20.66172470200586,-7.510484864342695,0.22720060662330574,12.394064465233967
21.63329460518642,-4.41638867381196,0.15966625654498584,12.560299585587167
21.61534565196953,-4.933334115214234,0.1603202580379363,12.53798369194448
20.702803340153945,-5.65200281669981,0.20904371871346739,12.646425617822697
18.97460435932824,-5.066136736693059,0.27541434224071315,12.109056772643203
17.87772561914697,-3.7179605424429565,0.28661164814394186,12.012467294615501
17.87772561914697,-3.7179605424429565,0.28661164814394186,12.012467294615501
19.883964079402272,-3.39246060493995,0.19755441945788196,12.3259978157753
21.599582844433204,-5.889096032974105,0.19573040997741237,11.878666726982212
23.051352903491754,-5.221767716818128,0.10234107331630837,12.217290461905757
20.342035000526774,-3.2635009483510333,0.14114728894454187,12.343736562445306
20.684677128136364,-3.8644550034905354,0.18238114094023414,12.274313164661523
20.123961143945102,-4.055027331183787,0.25177367003730616,12.491952694821892
21.08052598621465,-3.943702973234631,0.20821322801506775,11.5420208587813
18.81977279034851,-4.912901511881444,0.2150226841373357,12.311269768525117
18.724933088543086,-4.95975627493628,0.21051696151606666,12.425368233647397
19.27585149599958,-3.7264442893715,0.2727048755700487,12.474480139360363
20.009680909517673,-4.570640528935916,0.25392803674212217,12.321511577490968
18.776349861428507,-3.5316582064859667,0.2115129927528462,12.381382717073237
19.624315766700462,-5.775971234998517,0.29627894573325436,12.426544859993298
19.892453157672062,-5.641377547301022,0.2527907867938321,12.604603423036012
16.59076604563473,-4.794967666693495,0.31725964365527715,12.53280517087837
16.887394499415144,-4.735695335336257,0.29528266034652983,12.437152252565802
16.607949541934605,-2.922602204584484,0.36399475069127973,12.574228315245666
21.539550648209953,-6.174155222551239,0.16203458661102407,12.56225535750918
21.41075057005472,-7.195212159997577,0.24200762510557053,12.354191642663253
21.47346779083346,-5.267039474058021,0.1420841613640988,12.045610062930399
20.084736347116458,-6.470997502207404,0.23526378968943476,12.128139674413184
20.65730782706449,-7.192162057675274,0.2858053646012273,12.345169358926121
19.99039565622506,-7.4040023000121895,0.2444065366564734,12.533206817228981
20.649601036061767,-5.093956976633832,0.1752072518700163,11.822098708491628
21.75418102080165,-5.898856977293715,0.1901913143809169,12.488409014864889
21.08322228944499,-4.225501738875519,0.14320411738148667,12.50511264126516
21.465763974767825,-1.381421235486692,0.09908034809102619,12.57985808459039
21.19474757996841,-2.0027884177575057,0.09989952143744522,12.634539870229199
22.224477724121595,-5.014490025081647,0.1207047000485518,11.755711712766034
22.398492231844905,-5.138103181248385,0.1243962057452032,12.617502195411483
21.822005082613973,-4.329057949909851,0.10142693678482131,11.502508995321033
20.231880097103723,-5.976625679675195,0.25150105567956516,12.614826998828697
19.20529238011858,-3.718867478116339,0.19495120120351486,12.678939063666759
19.724676018629925,-2.601273797769281,0.20773314586211367,12.649535849399449
22.33409309915559,-8.202933128072866,0.2440587538380324,12.66738974731757
21.211600367712453,-8.425825999875212,0.2409984419605172,12.31761854434084
18.696777906273656,-3.9602147126407417,0.2512256688763921,12.335455949727292
20.161246894218458,-4.661919511438444,0.2215860763169441,11.843049127196032
20.25019224000696,-5.028913320563563,0.22444229577414807,12.485382089171353
20.52482486870595,-5.278972052851467,0.18148367941586174,12.32970438264093
20.478894058986793,-5.708249257976499,0.2084621051537999,12.691914827232026
21.691558383537213,-6.495627679060916,0.20059771250700176,12.699776643853236
22.25736356402523,-6.073237204942763,0.131048933254259,12.509815866758204
19.072732751790365,-4.209015872783985,0.2741899788179194,12.145959116871808
19.070124478059107,-4.298830959825282,0.26146836481278496,12.247199147033063
20.49322852597233,-3.057117515059768,0.16486603640650047,12.009461620835353
20.49322852597233,-3.057117515059768,0.16486603640650047,12.009461620835353
20.108301739359923,-4.71818499602265,0.19827940333547792,12.046879996149796
19.37956964358322,-4.539296666754897,0.25744994322892073,11.796955744587631
18.63823297177262,-4.94925360629573,0.27432249845687945,12.220734982425014
19.831037316935152,-4.086347651274699,0.19153939140510529,11.94689723476871
21.214172796074305,-3.0064499712889603,0.16732190156544274,12.441184828203447
22.50657073678468,-3.0453549630213548,0.1019746127310115,11.964282303497292
23.71953027029173,-7.408476625973668,0.12204391836421685,12.732758668676855
22.597500693365465,-6.112382124772445,0.19376971833882714,12.732997862771018
20.68092207044862,-4.923507541843028,0.22455273937634915,12.290644867115713
21.603536217874897,-5.849938200020385,0.17667463876846606,12.102661216786936
20.000850827999255,-5.356813893638773,0.23457270242531786,12.036252385302413
20.88908597360819,-4.776936577403432,0.17838829270762702,12.458399009117626
21.106279001726936,-4.92128513815118,0.16848101548150965,11.598230018592778
19.86528321881756,-6.113265764485253,0.2331122285752034,12.7045660215484
19.553503083652455,-3.080470716915933,0.16889122992651198,12.727945288612528
20.49168343849054,-2.351581457804657,0.17652655822368038,12.74343022175509
21.00750792681952,-4.764326206291173,0.15887954236417248,12.710800986552629
21.97740716387858,-6.38053926689011,0.19309667849549067,12.382185175165596
18.703724464001393,-3.206776757692434,0.21639111875137906,12.473187530244777
20.57305751494179,-3.6001357143586974,0.17369187948234535,11.865325874537408
21.15458912311927,-4.627584770479631,0.15210973492211138,12.564635324388647
19.966244929729633,-5.88066543063913,0.2147397165453432,12.369465000076964
20.86235007888376,-5.37700347123737,0.24273751627352982,11.828949882953095
19.925067331717663,-2.921018138897526,0.14252717345251098,12.423679485533627
19.67203012761055,-2.134535821368395,0.15934576292711733,12.478419009270363
23.630537909130787,-7.683106017211726,0.1439568684143728,12.487068148268442
23.20459063657406,-4.762317033210476,0.07671295149316512,12.104207163727864
23.62422422515026,-6.124353306882644,0.0988767684174551,11.985687335137595
23.25258681730689,-4.599739985606536,0.07532408584128293,12.482802833231599
23.52161182895481,-6.395341318143681,0.13277844745753853,12.57769089546919
23.355760871000566,-6.567145984971451,0.10695397259496515,12.644458581328472
23.11694865303961,-6.505935101145917,0.10476616707032908,12.640493948394564
21.621182467654705,-5.203662701334577,0.1397005556438285,12.435923693114065
21.817337836599556,-6.795788231147197,0.20575790362950686,11.740126647111996
21.287035183451533,-7.877993721954252,0.1836315838009659,12.454789920177165
22.041503515244006,-5.38881959121172,0.10077221792175406,12.343656274097436
22.93144535228125,-3.426541864528363,0.10917755582214651,12.13318538195844
22.066189232533574,-5.166824199744868,0.12159234046528053,12.14639331147904
21.498722726453572,-4.659620644104394,0.163817579126134,12.546359085844026
21.28368044268662,-4.293226753074562,0.163819062098088,12.489471494109624
20.50154514803583,-3.726007948860045,0.168863621206314,12.273132070461996
18.713477083031954,-4.996829992978391,0.28835654005514594,12.071170936500422
19.82999331395909,-4.271359109532441,0.20117916651122253,11.98284613842892
18.46846181933797,-4.289534583414443,0.2668193358662914,12.159010283591643
18.853854792597296,-5.866042705166361,0.2395144497024863,12.20729870662761
17.518275670209928,-4.880915608731822,0.32681975893633275,12.273173518741618
18.416529481657513,-2.581421877329342,0.20643863894516176,12.00554563018206
20.420374658153907,-5.542339065479753,0.19980726202546806,12.28247936290414
20.972808310084346,-5.482667195569908,0.18892716190874634,12.447605585312116
17.543553713073493,-3.955310301506629,0.2503007928450125,12.232636178196985
18.122723024049836,-1.8286570819221235,0.2464861531153511,12.350012259538572
18.88580934098743,-4.024212613777632,0.23995447923235894,11.931009905239428
20.485534773255583,-5.129146653147014,0.23255075238933795,12.703509314200357
22.715258226656072,-6.76620063254976,0.19111751637191568,12.644528111691601
22.3312386226062,-6.550001974452577,0.14152396548763935,12.651046856554272
22.663041630792744,-5.426514039678629,0.13119050525242293,12.654262051496456
23.699849413376,-5.857757241784678,0.07104035745476374,12.263274893385812
24.58945411939372,-7.895635330158124,0.07132402302144943,12.4952865374977
24.920347960679496,-6.774591484020318,0.10546554401500169,12.64908009441054
21.380721747969346,-5.193722057219372,0.2066278746572258,12.725015525939735
18.50257863055626,-3.2888393455558447,0.233388460851285,12.594989325328912
21.761511576189292,-6.608647259846512,0.2042507630395739,11.603178097162239
22.01947860495673,-6.13643535412804,0.18086181772496224,11.752569879135548
22.377396608441185,-4.816237031109784,0.13315130932227764,12.35500167821392
20.266214945896362,-6.135125991739678,0.27277933640165297,11.912942333087171
18.857362666989644,-5.228361023521243,0.27660153589867137,12.374445316123909
18.54373796301893,-4.365987672569394,0.2621235009735859,11.901693774921378
18.630930202868758,-5.368922019219435,0.28082507331733053,12.17202870412899
18.29039243013598,-5.4868156162007455,0.31803491858784416,12.603875231665137
18.055106589077734,-5.861122288298095,0.3494277532376157,12.448059149204179
21.17012281807264,-3.300607765773601,0.12269821408140161,12.760411939406481
21.616684767708534,-8.094421436029291,0.22389261180890596,12.72522250485494
20.30045900756689,-2.4774944159342955,0.1516339334356338,12.756474413694855
20.239648883084868,-2.892963659664715,0.14821846394483262,12.755804140296215
21.202191220682575,-7.379916368156595,0.22467887688835603,12.72266484159905
21.338663773761787,-6.697909131148045,0.23753988212550103,12.72404229150859
20.972597689488715,-6.142072127469374,0.2519063661219833,12.748353412759984
20.972597689488715,-6.142072127469374,0.2519063661219833,12.748353412759984
19.12386576908374,-2.4565135986584554,0.1785894757407042,12.635913498297393
19.65727948438773,-2.279187033971018,0.14670466653136902,11.5859425278431
20.654221175279844,-4.166626274414305,0.17388347280641475,12.416207681452107
19.812323296328813,-5.822850420953731,0.267318963433182,11.971471587517877
19.822998896354793,-5.807423783567893,0.26781545646463434,12.386895587291564
20.137992080106354,-6.651973107403928,0.24565542762788,12.442112502546777
20.492828668383265,-4.967617891652306,0.2524069786768628,12.399624558806032
21.131839703530872,-7.290422990991226,0.20231322436845828,12.432278096939765
21.196719346666967,-7.118266460994747,0.19350069710499931,11.694025926200133
21.98323765810802,-5.866621256144564,0.2022375218931951,12.38872910630978
18.418293155590284,-4.495061010105201,0.2415503789274055,12.41401910392284
22.488517790130093,-6.9015372586905865,0.14623776761135932,12.275171150727509
23.07108957322114,-5.999836531828329,0.08255333802000837,12.318831193241374
22.29560767096863,-5.067919274065588,0.10515520791208374,12.401279105428511
22.12342609510721,-4.629843629914473,0.10032686240891832,11.89839421441816
23.958374701842903,-6.42632428334379,0.12627649542253172,12.2151934862885
23.136478177351968,-5.425149162930134,0.09624382167893267,12.595368956487489
22.876598736255094,-6.135205517980775,0.15491476689423364,12.743772544968825
21.757443577454396,-4.551385223464092,0.1131031645804032,12.742833160300348
21.278709482064276,-3.9127600629668775,0.1373946028459743,12.66796713090189
21.79226460898415,-8.05979273017629,0.24825537897752709,12.347431127056444
21.487783395067993,-8.79247430012591,0.21912156717293027,11.857184471285125
23.989779963032237,-4.301349619225058,0.08838423695416453,12.43397448348927
23.398539119301553,-5.504671045437214,0.06350076794727985,12.109509491206563
21.596108651623474,-7.741538296439694,0.22115644122306266,12.178661498706338
22.67525789493996,-6.776551970782763,0.16514808082182225,12.41220545547298
21.447216820343286,-5.4905376030664,0.2049106658902281,12.408766514934621
21.214215907252154,-4.735529011898072,0.1715909676744607,12.581775785143837
19.730678840057127,-4.001339196248021,0.19420573480724407,12.541651194412276
20.66980932663865,-4.6115519037944335,0.1857873218573529,12.595904836597148
20.577311523952954,-3.4699098105997934,0.16898925087903846,12.317718910496216
19.196497286842142,-5.734877197613564,0.26374677958760073,12.571850743724788
20.622503148332182,-3.942046655701753,0.15387145581521247,12.722091817767886
21.791587396998867,-2.681208660829368,0.12636404911956411,12.68356158441572
20.500858459598494,-6.139831679493014,0.2763510650227949,12.102371897245346
18.95038133177957,-4.09895060173289,0.2717742627207462,12.614805990996551
18.647214291418223,-4.464834118629866,0.27921278390186866,12.721150780499537
18.997040435321995,-3.600498385384487,0.28645383611322084,12.734263567500493
20.664953137199596,-7.412347013491544,0.2597640135037548,11.653350767516189
21.065342528205317,-4.965624188363049,0.182772659905032,12.350434571324538
20.641792169010373,-5.81992622020542,0.21895715614740477,12.25775072735945
20.257485501640062,-5.563808617660915,0.23670032506256192,12.153688016168342
19.581642825460058,-4.783878642741183,0.2597950474191908,12.48901013188495
17.69511309965309,-4.1759752850606855,0.29144370394577007,12.602227686621397
18.306150273480394,-4.51523611365882,0.28307654334634336,12.59109729726817
18.89256090576027,-3.3168533999716403,0.20886305432226854,12.190781719991643
18.08983892339755,-3.5972971467555412,0.27026528343672873,12.178925470665451
22.16143151631365,-4.20596743858267,0.10499384050775026,12.458029780071934
21.30127756538767,-3.58830580184978,0.13179685689981813,11.916233864363354
21.370620780357623,-3.072063616582709,0.13734168227262056,12.276507435476637
18.681373864747414,-6.2363748998872275,0.3308210806457715,12.125497827772987
18.681373864747414,-6.2363748998872275,0.3308210806457715,12.125497827772987
17.83353653544337,-2.7923275217619716,0.2473902782250812,12.251163681124623
18.666104624482024,-4.420411656558834,0.2745830680530911,11.941153790754433
19.519889094974364,-6.492559821554056,0.28043569184497547,12.14351692148899
19.105835723722763,-5.36251304770212,0.26129009832341943,12.522443188944623
19.087776323540183,-5.874311595680884,0.264012311622307,12.565782472928877
19.376642279734583,-4.338985507812011,0.2571956027576655,12.630061188051744
19.84835088298863,-4.13132828807376,0.2100725852287631,12.678610428240914
19.155935529270106,-4.7765291253744335,0.2491596250037137,12.653150818244335
20.455097128018952,-4.8494317985026285,0.1669231565971933,12.556295595176728
18.611462550355267,-4.4509409874392505,0.28663331040849216,12.704594834456808
19.675025448188972,-3.0968363422546576,0.206003956801387,12.192642764482402
19.474735295631344,-3.8349073212743807,0.20745105193976732,11.883712874662596
19.445009702229033,-6.088712549791849,0.25490226731263355,12.089182561422948
17.851662357161064,-3.0962481421073202,0.2340555478432536,12.111516210733168
19.390567995067286,-6.470323453186775,0.29604473336236614,12.384685068200085
18.870574455201783,-3.8170131124127993,0.25545742496859425,12.434901364620796
21.5052299226406,-5.762921791355929,0.1990925765895664,11.90140053749116
21.167041964060406,-4.09419794136133,0.14465059456459997,12.450180170986567
22.322507380576422,-5.0916860810556654,0.13734780208095126,12.626060376188388
22.322507380576422,-5.0916860810556654,0.13734780208095126,12.626060376188388
21.176876960123167,-4.061553459026478,0.15203436705179446,12.391304418134563
22.560563213433582,-5.3618467492324395,0.14840237111028082,12.27013534332749
20.44951794278994,-4.74990685265856,0.17316910350086662,12.59187887767813
20.59217032826402,-6.386957658546039,0.27426260259979296,12.420834766692648
20.092587762667137,-7.267271862962792,0.28513673866394634,11.951612537748696
20.141451165532033,-6.8996296917735656,0.3048790924616037,12.337988562635942
19.79247639050703,-5.630751238471125,0.26317342768538665,12.533200626621088
20.31434916240411,-6.884566863735827,0.24291991365579615,12.58294445774292
17.831331511879444,-3.047043302843122,0.26088411991358507,11.788911230963514
17.63117228151177,-2.794596668624938,0.28400342372820997,12.251948242602674
19.08729734154021,-6.906015331832383,0.3296635132097346,11.973948445410072
18.985689557161397,-6.8690621311671425,0.3147904393665111,12.588982825082972
18.65490843626218,-4.844115184372889,0.24708843465816946,11.873071250572597
21.08146575824984,-5.5976435685561965,0.23141024945324137,12.31786161099029
19.875691507694704,-4.684789383978163,0.1574438685898314,12.507502851582464
20.354345362363528,-4.517090841954735,0.15101440675437391,12.314488647149034
20.39494541688277,-2.3060996859091984,0.17720638421388282,11.648892378370347
20.39494541688277,-2.3060996859091984,0.17720638421388282,11.648892378370347
20.39494541688277,-2.3060996859091984,0.17720638421388282,11.648892378370347
19.73132119293021,-3.0985627150776986,0.21338539789852584,12.578387815503346
18.148656171499002,-2.913373696979614,0.20279419802717366,12.135320553391734
18.732455805116018,-1.6016842010226244,0.220926322577388,12.28920468466171
18.723682486659527,-1.7552881981518373,0.23349814590657436,12.322283801091144
19.96617062079701,-7.097813209979088,0.2820841794923609,12.170698920910715
18.956638973946013,-6.3895519233950555,0.2451812510704956,12.578977092491987
21.653803205875413,-5.486116536475992,0.21409985460453076,12.506398470641379
21.453984749355094,-5.398341256051759,0.1691868931430653,12.4257239718073
21.303138471134123,-5.1617539574720555,0.17946648913372806,12.708504497781954
20.103542661252746,-3.3906741754224754,0.20082673510873592,12.558817798651257
18.656119780846456,-2.9782114914844264,0.2576390918811905,12.633083020770098
18.758381193045675,-3.9267153988479206,0.23845847947225388,12.621709052978582
19.117791492317426,-3.779501319769181,0.2697557091511999,12.381255060225856
19.91573456377083,-2.7011199119472287,0.1800121122330133,11.882795675692842
19.91573456377083,-2.7011199119472287,0.1800121122330133,11.882795675692842
20.59669239148106,-3.9438274386155086,0.19509654343136332,12.524754914074272
20.329386051373515,-3.7404697454805786,0.17274020414034144,12.167015936763534
19.774072209023316,-3.4514546414677834,0.20819272189741525,12.384297584103306
18.650285448287487,-3.6757285837750895,0.22187632470880503,11.629289133930737
18.703490092778463,-3.65097681724462,0.20606531113362908,11.828058503606943
18.703490092778463,-3.65097681724462,0.20606531113362908,11.828058503606943
22.283714509596592,-6.451854683142961,0.1617833465285012,12.337473876142646
21.398478608230167,-5.268087267561875,0.15598073771179483,11.957230450782905
20.81980827972929,-4.194980440220463,0.17345272094792263,12.273395834111591
20.467222873182262,-4.485261878294943,0.17435188660081222,12.580486344817674
21.03696408683537,-5.158141824494253,0.20659157995571775,12.57725572834598
21.001221044912022,-5.221071572022965,0.1649487486388924,12.004186111858616
21.456546144566346,-6.834913372006952,0.23489000410989855,12.302779007046805
21.404163214751613,-7.940270108077266,0.2601222847898425,12.053953740907495
21.404163214751613,-7.940270108077266,0.2601222847898425,12.053953740907495
22.43312271759571,-4.611175691806957,0.10722607774208195,12.199338882650656
22.493038834251333,-5.959484765110594,0.14233665762793193,12.264748398979462
22.493038834251333,-5.959484765110594,0.14233665762793193,12.264748398979462
21.862554027271447,-6.2199971511399,0.19673125013816423,11.791680965270077
20.49729568362534,-5.286142180198903,0.21761549298613111,12.371608798813194
20.49729568362534,-5.286142180198903,0.21761549298613111,12.371608798813194
19.817061416592004,-4.032399492558919,0.2278147078561103,12.643947264638856
19.171995528467434,-3.2851234359714248,0.1900656045764851,12.69752086677298
19.68259002226481,-3.2177501727129725,0.18703753350309793,12.221977058263832
21.65066924619499,-5.4598820831706085,0.15057863986570091,12.414530673949844
21.835078663118452,-5.474770170484024,0.13414455916905887,11.146921825367773
22.436569035378778,-4.6062654787845,0.15348703991544868,12.260720785914783
19.641860168027947,-4.685777317200271,0.22063466931486067,12.41362815049413
19.308726865263143,-3.5653115232800654,0.21607628295813752,12.026093725696407
19.564580609183434,-4.635329013615965,0.2468127549330821,12.430556541779264
19.068993978030452,-3.718713399431705,0.23982474710132204,12.048605019752307
23.51113171281682,-6.376425600111393,0.10083450312263265,12.116536144963163
16.860930974250326,-2.8767288244763254,0.31353767158499724,11.499530691813844
16.645482436293538,-2.756768437082461,0.2722610898786778,11.598841169818849
18.614571219947116,-5.006809775908902,0.2959399643490817,12.637436851924688
17.590599695576238,-3.6371889892478633,0.2969857415270425,12.713696359591154
19.683477423751373,-4.328244337435489,0.1859847405908705,12.2385625672991
18.06480654213992,-5.259016578218914,0.28621287256037253,12.546999089247707
19.96351646992721,-4.98032356042003,0.2073991358569268,12.343638225154162
20.718070034811372,-4.2421880587003935,0.22037565647913876,11.984885441769139
20.701684985294396,-5.3701518150423935,0.1750119018707,12.179618984853839
23.53361166937046,-7.88161577118957,0.18397701649314105,12.290375623029389
20.279026240031673,-4.061894917663693,0.20207061032271637,11.948456602547514
21.999802646913516,-5.411672172534342,0.13455150490465564,11.69523198376806
21.47382239223233,-4.380162027103125,0.18232073118632583,12.359900357155915
21.970636420749564,-3.6111022764617595,0.18917036156713662,12.247351743891114
21.431543238288423,-3.7812148002185144,0.16585333442910444,12.222441183431494
20.841907868197016,-4.991624081995918,0.17358181360039454,12.171366204230699
19.989837258879398,-6.063570029538015,0.24198436335194634,11.982335169950938
21.75947517433006,-5.855447197251358,0.14840696665770953,12.537810396994372
21.882316678813623,-5.04657745847805,0.12421391196681131,12.692552029459625
22.88051511344733,-3.6338401365111808,0.09187295281154381,12.353524942203952
21.990653430205146,-5.433799407434573,0.1780610997455138,12.38285852679211
20.985498912278334,-4.140131232861032,0.09829120572080985,12.01755417645664
21.192993029660688,-4.1501680075162115,0.1271803552776679,12.396352501004774
20.392915961003936,-5.290207916091419,0.2713851529255293,12.146090904026716
20.01403543867013,-4.714034997511854,0.21896139440597304,12.270923317032675
20.31881214152978,-5.272952572663967,0.26417156015100285,12.35419730855962
19.75636400739686,-3.3661241289461956,0.24007981725869257,12.263658140995657
24.49293403353479,-6.734956147661332,0.09065084719678135,12.46491461009071
23.82193946387939,-7.053864711046142,0.09762707921041294,11.826827066040922
23.47365103515966,-3.6743402500144047,0.053917916570917136,12.435046794428027
20.793821279193892,-6.897401932982889,0.21212494616444155,12.240881912486474
20.793821279193892,-6.897401932982889,0.21212494616444155,12.240881912486474
20.64460371568347,-6.353041270765658,0.24007132362398417,12.294128761844249
20.67681557344204,-7.117205034641415,0.21121544033876988,12.492417409582828
21.101692319919117,-3.71444237814313,0.15499068734485041,12.066270493299898
21.14343456142389,-2.575708811309031,0.11149515036191257,12.385771660730901
23.48189921783823,-3.992272716431178,0.09283593805827231,12.06347540580031
19.955543106586166,-6.461722517622457,0.19781524890444485,12.15636324931251
18.926480861525363,-3.9949262175224254,0.3056702249748989,12.093659528017525
18.87392442638189,-4.318021251258687,0.292310030698977,12.284910090240336
19.227782381426174,-5.874735251644088,0.24485489564064286,12.128360540467146
20.7854852723694,-5.336774874017997,0.23754923637755526,12.13646287576646
20.79991677937027,-6.715941144696521,0.22725549672390005,12.02812180345216
20.004665361791943,-5.822859106136365,0.22316033610199554,12.20981094545984
21.305584436244587,-2.745369843542497,0.18851567777128203,12.534931798280779
21.756399247837,-4.002072399756861,0.10408648323351663,12.326473369394584
20.210755411343175,-5.758286111513469,0.2556812357164182,12.370753972209974
21.13307736972382,-4.317350860980515,0.17208629519991736,12.379205462230892
21.820918808694994,-5.128206121113201,0.14973245231612367,12.129208467109642
22.603583046745875,-4.510730366970873,0.09066061490231149,12.451488234670325
23.043407125383887,-4.3210190449814405,0.08427273210998434,12.619153620938933
21.73166354208421,-5.080922717250521,0.1516717522344313,12.751085238641544
23.332008447196642,-6.133888207402449,0.15432583269700798,12.763885768372447
24.09207849621556,-5.1015240769165215,0.00507118227738409,12.755745167944136
25.685488999590863,-5.7432193812451064,-0.012857288826750917,12.752513808519776
20.32127622382797,-4.025115204456346,0.17379968365215637,11.786753586029004
20.83223166182633,-3.17281962260926,0.1553002548981303,12.467491987739319
21.829783839378084,-4.944409162590837,0.17689002633603,12.698658445199262
21.08695694442988,-6.189139751378792,0.1726826917294721,11.770442411927334
19.2047543319913,-4.181432772639386,0.21395186319637535,12.360848226252699
21.96660268424888,-6.497630230834047,0.16154810563269106,12.126727033446077
20.257644348124636,-5.3879937374233355,0.20061563442038288,12.095492753544258
21.04599085789138,-4.048489681169129,0.1510703834786304,12.105746985013223
21.27419131073651,-5.022887382421861,0.16880243859760247,11.923002668113062
20.0692121733331,-5.166452411109697,0.22368584103510336,11.514876109947183
21.54916523063205,-5.0498375352979865,0.1582998132553995,12.415074180350997
22.042801189031756,-6.104781896284223,0.17164505429428414,12.594717805478187
22.046532395004505,-6.606163603747528,0.12841238272106323,12.458426225373612
22.618617173781967,-5.447908867022286,0.11663127859371805,12.509669755412615
22.616599161158774,-3.8872517105633397,0.11010129711496054,11.571879583689638
22.616599161158774,-3.8872517105633397,0.11010129711496054,11.571879583689638
24.47495688760341,-5.754833907268127,0.08323009722388505,12.723364419351515
22.64972629015001,-5.164626583921599,0.11976613325917233,12.236294742540979
21.245439191286742,-4.15814565342159,0.14016011588713936,12.225088407641563
22.13213104725193,-5.310120517454859,0.1521619264739528,11.8617124423251
20.806538995527486,-5.46341276577322,0.19263858475304974,12.469282181236093
20.584134928740745,-4.970554852042923,0.1788858496774086,12.532327272257884
20.542535937596227,-4.356527678371128,0.20300288337472785,12.246719740301536
20.468823942330122,-5.701349637953852,0.2234554768024487,12.572396587697042
19.32818461748529,-3.6575792211938944,0.22008688980333224,12.571559155322433
20.471756733954937,-5.284624764533704,0.2490647624916978,11.689849985041725
21.52909369266632,-6.317496619650407,0.1809426388693752,12.441938408792558
21.36703369352093,-6.616448721846214,0.17831259570417543,12.681107354623188
22.204653971627653,-5.529350063847206,0.18892208199545318,12.530544113342842
21.140600137825505,-4.203623294077282,0.15920148397192382,12.139390790862917
21.86407637183524,-4.681372972340424,0.13784370466065218,12.664055146820168
22.41280018730744,-5.522847209826722,0.15970682232121683,12.616116180887106
21.123681429927796,-4.647249498938043,0.1559093600857083,12.00673901179413
21.009177686009522,-4.5433704680198295,0.16005976829714502,11.937113261978466
20.752421418792895,-3.918510551656671,0.1669727123415805,12.322184982133523
19.147896756853026,-2.3767985653586785,0.23818808238501105,12.402764247656703
19.015240350578154,-2.2247451819462962,0.24243506500633627,12.444385784982924
17.86063650316575,-4.171888845053436,0.28018913494410097,12.703919727626689
18.021346565990637,-4.439571642013962,0.2944792146488007,12.028230716290125
17.32978851353816,-4.092170325244862,0.321797618691089,12.055455662915971
17.311279581333768,-4.506832565361224,0.3104515819771453,11.724499628241501
17.075888284601234,-4.740818480240909,0.30640127589361443,12.159412915825534
17.78654576160489,-4.04425528007144,0.2900538725784753,12.294202348713526
20.843392486824634,-5.594550205040444,0.15115524813052095,11.59820241418338
21.625260467111364,-3.940540484896312,0.17696466094606328,12.337905212276587
20.172186242159064,-5.8063330884301925,0.2685305231602675,12.178589058528308
20.04620671976255,-6.183055336247824,0.24693901892630538,12.242387426730893
21.495585908447648,-3.1780794947810747,0.12114835937492052,12.26164248643707
20.44986438297651,-6.038913273384384,0.20288991286895466,11.943153419161634
20.44986438297651,-6.038913273384384,0.20288991286895466,11.943153419161634
20.388963885976093,-6.0683445925996065,0.22831163178807493,12.502216488502306
20.02043649032642,-5.599874978795013,0.25044296553757567,11.718077526536428
18.501005404393112,-5.459704851512365,0.23031890549511505,11.861720870457289
19.05270912335703,-4.780606452409884,0.2695407941776239,12.354063060462476
20.843713607765068,-5.477981907138462,0.20780323630183484,12.127380877926079
20.229131340596865,-4.108951278295262,0.19250934373770925,11.886975979429648
20.712398558011266,-6.526018897811638,0.24404003264190516,12.459324736814239
22.23648618271391,-5.906650578517837,0.17045500400439462,12.02398980577968
22.23648618271391,-5.906650578517837,0.17045500400439462,12.02398980577968
23.393068807689172,-7.914213538598673,0.14291179614568736,12.611677859710147
23.739602154285222,-7.3031650606967,0.1682920063216794,12.257699710323967
24.106575532868046,-5.181326176543979,0.05849978391911058,12.539927800258008
23.944746863236457,-6.051652680562585,0.056634219456088285,12.432990962718895
21.099359536224245,-4.704981939202859,0.17805021245258612,12.399937069098774
19.434366614549695,-4.882040712906424,0.20349320591023023,11.98468931988688
19.04327501539924,-4.4047254822881445,0.29047088164148116,12.05147865895097
18.03125677692787,-4.966995982904033,0.27406409140530646,12.002600076116707
18.773918557624487,-4.746130331256729,0.2754342086738754,12.143779379038788
18.332108743898253,-4.248384545733129,0.27400348228533267,12.085904948294278
18.8507439974556,-5.829824105082037,0.30063367418209075,12.035320931353594
18.939472853675834,-5.879569528874145,0.32691816018802333,11.900446362091676
16.293623610378063,-4.532147619966743,0.3334354898208345,12.51198597605211
16.58563690135439,-3.2792385933297337,0.26251365575397934,11.89109475791484
19.871658553357,-5.518526234547985,0.2925267664819705,12.062210263166982
18.982254821252805,-5.7856819231950585,0.26589630522356933,12.508377402067318
19.077363346615066,-3.3810615940979147,0.2522688373239059,12.212331329772095
18.495430200565238,-5.336952898396781,0.27339182423457475,12.609481020468353
17.789832622330024,-3.447688509837428,0.3023588841019961,11.391616451658967
16.128748322928654,-1.9370381709724145,0.2712102619079251,12.602798509875676
19.563485941618655,-4.762066336917748,0.22589316458944533,11.681057665121603
19.99780780804653,-6.084863427669527,0.2356382566087595,12.33885566377523
22.16662733187195,-5.012617203924002,0.12083312589292783,12.135855734144467
22.16662733187195,-5.012617203924002,0.12083312589292783,12.135855734144467
19.74371201107009,-4.340923119788408,0.25594662067601637,12.26742053543487
19.50062549215927,-5.155091057830339,0.23871579677340649,12.172886013123506
20.763784075710838,-6.115106988769565,0.21095285169023514,12.06716066997336
19.503624998330984,-3.3660115464163054,0.2083623061255834,12.291439858502507
21.336600791824907,-5.892578334804349,0.1975104793350934,12.504550451517549
21.75766227560674,-5.596640415033164,0.1613534352660667,12.225712956480217
20.066369267654572,-4.870675305458508,0.20163031436158013,12.032438218673182
18.19745564849432,-3.3201840555810502,0.24782837231107763,12.195287673542643
17.946029930766503,-4.288759410153152,0.2975465910006935,12.523246002754659
17.73177342610885,-4.120504721530303,0.2932837632287447,11.736753837487335
18.18760329527749,-4.9755942270937075,0.3099575779019733,12.503255249111524
18.159603992235866,-3.6710497768547334,0.23939584543428125,12.405649146065215
19.50364407037262,-6.316157259436165,0.2549897389163353,12.407001547511861
17.642907866740888,-5.7182980580093545,0.3351060725368437,12.191017100128645
17.831156395012133,-5.209623135486678,0.339714935614035,12.379850697759885
19.055203298888618,-3.313117201201025,0.2200653875434375,12.116528107111298
21.404811768231152,-6.125942084937871,0.1923774106579495,11.919978194026523
21.281440199448195,-6.190437385676589,0.18983408687327655,11.833695311795456
21.313858766005897,-5.6198264715458714,0.16313541108853616,12.370955310020653
22.642782332570484,-5.722030873776897,0.15181973526070983,12.040574103918502
21.96753044889394,-5.295180233806367,0.16252246751322874,12.183111382534616
22.856583381861014,-6.176087685820936,0.15633033650658798,12.117400757002853
24.072675688701512,-6.343995658157873,0.10025087673289816,12.115999271726407
24.936284359763537,-7.9209345858065765,0.09986660689197566,12.606038716218954
17.13709199535267,-2.387857720463851,0.2748504644878265,12.246000138842152
17.207347091652515,-2.5225876291285494,0.2688708591835412,12.241721356371011
19.259838258587465,-6.516172640082395,0.2949569134461567,12.26313060664713
18.51034279888796,-4.77301586465865,0.25444567879270324,12.053602383034075
19.919950432175384,-6.0405911972828426,0.24927194312949819,12.314684271618688
18.763752030620616,-3.783639019769501,0.2231710257302875,11.884435985696955
18.901199276651145,-3.456986353919108,0.22047909331064405,12.098511869074253
19.251125644467344,-3.8565339433248047,0.22578199704707588,12.16434885214523
19.72466244556921,-4.674566460777401,0.26483096433443803,12.35187364095295
19.415318957758878,-4.148887025840524,0.2037013869989452,11.464482326085871
19.789337078816462,-2.4815931294428633,0.18369156314895432,12.393431145510705
20.575947520334186,-4.313083756286633,0.17448486057400348,12.095444705548148
20.41901514904994,-2.1954592209587567,0.16893670548210155,12.069033753463602
21.87012712537213,-4.552696933068893,0.12076024452029294,12.196778136253304
20.060129988793808,-5.035074820212169,0.2324881998459614,12.441103091696403
17.69256442071628,-3.119403100451519,0.27722488023766284,11.99986533328545
17.640553899998633,-3.0083170549805605,0.2534890449733339,12.49350620662448
18.39411656131917,-2.470793686911743,0.2551155817058444,12.410515487684227
19.45494327294803,-6.151663001507397,0.28818597200096047,12.23319663513382
19.005266058662933,-5.187304913914226,0.2442957409849935,12.752262682424904
21.109422763122097,-3.2476856184541907,0.17016939495362143,12.739962324988001
19.216369950299832,-4.529983945646674,0.20556024709645423,12.736784242072968
18.014445356726426,-4.030173815122255,0.2954577567135136,12.730347510402746
18.698405532237885,-6.7011469351425,0.28941345016100883,12.270039451746074
20.374518622607972,-4.857316084608223,0.29166954250235905,12.293708959667995
17.76382215294994,-4.825595071137181,0.24048618032934466,12.104545759614764
20.90175707220133,-4.456081182711225,0.25630731863235345,12.076127423429778
21.082711736092136,-5.987645243802881,0.23047128542231926,12.319801421168286
20.457784506008508,-5.963066005030263,0.19617278208613037,11.639758534386177
20.970743787690928,-5.09758592053278,0.18667648142602988,11.81613913548101
22.69756587994862,-4.336858962743538,0.10691807959214297,12.339328669218723
23.04082000986481,-4.879093286633378,0.10428931932966305,11.847597523375985
23.20933036927154,-4.849490740098463,0.09420744376855097,12.701483521282347
22.651055143172908,-6.242126861612888,0.12625758194280776,12.700058835968335
21.54451385814253,-4.402623967516621,0.17742880636431171,12.73709959428399
21.489858014177134,-4.656729126186013,0.1511615333590244,12.737237760520244
20.433892075790784,-4.874888684565531,0.19987264302115115,12.419940330002081
18.655338350150902,-4.399647394609398,0.2386704766233498,11.930297750673489
19.633244815669325,-4.969081063358976,0.23124619828979545,12.317817289772423
20.47622646761998,-5.528148368050246,0.23441116375064808,11.599632714184192
20.71188398138059,-3.4072342788015253,0.1374758205503621,12.46573219930292
20.504549843448135,-3.426799374109474,0.16772811076068816,12.416670496235474
19.256521608354273,-5.234018978460704,0.2735783077361118,11.95161523910733
18.842180123821848,-4.415816414852993,0.26887506960761626,12.403990855680023
21.709296396872865,-5.01221423763467,0.16799880249648658,11.8607702100677
19.935460777533965,-4.682453017180148,0.24804193062848512,12.362923707967306
20.95823007200972,-5.1661671903630495,0.21113854712875588,11.814812452595781
21.225046481467537,-6.164676155699693,0.1673428788218786,12.53608813471613
21.230277065165485,-6.728910928261199,0.2152112936213723,12.277541817019044
19.190126692642377,-2.6358746682615766,0.20888631108415956,11.884131654654572
18.911894907179153,-3.0214831073553263,0.2213438035577353,12.293907947794299
19.98245430734321,-2.9860672267448853,0.20520173692497423,12.119864974079727
20.2142978360725,-5.53577789382855,0.19381980640233187,12.030562732123803
21.17800174144132,-4.955363497178039,0.18901693436537384,12.092351807407082
22.729456203153156,-5.77177417083337,0.1333638302231629,12.173898800555552
22.060297044200635,-5.4422381389698575,0.138986972618615,12.078580572468843
23.12977749702749,-6.02660311485682,0.1205409985164095,12.027486140136418
23.12977749702749,-6.02660311485682,0.1205409985164095,12.027486140136418
21.117128102236606,-6.473762044832664,0.19840301861885923,12.323147170202615
21.324553443271114,-4.2664754439892345,0.17245080871216756,12.716416913213179
20.368586152202322,-4.800055191971768,0.20223124380994867,12.652573608198116
20.68943456209081,-4.091280016969649,0.1985043838438239,12.229075275327764
21.364120167975692,-4.963613331206427,0.17047228702782874,12.487688067961134
19.944411958557414,-2.510962346076986,0.14785966704378584,12.169701146170576
20.768988510099692,-3.9336305875422135,0.15318668483296563,12.65920364543865
21.18092134018851,-4.413568791602699,0.16912011220384487,12.614938276475206
21.270825882809238,-5.446387932679818,0.1730459296368309,12.609250421537002
22.401489781925054,-6.568261881124462,0.16320732168275642,11.276563601111361
20.168960479952045,-2.545597300420796,0.1415610979879771,12.732304830033971
20.641938519773774,-4.3192336883574995,0.17706173248052953,12.246871885679711
21.021585942516452,-5.470908459155003,0.2218616981745955,12.10438497922907
21.11517727022909,-6.739603052869042,0.22756750430546868,12.232736256003319
22.38853993731568,-4.807772889087166,0.11689846012193927,12.025130789558313
22.02151677704649,-5.257220799097003,0.12077823655555875,12.257312630463204
16.715097244577308,-4.892327285908788,0.3488289841950945,12.141583096877605
16.85036113843445,-4.654791880712069,0.35167844173820917,12.109447886347255
20.080587838635815,-4.66298439265205,0.20955661579445664,12.241906690748129
20.282066328808792,-5.050889230082021,0.21173061452450653,11.767738069580306
20.282066328808792,-5.050889230082021,0.21173061452450653,11.767738069580306
20.282066328808792,-5.050889230082021,0.21173061452450653,11.767738069580306
20.741651085167575,-4.791721789152502,0.21873226122832562,12.701701112691518
23.692336158628844,-6.143823019870949,0.12107178203023856,11.481320994354126
23.49708867685972,-6.085934927473721,0.10381383025672765,12.086635355931296
21.794835168971936,-5.799344216510433,0.15807494717544018,12.145465478157277
22.089554919843568,-5.488317908382318,0.13964581366457016,12.13625241732
21.088657581230663,-5.310517117252085,0.1710423943441525,12.35584274511137
20.8193864000207,-4.96926011235937,0.18397477432314635,11.777711780221942
20.771624231532773,-4.983853868214134,0.1978645211176798,12.220222226665395
21.630070876930976,-5.58500375747999,0.19448073520493356,12.284311690892652
20.777627199866924,-3.320760186326545,0.14334123922119588,12.0558332162565
20.777627199866924,-3.320760186326545,0.14334123922119588,12.0558332162565
20.787200032182444,-4.075871766803445,0.1714861170081615,11.994557209042144
20.65779333020705,-5.403590252328069,0.2593319977169019,11.947025748901995
20.9319545997721,-4.640829833222627,0.16252456335284654,12.494293670176983
19.34419904659058,-4.253046429073091,0.2304777164691262,12.034326059651784
19.788978227017235,-4.263159550263691,0.2172833986831263,12.336706294580408
19.860809000191995,-5.202218687609305,0.23316261697529903,12.604942059176045
19.742901504684294,-4.359339676381386,0.22082211411136438,12.444682165075438
19.708416553325346,-5.110106960223728,0.20033566246269863,11.941781582610624
19.689591500424687,-3.0952324919768497,0.24731067199350262,12.366423631435108
19.452757609439008,-3.1954739960325056,0.2499523523029553,12.44465626725004
18.78532674906727,-4.040228265368709,0.21148060492816848,11.950315302508502
21.639935230537112,-4.172187629731691,0.12897394445494598,12.055494732720296
22.12859134329362,-5.195768050469668,0.1623866997548808,12.080760413769754
22.54287198797834,-5.729341636655659,0.14591533110620403,12.664553930793335
21.936484212049475,-3.905918312977319,0.09731694272782143,12.067017327243592
22.58253564517966,-6.341640706782339,0.14254607872439626,12.262054071803268
18.998946827514285,-4.0150690535608415,0.2587378888237851,12.022019196706534
19.3746168481013,-4.379895322349604,0.29568849384825874,12.326080932930832
19.776650094179317,-7.419109653629233,0.2553393912594335,12.363933567490365
20.38703151440623,-7.1568003840522785,0.2842856175598733,11.715074910277343
20.385470076528684,-6.939061841068245,0.26991652848950887,11.928030428753008
19.900600093219794,-6.569494334452641,0.2446718810300178,11.595625852540635
19.902598123850783,-6.662106702667568,0.2677752977166895,11.307623245083384
20.250395321452803,-7.138475078922593,0.2384633584953073,11.80574062702531
21.406934154402478,-4.662306609077607,0.12420213411704908,12.590199829698134
21.45432406553343,-5.624796286651076,0.18407852031898747,12.030740452086594
20.511541337577782,-5.931727131782473,0.16219023383377704,12.068570980656597
20.567734214838406,-5.938855883868502,0.17420635409099205,12.188197850183371
21.14589489858932,-4.110653155789452,0.19245636714898498,12.305549932945901
20.90321023047141,-4.636483458026214,0.17751041642985038,12.422861501702098
21.065994019121618,-4.8828795373255955,0.15022198092467443,12.057701432641844
21.065994019121618,-4.8828795373255955,0.15022198092467443,12.057701432641844
21.73241477480761,-4.433111381438162,0.17927791313732472,11.368758269246422
21.049687952002493,-5.028630469171375,0.17218388687052372,12.088335568531432
21.176530755759742,-5.53047967396347,0.19220517182736765,12.64965414533247
20.996359273064144,-4.622341971530139,0.15665094473967914,11.649894269413508
20.996359273064144,-4.622341971530139,0.15665094473967914,11.649894269413508
19.684004601679288,-4.74883007682987,0.25608275218904936,12.507102186945831
19.302047073834334,-3.8174661429720618,0.23814788242290544,12.448429224211697
22.57725320835277,-5.2429823203353045,0.15425702207635383,12.461845844052903
22.07603718260737,-5.322637790758165,0.12862741643576436,12.110799762276368
21.60981993156183,-4.930109616516071,0.16074693861232575,11.960643733194567
21.725483973577767,-4.591018191791643,0.1268156874629555,12.078938532142079
20.857474056273954,-2.9310457861409542,0.12124478073302748,12.467688760078083
21.065177650046945,-3.329008032936219,0.12987033043160595,12.089711919190018
21.57872602586289,-3.027461380995045,0.13722563018269043,11.672707804699407
20.43994868550612,-6.1295160152166295,0.2364612152779386,12.646265952247898
19.945283486938713,-5.631116365285677,0.2546120080831446,12.031822791232258
19.933769645845267,-6.092598069273029,0.2717553816007446,12.374240698750974
18.579895620336902,-3.955378118214685,0.2625542545588268,12.171190543622386
18.607131238374553,-3.3372191608961703,0.26651602759904613,12.267029016710717
19.162274612017544,-5.838873998912618,0.25318370223598274,11.80545056124058
19.162274612017544,-5.838873998912618,0.25318370223598274,11.80545056124058
19.747827192897844,-5.8865092095925196,0.23927477304260608,12.188359838960231
21.08973772351172,-5.694901063073135,0.23746563065616258,12.15263223280968
19.81440261498164,-3.2470755032059184,0.21102777724367336,12.121119610068682
20.793999440138705,-6.522337629113846,0.2436169084343844,12.25739430969284
19.468460034815276,-6.024941845604716,0.26432660822813014,12.257786772058047
20.853263382819414,-3.5670663974424386,0.16407007128827736,12.257522607984754
21.61090516978976,-4.60537941455171,0.15464643784203455,12.510655347966319
20.441564338855166,-3.0765865428698613,0.15719332293040086,11.713458612866981
19.26472926533531,-4.923832963264934,0.260427089440152,12.408746741066489
19.400992874790706,-3.1555444278622202,0.21592077185226383,12.177757667793072
21.02680315953727,-5.103228249604287,0.19843253706555833,12.388613733617479
20.889609076356688,-5.833993009552293,0.1849535015635017,12.49136166530235
21.97743317564218,-6.188128484424259,0.17878577888158986,11.932370945416586
21.946960117044004,-3.6141577924975556,0.10500825845006678,12.59009624945686
21.648846227446256,-4.676655387199651,0.10817774753256709,12.497953350926121
21.56893052241463,-4.338910961655055,0.11944278326145402,12.388778397555292
21.925659894325417,-5.040545130386224,0.1658983910801683,12.351156189068398
22.248909508689863,-6.057898833306116,0.15550926398485912,12.015510490767147
20.84946279093896,-2.367105618656659,0.13157732423269963,12.445882765362201
20.69734083109043,-1.684488624180951,0.09452963122139148,11.918432576738118
20.662835766441333,-2.0501068198267545,0.13085628310378844,12.021683266603747
20.523574168687933,-7.781264464057721,0.26094227501064365,12.183367864388211
19.71797485054615,-4.556706427500221,0.2586220363126643,12.065074008081371
20.387060227349934,-4.18391102022467,0.22686926565002805,12.680209105049666
18.388960328592447,-4.872950433678314,0.2604336265191069,12.665360602670393
20.233739425756347,-7.328145416496838,0.28380885289142954,12.723578585914366
21.116610907345954,-6.929932366704277,0.23622882086968658,12.70938845473055
18.04297765830574,-3.653429817689694,0.25639713650453116,12.633189520657883
23.059580383378833,-5.859117485563724,0.13922451732881586,11.394595331349086
24.449241430740198,-5.22711550299811,-0.036979019144119524,12.685530883969964
24.563736664086775,-2.6535114254679293,0.022075792975016724,12.345977564574431
23.801701499691937,-3.492609174217915,-0.012691943611135022,12.271426616482511
22.711125324483806,-7.353526131904442,0.15974753185960305,12.38026937308631
22.327596528700724,-7.708094395715106,0.15305336176978215,12.51483167428128
21.015201461224724,-5.196423498302956,0.14389975005617317,12.209664618442993
22.310324731811015,-4.8633485989349285,0.18710131404367103,12.089351051470537
21.534240723292843,-6.239331792357174,0.16883284553995404,12.105319238031882
21.628851594917982,-4.535171657747608,0.11804387920695775,12.260749672012029
21.58199936043304,-5.211233383342622,0.12410871098482569,11.985453563163516
21.77245479949412,-4.849340334173707,0.1719758903769333,12.080355875210385
21.892753607591,-4.401261395418078,0.15500289340577114,12.493404967999862
23.003995430710894,-5.832447820772629,0.11190897595349383,12.411666670718752
21.63235628921869,-4.732510740913457,0.15576649494320358,12.384381242677645
19.913265723330078,-5.878039115246896,0.25808146104163826,12.752392754575864
21.138403796522944,-3.6535801265884986,0.16997306107825988,12.715977248993504
22.44532099258151,-6.12962347253738,0.15640285988076383,12.132111725881018
19.62488166135304,-4.135126836981944,0.22696199512246854,11.952067156413067
20.021749773918494,-5.17070415924821,0.19577148549548354,12.545781216427619
21.31560187139569,-5.976625266570648,0.1936960136741496,12.08302695613382
22.981466665735613,-4.8650540877540775,0.10216919133706612,11.933773311543435
23.655441728015873,-6.405606858825223,0.09407747027637565,12.31134583906367
24.350495463047736,-6.328288092310141,0.10218464809255098,11.764718524470467
24.365424354224515,-6.516544664714147,0.10027583120454318,11.929038281820942
20.942896005893747,-4.434363463244072,0.1784083457659922,12.714166034137081
21.410874748994814,-6.568733198098274,0.1898989887459273,12.105250047003073
22.162910305635606,-5.86939034532296,0.18868911822420192,11.999344021433322
22.162910305635606,-5.86939034532296,0.18868911822420192,11.999344021433322
18.871984267800677,-4.331365962175909,0.23957606699795334,11.881430855938607
19.28665544457211,-5.305404230346962,0.25928538258197775,12.361524206021743
19.176445406181422,-5.575323612792722,0.25677205778658824,12.376614716524728
19.109930902637107,-5.490862136534235,0.28217291858741245,12.111268662009204
19.819301268290747,-4.903222678826106,0.268740147195333,12.368860934055267
20.321480601768567,-4.280224403889536,0.2121447547795483,12.081966529986897
20.707911038024392,-4.254298643495643,0.1925490273170518,12.57427849400449
20.454964944057622,-4.725707485217439,0.18913521356765567,12.67227387713537
20.61961571609918,-4.594661861087349,0.17884061176239688,12.644756803881958
21.307734183317155,-5.230063300292433,0.19947173890573183,12.593657784945835
21.150129679466456,-6.299339264196777,0.17815318377244516,12.388018951999973
18.49889625830671,-4.016648745751282,0.22558808653594342,12.329792892499407
19.99998522956813,-3.4311967674705106,0.22088903757077796,12.538027778940867
20.016933302178863,-4.837478516651982,0.25468675580914774,12.501915289946956
18.241988622719106,-4.40261476268981,0.3141914371637185,12.438079683223158
19.393937086406854,-5.813756181798519,0.2598665270799204,11.77059835744038
17.39257569448099,-2.757797010715521,0.2673876336755721,12.675970036658427
21.694360835788327,-4.661861881691959,0.12586981491372956,11.3238919491478
20.80874854731842,-3.9727069856882906,0.18021072984170838,12.39732763062078
19.631703794031043,-4.874076499771995,0.22541409371285048,11.766716119040767
21.126893600155288,-5.418963935855705,0.18329522532983517,11.98198907562252
22.399123706088332,-6.797627531416778,0.14029987653853998,12.575260151171832
22.453510694665326,-6.863225931593342,0.19641755850150847,11.6407081626392
22.453510694665326,-6.863225931593342,0.19641755850150847,11.6407081626392
22.32568502728005,-6.691618085336938,0.16795229338464235,11.805329738978662
22.32568502728005,-6.691618085336938,0.16795229338464235,11.805329738978662
22.39348833048473,-6.788928886945279,0.20521206933653718,11.305560305823475
22.136400798908024,-6.166187091333146,0.20590276800913132,12.10467764883924
19.450910677285183,-6.543773986240752,0.2953058676632859,12.302970695651336
19.00804612302704,-6.142456625919994,0.2510989936709505,12.497754442737998
19.68633915827738,-5.606100241825787,0.27176566966541066,12.572569870431423
18.814579234512014,-4.491149635443377,0.2661871331869391,12.318813815091412
21.791912082807965,-4.963122056042871,0.15173031990015595,12.366767190980868
20.84317200117523,-3.954885473113384,0.18878657596878076,11.97424406923718
17.949025534061448,-4.755399539524394,0.2814935816604072,12.040302833202725
18.113449100512916,-4.38003704062598,0.2487176180864644,12.26815803033078
