Intercept__0,predicted__0,setsize__0,gaze_influence_sd
19.986494662591106,-11.004280999194826,0.1916550274980832,11.580120241829716
19.04783393445748,-11.221149689292677,0.19537820588766108,11.96480450713442
19.775781423118282,-10.809294734308775,0.1871973839816453,11.35434153594538
20.260807746473102,-11.333820530675279,0.20402671172851422,12.124889952701272
19.4833978967001,-14.586987676092427,0.2541983113925487,12.013153406800559
19.834665367111235,-14.468633894344848,0.26426612310483344,12.169765629136672
17.718686832060975,-12.381051805514991,0.3455629673280209,11.009827033608516
18.37237975026197,-12.633250962202988,0.32229605390367116,11.753903619906314
18.975078467808896,-12.303870270579576,0.27342786533914026,12.35061495462707
18.69021778549947,-12.081319499767739,0.265197982957039,11.728321047085776
16.652675482755267,-11.324242235652546,0.3346762550491195,11.736303060170554
19.20984132330788,-11.613970885594913,0.22881243952876124,11.311632224433007
19.436654843392752,-12.423792104220801,0.2507166559452038,11.77686005862701
20.155708625825692,-13.964171589180191,0.24169645470093143,11.159869808885716
19.941501676846897,-11.962355630500682,0.2412011886104395,12.723150845812045
18.379903854882294,-11.474934297618425,0.24573350004177946,12.36356016799234
18.828858275293967,-13.882096265713896,0.3091650823424291,11.763199358622941
19.120093025584975,-15.048448385884937,0.2985237131391857,11.210591863654207
20.037918857431876,-14.62372962042087,0.2922090364134843,12.118249562870446
19.977363386795368,-14.533708319134242,0.2659121619578801,11.87378894048231
19.92694014440408,-13.533372659666858,0.24482532870331047,11.360147505577027
21.006057250876637,-11.97410704316379,0.161432907016112,11.38391108722001
20.292857640382877,-12.598661353275544,0.21121197846407092,11.667711168332252
20.788643917360947,-12.592624202185464,0.19246041825520077,11.779730169140764
19.109049463569026,-12.709988104610773,0.24523939594865699,11.420962709576619
19.109049463569026,-12.709988104610773,0.24523939594865699,11.420962709576619
19.325635359066034,-12.356522870573473,0.2866859340982092,11.829347135432453
22.503547677130722,-11.947725282651039,0.11599204315782269,11.81212120973423
19.949482573797873,-13.187409449699647,0.2786841184979162,11.665473498549819
18.696406816069906,-11.030565584832395,0.2594043773297544,11.490374656792273
18.548664909218353,-11.04090898625414,0.2387338174912871,12.261242807345749
21.392927754697883,-13.978695604279068,0.21530124231553274,12.178357569130547
20.146217349158693,-13.90505685349879,0.20646708263387317,11.557163155437523
19.52301057863882,-10.79258061939476,0.19419131875420936,11.62456420087857
19.54777325503213,-12.315717408941143,0.20175942673430974,12.175106861751342
19.5339789574435,-12.231988291379125,0.2497316432228834,11.908095934713034
18.549530231867145,-13.45925313442597,0.2951993905114131,11.27684756712112
19.747511040101067,-11.721052520790012,0.2010568573344062,11.097561307782227
20.851656314298435,-11.66380321215946,0.11596926606896289,11.926209043210152
21.069012795512084,-11.828298415848261,0.13164382484630516,11.592806192343916
20.77056959874151,-11.091596631320554,0.17544994012159143,11.618593546441849
19.034958033371243,-14.399785275740452,0.2946984069146857,11.561147952404548
19.845021071719774,-13.760312383200016,0.29986677131372286,11.701528813419536
18.839665696927323,-12.583877680078588,0.24362644386771265,11.314876500689238
18.86343284176913,-12.697261197688562,0.2747671024250802,11.845263024927373
19.621638614633202,-10.323052437014738,0.19404229587851646,12.082872628039862
19.037011576870032,-11.501625515975977,0.21825342962200434,11.475790930405275
20.19528298085758,-13.499339015618043,0.25734033740161055,12.416161611990482
20.635281103586507,-12.59636545158033,0.2887162079595604,12.069180803988557
19.86068244012756,-12.47598737381392,0.16461269733803935,12.025350422346518
19.926259215522222,-12.046685709684775,0.16141688505163176,11.777149060043818
19.926259215522222,-12.046685709684775,0.16141688505163176,11.777149060043818
20.11572779419843,-11.898641029375996,0.17450215712372497,11.55054584151444
19.04399251738275,-14.04052185496087,0.251794838198985,11.582926664371424
19.71631336334251,-12.537698723415398,0.22618635339514048,12.450027501775931
20.066724400919686,-11.924434158206731,0.22558504699810805,12.393773237301101
20.052698519778286,-12.734934319565516,0.19810712160212984,11.596725785829301
18.802581014451025,-11.891728319899526,0.28269032074341965,11.711098208789757
18.114680215984386,-11.924666026281894,0.27180424872980063,11.340507571961219
18.46631028842003,-12.305228499926006,0.2834267960045465,11.786310083163677
19.68068196376282,-13.054070360606318,0.26249129852275815,11.405924591338236
18.75115743685191,-12.432467621818693,0.28535917197229593,11.91796669442808
19.410456087088424,-11.804813975254769,0.2708372633874182,11.812683363532923
19.098585941898754,-13.612575150266686,0.27059532122467606,11.303510777256161
19.098585941898754,-13.612575150266686,0.27059532122467606,11.303510777256161
19.037668619163895,-11.44461428997931,0.26162238647389957,11.688855504509462
17.094973753592686,-11.447786320039645,0.3524734153364963,11.85136636213959
20.57290406158963,-11.631730977976863,0.18950104113287447,12.139162336505752
20.480665145519858,-11.967578514410548,0.20173277780993384,10.994452500294727
21.00429518196694,-12.710195167402825,0.18803746791459047,11.311498063199538
20.330188900911782,-12.223938026924637,0.2087142801339837,11.544760324352273
21.274389706766787,-13.775342428376819,0.19435376177110136,11.600046341781603
20.608095561097024,-13.506844579721545,0.21145699821311867,11.468439012815361
22.548166013856633,-12.93707655052339,0.10373399801806915,12.036065475906279
22.353609438369002,-11.947196141557203,0.1136853962685364,11.07565768767714
21.003289515872762,-13.623329752958412,0.19748715189611832,11.152942574165532
19.57800197456066,-12.777653195305817,0.2495410239811234,11.890841831805243
20.06212979190385,-12.655933551221212,0.2265063660525296,11.022976617370356
17.88028802281103,-11.54382447916484,0.29124047525546404,11.254018457074919
22.391933375696794,-13.134268795184665,0.12948303572730724,11.99253942134136
19.759706853536958,-12.832937935282027,0.2501993038396498,11.954011605667477
20.166448531415416,-12.185267776634184,0.25362321314980873,11.416023178855458
20.17411425677875,-11.995897381438795,0.2498009949815731,10.646162139583542
20.33097459694031,-13.295202904745695,0.20048441298985695,10.60427768984974
20.8846600544334,-13.471035616768066,0.24039628591627227,12.445647400748731
20.402327755691573,-13.27677888766958,0.1758507065544331,12.404022462402189
20.366389358839356,-14.963646512325807,0.28174364768376425,11.905858729653463
20.541326818645082,-14.834020928912286,0.2643139232615992,12.010838362659019
22.259582435344047,-13.586870296331202,0.17082577707016364,11.579435955653542
21.472554940519185,-15.360084371963886,0.21603576228734533,12.234820272182207
21.501298274541412,-15.540223950240105,0.240344178551112,12.123442707953899
20.70959604256122,-11.326264643629232,0.18273132591934396,11.256819599549317
20.62666890332185,-11.211646754143663,0.16034473411694564,11.889843668961973
20.19136076436098,-11.59875880412859,0.1759288701164096,11.554998903606752
19.66292253527534,-11.051209828652354,0.1986483577907133,11.633316701855358
19.156970680117254,-10.278265919834187,0.1770528952081669,11.758804198699684
19.982364270468135,-9.971781119909553,0.1740611041902332,11.77877419736485
19.90235121313703,-11.685439087792446,0.215825979392486,11.428077972389744
19.11982100017589,-10.750120839308886,0.22181886159616293,11.716553308652433
21.781297615824954,-14.659872498775739,0.18754311263873014,11.770735506858923
21.766764085892067,-12.446016195620384,0.12120646025100784,11.896226450414774
22.012856531774432,-11.893466641246915,0.14944036881429018,11.14432423151888
19.84931393236038,-15.61044766599658,0.281895944208431,11.79383851727821
19.501426404489766,-13.212208016494458,0.30380314877450026,11.557947996917905
19.744514143710795,-14.065175067873309,0.2476898894773089,11.566732093154359
19.98275725942044,-13.682265973007654,0.27277037280074545,11.948963465795654
19.402433595390892,-14.813993339018094,0.2957353212740067,11.431225793943637
18.365027173997586,-10.639660644978742,0.22650763955736883,11.381207651280462
18.623078004141128,-9.829353309180025,0.210676489124537,11.785616603020395
19.018312822435348,-10.224175051931566,0.20312462650930926,11.326845213982812
20.697199642682452,-13.225934458522275,0.2092891901326297,12.376988971896418
20.96911963019182,-12.878672226236976,0.1593180406512475,11.443376825875495
21.363233273900534,-13.07223185909088,0.1877829444192517,11.617136037108358
21.363233273900534,-13.07223185909088,0.1877829444192517,11.617136037108358
21.62391398304274,-13.501011672666078,0.15283559636063412,11.405918622809361
20.324954584401755,-9.923613169619367,0.1540545927408171,11.795409069850049
19.95528325033411,-11.936177474689451,0.19854219786160843,11.445062970534385
21.680653068155255,-14.566701392553114,0.2266302550617645,11.438578616571949
22.68962069233933,-13.468705880938176,0.14709420654375488,11.98690167567302
21.959622319220834,-14.481575793199145,0.1679540309708177,11.94381646258422
21.959278132786306,-13.241389297477708,0.16512562322622976,11.552283843679751
21.959278132786306,-13.241389297477708,0.16512562322622976,11.552283843679751
21.620999133745997,-12.331204693470923,0.14254444949373535,11.90969743903123
22.291257367680892,-14.26627538331914,0.16146115972641745,11.576172018530638
21.416939271977693,-14.971310801414035,0.16286466575185657,11.223539149097778
20.57868007121818,-10.809809648204508,0.13490579864819754,12.464513199490302
21.229691987802322,-11.71599259602841,0.1556039489673702,12.323564987761372
20.524795133540504,-12.29749647296085,0.14099471796738772,12.538932050523881
20.571998777123124,-13.095468951424339,0.19624816660986083,10.896215155387099
21.08184280388613,-13.921378203969716,0.18694371260340384,12.046240529993785
20.11351558717919,-12.431998578295268,0.17946838010433147,11.90243967741552
21.237346272606374,-11.930432091106498,0.17527179146823654,11.017382579257209
21.237346272606374,-11.930432091106498,0.17527179146823654,11.017382579257209
20.379722225405864,-13.43352598145375,0.2501278073528164,11.675271464565277
20.85261263790657,-13.048922068480694,0.2662642210257172,11.71334628926212
20.538619761092306,-13.649652256868114,0.24746498757674312,11.383185406490734
22.707740733509194,-11.814372063582717,0.125144352001342,12.33233143640187
22.817318592790283,-11.606679514459454,0.07558005499012256,11.391154727206
22.64147587393414,-13.86732990074597,0.1439828952084474,11.635607817813037
24.418841149825205,-13.086681845679555,0.0623073114301016,12.092790013643517
24.302298674056118,-14.4751076462987,0.07111853568118279,12.37903174446488
24.305447213704795,-14.067606626833294,0.11454737567573568,11.741477548702857
16.576454891998324,-11.07295739112874,0.2880283895472312,10.796750262970537
18.930959763347218,-14.071622904064649,0.27441431841936137,11.630438514239005
19.744798881943566,-13.476122495260295,0.29684690581463924,11.361613197985767
19.414847804296063,-13.616473062931886,0.25787384910781586,10.713422556993164
20.406159753423967,-13.519230871587387,0.2634117052960307,12.248222320108166
19.179197191260677,-13.35001348352988,0.23731432439602898,10.70040127155056
21.87316111492761,-11.705116250656577,0.15899798476272128,11.643465850514858
23.001810545407363,-13.535090305171721,0.15417712179663853,11.763615915901518
22.96058139426709,-12.777514766362435,0.09780000913190079,11.197657093441304
21.870101661565176,-12.990945486168123,0.15968327929264853,11.60508054862656
23.77799179536172,-12.635798814393647,0.09176256525471777,11.573022659039735
21.287320577696192,-14.817391387212968,0.21746036413425562,12.605176088663397
21.05244447705082,-15.093639595086874,0.21617140022590933,12.388954579745215
19.93148765042451,-12.960897962326206,0.2573825668450548,11.415688891953659
17.196092634887716,-11.049210827320072,0.26416444900795905,11.826310966324021
19.85417915541302,-13.393490603573785,0.2199377076556847,11.89146976157648
21.02749774116055,-14.458159842434595,0.21336179056104265,11.547478501328914
21.568348047366946,-14.5940398010408,0.22113422173901537,11.492356044140573
20.631099961837915,-13.452016137178354,0.1915378879530102,11.669800355226556
21.099613914969932,-10.90644579258561,0.17644535429046213,11.524997224179188
22.085575320798384,-12.538246082729495,0.12488781467502275,11.663292406147077
19.781323218993595,-11.146905571064755,0.21946265031356815,11.263240099061797
20.92798012886608,-11.82027768911924,0.10159661699222756,11.375636451705203
21.916583100271293,-11.621515157633961,0.1565750830722748,11.799271869361291
21.517603647193415,-12.43039249374486,0.11942027009428509,11.946304823021281
23.169352747705247,-12.22814409606024,0.09643704417393555,11.779947480471582
22.39035985090156,-12.94313763542482,0.11131321253629918,11.743593322650579
22.142210495553023,-12.033226632412044,0.11630729324783903,11.641135415417782
22.799646911191868,-13.336821463722625,0.1256091751040809,11.448811075056668
21.29296355580011,-11.870690032404948,0.10567854321606389,11.753405453870856
21.512466167893916,-11.58224170952847,0.11538904357196075,11.909921053249429
17.2943789688899,-13.938157855312573,0.3530475212295004,11.804477639511855
17.848623652746156,-13.139644078381508,0.3418680881434699,11.367905197275356
17.325643256969133,-13.32321524610599,0.3078869393805066,11.617042960295883
18.764361245799574,-11.625632864687908,0.30051484249322535,11.40340547100484
18.764361245799574,-11.625632864687908,0.30051484249322535,11.40340547100484
17.651581126310575,-13.471928678909414,0.28606190970815415,11.716396133645649
18.80604777873206,-13.081008932537236,0.29333598087703217,11.66108159514286
19.047964659822416,-12.955230427948072,0.28069321653745705,11.71729565210731
18.073611380349295,-12.821658390417737,0.2976296663839682,11.224760840259984
20.35849851843917,-11.829766611058874,0.1546054075470118,11.911125778747385
20.425719389176578,-9.913355365157377,0.16185251433120149,11.52289277616658
20.425719389176578,-9.913355365157377,0.16185251433120149,11.52289277616658
20.425719389176578,-9.913355365157377,0.16185251433120149,11.52289277616658
20.881246588596238,-11.81415256218222,0.15060111237780344,11.60281094400102
21.253457624076294,-12.780227201731428,0.16859368625188295,12.429210353358796
20.451165507854615,-12.57906586393438,0.20537737947203466,10.491908243329972
20.36556811820547,-12.843330254339868,0.21228253333448005,10.352984070682592
20.14139754740972,-12.573074647090051,0.2133818440786663,10.542073121960652
19.996943125973633,-12.696492747309408,0.22350546806077262,11.56383212045973
19.73908094993052,-12.658518522608372,0.21709849922157984,11.532344096633103
19.823933622467123,-13.03934864288989,0.27419314974225295,11.547547986337449
21.24817395475658,-13.350495235341853,0.15552390405465363,12.19580857695211
21.12226202509007,-13.432095711220052,0.14633443691486442,11.414888696966075
17.10048807223245,-12.976362063203162,0.30661077340015264,11.22442262182507
16.770785657881465,-13.681240484052289,0.3394536611588965,11.686031439497345
18.56799494777789,-13.626087959486851,0.3094349281844465,11.657077101370241
18.103897454263997,-12.69404801324147,0.3373035630823895,11.71695416930219
19.621731319644226,-11.613133098573332,0.2091036503522955,11.49727458792008
21.168853260017077,-13.195641106742588,0.18132552632701665,11.231519830005023
21.539287764393865,-13.50444702386076,0.17888316551351438,12.007751182227459
21.893494883416825,-14.025964836694373,0.16957758920172455,11.671602597472765
21.660015636351822,-12.378957826792554,0.13136599432274454,11.860338096159513
18.4345998642577,-12.466652934542438,0.27360823460889216,10.92447722519847
18.30986829622946,-12.542589573950638,0.28204400222940357,11.146031022357631
18.936120904073384,-13.203852705642893,0.25422215127034736,11.920526216430705
19.916154689355526,-11.912974402386283,0.24698897685652368,11.331287646382943
19.60665452217336,-12.859828825880607,0.2527687923329023,12.005604252370217
20.348751811206903,-13.067567417885773,0.25266097798612014,11.305478862395601
19.340931833051172,-11.11830807197812,0.2078502020220301,11.79530591998117
20.83270495387277,-12.642786688299314,0.20664783518652885,11.599516597168293
20.50019453049775,-14.51157589674616,0.17267164497429072,12.09135950300011
21.78423169375604,-11.56812093188874,0.19780907079441323,12.177576679576378
19.987023707425173,-12.078592455615308,0.12409084389016402,12.136708057757316
21.05297654865476,-11.189093266635322,0.13815786994738924,11.703835846410156
21.068508957044468,-12.36034324022718,0.18423942536035642,11.41238677644817
19.948298342132503,-13.38102128988687,0.22889012490562957,11.386742674085703
21.752231149900286,-12.386674098535455,0.13235269624049975,11.303629887686697
21.975583508041733,-12.814994645179983,0.13620074438100088,12.502510774526673
22.681891641310873,-11.331385687679264,0.10846666662810192,12.352308943808016
22.35876431957213,-11.923109281188529,0.08931793485313178,11.067416789472645
23.626172649434277,-14.515524917064585,0.1405514777114874,11.950376110650073
23.379738373870065,-15.498904784843097,0.11487239465728029,11.62712375717902
23.356864061159698,-15.370628755550195,0.13171104635115133,11.811585143363644
22.539116274084424,-12.815201890698862,0.15185222227618334,12.111956702897942
20.939075747829094,-12.110161482019919,0.13038396933198956,11.053138057296094
20.98223866512468,-10.805033204067959,0.16466476883689465,12.255604739160944
21.841224867070643,-11.20405939960357,0.16879655264201793,11.304480376199077
21.168479556840875,-11.600919854308419,0.15427399763077518,11.211009737125165
21.345699251202838,-12.501260336075182,0.170276447486234,11.88436498403288
20.855623586204942,-12.775597457315005,0.1995454035516934,11.32520401234651
22.310471085556113,-13.003979102085356,0.14744718773704021,11.169609300655662
21.63996301509442,-14.613116728800685,0.19675400207443638,12.023357053405759
23.369907417346738,-13.139847252278878,0.12146504225787519,11.626773175508308
17.018373247455003,-12.275101805334563,0.3128443457211141,11.89482033235773
19.688243648789754,-12.191868325368233,0.2039646769772451,11.630342304719791
19.7726183832375,-11.626123429496028,0.22243847223488597,11.464457931701526
20.446927690660548,-12.357619231038944,0.21901687501874112,11.831289987291123
20.08232750247162,-13.201335618320748,0.2432368882552701,12.01391117655739
19.672813778166624,-13.090003762709507,0.2743749786639949,11.104036707577086
21.054335483664918,-12.141618562996253,0.1823592596745365,11.293068449544386
20.017201021914627,-14.452731424819902,0.22121068450502576,12.030942699406499
20.721032276287,-14.524983668584218,0.2414354074359872,12.084584485944458
19.321670344902216,-13.311293021117084,0.2737821052530588,12.170506380663875
18.679580491685734,-13.239308320144582,0.2951386841645527,10.569262065045743
18.417925538842276,-13.487999132490973,0.299248976168985,12.619411726205032
19.16487577977653,-13.085758936878346,0.3289576272200328,12.469373436617682
18.39153216859319,-12.144165346372255,0.2376633152369105,11.624446346494437
18.61021176752281,-11.911975661796241,0.2493932600481201,12.18881006436235
19.02619970343561,-10.972556389878875,0.25152479000651223,11.534571348422716
18.34004334880359,-10.31810386173172,0.26689871569978996,12.225219018409287
20.0473005093891,-14.185761404623488,0.2510412460941027,12.05508260073519
20.399462157954552,-14.025640651817685,0.2396183102404956,10.9381784444586
22.158229381801622,-12.084113841819562,0.11197475218987897,11.608072279232005
20.423993519485325,-11.839791737090522,0.16206724137859138,12.125187416401635
21.61610452299131,-11.995926468956178,0.16625392491288754,10.872360038397746
21.259848272275686,-12.090480443881885,0.11980721482994748,12.341950602079502
19.673640344832624,-11.23096963460423,0.2205500575359664,11.549596478999312
19.21868119643894,-11.891227775440749,0.2137472284238284,11.745809164276327
21.3271616720244,-13.01093341352813,0.15396303639824957,11.758001922694456
21.596650454510208,-12.299906673155697,0.15772241931224834,11.246059191091657
20.076055782837386,-13.517864203906775,0.24785965577000715,11.565789834056684
20.16593401362585,-14.220298137768307,0.2904659726487877,11.32345886128412
19.84924620117314,-13.698739302472681,0.2719696189299932,11.203688866498366
17.706465093277,-11.824741674306194,0.27282567077544173,11.89308705296382
18.630177636631878,-12.52966939512918,0.28154939342717167,11.316994965113432
22.325822868950162,-12.675934046745882,0.15884441802112262,11.186166970695206
22.325822868950162,-12.675934046745882,0.15884441802112262,11.186166970695206
21.140299781570157,-14.200726801537915,0.225301255416914,12.122319012619027
21.164186939843567,-14.543683537556257,0.21880150519415686,11.208654918464221
21.4942078468007,-15.022835429310177,0.22621341034268547,12.389771119201358
21.75671657267181,-14.498655944437044,0.1919984911519379,10.852104502320499
21.72822223366938,-13.852424655645184,0.18191263767943883,11.898208309281493
21.72822223366938,-13.852424655645184,0.18191263767943883,11.898208309281493
20.219713609644682,-12.038152196772574,0.17835046058560725,11.279521341111622
20.198820640258823,-10.395751004996942,0.16252504504137166,11.911574779019446
21.290376808625542,-11.612423387994365,0.12471882857798858,11.46438273924833
20.73542517374861,-11.474059209936158,0.1507944911059722,12.361936135179835
19.5468191441713,-10.504535411188508,0.16754701048837028,10.510866131304196
19.285681034988023,-11.370103519825287,0.22408318394581292,12.357247779319012
18.573736185239227,-11.723333127301734,0.21725093564615372,12.740761643036999
18.422421100943808,-9.980417031703993,0.21709092534417457,11.940130026960055
17.000176052031282,-12.128899372095532,0.3236185782837973,11.704314382993461
17.349949473511398,-12.164362421573577,0.31279212077024077,11.833564435897493
17.349949473511398,-12.164362421573577,0.31279212077024077,11.833564435897493
16.350520229679194,-10.536795632501404,0.31901719007256324,12.514408071066974
16.892753030590946,-10.629567202486594,0.3341317627539471,12.789552543813864
16.454258160624185,-12.079543534159429,0.3527208350282774,12.426953841828748
20.06465909629769,-13.077056573473719,0.24237660810155062,11.457560719148562
18.793215307642427,-11.715819086624292,0.258866821520158,11.651420769772463
22.288392566323292,-14.662500549412014,0.17563445923505336,11.714352277998515
22.211214249382316,-14.64309709554688,0.1811864002060549,12.273043100663427
22.114996662246597,-14.275384387336985,0.19309895738088412,12.57085413231618
22.074393646406776,-12.647070906211908,0.19508766381701426,12.244934654301526
20.841286429174968,-12.516704408444777,0.15865195345240704,11.6394982035172
21.291834597655843,-11.740888601553747,0.188619648959732,12.038637364672848
20.649806134545848,-13.312242954157794,0.16961133558705432,12.241434912960894
20.620618508217348,-12.924899361034457,0.22302184995882365,11.497660528282474
22.574437019899143,-13.088134631313027,0.10761171015722959,11.689467997289116
22.57748514652112,-11.987335945545258,0.11586204460258859,11.331962525885896
18.921278276486962,-13.397398877133098,0.28754890133699046,11.048279620888348
16.56437277648492,-10.820785778624057,0.3349142716443964,11.075644237787175
16.56415724184979,-11.820740758505966,0.32525319240773726,12.184029881609478
19.65851670168594,-10.714177631250873,0.19520493345977424,11.175559239739654
17.96060280471415,-12.97113128549417,0.32992934649936434,11.15859921090034
17.7092429723913,-9.509490045299538,0.2606987510081892,12.277462772310251
17.923790948974816,-10.162182421528083,0.24705406324699958,12.157964408455676
18.896254039588445,-10.741156067089474,0.21714429143712674,11.204364279243414
19.27469806201745,-11.437571499129554,0.22965411540662956,11.77467155523881
18.39576213407682,-11.550992159602668,0.21171649482972718,10.506231223257917
19.13400970755818,-10.31799759615994,0.23508164878787574,11.1369066561888
19.053038084268,-11.692086538857213,0.21913773560179445,11.956819106276903
19.851782610895345,-11.167745620182272,0.1851971676367429,11.325942925944842
20.418967895891935,-12.986440820265392,0.2289828287214876,11.9727212979899
21.856001123228417,-11.715534511585943,0.13662763844968157,12.671872554691536
22.023255978022974,-11.98746954826052,0.1200629359788567,12.908796929369236
20.518887009321702,-13.214440469529164,0.21623448388797065,12.441872182456429
21.013473405593672,-11.911753944900093,0.19530817371750808,12.214063002192798
20.82177545235588,-12.25375501252207,0.1863992371593918,12.406413777915263
18.27601778477767,-11.498899954274297,0.2829361250587752,12.435724148151495
17.155980543452543,-11.960827755070268,0.32955869340599964,12.136848086297872
20.016011158630896,-12.889283066972885,0.250919043747432,10.844484294564984
21.791994563435708,-13.879426814187584,0.18774708523818828,11.683630537246398
19.293138232028802,-11.370716220048752,0.20575329309855123,11.390133105974222
19.95795806910594,-11.670635431665477,0.21867851861005205,11.775295778628955
20.51010814610391,-12.190122692932857,0.2119615737211502,11.339874591161877
19.334608713525505,-9.91617277608784,0.1990906434271616,11.83079441720179
18.98195255128184,-12.418034119424686,0.2313115116416079,11.738415580565267
21.997007129280206,-13.68992952260156,0.13831458959630105,11.498031791587747
22.644348310330873,-12.852011944057987,0.1453418984976399,11.62824774524455
22.6696934426881,-13.313398697713813,0.12537348861441777,11.010178011489844
22.6696934426881,-13.313398697713813,0.12537348861441777,11.010178011489844
22.6696934426881,-13.313398697713813,0.12537348861441777,11.010178011489844
20.250493753366495,-12.017446475756214,0.1871788888314316,11.09889933266426
20.250493753366495,-12.017446475756214,0.1871788888314316,11.09889933266426
20.250493753366495,-12.017446475756214,0.1871788888314316,11.09889933266426
20.64335190309561,-11.596772740399409,0.1701000302156536,11.84102804313961
19.735509134557876,-9.043507402000229,0.17860088426310722,12.01137900652309
19.48779367656949,-9.054419655246084,0.154283542306317,11.711638456547787
20.559047171669896,-10.305969996510473,0.13811346339765518,12.060685230211892
20.39431442793472,-13.033152594218446,0.17858299373896722,12.241614436801196
21.095080821984844,-13.792032406849101,0.2062169392263971,11.480309412554018
21.141901759459188,-12.829866290373328,0.16134557179511905,11.62580609532561
22.635590033566746,-13.518533487369202,0.15378181291520998,11.344711780157482
22.513121925502148,-13.63015568339518,0.15443148402737042,11.452297325963645
22.513121925502148,-13.63015568339518,0.15443148402737042,11.452297325963645
22.081749315793463,-14.111476249720774,0.13857684123706585,11.369338072015832
22.081749315793463,-14.111476249720774,0.13857684123706585,11.369338072015832
22.081749315793463,-14.111476249720774,0.13857684123706585,11.369338072015832
23.432919914425526,-12.78329262069912,0.11530690325635293,11.708710167282309
23.423861917578627,-13.040645958702509,0.11568669001446169,11.688715325558373
17.714809316479165,-10.589521127412315,0.30228912824428955,11.68614779471885
19.04686137867555,-11.54444201054133,0.2275712955728848,11.49308761999655
19.629238012263436,-14.910121675316852,0.2762589839909707,11.771315585299224
19.598499840176867,-11.627184748846387,0.2345496611041886,11.199671399803947
19.759189586037913,-11.259163980666294,0.22550941439957542,12.113304866233502
23.317260728102497,-14.053599967748704,0.13775632397952736,11.884836678246852
19.60558957723709,-13.316447866790757,0.25128108222081463,11.078253006420587
19.53146667496232,-12.87717722710516,0.25385422758203685,11.410511034974842
20.435332449031243,-12.775818872272907,0.21735776582088812,11.630455013505824
20.435332449031243,-12.775818872272907,0.21735776582088812,11.630455013505824
18.168319006591847,-12.120802949748173,0.2957893722706038,11.69266230366593
18.698389327520434,-12.526545939114692,0.2787569732234747,11.323854855859313
21.374756416830397,-14.389324247491908,0.1995683515807713,11.362637348352902
20.856488453853835,-12.707696252357131,0.19800326067448237,11.60480991005616
20.757816278913246,-12.023312882727787,0.18097657077068255,11.608536579038713
21.36310694791215,-13.2539366256073,0.18764331780972657,11.40699945397847
18.52356390708013,-12.062111222032518,0.26557751244242184,10.895372790420264
18.52356390708013,-12.062111222032518,0.26557751244242184,10.895372790420264
17.423472343070824,-10.113112425207847,0.2851178212569803,12.063258593022676
22.252805987157814,-14.552112736737076,0.16213482066898355,11.762655153255903
19.137508630243637,-12.161452041759745,0.22673587870716602,11.55025269292626
19.056922173050754,-11.196353715765609,0.23402952483762063,11.591833180503533
19.14048215000621,-11.53999612360321,0.22601410485135506,11.404181478893166
21.648536631240482,-12.880931564529105,0.1505569563138575,11.193518446046305
21.648536631240482,-12.880931564529105,0.1505569563138575,11.193518446046305
21.648536631240482,-12.880931564529105,0.1505569563138575,11.193518446046305
21.23283144148423,-12.160535827761333,0.15320762420487333,12.24317434070667
21.297754029405684,-13.413754270562428,0.1684509023585481,10.847934813905855
21.22291440799561,-13.807563582440574,0.19453023895237745,10.664322264328602
21.66308907001887,-13.671715071773209,0.1968413296865578,12.171422332683358
22.428474306604098,-13.629138048417529,0.12695109712695954,12.035831820477297
22.921326840764316,-12.318855730393398,0.13674240452085742,11.952778588950242
19.523141692396727,-12.581388797646962,0.2792442537023717,11.997117557928574
20.28874352793016,-13.06431406940195,0.23555370933747843,12.005526511379589
19.253858564367892,-13.225821636650947,0.25785102019533296,10.811910655106866
18.899792966722796,-11.34764848082733,0.2704886606554319,12.28957652717982
18.322168302542124,-13.429749519090485,0.2951816591947555,10.902275888835486
17.692421959828994,-12.087840045271374,0.2982923494219936,11.544671489945166
21.13305861194986,-12.651547501151358,0.20092659423513248,11.112025656976241
17.401535135992678,-11.979027938632035,0.3090959250458298,11.539943758174566
20.121348231219947,-13.3440222290853,0.22787322899319457,11.491536735757233
18.79264543643793,-12.444935186480967,0.26859212067594246,11.566407191076689
17.92359758249527,-12.997374753221287,0.30569604832235103,11.932865486456976
18.228434014163426,-12.518584071922527,0.30315625960346365,11.86027431385302
17.77328163892782,-11.631167233700964,0.3101579305059884,11.586222399846848
19.239373149819194,-11.333059415746568,0.21877427314972253,11.807144101783187
20.883932799180684,-14.292299662366057,0.2287192173842626,11.585989082960348
20.385512254638133,-14.01467568812958,0.25196724267710724,11.560741289560166
16.95045546025244,-10.98871512429132,0.2863621626084018,11.476685698127017
17.131340434006177,-10.436958070773745,0.2991282784500369,11.865747869605757
17.79532306344186,-10.699887657412804,0.3122853969285654,12.305593971765038
16.850412979164687,-12.442930005246703,0.29618129116924663,10.848391266673904
17.820935380025944,-10.436185168642426,0.2973938013309075,10.780693605339827
17.059412619884608,-12.68433766716442,0.2812336622095348,12.512494603082041
17.19289596984138,-12.098631604577934,0.2877406817998793,12.323358152041132
18.364613856833675,-11.274185770971389,0.27656072671846943,11.992423785659867
19.924211055760175,-11.765898981450388,0.20610289589763692,11.846111124606107
19.101936505132674,-12.07830218008817,0.2823255250031987,11.257083184707543
18.43172786421395,-10.769659272799407,0.17614169539329608,12.044184388643794
21.609776481897814,-15.651184326484703,0.1860081841288938,12.141230045265814
22.94854446753197,-14.162253876405945,0.1875310503045475,12.269069133301105
22.36134951127506,-14.518714356835915,0.17861849617940592,12.159990313390596
22.34790461729224,-14.191073262223664,0.18179611025899517,11.124101813655109
23.112233267041155,-14.022745662605228,0.11408779652430831,12.447201350183306
21.642739460263247,-15.232275255378111,0.221202981395277,11.386107148091432
21.336344607154782,-14.921047089188713,0.20824929765990197,11.804087308224478
21.50822461164986,-15.558747942344148,0.2577547610639929,11.659837993153566
21.760206251877033,-14.204402284411506,0.18812947829389512,12.48890432042524
21.14859320392802,-12.224308608172857,0.16308136675813378,12.63345041364922
21.14922958272012,-13.09791391544587,0.1970179292534563,12.463780926494067
21.430755767564282,-12.451737456650122,0.1519158156242699,11.16442809324843
20.73203607358777,-11.264237210447616,0.13414508197643116,11.988183222955099
20.830704118668155,-11.18378699133411,0.1726208593363798,11.348810909377095
20.535094636345043,-10.334832363022848,0.16451558372585018,12.013020223034207
19.91989899463013,-11.618556348124647,0.21087972262222415,11.168754872745424
19.730908264041254,-12.274698364734537,0.22312583399956887,11.455786334734547
17.68756473960084,-12.47493458623128,0.3269117894914399,11.974229117971028
21.483026084543663,-12.518174304304418,0.149028016967021,11.60896994488978
21.137620883485692,-13.404502246074495,0.19273872028854488,11.386038215898068
20.93409335370851,-13.673344234980895,0.18805432495632765,11.423125764925073
20.144214524759867,-12.569723410350658,0.24142425953849486,12.069833996502489
20.201560215751172,-14.018499013652939,0.21456184529889666,10.976567883148197
21.409326336668126,-12.683895991524302,0.23815136577174115,12.169214058222863
21.007663752987533,-14.060206249206516,0.17350274725642215,11.737618068957103
21.191142393609177,-13.84053483525115,0.1762627951267301,11.648504107741871
22.433670286069656,-14.214531608478453,0.17717197429772313,11.68077761737312
23.503433029480895,-14.159276147202265,0.11864894686702099,11.504880110753321
19.87497708113836,-12.211873796512181,0.21045350596383267,11.495485171950746
19.822667326105954,-12.406315500661993,0.2191823324128354,11.428355938985513
18.73088812246818,-12.958379668287074,0.28310145439719936,11.67741621218154
21.60055091102622,-13.03809494438546,0.17011977513892304,11.407957424628291
21.39699584706883,-13.511526872528469,0.17635142022385283,12.093428299803069
20.56589672112849,-12.589560438587872,0.22547355585556747,10.967417284295992
21.5977921090668,-13.012733378326068,0.23357634888974368,11.4101868726824
19.319781145672348,-11.766714381253125,0.17629018258281742,12.26838927368281
19.978897821402324,-11.417938840039092,0.23676024535674794,11.545729948143824
19.832908277191564,-13.091161517096966,0.2107203497357037,12.574229153816544
20.709444971901544,-11.660806166358066,0.19373724724216584,10.717956819814601
19.705823854812138,-10.894075198282115,0.15231575042928427,12.564336484043043
19.80502445242047,-10.682501034875004,0.14100572985933013,12.333366903365231
19.871589186390093,-9.476087785706914,0.14194740872966144,11.887004066635273
19.035770475196042,-12.958297693586307,0.29160612901192895,11.334285450447798
19.09163907326681,-13.672859325632974,0.27890079806602075,10.605066434495058
19.331022356826843,-13.027709448730217,0.226943711420456,11.251484253881916
20.736588392224046,-13.360071307740643,0.1766451304898831,11.191789536079352
21.901567634450238,-11.901829704998715,0.14358524532089878,11.917107969366267
21.82618735948615,-12.404194222058438,0.11867160659355026,11.10373543306899
22.403808816411328,-14.591796853657147,0.16815179783213907,11.732330241460383
22.39220247371897,-14.411204162683926,0.17281476617063446,11.946123523145795
17.927172795278647,-11.605533896018525,0.2827757647239961,11.819226524550425
17.41425467075269,-11.885305994403517,0.27293717191616623,11.741214170545184
18.314155057001916,-10.83366907155931,0.3011278666243049,11.647791885923445
17.156303430976084,-11.463266356965631,0.36832619450685666,11.98193145421129
16.108823052558108,-12.247304065400513,0.3233226201060132,11.481302599521984
19.5570714762491,-12.382531981052564,0.1850836255685137,11.672581106132222
19.295969759287534,-12.225145750964165,0.26123487841540677,11.970757850125228
19.21291187877371,-11.497155891989843,0.2615547634377519,11.268199509225834
19.25731292100522,-12.195737467731377,0.1911317465885262,11.872662515592804
19.44308345670788,-12.295749305033826,0.2809897596690797,11.183679157538341
19.124752781321973,-12.521127415917794,0.2697372788526035,11.799917511380201
22.20808372021548,-12.678665399452306,0.1348636032667949,11.767398093939411
20.165105842917672,-13.472949761673387,0.2699250564765463,11.950126442374568
19.041770738216776,-15.072300388131033,0.2785455415426429,11.698066736239028
19.297635791152025,-14.532604407892663,0.291437002559731,11.230599777478165
22.344445405160943,-12.488254208352942,0.1141171592691759,11.497344422228803
22.347743396560315,-12.293460308161446,0.14129775154772536,11.90199466046397
21.287784855831905,-12.566797009741721,0.14971230475966044,11.234205208210428
21.287784855831905,-12.566797009741721,0.14971230475966044,11.234205208210428
21.130547875467187,-12.686459055925818,0.17769813931040093,10.95067794177067
19.520779770552974,-12.385034451992894,0.20759717646945405,12.254131622138383
22.573411441694024,-13.787167321678888,0.0979490379848407,11.476666841749674
22.604099086407647,-12.267680907857294,0.1522700664566241,11.754798239607025
22.71781667725038,-12.642984947142804,0.09441972035559973,11.457063522602425
22.320302595258216,-13.363860244494425,0.15047251862493757,12.160244087556007
19.949894954527746,-12.636115425735753,0.20632494690027744,11.958446649765282
20.582618891473267,-13.83820628947968,0.22101690469711208,11.996668860882163
21.56078657604008,-14.28352489287841,0.20391440854743148,12.096868816409957
24.080986424859994,-13.855542477027441,0.08027099967481771,11.67369047613406
23.38301203251591,-14.216337879102351,0.08153853295027444,11.93185494755045
25.023182828992535,-13.843861454263847,0.08099764347304275,12.160847175003882
20.565544006001694,-11.659309481885641,0.1929315813957358,11.478237775365065
21.000548133299336,-13.16362231352554,0.16654886569325153,11.591629458604839
22.55553453260934,-13.355774497121262,0.15298676997564753,11.55811979818821
22.042846909824426,-13.821942328351666,0.15276123294872598,11.535190329113833
18.376572238580138,-11.73609520412783,0.2670262314473216,11.27246222070847
18.601662869242237,-11.32890989107952,0.2418031574077891,11.835424503442086
18.945368964090214,-11.338083511367067,0.24511739553574138,11.493829547603317
18.84991313111692,-13.234316984817891,0.21474811836859356,11.707818679268616
19.157637104599953,-12.206885666803121,0.24298581209613104,12.406916343800518
18.614035396581134,-14.329730365503028,0.2948225935811477,11.589671190663857
18.01245602011455,-12.261642787849393,0.33122291846332064,12.429969517558007
18.068057312608765,-12.709891020541466,0.3291618158207774,11.682693777033252
20.408550910309458,-11.159448728125062,0.18268819149795118,12.098327299533905
19.754138713255315,-11.52170271032042,0.23786962989755076,11.964394135898697
21.464840127952694,-14.675951899313416,0.2111646315750313,11.731354071077154
21.99867489276686,-12.343852036146787,0.07306498642296765,11.615717441091611
22.057733053670898,-11.43411566544578,0.07770049265006172,11.796001852599284
22.971346731886435,-15.123124871275065,0.17682604048322528,11.726433874069889
22.31183210741757,-13.887643431024607,0.16101669147553807,11.557505737769285
19.66105579764089,-11.595071458025677,0.21467794842028914,11.527074710382616
19.656097356605446,-12.073880118790257,0.2402646422226435,11.66892422968204
21.193418968843844,-12.656958692511388,0.15532945553688673,11.597754574146077
20.48440226588273,-13.27385714259303,0.18973263892463854,11.54535179218664
21.628049052809583,-13.314629162449526,0.2029789560164962,11.261603453529027
20.601126492165385,-12.611733308632767,0.19755204180877073,11.444527336018991
19.264382298315915,-11.890433323347757,0.24804592061042416,11.622288930014536
21.480355023464906,-12.833575437006024,0.17361914791821254,11.500275026191135
21.152003238225095,-12.907490725290728,0.20853998167984164,11.456664308792087
19.07038854813199,-12.604516331647256,0.2654448018350454,11.645250995272171
21.55331623253545,-15.395967758511626,0.2281321412537644,11.239666334460269
17.15948189064753,-10.102767899014939,0.2665298067337645,12.289529154127024
22.189382637557756,-14.973414372953822,0.17072353252407418,12.180551528234497
22.656820405570222,-14.163641718082264,0.18832094397184324,12.267952045854036
22.58136652175925,-14.30035028764471,0.17730374514950129,12.164212779264636
20.58019471833738,-12.235077222651604,0.21463396398790557,11.830812288030824
21.574814938206313,-12.231401542522882,0.1305625981492071,11.34985411048572
22.37586682610276,-13.819156624811134,0.12449288079670011,11.664489427746586
22.87960811492683,-13.606143426365048,0.09942919924732603,11.835138219515446
22.76327661788168,-12.624693999120549,0.1086761439159917,11.525871964709564
22.99234795527046,-12.96513137518708,0.13370798619606444,12.162249179319685
21.1938212628642,-13.620059507722333,0.16829646242991297,12.06937692661195
22.30461586733376,-12.936561334468625,0.16758322199698755,10.778164794101825
20.42643870682406,-13.293645309272021,0.19716188110832844,12.216442310685682
21.148070307006478,-13.783515526996213,0.22106710853396502,12.037526593026845
22.083623018516942,-12.295171408377337,0.11952539100625512,11.651579343526615
22.021996652986772,-14.125432213518692,0.16604177166061018,11.225606821488643
22.28130071026946,-13.532759385629422,0.14471254397931343,11.862825623857507
21.176328716340382,-12.529056256761978,0.20308284543741184,11.051070741885994
21.176328716340382,-12.529056256761978,0.20308284543741184,11.051070741885994
19.055352691782925,-11.57532211798781,0.2083995671676478,12.160008301254436
19.699205592332206,-10.960646499883572,0.25270704976921093,12.078088955736801
18.399324680390514,-12.078780000619144,0.22807725272949544,10.87503646346802
18.399324680390514,-12.078780000619144,0.22807725272949544,10.87503646346802
19.771985998713497,-12.19579355488313,0.263323542350248,12.22353095711364
20.30233152735411,-11.956891753080672,0.254735438517225,12.064822174711312
20.471117037832464,-13.130285982774836,0.18414182765206244,11.305289747911344
20.881047020887213,-12.399522667558589,0.18257614386098742,11.898383603459699
22.31644790922613,-11.479790430402764,0.12743888427299654,11.445588020982814
20.39236747473085,-12.374126080362462,0.24594238737190782,11.688263415685052
20.6418419117096,-11.919195779811611,0.2419603001251172,11.788326414175911
20.278592109154047,-12.010625743522114,0.23258265885919624,11.71180593698114
21.628580782304944,-12.130506725825747,0.17795898753078515,11.960451979876007
20.799421186071175,-12.08861502323062,0.17224506509678794,11.665381758880804
21.469744365226585,-12.796550219203906,0.15414343748014211,11.867801461057685
20.78710345948239,-12.24700411967963,0.1894848357009998,11.038054784948717
21.53162233557612,-13.461307732087528,0.16477014199426473,12.244725234550968
20.444247446491566,-12.491410762920495,0.19281084961486591,10.876684433932457
20.765002995510102,-13.648225526773016,0.21496076983128987,12.150936416471012
19.15726847091566,-12.221228186713173,0.2589400758937818,11.936726789062428
19.96436083516711,-12.359128975420582,0.2165154944323867,11.991172551348205
18.760498825974768,-14.10231130571253,0.28043449842234563,12.371028263151596
19.14317325066907,-12.604210747669226,0.2712479956978866,12.399866831869852
18.53164913955623,-11.987592258927767,0.29185867940455656,10.974677918002147
18.53164913955623,-11.987592258927767,0.29185867940455656,10.974677918002147
18.184362760694054,-11.191310200238973,0.26751928578860223,11.769187453153657
17.827412305647563,-11.928437606111089,0.27291880267625745,11.431167781864453
18.549506120394852,-11.537482339485747,0.3184165178003004,11.933456874915993
19.87627078837164,-13.034285377527729,0.23137354448419026,11.30161222414901
19.395482891954888,-12.446598773582718,0.25724942828270675,11.740113806100632
19.977936548193366,-13.11888477605915,0.20728560891879372,11.482799440060695
20.506543447209896,-12.626210437540754,0.2354463596764146,11.670370558080577
21.120289918293842,-12.607890356137796,0.16388904958233694,11.667092361731076
20.32340632569777,-11.379930761514736,0.19037320200781932,11.835731168811083
19.785585364671114,-12.892530554598782,0.27435977017991214,11.766530396805146
19.06232410726207,-12.615684853072489,0.27472960878779373,11.41220131927828
18.88214576716319,-13.232395683430797,0.2670996421703503,11.704829643498774
18.710560708272304,-11.21922521409227,0.24164064277343317,12.038272330200918
19.83965930709974,-13.585639610719857,0.26671826401200804,12.116705236337333
19.349811245736046,-10.587331089322696,0.22509423233286574,11.618095275009551
19.64285662204886,-10.951566547517723,0.21702275157812734,12.021594476177452
17.828554108541585,-11.599108736473724,0.27529036210660573,11.67378483071739
17.439482699083563,-11.358338612793952,0.2851503750468123,11.596289768686058
19.01093158184428,-13.351471933677027,0.2743894543794457,11.663267261575154
20.118868051887166,-12.234047870186062,0.23670358587745602,11.865118313068207
20.00468734524168,-13.269005307741729,0.27315679647245666,11.326352654915594
20.22378532348131,-13.190661837796931,0.21863292211769145,12.228390777571294
17.934719915681203,-13.34068816143557,0.28594779269027404,12.188935005907371
19.432701203123024,-11.507022371126089,0.20858184554437942,12.002482377419451
19.39395626531575,-11.664193458241026,0.21776709743575184,11.735242238974196
19.39395626531575,-11.664193458241026,0.21776709743575184,11.735242238974196
19.671227991220505,-11.5454497977847,0.2042447745021082,12.025645366141287
19.42766286237756,-11.135666426816677,0.24787215313186242,11.894519090884186
20.140208681203923,-15.281741527413864,0.2642384220837263,11.626506348607466
21.937712728447444,-13.254659022589541,0.18708824977182903,11.884129118507396
21.01258083228701,-12.88902840253602,0.15958354886259954,11.931130459016625
19.142883410422552,-12.67451603846865,0.26519946434640806,11.767671305104177
20.21574547197575,-13.684923836178582,0.2548235818762853,11.30955442429816
22.023691821480796,-11.567557297125742,0.11466053404736794,11.395483742194578
22.023691821480796,-11.567557297125742,0.11466053404736794,11.395483742194578
22.356739604680893,-11.933456713505727,0.10673420365819222,11.682518088869621
22.022223432593265,-11.743338285171237,0.11099335771243632,12.698723552165688
22.345389132033198,-12.638181573400686,0.10776289278691405,11.423332975355027
21.644908429030025,-11.03988111390417,0.10987300812989798,12.115351963532742
22.39297407163137,-11.893364195351246,0.1219563222047271,12.144668662182923
22.684467059420324,-13.4122533737101,0.13121910543147236,11.639613872290639
23.310080826675293,-15.553191091559166,0.17697887916224386,11.837304138055977
23.22803403085764,-10.954867045500645,0.04916991818815674,12.142902420078359
23.224813998513305,-11.945039144769666,0.07809824424778476,11.420459638126559
22.391132573754415,-11.471503040796035,0.07567308003451398,11.701599628754526
21.15919523058343,-13.651614825758704,0.22298230708902333,11.7819030528377
21.544821521974974,-12.640740048403782,0.21177087570841957,11.873776305615822
18.789059062219113,-10.145538899056543,0.21403149711879557,12.031094945363893
19.410290656241788,-11.2609404925938,0.20886491515684416,11.827138151028683
20.348685285199455,-13.20924165285586,0.2616883348361679,11.465021106802709
19.804286077322768,-12.589959029454336,0.1943308043487768,11.590873525540244
20.030417554556717,-12.541652293955377,0.21341912547402975,11.367034575835827
20.823411981716983,-13.300212794113714,0.21914227957078336,12.087644253914728
19.38713958991821,-13.871420383543006,0.27095211930035307,11.05081496951106
19.255333955695743,-13.038893215479003,0.26394692626394045,11.55845403193286
18.5472513624051,-12.788418137000319,0.2195707581990784,11.927199362109013
19.15734662624838,-10.845178993894363,0.25997682939321237,12.567705172238533
19.39474876190918,-12.684609813097499,0.2140386778306889,11.984509018385175
19.813821260253313,-10.70849998678263,0.19813686637939745,12.930373372262295
19.70446895275457,-11.283342404809854,0.2133807786331367,12.26657713857746
20.587647301996768,-14.894243915521901,0.23375022042043525,11.333689072304834
20.027050009523606,-9.998065420383792,0.16887722295204485,11.84289261713963
20.498813652130625,-10.849251706216922,0.14555597432143547,11.412527689051824
18.844450069336254,-11.844703504993806,0.2568315417093496,11.732603413106768
19.97821200162032,-15.523766632247819,0.29575958482929504,11.552356933970863
17.88730862816065,-12.192324791129224,0.3041403236541536,11.703628939564778
17.894637799204833,-11.847526780694576,0.3075329190462181,11.979295474987184
17.679429419093836,-11.223332069057193,0.290605455978208,10.938861772871658
21.267035829379566,-13.355416390074273,0.19085142919558773,11.844207382726163
21.239544684533094,-13.66883359260839,0.21305010871930186,11.511322425056358
22.94909581224695,-12.265168191210545,0.09175006142120552,11.598839260495497
20.332543725617537,-13.749601858288955,0.2475735498118155,11.110500167102915
18.9668310215737,-12.963468885716779,0.2811609790457555,12.083541878856225
20.51180268124836,-13.354510804972902,0.20578849927013193,12.295251663969225
20.36277522455449,-13.127351348208338,0.23299946671287292,12.030972231420238
20.70040784376676,-14.758981650337143,0.2618904700614517,11.265087542268702
21.52482946288111,-13.427651071295362,0.16510885938087033,12.20740007877717
19.89408870481059,-9.987343486856682,0.1832179180967614,12.069277385122076
17.79636034690493,-12.509560027770863,0.2828830060062226,11.537196836827638
17.90000131928264,-12.613753574236014,0.279879471751396,12.2975475761877
18.81294267129058,-11.17314211143073,0.2481825475205361,12.257729715401268
19.827019703573995,-13.173903493258276,0.22724132832857097,11.338495694451808
19.937655872404445,-13.372134119748358,0.24473223817324435,11.623543516248784
21.53633911727956,-12.810484247561616,0.16216335133825513,11.460840550524178
21.53633911727956,-12.810484247561616,0.16216335133825513,11.460840550524178
21.73599529918866,-12.162720492779837,0.15009373541801102,11.605151691941275
21.425277281739962,-14.332085985126719,0.15225462303831264,12.16548510082442
21.588823374551627,-12.109650590629252,0.19768407452781372,11.692332788115948
21.084354221412493,-11.472676016270425,0.11908510137183348,11.875095535395884
19.120932618087533,-14.172907197631718,0.2827510900940041,11.82258208388891
18.237401937048364,-12.545666272147844,0.31490000743814195,11.219907030673127
18.180182800335697,-13.421263337392796,0.3356295313021793,12.058866176918688
19.62432331573725,-10.998250767993536,0.19886888251805693,11.969413278866165
19.5756662868484,-12.937080375673396,0.26250925854205737,11.717697901579752
19.713074352775823,-11.302756171899604,0.22353553864251138,11.975575647459431
21.05051137089675,-12.361585045728441,0.21881721936056855,11.890817686048708
19.944179331017562,-14.563887924729327,0.23860905453432338,11.256139258142285
19.924142236972678,-11.569861371171397,0.23190902206280586,12.009670385510086
19.922047029853022,-12.038709829643743,0.21887447245716235,11.098217992624
18.01010446934692,-11.314104704369354,0.2919089768986669,11.648531267411288
18.54499671800719,-11.765291827984077,0.28757657431842676,11.716606648677317
23.71680842095686,-13.428404186260929,0.05697659218157516,11.152129070480925
19.0444909478813,-12.107882579411804,0.24026539126017762,11.35879097305651
16.509030072783155,-11.273421688714366,0.3485421186529698,10.9731830154409
16.21580263639121,-10.414592895509415,0.30758983503186876,12.068155567026075
15.697506862364817,-8.913172270805337,0.2887571474698008,11.539778624524823
16.047511138198207,-8.448229274139534,0.2979269276342741,11.214703738245994
16.925304727370428,-9.215423494423986,0.27604407732126446,12.356738213989011
17.69396924978498,-12.016133826660386,0.3092638947760451,12.194946572346618
21.814831449674944,-14.045868283171002,0.18071376435160047,11.841959014010166
21.411815810075296,-14.854105145950394,0.17833666588645267,11.115558359831535
22.103859220324576,-11.43372789353088,0.11183240087198137,12.002076269748724
20.85528436123216,-10.47603402726,0.13908480088945935,11.154461036423017
23.09654100972344,-13.337295304820953,0.09547934758860936,11.841903802725454
22.071084355645933,-13.953009452361819,0.1284534521858124,11.762373898662952
20.52258208873322,-12.606388313500434,0.15042078494719896,11.839678967195287
20.74689231971744,-12.334784351372207,0.1450467786388083,11.746926890744973
19.645766003203892,-14.30074333370595,0.2951416592261948,11.211078169572659
20.46281427978852,-11.405781389094212,0.1381385785033577,11.349076696542197
21.309326999208157,-11.122160772273025,0.13947361851078835,12.139010191676148
22.046456916990103,-12.194652957511284,0.1376395582852276,11.39485995100824
22.046456916990103,-12.194652957511284,0.1376395582852276,11.39485995100824
22.046456916990103,-12.194652957511284,0.1376395582852276,11.39485995100824
22.39285125383864,-14.084305744945993,0.1931262993780906,11.971494680874914
21.991400149689312,-15.197154615144605,0.1744492836612306,11.334458087202504
22.12446457473143,-14.880503728499587,0.16372026672658885,11.689944275379894
22.660454573234464,-14.728444694189289,0.20295195252473539,11.674596570878654
20.28401557328203,-12.31196368506303,0.22136178198847375,11.955707801988511
19.912544764076948,-12.743759983684516,0.23385250096631893,11.131719124055476
20.774490578420984,-13.053987511940884,0.18007241434554488,11.119349645768493
19.953066819396216,-12.483826427177654,0.16349127848230857,10.912834757948389
22.125526579597157,-13.564832206494952,0.10733505361272219,11.961936050998228
23.245817439291883,-12.566661200779539,0.14844988911598775,11.50000192029382
23.13268405901972,-13.056552319263147,0.15092125112734323,11.668174649744024
18.264581826237386,-13.086105099407249,0.2914683096074366,11.3313254710153
19.69977641280397,-13.171571762330219,0.25770352948667496,11.693203279896975
20.295968517521434,-13.000435127304577,0.2471427643395796,12.055125479002648
17.268831966894258,-13.64235046643054,0.3381977414985197,11.153746531703767
20.722664866421407,-12.21711111353073,0.15586701275312645,11.206689133129403
20.722664866421407,-12.21711111353073,0.15586701275312645,11.206689133129403
19.657371176771967,-12.847561278947977,0.26199265825343665,11.370631372077677
20.763450723708,-12.306743163791444,0.1640837097751364,11.337433518080099
20.359211980180167,-12.004069012133263,0.18492877382698283,10.953056562001287
19.887185363755442,-11.860453651318691,0.2210137645357671,10.812807552475354
19.816673473752164,-12.368997893015377,0.2253165064295299,12.089317244632145
20.284800101585528,-13.406413999687711,0.2243535296018585,11.605137370176534
21.320129761884665,-14.338247876388818,0.22310490690518417,11.690240446361045
21.208982012140257,-14.349999043631483,0.20457537861212347,11.56373034363715
19.165924862863864,-13.0359358326571,0.24676219043334308,11.548178225074487
20.246403548069136,-13.027579507362855,0.19891640505340208,11.875222223462986
20.642571199255038,-12.693847373082663,0.204066273522174,11.579867517622144
19.660305391701645,-11.51677595100175,0.18819285480686337,12.323251620931511
19.866847365841434,-11.196787951178681,0.19872150183095988,11.085848814344944
19.822886646815558,-12.231450895325048,0.19449647472599657,12.032383168714981
17.731944663085944,-13.042999479139064,0.3275062641503751,11.965243244114303
18.866966758361166,-10.746972925093475,0.2097180926791621,11.020810333965898
18.666931287135156,-12.91081028567771,0.2860586415494062,11.778422837211643
20.39478471916538,-12.422923948975653,0.21228184809147901,11.764159722891687
20.128629494014902,-12.242579595157387,0.21914322438521047,11.410531937929111
20.025890382875136,-11.930724231814207,0.2041537239735069,11.648412349600871
20.781063552276393,-12.06432962032792,0.17441311743372098,11.48988537310892
21.734539261958663,-12.511458624815997,0.1515458164711116,11.930057533867513
20.771521628300878,-14.035853169716198,0.23645163699619517,11.310654570523031
20.267135456010216,-13.894789616034528,0.2279795129439897,11.742985548710683
20.321857459556803,-13.453691476130656,0.20620247814423476,11.817315463245807
21.130250615152118,-12.708666871070237,0.15191659738215563,11.99997219099419
18.290674890101425,-12.880674834626808,0.28401499633635396,11.847153541246557
21.196407970387618,-13.150542980028476,0.16313797302880373,12.004624744779358
20.352287594162192,-13.249617991439528,0.20663525458521823,11.997635432253297
20.821668434745092,-12.50954915468312,0.19362867591111155,11.089440343871274
20.829423738228233,-12.668634336951808,0.18730234010367536,12.037892535828753
20.452700990699118,-14.28798152742294,0.23184886822327921,11.252053492143503
20.765422016904324,-12.65379940669685,0.20922305239390954,11.71461310882757
21.09951802691903,-12.795774132683608,0.20288411748339247,11.69377918130764
19.161007253873226,-12.322827411225576,0.28836540381008624,11.654998908914928
18.115373746278618,-11.908287894402491,0.26616634253284943,11.417538249444588
19.28394902953618,-14.032365723741165,0.2797102182600243,11.251341018373775
18.17540629887931,-11.887944763298194,0.3235130454479712,12.097173469472557
17.208813665681415,-11.135794433433153,0.2922273243349363,11.503868620603914
20.01422235039415,-12.825962398988638,0.2138088502802235,11.503987253187017
20.211547612493074,-11.393403650353076,0.22574923401104588,11.259946186192172
20.89753588560142,-13.316581372116916,0.18322602702924043,11.825308788413281
21.755880238367133,-13.247966597233065,0.20454423815720682,11.832279452944386
21.538113384292355,-13.576544172976769,0.17427140880598402,11.392749165806283
18.613197440013703,-10.14419635638861,0.23146529485890538,11.590152557342535
18.663082998240633,-9.971044534186532,0.2199444055709572,12.064918357497532
18.98133481068127,-9.411261526981548,0.26948014545095733,12.369773178034883
18.73266935654235,-13.277560831898825,0.22211293922584782,11.098591606073105
21.480730386330706,-12.51374465732048,0.162804316044281,11.354606368663331
22.476879006997656,-13.944319115473292,0.1488934136876514,11.43331031724494
22.4164204766953,-14.226780801383244,0.1344028853727321,11.663830999881235
20.105943633594375,-12.873849118685206,0.21390550313074608,11.338056148473393
19.97782216531977,-12.06446295671639,0.20893058252213126,12.187113602984315
20.64766851217111,-11.578825029979397,0.16596046117637833,10.932962507157916
21.2158874328626,-10.881572503207833,0.1710282957453466,11.972536198275321
20.63763878044101,-13.220610153634254,0.1766130280296245,11.889744803567282
19.573285659468773,-11.838380038219388,0.2166319306481138,11.78733288736167
19.852315662287246,-11.25444887782884,0.22443447032889366,11.625387685022377
19.376068379240074,-12.964726896785994,0.22276088149213147,12.353744868926235
19.849512053051495,-13.466763220017382,0.20191347316641906,11.67070462378432
19.761764606911473,-13.108130331406677,0.21613996779307862,11.645383697696193
20.830130277911874,-15.329028070451105,0.23166040822139872,11.93811987938938
19.34257269780737,-9.527017727259315,0.23756124602181183,12.004458073194758
19.043632516358713,-10.633214436111697,0.21378760055016227,11.372288665115699
19.14189702372654,-12.3006586968666,0.23172716621561337,11.706085392775377
21.42722585024946,-13.777395277482706,0.16303509995516516,11.438111645663403
21.42722585024946,-13.777395277482706,0.16303509995516516,11.438111645663403
20.177720199503778,-12.196010501023684,0.20934207224933998,11.09911380303446
18.04170027893396,-12.43992469860286,0.32625496689803585,11.237512567494226
22.629365552999055,-11.406763002517032,0.1107256570463298,11.691398666270098
22.629365552999055,-11.406763002517032,0.1107256570463298,11.691398666270098
22.84884569446714,-12.032881708918403,0.10143135965058088,12.475784953440865
19.111465649124668,-13.98337008519308,0.2474546197492187,12.394554358716158
18.6141434826086,-12.701574742017627,0.22369767118246242,12.534254439092988
18.584181887853177,-12.277501242908926,0.23516042058533168,12.038146705340434
17.92745856738423,-12.889755284996554,0.32562417037222224,11.463878193390082
17.92745856738423,-12.889755284996554,0.32562417037222224,11.463878193390082
18.79018312568888,-10.40181330316246,0.23604251228244919,11.46506213806634
18.23924366101278,-11.708795479595526,0.25388359305342006,12.13309455296937
19.689324933069564,-12.512064643634991,0.22876171285859148,11.469162018195377
19.894184435928498,-12.15735764540043,0.2250961375793102,11.751749511315971
23.714786220389712,-13.030107406395189,0.08023436678503755,11.925172658229304
23.109819229811915,-13.259209554971996,0.08452565958300291,11.281578212236429
23.109819229811915,-13.259209554971996,0.08452565958300291,11.281578212236429
23.711814206331095,-13.50109298896408,0.0595655463047457,12.013479876900199
23.711814206331095,-13.50109298896408,0.0595655463047457,12.013479876900199
23.282231166511885,-12.370846189371184,0.0907123268874424,11.26594338751501
23.176596205809986,-12.769484332546297,0.0914695676417347,11.232652685687157
22.18695776051739,-14.50104949173136,0.184075153664255,11.305456727031956
19.24833968041522,-11.133773762755826,0.2149104474329752,11.48451895030028
20.06781260896046,-11.911794966225166,0.2234860273918315,11.624966147872831
19.851025073408692,-12.440118650809357,0.2170103107071069,11.147408149291062
22.942391172816205,-13.76044613186879,0.17217279206301872,11.772657771784427
18.24700900217816,-9.973148208620906,0.26001045220082497,11.040195227260986
17.607341501169678,-10.249210192883393,0.2503242628560268,12.212792927558617
17.668870240533813,-10.948458482755315,0.28445060990131277,12.130232004569747
16.811584336414203,-10.262245010906812,0.28526404001124916,11.385830981683924
17.402629889094005,-14.1259555889775,0.3522266986039299,12.465793267381665
18.139811321210082,-11.99384061130628,0.25741816753632357,11.818352797017411
18.494487809437647,-10.425849721199,0.2599887786965265,11.322551086193128
21.543760776557548,-14.528344237531664,0.1768137173713387,12.018648976137678
21.165621082786977,-13.663584440387234,0.1823934855261664,11.31423251624379
20.044968122889923,-11.027969453270174,0.20311329152339408,11.88735672006027
19.991012076507936,-13.369485799959397,0.20571849815485438,11.141160731830377
20.98492821544917,-12.62304188062663,0.2080926559401367,12.246605171930263
20.99153271284152,-12.640653642725123,0.17146916763516673,11.17511046857059
20.115447989506688,-14.69971778097889,0.25378510601672355,11.558371911279307
19.79895475417711,-14.18790429800215,0.24549864670512023,11.879053970680202
20.57511826400476,-14.666761205669017,0.2683688830296456,11.489397156120273
20.682132665280093,-14.041747901649389,0.23224852608796848,11.663309352547524
21.0831009472987,-14.346266227037471,0.22180391444383296,11.494394811147508
21.1130582044243,-13.070580515096356,0.21369629379917027,11.658628553435316
18.34837187365127,-11.230448923440894,0.26781647869681346,11.45071860832968
18.370418153228385,-10.88810453174482,0.31127473244185966,11.213488793449617
18.384864212452477,-14.013847197010566,0.3264236395536625,11.919534038883594
19.80535287126588,-14.120691990222683,0.24271228356285346,11.367518103177364
19.975413992018886,-14.62903604613779,0.23418842349740165,12.115579221511096
21.132614359212134,-14.188586216848137,0.24988626602462613,11.867211533949583
21.796331528224165,-14.028969104161648,0.19891901301254805,11.720759150360363
19.760883858679676,-12.749914500314809,0.23090422571868122,11.38397514990585
18.672526177677764,-12.946244989559323,0.2997121815888271,11.9749047120311
17.171480476627675,-11.378401709345633,0.2841763702597109,12.118356431019029
17.816518149410246,-13.016844803760467,0.3252653734851788,11.015356700861899
17.896436440040684,-12.646145701000668,0.2910553782168475,12.071613937558585
18.086868582587783,-12.660224618407634,0.2986380100147725,12.08774489758093
17.789160493801006,-11.793167901381393,0.3114453347211012,10.570714573051543
17.452608985874758,-11.706678339233465,0.30955938413883727,11.491391107572241
18.150489129229463,-13.03776080673356,0.3402093216593793,11.73541201383942
21.652243521291204,-12.480899750110368,0.11577954011130275,11.471888802031422
22.72380551669174,-14.329311524084769,0.15485859507197963,11.631964222233806
21.22832304984094,-13.809566120270174,0.20297833887276767,11.377007205217796
22.325466393363254,-13.574122376596756,0.13407673878493342,11.690192661679136
22.58258797467784,-13.017973023876797,0.14667847851497398,11.589324101546104
20.596341002573727,-12.84703773103905,0.19213373077620705,11.479219628196956
18.281319287940956,-12.98325800430655,0.2976678608974598,11.741365384899714
19.0791062133791,-11.4795640402953,0.24618881024622633,11.506849255211646
19.273769339637493,-12.45398500970637,0.23108519907769723,12.063170752951734
19.850458120860345,-12.110909795152661,0.24867689933653606,12.743826222076072
19.850458120860345,-12.110909795152661,0.24867689933653606,12.743826222076072
20.27445132127673,-12.250152172157938,0.2631968116456192,12.443060724178407
18.7701463303427,-13.316574174799179,0.2398127627436982,11.236286992983176
19.175192250244667,-12.984993945675646,0.2519497903837553,11.294102563123214
18.621410522687395,-12.78043065638124,0.26813046680207253,11.414884787785176
21.452962826376243,-12.602222204740674,0.17731138857259637,12.007444620445476
22.18566611438448,-13.573520735221615,0.14738645028823938,11.473056934175467
22.26330553176934,-12.87459543875449,0.14132108688410053,11.53087167207619
22.101547332273785,-14.299082926397952,0.14283346089608492,12.15903507268349
23.318794407654455,-15.502730297348446,0.15417216235078957,11.843094893689523
23.973450714676243,-15.4350026219518,0.12334506661005806,11.402696916357389
22.996924348053454,-10.80734256096615,0.06643701173727842,11.865800512356929
23.06598420577419,-12.281065784130492,0.052445475078862616,11.294682486838536
23.324021306579937,-14.687476571598545,0.15230621763240823,11.628586434521106
22.18372769396542,-15.577076609332527,0.1858901782199671,11.696014042390628
22.46087452067372,-12.759583306041419,0.17588167844293728,11.515815016538907
22.312267663376858,-13.470619540530457,0.16240821711411416,11.451740793523912
21.6205921312045,-13.650092808415703,0.17388926542352184,11.700052383418171
23.63964525886044,-13.901024353358675,0.0798966646374738,11.496372491575025
21.314204371607442,-11.886061111032898,0.11729982946947795,11.191877681779149
22.521208269308502,-12.452881744963268,0.12304365013861132,11.782415006259106
21.343818242371345,-13.916481416278895,0.19223090792974096,11.859594414406128
19.689343869716524,-11.366750359757015,0.22798791448746097,11.832053748473518
20.366797305938398,-10.63133447999453,0.17427498867844396,11.877190002327545
19.4919293777934,-10.585480935109162,0.1686225054606999,11.223164216521253
20.55259353151233,-12.257785722094408,0.2019371536048935,11.923707823476828
21.603356855447654,-13.713612812352851,0.1767628348514652,11.1862911480977
21.64787589466787,-14.142813750026678,0.21018861483177514,11.401505146130996
22.01976315026599,-13.081809019042762,0.1573922153390192,12.136449617928681
22.270935845402704,-13.863344403031013,0.14872403573438253,12.340629903224787
21.886985940673107,-13.816252132055249,0.16523487182687843,12.638966802784298
21.35812096642911,-13.661803292294758,0.17862503983727637,12.664367610412087
20.99969027186654,-13.533012815601039,0.19300075775553427,12.42117481308956
21.856841143737707,-15.310981355360777,0.1882768884511084,11.405231866598491
19.34121846598636,-10.659011108823552,0.18649948130867114,11.607121359486426
18.991887809168208,-10.401574879176858,0.18726109498691643,11.588746302915872
19.574656784691488,-11.722133925375061,0.21187866934635372,12.214196330016053
20.94368568711692,-11.769217605673312,0.15307071070097514,11.138378569719343
20.94368568711692,-11.769217605673312,0.15307071070097514,11.138378569719343
22.863532081664367,-14.154162980622994,0.173281189208294,11.989993014018108
22.707807307177276,-13.81622222089547,0.16662978489678332,12.156324645159783
22.61781689833624,-13.761788292252849,0.14455713765118633,11.523041737160701
18.903636787709896,-11.775670320361192,0.25438430784204974,11.280916885538668
21.64282768612566,-12.67884712663602,0.16660666965031137,11.448687761764472
19.64371254981602,-13.575024261066647,0.24046026270106996,11.597711098906386
20.459490579278654,-13.376862843962499,0.19428472909624458,11.622583973419658
20.13428669389015,-12.643893904277258,0.2343082218791254,11.427423130397338
21.199298828695007,-12.85959265203938,0.15830049944042632,11.654728467521792
20.78004011852056,-13.126153610910032,0.1778916246633659,12.106915789492666
22.26619636551271,-13.463728824974348,0.10703907733023577,11.201352469902425
20.547568296937968,-10.94535343195019,0.16567217290311173,12.114154717722215
21.167845415896142,-12.307701672696938,0.17452692549503016,11.222589522879279
21.406460072693783,-11.994161809570237,0.13463417768598468,12.007227850845972
21.32841528306629,-12.348286498161238,0.13824276301808944,12.335784725992838
21.16552987827368,-13.122183414059474,0.1317419978537013,11.536349634361766
21.44548773692267,-12.71737307031803,0.16004363472239655,11.338872911718816
21.643741634428963,-13.055505978496875,0.18041008025566505,12.094742850241406
21.235884771162755,-13.730407617212231,0.16436773929261417,11.839502325655847
20.143672329192697,-10.652854682869682,0.20283267576498096,11.751567699197079
20.33164082477696,-10.546143584545495,0.20050624034750286,11.894816896240505
18.053599740640657,-11.704469737122578,0.2542217101722395,11.367920301193667
20.878049043932553,-12.208859682444547,0.20491387490046742,11.608029266372432
20.07277907376555,-11.537739950544676,0.1654351950148092,11.823893939333608
20.185418064598327,-11.235499933285515,0.19020631380963865,11.252864309750395
20.606023656336127,-12.970698773195956,0.20090148361366322,11.701898186450716
20.112988164424117,-12.48866952963115,0.2123463124216659,11.290023888790808
20.550737590177697,-13.599599325125798,0.23619351937145835,11.715266253876104
19.759812932129908,-14.024370320411595,0.21930209869538836,12.483992902148803
19.56466973518016,-13.219804842680794,0.2007372911645362,12.146695861166497
20.98914632258393,-11.059614383289665,0.19140545079260476,10.670174993293358
21.373783799323977,-14.591396955003203,0.18871661272119364,10.593216884241954
19.301787594593073,-10.64882921304102,0.18113152470461238,12.377434984230174
21.802378545622783,-14.840625491514565,0.21437530711205519,11.630935118591577
21.802378545622783,-14.840625491514565,0.21437530711205519,11.630935118591577
21.737206350598697,-13.835253296647759,0.18339630738500146,11.7146117796391
22.03359344509841,-13.282638464948505,0.14277348812847662,11.721671025701843
19.45989893852361,-12.340091710898054,0.2491965626562036,12.026633911770675
20.662084635790112,-12.432744434509122,0.19569162879784818,12.389877742588341
20.772290166492358,-11.881796431186675,0.14071082133589435,12.433802116411789
20.187349571973915,-13.675239882319445,0.25778871860495656,11.286399463195519
19.245061381001697,-12.097937077462259,0.23707930099197277,11.325930612913474
19.884003666699208,-12.150968991338575,0.21616675927661003,11.635285234562117
20.002434937926324,-12.780401119356815,0.21703636184724642,11.481107953701015
20.781824399639273,-12.740571135608604,0.2338603671539717,11.693457415220438
20.030391338504042,-15.519955107971859,0.2755459775448823,11.972715833507989
20.340978233999632,-12.331029158634747,0.19059716415640776,11.713253197795405
20.653515908192507,-10.547457311401002,0.14542520668409709,11.43190021485728
20.9030047650504,-11.793469496672904,0.1645984436049256,12.10005043366003
20.560132465733886,-13.330695746757515,0.17259658020180824,12.128481334218256
17.78368253263944,-12.769221971389054,0.2976251657789171,12.040452188308864
17.6837945814133,-12.130204483494117,0.3270927675231376,12.286089903462388
18.968887677598335,-13.365860861532335,0.2742886527471899,11.665252759325227
21.918635622659792,-14.038873436890992,0.14501135888553301,11.812906480853728
22.74695394651971,-12.59576245315931,0.15559514878036274,11.39745893278606
22.363481868970105,-14.421761944450092,0.13838364659214217,12.222008794240933
20.180780268631977,-11.932429682108218,0.1503650543403653,12.460342324398766
21.267274401919316,-12.089492286766143,0.13807042950170634,11.363963397211101
22.05422017715242,-13.43087746706556,0.16120462228081348,12.44039216289109
19.45260338860559,-11.69532040523096,0.2164408025662248,11.518155580477513
19.972821438146163,-12.768799621219673,0.2485029987255418,12.194341619561884
19.93278150538933,-12.229694937605267,0.26336878216649406,12.319874835972506
19.741505800473778,-12.37538681590003,0.24699507229487808,12.455500518481113
18.84139912653896,-11.721179139350024,0.22916638215885685,11.242835772441055
18.553522525795927,-12.727251418607358,0.27357898364871386,11.227152885434668
19.002985047760653,-12.30038623111185,0.2956203038643897,12.030014870444981
23.57957367433366,-13.722904223865676,0.06233367318723304,11.864221455536972
23.506795562881365,-13.689939636088859,0.06041925737773176,11.565058392794596
24.051612885410428,-12.548149994256066,0.07498249334952588,12.025376920955228
20.351376609414572,-12.768502364318195,0.2522379483212873,11.911685409987575
20.351376609414572,-12.768502364318195,0.2522379483212873,11.911685409987575
24.50751713621493,-13.614850668598587,0.016724596657691757,11.426631019437215
23.172868048354378,-12.038957915896818,0.04878873121162608,11.775652096888669
19.448621177210583,-13.861157930615846,0.2828431621720878,11.772268619379295
22.353482720278087,-12.895625488381953,0.11820994025757485,11.414101687853492
21.63336251021947,-12.785766529633973,0.16173026644236965,11.721552401303914
21.63336251021947,-12.785766529633973,0.16173026644236965,11.721552401303914
19.874899620268415,-11.630734547155075,0.19900256634360133,11.404226487006483
19.738235522229548,-10.720161802434594,0.21213210971115679,10.81360756705462
20.087115960760258,-15.841628307177675,0.295638952649083,12.508598563605004
19.88486003373,-15.281437687095302,0.3024123658828448,12.424922290324712
19.97703309307613,-14.203732952079799,0.2551652469939618,11.237754996571287
21.056319224989004,-9.91036966503417,0.10801178371274185,11.498087501583642
23.125558723570585,-12.59391862812256,0.09203925215389512,11.638036023720524
23.125558723570585,-12.59391862812256,0.09203925215389512,11.638036023720524
23.351326284570693,-13.595251762228637,0.11841846201178163,11.32859279942668
23.4849732865661,-14.10481989708595,0.08807147796823725,12.357831076819357
19.140080784934725,-12.31788145357324,0.23876347161158076,11.023942841917645
19.16309520467063,-12.74786439737467,0.24093442604327608,10.954533387605412
19.16309520467063,-12.74786439737467,0.24093442604327608,10.954533387605412
21.51983218882676,-12.579263205449395,0.15807953380351514,12.447501244794639
22.057304935065915,-12.985661503866307,0.1630651105740996,12.206378571611276
22.504785577883375,-12.933538746207965,0.15881870074321291,11.955173672093387
17.38192345385412,-11.383776510180299,0.26607557589515696,11.62472831655144
17.38192345385412,-11.383776510180299,0.26607557589515696,11.62472831655144
17.45612670866847,-10.267710790675626,0.2791503677701793,11.691887278081962
18.875906855663125,-12.17949627575559,0.2737713152049839,11.983512970252608
19.677058394453475,-13.18362672605512,0.24600727260049035,10.885467914342932
19.7875571195421,-13.109946038504086,0.25115954290386555,12.04914813844612
20.68987200180567,-12.635946302456093,0.2167242147180876,11.310629690769806
20.613215557682974,-13.42434484730152,0.2243350077722521,11.646696753220112
19.01375166933017,-12.674330169849876,0.22552998386222786,12.044375547862261
21.46073604307287,-13.698738407925317,0.15671210791092502,10.915635491528567
21.121474740887557,-13.138001818272661,0.20131575721330994,12.147617408751161
20.202866448971335,-12.790352881471126,0.21459537500975737,11.955999316668876
21.278057695183048,-13.593703338123184,0.22569776137868666,11.321994022344732
20.711484560263564,-13.193815073949692,0.19953979739606964,11.848995586214665
20.478974850729045,-13.033913918214921,0.21117192250728378,11.621545107201607
19.393548156241533,-12.61309232987047,0.2513041055543855,12.015304549138035
22.076675803701725,-13.6730928310723,0.1759727969669121,10.586011835301358
21.698382199119784,-13.25541350030036,0.15705904770034737,11.273290438456256
22.110870355163275,-12.688635328005201,0.13300159475586618,11.757947393882912
18.777785149198383,-13.119851107107097,0.24659702419317436,11.484482635561825
19.473497967122924,-14.594167775715592,0.33289972438741666,11.57155840696183
19.426495860801975,-15.641029686956585,0.31412511743070354,12.021313908369228
21.365120676323063,-13.36767838862198,0.16476903769638782,11.505346622801254
22.08508256104786,-14.003870064529591,0.17709649929673316,11.645508989790534
20.601588025298213,-11.23852183945706,0.16275951943491737,11.61387039074037
20.903300933860148,-12.172669717303025,0.16976238497574458,11.756705792528136
20.759879440015517,-12.378729212475388,0.16814915388565296,11.650862125078454
19.9703291060581,-12.925146384460866,0.2336681002432424,11.491854843993446
21.75633882035678,-12.218702196723735,0.16451991100298274,11.262867741118239
19.132525103816945,-11.774974702068219,0.20310044568837643,12.069969467413662
21.978438849962455,-14.7138557485601,0.15050172580444854,11.67965623964758
22.677722446439294,-12.083493192438313,0.14188782511916334,11.754332378564436
20.383888191301562,-13.443537218843838,0.1828910767696186,10.896875446702419
20.117450183487055,-13.17786058889801,0.17820430084093442,11.745138208890506
22.655802315835633,-13.196385385143836,0.07836929095089282,11.563359230570972
23.750630697702274,-12.450019081843303,0.10396956783338035,11.842022235521767
19.47653036058835,-13.202883852194804,0.23979025625229128,11.630240103552211
19.27331586532111,-12.203743859280499,0.2687811930081331,11.392296864006003
18.398958428488285,-12.660481298256217,0.28505217291266133,12.263072545918899
19.109030963812238,-13.273443608870835,0.29528295038089974,11.574641047614705
18.718506905115273,-12.741248728327356,0.279200383847681,11.566133606172334
20.027042226081115,-11.854914768544946,0.2203829034573075,11.50923791198496
19.744744185667177,-11.764418635716135,0.2188972296684257,11.564174157761233
20.44375950035197,-12.476377821260666,0.17094643647005867,11.541583449870723
21.909223503307413,-12.097324201694272,0.10751171995714247,11.85429319628989
23.377307465786604,-13.899205699105105,0.05299492047818738,11.98237392030253
23.69676061469045,-12.756455163634804,0.09560958383423322,11.411944237722636
22.13678162193573,-12.649456464812605,0.10363690286503163,11.709545364568786
22.834398812853177,-15.04287794661056,0.14699008592449933,11.687391011700557
23.081076029493413,-14.76577462434982,0.15401175576031878,11.432419403253618
20.795472643923993,-12.893627845639514,0.1898385786114387,11.709984209532893
20.638767326840217,-13.714680389875777,0.20101220661072883,11.514965891987075
21.102901392485798,-11.961761902268476,0.20584634897630827,11.951201331584631
20.907396822640795,-12.892403286566596,0.22240349211500302,11.983677023345454
20.15830105568538,-13.109348897134062,0.1927759198592021,11.812124607099054
21.364122307758276,-12.663584718409346,0.20906221477627723,11.185497125672473
19.95627837775376,-12.146030543198195,0.25960722213305915,11.375243873675611
19.63077187807028,-12.44035353549432,0.24649258324625709,10.971244156039933
19.450576319552624,-12.404504470461207,0.24003236729926963,12.110523401797607
19.577700728220925,-13.321240012727179,0.2600611366820121,12.217402543439292
19.561902001832152,-11.72062901630588,0.2238428523817965,11.320589941618504
20.173826514539098,-11.815736848536748,0.17773625608992624,11.69146848947632
20.171757970684318,-9.635702301464267,0.1326032304170775,12.051841101455235
20.212529905365272,-13.463151791591951,0.21689582691853915,11.070954075884325
19.479939630618336,-12.500652605214428,0.2468022221578316,11.972623399925466
19.826594752404972,-14.035528869450973,0.21599151642927567,12.513667043610402
20.239114019783287,-12.258936499297022,0.21667157050304542,11.954951324813706
22.85653648657842,-14.090258978587414,0.14862944612011064,12.03490159250541
22.200700320043424,-13.991413143454855,0.15559720292950163,10.946383994442169
22.200700320043424,-13.991413143454855,0.15559720292950163,10.946383994442169
22.047824906244106,-12.120789028795139,0.13896468508352344,11.484057267996915
21.800194246723557,-11.86968348899773,0.16787766181894437,11.741646895169236
21.26936639592248,-12.603176805249436,0.19171621124563032,12.31137999896387
20.698608826347492,-12.553927699474626,0.1532855556401287,12.232608951169569
18.19413262164127,-12.381363737215906,0.25239309205251254,12.265313930351692
20.789842956068714,-12.500306729101528,0.14670759871236877,12.242731972961439
20.54677783619538,-11.292771528107718,0.16588498361620427,11.573724172192462
21.26180371227194,-12.342411590752052,0.15247631376099166,11.529863567440202
21.26180371227194,-12.342411590752052,0.15247631376099166,11.529863567440202
20.123156483040702,-12.894891392641005,0.19815279033925265,11.726958889055402
20.89079030963989,-10.969930892085802,0.1592088492263798,11.453846170419295
22.98026474377651,-15.46067614126053,0.16968085522775006,11.882128761918638
23.107515394520668,-13.645514162412189,0.12710654348257808,11.73676840742568
21.25823696200598,-13.761064908091301,0.18996080551202438,11.327675184611145
21.340515008464195,-14.11308431634241,0.18257083319045878,12.893216895187066
22.156739361124917,-13.898807767480415,0.16397224311305147,12.7582292493497
21.860584265502577,-12.967653750822292,0.14385888243647615,10.479484110149283
21.17640567704663,-11.995684978635172,0.1408323312481505,11.529427393856707
21.551246662180432,-13.468192215820984,0.19349833732975133,11.539418134376957
21.551246662180432,-13.468192215820984,0.19349833732975133,11.539418134376957
19.9626000336718,-11.9775636669975,0.19979220015551435,11.79554737604616
21.566186217553355,-12.57170084310879,0.1837473737252626,11.446127053627906
22.744939401156753,-11.93304378500817,0.04061952150954149,12.64311714975177
23.682013014769705,-12.221800282995128,0.09067797656351322,11.76629154336648
18.99433557533489,-13.111803648653014,0.2961235162640988,11.616044809404832
20.164893265080632,-13.544419910688074,0.23387473324703595,12.845079612524898
19.74078235126274,-12.607322544404724,0.22929321233166697,12.81504570428548
18.278031521670634,-13.912544787062101,0.30298362705108123,12.69778852079349
18.324544233136187,-11.486565962741631,0.29980124772347405,12.690582583459562
17.612597155198806,-12.457530974863456,0.2741998666195345,12.73969264802997
17.603962372175054,-11.618782229255348,0.2940520496048547,11.934113980799065
20.83278144021631,-11.65952421493433,0.18116959640144253,11.103340666552922
20.83278144021631,-11.65952421493433,0.18116959640144253,11.103340666552922
19.99977258072451,-11.484580890941137,0.1851462610606672,12.475388285988544
20.852949152871627,-10.880351212489435,0.17255685489293307,12.263407313161535
21.87850855644231,-12.676920876635023,0.12909562469041347,11.280519760295071
22.614330296272044,-11.156399294308832,0.10707588289836803,11.963164868379534
22.510579088718547,-11.469225831396516,0.09451726254143226,11.84759977689119
20.2244893081338,-14.125122170143095,0.2535145012937671,11.501658478451326
19.826497626958446,-13.615422322479887,0.2272955114037471,11.443923311537384
21.180834495670908,-11.412325096930088,0.19259421327460155,11.670865726851925
20.880262225847424,-13.16805703920052,0.17710039849144868,11.653145264061328
20.86684494668466,-12.605173392142465,0.17423641139697052,11.768105097179374
20.724061794481432,-11.55782541448295,0.19160002433036777,12.162475452259361
23.04343725734382,-13.379892746692873,0.17239457816096773,12.126368202557586
21.307923402107566,-12.590062513243726,0.18165929020124372,11.083741756831186
21.46315024496517,-14.692617943013385,0.20918442744820107,12.426391916570449
22.31557427229884,-13.868584316770827,0.15412177732839816,10.640768832210048
22.81296525520509,-13.953240471488888,0.16097201112784187,12.277904791757313
22.373487179246382,-14.653931537091427,0.14121572142490235,12.206187197648227
18.782231421981617,-11.58123538775448,0.2657239217292518,11.021553053812848
18.581312645405767,-12.821400018122992,0.2963635068540265,11.259639877433937
17.992599149134165,-11.97059135841233,0.30306084926137616,11.852143801361045
18.271452447845256,-13.780520640826616,0.29345688885758275,11.727722498160052
20.514197227514106,-11.976169876519924,0.18983411996960042,11.717058974992629
19.761208490882254,-12.798096321689314,0.23532600840104917,11.319231172753558
20.69920927251011,-11.847880114423152,0.19493968665462222,11.564010046464837
19.663920211926598,-12.038834181150342,0.20354172370543822,11.500647186594374
19.595796987866752,-9.88617985905344,0.1784758215158934,11.705143914181765
20.08260317859454,-12.115637288888047,0.19020927076105748,12.286454973442712
20.582990766575985,-13.026650034587124,0.2001041267708995,12.298350856019981
22.966025969810833,-11.50658073966944,0.10836257199504334,11.264300294571568
22.545666932654374,-14.074753260748011,0.17179016468638475,11.425085982893394
22.377456772755092,-12.69886302927397,0.14328787614217842,11.919353236095517
21.11177208575679,-13.702107244048168,0.17071381374530087,11.151048195623696
21.485502308260486,-13.949965864170597,0.21950485471136488,12.059893206571713
19.455100386309855,-10.913420946100027,0.22358860301864789,12.098831093974916
19.80334350803945,-11.237414500956046,0.2517335311913911,11.160559353299927
18.394705521198198,-13.6758186703736,0.2645580206359606,11.772904644100551
21.009008053903116,-11.330204712617629,0.11525920916084086,12.18885640568884
22.08764522368123,-12.098933458292496,0.14643865989524826,12.18963054129491
21.938003981996406,-11.26371389105396,0.14071524750611744,12.380181278683587
21.932031189540876,-11.93072031580252,0.0941315784592275,11.659827706093756
20.959939160105478,-12.917855718056625,0.2097367564465733,11.427428846685984
19.39826359318943,-14.037939060772333,0.30902778182913515,11.93153026399198
19.851428635718214,-15.12885600971207,0.29501768890316227,11.321863707665807
20.897934786428724,-14.951114160524257,0.24957410946602912,11.847996815908038
21.731083195517147,-14.135919673661851,0.17806474681761522,11.393141150181822
21.982885839532898,-12.748653649147764,0.16343469470438246,12.277485402565544
21.287792385805993,-12.821293343548335,0.1735778558684206,11.797831423940343
19.318346674880647,-11.947829875742345,0.25919441451114755,11.493890835258767
20.313604293635404,-14.501414063629424,0.24902364804289454,11.642171079421953
19.513100898067783,-12.983257909180619,0.260834406169086,11.893616017262893
20.116443292800486,-12.633125397986529,0.22850212478075319,11.33002621038133
19.376445022130078,-12.136307809436587,0.21883503617733743,11.863513513378399
20.0766126225771,-11.715372446179705,0.2768332749347532,11.949375181713135
20.607040328979856,-12.895775082530081,0.2205108127867589,11.679228553036905
20.191944072628157,-12.82701764472771,0.18151831021135928,11.343350605547274
20.711002633053926,-12.554731093299889,0.24089878008166282,11.956170117656406
21.210092295834418,-11.811653550066998,0.15581356226792753,11.264102067629707
21.1707526911308,-14.618229030443919,0.20804454116802795,11.546865465695817
19.0544564040332,-12.701840816346149,0.2630881644377659,11.776823639496232
20.006744094128326,-13.029124708548595,0.24121653125953352,11.239062185000925
21.14228528998353,-13.106374855470936,0.21441078994981855,11.578265048317181
21.14228528998353,-13.106374855470936,0.21441078994981855,11.578265048317181
22.88201389824194,-14.69462083812796,0.10286828651375995,11.640754041491698
21.420596468019635,-12.307738897045429,0.13185714738145982,11.742588854993576
20.194833451754704,-13.206704171616654,0.2479042995404199,11.662049941244135
20.44612859446102,-12.951521257305497,0.19586239727078233,11.419158962142994
20.44612859446102,-12.951521257305497,0.19586239727078233,11.419158962142994
20.44612859446102,-12.951521257305497,0.19586239727078233,11.419158962142994
21.611053704317484,-13.785876435308179,0.18231541245907917,11.890846904221066
21.87883392563455,-12.40814082351414,0.12058783801025992,11.748767067825293
21.187488767880172,-12.703334309689252,0.14622356123193153,12.27917962613948
22.423904766537802,-13.217433986826702,0.1563045575699408,11.331454597382614
21.919424106012542,-14.026168049865412,0.18673874779403368,11.62975699008557
21.51329953153308,-14.81154004216164,0.20445044412430413,11.289685752241507
21.440446560088365,-11.209707788586451,0.130516087866068,11.422091229035466
21.659000608165087,-10.47610833502302,0.08370130611401952,11.741040670083992
21.798856757557576,-10.850749087963957,0.07143800217492352,11.048615793372306
21.798856757557576,-10.850749087963957,0.07143800217492352,11.048615793372306
21.919624038859308,-10.924998399209462,0.11034914486421374,10.958314185630439
21.236063381212205,-14.929801291809621,0.20422973288233004,12.21673935425725
22.259391109356905,-14.121712621896364,0.19723742619000734,10.885492918430156
22.528132157605445,-15.8665276063804,0.1679398018204042,12.09195964973339
21.251706409103193,-13.292692037553588,0.2189003868398866,11.256626737634335
19.954981457949394,-13.05278321722467,0.22388852464853626,11.894564786081636
21.484953279525318,-14.528981063519538,0.21843993225585936,11.494919182205381
19.40343483201083,-11.259935408077894,0.20804528297335262,11.523832596015353
21.016920487626724,-16.04422333767682,0.2679445555652255,11.564049958966793
21.016920487626724,-16.04422333767682,0.2679445555652255,11.564049958966793
21.109794925987398,-12.341413240794425,0.16717875825504575,11.460769392873555
20.749221868944055,-11.999685285530067,0.17382009348150163,11.421284010859729
20.48456791042446,-11.415294531636947,0.1565140926615731,12.06335463986817
21.10286111233674,-10.504635035216666,0.17009859702230823,11.70817148260649
20.472795615247563,-11.706695103168713,0.1656971103386057,10.973008291041028
20.758560334204144,-11.84255287085668,0.1982078215455898,11.560766991134193
17.708106859187964,-12.886055695672635,0.31843269919496114,11.720023859829352
19.15535789401185,-12.986076292590887,0.22172870066678232,11.639993350846632
19.19969028917021,-11.994668029189775,0.2650561500463427,11.458654751784776
20.26059208177017,-13.418678311343903,0.21755060443088434,11.381837240711212
21.62868762491052,-13.937844722119864,0.19224310068514633,12.091601877798384
21.024239442954602,-14.07351753076613,0.1734658255223063,11.45137865363085
21.62411634138312,-14.22507866432271,0.20570256137784232,11.372060941112087
21.677953502664362,-14.22851354981857,0.21385689101986796,11.353535993190492
22.601509441413143,-13.548402977784257,0.1098579835566986,11.766438653565686
24.302363041070016,-13.607603350452186,0.09526138666533202,11.988175643236273
23.875156055176177,-11.22774650028995,0.03188379268967269,11.95546596883473
22.792737717665748,-11.96171184788536,0.05233913649327849,11.299910260106259
21.082909785054554,-13.17121758058881,0.1906423634169797,11.692753132048242
20.516325501313514,-14.149459323701539,0.2430638779393371,12.241813937419625
19.814850827671822,-14.394428744597139,0.26951281030233215,10.611437868601795
21.141404954875203,-15.481032485010694,0.22678890624517956,12.378789728585035
20.753395454931507,-15.396867114770972,0.23562638000829825,12.305851217751503
20.753395454931507,-15.396867114770972,0.23562638000829825,12.305851217751503
20.945751696408372,-13.647915766809184,0.24318800379216285,11.67165734580129
21.676322880676313,-14.0351422723137,0.18956611437715323,11.976272789539625
21.36546585170902,-13.539261945938055,0.18176242956464775,10.931671474352115
19.240799016161258,-11.41930153622731,0.2481129185418552,12.811350437615923
18.087224083040667,-10.980972220583409,0.21364056050402505,13.124739103875548
20.007869753808677,-13.662047282435719,0.2512667840833318,11.03869604488785
20.43015375086059,-14.229807073101544,0.24210477364212943,11.91946671448492
20.14393987968219,-12.489913010043903,0.2026299588639098,11.059332831620887
20.15692321624204,-14.483175747490826,0.28177322429266344,11.853929384506094
19.67269539580234,-14.651564245621962,0.28987129064561057,12.314805159029307
20.785628410259356,-12.667213552285435,0.2116729917745718,11.043429772745048
20.32287317381349,-13.210991235874436,0.22633056260543669,11.206310645550003
20.91637747912349,-12.601540302591669,0.14298707710973269,11.45667996978047
20.513534983894683,-11.640266454299516,0.2070187076997778,11.703444179314701
21.592352171764684,-12.404103636240427,0.1778473185895282,11.493919083413845
20.241016239452023,-12.61621126369731,0.24531673052028968,11.436944695038346
22.283370536732782,-11.694712524564562,0.15454684403165433,11.532779701029641
23.239613279052165,-14.983826248405077,0.1368122967738461,11.823438843478035
17.41767913587957,-10.192046416339252,0.2806196136968414,10.939833610461296
17.41767913587957,-10.192046416339252,0.2806196136968414,10.939833610461296
18.42803318552878,-12.233567209131234,0.29046877085533024,12.905118555042122
18.68871030031979,-12.145660357490453,0.28186301285179344,13.082914037577325
18.73554946467822,-12.842113007044041,0.2545132035977891,12.68091961751061
19.143013952618357,-12.411285491015898,0.28069373659556446,12.604022159015194
18.975954331226397,-13.416321438462958,0.25644377918792016,11.99239948630145
21.299383912841527,-13.792603174782109,0.18491699099242498,11.403318670808638
21.299383912841527,-13.792603174782109,0.18491699099242498,11.403318670808638
21.23932875071248,-13.748606197313478,0.1805590132751028,11.055743172746451
21.346591821965973,-13.790596689779802,0.2083975150859334,11.913788951356805
21.641519911396717,-14.158348892611007,0.16176443027443962,11.795377200884483
19.78815633747325,-11.919814427760226,0.19783227308086906,11.535326577181186
19.81321286903155,-12.458132469925216,0.24487774705524679,11.483393318597582
21.22539783447836,-13.605610186932989,0.20775514923751312,11.567030782049487
21.22539783447836,-13.605610186932989,0.20775514923751312,11.567030782049487
19.3731554489313,-11.831219854030177,0.2472002813410532,11.66308526541814
18.435506415218125,-10.855947650792524,0.2581339462308992,11.843607481385147
18.054325924664763,-10.663834298091597,0.2429668550524119,11.183650978874576
20.40216773338629,-14.180482246526791,0.27745165199246113,12.123229439729133
18.66217412603964,-14.138496166340516,0.2861236232252843,11.550140694143014
18.633235823815525,-13.218961687374174,0.26537875789107346,11.225935585933016
18.43723659518146,-12.824257323896077,0.28924094415027557,10.83443738870978
19.1355718993947,-12.538695423492586,0.29972807589100975,11.089540918033798
19.576747129384692,-14.27037204515775,0.3270310944122473,11.939962742100123
18.717927390070585,-11.891335704531397,0.2408513644809781,11.603757447450409
21.86956016133153,-15.435771649597699,0.21681618355771748,11.588368682997798
21.888326224443045,-15.230003878831942,0.24790996616825392,11.813814385825292
20.14744167950161,-13.995550883159718,0.21722414594008174,11.21355901511818
19.98910523539251,-13.116053699888472,0.23905204547971462,11.888130694839083
20.21707955583546,-15.252930206069786,0.2640272222646782,11.740820507913826
20.339302693214737,-15.037084542763816,0.2922145901157199,12.037999415377191
19.99452250849209,-13.728194428209205,0.24664053838397612,11.199613517577294
18.954268554077732,-11.591381780806799,0.2515283771718678,11.932811212418935
19.8418772834243,-14.031589078518381,0.2739083917910616,11.447602223755624
20.541385071030476,-13.919644025338712,0.21505954820801151,11.874946047157126
17.618523938175503,-11.803671423711593,0.30009874823748384,11.710770416475267
18.136070689361556,-11.925979237660233,0.2736619415961148,11.88562903300916
19.135133296757125,-12.411847433765187,0.282498049688154,11.847863264680631
21.52137885077451,-12.097041553224015,0.16025104887553374,11.86920157532414
17.7369288070361,-12.393260144314667,0.29753104836952093,11.589688619031401
21.20003417119943,-11.73656091008357,0.16500195670229229,11.2870874046464
20.05167486656519,-12.278668823528992,0.18952622277067604,12.110555837984782
21.56896034250824,-14.066321062946015,0.2313452968118994,10.874864307338921
21.296284908857718,-14.03334771643389,0.2071106580928501,11.383226973342271
21.296284908857718,-14.03334771643389,0.2071106580928501,11.383226973342271
21.296284908857718,-14.03334771643389,0.2071106580928501,11.383226973342271
21.684765200088936,-13.145073731195863,0.22243363538874075,11.064674342196096
21.48404568798784,-13.304810673980008,0.1907639783587375,11.232526814677113
23.12098462311157,-13.380740068982687,0.11307428564074963,11.899287620003914
23.074391999566213,-12.629271006749875,0.07600819307490347,11.269427065187227
22.826628979128213,-12.262737425865083,0.08568076180821384,11.042091997448539
22.65767735682296,-11.96346835208346,0.07110817547394424,10.864806203639908
22.419103342739135,-12.98115955321686,0.13937967478700533,12.136194290663662
21.81454201885126,-15.076570716485632,0.20544573211713835,12.179283952918565
18.393497957073315,-10.685623434251525,0.24634111868697436,11.731402173829881
19.640970615149232,-10.557975771357718,0.21101335167118607,11.635601055834048
19.534822443626176,-11.059487581404785,0.22149751432436446,11.377145178025488
19.361838551863748,-12.898298783645297,0.19946713384253228,11.791216986967104
22.372390486961425,-13.109505494350827,0.10002083649023143,12.090684206847664
22.332788748950144,-15.106180757165442,0.15376632655743744,11.740117315938527
19.511282810926534,-12.196229466710252,0.19739737114807357,11.996295600786729
19.595166693291457,-12.072350845921505,0.23876401428013938,11.613162390789606
19.463992696947187,-13.595693078667264,0.2074071637899594,11.63008430451212
19.43576093987689,-10.494383238594295,0.20966287808260395,11.630742401041406
20.698413269756482,-13.240017377246842,0.215090300325277,11.41842150827968
18.731131864513756,-11.930963013456337,0.2815586354785173,11.263032483981002
20.58126292133283,-14.68378337774271,0.26777986551056676,12.072676047593642
20.40103571715205,-14.484427358006842,0.2777428649512126,11.870507833113484
20.191739395150773,-12.942606852448646,0.2238843116837124,12.055081234851215
21.926888409664244,-13.090436853207658,0.17138261841380215,11.66664961052998
21.167210611414312,-13.00834880592234,0.15030699253116495,12.446094027882621
20.50072168491436,-11.988802675164496,0.24447565563392576,11.305057830090629
21.21856274297231,-11.265614452977506,0.15831403870336255,11.512435006647381
20.37600708721397,-11.966719168351075,0.14151303927752953,12.084697775370982
21.31896266464595,-11.068780903217005,0.15693978969040884,11.768018723333627
21.740139286016525,-14.331224530314469,0.15529146150631382,11.55970406707794
22.09680222090628,-13.534684854804043,0.20076681345275438,11.57139336848691
21.44910588285601,-11.909635906144278,0.10216719527884696,11.72437580769471
22.683948062429494,-12.428002312343848,0.11769136525161696,11.542577581417156
22.708372132227645,-13.257587789467715,0.1515093914725415,10.67009522954367
20.203050797286917,-11.453992292152149,0.14292622812157582,12.453783603787587
19.953942213012166,-11.562399868298757,0.21177875915504507,11.360043243620387
21.10655004390205,-11.805758199949237,0.20292468463435331,12.090196541256432
20.898985791335868,-11.985922062621464,0.1649202867553885,11.18256277131831
21.910976281457398,-12.34784804025064,0.13651802254425124,11.767434954464209
22.444754404376983,-13.779794381700055,0.14710465436768064,12.14740055276739
21.420061711171822,-13.35228244368989,0.19991028279181916,10.83664261453353
19.50110800250432,-12.10541656331856,0.23123948678694203,12.178137746699596
19.613359898811655,-11.84480318097143,0.2160162126058132,12.299950519345602
