Intercept__0,predicted__0,setsize__0,gaze_influence_sd
20.99991119582739,-11.954352936465238,0.1420629246808656,12.88601936574043
21.17332815239444,-12.55101961722688,0.15371130626856533,13.122740479119015
19.68925438036828,-12.272099238292906,0.2061064331118943,10.934973455533898
21.490190044133517,-11.84923852526091,0.1264081655685328,12.912112864483582
21.22353920472491,-12.442471225837423,0.11781031244773879,12.894799142423096
20.290572778397173,-11.240192253106846,0.18620237146874108,11.371812106090273
20.83803424318595,-11.765861902578242,0.16058318436432764,12.141258071634901
20.478917402634533,-11.216343055929233,0.15879814701015038,11.254214723050074
19.79527548706814,-10.88932652024868,0.18086722056129004,12.518557859100058
20.491785182210805,-13.915800373586901,0.20827865383406188,10.930295905888409
19.775996648402607,-13.787247542083113,0.21220475261105584,11.557940591092642
20.756400879640356,-13.387842172207176,0.21783439525887954,11.954107070768647
20.23992691469879,-13.48280192893146,0.21675291334386468,11.740768633737291
21.32484791744483,-14.480101123242514,0.2603102418508826,11.954545305380059
17.809618101246688,-13.396954431956843,0.28698497854388455,12.06476623714372
18.240757804650364,-13.068311583341734,0.2966673073692778,11.633215411499215
19.42612865121721,-13.269924982290542,0.19180962394495388,11.745915858244915
19.42612865121721,-13.269924982290542,0.19180962394495388,11.745915858244915
19.42612865121721,-13.269924982290542,0.19180962394495388,11.745915858244915
19.644231361928128,-12.850376102194517,0.19636342543588878,12.107548129368926
22.498554734027557,-14.116229411819377,0.10910634766546701,12.128418995298338
23.25214357927858,-14.877942141703585,0.17205226394500686,11.810778116567194
22.92322059389005,-15.29121120859447,0.14707477786053771,12.333376828111955
24.345851279369462,-12.957062794388321,0.08589805414822266,12.373505755254516
24.39084799610214,-12.687753543700925,0.09035969604464365,12.504600598515244
23.459398572328546,-13.816326860297718,0.051731289818035014,10.755684206498126
23.238511010764785,-13.802068431173057,0.11289369177821859,12.724673413578012
20.822288432881837,-13.416291549401015,0.15807232968248203,11.478460383235287
21.11853196668886,-11.991659471482569,0.1300899698727733,12.770446372174575
21.5987094473062,-14.13746803267019,0.18649171003937967,11.584291043074474
21.5987094473062,-14.13746803267019,0.18649171003937967,11.584291043074474
21.691795050361577,-14.075673621421796,0.18139112366799645,11.798298456826611
21.832716436801487,-10.743881198215705,0.06462745386320644,11.708253593465376
22.088485747113495,-14.088697347222418,0.17360439684654896,11.949346963834067
21.98229114376065,-13.212483114643948,0.11407699591181089,11.687907567505338
21.816706505605648,-12.869204987702162,0.11539240255021874,12.338462273157575
22.152433058673935,-12.560335755123548,0.09015831272233608,12.299442728923628
22.896465463985162,-13.272980588475676,0.1397585451435229,11.562375193799113
21.740828854203986,-12.241672908749393,0.12843757691197671,11.812531139835096
21.966254716103684,-12.74160812800845,0.151288275082106,11.710701951295146
24.223557848169595,-14.881098475524118,0.11092773538188173,11.819259699183764
24.223557848169595,-14.881098475524118,0.11092773538188173,11.819259699183764
24.832092772742545,-14.466061040215067,0.055002819877935705,11.534640580647064
24.832092772742545,-14.466061040215067,0.055002819877935705,11.534640580647064
25.180232682748663,-13.470617816258672,0.018613857487529802,11.960408376193572
24.627853398626904,-13.87191113459823,0.05347540658780374,11.581151929652094
24.627853398626904,-13.87191113459823,0.05347540658780374,11.581151929652094
25.22513804021545,-14.761083484798968,0.04240354605978733,12.212054784830766
25.21108692018842,-14.959229808291326,0.03392029733631259,11.979976285168393
24.650994334014623,-14.486249518297555,0.06527377578406839,12.374786288254652
25.4060287962186,-14.11032051647577,0.05718433798625153,12.062288861119818
24.50052598739012,-13.836524506843485,0.02460841321321283,11.605873053182648
22.150671317606246,-12.465417880104853,0.15717419307743602,11.936588036528356
22.196023348853448,-13.834626804150883,0.18328718857283793,11.556476636483556
22.56383169289142,-14.158132761736862,0.15307994745439524,11.38856934279863
23.050256886640973,-14.38704933340944,0.14166692852094911,12.2027143254992
20.044630626326896,-11.941859390454528,0.15857546756525048,11.367786582247282
20.044630626326896,-11.941859390454528,0.15857546756525048,11.367786582247282
20.39080116827999,-11.891120402347559,0.169010637884793,12.181409123008638
21.744616105044038,-12.202611319231739,0.12398635873086766,11.16514345046613
20.24928816441783,-12.820186172631795,0.19335433567456942,11.579418829948706
20.75535794044855,-13.039094596596335,0.1668325445670217,11.993626102374295
20.60307108539803,-12.791160380932954,0.19855748849586796,11.89613516137037
21.157605733736073,-13.604849802647449,0.1957227988185021,12.457245133781717
20.07427780957849,-13.803103018123966,0.20199810861299744,11.802003044147225
20.50030713930072,-12.227247306495624,0.16491373807832346,12.40537198258602
19.919309580080146,-12.360597060761277,0.16769448022904201,11.611658559727527
20.870441363087963,-11.413700382354627,0.17843050624163798,12.45555988758273
20.60341160584303,-12.408612391039089,0.11580403389502396,11.791819060146349
20.35627897267654,-11.68522029997962,0.18832798617400537,12.0094973672767
21.033871933950234,-14.778932157752575,0.2133474701389376,11.559663096276026
21.033871933950234,-14.778932157752575,0.2133474701389376,11.559663096276026
22.704425923578967,-11.212024535238966,0.06247701115513715,12.001062444786294
20.370774009343656,-13.142515558713459,0.2134642787572097,11.872611925965398
20.233757885300182,-13.216800363268284,0.21059088976723525,11.591389021743652
18.500764670150904,-11.745032323430275,0.2656676463479916,12.482719169072197
19.677736707382643,-10.695081385642688,0.20533782928085126,11.206327610920997
22.065407049595134,-13.938248805632066,0.15722603774551203,11.452197008673915
22.592475497289296,-12.8165029707297,0.08730594927557071,12.25397569237643
22.904425881851346,-11.865805012923664,0.10908052775930445,11.249433613476864
23.087752652260768,-12.541773941986525,0.0970184147795987,11.83536745986536
22.032406130906907,-13.812385900751678,0.14583146870875027,11.634534602039972
22.032406130906907,-13.812385900751678,0.14583146870875027,11.634534602039972
23.036972373264753,-14.25112114994617,0.17155588014029874,12.46446352189266
21.61378287868009,-12.332680479704763,0.17398021718237214,12.550048328812238
21.579282483475463,-13.683682767347392,0.1550065773028733,11.71318737448366
21.579282483475463,-13.683682767347392,0.1550065773028733,11.71318737448366
21.609246436892196,-13.606507793555606,0.15609420207969335,11.09399383583014
21.04185578008102,-14.948551202124198,0.16085319463566053,11.782799252901947
20.890044843137474,-13.31003647974708,0.17684626657113103,11.981824590582486
19.387853115785152,-13.225341027345214,0.23989308674590265,12.038125973179147
19.84155344760748,-10.801568657869888,0.20020498590291202,11.850092505884396
17.65693441887447,-12.266825437692274,0.27979132843617427,12.326753412753789
18.174164279519303,-11.806415284018549,0.2637264689620565,11.908201000753547
18.74210238585921,-11.462697050310066,0.27352143938367995,11.708510454685682
18.612811937354763,-11.463408636581217,0.2622895035850828,11.79293458331673
18.770390359213536,-11.814022911262017,0.25540964491251417,10.919048001637961
18.70589507053493,-11.55157749369153,0.2144352392298241,11.567429612046734
19.50628550089731,-12.766037434479383,0.21191920698309963,11.510222584944383
18.963372095049074,-13.138114867069897,0.2530242847512277,11.643393641599916
18.68394357776818,-11.941765461551656,0.22839299789100556,12.058978608088896
21.318743461573806,-13.170413372535275,0.2012194042201617,11.70562750642192
21.105978176240193,-13.222347827323507,0.20963668065256597,12.548834144258416
21.452767559873706,-12.74520789531345,0.17531191897216272,11.632846665858123
19.227785027004177,-12.32192342962942,0.20326834044800024,12.422967071030953
23.61681225268505,-13.291159292599126,0.113132982872263,12.367584600162441
23.309355940083808,-12.446395373762318,0.09994362808711091,11.572973537296328
24.008264284586765,-14.221044278806458,0.061210611658874856,12.078860008667501
23.622879587590155,-13.612435014482358,0.06301230779645359,12.230546467199066
22.021017083401688,-13.09692449960693,0.12924567587609168,12.585674569653795
22.77736274563188,-12.536633353539555,0.10548984132254237,10.865705625548623
23.598766334037848,-14.35578001193463,0.08621651020088882,12.742788904251638
23.982643514407865,-14.327943018378063,0.09689972601492457,12.794151678061581
24.185854540213473,-14.25970042467845,0.048605856454791076,11.22416838894339
21.460198380641103,-12.982016105345528,0.10921054302032346,11.790884388992023
21.45433334793413,-12.806513914963759,0.10131845787437402,11.698250602454804
21.33949940257006,-12.800163646842458,0.0986317223614008,11.751535832535643
21.75229676369376,-15.390307759524097,0.2194821908459608,11.90355235531319
20.382361335591177,-11.704100513822087,0.1628041394284704,12.808742593406805
22.650924666161323,-12.201297419067046,0.09465110716642917,10.973944020247341
21.077309174739295,-10.878106214263173,0.12073034899348438,12.477954850740813
20.567146969109157,-12.247220851631521,0.12845456900711477,12.31943772230793
20.97156947598787,-13.124950073638518,0.16306938625836287,12.364506137372297
21.2678625663501,-13.093274017969811,0.20467016141536476,12.395804541780112
21.065763210166903,-14.445031814388884,0.15209719941608849,11.625685037052422
18.98440261184153,-10.978535509982994,0.18163282168799733,11.889322077938179
19.76445257101072,-10.596991911310537,0.1931579513183232,11.483584136510885
21.96847521834665,-12.914552296913751,0.15564748337492978,12.380552958820614
20.870279727513633,-13.111040643142065,0.1643921444424111,11.172483308152758
20.424428134186027,-15.160045609147971,0.23168442534572722,12.101485861158997
19.24268398208761,-11.022284040320878,0.17593983454246095,12.03008793456287
20.019265159787835,-12.70457004193753,0.18550929621359244,11.71669745335975
20.755864619742294,-12.568094357967285,0.18086771341335456,11.908020382704711
23.381189018733153,-14.3231409657833,0.1146090966266606,11.936575022672983
23.15411325679846,-13.170698675055673,0.10027806575565812,12.577501583579682
23.518381945806347,-12.848009423320061,0.0889123441026102,11.868899702739462
23.753292319088732,-13.811604442542851,0.052183978393410796,11.977296851072474
24.00727750659096,-12.73795448481244,0.06571895294369876,11.568593099700605
21.174617813795216,-11.298408422328556,0.14591724686575255,11.628995968278208
20.427866022505086,-12.02023787933584,0.14316002366334,12.130527661801063
22.502204753955517,-12.22158563578324,0.1061837904073987,11.667212001866869
23.302262579272515,-13.351052977358549,0.11397941216117363,11.829275741758053
22.752052644943195,-13.75957205099203,0.09442731576979048,11.941827135559336
23.425610579471456,-12.982107837678498,0.050294633684676966,12.215318201467301
24.938128627991393,-14.242697377127003,0.044736314980099834,11.241929713678317
24.682713385012438,-14.346335574886725,0.033531512918203735,11.325265396246929
23.91036874478223,-11.731551618069485,0.04335645782715157,12.294487090052211
23.196194134043694,-13.15404245562272,0.07472006312493884,11.04488251113065
23.196194134043694,-13.15404245562272,0.07472006312493884,11.04488251113065
22.17766033763635,-11.974757656270913,0.10961234195832305,11.126663485476433
21.56199631882283,-12.132750612698146,0.14305851861922625,12.778968561336944
21.33528896842309,-13.98523717251739,0.11759779405006432,12.995298416452915
22.790027294012265,-11.552988050449745,0.14204283486447092,13.032976133809727
21.38523959313813,-11.821465933417336,0.09441502164562647,12.082656526131153
24.053395287006882,-12.01101219038612,0.07709175230757714,12.327994888637352
24.447470375203014,-13.384592572704932,0.03133644905743407,11.654938583550342
22.553340002068833,-12.341836049622282,0.11963309272900928,11.958711950297866
21.756567067636954,-12.460485148487985,0.1138776406008156,11.646909670236848
20.735197246246713,-12.095703625878203,0.14515896854753582,11.888911003041047
23.945274081446705,-14.17292875731472,0.09324055409779633,11.598074965072655
22.02490471247425,-14.773380237369386,0.138593530242145,11.905300602366154
19.473850016362544,-11.66251225038188,0.17747506867394008,11.250578887654239
19.84785769816213,-11.517496779918224,0.1918613120306329,11.417131161809364
19.363424517972994,-11.979002807272327,0.20765702034938258,12.452375748155948
19.749104864042675,-12.62808095465559,0.2283395369501686,12.283944981178589
22.845248210462465,-12.110100599608081,0.07367524649486115,12.30135003824854
22.8529864862846,-11.964823073456433,0.0728861430958178,11.570275353743405
22.20595946766902,-14.419642280098593,0.17058648684946742,11.936520975380162
22.20595946766902,-14.419642280098593,0.17058648684946742,11.936520975380162
20.181866523008598,-14.175462893267568,0.24218174875385295,11.747063110255917
20.181866523008598,-14.175462893267568,0.24218174875385295,11.747063110255917
21.744808281907854,-13.325048699130267,0.14591660605437734,11.924922096155377
21.44644398119555,-13.518387060402372,0.1599705083261417,12.176391813019938
22.28493877311341,-13.120500002910688,0.1646929642113593,12.479910075190778
21.940422431389578,-14.099836761593775,0.12225548410108603,11.535517129891886
22.362200984750274,-14.35474057000057,0.12796730199670903,11.171076185008053
22.034779877403007,-12.32675446649747,0.10770627969730104,11.312365356040686
22.73389976368603,-14.763265082490996,0.16260904994230202,12.278080173761742
22.52830527308316,-14.464246712341236,0.1779561615747131,12.085554589943031
22.054328141882134,-13.701757987623026,0.1732927593346796,11.845291108164538
22.413005022200306,-14.05395783962265,0.19427754617834836,11.753051074893817
21.565759335543166,-13.891114156023683,0.13353867276073172,11.914040179676501
23.104319234551948,-13.990494731430774,0.09699000988341716,11.255985415257989
22.406826595252543,-13.873874433204351,0.16172253598750003,12.568863635281007
20.7998300632824,-13.915095225358503,0.18255281264716736,13.062623402010932
22.60087865916667,-11.804300947643615,0.10533969863709189,12.062693361493892
22.353885464622394,-10.580011114174072,0.05520732883874702,11.844824721175222
23.349445110503357,-13.666717900329795,0.12844564608429831,11.807006600447721
22.914026715095563,-13.665089593157644,0.08979923667228505,12.181732425165187
22.998819955038915,-11.35542008800477,0.0888190893466929,11.696010981881514
22.103079550794664,-12.801987135663001,0.094082367440805,11.889797770761168
21.376783207191107,-12.301132122526255,0.13793860884158232,11.750092453639681
18.84942633656607,-12.068813876095579,0.2407911048684082,11.955876859278863
20.133759096248845,-11.83394233983929,0.17991732510586342,12.050473036368066
22.49403573609102,-14.985407291279651,0.16282691687148865,11.940663853762821
20.66375655612237,-12.026838432356401,0.16231003246529943,11.822429010490579
22.459446704508974,-12.46464892629584,0.15132171851439793,11.853619241547534
22.459446704508974,-12.46464892629584,0.15132171851439793,11.853619241547534
21.52098405794019,-11.79681563242739,0.09551857630496134,11.714489985695419
22.175887127759353,-13.127623207817745,0.16361038287908286,11.778722495517155
20.90492808052489,-12.308233689644439,0.12784121225906137,11.745768117350941
20.403616758825045,-12.407622028352291,0.19896724625883896,11.565624832705998
22.42238091433539,-13.60315389352128,0.1419206250298086,11.563338152441148
22.965262279822184,-13.380220147391684,0.09458100069087491,12.06470391287137
22.44293820433658,-12.21876032325589,0.10253858909250592,12.174026126780573
18.696913192447415,-12.495728078957796,0.21153357484307467,12.22724961724537
18.555526127491277,-12.116504322942431,0.2231363445579823,12.115130983737508
19.085061580706842,-12.761735092561471,0.2974277877683369,12.163749978588143
19.443507450311465,-11.779050647546239,0.18388655460645048,11.556628445016758
21.680404169861937,-14.335120285064743,0.16960299997401007,11.984949562934837
21.690010371237637,-13.90128430404745,0.18974575034105962,12.282655656636562
21.563309105849044,-12.198731373241483,0.12504094392684306,11.487714137211027
22.500587894673963,-12.893077273569167,0.11394271515710191,12.064175896927853
18.878833394142557,-12.41251885177657,0.2661746396313485,12.05409251145119
19.31651228687113,-10.650902853024903,0.23857130386769443,12.014707652425571
22.726321582971785,-11.554086187061714,0.03998961521943203,11.720194712895271
22.726321582971785,-11.554086187061714,0.03998961521943203,11.720194712895271
23.544927136081395,-12.63096285694014,0.0861985669885113,11.913809187194008
23.38450641584739,-13.07307060666484,0.046192645193812276,11.739203095240539
24.335436031580432,-14.122473803370186,0.06263794705279185,12.303324736715803
19.34649719737179,-13.419618243623747,0.26750995030801994,11.879065681180567
21.305881841180916,-12.682834852021829,0.16414593816813788,11.759025101862104
21.369368468421396,-12.53082580979877,0.1838957619564022,12.269013128935212
22.81465161553525,-14.342633226538625,0.13825640491211977,11.3890608398773
20.936493191119933,-11.587758703568865,0.14713151461254328,11.880515028339415
23.209290228130843,-12.710634786440064,0.07860148086186541,11.950061511278829
23.209290228130843,-12.710634786440064,0.07860148086186541,11.950061511278829
22.867193313239795,-13.935826926048001,0.10677324859811302,11.614768875141303
22.971668231642933,-14.895370828517361,0.1472566220197378,12.183346878702743
22.717985154006985,-12.888608895992046,0.10626313885919327,11.599998702981516
21.22285416682153,-12.168022954957255,0.14851886880132248,11.469637113459477
21.22285416682153,-12.168022954957255,0.14851886880132248,11.469637113459477
21.972719357786733,-13.013661639857746,0.13708257215386593,11.449838060395978
21.91574845130963,-13.581152883448931,0.1645290590820449,10.917435442854202
21.95906668993009,-12.805389751494147,0.14600785160892035,12.356886365288178
22.234814650200693,-13.911502977457975,0.1424692101729398,11.463516230511129
22.439248231083255,-14.510788988484775,0.13759728317699965,12.155486415174911
22.968998894573197,-14.26062529924633,0.1628834150317993,11.437318306695866
23.673956189985073,-14.829390314670468,0.09386542364205637,12.245091404428411
23.14407404485047,-14.53032582601514,0.12696138883619007,11.371986887542535
22.92906751798692,-12.814411705045158,0.12571840018535568,11.919648333529608
22.15520356567268,-12.5026316312025,0.09195679397684922,12.019728277426903
19.86791964529825,-13.872414546276582,0.22837653396951402,12.064924310939137
18.11046125519938,-11.773979455597765,0.2769430279915248,11.657896068188979
18.039658345554493,-12.605588157246912,0.28116908732311113,11.918128239673196
18.474966405284395,-12.191026373264977,0.2714844323551726,11.646882743709325
19.477101549989392,-14.027809331430209,0.2439090656590774,11.639065715469856
19.477101549989392,-14.027809331430209,0.2439090656590774,11.639065715469856
20.565629752553274,-11.308513244281569,0.17473160859288028,11.589936607956908
24.545910187130065,-14.38615930187782,0.08721835556390062,11.487769958286647
22.33660353166677,-13.00418701054085,0.0927460714412649,12.529879329686691
23.38631560189847,-13.511213106675475,0.1169848040766864,11.57138422913752
19.90364353710278,-12.4705190777456,0.20043864928021746,11.799287177923127
21.111305656036432,-13.962613796513041,0.21774596996370257,12.036756995633551
21.238281316081462,-14.078347989691766,0.1757814334216413,11.725195779409553
22.199994869192953,-12.718035860624983,0.1769239054560913,11.843896827448791
23.206515442586714,-12.298802312682627,0.08788372087689689,12.177410306596352
23.28395212003108,-12.364312659212992,0.05934795003200799,11.229928899066461
24.035893880952997,-13.171291374829888,0.06487559266215022,12.688121587314027
24.03453375542429,-13.167639288566392,0.060776346828464,12.358028960405337
23.792511746018043,-12.29374381033848,0.060118623190189645,12.458466119855984
23.776348817281626,-11.512214537600062,0.05220542457798517,11.209214044249931
23.48075150084063,-11.488092132175822,0.018605501467183892,11.156925094324263
21.386242107277972,-12.426772032852202,0.15997549605381747,12.109156619009202
21.817682529792602,-13.814482953633956,0.14602616775487723,11.354141095386764
22.344592637544658,-12.892845268585663,0.12980685771279582,12.09934071039062
19.301963412970604,-12.54842039909622,0.24704467996186888,11.89496456213107
21.556358986967087,-12.74648350596026,0.1781280840705139,11.508031192588488
21.04370584614138,-13.818545666294902,0.1701225368266578,12.06940998841817
20.909604717504365,-12.957755819628497,0.19133055574586558,11.496243647764882
20.926459968878415,-13.82684755301281,0.18678474965090988,12.025304382124105
19.895395238091588,-11.538572080321899,0.20551174055558682,11.383153607632195
19.971003950941004,-14.117487195911538,0.23935736777948874,11.875466002908139
20.16266020973774,-11.274567176521991,0.16256161779851638,11.573090272970294
19.9749144099215,-11.608369408786288,0.179280829962165,12.092148405759986
22.886538236931518,-13.68839958128918,0.11136655774062862,12.072741543829157
23.656270324343396,-14.032944001108222,0.07552921971212823,12.256161983315152
23.734607381788077,-14.185608444401167,0.08810473992539614,11.385257813051188
24.052594640260583,-13.331638688213177,0.10280139663907835,11.542665461209763
22.944074394304746,-13.851559662488677,0.08584450346330692,12.336345183626365
23.41120971874794,-13.442112839923917,0.11171313648410251,11.54684796196678
23.072691557026285,-14.358583348292495,0.1094271699034738,12.920401365871637
22.318426037831824,-12.612901016660794,0.10899253445333516,12.913039091513188
22.597228502758806,-12.600389609943994,0.12302057584830112,12.922618354512657
21.822609445610716,-12.98072092297853,0.11850878493877832,12.249266732799686
22.123125332349037,-12.288594516050326,0.1296431673409515,12.451018784936727
22.12209551779268,-13.083105355455936,0.11709708043873761,12.005773740150344
22.60656933033268,-13.078303979855232,0.14528578806627174,12.50515598889648
22.415686757342844,-12.459983724002003,0.15303649413644851,11.782104692418438
21.691278151257,-13.400431242485238,0.14352886826998665,12.409320855140027
22.497038412166827,-14.697671929530204,0.15235665040534968,11.984468014361946
22.41175268425315,-13.326147647840736,0.12869756146300365,12.026449527238691
23.1836359717798,-13.951823902041637,0.13145305092283993,12.621457667452932
22.790433697739914,-14.073989484154458,0.12522514578048233,11.96556213598717
22.790433697739914,-14.073989484154458,0.12522514578048233,11.96556213598717
23.631845434877132,-12.460878428270059,0.09865113788197796,11.821950882224414
24.297173433832118,-13.578879614605489,0.06930919157809694,11.873015513213996
21.12089338670257,-12.04074283675466,0.17378798405899196,11.605831654124703
22.52919053606905,-13.580666882150823,0.15315965790859754,11.666543997971086
22.749188013513606,-13.742366463872399,0.10445660034798021,11.780674635275636
23.32517523354675,-12.027267049230693,0.060360094760208774,12.060441710195132
23.818626972251124,-11.586777614793785,0.07984118964583892,12.189538814955327
22.351672284218104,-11.04689915580641,0.05125194388827477,11.67128875572748
22.402391835253702,-11.64379798603463,0.06646698485159658,12.137537536783993
21.762333180579947,-13.52252374124085,0.14673302160464138,11.950779649177655
23.593125239615677,-13.170789715488974,0.09408478116438539,12.21701147514389
20.127731539751075,-12.102321829366836,0.21283066579477208,12.232775359873502
21.08795825718077,-14.66239878055201,0.22080007219692824,11.3769179437203
19.739690760295545,-10.59643695253193,0.18389572337928967,12.060273599018743
20.557041518948303,-13.35317302864971,0.21736260183168926,11.48380233004778
21.18320798491165,-12.223308278337287,0.11854756816106729,12.165360165788782
22.646088446464667,-13.672829527474075,0.14966824890346303,11.490185049147337
22.646088446464667,-13.672829527474075,0.14966824890346303,11.490185049147337
22.500475122456745,-15.251676431334147,0.16207266952119673,12.05709526542888
23.765129153955325,-13.855576457662323,0.09202043354870762,11.488028789172132
23.573988658045252,-15.422642519088235,0.10393392549608373,11.204850623005292
19.787548453955303,-10.704056491838628,0.18297701804807143,12.106296260260304
19.632598330028898,-12.055480269883592,0.17867358100448602,12.36868148762179
19.946730541481482,-12.790060175727122,0.18347717869660898,12.55184205574054
23.06925649557166,-13.46427501817521,0.13852687781177073,11.779815099352025
23.060835298394224,-13.501734651254292,0.12859182420245927,11.848491706941378
22.13593256246468,-12.641220758849462,0.1029112663228543,11.818026763326852
22.252319654831762,-13.518129008585403,0.16546866423234252,11.663553350667101
22.343449533804307,-13.391836828075268,0.13395499131691577,12.389247366533612
20.644037579034652,-11.720945360856915,0.16001782491779865,11.798867080303141
22.796515411967803,-13.958458561087271,0.11680217821676332,11.787866316209868
20.38639367990412,-13.21419657962722,0.20208967936560587,10.879993087194206
20.45337954168877,-13.106115448904479,0.19896897678365347,11.981543749575822
20.431532774833528,-14.285211276660036,0.21287382980759492,11.968284092855397
21.23089839027247,-13.389234749097827,0.19059053132424264,12.322710830034229
21.06005951368744,-13.386466886875219,0.1617931645753506,11.57272687134756
21.06005951368744,-13.386466886875219,0.1617931645753506,11.57272687134756
21.437141643137352,-13.154138386575882,0.1958525091557031,12.315109852755619
20.30132351458013,-12.713682830196356,0.1903375804009623,11.165720057071582
20.82667591440948,-12.992910314703371,0.21824809085683813,11.996254506269903
20.82667591440948,-12.992910314703371,0.21824809085683813,11.996254506269903
20.98904157006573,-14.099851791056592,0.1940929373957581,12.087250231138006
21.86413382177797,-13.724166057622938,0.18900232397697803,11.807936322740012
18.973138251487498,-10.157361253578316,0.22005993676664104,12.148529405101549
19.283753194405623,-14.666769686910236,0.24950334577877012,12.357539997188892
21.259375298357064,-13.287176668736572,0.14955994564965844,12.835134226144804
21.631844938637624,-12.997332196514892,0.1475378560794584,11.749019358847638
21.80102746462062,-12.7725543838109,0.16495155286404553,11.476658821545444
20.954017617939307,-12.617222286574178,0.13824338478230414,12.534099190947215
21.057623408134695,-11.531212143621797,0.19570635995925972,11.67088272513789
22.42600082549937,-13.310340742795143,0.17052202048782977,12.039501044971974
20.32392450844951,-12.72344685160672,0.16601341399306807,12.435041905419501
20.814171435191806,-13.007769981241886,0.14683283064416416,11.416949508076513
22.137447131981666,-13.126733259552646,0.1459923352326529,11.924356902760044
20.89152594023542,-10.951753618287412,0.11310747980586125,11.64556689405275
20.89152594023542,-10.951753618287412,0.11310747980586125,11.64556689405275
20.582766381564053,-12.41659871404029,0.175765636824042,12.005664268550639
19.699304475883544,-12.37187750489244,0.21033924281133032,11.55975121131
20.762828631666576,-12.192074491285268,0.17610302305354886,12.089353863418523
19.95328179764419,-11.748408992125643,0.14144137670369997,11.504627701058972
22.383930135158742,-11.879215089780246,0.13402121159685926,11.94152145642751
21.71538414865972,-14.016576969848686,0.13404033631191836,12.116111593271269
22.959111912739626,-15.995396893577308,0.11927126471908388,12.33321812865729
18.92254310257269,-10.555896047426629,0.1684807092242876,12.340012183503784
19.449297293075297,-9.649038807211847,0.19917933222396078,11.115913494442239
19.449297293075297,-9.649038807211847,0.19917933222396078,11.115913494442239
20.388816591140902,-12.914261849054565,0.17718836653455294,13.100990953438286
19.995568236056915,-12.078774967580637,0.18084118790349366,13.292014247229156
21.16617782288409,-10.560000926886527,0.12265897365433794,11.279494903143675
20.712468634411543,-12.494487534588115,0.14774448506469368,12.141980265105174
22.72637377979039,-13.05343814149144,0.09359791952027538,11.898629600870194
22.321195286873095,-13.441775879890532,0.11551977119161172,11.644956592150606
21.337770455770656,-12.600951480639772,0.18441457888285073,12.223916928562673
22.878386333514772,-13.109668568884663,0.13390497505382778,12.089271103354585
21.007903687562134,-12.948464068163416,0.13670032688477052,11.389767179027192
22.651001628355427,-13.087494621135091,0.16114835789271262,12.642716096606696
21.79097957095644,-13.639464383740844,0.13491688768448762,11.336923865561488
21.31659793037979,-12.495296724069451,0.19049277176484575,12.190664936772654
21.91961496118158,-13.639781614101006,0.14549529135578443,11.667791433653248
21.516014606486742,-12.877171794109811,0.1749012664234228,11.912109588505595
22.035679449401126,-12.795341005775418,0.13691466023726925,11.682843275377037
22.035679449401126,-12.795341005775418,0.13691466023726925,11.682843275377037
21.868467059503782,-13.549649980635646,0.14105114933469284,11.983582173901674
22.434676174642316,-12.923007449053028,0.127970531195825,11.484321598084556
23.227953608099806,-12.35795243613436,0.05047798078214458,12.209151611399259
22.845996822555865,-13.819677017389415,0.17698944388685106,11.04556896937945
22.97868733268615,-13.481140448208338,0.17868494062836146,11.764033291930645
21.213969093419877,-13.965507162309834,0.15784597003048872,12.527777015631777
22.259081821812554,-12.504577850225983,0.1547898749004357,11.372969460639593
21.5357712076117,-13.112283063142325,0.13483762336220864,11.171599283815222
21.89087814237421,-12.328117636138927,0.14493026677442356,12.27808070796814
19.6237386836571,-12.205785917740004,0.17908627718467343,11.797916215041425
19.750681549096498,-11.712603897508343,0.18868675737000484,11.725823071450685
20.63624126089604,-13.441450444141093,0.21273790940616688,11.87353192876063
20.269898594666216,-10.944645062542374,0.14462683753465277,12.230696598797888
18.880578759459883,-14.055864581660712,0.2727559709977061,12.174027434408265
18.64707755970316,-13.746753948207314,0.26463602057437974,12.005009173074397
19.826194043688048,-12.288720404726213,0.27114361669084874,11.940358064528265
19.777405065730616,-12.817698934966423,0.20219706646036906,12.24794338150683
21.257443302489396,-13.542031327216682,0.15709608487716029,12.060937935479698
21.824401961580126,-11.232834554235122,0.09017812461461638,12.020696902796136
22.52559603199243,-12.969417512786922,0.14292964052436039,11.53387921765295
22.576785937962264,-12.911594933924855,0.1403369996592239,11.640639190679652
21.56623580430708,-14.23685577243215,0.14285422559738684,11.829523041047057
21.974802473649635,-12.395762793183447,0.1478694204720939,11.981488181732116
22.783999059607297,-14.159309063821517,0.1251252585578445,12.021815852816077
22.018860022246596,-12.103315895423469,0.10442404528284907,12.027505029308692
19.660417375833834,-12.606256788749135,0.15814901108348164,11.232862752248415
19.761073891577645,-13.754750230071988,0.19452174991095883,11.749274601559964
19.85785287231416,-12.81720948524013,0.19432400710133407,12.455145345184693
20.066354754087676,-12.914326137461918,0.17042819944033638,11.885925527231013
20.32415540597838,-12.332576861564016,0.17723915587933994,12.109567516935273
21.775979399501345,-11.834580783982444,0.12493711682900657,11.686102803879118
23.598360554106577,-13.954474304771614,0.11744853028730702,11.992988166401805
22.083578612975895,-12.910279670519598,0.16296059195353432,11.74320764766866
23.28809817094648,-12.462646953574222,0.06824348843021187,11.941954041044937
19.592429678380494,-12.101736192985806,0.2163848470989295,11.878207523420729
18.584524035847675,-13.17547589966732,0.23245731887767426,11.747469314258248
24.787406661379308,-12.743789909160586,0.06993957378842586,12.415540659075695
24.339692420040052,-12.932390853019726,0.02542466406004905,11.346769422257687
24.339692420040052,-12.932390853019726,0.02542466406004905,11.346769422257687
24.6031057246587,-13.127674523422519,0.0241011698819369,12.05715496106152
24.23123452726723,-12.030771838443771,0.03578822447306616,12.053802889804812
24.777506771832186,-14.783703351357358,0.05482209517212604,12.092905615105837
24.597903143178332,-14.81294875357256,0.06321448463118613,11.447488312581854
23.845467775376413,-13.034678590831412,0.06858376092008499,12.019304300049923
22.880088036564295,-14.859959065725128,0.19630945154288496,11.307276797356721
22.292985884898904,-14.903281426568903,0.18307329385491858,11.7081179663839
21.356320721517882,-11.676818367559013,0.08154532165022893,12.093392437780029
21.466906062121026,-11.559003024582303,0.1395099510076401,12.070355817676893
25.20739312476034,-14.41431355817191,0.05429122579518326,12.027928988117196
24.59934018721192,-13.207041725467151,0.005844199568548846,13.080006975137694
23.503159496640155,-13.48786263324496,0.10064838685080327,12.776821820898208
23.76264405102662,-14.920534400650986,0.06167204210348229,12.880158326783748
24.026782562736862,-15.453723737582354,0.04140144983508895,12.087833209922481
23.098065940870473,-12.87746269819058,0.12394512738216822,11.542285046813682
23.27894811712199,-13.242268163105475,0.12708422639537204,12.117679979983423
22.33053087129235,-12.673557249462162,0.09744838149964852,11.648267458470084
22.972355694904675,-13.514299004284977,0.1191007726348429,12.45283805776629
21.932764528218502,-11.801325221774555,0.09990874397994773,12.545577041152505
21.62696874132165,-10.800640985048874,0.11921111182584976,11.861857432546534
22.224494272095658,-11.853483048727357,0.105761978081601,11.937321966024399
23.2481848741146,-12.121264769147865,0.0752242170346405,12.603144028247495
23.563632788207496,-12.979226618377217,0.09492186931398419,11.644515827240536
22.74281466679408,-13.431474573623746,0.07773430825185648,11.853108172027618
22.730813016588097,-12.361531910561414,0.12628313782898315,11.946932294847432
22.193730467415598,-13.188675556928764,0.10791138007931483,12.136778237512798
23.560283790949306,-13.97746574388546,0.16489542067601823,11.680283253210943
25.22397002258549,-14.631333184544928,0.025647024891763945,12.460886656962295
25.862772758314602,-12.858987404443868,-0.02519113747425148,12.07976965984351
26.306672570025338,-12.824852549560292,-0.03090414076284973,12.727547298694091
26.165672165228,-14.22710561702271,-0.03663500265005957,11.571272141694465
25.755823812207108,-13.222714587876702,-0.02660837599013876,11.733423141094546
25.586652088467375,-14.624646730373481,0.0014943454317889182,12.059406533360981
25.59878885756214,-13.732197848160352,0.0016489195953820219,12.399431495819465
21.533222641205615,-14.726809461154545,0.13195610261505192,11.48790332238357
21.446379418168476,-13.812409751006035,0.14045123178721042,12.39137764768022
19.52175822171286,-13.148766638763062,0.23713287043607953,12.340992917768263
19.869430111162995,-12.188907395898003,0.25707955041577446,11.788172736145649
18.886349814802102,-12.495031053406887,0.2510445864142955,12.677081726109378
18.79357608538611,-12.491798134329661,0.2759966141240827,12.477101020377264
19.748327874164616,-12.103939878832959,0.2320791878902762,11.708739675748
19.415856162675098,-11.76212819689065,0.21262439778390693,11.828340639969047
18.173123968085264,-12.189114493798524,0.26191743577856197,11.971440404818662
18.658970590237058,-11.773817103837189,0.29826084249340673,12.814546498335266
18.756553158270968,-12.91741826862857,0.24549417139506252,11.867978883459848
22.361330568816527,-12.411894123579577,0.12121568462682493,11.533338042209166
20.995843908887537,-12.753845150359329,0.18945284176503494,11.539147081287673
19.562193140953475,-11.565590706328702,0.20308502350480973,12.68715795576434
19.34536954732784,-10.684281734406563,0.16276101596572023,11.252499209499357
19.870235682683585,-10.489621288899196,0.19236833641579493,12.814733873288095
21.82583466941661,-12.807643400672694,0.12241754146071651,11.700328114128407
21.322273955453316,-12.741918037631102,0.15549775246559283,12.09173440656109
20.57692070312568,-12.121918294299325,0.18902115174276884,11.976956321412201
19.059248854562586,-11.739381360442747,0.24433951366172096,12.123901951754188
18.423237808840824,-9.969992735997021,0.15016708857602662,11.84455169018673
19.865665843884948,-11.318291514605189,0.23031255498214226,11.731973195386336
21.187081013262095,-11.037148508950768,0.16107827492168766,11.26289567057225
21.08570030579117,-12.269870935964594,0.1965033386366988,11.206384199148218
21.069931895708148,-11.854525204528317,0.1531879450755052,12.505010083392516
21.88798316511832,-13.62656733698397,0.14011597001748577,12.183730812309982
21.036763761536196,-13.463003977036678,0.17338731618382172,12.059921724892718
19.884430493042274,-11.29817894904864,0.18198540646035719,11.447442691359463
19.67784179825606,-11.910061309224965,0.23255800440936905,12.05577618360176
17.355126412119102,-11.229477610626514,0.31579557016293697,11.997425073903862
17.355126412119102,-11.229477610626514,0.31579557016293697,11.997425073903862
18.168172983355987,-12.130281666636373,0.2610400608349435,12.091306751055459
21.816176109380713,-13.171884227166885,0.15187891242357993,12.300258121063958
23.291469130698328,-11.69167628741509,0.041425506842338894,12.683842355598948
22.820675719011035,-12.25519647771318,0.046907651038540187,12.609588168792053
23.40211216833582,-12.52391690394634,0.057252059863201935,12.282349950477908
22.625393939921953,-12.091911672373595,0.0770403641943841,11.525621322358896
22.355781873290205,-12.412330004262088,0.07325524769292974,12.146091560591506
22.09057556223373,-11.381682072068221,0.116017993085124,11.418466936127901
21.355827909114883,-11.776609673393649,0.13218764912306163,12.070736073026415
20.687263085605146,-12.709154124699598,0.14342125497073258,11.90677359626826
22.24609847887706,-13.791825713774298,0.14981230409908416,11.525370740402632
21.421979631709057,-13.915883719523837,0.1546826023904377,12.050714713183709
22.41577308585587,-14.693296392666552,0.17802091626535113,11.695547425842742
22.360401628144498,-14.637386464551021,0.17251664503038963,12.080491121033573
22.164338837705674,-14.430208055102275,0.1752384446669397,11.872842577635605
21.272047512213838,-13.960873148413135,0.13565164836708138,11.830872357516965
21.181230460871703,-13.566226094254175,0.14442346037138373,11.318350043062871
20.38479884040907,-11.124640536853837,0.2056353321336152,12.171368994084787
19.355603904023873,-11.113336681621616,0.14105573991711257,12.301873533980112
22.046774340868588,-11.69680960014276,0.17577944646241528,11.585065703231995
19.968330670151804,-12.377119008863776,0.14390053129739375,11.983869620832142
20.01350546560593,-12.161192382059028,0.18386148616094078,12.006791806212249
21.607605499474342,-11.87773426821825,0.13951845414985625,11.495669512754814
20.923379526189795,-13.173394410662269,0.1574502199992852,12.010439060164805
20.82191871978133,-11.793283518378567,0.20638118883277554,11.748343718095997
23.153206826008763,-12.333587003584118,0.12224896582363329,11.697959797438147
22.473371727997755,-13.52598207326006,0.1104428062556197,11.174463359955892
22.44240676163632,-12.136105898004628,0.09183094677577086,11.627994583890553
22.012677810447794,-13.217631038547374,0.1361688106158397,11.736605910830596
21.402516752741327,-13.556763061808361,0.17109978649664842,11.874077618570883
21.77122109715105,-13.921471962935236,0.16287215146994696,12.177106459091691
21.155746775189286,-12.212958827888329,0.15351128620132468,11.489962243310883
19.22806718633811,-11.593425181910021,0.2324672080008392,11.582074770238666
18.909457678860953,-11.8019928238281,0.22975669564562018,12.155264730324927
18.80308473948637,-12.705945353564648,0.23947688213869303,12.184697316584318
18.827792350168128,-12.931363409255603,0.22492181797217298,12.078989913430638
21.425519496810853,-11.562771863901121,0.17733352240264308,11.685344038549012
24.13358706465687,-14.009680538269617,0.10100013489211436,11.76141467451136
23.224332382233037,-14.699418066868944,0.09268638961131874,11.738304807710291
22.99380677022869,-13.432474420562045,0.11778433579009902,12.286527194720902
20.136154472270782,-12.567582383553775,0.1884507195921595,11.971587095127763
22.187691134070004,-13.777068503800697,0.13842730503316839,12.221544096142777
22.479862757015113,-12.560291163802423,0.09171780088716275,11.508938687677546
18.94393035873514,-13.679750877650982,0.27244025368955377,11.619761555196117
18.985768371550815,-11.648898788630165,0.21654307828034924,11.594547794211996
21.494257724992327,-12.32229304725904,0.14430872548952847,11.612708220371976
20.841523967244175,-11.443562574137779,0.15953443874975426,12.40290077524124
21.63748317544838,-11.730423888288072,0.14748805075790944,11.42160897535403
21.595509911701665,-11.909360963288439,0.1473069990942001,11.436959176766376
21.595509911701665,-11.909360963288439,0.1473069990942001,11.436959176766376
21.633757734137166,-12.716180347616177,0.12862588929789343,12.070916948096626
23.198071318099082,-12.75627044236447,0.09159954582325382,11.761852300206119
26.063415447377896,-13.26703704254505,0.012057305260516387,12.491253822507467
25.78278457516873,-13.26899966213921,0.002807015843548241,12.621693883607847
25.972951045054515,-13.05297427882162,0.006715096574014382,12.717828794695587
25.093304196647725,-12.61009220319981,-0.056467994358760445,12.407965654852497
21.954336666148947,-15.237940939647471,0.14954540036297195,12.285421283185958
22.1653909269009,-13.432442576793171,0.15979036087860304,12.401733111679222
21.731224026344556,-12.45613891504961,0.13779250131426052,11.194121229389179
21.494161027050737,-12.774222528671807,0.15162421657689512,12.15753727012798
22.883491523220552,-14.080922646844737,0.16354942643139747,11.367649274940943
23.073110216923205,-14.293975396106976,0.15788966129380802,12.122691718819688
22.6479357449361,-15.348252204225313,0.1427552123147368,11.696397213639845
22.369457373477687,-15.891336635521094,0.17637699603707543,12.15113608456097
21.94608844964144,-14.487474545969148,0.17550208448106025,11.400855290627556
22.13207366881519,-14.173121961668796,0.15083896653526488,12.057600973736047
21.104382881694782,-13.381125550013477,0.17631934636411206,12.16573324316995
21.220813983546975,-11.390278938168567,0.1549564538837496,11.499050536465793
24.13675540648361,-13.867613534985226,0.03782899080079867,12.274326252943744
22.63144850852298,-12.832961855922644,0.0795991596150358,12.702071543617304
22.543046713250178,-13.720251224622803,0.07569859800724858,12.277050404560809
24.840160511005276,-12.506514912199576,0.06227626483467829,11.585424634632753
24.5999388429771,-13.179874107459542,0.06408400575042578,10.915270552618209
23.994258647801317,-12.346224194699934,0.04799597913679034,12.217342278454359
24.46137183237325,-13.547061560870818,0.0415109674601779,11.696836972117895
23.61425749916764,-12.797229330205237,0.06455533203693083,11.879573107008714
21.526680221145146,-13.24900041446562,0.16870184092818735,11.614990971430485
22.157843512179824,-13.728965909492459,0.16473364531323964,12.407410667173648
22.536185147280552,-13.37616166470731,0.15499922674113356,11.653676696438357
22.32685420802027,-14.240609804370857,0.12034177753947418,11.937054138748051
24.031392603755943,-12.820926141764293,0.11231386152653723,11.899185140710829
23.92965793594139,-13.251504533927715,0.11328713740048331,11.487183355020639
22.10527274580925,-10.515333813130264,0.022139405777044128,12.21476115624478
22.820815600775898,-10.29531042848855,0.03872893786526571,11.826523367084915
23.4196172040021,-12.190662896819486,0.047028523678403114,11.900235846331595
22.43507400228041,-13.456357806813651,0.14557106522262864,11.72496775467528
23.314291514605095,-14.291587907389752,0.12457694308317821,12.06565045623081
22.78033136977003,-13.986281439436878,0.08583969270141091,11.973339200795683
23.578818100392994,-11.946225442805183,0.07934370763813477,11.88176186154768
23.578818100392994,-11.946225442805183,0.07934370763813477,11.88176186154768
24.504036363842566,-13.310852716549606,0.08048204054646227,11.853859968657167
24.186610888092176,-13.477637508701017,0.07324779124452643,11.80043246926591
24.44022396525475,-13.232766596508187,0.04301596925826886,11.994228726991118
23.79916921664528,-13.034564082110007,0.03290276193700265,11.545723738532486
23.881322779530205,-12.717557089837346,0.04637489180077653,12.199796174600976
22.279500964707086,-12.502476258428155,0.16065219093499744,11.507633205619598
22.279500964707086,-12.502476258428155,0.16065219093499744,11.507633205619598
22.64023736988133,-12.876921234743186,0.06256871662724448,11.922507293150154
23.132881542904524,-11.034576895553286,0.07678718532488635,11.594450262223193
22.977476183020574,-11.812606181571672,0.06189405596839143,11.694139100654217
23.070660209862115,-11.838323194223996,0.0641816480096443,11.772240943803084
19.446094463828697,-13.812410707680023,0.24924665255410636,12.132570290971799
19.97202636496983,-13.955951878965752,0.2217758887682055,11.557603479678384
22.338731841991752,-11.107171773121896,0.10857052271509382,11.681348940718069
22.456042779926467,-11.542592031734896,0.12024968172883661,12.577469995501284
22.198027941561087,-12.353956431962837,0.08765660074446856,12.356556639368284
22.2408560514939,-14.184286822252608,0.15379783426453886,12.415512114573975
22.706922457266376,-14.315573788302808,0.09126145176156,11.846376409345496
22.795468115640414,-13.943710033373533,0.11069291238526613,12.416627621476929
22.38776958765215,-11.602468233027812,0.09600863100710734,12.03941830743587
22.132136440536797,-11.073870619925142,0.045514578703407665,11.652795683728874
22.377460420627617,-11.469600893874707,0.09735319886707999,11.932806878477145
22.53086555123706,-11.529736601471383,0.10236006811625693,11.952506728841394
21.15142135893109,-11.878743966708749,0.10444150824846764,11.894907354042624
21.998139763914374,-11.834160056248031,0.14417798559921693,11.932099467780843
21.717957608032947,-13.731605694283127,0.1586270617961509,12.406468070165696
23.485557094014773,-12.168653518602268,0.052986978010939614,12.062591317111773
20.793635871305334,-13.531019939783876,0.20415818135119196,12.066505077087186
20.793635871305334,-13.531019939783876,0.20415818135119196,12.066505077087186
21.37121407149284,-14.176589230757797,0.19163016928082763,12.073341760145793
21.03660699957888,-14.460781615581215,0.24411734466868862,11.487557814102018
20.32839087471986,-13.147858476934552,0.1686390179609627,12.257042473284116
21.448810815395333,-12.743517337972927,0.1911312679705377,11.16343420155859
20.512108438561874,-13.686162395352781,0.1647416054244185,11.195647463572092
20.512108438561874,-13.686162395352781,0.1647416054244185,11.195647463572092
23.83339548164773,-13.73160800598169,0.07001659191652726,12.115926710130195
22.968904145298826,-14.745931046825817,0.11814741705444032,11.840663816205158
23.009369639449282,-14.760806839428751,0.12968777140393506,11.435403491978498
22.697173210522717,-15.12255975202267,0.152071421174426,11.65476112834771
19.727752447025534,-10.798330559104606,0.1488867994476831,11.886599229296595
20.863493527288266,-13.003694143515624,0.21696931027639096,11.610729074166896
20.61711460203046,-13.536844408302239,0.17090532585206855,11.7923200879956
20.345543406380152,-11.716256915614963,0.1648744552178762,11.878005526528613
23.28178657323474,-13.961309227863572,0.11559477661275468,12.155376605984076
24.721705695214766,-15.098237406865325,0.033809542861962,12.338364927324836
24.427743660570663,-13.929731874996355,0.06183708222355109,11.430547751384836
20.8809033988155,-12.001428848535406,0.18017855439208116,12.240434586972615
21.538733589915797,-15.447660682902423,0.21449140793006,11.490044123666063
21.791011738308566,-15.961749217385748,0.2212462443427206,12.529824251428366
21.57820418596785,-15.226671535668569,0.19621194265498632,11.761847931376101
22.40268209654071,-15.333187926703,0.1724522804005895,11.732790863205164
20.439334270360593,-10.5423428656688,0.13381986248848343,11.733303881808665
21.09577589493113,-10.751059448655816,0.14096923082567187,11.199982302176178
20.121681692390254,-12.526021022645532,0.1633169232070658,12.372489984761044
21.12704250796093,-12.85095446953144,0.1881642654038962,11.295568221680924
22.247626024494814,-14.177544394897357,0.1525060951185105,12.440846365166207
20.996218929837315,-12.718152016698314,0.14447815552748153,11.112981769529975
20.83340594037702,-12.867783887160305,0.1529585785961509,11.640740100240865
21.98962128040333,-13.114433203592908,0.16051769311148126,11.805465653656828
21.308586448460765,-12.908981502178417,0.1584722144735743,11.6454002548521
21.681502554394914,-13.445797711253933,0.1506687212925133,11.816860497651428
22.062006671445324,-12.992947553923132,0.17044353733252668,12.060583196768391
22.034238438269316,-14.009744900432027,0.18071024960711907,12.384249017717185
22.07990499888236,-14.33243624645689,0.19234376327884067,11.743362683646492
22.07990499888236,-14.33243624645689,0.19234376327884067,11.743362683646492
23.242327234544167,-13.111843766319858,0.0890385728926426,12.500317226460881
23.567724571515665,-11.824232650876128,0.08495219287935964,11.461063630710498
22.788070390990146,-12.33742692954815,0.08188543529468456,12.398515943568409
21.98401772746596,-13.658345786703036,0.16855524563540122,11.053146068372618
22.08587716276749,-13.647856415744442,0.16456531687321604,11.776286601166731
22.127568065496117,-11.549947255529311,0.11944982002424413,11.817350557732421
22.014615054011387,-12.569578189812725,0.13088792856718398,11.707955469560975
21.363918063320646,-14.274992053753147,0.15976557015090184,12.160826476382569
18.424722422363672,-11.189485668154209,0.22867127250146863,11.889846131553597
18.444831692434782,-10.370499639490824,0.20955151603318656,12.064161712611037
21.02502718467388,-13.661777858971288,0.19213844678048217,11.550848307209096
22.439873643767182,-12.20717948983937,0.09185788987318994,11.891657755351476
21.035529346677425,-13.72082099602286,0.16950069466773132,12.43530490290535
20.20620860945482,-12.800597365688537,0.2153551196841011,10.780851296664798
21.627597594872956,-14.34833323846795,0.17899871531550846,12.760769208468071
20.24924886514757,-11.673414468028056,0.18944944477811354,12.096667621068097
20.38420357647481,-11.683847583976588,0.16636342665706863,11.668080303432033
21.489316272350887,-14.309832520935789,0.18942564957670274,11.698316201937791
21.61235583128755,-13.232971477296823,0.17557854205300413,11.788576626853684
20.881893137169897,-13.839688381103926,0.17033485981411164,11.89067025673026
21.54434571267784,-12.91340382014257,0.15534218457880605,11.861818776215225
20.054078326563825,-11.48965888064438,0.20606067102189607,11.676289373047451
19.010334108942168,-10.637409196813685,0.18961226618978402,12.330994166535143
19.58070870299821,-11.628881124321827,0.18424158145198494,11.518033021303141
19.611085126426907,-11.847229438443591,0.18115741460786708,12.212033768118882
19.498191688395217,-11.709670159781368,0.20513020133228727,11.27242494350749
19.373185397690467,-12.19402170921722,0.19537457686264853,11.412310268256135
20.644892662458304,-12.44773476297165,0.1920522614986099,12.056619868908447
20.770614763629368,-12.096525235573225,0.14348850407464395,11.582609533704057
20.02324656686213,-11.926302817601503,0.18466622511740233,12.008733033768882
20.329226636759362,-13.656219216494309,0.2167257181310309,11.328920276374975
22.195274508783708,-11.522598339605855,0.12699114414830834,11.709593043674548
19.754560689819836,-13.865779435878693,0.21957484423390738,11.761314133715379
20.01861803637551,-12.564694531432426,0.2570138609310876,12.406071669826611
20.769973752615407,-14.006499884763437,0.19493953772822176,11.20978629952762
20.769973752615407,-14.006499884763437,0.19493953772822176,11.20978629952762
20.088385868608245,-13.625961619434449,0.2599621016807751,12.79982377120721
20.351275940234146,-14.399011059159438,0.22600214925655213,12.042144106118263
20.702361764340782,-13.177828913840308,0.22158726495300257,12.677422151922357
20.51816019492313,-12.290714374354593,0.21987585060235407,11.08061594385752
20.457710168127512,-13.659775671566216,0.21759468711655958,12.526361874935539
22.360259779873388,-13.931893984317206,0.16108306484634197,12.185054936501848
21.15119842994192,-12.776734838272104,0.15439546782222507,11.171256536886384
22.307302784630764,-12.092125353895232,0.10098561135661088,12.293208442074915
22.177733989742674,-12.832343198153698,0.1033440343919785,11.615849925287982
22.010398942048685,-12.946868662287324,0.1635347401809585,12.478080526769432
20.689038080197157,-12.171539511526104,0.1533354085305367,11.82815458204183
20.7335184205115,-13.580830592956783,0.21571675165767937,11.622613432727173
20.7335184205115,-13.580830592956783,0.21571675165767937,11.622613432727173
20.7335184205115,-13.580830592956783,0.21571675165767937,11.622613432727173
21.190800437861363,-14.30519024962603,0.2124578270254211,12.503170772016816
20.1466523124471,-12.967896360803902,0.19591474995927133,12.616616159270178
22.478752343675417,-14.297396280863211,0.18788955370833046,11.726356418724869
22.050453012863247,-14.517587678595893,0.12768516511286862,11.964361384960913
23.134778948516093,-12.136239880066201,0.11330346480433004,12.380362498327196
22.926120570056266,-13.3241775197283,0.07784517658455527,10.929254634118417
19.877426338007922,-13.603293512621654,0.2015810141415426,11.704672122575321
19.877426338007922,-13.603293512621654,0.2015810141415426,11.704672122575321
21.46611957552851,-14.16626445636186,0.21062084058444228,11.884581640473877
22.326927624053397,-14.00608543033997,0.1766883491877384,11.878149369712329
21.259757504331787,-13.421196651304571,0.1558449272356635,12.321697101269207
22.076554093074353,-13.40019459453684,0.1639096280327369,12.176657979707183
22.253114111499613,-14.627431857395102,0.1626212545247891,11.573312352791834
22.3113435842048,-14.659690180060359,0.1808580831422669,12.032390530655409
22.305570000663234,-14.790649330223689,0.17642128570479662,11.762155480842859
21.726442591430676,-13.921957883794903,0.16832022215693218,12.173130960730544
21.36709159872568,-13.174021752385302,0.15745079238087994,11.97498453691659
22.194290516904626,-13.874567326085296,0.14766658191077006,12.239350670886829
22.65909655649543,-13.677836294112604,0.152324475816033,12.480914633077516
20.72993835670535,-10.983935669764493,0.1295911333127444,11.51988675962099
20.789452945648275,-11.291028439646233,0.1763074023497007,12.330834091880114
19.916386387250565,-12.579973371730794,0.15585163008247344,12.147731089823852
20.55284406299518,-12.205414992171576,0.20708818345432567,11.325072650293322
21.68577660662275,-11.932040955978872,0.10275533020066976,12.03543759563125
21.927974809647154,-11.727457666440214,0.11208664139690387,11.552901724910106
20.841576580633898,-11.803520453650588,0.16242909220217458,11.39475025064715
21.689120683891964,-12.619895566905855,0.13304121427002732,12.185535837986452
21.609669592494342,-10.607538388253777,0.12453458404458152,12.895826402174903
21.556282829421857,-12.583577846558748,0.12163759591844436,12.942181408239799
20.86568361597423,-14.234147169399439,0.22081172939898985,12.69173765058212
19.79150247826042,-14.569004361286213,0.19267183732222143,11.900631749803747
20.49861028124534,-12.978635223995392,0.23502903684083665,11.796549164108153
20.753840413560276,-15.399840352199805,0.23247469306191665,12.342503538226683
20.219234191648916,-12.110644972565293,0.23459746951729468,11.700517407110656
20.291981845511565,-12.611538702190407,0.2297166614403236,11.979859011217524
21.804778655284984,-12.897088097028739,0.15565235124841642,11.826434459722385
23.06096652091876,-13.011757439143572,0.05510678634574849,11.814172623184705
22.05695699819257,-12.580741481792177,0.1661295540678535,11.701716282207824
22.817060635280853,-11.559593635925523,0.10552651316812266,11.795700973428914
20.815429810112782,-13.269485864488937,0.18705031749801113,11.87649336670021
20.879488924030454,-12.598722777372558,0.20928796916340245,11.654928497748624
20.897224011066406,-12.710190183498915,0.15874301791433285,12.668970919696255
20.55284328406644,-13.086424846790361,0.2052877395696516,11.71556035538947
21.12371599704375,-13.867240690173546,0.16838421455256308,11.94671744301229
21.12546015259351,-14.588087583994692,0.1936988295594817,11.533162471498704
21.97017731097423,-13.549858801719575,0.1464867056070227,12.584940842601092
21.326946462806212,-11.647014297025875,0.12621621667551983,11.65961618721951
22.311023010428144,-13.222788465631362,0.11698389667638023,11.498577373811843
23.91443840195708,-12.610005081870458,0.06739989714544647,11.949426193028781
23.941616420721232,-11.886110827434555,0.03349554010061376,11.781645221762524
19.68386556134466,-12.715368689441274,0.2473009152320793,12.523097472268928
21.760568907740403,-14.333268472695769,0.157205138404011,12.224727479762858
24.240681713615018,-13.584438550121941,0.06595798155168583,11.877657282976035
24.282217953480565,-14.193592974958953,0.022952600106309593,11.968439153316188
20.759891490771928,-12.527408766515453,0.14889088353412264,11.944722134012128
20.705764533037442,-12.949979802151251,0.12941282185010025,11.745348591304998
21.64322317475831,-12.57471850458983,0.18073546003185847,11.358847945513283
21.459718074702486,-12.658622460542203,0.1742911570866427,11.518311978312555
21.417739440641483,-13.539871670730134,0.1694458478248721,11.955432875221284
21.941522910862865,-14.340559527936934,0.2023752966092278,11.73085769149343
21.89610569401111,-15.195897803342483,0.19126546871302433,12.184277806853238
21.820619646865623,-15.310859030085206,0.21443770697648515,12.604806511800646
20.760799984405267,-14.337459919836732,0.19500697759982089,11.20742687786888
20.760799984405267,-14.337459919836732,0.19500697759982089,11.20742687786888
20.711789437243766,-12.935703239539883,0.15738805554447002,12.884476730454145
19.5795821450282,-11.234702262231085,0.16411375233197428,11.990767367359709
20.07081096956857,-11.926750040255595,0.22033703387027992,11.484531207531303
20.07081096956857,-11.926750040255595,0.22033703387027992,11.484531207531303
19.501418524228214,-13.142331821966371,0.21033858335670777,12.023458958615073
20.831611663259743,-12.315917667299956,0.25239800239873267,11.713942278132526
19.221427639502917,-13.590833558524773,0.19294915406167806,11.99027487458388
20.67581497176237,-14.265264943023883,0.22593803322577782,11.348770836057037
21.181102605384694,-13.182424722139663,0.22680895331636042,12.131517946531654
20.833977325113388,-11.796702193745347,0.1608206615367978,12.061892635015667
19.159326396988167,-13.401222517156596,0.2684189921973353,11.378995179258752
19.40108395895298,-13.041685134321963,0.2683461220065932,12.211680563954179
18.8896769918289,-11.884602442418206,0.2591205434193064,12.077899130908163
19.044329724410883,-13.24754230122305,0.2936506978294937,11.958926528315237
21.29603712797417,-11.661193894230337,0.15398496149264992,11.971608873132285
20.851863123149567,-11.756167116383779,0.14758012118914232,11.527623980196525
19.754832809830084,-12.097786018467389,0.19503608740768008,11.954761014236816
21.660463579051964,-13.069787798405988,0.17931404317399913,11.637666443315073
21.005995407058435,-12.204828222141378,0.11346163719849967,12.088720710231758
20.057247395724204,-13.329415969575882,0.26226219712013643,11.605826269878655
18.568527255995047,-11.7622095163091,0.2361185578413296,12.066295732429008
22.93015812252726,-16.01718243025921,0.12956352655387193,11.785255889529461
23.259974696698755,-13.507654931512073,0.18172393339277623,11.875731422702833
22.583342198731607,-13.36360833196947,0.14095052124094304,11.138467501609988
20.13442519214032,-12.740071490496076,0.17528247277375264,11.547904444671033
20.977475759751577,-11.729432389536266,0.1305804582746547,12.321141046894251
21.64892463931419,-12.777850900016194,0.176170931507431,11.303066991329702
21.64892463931419,-12.777850900016194,0.176170931507431,11.303066991329702
21.890207537284738,-14.128683071201158,0.16524906802708786,12.235837445264298
22.19492165887763,-13.745535176793075,0.1284072130986642,11.239129726670983
22.447679729647255,-12.25911085111818,0.11983620484745051,11.927738456974641
20.277352975987064,-12.87297848378679,0.215706406571987,11.71643661023015
19.938880122138254,-12.709073816057115,0.2228813042536764,12.404103460644123
19.024334583946832,-11.805195462299114,0.223300797559936,11.89584529255547
18.66398062254331,-11.189306499226298,0.26186500207057356,12.279178016266794
20.727922507041455,-13.507001750101477,0.19638093185872257,11.698255022009915
20.921187161667497,-12.892534615663427,0.1658178219887622,12.377425689544104
20.37952566554503,-11.765559192603412,0.1865729926064101,11.576729203720507
19.28389901341415,-12.89616082002414,0.27000086555953745,12.282671242079095
20.789680573222153,-13.110434592426428,0.13950251264068037,12.042954496515728
20.863934322142008,-10.28894201355443,0.1546003599700824,11.958847930578289
20.58781048977263,-10.813351774637365,0.17695673812176335,12.042539404158974
20.060513750014405,-10.910146611889973,0.18336247298969302,11.749982117087265
20.703239519866994,-11.197511930526378,0.18246231833720564,11.350474881482105
21.279953657284118,-13.864730115315664,0.18451749342252424,12.229994417258613
21.872830242729275,-14.007100082877189,0.17917333052968135,11.089583651770866
22.070937261149876,-14.629617994439148,0.13875270234261836,12.34652273749854
23.565822944293995,-14.664347007857915,0.0774272878446178,11.8636744269277
22.813028901020473,-14.666148698956102,0.05871809706881587,12.360809118902907
22.93074394222834,-9.840993151336109,0.09583194036657393,13.225608383052611
22.942981687489056,-12.134393542732463,0.0771632467582174,13.459195780891562
24.094688581485553,-13.19474255745112,0.04986969256489211,13.529652716680573
23.597554298452987,-12.829472301711593,0.05652993950374091,12.860658402064383
23.545568187307317,-12.502697862000621,0.04582525190376014,12.522471880692521
22.882345661425717,-12.414443510324622,0.022307523596013498,11.690577679961761
22.582589500134745,-12.246988706405284,0.036670308982301725,11.500309095801745
24.76087724589083,-13.769315226813864,0.08632052637948587,12.139069569543556
22.698169824029154,-13.577447186174403,0.10661896836711549,11.363759056543868
19.66957611386276,-12.660878881950774,0.21263706555149364,11.279284742427354
19.994663292788882,-12.120232282383244,0.24951483342234454,12.46079461396482
19.69967914864616,-12.625844503796314,0.25988770579992754,11.337271914092101
19.341248459039768,-11.215335253902243,0.15385292344012416,12.611388461840683
19.98678374962046,-11.927422757590882,0.18196388370459726,12.40331686353755
19.85991527401066,-11.523698817939131,0.17526173732492176,12.419344980155381
19.946759854968906,-11.288450175856553,0.18056849809562422,12.367134093284482
20.89447118656716,-11.957425016824613,0.15329930210689963,10.866477889963516
20.89447118656716,-11.957425016824613,0.15329930210689963,10.866477889963516
20.941243855701003,-11.298997688923057,0.12891276732101747,12.680983791535953
18.902167591566567,-12.765796180199091,0.25481435152499954,12.30479309178329
18.24057338357071,-11.853410438428412,0.22857874647512072,12.787658137050784
20.810304629780518,-12.332988197554407,0.2041288359346039,11.152879909820465
21.141829524592964,-13.640972378559999,0.19687608264409806,12.89178361638369
20.32733059051916,-13.05442521310572,0.21756847835160967,11.310072308577098
22.020512028170344,-13.874976053774395,0.16547518650622434,11.180466397362485
21.44097284416254,-12.22883660162258,0.13854058011296236,12.234143099471435
20.756163509004317,-12.632110481012948,0.1761714321344559,12.193364106618077
20.533055329289873,-13.661821386840181,0.22548678916924791,11.486609467768881
19.69686861214525,-14.398072600598569,0.2495529613048205,12.487837624975555
20.385944249934393,-14.965909227400521,0.29557718247637016,11.301761556798859
18.860029262559113,-13.523969301707211,0.24597913802274052,12.225628073866165
20.76106360599225,-11.706683466415097,0.17036809588482854,11.809899762669911
21.48896197944518,-12.277510631026692,0.09486541780445593,12.459589515994583
23.510255771022532,-12.12607166773789,0.06823531486025887,11.15784334986824
22.337800518566745,-13.749993587993751,0.13686000248406407,11.603641899066966
22.337800518566745,-13.749993587993751,0.13686000248406407,11.603641899066966
21.680400096215905,-13.36382654623011,0.12441795111837778,11.974825225325235
21.80232514683987,-12.225862355339581,0.14333396416827987,11.906558432690204
20.047175674638115,-12.204793437874965,0.1790887260670172,11.47372095678876
20.948211779706632,-12.679482325682454,0.1974482099233239,12.457262689049045
20.769657765907787,-12.950319244219854,0.17363804356157658,12.439638023445116
20.203780202074352,-13.097688561749754,0.21420720653591102,11.689679541546168
20.094205524690295,-13.165538631355885,0.1828919929753834,12.659051729713118
21.03739911726329,-14.006313909268323,0.20106039449223018,11.790490647294963
20.409164006192366,-14.009150041400861,0.2058292194918083,11.811310406923734
20.409164006192366,-14.009150041400861,0.2058292194918083,11.811310406923734
20.16989548936541,-14.230841545497949,0.20189584719410963,11.849190801406154
20.418459039467646,-14.495734799496365,0.21533256661761918,12.271961191064353
20.041955611576995,-12.885553555093425,0.20529956329943996,11.477116329714418
20.624024943762773,-13.337358688715247,0.22026140120226856,12.084552356944723
22.83077789773167,-12.631672694599805,0.1067771033773334,11.997661150047861
22.208164878339712,-12.90279642317482,0.10318884678677774,11.664250705554403
19.627551539240137,-13.224014422001897,0.21060705655425274,11.620026458394845
19.839731247133926,-12.470464527162505,0.22644993877397313,11.89039377327386
20.34760330149917,-12.773725946519292,0.20896460562012428,11.735185429252
20.11055543842629,-12.079724553520586,0.18238891644261607,11.601095325310096
21.759728883788334,-15.148186548226297,0.2150619690430318,11.556695750921556
18.990328267303582,-9.65052274696735,0.14444190931703896,12.028669658134556
17.70349245934366,-13.710490640929356,0.31497149740123154,12.11468999281184
17.6025014852762,-12.69188588584307,0.3170500326570767,12.825352563136516
18.723985369042598,-12.371178396772715,0.2801933385581424,11.79197620976866
19.466877946978112,-13.32260838115125,0.2240155617784807,11.963082440128339
20.081413176387862,-12.429681291840806,0.20483000841225868,11.63215843685533
21.81408905212145,-12.678759945637117,0.15517663114705604,12.022178191110092
21.003479325729966,-13.27174496523564,0.15694837501712314,11.420489145143076
21.196867749299376,-13.561056083530634,0.1903641360479725,10.910635042001978
21.127262315718497,-14.260797840313822,0.20074612172165646,12.532781202485445
21.408084964972794,-12.809860010325991,0.18390971641736878,11.39261895540397
22.141211050095528,-14.866613123858274,0.13477374002332068,12.211364448351738
22.518757887579106,-13.24476704177131,0.10220100299580831,12.31161021956203
22.783577372784716,-13.159127817510011,0.12947278850287908,11.973711871280193
21.978749915902558,-12.056082863812234,0.13648191710460109,11.868099845059742
21.2376107999946,-11.552972667193215,0.14194307905471132,11.897430556393882
20.745643164404076,-11.985067997675618,0.16252809363548348,11.730961580118695
25.1635606856171,-13.788582611240109,0.026102121166392482,12.214736967591445
21.94904541948609,-13.797706358544005,0.13579320987058835,11.40769937901836
22.323524290599433,-13.812493327180013,0.16194381604464766,12.243638981430129
22.40586000816269,-13.896396436648276,0.16417881740180085,11.701001089045489
22.710029187397904,-12.764210559048017,0.11899565695631836,11.575857675824137
22.04832002733296,-12.187820501104968,0.0990877133696697,12.335467847442082
24.468585288618225,-15.059733001446427,0.09905766667026239,11.862254639318952
24.00438027544387,-14.193197511193015,0.053547321203231975,12.110307619404777
23.244104540726404,-11.790392595889866,0.07459106778476271,11.372652965516986
23.244104540726404,-11.790392595889866,0.07459106778476271,11.372652965516986
23.957393119572334,-13.726478429092987,0.1164918592216275,11.671662925058408
23.527310379376207,-14.349067504960589,0.08080958013228434,12.24214959149375
23.9237993032849,-12.485575195282442,0.08165519336286421,11.112364033787646
23.372499448597992,-12.936051619961702,0.07347278428289229,11.370102204490154
23.372499448597992,-12.936051619961702,0.07347278428289229,11.370102204490154
23.242070876623785,-13.347135518741206,0.09687982317072383,12.08485532830395
22.843410808654966,-12.805679129984444,0.11952529210498812,11.394023883878736
22.00668742802987,-14.071910051364847,0.1452185263682937,12.536386821304164
19.505920370806653,-12.713208503892195,0.23596398029388474,12.237842709938853
22.61795900273547,-12.841972995768325,0.10540780321857092,12.324036914181216
20.518021925770558,-12.775882728817862,0.1601777530443039,12.199707849237901
21.706605775805723,-13.278067197884068,0.17217224196078068,12.463564782952893
20.60776339442339,-13.069915302867782,0.19737833101603827,12.702931711801735
22.046138831345676,-12.970143081872303,0.1427760719773921,11.597828641704586
22.046138831345676,-12.970143081872303,0.1427760719773921,11.597828641704586
22.490328931831385,-14.94831040196074,0.14933788234370202,11.935545823833486
22.735640191592193,-15.320297295614061,0.18646453537550703,11.641658923978778
22.594324825367075,-14.854746481345108,0.14103813516404703,12.12030927905148
18.927746874893323,-11.488607528183646,0.23699536290420758,11.52165269356078
18.72855609700391,-11.871910039050077,0.22933286465424144,12.728307487407696
20.136751378288828,-11.442232016920192,0.2112302905235608,12.100519363944935
19.927961809282547,-11.958758835397283,0.20593585845833162,12.107638170447462
19.36407811840704,-12.378783484929784,0.2548126923360612,11.424913217752376
19.089823083238237,-12.340106934436706,0.24621667991141638,11.739107251406685
17.558183717036638,-10.837129340599267,0.23157432482608822,12.280821201909832
18.842188959336642,-13.044242766540583,0.28472450612466865,11.462502933180694
20.213784173569273,-13.509093178676073,0.22218796389161272,11.769333448401218
21.152320591473963,-11.493843446905442,0.12986377924869116,11.514947197631946
21.016030772597155,-10.845133332628404,0.10817628840662045,11.996631312879504
23.803068901724412,-15.561082171059581,0.11188971101084297,12.046268725184651
17.854225449115894,-9.98214205194289,0.23069088586556719,11.50467414226664
17.296957825577007,-9.498107296781678,0.2030995131707658,11.689405025403259
22.07689042974938,-16.183897550064856,0.20561372155054225,11.949708093473744
22.23171398908819,-15.6888419578699,0.24277816935630878,11.812694103284738
20.685989191317155,-13.146149680097569,0.17389022009327015,11.761610295647449
20.68699480769678,-11.332467638086168,0.13683181445362977,12.152567427513878
21.74215841111607,-14.941601133698443,0.15753542958579897,11.845327800441884
22.822985355942084,-12.987821219579244,0.13254759145683437,11.86209750370443
22.822985355942084,-12.987821219579244,0.13254759145683437,11.86209750370443
22.16848290656896,-15.54347631545957,0.16383558197159437,11.75361467786825
22.293079050587405,-14.279851818086756,0.18909432032387918,12.224949751412137
22.32248034432841,-14.173197036389462,0.15705840109066968,11.422041307302896
21.871283025832145,-13.513987270687378,0.12689644458365368,12.04509150761405
21.50849336882377,-12.287351305655323,0.17351663568332026,11.515294440244162
22.692348795659008,-12.13698618882907,0.11671036964210545,11.505761927040972
24.25488609717921,-14.666801636998374,0.10388008929084834,10.850508762470728
23.886278533283054,-14.233863152841117,0.05132159461034114,12.572523280186212
22.115576280466087,-15.26059545180986,0.15966439698428805,12.024033040884614
23.06354256166603,-15.280916477338137,0.20787294576030318,11.757044088142576
22.47081693895145,-16.28683050482552,0.1525419652175011,12.259248353278016
24.177034703038586,-13.206480124024779,0.04389542102998577,11.866449900973892
23.696571592618138,-11.110832796015684,0.02736858127899526,11.763555168222911
24.825056339092587,-15.506690519373455,0.07108136628624093,11.431771629169251
24.80825102817467,-15.28262514490077,0.08393148404711337,11.172357103893209
22.20809701042885,-14.166130158061106,0.10649613911088125,12.518737785330135
22.893481252976006,-12.859854166767002,0.12083855012423629,12.521336531085588
22.065095045376793,-13.321454701182898,0.1092120785567649,12.352033573348164
22.941459520213527,-13.50246163745406,0.12921737999094904,11.800561656757768
22.387777672623027,-13.783253586146303,0.12298362961822779,11.707985105891948
22.008820887340764,-14.269518399092822,0.12826339684938223,12.505092335627813
22.62986553727714,-12.77040529071927,0.12407454557679069,12.40806955052214
20.788590275083706,-12.37024134573889,0.15150896695481839,12.26320307863611
20.832041977837527,-11.868332099147752,0.16870224575115422,11.840162595823571
21.916120133256204,-12.500020531260855,0.1285042892707972,11.680792988384358
22.52579519158245,-10.73432093615986,0.054362274708328405,11.585212095728751
22.383730233563437,-11.36084059050482,0.0419737002248341,11.33421036891176
22.657150922902844,-9.397279361300722,0.08083154751883341,12.900532765326064
22.706072336784136,-10.189179844937469,0.07429628281705464,12.823105720761262
20.042787306494972,-12.482907175311402,0.18080647974611844,12.125355726843711
20.042787306494972,-12.482907175311402,0.18080647974611844,12.125355726843711
20.14788897661889,-13.32475154118907,0.20948159618194218,12.249382503471267
20.691477091999783,-13.425269911595107,0.20774987301836473,11.893482837485843
20.691477091999783,-13.425269911595107,0.20774987301836473,11.893482837485843
22.728490513088914,-12.249325210505786,0.1051594922613795,11.576290413215025
22.538999506544666,-14.337951836723036,0.14704876296179312,11.93662539616945
21.462728308335393,-10.49756033672266,0.14746061933992524,12.154320316727226
21.236419761719088,-12.850993868253147,0.1422351074022753,12.570526574206678
20.646326651356286,-9.793152571607738,0.1505498476783788,11.687471700729821
20.57853198602209,-10.075239513523243,0.13513701128273153,10.843747182114324
19.890441934828942,-10.864610717743258,0.10694245972185255,12.02633035026931
20.585379936585294,-10.718345155402059,0.1445319640016566,11.795437317545813
21.209352145532943,-11.598293149753353,0.15429749137801213,11.49928079696011
24.48781070321972,-13.503707678771525,0.06892605981126307,11.375874928871646
23.293937855071103,-11.155580295940712,0.04704394098850026,12.792052089212628
23.086501523079534,-13.913896130020692,0.08190761847840876,11.146919007463012
23.293275006893175,-13.618339963285802,0.09558828949476222,11.358660541262534
19.21607321640252,-12.348278961237131,0.21472277334703227,12.266200377702017
20.53284324235409,-13.509915727485438,0.2393638453069734,11.240751486069804
20.579444232062976,-14.1732922718245,0.23627485994349004,12.851459778546035
19.169013830498447,-12.037887216390624,0.23840994025415724,12.056664726337338
19.635825811850662,-12.362646657452434,0.23400702355540934,11.751102326120737
22.512527131579795,-13.229775987611806,0.11420780698964386,11.719827856510914
21.42880161129735,-12.330760568123896,0.13514542856383396,12.38710256127882
21.306143907492977,-11.761655657218576,0.158754526761361,11.251414712837805
20.93686988915879,-13.179650358508342,0.15039245711316285,12.131528004949477
19.695533556548217,-14.079372136927853,0.22680166363023388,12.175002688087144
20.77852254821873,-13.874454487628398,0.1951342406595914,11.467150607511652
20.77852254821873,-13.874454487628398,0.1951342406595914,11.467150607511652
20.301288605085276,-12.186582939007298,0.207258572589385,12.692351166656747
19.868563551834825,-11.943731015621173,0.2003844632656236,12.453226288531155
20.17011485881875,-11.119455950663726,0.23633803426248376,11.53259273211949
19.415167147605043,-11.265141067288582,0.20562583083712802,11.41504735760593
19.415167147605043,-11.265141067288582,0.20562583083712802,11.41504735760593
19.174773324483745,-11.49716083444976,0.17570394251171212,11.210727300728728
19.244311642935642,-11.426049322610465,0.14575221576430047,12.250616782903698
22.135172570094777,-13.989325888993593,0.1431781004386829,11.067620266943363
22.8756190204232,-12.964942996514173,0.12689651805662638,12.739631043395088
22.83098815293327,-14.158797855723995,0.07248714819858329,12.125689164382042
22.83098815293327,-14.158797855723995,0.07248714819858329,12.125689164382042
23.307526414341353,-14.131355141109974,0.1033206719935988,10.614822939664046
23.8461101042373,-14.410852625662159,0.08176866124200123,12.409409952153782
20.739508283309167,-12.809037635065868,0.16932066743221844,11.39087861046121
20.739508283309167,-12.809037635065868,0.16932066743221844,11.39087861046121
19.365544899510795,-13.977412996356144,0.251218144596163,11.836488289901595
21.006496116234732,-14.002920804542132,0.18142855710622663,11.740598017947951
22.36599657128899,-12.595386510233384,0.0907755531111515,12.05100712499869
22.251476033804167,-12.424060276117695,0.1309061329077481,11.417274316826653
22.251476033804167,-12.424060276117695,0.1309061329077481,11.417274316826653
22.914525959959516,-13.224615875940625,0.09614441582274227,12.057889535754047
23.11462002705122,-14.144514211753126,0.15022563477872938,11.887546985535339
23.11462002705122,-14.144514211753126,0.15022563477872938,11.887546985535339
20.651549097359315,-10.500129266502094,0.15581012468391897,11.357454427352913
25.46569865358929,-13.79289314631387,0.04287208612398892,11.830397492480026
24.95862072946724,-13.672780588911188,0.018157318849903747,11.870723725213145
24.44796744860221,-10.162454196984356,-0.04697723423945999,12.149404720244183
21.009166697002776,-15.531546679294003,0.23902459532712106,11.966405318226647
21.787933985359278,-14.046611934490866,0.1740233338423856,11.873186696536331
21.724871682673662,-12.30192483728064,0.16016102391178913,11.674608327261172
20.95469077207768,-11.277254709060363,0.14168826025846212,11.422576969504052
21.178407087027843,-14.17098730084582,0.18197502676731594,12.12792823839897
21.33927499674639,-13.471160841079737,0.20110118505941654,12.292220699115768
19.598086896431727,-11.936425581339385,0.21289811734868505,11.782495345515935
19.598086896431727,-11.936425581339385,0.21289811734868505,11.782495345515935
19.232050823290677,-11.702680136263282,0.21508510972934997,11.835886525021538
19.232050823290677,-11.702680136263282,0.21508510972934997,11.835886525021538
19.232050823290677,-11.702680136263282,0.21508510972934997,11.835886525021538
20.183649090988695,-13.122324454921738,0.23544798839395684,11.860462203452009
20.405518848349903,-13.603157746856493,0.2327354739786936,12.04697625529378
20.22203523614987,-15.74800831187069,0.2899242351783508,12.371789045169512
21.74675703945222,-13.724907313202392,0.17687426481971208,12.021187735715749
22.393717310895745,-12.05150610341777,0.11311978683779675,11.976994467572258
22.676407459306663,-12.28136621545346,0.12320497430453575,12.359799317057888
22.06715452210889,-11.73520730356296,0.12336872543473122,12.642042380796427
22.011464615911894,-12.120386848206792,0.11553561565364359,12.003494857958133
20.778366336300643,-13.166017126772013,0.19292205729685571,11.601151354320299
20.778366336300643,-13.166017126772013,0.19292205729685571,11.601151354320299
20.778366336300643,-13.166017126772013,0.19292205729685571,11.601151354320299
20.5102571391553,-13.404924613329017,0.22257553781934689,12.05726734654638
19.801486696463176,-11.839670669944994,0.173914010588166,12.23818642739551
19.425654527892835,-9.580826771394939,0.22075211506498582,11.329526624576559
19.26028681653237,-10.1637043489234,0.1990235971990273,11.250091431746725
19.26028681653237,-10.1637043489234,0.1990235971990273,11.250091431746725
22.198290438579694,-11.739415183995375,0.10747523755017399,11.753793100882437
21.934009374305475,-11.544181770731479,0.09138742770925089,11.747705462703621
20.783786302044142,-11.313804982339914,0.13075997732214337,11.929321379058637
20.732503866397092,-9.90692995233569,0.14585389345583202,12.357787433631492
21.19551209249808,-11.540749693322946,0.13246236253318758,12.172577529469802
21.486019046107494,-12.696577360486788,0.16176961051354602,11.612168484921723
18.84643601589267,-10.859488627208929,0.22616996891259172,11.863465770796644
19.508091757439463,-11.037678724928757,0.24018814135285768,12.143860234522515
21.749918869542878,-12.74615777568413,0.13396959160302993,11.976010741588626
21.211120496525073,-13.228609369407163,0.16871323027155452,11.68720014617674
20.76919589039581,-11.558480088383277,0.15053030449696342,11.51412948710601
19.876108166925633,-13.122856726808779,0.2304762801454909,11.44291656404628
21.348871978198552,-12.147929883649592,0.1478629395712931,11.321236247683068
21.348871978198552,-12.147929883649592,0.1478629395712931,11.321236247683068
21.348871978198552,-12.147929883649592,0.1478629395712931,11.321236247683068
20.22831641971265,-13.121981809825934,0.20227500829361295,12.142832939221597
20.22831641971265,-13.121981809825934,0.20227500829361295,12.142832939221597
19.07732312347191,-11.991453294151105,0.20950017617822464,11.619619889440443
18.970862597378265,-12.036038650214014,0.21549798483676835,11.967191210596006
24.116148814663,-14.528869855138138,0.07095415597621318,12.033184617490376
22.73565576404917,-13.59891958087418,0.10452481374045552,12.099093838230244
22.42747319515592,-13.873101998535507,0.11589607884454048,11.576038560523463
21.700839143073093,-10.90244938722521,0.11214263894745016,11.961043853067446
21.628580877504167,-11.94470101879881,0.13122250996476073,11.563934009352256
20.440117125878754,-11.575763628760999,0.15378059345697034,11.752055100838184
19.511504537039457,-11.62170007393968,0.2135066150695477,12.05629384829172
18.937314940940418,-10.798871553018241,0.1924505319096376,11.721905131244327
19.600510052272597,-9.955156308485236,0.1786047621940821,12.61513244789905
20.26958590822921,-14.281132614987294,0.27203235015273164,12.442343567299124
19.865653259263098,-10.533201150417375,0.18859022206978665,12.365097882154432
19.936378657163207,-11.755827412179194,0.17241778798680787,11.382865023703994
20.001801137921444,-11.924999477102723,0.17994345237284645,11.545083790678117
20.001801137921444,-11.924999477102723,0.17994345237284645,11.545083790678117
23.971604703213558,-13.585943776930684,0.09158406963186418,11.758964910566915
23.23907014721451,-13.175850993930606,0.04843857789733282,11.742849754064741
23.557929659249552,-12.671630639898455,0.07428767353079288,12.067007965823816
22.333380050673924,-11.30530413858359,0.06885168465630956,12.434900511759173
22.44050870321063,-12.199665767221056,0.13019941474573166,12.364116310374033
23.778928007281827,-14.884693658713667,0.09091522056008054,11.882666349534125
22.90163223822803,-15.32825954334581,0.17423264511130274,12.237299121060394
22.27432616679532,-16.484169828839356,0.19869460429383917,11.292106060844686
21.97792648843534,-16.101508181082032,0.19121211250973447,11.401547462379785
21.21813570459251,-11.52538468042234,0.1502205796761688,12.146979169412784
21.411102486114924,-13.026121371418723,0.15177013921075577,11.2718623813875
21.869530893496194,-13.596804460542375,0.19150326519398375,11.819825572316763
20.828610596206364,-12.81723170146184,0.2195072335076849,11.720535398524124
21.594557881417405,-12.927916849653398,0.20402210075887936,12.478325947075225
20.1840852562853,-14.596346261921191,0.18325180810203817,11.700412800009547
19.992490809015184,-12.849318338104599,0.18030574169336916,11.787033208906095
18.723592506670794,-11.622812625777211,0.25059730153128823,12.08567225180922
21.470488941908936,-11.291050028926353,0.11030675762397786,12.409610921096307
21.66444406886959,-14.195211212838757,0.16211737523716604,11.144863549187445
21.84141213808729,-13.243782625954433,0.14274199014134126,11.435299180430441
21.52571056867188,-12.430475404906476,0.15224460718364038,12.21378954355303
21.711596850643467,-12.427277102560625,0.11580558554911952,12.00152578382652
23.48888364204385,-13.029952083026805,0.11336769963251292,11.675056562754072
20.713944077313997,-11.788405505253946,0.20106905493605268,11.691284535493219
19.185064758465682,-11.200857706389737,0.1764067186883904,12.488948220612897
20.973670079583208,-14.81933693763448,0.21962615879861525,12.61834484214082
20.45731888332624,-12.678254567114875,0.1766351060174573,11.338474853762857
20.10490815247966,-12.525857375667114,0.21220967950142489,12.354925177852214
22.334706254506717,-12.993047006619445,0.1459291382447202,11.982867073366682
23.09811027503619,-11.639961248084791,0.06648158275839455,12.01779654187496
22.39249217319538,-11.015147416551581,0.08093520149749307,11.573546251055642
22.331990633644427,-11.414618447751746,0.09865816211228919,12.372932825890215
22.412214750139263,-11.962519282104113,0.086202015168891,11.379073568138049
21.334375454038035,-12.63745653295789,0.17002025263692452,12.106235346747194
21.90281310785038,-13.118719691525227,0.16176074295007245,12.64934379767687
23.08629358603143,-13.43009911161202,0.15419904055480724,11.505730798268662
22.635874172060117,-14.499573940430592,0.10045840170858124,12.02789096899659
22.686881438949378,-15.251245816314352,0.10333886702918091,12.28558803726181
22.851083349645634,-14.735327856157483,0.12290475776718846,12.417899411688996
23.085741196059438,-15.109959188003295,0.14908857943815215,12.42444740121867
22.87240147430187,-13.00706139695185,0.11048038142031055,11.227931646820627
22.872442818807286,-13.28107462834002,0.10575657977365295,11.511024357034827
21.470320352569207,-12.689522052323774,0.15891560168880745,12.402450392996471
21.470320352569207,-12.689522052323774,0.15891560168880745,12.402450392996471
21.597546881231764,-12.70216570287898,0.14578208101613982,11.967304393256732
22.11156247792897,-13.981568092178449,0.17466395251806388,11.655368403784905
21.595377015823964,-14.438521565224196,0.21817127823850238,12.101675038079069
23.060311241623435,-13.955195790539065,0.1183966376923315,11.77886778480112
22.705677236226773,-13.705106951517834,0.09795746232203675,12.125451310556503
23.10496373462177,-13.435022161312128,0.1120316573087321,11.89167576763128
23.2259519607174,-14.317186823945976,0.08284423665183749,11.844708484886883
21.38656026488884,-13.079816234053258,0.16078120887879127,11.79858434957616
21.234345994784583,-12.716954329349564,0.17693154856682258,12.01282738103217
20.898547272061577,-12.122864380718726,0.1662875765400132,11.48598692712817
20.925892122163162,-12.249935610771018,0.16145256442787,11.677068721372683
20.036467005633604,-12.822137152168064,0.1915926959790775,11.813198293236882
22.16259843802275,-13.467526637231678,0.14227967124582613,11.913560642154424
23.325100786524633,-11.940899357928364,0.04789589165430333,11.677159953605802
23.620189596817248,-10.929807635830224,0.04531899394028812,12.154946186965015
21.109818625257233,-11.790887815169125,0.15550888282737207,11.84330104404252
23.452687833124305,-15.163746268755048,0.14501730651246558,12.004734665591766
22.99869370460384,-15.43434550395771,0.13792398968060626,11.747573560660653
20.89717061629714,-14.514549099111994,0.23656033401825186,12.50637485445273
20.67367429736652,-14.646192426971053,0.22556028161712266,11.634973234590475
18.684012654803595,-12.947023591768245,0.3027235078738176,11.713679238152652
18.607412445825982,-12.51786933570142,0.2347585388902408,11.938874175947111
18.914339158226728,-11.880663257837389,0.23846461734084373,11.6154248708575
23.042981996992573,-14.249680691649383,0.13073827430708876,12.46439972536324
23.146362439958466,-14.924995489730392,0.1625545202286419,11.521731581040239
21.86053846550898,-14.587591008126314,0.23627599357263024,12.4891501267704
23.12503834612672,-15.6968255203376,0.16062304022460244,11.913572863904319
22.3147178322766,-12.67679315510387,0.11029892352298307,11.806162902095199
22.3147178322766,-12.67679315510387,0.11029892352298307,11.806162902095199
22.119672919938285,-12.253499324089196,0.10836448265260168,11.581570006176003
19.177821484061184,-13.462452242273045,0.268500218730966,11.614541961393504
19.648791661987545,-11.401156003902349,0.20689621817457834,12.052544831805058
20.438328578629893,-12.153670130154376,0.15292024465919246,11.866312970511588
20.54861110157624,-11.248977908835771,0.12468638622735148,12.606132968913087
23.35309017806555,-16.655527338293606,0.14586790125882523,12.571192369318144
23.35309017806555,-16.655527338293606,0.14586790125882523,12.571192369318144
21.204681508043954,-10.441687091268838,0.1353246615880902,12.376795163224916
21.751224262406904,-11.830928388160297,0.12750763705447982,11.916913086096171
21.546891749424322,-11.739218778253559,0.1020662822803595,11.751640479528902
19.924099961685688,-12.80369657338667,0.1849568287305179,12.247865041205293
20.618550069695466,-12.177801022183434,0.18561557132295886,11.671833360056743
20.890789651641537,-11.482535092629202,0.1772715736989157,12.046152593750962
20.499314519795085,-12.224640307330368,0.17211451298180536,11.702315072385328
21.041753447008812,-12.259287120175696,0.19290470780290092,12.275496450770124
22.300171991879846,-15.853929436420572,0.16257192388252387,12.382093619410922
22.290700339244363,-14.91740240310872,0.17865788385356118,12.44872558467158
22.95573236628864,-13.986018599665666,0.18339954393771787,11.718724908364454
22.19644638975001,-13.749973975113704,0.0857981781804669,11.781446683220029
23.30178789402219,-12.07299044570492,0.10533880246292003,12.187500982566469
22.12844900806892,-14.835756765696843,0.11945721153596267,11.757876024401346
23.15415521799897,-13.009171294937518,0.10719408354552136,12.598950375227068
18.891976994108298,-12.598931038770967,0.24826511036911839,11.654943597781452
20.04304254807663,-11.865787000530888,0.2205172302141115,11.859325870408586
22.00821418639986,-13.320884262839026,0.1429690657734063,11.51483019631548
22.038338503600897,-12.894858814175578,0.10381158546396521,12.586059183174449
22.108404069794688,-12.124182643948183,0.13588153416237575,11.810875149248696
19.092591152790998,-11.66497062965313,0.25470459162286857,11.94954813822179
18.534774854419567,-12.372948109852297,0.2465387778701589,11.671557855510073
19.214565138462618,-13.227192420679483,0.24272829234817422,11.480985752951616
19.891836044773836,-13.172568716520964,0.20608008167577813,12.179351917122974
21.591501169148017,-13.148889419092392,0.13224592115662592,12.173357604410525
21.667153355643094,-11.596976397575348,0.1477527258066699,11.985318944077973
20.79492298733826,-11.41433844923414,0.08225954927562984,11.587634312811376
22.195534350373492,-12.45880800207654,0.1524428087848428,11.95800673833567
22.38158018182446,-11.939438153513958,0.16911754110234334,12.140294483632148
22.14025250402272,-13.250241499216628,0.14015344478194555,11.564346920632754
20.362188432077108,-11.420332115747799,0.18803867303764665,12.021283361045574
20.359459605185076,-11.282039639112767,0.19476570694080467,12.073197060611188
22.593569172515444,-14.454201688625886,0.13591922518127644,11.833843459414716
22.726273722825773,-14.206939508002135,0.14783620197815994,11.656347011746693
22.704552082493613,-15.034251706377368,0.14506413573344829,11.956432756570154
22.785355486644633,-12.467378767693868,0.07647669647740826,11.909829991708596
22.31694456103626,-13.461542733261505,0.12165729547212341,11.744244480745941
23.683426451727676,-14.472318938165058,0.08559412123438499,11.421555425481042
21.59749667109327,-15.34348021305907,0.1854256203943902,12.36342121635756
21.268412360496583,-14.29284141194713,0.18446933899942092,12.44926065199477
21.836546547316434,-13.969390348771947,0.1645691451007323,11.18089566699302
23.078421266953875,-13.79434700773363,0.11947781519362433,12.507881672056634
23.316772395824,-13.187718174034462,0.10726084790481735,12.230165189061378
23.316772395824,-13.187718174034462,0.10726084790481735,12.230165189061378
21.38549026783744,-12.268701005154373,0.16512221760942378,12.280734586823153
21.163345127368522,-12.692263869582314,0.14830289298187932,12.122487296543582
21.937922190252067,-12.604693255654066,0.11814832632127058,11.511814998399934
20.224080329726736,-12.755648502540756,0.20603678642338474,11.939417117832738
18.82859883593294,-13.25944156254677,0.27172097691909813,11.734001572028262
21.803035337170268,-12.490631045062939,0.13091889194941925,11.975635890354159
21.966131502087293,-12.970143551610814,0.12735054081774252,11.79702865356967
21.966131502087293,-12.970143551610814,0.12735054081774252,11.79702865356967
23.00832122041907,-13.147424994239449,0.11976087195918063,11.600577314279201
23.00832122041907,-13.147424994239449,0.11976087195918063,11.600577314279201
21.82554731470249,-11.528166973861763,0.1262375418981326,11.631535906122348
21.706574450129207,-13.08641157852065,0.16387750704968557,12.10990764680874
22.990036952375437,-13.339536372289032,0.09538819478560272,11.98552600065675
20.583003653323445,-13.387016263880607,0.19861843866292564,11.938886214118558
18.588320565033428,-10.406886037161476,0.2029037076854852,12.140706936503285
18.421401805687655,-10.010281725492405,0.2120702582987733,11.428317284233488
19.104258922988944,-13.033124827200439,0.29129030360360375,12.034967152690502
18.507050182362928,-14.308730935498206,0.28587195537463506,11.552468847781588
23.890548407341136,-15.698135156239585,0.11030248811448846,11.754851639397716
23.88325726687305,-13.06720243559212,0.03822008365790489,11.48581403809158
24.308524879268074,-12.8067613444726,0.025508411738250872,12.062948992519885
21.440053731631806,-13.625916119674507,0.17833685745139555,11.950449758234305
22.281076644293563,-14.833653186487249,0.1667814960009914,11.827928623095957
22.605154078821258,-13.546445190918362,0.10257823330940194,11.722307703871564
21.24816405033045,-10.207264849067036,0.07820837221817459,12.277417767961094
22.2730691281088,-11.15417449553249,0.09242898820779141,11.348570683566187
22.46895267835761,-10.795338195029661,0.09566351653468441,12.340286160273081
22.626603244267233,-13.430192954381164,0.09942518502206862,11.203647916164538
23.587439569353414,-13.123324284836892,0.11894937262941424,12.410698889559363
19.877069062943654,-12.200066589515748,0.20520616963897073,11.50394164284378
20.417393635693383,-12.323399071464701,0.2090497666166232,12.070895598652962
21.265371692657546,-13.39605059761305,0.16087508298495024,11.692256000979535
21.941361578020317,-10.93518970773238,0.08522694772338235,11.914829983159175
21.75981870918717,-11.566469277162271,0.08881021067405634,12.318442087063024
22.474054887783936,-11.448040716464709,0.1246734197078766,11.798619574260412
20.973290631412176,-11.25137879356924,0.17706792891001624,11.433096908023328
20.913873211213488,-11.804466197869612,0.17096017919189596,11.54263363724283
21.02006140762734,-15.082379556353636,0.18480543934740187,12.085901216555875
21.670482448425435,-13.49266031526204,0.19821906249524232,11.723763400060502
21.670482448425435,-13.49266031526204,0.19821906249524232,11.723763400060502
22.089649683513866,-11.26801893090384,0.08763916597355143,11.807265805872547
22.34862745333113,-11.682796446264097,0.08170585712980984,11.901839743650733
21.81743827769525,-14.76432354434983,0.1858048600035754,11.885084362408959
22.306504566861143,-12.103727267004842,0.0940616654943594,11.80482252071377
21.119048232553617,-12.481071313698518,0.16248740787673635,11.710285427652726
21.409379424570087,-12.634492652305525,0.16626078683631285,11.932928028002117
22.72681248732873,-11.836041001502,0.09182561497248513,11.756562442448192
22.53614440024142,-12.432343443956796,0.10601814295750213,11.768745929090281
21.726632678278445,-12.491032145566141,0.12721679170638436,11.878237840137215
23.03108885771052,-12.66936113007318,0.08100239678513815,12.262992093721135
22.970204199524403,-11.43032899041705,0.08635945740245245,11.51102447217647
24.490275110122692,-13.858412933201343,0.10914463612595048,11.866826895798377
20.593159944302588,-11.73377410323256,0.22037458320038228,11.691641554719906
20.52743711856,-11.934608266038865,0.18664262236752374,12.284048554740254
21.442766263924593,-14.411214660639086,0.1936364924569014,11.513542068321557
22.30779375682703,-11.72909227389758,0.10297233431377838,11.595747813177056
22.28502849751792,-14.522664002692427,0.12828906885843483,11.936572844418558
22.124833683634133,-12.585873532440274,0.1429499667913729,11.673041915018949
21.602265738881353,-14.158336823121436,0.1708968022745958,12.66242012413495
23.238535000537816,-12.336966505821835,0.0909170548519739,12.354640613672085
22.706494805462032,-12.665776926730453,0.0755001223524135,11.845863684608315
22.019969604830504,-13.790777682437465,0.15604053576481117,12.297756194127881
20.748690333942434,-11.562030742497601,0.16204801581059325,12.043151368014753
19.7519585839894,-12.69975678944737,0.23504584611860083,11.941311229893536
20.048497181976884,-12.209052818664826,0.17196467859324915,11.866758952205904
21.18849527237254,-12.839751187088744,0.1569042927007716,12.142209825622265
21.838445722887947,-12.722958471264015,0.1290206873259727,11.455917664571171
22.118009706502008,-12.778348683808039,0.12837221718359315,12.15431345695308
20.433179614554803,-13.217868762786555,0.21695866783367043,12.172967187880904
20.73106387714802,-13.447188262800545,0.19276327116464784,12.116515877265643
21.259466314535583,-13.660552994273166,0.19015271124361882,11.916127093190644
21.376962762037863,-12.081773365872184,0.13420814927391575,11.922403900032693
22.671484653796494,-13.03063855672195,0.13465205223473684,11.875735130006289
21.413795650873162,-11.91786764192937,0.14989131596065794,11.799476466006615
22.965895390130346,-13.643179163256102,0.13290388596548652,11.221508059180996
21.7305983229773,-14.151405202356464,0.16140088287629503,12.544047450962054
22.891326816399648,-13.487100575185913,0.17571961147906123,11.045742586324085
22.190024458701945,-13.693015196741214,0.14474351226694973,10.904960823351443
21.15456048665596,-13.532030377810672,0.16778631625803275,11.645930573012873
21.15456048665596,-13.532030377810672,0.16778631625803275,11.645930573012873
21.15456048665596,-13.532030377810672,0.16778631625803275,11.645930573012873
22.50009906109209,-12.841861364637731,0.13361203996371512,11.948299021876148
22.385389276185595,-13.410771101542501,0.13022922868722034,11.488664458601306
22.281927817271672,-13.78664272933441,0.11256790390615919,11.00464972874485
22.281927817271672,-13.78664272933441,0.11256790390615919,11.00464972874485
23.67011485499036,-11.723009827628514,-0.011341310131698343,12.5982848369813
22.863453503892977,-13.390126606823264,0.07846287166449496,12.009624460238463
21.031997145616923,-11.972717914925516,0.12817070832179941,11.855135162595744
23.28276423746683,-14.154806247416433,0.08867110462788659,11.935287987091396
20.17272451336322,-12.723233682820952,0.17300375836952472,11.503387361262662
20.17272451336322,-12.723233682820952,0.17300375836952472,11.503387361262662
22.006718449986003,-11.761895193487318,0.15315929398286027,12.494202659246003
20.564076650372915,-11.2134363890998,0.2146302918242888,12.11966683976821
21.94660780846679,-13.335217916836044,0.19859950640264218,12.567810414587125
21.457479574684115,-14.86023315308152,0.20113930941864208,11.627983541215478
22.503247545365483,-15.92507704085276,0.20189777582378857,11.98793651595035
21.938607207883116,-13.985388948982518,0.14428706221558324,12.097674333809142
22.06911920387106,-12.148287293304607,0.13334404758325707,12.318032052652375
21.75820615929694,-12.923924717649557,0.10457440067149093,11.549345491279706
21.885269470373142,-13.168937939885758,0.12404727954321192,11.138784190432645
21.971938281384656,-11.864894851031991,0.132843891020585,12.201454608911266
22.20739971917651,-13.635112479556527,0.13978467859713511,11.208424538683232
22.20739971917651,-13.635112479556527,0.13978467859713511,11.208424538683232
22.20237183365512,-14.809305612255438,0.14202124974587294,11.913469876968776
23.066608898978338,-13.554340282780782,0.12170789471911336,12.21993082508588
