Intercept__0,predicted__0,setsize__0,p_choose_best_sd
81.80100476816683,-11.225103239785568,-0.113550954033758,13.073193853911985
83.20595257063913,-10.264707520902846,-0.10263913987402137,12.884405127621747
82.28026306592217,-9.69661432823952,-0.07823427380006395,12.878564748304381
82.60894884056131,-9.884319378274212,-0.12103615402087538,13.123867698181892
81.2642209391527,-10.233071037949209,-0.04404319086282699,13.146521119182312
81.1951049653169,-10.326675709700249,-0.06415579578880468,13.704507895530865
81.16006050831757,-9.460140620547568,-0.00036312941662523107,13.644922917125939
81.78225324399098,-9.453315458695986,-0.09425072362653102,13.679235218571332
82.88786958203805,-8.512886530326481,-0.09470172574369509,12.285041988287288
82.57549062307987,-12.470841838919362,-0.09867956765799109,13.850199588470756
82.79798372256481,-12.3642985355637,-0.06615637299298043,13.363325817008615
85.65776866200196,-9.624066674524466,-0.26126926366825654,13.630060813088415
85.49264177431711,-8.851805554957863,-0.22228531487782335,12.741430245891264
83.49536483796562,-7.57636675324981,-0.14285675877684703,14.057024665213968
83.28907060962604,-9.771667949737564,-0.14645885398253092,14.051014764271601
83.52215686859215,-8.834358886064477,-0.1320155197127078,13.5878725109007
87.55867213382977,-11.959076020558788,-0.2440572519427599,13.609147595914548
87.96455315479035,-12.524847787507037,-0.23223633338970648,12.99467168822373
87.00102668830809,-12.45494262536135,-0.23736103082668386,12.361177431997223
85.14921700599932,-11.859572625579766,-0.1672945761444043,13.757255671637191
80.77573808517148,-10.601887298174601,0.04420337940650556,13.552844881209843
80.87467264885878,-12.071221843050811,0.011505265722885637,12.353845075080365
83.60193557999753,-9.00489860814114,-0.19182181536957488,13.52412753425726
84.66826435024883,-9.037572921315618,-0.137448508707615,12.39271165288049
82.2089123496599,-10.107591036845772,-0.011689876836789695,13.593247931581693
81.887619492571,-10.277992098287374,-0.023391171701342455,13.51797808522683
79.5859213492327,-10.029037733295231,0.04016062583567769,13.30106048965965
84.88226386436362,-10.289032278957107,-0.225541361533258,13.317119866059814
85.78191683955109,-8.94172277834004,-0.2042064871835273,12.886329373085601
85.645242693043,-8.624717043950055,-0.20288695192885817,12.821567752693177
85.13780853287933,-10.869768433166366,-0.20481026501925897,13.22374294063367
87.67895968654695,-10.281867279276385,-0.22460856536431237,13.298877138756046
86.35196079808006,-11.587894863146051,-0.2459871634256564,13.402478908068423
86.50389385454666,-11.649028470321651,-0.2467200508032054,13.398128740472169
86.20871680682605,-12.012964967464912,-0.2607424509148895,13.30118786924423
86.38433253854642,-11.673645880546553,-0.25409086861294955,13.40833018473815
85.81656292666051,-10.299363915403086,-0.18457897518371882,13.18463133820148
84.92326401667708,-10.490899051726144,-0.20398546498406686,12.986016035996723
83.17177639802046,-8.943817747419267,-0.16946745875174496,13.35084532297322
83.3886011774611,-8.600176408475718,-0.10992525116541102,12.855277043773025
84.77369769248318,-10.751815782293782,-0.16889510838852012,13.456904250551968
84.77369769248318,-10.751815782293782,-0.16889510838852012,13.456904250551968
85.8925842443543,-10.509434724609417,-0.17105114249716347,13.17036585336759
85.8925842443543,-10.509434724609417,-0.17105114249716347,13.17036585336759
85.55042919697117,-11.265079636556012,-0.19887309941409714,13.309929594566995
84.14867810881613,-9.667258392983856,-0.17886691157459833,12.722203276419899
84.14867810881613,-9.667258392983856,-0.17886691157459833,12.722203276419899
84.13965178483275,-9.411960088159066,-0.17167534512821467,12.809708042973263
84.13965178483275,-9.411960088159066,-0.17167534512821467,12.809708042973263
84.13965178483275,-9.411960088159066,-0.17167534512821467,12.809708042973263
83.26937962665892,-9.804779567620303,-0.12565067308602074,13.490166689017828
81.69419149170963,-10.674092604608536,-0.03700239020839016,12.358461891584568
81.44585718901777,-11.101282484494075,-0.04561122725451773,12.49030095619849
81.49557705570483,-10.597926502307361,-0.03861747409189202,12.680337908262205
83.3533897643406,-9.80155955203251,-0.12019969647082718,12.671966547369491
82.09830935615014,-10.316553617035549,-0.07416070941389369,13.143248470472717
80.11905280047449,-8.44998429171387,-0.029606289556448166,12.964040244079518
79.27884879606867,-7.3711017074573615,-0.058008151331132296,13.031219152544741
79.95443274324721,-7.5147326094703315,-0.04388655114088626,13.3847875891243
79.74874610895125,-7.176392314201953,-0.044156407010338086,13.213833994823059
80.501497412075,-7.246437764566019,-0.051816231430086575,12.677141562032075
80.501497412075,-7.246437764566019,-0.051816231430086575,12.677141562032075
83.67176232127423,-11.676128948611192,-0.09425782363010951,12.986083844518431
85.52179651864039,-10.903600494648805,-0.18163427705627203,13.469932917366082
86.02279566642382,-10.068038021622165,-0.16758082012815542,13.474242239274995
85.0030253213281,-11.440400334925283,-0.1904085054049281,13.782582274391215
86.13929201405814,-11.65126532424,-0.1571605890223255,13.87361443748342
84.24101993913247,-12.969504974679687,-0.12189070498513141,13.516000631120534
84.0138584117658,-8.80469091955811,-0.16031895034388943,12.988858395361127
84.0138584117658,-8.80469091955811,-0.16031895034388943,12.988858395361127
84.27962852189367,-9.080629505233395,-0.1740392953358038,13.148544386298605
85.6480535209925,-12.167610200423251,-0.1675162479054356,13.694516432931772
83.54438118948315,-8.200087340628334,-0.17686123293794567,13.468520627833442
83.14472889774865,-11.793940519920618,-0.07138815571054119,13.822267599551116
83.12327973387566,-11.77478694122441,-0.06533290922903731,13.878350422997105
82.77510568447131,-11.063307555615458,-0.054811156146463355,13.924118202886916
82.18032686706879,-12.231245159396716,-0.06616409125621034,13.588692220953059
82.45706573412224,-11.968385909680663,-0.07491190247988959,12.772268257627028
82.5056000525812,-11.307463044200306,-0.07381033868859113,12.700779377710642
81.80399218593413,-10.562750958091318,-0.016604579424762806,13.310747186015872
82.7326606349577,-11.038867810516061,-0.10583643979672261,12.976837077804403
82.62415285800664,-11.162964036600732,-0.01515293299342492,13.481888295747554
83.76065171446157,-10.255926638614842,-0.10159785132008844,12.526422442781938
84.04276215414006,-10.343354939357528,-0.10036147171692789,12.584967696063364
83.27633478834436,-10.29903706682527,-0.15940763804788777,13.264057179483332
84.72466236538959,-10.2523517346377,-0.12284666945846082,13.154209008047168
84.10363305940847,-11.212070599883107,-0.12317815114632141,13.102145474056794
84.88102772826156,-10.31481043358677,-0.12537693395265057,13.312917593587052
83.94224546096332,-11.775678601449691,-0.16623329180077173,13.149659475864704
84.49827187906239,-11.476588888934334,-0.13013067688354218,13.011390439424513
82.64651615078255,-8.488233600699273,-0.13255383190461875,12.637856502718307
82.70384528766967,-9.46021607793424,-0.09581163575374392,13.26366815796854
82.70143422921815,-8.850661708212375,-0.1336943114014812,12.838896941182842
82.94108161296728,-9.670686721829366,-0.11627975770267898,13.357449817957189
82.96747629767712,-10.110463860318891,-0.1548926484192419,13.884065055514883
81.79741877123246,-9.217754853169128,-0.0805579475068083,12.74039261075748
81.36348397720633,-10.206317552340021,-0.07550580604992714,12.794665495202965
79.549189280516,-12.338235479916337,0.07555305679514074,13.401071947363882
80.31951520556393,-8.96205987721424,-0.057904727439982116,12.868219357647863
81.69164707349117,-9.211833559252725,-0.06006977642956297,13.283536523052987
84.74860180203927,-11.43606044497769,-0.1324905001281713,13.381811232621494
82.98455154275653,-10.556740673850298,-0.08790330218633083,12.595366171468553
83.25699288178193,-8.731849359542757,-0.12704217979549215,13.539011666248026
82.9839714561766,-8.090029885571852,-0.14506730979204607,13.250353889453612
83.34704221973809,-10.324274304027902,-0.14198669002831907,12.934248283976343
81.18078217474726,-9.598502758239478,-0.026019860270274493,13.671090930765725
82.31351958043034,-10.385699432230595,-0.07195733377365034,13.118748720923215
83.25603760139387,-9.927816001616454,-0.1314088135885833,12.645916548180079
81.6083712887244,-10.284897170227017,-0.05242737802089767,13.9250051725664
78.92414001549731,-8.39079067884758,0.05217288826574617,13.953007370714303
78.52132617716362,-9.523700961051178,0.054903281554424845,13.952649964797638
78.7259533590895,-9.615773035836398,0.08263827952215574,13.671717627385794
79.30115227635875,-8.552246684782796,-0.03088441786675245,13.726379161771645
80.06939178681931,-8.463646942310588,-0.003200845252234432,13.109105934419889
81.09133816795077,-9.47269731970941,-0.041127587374992225,12.919985105220016
79.84187059775567,-9.39275997432233,0.0246627592135353,13.189405159553038
79.73790488672742,-10.098153948924189,0.011373400999613283,13.184036024925545
84.59983249288271,-9.160840376501488,-0.1608093614573427,12.74288055449848
81.94921959319286,-10.332278311621051,-0.07424735086145404,12.71472841454394
81.94921959319286,-10.332278311621051,-0.07424735086145404,12.71472841454394
77.75671880666847,-7.621571986382961,0.035012074677901656,12.979307806938406
78.69791255616826,-10.983904109892583,0.0764466150808789,13.592826972844065
80.42627197758559,-11.684685682560518,0.08186199918600694,13.964564674235021
79.67750812528107,-11.810110669064452,0.027130556659915653,13.879728724546025
78.85841576652261,-10.98223282116965,0.03605497580758189,13.795157572496418
79.41603693716084,-9.7037611269123,0.07018104708848485,13.30871741546685
77.88275309572577,-8.427382554582287,0.038881990989132385,13.717020874546169
78.25575519290255,-7.398928019256062,0.03708927189173179,13.577808509031202
77.22544384038925,-9.713303563661961,0.11263881421417442,13.396573596756872
77.0281847157093,-9.840517621103187,0.17534580257139745,13.56623579653954
76.72306221462507,-10.07188430559244,0.15198477882877037,13.604468546811681
76.92267409280466,-7.619933154206781,0.09291541982744198,12.97868556397706
80.08689894885426,-11.125322255873709,0.009282382141777998,12.612425360181152
80.42962283115274,-10.228945259859378,0.05457840131642009,13.742448834794612
81.9587069942691,-9.890222680111496,-0.03158062902010732,12.790425825758629
81.9587069942691,-9.890222680111496,-0.03158062902010732,12.790425825758629
82.41573847252457,-10.864748257873742,-0.028719599428097944,13.421825732822667
82.34011935210742,-11.15211750542327,-0.06019890053688982,12.867792398378967
84.33107548043486,-10.65734532178312,-0.15208454946936809,12.835809688283897
84.07143888172152,-10.541771396481922,-0.16413210197965916,13.48010352208573
84.47530113756802,-12.048882166499261,-0.10124610295350693,13.856499339223971
83.43960219370882,-11.870729924551275,-0.09161318992061841,13.992553918103402
82.61890900607716,-10.505434177453754,-0.08689007300876576,13.341586491185387
82.89011294883078,-10.281009089187478,-0.04799268837298435,12.913183345618629
83.37641586397027,-9.119219737429209,-0.11861920719190157,13.036920862921232
85.4030304353106,-9.191031558736176,-0.20278533326853893,12.931686787047525
83.31642788296095,-11.289487828688435,-0.1251529538112157,12.791789580012766
83.3711602121417,-9.002240628603866,-0.13593682611021277,13.211719476684422
83.18078351979716,-9.867827306201374,-0.12106849739042337,13.384579678882401
83.43545553118079,-9.062699621757162,-0.11563576835855606,13.228280324976614
86.29018727089462,-11.07975626780585,-0.212127277759226,13.355398730255047
85.03916188827722,-9.164604769103564,-0.23344193103443225,12.964075669051033
84.05162160740245,-9.256049250253726,-0.14894343975121088,13.237076525274237
80.32415773791726,-10.735070265395908,0.04552648685600154,13.105945596042146
78.82823198780213,-7.26625098373642,-0.019061279204257788,13.069147073722633
79.22790005373938,-9.122198650640655,0.015013869348963736,13.41242815409326
82.58050162068686,-10.541214618027835,-0.08824631983384572,13.523273050678979
83.26171442910703,-10.774904120541823,-0.08499824032146211,12.580853911694216
84.01663889238858,-11.003859109088799,-0.13368051558125998,13.321503612892059
84.19896633457411,-10.726794383221536,-0.168610167265993,13.522503039166443
84.6014970305884,-9.2678808854612,-0.15873057273097402,13.022414229810629
83.86038415534628,-10.855775499221595,-0.1455961006271119,13.84253594689095
83.1751133857099,-10.564712681607281,-0.08547016713674667,12.923248410963504
83.49011524939839,-10.673413938013146,-0.12729416913690617,13.0090308144677
83.68328197422198,-10.709922953080264,-0.1447376808656943,12.302074205985793
83.68328197422198,-10.709922953080264,-0.1447376808656943,12.302074205985793
78.50455013234979,-8.929248677345678,0.07238485846151044,13.788832554093034
80.59995101503038,-8.405961541628168,-0.043282461082753416,13.778030136356398
84.80736699910386,-10.497445510389472,-0.16550088105813945,13.483484209626889
82.02235596009736,-10.24451949731526,-0.1082217773867533,13.43618579441815
82.28401997543642,-9.931807717086961,-0.05011836812169892,12.80953012556209
81.64904495059758,-9.884987738008952,-0.023154656605833403,13.203498840222442
81.57488168115002,-8.232949420173183,-0.07400801246438374,13.00291677713001
80.30675340927395,-8.949374126945735,-0.0031417549627713315,13.14493972288497
80.56908617215909,-11.003329093304737,0.004532688417311113,13.517732572792521
80.41079491826783,-10.732120207231755,-0.005866870358080876,13.09240871522885
83.35036023008153,-10.993815042601032,-0.12864668016363393,12.587165874368738
84.46310790690616,-10.199319612308948,-0.1585240281005331,12.932045782162504
84.46310790690616,-10.199319612308948,-0.1585240281005331,12.932045782162504
83.13461184901251,-8.517157970278657,-0.12008869858642615,13.463606113725433
84.37935357505187,-8.640957442206838,-0.16966395571946552,13.289309708947929
84.25252430405007,-11.875433805023263,-0.1410913142606485,13.535147710791804
84.45028015617868,-11.264095283793962,-0.1276252513102381,13.609188857008059
84.337172414833,-9.512284292043152,-0.17085752201778664,13.657629098287563
83.8482694366522,-10.424933200865777,-0.159731778968338,13.932907919281908
84.22041615674752,-12.518466665336408,-0.08119142223045929,12.549153781961188
83.7640629828514,-9.727107158600536,-0.1134621573165303,13.626912722447239
82.95947150233039,-9.930162523956358,-0.11021257105013979,12.79135232913519
82.95947150233039,-9.930162523956358,-0.11021257105013979,12.79135232913519
85.11800866153085,-11.43193795360873,-0.15760165538681034,13.32239134461836
85.56734164704443,-11.692946786569253,-0.17125893364262895,12.776792516897618
82.71782103761106,-9.081889791543027,-0.08865034080011737,13.47141772526121
81.50817417196373,-8.43975376394806,-0.08840581917044416,13.175399706246074
82.73365717646041,-11.278498535644985,-0.08113372652217175,12.840207315891131
83.58967734762379,-11.561394028427824,-0.0617789663350314,13.61700682410312
83.72967459693857,-11.592096533373537,-0.0695406206942095,13.538143482430646
83.6933913901367,-11.784030526207747,-0.06958829374272743,13.33834705998189
84.33465261999794,-8.240843117196166,-0.18988550526943598,13.465892143138928
82.46909941802828,-10.40999350746715,-0.0571727834449068,12.557254098451448
81.77530541950226,-9.71069375531064,-0.09273846825396971,13.749817080469986
82.39876494708165,-6.804433101946862,-0.12026625362099008,13.489768514293623
81.60813351634235,-8.356415608373604,-0.10356642395543432,13.016490780495623
81.09039360009706,-7.38019628716312,-0.11296205442522465,13.087676256777428
80.77410319375205,-11.181182790395136,0.00381482940174855,13.015616412390367
82.63402580892597,-12.081644362186546,-0.0043038883406558755,13.205738993289634
82.17969142728602,-13.480297725593477,0.0050169549420250245,12.756254188240938
82.17969142728602,-13.480297725593477,0.0050169549420250245,12.756254188240938
82.09928565252082,-13.228294364268711,0.005290293735804307,13.069433972558373
80.59409299165546,-11.132290869330483,0.009127192915367073,13.383784318569033
80.62232798085692,-8.419693683296346,-0.0173862689646225,12.850161291846613
80.6100306430872,-9.923658955100734,-0.0306379265131718,13.220131426426512
82.22383152754362,-11.066819055891097,-0.048752316661595685,13.014734629588785
81.41269621885483,-11.103055003788382,0.016985036764243705,13.45658926561437
79.59756845506281,-11.271141091966994,0.05774842434530402,13.085121973133742
79.59756845506281,-11.271141091966994,0.05774842434530402,13.085121973133742
84.08288986120596,-8.766901172929973,-0.22634686809610535,12.982198496088225
82.1389963054068,-11.96463786761826,-0.05691723065721416,13.088919186629406
82.31605359837658,-8.834463126716644,-0.14981748134029219,13.423805995208937
82.88070691169034,-8.760198875963603,-0.12243861964588407,12.994941476884224
84.2007179939096,-9.828679814276713,-0.17164933131453458,12.961382772009102
86.2237283742672,-10.512930312621112,-0.2535785036317105,13.689342168934632
79.39178554980295,-9.18420693338492,-0.017411307637557598,13.247300790185946
79.9357467057846,-8.647624009044588,0.03171793874859999,13.494506399392586
82.54402671441115,-11.225407623913132,-0.11667804649494892,13.241308497467056
82.4749200774678,-10.121729875809587,-0.10687874525360279,13.415495550343005
80.70256114963139,-10.272495335786765,-0.043059339830201375,13.428166944171709
81.3485739379968,-9.57761159992539,-0.02928260659342921,13.525093097875363
81.61247198764855,-9.868041372326577,-0.07814508913079755,13.666917284120427
80.71284508300924,-8.891547605981804,0.007873255452178554,13.777355670863088
80.26651858908953,-8.878552303081689,0.0009410032814712059,13.622994491124075
80.11094247514416,-9.022333442533023,0.02907702253915161,12.34796002744057
80.45618190367394,-9.139429337779328,-0.061588890006038,13.636397080726699
80.4648261019331,-8.993611435527468,-0.061491725079174865,13.684492617381164
82.25846226776866,-10.20271616992155,-0.11193744124453933,13.378771663723759
79.82183291269828,-9.29280179018011,0.0561356712693038,12.752460347281131
79.93380172364026,-9.611903567377494,-0.00814347107340778,13.869115442981599
81.27378887283061,-11.702875418322284,-0.016971604697307466,13.574602802455134
81.72705100205035,-11.265348422826225,-0.008871916285627167,13.463137421029636
80.84117605412894,-9.558462228100304,-0.05988454716774611,12.433144733392584
80.68254563824364,-9.61235444371307,-0.07336262515956689,12.798539290984472
82.04685812298936,-8.292478757568606,-0.1070482877106016,13.23898705323989
81.39652490556345,-8.519618194932033,-0.10021155592322771,12.692406247649364
81.34674162205434,-8.39359050190602,-0.08528035758720609,13.502819916337065
81.35098766857168,-9.184201233715356,-0.12745814317830867,13.384366608666193
82.59142043125165,-9.656427317467124,-0.03033659541103246,13.730014220508833
82.2272736184802,-9.061800769740696,-0.07167120710740427,12.645370697104331
82.2272736184802,-9.061800769740696,-0.07167120710740427,12.645370697104331
82.07445013566193,-8.32858091723857,-0.07856956914355238,13.460127029050557
83.05606037728333,-10.934674468191066,-0.10302290834486977,13.1370160790392
83.6803513654508,-11.31944418086692,-0.1322902684755845,13.025239405669106
83.72468431003344,-9.203236944540091,-0.132464190768661,13.466864501819302
84.15734706464269,-11.408137192520629,-0.1733313117042594,12.331999138657245
84.15734706464269,-11.408137192520629,-0.1733313117042594,12.331999138657245
84.26618667429351,-10.82555927354627,-0.15982943253705428,13.133183063109993
82.88404571092966,-10.510666392947908,-0.11995063635512182,13.12180956856039
84.29013375678497,-12.653853492030699,-0.12960063280469142,13.361884917542612
84.29013375678497,-12.653853492030699,-0.12960063280469142,13.361884917542612
84.80596425482099,-12.025899661712563,-0.15598130182944955,12.828118966261972
85.16947261541098,-11.528070465063703,-0.1294488371050278,12.673660317304703
83.4651587923745,-6.677028457331685,-0.1792405212566609,13.378471153205652
83.2469540647638,-6.684550723306526,-0.20886292715149166,13.304576092315004
82.6986352289378,-7.858001861237825,-0.15124630390037636,12.987713416549893
83.1365274831225,-9.56437543116987,-0.1302345436665185,13.049900385868193
82.0477339315043,-10.455818997139886,-0.08710543023716215,13.113881199409974
82.37174102307453,-9.272400835291032,-0.039557458421773904,13.704561850143016
82.76463231339999,-10.166143070876656,-0.09114677957312498,13.852574039632636
83.35299080938302,-9.99971739247983,-0.11219426045842698,13.494166713334419
85.30412705928556,-10.27003001042071,-0.1974851254093131,13.536559989617581
82.80872193585722,-12.261679725306879,-0.06514446711325025,12.79212169032655
82.80872193585722,-12.261679725306879,-0.06514446711325025,12.79212169032655
83.09746437988557,-11.832707801255193,-0.05194556076532804,13.118653634653516
83.49614044417888,-10.823518561796417,-0.10751566415705616,13.463760121719707
82.91263739380177,-11.405122596742824,-0.1215157082288262,13.557300817268795
82.74046064014802,-9.830266301319014,-0.0951901782711593,13.673418546557974
82.423240695064,-9.947560564531113,-0.07515509431992672,12.774730971344859
81.51171085605543,-9.683373257629434,-0.042767258040189195,12.743682999433808
80.68776644492259,-9.46005817828276,-0.04748540559358087,13.750214118724937
82.91771469276104,-8.202867043466133,-0.1311756268566648,12.372969616294636
82.9988912567681,-9.455076424329855,-0.1705451141525706,13.552441381451482
83.46789032473646,-9.138104932458882,-0.13519349920997462,13.464764129611854
81.88365176385015,-9.122809104613069,-0.1143105163889344,13.895458727801936
83.06316425198592,-8.517591588063107,-0.10536901364275826,13.98150332822522
81.68870604575383,-10.285774716414025,-0.08930266899323269,14.079560516539932
82.9327127166908,-9.55987042728984,-0.09265633362179242,13.99656156391242
83.34909789959357,-10.419716537191134,-0.10224910904754476,13.406693033621595
83.22295222084644,-9.874600419528733,-0.13080152542130374,13.420212084225065
82.9271690708034,-10.098543148626488,-0.12322506633524258,12.942982152503209
82.6022479596885,-8.731455067280574,-0.1180286358141419,13.020603779391552
82.4432896979744,-9.393974975268023,-0.1287715711315543,13.210804315480866
83.08837019655775,-11.894195999524023,-0.05678071739420417,13.795437471409741
83.08837019655775,-11.894195999524023,-0.05678071739420417,13.795437471409741
82.89289817119577,-11.189937964329067,-0.08896286074107462,13.901593584019942
81.85728703850951,-10.214326957527792,-0.0229440564091822,12.551718595078194
83.23504817319338,-11.600455953088057,-0.07705042526617133,13.346333369590923
80.76073537260974,-7.895269398827034,-0.0700788272382907,13.291938708723286
81.06570611163596,-10.80373157136178,-0.012133556645310845,13.09814504847439
80.83711922147909,-11.586745345172483,-0.0011509155578806,13.354540432818657
81.59456838928773,-10.893415931690987,-0.012304877167036305,12.948444194694597
80.9131026428058,-11.025344113249735,-0.005925659068708332,13.75381230690047
81.98537063198172,-11.206528040415364,0.018873652549266737,13.715349544575078
81.71201006377645,-10.31183574364545,0.008173725125278397,13.71980167385352
81.10730849602695,-11.47773344196942,-0.022695453976567366,13.8068793136269
80.42752717242072,-9.354887459996444,-0.03289084292171912,12.813193326515533
81.51366530138793,-9.37989070566557,-0.044291913150739756,12.7901521063015
81.51366530138793,-9.37989070566557,-0.044291913150739756,12.7901521063015
81.5872270186736,-9.628623743107557,-0.04246346094044243,13.318622442507321
81.44838688638718,-10.594299729708029,-0.041516408014747666,12.493282158911097
83.2427272010498,-10.539300214353782,-0.13005111723076893,13.468155637966264
83.41628389220561,-10.698822644602796,-0.12334409050023545,13.177561440007535
83.8250314745744,-11.175251177676815,-0.07756562754352665,12.860265203531597
83.64853140152658,-11.017701847212445,-0.10514100331092666,13.420155946644726
80.77523285536923,-8.505248037844307,-0.049096989658969234,13.140611480312952
80.89882434495131,-8.690600669934511,-0.047699141250871456,13.184707170762486
82.49753444626862,-11.670322496083076,-0.031173933472090604,13.233971503969583
82.31794920424908,-12.006036114829556,-0.01402788336408408,13.162238958918422
81.43294117151606,-11.221008683767211,-0.014829394468329872,13.097190384305037
80.20657793364857,-10.674074268183118,0.026045310159967715,13.86545631941634
82.45437603288906,-9.493547816417797,-0.09815484649522248,13.084194316176726
82.31178704408711,-9.544617144784901,-0.12220438678428223,13.112234896803082
82.19704961514731,-9.439619415652546,-0.08692324028002445,12.957412058316084
82.19704961514731,-9.439619415652546,-0.08692324028002445,12.957412058316084
82.55998928888422,-10.466142164528303,-0.08262519281055557,12.96646197288308
83.06685280725719,-11.240219720539635,-0.05988535211122328,13.052551734900886
84.29242953270656,-9.552113673821346,-0.16190143534776133,12.667631490160357
81.26038231976793,-9.894570797585711,-0.019879400491017895,12.601706397595773
81.26038231976793,-9.894570797585711,-0.019879400491017895,12.601706397595773
80.98606657376438,-10.469206553971992,-0.030061802540090513,12.476062509448608
81.87896363849565,-9.701295596797022,-0.03319220627668977,13.472709795330234
82.12460125894933,-7.964961493059083,-0.12326440006587047,12.564358595506889
82.15445454647018,-8.872838123612297,-0.09469911358096919,13.608605448848584
83.1707593599502,-9.68367934513626,-0.10501351165445139,12.444956512770315
82.2924392302629,-9.547941236265736,-0.13111828709047887,13.638985309594078
81.7192760571254,-10.2168928856855,-0.016352367494304177,12.536347083931858
84.00910182426935,-11.06018269470677,-0.09599393978909587,13.496191461392963
82.47099334032927,-10.270705062559088,-0.08198541213318324,13.658131409277726
81.92047072981183,-9.67748746355841,-0.08667531308386994,13.773954084655507
82.93488851221144,-10.82771561596366,-0.07156938587297144,12.747479126088633
83.0238012242703,-11.181742855454987,-0.05785883336554716,13.549802715390866
83.01529619968134,-10.631897745465333,-0.07178830253820587,13.778584101890248
82.93508006634427,-9.85988590489097,-0.09174955581321712,13.888726995230739
83.24963301524171,-10.556545860229186,-0.09667572232053744,12.536846636552479
83.33100305055085,-10.597795949392232,-0.07595058342767183,12.229947871574927
81.43156744487723,-9.317387416558576,-0.027074068928852973,13.576568826943335
81.43464239126867,-10.419797405628183,-0.011063921008689245,13.390561600838744
81.85872625218772,-9.315707657533636,-0.05787248080948191,13.398583358901577
79.55723683595718,-10.932350971196794,0.03736023871066048,13.433869317975331
83.72705484840607,-8.76395118579534,-0.18696937390068058,13.433127439414292
80.90593438533058,-11.457377567682919,-0.025483499182026786,12.497294491440446
85.20071303240789,-9.803037651683958,-0.17366373954892766,13.660127788118308
83.68820010850061,-9.287470883365772,-0.17226593986945143,13.677188525609592
84.08802408163747,-9.080191168909389,-0.19680239896358975,13.535417891042504
84.24115480693564,-9.420059197819965,-0.18171932002690952,13.563577501868489
85.03316914422241,-9.817663581373598,-0.18090637389912503,13.572681638045145
84.64152422717657,-10.786682516329721,-0.1779610861763833,13.465237974382829
84.74608320187974,-9.949090419203369,-0.1505171902331223,12.606154614460706
84.74608320187974,-9.949090419203369,-0.1505171902331223,12.606154614460706
83.594390916844,-9.506874568134894,-0.1399316429129576,13.7357951932124
84.24628688439996,-11.633486868688756,-0.1703625165144198,13.825140076907477
85.51210789807523,-10.255716251320955,-0.1912452029998097,12.432177813989426
84.11563141435661,-10.770576288338887,-0.15098369490721394,13.616068562237617
82.25424454974167,-8.761293653378285,-0.12029124483360122,13.144594638391816
81.67777729980241,-7.891600994528865,-0.0742577331514819,13.113448377046677
83.47790920713963,-11.353238508458505,-0.08989597870551233,13.106631874331718
83.86764054852193,-13.03149604317133,-0.08414018462538217,12.995980791103724
84.95517255172078,-13.284373216280928,-0.04632371131133631,13.389076086812446
83.77560553009383,-9.50444940428316,-0.16798563650855938,13.001942231506673
82.69577936177188,-9.157008610936849,-0.15107659395440118,13.417694922068783
78.47929598472678,-10.383767472735293,0.10141314742730559,13.286091541767847
78.47870747601819,-8.509699878433334,0.04683167141521755,13.2090956498814
81.12042310290212,-10.403660856359217,-0.012091330750435288,13.175767717132237
81.24863809215903,-7.297774024978412,-0.07472358997703347,13.020388773704614
80.98666834633269,-7.925044847493616,-0.1106639619027786,12.508439874284656
82.51497547320857,-7.9163272669419396,-0.09880426792953091,13.420593446191708
81.80106369500308,-6.95771090043388,-0.16526346068971998,13.204735513040784
82.20862859381337,-8.025529356025665,-0.15116441517486212,12.986104866419806
84.55156784712729,-11.963313290052744,-0.14509006766138235,12.938342680338678
84.55156784712729,-11.963313290052744,-0.14509006766138235,12.938342680338678
84.30940131999334,-9.029657207114404,-0.18126344852203943,12.992358879907282
81.75674882114066,-11.675949891169802,-0.04849772235225734,13.235602363623787
83.04282116491012,-11.04670119240815,-0.07364964922014275,12.928429683458555
82.8079107028122,-10.331993882824458,-0.08732143215485443,13.077217335101546
81.33969160748542,-9.91689625064178,-0.04651258860166637,13.19901482572507
82.3675553230641,-10.82582740005863,-0.048438952377218535,12.92444950494336
80.37999918703996,-9.865860757617664,-0.04438840174938663,12.402416245462593
82.47447288872463,-10.751274883772544,-0.02662779963602855,13.576710040799336
81.90693329279783,-12.061540833299924,-0.04361680185375248,13.464128792610747
81.37349097209886,-7.037202086418618,-0.06876417602894352,13.307683523235596
80.80371334055474,-9.317310429962616,-0.11273701128772082,13.196887322401292
81.6142915874973,-8.603335962860685,-0.08523387103060068,13.648947611193744
81.52753031293017,-8.767574999688632,-0.08698625916487383,13.597577990795997
81.78861633996712,-8.470055669266172,-0.10201931889388909,13.186554927298458
81.95912625344208,-9.551075558102276,-0.051628756563656834,12.857561530046748
85.47707149213831,-10.285543231494966,-0.18791920120803146,12.906578111843006
83.85847092121293,-9.151046882683442,-0.20123587028513695,13.223658443041389
83.58246268453453,-8.767780272536891,-0.21242771313006759,12.98782765574143
83.58246268453453,-8.767780272536891,-0.21242771313006759,12.98782765574143
85.35122287515333,-10.110318197857199,-0.19006414732997673,13.482362171406374
83.81713690844867,-10.505871662612527,-0.15974864974072417,13.315773310785316
83.32392700407225,-10.378769714067008,-0.1866436596040194,13.24740164867362
83.18089514910791,-10.55763384695706,-0.1719596968737636,13.086970991552656
83.40766930797369,-10.223834892080468,-0.13607291086473353,13.330004890590192
83.66351804452627,-10.51525631165448,-0.10168211237516533,12.99054455269275
83.66351804452627,-10.51525631165448,-0.10168211237516533,12.99054455269275
80.95132815544491,-9.148331820504053,-0.02553103630145758,13.010644743668017
79.29937886963404,-7.894881126757426,-0.0442483279591473,12.999016399726424
82.0940899264511,-10.993280635331573,0.021174944134087624,13.282805176955714
80.40949054843648,-10.129842538921203,-0.0614787585132222,13.136568694639623
80.89020800189603,-9.41298545923371,-0.0354216334840239,12.907696148178907
82.90760674569262,-10.33834151658477,-0.10263748394748401,12.867377753546613
82.47950543651689,-8.961300161169468,-0.07738966942983244,13.532990143749894
80.34800091499038,-7.609559481844606,-0.053417105576751056,12.533860463254033
80.2989679844208,-10.639363645123375,0.03471243223802927,13.547521562051356
80.16989594691435,-10.721174723254272,0.03808510171722756,13.375491245174823
80.31479851176486,-11.141381522936179,0.00924338906178691,12.729847068517648
82.2351202247833,-11.783826286862112,-0.04456637406066667,13.501190245729381
82.83056078198844,-12.46768511779419,-0.03608834153763621,12.713511902344399
82.88604535519961,-10.039170295608322,-0.10782690293151247,13.37009915325727
85.07087978140109,-12.37750411769324,-0.10959929229819018,13.712364590063498
84.67436696840518,-9.362263380107393,-0.1688221311373263,14.045665244553
83.01074528964791,-9.219961692181196,-0.11672085588551792,12.475719066918161
82.71424350147167,-9.543566652807181,-0.10764452871092312,13.588337753454033
82.38582268861694,-9.824204608427834,-0.1030263462309849,13.313056912151676
83.0539930079391,-10.745685587464587,-0.05212706531310411,12.515887664250474
82.19272972374206,-10.722880616851796,-0.0919941961148976,13.292888366296907
83.33809603828584,-10.352828237314371,-0.07380682703998986,13.141590252138155
83.15816145207464,-11.022672105322627,-0.08143125225030143,13.113125954173299
83.46201062888838,-10.404221053352089,-0.11175693638979425,12.862526310273195
81.0008560210608,-7.063636820037829,-0.09407795624020625,13.261435105170971
79.88375358923999,-8.84074706557716,-0.04256414987099226,13.521584911889256
80.67345077386715,-8.03806364247027,-0.0680442334160958,12.5128669155329
80.67345077386715,-8.03806364247027,-0.0680442334160958,12.5128669155329
80.53623465270704,-7.892596303093069,-0.06422884083814562,13.2802105818588
81.23116738120247,-8.305629604387025,-0.031998020771299096,13.02697697118863
79.81741315493335,-9.394537063543734,-0.024945517358013668,13.470814154881287
82.15857306980325,-10.684812121413012,-0.04997844099816874,12.476766798178298
82.15857306980325,-10.684812121413012,-0.04997844099816874,12.476766798178298
81.92529809000077,-11.342973136873278,-0.06740562247705167,13.46366613734633
82.25400934686998,-10.032709684078451,-0.05222113019343996,13.150488905046512
80.06205506312067,-8.899714878136935,0.007181485231319304,12.549960444654555
82.24172410177556,-9.12328597563302,-0.08197768966595313,13.40433854133802
83.02670337817803,-9.800546581717487,-0.12908264281100207,13.280784463356197
83.08401757805524,-9.091117598795448,-0.11599502715196086,13.49686692857947
82.3692044187109,-9.309144177835783,-0.0807187033384538,13.316262825129993
81.47029981747691,-9.80311017043739,-0.005747409272695329,13.344506307611404
80.78939108198026,-10.453580865231038,-0.01613684525707701,13.561919600294301
80.49096340601403,-10.053050709830623,0.006622643077697089,13.732351911417544
80.8152842589549,-8.2348292685917,-0.04038810031586917,13.486872589752505
80.01155411948577,-8.308797044857167,-0.06570283459850215,12.595848514020398
79.64570621164474,-10.143653296133092,0.05080068115240802,13.692597740763649
80.83714642460296,-10.391696928304466,0.0516909672581226,12.411423362124838
81.98622029366652,-9.668203384165947,-0.022427475969246352,13.609410649487268
81.21627914177074,-10.46801861116965,-0.04668162065444389,13.8563066673098
84.08494685360566,-11.102629643146141,-0.1370810654635322,14.02060873059132
83.6884312573393,-12.050291302455985,-0.13590826022686464,14.066431397014217
84.4210150265386,-11.542469448665399,-0.13029505646980358,14.037159036322233
85.07967820264554,-10.843766350032473,-0.14720996654671376,14.03649899017831
83.98428873261595,-11.453448607550998,-0.12680966624192638,13.823462285609825
83.85987664317338,-9.210282503429124,-0.1437368945249548,12.65530561566779
81.36208094510671,-10.35712188751501,-0.01749253031087398,13.106207573538002
81.52264478820938,-9.440058456319194,-0.038109625109983655,13.032576560564657
83.56490214184831,-9.669732426658381,-0.13414433183941368,12.964586273081855
80.71576008988839,-9.75467543783611,-0.02735327100580051,12.919998515096317
80.71576008988839,-9.75467543783611,-0.02735327100580051,12.919998515096317
81.45218990917981,-9.816535191610516,-0.03752959074206071,13.057097960244642
81.54076536129519,-10.410659108279454,-0.07028091012803749,13.224589994326424
81.46578639452952,-10.623765720102385,-0.061521279919455156,12.992835822130397
81.46578639452952,-10.623765720102385,-0.061521279919455156,12.992835822130397
83.65235260639042,-9.796501585382366,-0.09326104229685189,13.29356472879206
83.63894749830756,-9.255757203955543,-0.10813202262544905,13.25090878000748
83.22501688451484,-9.31648955749384,-0.10621757035130781,13.293725052624719
80.58431373115505,-9.162862915059144,-0.07999389346800632,13.262209340425176
80.94862439682731,-7.9878646452355975,-0.02861290984306899,13.358848663446564
80.83676255252199,-9.749654319166073,-0.042190744019383185,12.523645401402092
82.63722464260863,-9.766457954417149,-0.06057427981148361,12.534544257025976
82.28044318795169,-9.600263275568555,-0.13653727693521447,13.695622988085736
84.20193890168132,-10.777121069131665,-0.11273405423420696,13.337747517538851
83.89212689841257,-10.934510718397046,-0.12624220876226777,12.997421367646584
84.12806755634601,-11.473105726309495,-0.12001880622082621,13.17871531115907
83.92554449133111,-11.020960624418363,-0.10859498902830478,12.788908105691695
83.10897112591273,-12.025726738859497,-0.12069199220257631,13.479872158253421
83.42524120099026,-9.888670333342798,-0.08472857417907753,13.717590075937025
83.56286802530475,-10.981889263781872,-0.13161814740733738,13.755952539407536
83.32490386125188,-10.898077051598525,-0.12372793197101328,13.5878423186367
83.30852966539312,-9.399215739249946,-0.09686940273018854,13.037953552471164
83.30831871342617,-9.715838771570525,-0.10008115605010057,13.520042157123836
82.77944078443149,-8.426514799499138,-0.156769502712762,13.952213875452163
82.77788583886684,-8.353907900864817,-0.12664455847361034,13.958061805255252
82.2590039417587,-9.470101311340608,-0.14120960851749542,13.97715883821827
83.97265139946333,-10.793477975164347,-0.09195635300859066,11.72095843324455
82.96902956991495,-11.255842184181304,-0.13738941236185004,13.907995735884088
83.93843482959466,-8.94652880216266,-0.1763451869550362,13.079833722412781
83.33834757099886,-8.603352931869084,-0.20051009765975214,13.02875630508962
83.47041315809169,-7.451998183579582,-0.1999418115067349,13.123892768556995
83.6324373121181,-7.767692790418075,-0.17020383815992743,13.487924091326713
82.34474879192747,-7.544995019190013,-0.16337909165055872,13.28686638081477
82.36604100333632,-7.0636774332990395,-0.19590154229122658,13.002885976088178
83.20768488798507,-10.93494465450732,-0.053704121448906926,13.135501904549626
84.55208942879962,-11.000445744544347,-0.12243522979317287,12.98399800613349
79.5251943951161,-8.397660391801661,-0.027514864810541877,13.05582799456866
80.50483093053296,-8.335378681789553,-0.0026458509130061524,12.956784301663184
81.82172138868087,-9.087943756865911,-0.07177500059668762,13.151678709341478
82.42328208932896,-7.442944266464099,-0.12713951653595112,13.203834320810868
82.61706714050887,-8.03613557405321,-0.15510152873430588,12.699267783733438
80.99836103239838,-9.516812277459728,-0.08134470680198003,13.506142973123804
81.53547670716317,-8.545888249539043,-0.03349170897149769,13.330630612930376
82.32542309965595,-9.39343631144925,-0.04512619940618904,13.772404337684666
82.0628226211086,-9.999485117383582,-0.10605017150620333,14.04513820038893
82.28971859082787,-10.010587649141558,-0.06074015741059957,13.869679398420718
81.75393889551894,-10.194510125158686,-0.057410221425270525,13.34871134301159
81.7561784971961,-9.745265229034036,-0.03607267521630421,13.27642340106526
83.61660962578627,-12.036839603202827,-0.04153991765947659,12.828079513928694
83.79695078696867,-11.563409586183782,-0.0615384286706786,13.45757504394012
85.21041098203625,-11.1716630210198,-0.17891037709818614,12.708317973544053
85.21041098203625,-11.1716630210198,-0.17891037709818614,12.708317973544053
83.81656692419251,-8.958143474572369,-0.1765927795817829,12.904615288946466
85.06937389087844,-9.95188840367787,-0.1956219111156668,13.963237222118677
84.10205234608497,-11.358000592647056,-0.14187481458698675,12.932559836228403
83.30314779764615,-10.732819260763764,-0.11130745842427957,13.530187909889793
83.34956667608553,-10.814048396550362,-0.08929360003787502,12.763546923824203
85.52867913626575,-9.998664326272545,-0.20604567195802756,12.838292366083461
84.97409819792583,-9.629836659175139,-0.1991762217983489,13.57736930862519
83.71102220269232,-8.63161173081254,-0.1864086497893753,13.51168707330828
83.7262016638245,-8.124663362783563,-0.19997340043776726,12.65274964038011
84.01493055370929,-8.519205865019723,-0.174219218799487,13.403255799669298
85.45778149740116,-11.36840012304576,-0.174980526714233,12.828166550432266
85.38502328447483,-9.938777805538235,-0.23025162592915163,12.667019067867603
85.30310086341736,-10.15246424968505,-0.23143376559526513,13.841862004188423
86.46315202262114,-10.034080757137255,-0.23267434309850313,13.437668464822105
84.1161832009008,-10.678782348319949,-0.1837733700057006,13.720565769062048
83.64332511597132,-9.038892340048035,-0.12679852608506073,13.56122813358863
83.01901318740009,-10.511167622160679,-0.09933203412175301,13.552047664613662
82.69385023050981,-10.135656366234198,-0.10475062731811914,13.689556526707625
83.1578332360249,-9.142207842907244,-0.11726778717419227,13.879576744016203
81.87570238391736,-9.880909332989086,-0.08921772584165392,13.502111826296145
81.84805115032471,-9.851727816795632,-0.07812956685238148,13.220344590630388
81.56363125889256,-9.648511105799383,-0.028187966020063744,13.129551342671231
82.03438525691324,-9.289570894984784,-0.12293147257119806,13.355953739594936
81.69535656766784,-10.580275842407907,-0.07512479030310633,13.801904435329325
83.01425582710768,-10.472577951834534,-0.08742061870429646,12.739935398052374
83.4797625664831,-9.827516010697288,-0.08898574672633719,13.266303862235214
83.57171935389201,-10.446275327755679,-0.08035358222545393,13.92823806567193
82.77566545802371,-10.735330275595272,-0.09288324468227858,13.801088054804808
84.07041399758917,-11.08745991820831,-0.14014425841670056,13.951317973693769
83.85716166454219,-11.60357996706256,-0.1193423700610273,12.594918242346251
83.85716166454219,-11.60357996706256,-0.1193423700610273,12.594918242346251
85.14565758531157,-9.61805874166202,-0.19784051183256623,13.869148115338577
85.14565758531157,-9.61805874166202,-0.19784051183256623,13.869148115338577
84.31408674025037,-8.786217141490882,-0.18771878681943352,12.948767965558734
84.31408674025037,-8.786217141490882,-0.18771878681943352,12.948767965558734
82.4050810461372,-11.574014110554616,-0.04021676783205142,13.22265891624055
82.48733607738471,-11.754906489982005,-0.041425401109937664,13.752361328535002
82.8898692747497,-10.958996907439284,-0.05568404339871097,13.355669510340027
82.65362208878501,-8.504360995551295,-0.11420897243888228,13.405219051453345
82.12648947510573,-10.01860953164033,-0.12542658555700448,14.001605010500997
83.85570124733492,-8.892016179899358,-0.13437367877003267,13.617017324858304
82.80180696656836,-10.724070260985545,-0.13649346379148178,12.616505060624727
83.38326573869631,-9.665907700932278,-0.12595547144337546,12.81789495853354
82.6679234066064,-9.08487471351792,-0.10731768055025133,13.132330668951067
82.35177179520247,-9.304867835338907,-0.11892704087442979,12.839844206761647
83.27125788067573,-10.025544160019347,-0.11559843591350892,13.218182723695776
83.63148186959778,-10.335043749432586,-0.17644668954940862,13.82081361241157
83.84200660069345,-10.173174204455623,-0.15971393211866047,13.95116825252309
83.89503935361265,-10.540324291394027,-0.08256151530033007,13.64185597481096
82.34244637277989,-9.377541140342206,-0.04090223819674053,12.817373349616352
82.05138960454175,-10.494288289534659,-0.036952574924092124,13.459522340632363
81.04742260997097,-10.750789383487973,0.01947124855236154,12.814345723361152
79.18577929364889,-12.550662749245566,0.07289160567528565,13.606658469566137
78.99885665892431,-8.83761823141582,0.069032675124487,12.712551446055203
78.62160398693078,-9.517843240916227,-0.024435563687612738,13.783060607827823
79.62573387202056,-8.776278134543022,0.02547324184912094,13.955298717537222
80.90394836241055,-12.30491844604932,0.02508974482289951,13.786299569103251
79.89541385772029,-10.533618175668007,0.01418396350815956,13.823121510332813
79.36770228658293,-9.302193360605369,0.02693001064934257,13.735410274190313
79.3480214626438,-9.260141348557072,0.024679161339146174,13.496475778649371
80.77294950759104,-11.309127411738464,0.054809658377560244,13.102246395822082
81.64723879233665,-10.539112781153163,-0.017984095293295276,13.407269589440364
83.85539522882362,-10.06067581166579,-0.17419307065518655,12.822370443168996
84.02358360456314,-12.079100543386403,-0.102247610964801,13.607149958070186
84.12466485908146,-11.129548580718978,-0.12274380470238291,13.1934486032334
81.36314358026212,-9.647924266154362,0.0035604347215307565,12.791619236553247
81.38863436856298,-9.83532466123297,-0.0054496091958716585,12.497140974371641
81.88110711801453,-10.825691355686127,-0.005470051867897723,13.840215286808709
79.66781265748624,-10.615314766470181,-0.02029616546200177,12.563638338388273
79.84796106300364,-10.469692132025944,0.007637456522288862,13.134849127483278
79.67869162585525,-9.963151445625062,0.06389824995610603,13.075435780002513
79.85265398621098,-9.457671100793213,0.0034299902868292903,12.95871274429977
80.24483502586297,-8.36740204940665,-0.021427031281859448,12.850944283453078
82.32889131836444,-9.882656411134734,-0.022931544841218218,13.17733454674276
83.99161334449921,-9.28752388574061,-0.1556484975012441,12.423728084649493
85.54003889767645,-10.431911902666878,-0.20037248751872203,13.731718799335695
83.34602791507703,-8.539096930353145,-0.166891320540933,12.44865040876593
82.81380133824989,-9.429345588439672,-0.16880138145461474,13.550459500972876
83.0662023823666,-7.553841436983849,-0.1509179194388312,13.779176581352841
82.67328271751981,-9.023956325890964,-0.14796096212024237,12.698479230446951
82.7759684175583,-8.035387791833902,-0.15739788289428294,13.581222801841509
82.71477202451999,-10.990237961290084,-0.10623059345970426,13.91618529102765
84.28108817258072,-9.866714303816401,-0.11325208935983526,12.760272216824795
84.28108817258072,-9.866714303816401,-0.11325208935983526,12.760272216824795
84.86889075726185,-12.682162895438296,-0.16931732304086497,13.380536246818865
83.20277265493768,-8.115029792546691,-0.13303493645145387,13.295164523084328
83.42204744413057,-9.738886985195748,-0.15325261124309308,13.035656323456575
82.7869106349513,-9.89678291694565,-0.06298206381557134,13.13451686353926
80.99269215446314,-10.37530517283701,0.004032785796262442,13.394834041962424
81.02964565500542,-10.208329808302853,-0.024209997771486087,13.04057601770528
82.33387012498814,-9.054532925935797,-0.10540992388678194,12.790505376330158
82.87646406437236,-8.653201377124748,-0.12033987061346296,13.606205674018923
81.50566896219077,-9.387158217455879,-0.08113513345443027,13.48394980564546
81.11684782334724,-8.586484592117415,-0.06675665790131508,12.898413299943757
84.64786938559429,-11.45856365751689,-0.14300513242307572,12.883371155286257
84.90891115232563,-11.257854746068052,-0.11318199245336216,13.431510898390801
85.50131138369237,-11.859451278955486,-0.15938382750772906,12.881197080336088
85.50131138369237,-11.859451278955486,-0.15938382750772906,12.881197080336088
84.77316788523466,-8.342304639229708,-0.2630142502650736,13.99314206031378
82.7591270734346,-10.126102507997064,-0.07034246824134666,12.640683817803977
82.89489901211115,-10.797030298862929,-0.09818412064755078,13.265223669836695
84.78141110906616,-7.600976721208836,-0.23468295058762828,13.399717325094644
83.62374958271036,-9.243219301930452,-0.1456058658386341,12.883265636384236
83.62374958271036,-9.243219301930452,-0.1456058658386341,12.883265636384236
83.5738360338878,-9.735565654568322,-0.15114521726177696,13.353742793640347
83.53327366280507,-11.302802277785165,-0.1202782034207522,12.921019942632817
83.17060851197508,-10.460405209933064,-0.11406521727295739,13.352168205793571
82.41604283855156,-8.215170350557624,-0.12504422238732418,12.662322387157488
82.49811012214676,-7.907451299226727,-0.14701062465816817,13.261710727814515
82.76392575398415,-9.536503146427217,-0.16979115946298076,13.265002786481844
84.38490181381285,-10.561624652914352,-0.1378411185998525,12.761297759089913
82.332546459157,-7.925014479909763,-0.1129386312910351,13.614778378961716
82.29637886895483,-8.86514609995863,-0.14056605720330864,12.72501947991969
82.29985585341703,-8.190801625984697,-0.14233677961756835,12.53358241603833
82.29985585341703,-8.190801625984697,-0.14233677961756835,12.53358241603833
82.40352924664866,-8.024382244645828,-0.1542764251669007,12.475889140561696
82.19370950827107,-7.146639816481926,-0.16202768161704,13.046700455480966
83.43275470098455,-9.988911463979015,-0.08419260104219224,13.276681129111086
82.16555597878622,-9.528646581641118,-0.12216612712709751,13.502641708232591
82.03832890622637,-9.398875218504855,-0.0983952779375594,13.244412843113954
81.83185208772787,-8.415307907847788,-0.11760389220806407,12.825669201497139
82.97631635887689,-8.62671744568791,-0.11886977200747444,13.159022252243023
83.44996375605207,-10.265855125975348,-0.16959653442936148,12.938106271718226
84.38543813342113,-9.654382774989118,-0.1536669635187142,13.299178044804998
84.8182974108074,-10.762253175087103,-0.2010084941477899,13.186185252697385
83.73622306754693,-10.156519089411134,-0.17138369528877703,13.098279963893262
83.53929615132752,-6.586761370591417,-0.18945950021000801,13.680410632179077
84.00342492889648,-8.679371528032698,-0.20497065988955854,12.50381201834301
83.26287636709252,-12.159022226689649,-0.0775594261832579,13.433703948996824
84.01627026017832,-12.541237631028212,-0.06949352426756718,13.337712338924574
83.23571172591846,-12.430953066864808,-0.07415246142963845,12.717308206642835
83.6902068019438,-12.148375983461644,-0.06696323578132572,13.267531695336931
83.29807394153178,-12.624896817208661,-0.07109929254675719,13.055487569375236
82.53181136922915,-11.27046334633792,-0.06061160893733451,12.983146551559315
81.23219101418093,-9.93321853515922,-0.01828624293233618,13.169884471543183
81.12320933223836,-9.00003425640937,-0.06870861373418609,13.291818643119564
81.400011064784,-8.837789104171664,-0.08705192392897425,12.755663746089144
81.400011064784,-8.837789104171664,-0.08705192392897425,12.755663746089144
81.42624448002171,-7.792346817864775,-0.10374170319616102,13.84100451325313
81.50977840743313,-7.7116523734119635,-0.12723738950287386,13.941937010720046
80.8664528182449,-5.771689736997461,-0.11183680684910417,13.884559272720635
84.89846219122668,-13.407568399114602,-0.06062607019057752,13.464773469060857
84.48095415392382,-13.252351109437383,-0.09286381099469673,12.844234740661934
80.71854306005883,-7.719074175753603,-0.08516144485904363,14.133961137787379
79.36433921773272,-11.369214573601186,0.07245727786431622,12.465755391370362
78.31003826353604,-8.09212322893372,0.0071567130684558125,13.776474335297118
79.54973563813593,-8.803019398375413,0.020022532282329933,12.630777652591568
79.45056860725215,-10.578357167574561,-0.002265556426307193,13.064253304428282
80.32647768562188,-7.6406285032786965,-0.006869553278627765,13.243852623502205
82.7400738299161,-11.216130678819994,-0.07746414262051267,12.374237453948929
82.63142659324622,-11.165796495267793,-0.08622965732305109,12.894493821441896
83.22286695156963,-11.160522610106268,-0.10925584173497255,13.759571508777624
83.1111274904145,-8.959007683893338,-0.09386713522667813,13.037820102845078
82.57263129208243,-9.837212566785686,-0.13300115225008508,12.91163238330996
82.47231933453067,-10.340540296002908,-0.07289074144756982,13.643901580913035
81.7992271430522,-9.563937482017156,-0.04960313556431112,13.280376835233822
81.86593034546043,-8.147341485125695,-0.10801147055662105,12.964467614641698
81.45225443053924,-8.659790106579871,-0.08400656392676252,13.038674708816053
80.99201522477131,-9.347021180721082,-0.07919317592531888,13.491685592120856
82.1588336009275,-10.23752488521251,-0.05921132062442758,12.94830973710954
81.10435373857514,-10.121502142467016,-0.03808218410635693,13.398003002349839
81.77611351738187,-9.523202037786621,-0.050863851845213026,12.74581400567162
82.092672141405,-9.522574849064206,-0.08053908600180229,13.258318560074747
82.10183633685628,-8.186352044307403,-0.08841797932546686,13.642205905619438
82.57672097103436,-8.65223725257005,-0.13452790645103632,12.498646309550686
83.43221156905784,-8.100887753203946,-0.12505947548241783,13.718509414019689
83.07236633678296,-9.639045225382015,-0.10207138330114413,12.283096112076434
83.07236633678296,-9.639045225382015,-0.10207138330114413,12.283096112076434
82.08677815371016,-9.705086193294196,-0.08886092143727714,13.4462821023618
84.5838032719199,-9.05968289290246,-0.16637445397079964,13.000475204320537
84.5838032719199,-9.05968289290246,-0.16637445397079964,13.000475204320537
84.16849989713985,-10.341155348862054,-0.2031456792458095,13.474041624068251
84.25191526106273,-11.111306620361827,-0.21329136550551428,13.457613228708317
84.54279469536374,-10.74246546426841,-0.20770651880723767,13.537387869695497
84.96869567654596,-10.789190464224308,-0.20015904777278914,12.580935934590164
84.96869567654596,-10.789190464224308,-0.20015904777278914,12.580935934590164
83.83393795941238,-12.500036271170359,-0.05739683859858573,13.597060491835714
85.24878731655333,-8.355038394613322,-0.23530894836535604,13.60735171616863
86.25781143870482,-10.756238941185979,-0.1785535344775609,13.186841684956317
85.55440888874179,-9.533833149699682,-0.19880111846241658,12.629177964920313
84.7920068893428,-10.274994302911393,-0.20014594927370072,13.491133461019388
84.50425535643495,-9.496153139066342,-0.20293248486867832,12.642246521668973
81.81364839378388,-8.444521981459049,-0.12667958004974728,13.580537752368302
87.27041837776504,-9.84707329836782,-0.2725198474294876,13.752967182302768
83.41017651883286,-11.049110401276574,-0.09119455121185162,13.654935253205844
81.5671616992852,-10.197197492123895,-0.07069731971797709,13.070371116642473
82.0558343722509,-10.044710001704988,-0.0778815077677929,13.291235959345915
82.70901445095967,-11.43688056611578,-0.046499610567090253,13.356157870543301
81.62022139754913,-9.973042713105912,-0.08237216286899664,13.084727774722204
81.50395623582355,-8.7101308078046,-0.03862730916006207,13.001435875804438
80.49678481962995,-9.031363658316366,-0.029514545417360597,13.071634743480814
81.43639699472516,-9.006899074919868,-0.04272133683102885,12.86817249572467
80.62638900740875,-9.434182142817022,-0.0484314230619345,13.146556705759847
81.94866277241788,-9.233914943387662,-0.07295937854033173,12.77931817303069
81.95701799271275,-10.428974819525553,-0.05487799697865621,13.178566338981128
83.8125852187867,-9.553668682650697,-0.14318028935909663,12.959292874365563
85.00158814894348,-11.113743171693029,-0.16339548760052652,13.227735055515138
85.48222085584852,-10.345243631366207,-0.20007259587290427,12.818175534921
85.16800882018097,-10.203925712735865,-0.18914199147211266,13.498933468692117
84.35633927222548,-12.452783506642282,-0.12107967090364544,13.90115132650967
83.91215666672866,-12.948770481381183,-0.07264182480160913,13.242192398733287
82.53868442102784,-12.225280156798963,-0.0389218283608517,13.288341037233266
84.19727300916124,-11.749689453217133,-0.11268677927101588,13.144966476820375
79.54465649392199,-7.246882420233133,0.05075453993786115,13.170636327162434
78.40151774352647,-9.011643421427241,-0.0007602881300023331,12.904156898898735
78.40151774352647,-9.011643421427241,-0.0007602881300023331,12.904156898898735
78.94545503032276,-10.184803117550734,0.07238356733381172,13.163554101211602
82.48806259504921,-8.833930271328784,-0.04840787267343506,13.086333587625017
81.86152452738061,-11.933810021255768,-0.04817361401239241,12.99864146698607
81.15148620714278,-8.785170295930941,-0.05100536653244472,13.017319422927525
80.2319452097226,-8.983626200683194,-0.018434656712301357,13.631573438479936
79.1853253578081,-11.981361383851379,0.06894815087299426,12.503163868711102
81.22264516370353,-9.911023064952406,-0.01461738399370157,13.933363209764158
81.47489084010394,-9.202462609527721,-0.05592287221673746,13.805507357022519
81.86511748353757,-8.481398382029486,-0.12200043959447121,12.73486010721538
82.42720155911454,-8.005984140430181,-0.08517620352945435,13.086075696799176
82.29352133267366,-9.13489257031113,-0.11418823883925651,12.836036813689782
82.93785285022769,-8.895766500194458,-0.09640016725489485,13.461322264112678
82.31228226046473,-10.16339489842463,-0.12242535481045484,12.296429343266867
82.77356715455377,-9.918174199802706,-0.10769038205504441,11.93830323741446
82.81760712708146,-9.307151502146526,-0.13266014527460873,13.84417316124769
83.22550350171292,-8.142056876090901,-0.12880964824688249,13.798738736449517
82.18985583961089,-9.14450685858317,-0.13198605805121794,13.33301664736443
82.30120338366773,-10.141371986349894,-0.08705905299234049,12.926753608733389
81.52240081204982,-9.45483283147894,-0.06910729559497283,13.167795487058326
82.92033395887306,-10.070433822839485,-0.0864956808574405,13.373219717773475
82.88424742978955,-10.244509673054573,-0.09015235762347175,13.138107087754896
83.74069978875924,-10.177550036912175,-0.13737079557565313,12.826454218528715
84.28395897294128,-9.849689434527088,-0.1723856233171789,13.546887211067922
83.0624784535111,-8.522088595650654,-0.16492486639721843,13.860645646688631
82.34791833657185,-9.494653180667123,-0.10691685173903942,14.05911400199918
82.80567757230548,-8.909315241452108,-0.10070782914660169,14.01457600304001
80.43078562021924,-9.566303159972744,0.03553886536766911,14.019410853583642
80.86873961948343,-10.391011290861623,0.04215837297818535,14.018636494762061
81.00780759996486,-11.597149085652699,-0.05132162842453459,13.74789385561396
78.99171584171684,-6.98554590120828,0.049633266423229266,13.7074434950231
78.37511519925432,-7.451829707282229,0.010976834605837704,13.077113159142208
78.94976109071482,-8.440479330599569,0.007792666849241462,13.038956871915904
79.67046447463618,-11.418582494706824,0.06637098574474999,13.38700263277778
79.22374639472292,-11.940855064967064,0.05723796037884564,13.459695236892635
80.3548634852754,-10.623797764983678,0.07722813469654782,13.616080302275726
86.11179048943166,-9.886321393669675,-0.22165470413417349,12.839733561449545
86.11179048943166,-9.886321393669675,-0.22165470413417349,12.839733561449545
86.18855159516812,-10.354366584106725,-0.24423141725569386,13.524824577132144
86.95245592956114,-9.441437998210358,-0.29350058242386223,12.776044555670154
85.5471112816725,-9.109223169578216,-0.255700371994212,13.810354452529966
84.00174072885817,-8.270439623929695,-0.184977820165942,13.6034107631776
85.15741792448131,-8.650967693275865,-0.22228101806840755,13.475911271364376
84.5461745853215,-10.666898872672848,-0.1599281141592525,13.213743068319422
83.985842803332,-9.389408057149994,-0.18563468775658173,13.53718958006662
85.32415584747841,-9.775032450410256,-0.17475604915451257,13.204511867874857
84.53371102792526,-13.89956038376407,-0.12713203214674554,13.55247653162983
84.0558695680424,-8.860791141823304,-0.2426363937670028,13.174420195568809
84.98609641567882,-8.56525940423603,-0.2091430705077753,12.380950587990892
84.35831340257782,-8.121747507743907,-0.19050302323604895,12.83503957460999
85.9669029482975,-12.45224111117973,-0.15161143196584387,13.004685347875611
85.82788250915713,-11.174192809551679,-0.1797495682258613,13.232390156721477
84.95415269236273,-9.839806743701322,-0.2564717101903021,13.270390584618484
86.39601032167096,-8.502491577990256,-0.23310540177101652,13.016271691762208
85.14977077551252,-9.887057294253935,-0.1975309713082954,13.751159795989956
83.00972473050658,-9.665969551910393,-0.16739559079060634,13.830174552764175
83.83040670169233,-8.778417706303227,-0.16799894621961103,13.630348222319732
83.8778428151476,-8.446352058122923,-0.17095615986651383,13.080193479764548
84.058012596413,-8.218129445058462,-0.17809836797387404,13.409251390337753
85.20097661275675,-12.85520228176626,-0.155944865910042,13.885889088172808
84.11848592994558,-9.774773324786999,-0.16484783477584763,12.768352035860808
84.68417825647462,-9.73772257745382,-0.1888263641598315,13.670996387872488
84.44874455259587,-9.30293194898875,-0.16717045517771142,13.370882499674332
84.63209727093125,-10.297717148333012,-0.17366420118391912,12.660685141214653
83.296840218937,-10.062961901007089,-0.19136467829830034,13.087766658597062
84.15722804072354,-8.15884376133391,-0.14728823430582647,13.15131435487651
81.50885534888023,-11.439515071769508,-0.01462747797258055,13.438589642377332
81.33569788190313,-10.92454357652527,-0.0261465423174835,12.682405071703434
81.33569788190313,-10.92454357652527,-0.0261465423174835,12.682405071703434
83.87106402115464,-10.67993635638108,-0.15186204812831572,13.59882154265323
84.08822916753114,-9.805975983102757,-0.11758322811230293,13.02067914978128
83.62948743813091,-9.846413667617858,-0.18511471935261825,12.920960678736009
83.21807159287653,-8.224387986510473,-0.11602162858994071,13.307508547665995
82.45521666016224,-8.867061759854698,-0.1265106174997931,13.407259979181157
82.92880585351739,-9.938745183436238,-0.09067441591944028,13.078199455087155
82.23079129510282,-9.807159987684651,-0.06596504049711005,12.998212657105087
80.2670659782051,-10.530981275385367,-0.02434116509149175,13.24069686906529
83.92398786974671,-10.488823867895933,-0.08774031854366478,12.93963993354969
82.5460457084404,-8.457810248734933,-0.12267803792147534,13.289451140882983
81.28059981599691,-10.08730912517208,-0.02459629144040861,13.120747268853547
81.1108621266211,-10.506454353764699,-0.039800616630640634,13.010817026303169
81.28805392856192,-9.617618746679664,-0.04325109136721268,13.082935478646217
82.78282258979965,-10.688077522071888,-0.08437613548897765,12.977204430013824
83.59641504969095,-9.62708141603975,-0.18067144625642725,13.350294986520163
85.75337428407646,-10.481152547869804,-0.22220786397901823,12.972611231472978
86.39092664789658,-11.314162541794534,-0.21763258959421186,13.210114232142287
82.77977349076878,-10.869097035875043,-0.09184194852777944,12.574039111575665
84.20204299237459,-11.259557755718017,-0.1408736815348417,13.543279922633978
84.09264013510848,-11.016541510363167,-0.11066242414801841,13.271302392869146
83.62373854188688,-5.079798236202778,-0.16703463457553347,13.35872629421532
85.0684056102,-12.720553946054483,-0.1413286130147657,12.92518856577063
83.68925671892111,-7.84372897373838,-0.2134602999497136,13.310959105034165
83.33091199495328,-9.77099441441556,-0.1720098086225227,13.050923692159662
83.81129923960565,-10.994092471463876,-0.12272949866076055,13.07365689070021
84.53521543631366,-11.84883145390377,-0.11488618532897632,12.935432232730687
84.53521543631366,-11.84883145390377,-0.11488618532897632,12.935432232730687
84.29084138696759,-11.757743388537165,-0.11340913328653066,13.642444650277909
85.29618318052579,-12.261290863233814,-0.10132199263059641,13.32694649773875
84.15289246787671,-11.90471406318529,-0.12952217445889777,12.628254741918525
84.22896758386662,-11.394873558337187,-0.10456943111188213,13.383247991289007
83.92574188824315,-12.785016901066992,-0.14495480914293932,13.555546476499563
84.63768999701252,-9.44703151679683,-0.1496156927233669,13.5177256104736
82.97518604407806,-10.625577799510195,-0.09485024772835539,13.264266847829083
86.26773303258368,-9.246557725408985,-0.20154418198682958,13.29076280125915
81.85822302216627,-11.12456700015446,-0.07520992641338162,13.18259768097085
82.59684820144287,-11.102986034500521,-0.058585171772805505,12.897423271215413
80.95728121393637,-9.593226144584099,-0.02454854652569368,12.861474937807518
78.97159900833735,-9.748610773819804,-0.010430610154528279,12.838368277262159
80.74030441438671,-7.526550474357705,-0.021458729627064126,13.249930592452348
78.93031070136311,-7.435553728857734,-0.052303591674360744,13.101844029466093
78.93031070136311,-7.435553728857734,-0.052303591674360744,13.101844029466093
83.28752481748745,-12.689893295861383,-0.09856631371280439,12.920242328064791
84.07566414588888,-10.009398579797542,-0.15893266870286746,13.495807184760647
84.59141283664809,-10.654902107133534,-0.1814462103399944,13.403675465382554
81.81594632322941,-10.13764641756001,-0.03830726512534974,13.260932919099194
82.1449165748693,-10.2047234833749,-0.08264181287434502,12.645278113185885
82.1449165748693,-10.2047234833749,-0.08264181287434502,12.645278113185885
84.54532283406594,-11.181972153673282,-0.15494617602298358,13.457130081521722
84.39303993949326,-10.511250848550361,-0.15082720667310234,12.728002814751203
84.71299494159531,-10.09054967209978,-0.17098347222874488,12.555350661661997
84.66562154628555,-10.048416183075766,-0.17321047542513715,12.325354434804016
84.21755095899833,-10.741953659235163,-0.19935518706641395,13.159880626675776
84.21755095899833,-10.741953659235163,-0.19935518706641395,13.159880626675776
82.95522650428865,-9.036138601434427,-0.12024736786257059,13.37480405841209
82.5281066628059,-8.132101407008852,-0.14449525467265867,13.038682257033054
82.2099319908614,-6.410723907372846,-0.16725753024355652,13.028215959213323
82.68538377636489,-7.901963765703404,-0.161555535923054,13.435966391308892
83.77380286665306,-11.898272435822774,-0.10221353902868321,13.044277675586368
83.50718492772535,-11.519252377956647,-0.13759451599663863,12.945274846142471
83.50718492772535,-11.519252377956647,-0.13759451599663863,12.945274846142471
85.11945704221408,-12.005646619669413,-0.15642163442986595,13.450621388933527
84.62262491434457,-12.457657210860841,-0.1650060557764939,12.776118272408246
84.95697623062844,-11.983437317193921,-0.16820623027843712,13.469013115881525
84.95563098789073,-9.897150913845127,-0.16306939612991722,13.38595213592479
82.2912817210568,-9.438346275258716,-0.07917081608365513,13.316626921242037
82.48042686369546,-9.728999882618202,-0.08886042267806668,13.324570844354856
82.39827731628807,-10.330936009051612,-0.07638892913298391,13.278878847055108
83.25595482595111,-9.002787301093942,-0.1283667557277615,13.134561770291617
84.07396010833865,-9.493989286682641,-0.14218183229160344,13.223703212535995
83.91157391576809,-10.353465103612406,-0.1041580060246683,12.954759388308647
84.02736119915937,-10.713002348743949,-0.16352217012004827,13.308147173131315
83.42719570331006,-8.330821490686144,-0.10689749708860488,13.013393478677687
83.11333027607525,-9.340599826494712,-0.16336349276841083,13.337830393380745
83.98404851714591,-8.897802023429817,-0.12762672434858266,12.751529947742531
83.96424937214465,-8.901197132123828,-0.1454357207193054,13.54021344646334
81.85187044395087,-9.074094093592219,-0.11537707765826431,13.192037727962186
83.18864601121736,-10.437042930617574,-0.06594595925970119,13.161008360259096
82.23150427079308,-9.708962785189424,-0.09684433575203757,13.305610153164949
79.76784413981665,-9.280416886327012,0.028038095309621838,13.341266122175558
80.2999476126898,-8.540690909404793,-0.019169938343705593,13.921939720917061
80.1557622944638,-9.479176337955394,-0.0029829209695428427,13.836490109955529
80.1557622944638,-9.479176337955394,-0.0029829209695428427,13.836490109955529
80.26948464338237,-7.819913807847334,-0.030380676194019383,13.866040011644095
80.03452684228012,-9.14134198828403,-0.0067329859393134685,13.138376140846493
81.84246595644449,-9.274612627921327,-0.125108415423197,13.42606056698224
82.04875124713944,-8.13130585027568,-0.11919965325733488,12.79910329530785
82.30835054284675,-11.39993434443515,-0.0509977986255737,13.293045822252214
83.07118788527386,-9.521384487898068,-0.11413785819592984,13.088186815496263
81.93069953456785,-10.514811875019898,-0.04063293436359693,13.703807645674464
81.62748135427087,-9.734785944360883,-0.0529279835148858,12.437180893596734
83.05382046146194,-10.247671240222884,-0.10428080747700497,12.535867369766475
82.80779495009844,-9.592450346092539,-0.09756564629471763,13.511146723398317
79.58310381857272,-8.806094982150245,-0.02298080493653759,13.270027517152137
80.3635069716811,-7.579830713160115,0.00623640715665704,13.220331567958501
79.54471799578474,-9.758046066834359,-0.020059406244095152,12.745952471344962
80.52356484174938,-7.313665925595264,-0.02320979587090423,13.275311798165271
80.02066697618966,-6.944752606373439,-0.058860340097827646,13.520418454468619
80.57819640267799,-9.740899573050738,-0.03672866989606042,13.675528238541915
80.4431939546385,-9.259984583437342,0.00028887265267670686,13.531530000013458
80.5284233390986,-9.453040383216049,0.0030494663286520854,13.259461354370414
80.56333639692278,-9.8106337793679,0.01473159984526319,13.202595903707842
79.75655356547713,-9.176703773779508,-0.02352897608903426,13.18838841107832
80.18999088894756,-9.113148541599063,-0.047714067829382326,12.886061898067082
81.62063736766379,-7.749651231040843,-0.08353657875821692,13.086439715665394
84.03230395320765,-10.970999424666033,-0.12420705465823142,13.444385440885029
83.81277194166677,-11.374797325200824,-0.09444703618646791,13.136731568739
83.81277194166677,-11.374797325200824,-0.09444703618646791,13.136731568739
82.63200765972483,-11.560995764325968,-0.04148995415076977,13.048779323314589
84.80508517899732,-8.181104369005702,-0.2264800349706716,13.354149110378476
82.33506738661617,-12.128160222596792,-0.04963380838670199,13.233947502538914
82.62819470390444,-10.351280778414786,-0.08264000340726202,13.115598504409748
82.02852517124242,-10.600026283956002,-0.10937957691920101,13.129737721549573
82.87890911749159,-9.653373359215015,-0.1025761465010595,13.46483249485451
82.58718424256335,-7.909811668934193,-0.11760018793290695,14.083711884339756
82.50545115316496,-9.61365577399451,-0.12744876361709442,14.106167301806657
80.93470488848108,-10.499376586551424,-0.026833134474801713,13.667954758364177
79.86906000994546,-8.02063466426808,-0.012066302698420515,14.069587861147726
79.20136915150815,-8.934032723260987,-0.0005758683720536676,14.003682457116714
79.30956191115936,-7.659364933249847,0.01021652712970571,14.056559145820133
79.94587525365813,-10.5647994285461,0.00990389178790611,13.275765423105575
82.13779011955296,-11.470614089114015,0.0009808702897559068,12.736313741874614
81.69552054159401,-12.341091669893132,0.0003125918661120962,13.770172491997947
81.5413645769109,-12.527164903175066,-0.03818804489182834,13.876720233892511
84.38756576144888,-10.507267395973278,-0.11907639828919728,12.199069170442685
83.49552546045797,-9.784215034549872,-0.1651323430758333,14.12610761854113
84.12278190123853,-12.273189198263534,-0.11307915052953163,14.031805941597407
84.36599497838448,-10.972051425004922,-0.12863747851481214,13.311960687517809
81.61618337509216,-9.321714850091272,-0.07019685522238678,13.74992888915188
82.95031393759037,-11.989708552386631,-0.06599546435632489,13.45621943712532
82.79872825800385,-13.145631673275796,-0.07803274311145159,13.604007753648288
82.78717839820216,-11.164838624131612,-0.055705475874450974,12.591412306252757
81.41340888853281,-9.705148841930662,-0.013341941126840562,13.73484456126956
80.60007495330576,-11.740826181600852,0.0009902268980782128,13.744994347330469
82.34876242773095,-11.217344923901248,-0.02074828298253807,12.707138275503768
81.63725498949997,-12.132918803412428,-0.03921883174411321,13.35034300297453
81.8198296315637,-12.09350440097252,-0.0073739940076804865,13.262474896503454
81.11761514786356,-10.14981615955128,-0.034490219573970804,12.67270967908246
81.17417647674459,-10.35402548015451,-0.02313210333038654,13.530418184703283
81.66947657224713,-9.22292685296045,-0.08914925363940045,12.298363227730562
80.45691762041112,-9.454319574986636,-0.009592934260621501,13.642829755857893
80.42341699929528,-8.590152072240544,-0.031059123490765318,13.461711868782297
81.40966774922555,-9.803848845251434,-0.0015064060775468353,12.523362825090354
83.52305982975317,-9.52995458261509,-0.10465250803543416,13.246313553486699
84.61835051810449,-11.15599462150478,-0.14188510896037876,13.252898334285048
81.3199545799608,-8.972773782477399,-0.05875855454777716,13.039173354357322
81.52565775646012,-8.046445508423064,-0.07170626227241952,12.913029368949154
81.42344452274261,-9.145105030417309,-0.04960187178816515,13.03730450660865
82.09506861445385,-9.382646958919878,-0.07145841089884478,13.295821544338922
80.41741812004231,-9.75932732870325,-0.0031979478725841365,13.280599298653497
79.15264575081318,-7.7993045953411295,0.04337445163034456,13.540945632373534
80.10813640021959,-9.761869576811035,0.03373296576629808,12.92748173561369
80.12093336045004,-9.049884923461066,-0.033281370927258594,12.791286212501086
79.533447617831,-9.111163667300147,-0.05136700784754175,13.519233676848009
79.46122401864896,-11.505464787237038,0.019579483513808213,13.651068853818868
78.45899637532294,-8.12768624655192,-0.03227342502883324,13.638049022880255
78.87856801312078,-7.05884926409104,0.034114347680341425,13.411202854520418
81.45496113297719,-10.929290444870986,-0.06227845930515326,12.913751211188645
80.48593574450076,-8.874776519548842,-0.007081309741413175,13.124133149569754
81.12056627647996,-8.062599612252503,-0.01625384318882083,13.71294836789015
79.47595492052893,-11.789590242695725,0.03806498168619275,12.627897363595688
79.84969088534092,-10.425104224565919,0.06979903377072073,12.52257158805148
78.33046932408135,-7.313614933242154,-0.005996250176037814,13.615650450569827
80.49335992821248,-8.788583114702849,-0.04457022670805684,12.485935559723096
83.13941278231522,-10.613519185607776,-0.08273581209278906,12.766193527052492
82.33927311340594,-8.522492453259476,-0.13557329095188422,13.136842528835496
82.028577682415,-11.918839690666665,-0.031895339472476913,13.373951146363552
82.99469151542857,-10.370657855465387,-0.12513309877186196,14.065170251863995
82.85953353574858,-9.145782734684142,-0.12237811260262738,13.995640735595897
82.81943307702757,-8.537001495290687,-0.09713626271332261,14.091387473900202
83.33714027800333,-12.406277184803706,-0.08893190478419047,14.055002817119936
83.86815219001966,-12.65332429546863,-0.06374300654566448,14.099637966226418
85.05928981607124,-10.34388690783531,-0.21374434800400177,14.133491380655297
83.74158610985039,-11.380278598049486,-0.11722820503831682,13.598057899947074
83.98499368098032,-12.672724038263075,-0.11985179481049824,13.16745814134144
81.33917425271663,-7.560640093840878,-0.1440218233313056,13.252371001214186
81.96168918457376,-6.135042190515367,-0.11997482884845422,13.258812255005534
82.39519851826563,-7.507989049905335,-0.1335395904500266,13.313260837464151
82.72278161330401,-8.190425200463313,-0.10903796144225787,13.625295270093527
85.03361971703252,-11.066467131157458,-0.16934689589036703,13.308149301274538
81.92812874741459,-11.08994517045329,-0.03358830136143324,12.846911336491686
81.66722965802231,-10.262152640783427,-0.05958091344514356,13.238240196662082
81.03180858504581,-7.680842727496801,-0.07040810111596432,12.638998105213389
81.84582583746506,-10.659854011438119,-0.08729821756461004,13.528599846487362
84.33437417620512,-9.014686365648203,-0.17289472903622344,12.756460341488545
83.58876253135425,-9.70002381725893,-0.1653475240148098,13.457253665860359
83.17656700733701,-9.562922288192619,-0.16988303383467923,12.784502622605194
84.01238748663751,-9.682549853739706,-0.08785603375941903,13.252679851075708
84.9007331501574,-11.59362985632625,-0.18537962424857302,13.091965343735577
85.31930911185958,-11.192700852834486,-0.19697798239880032,13.181366821094388
81.97289310321418,-9.75830414502848,-0.09242134253674324,13.746344056771775
81.37435829781461,-9.78312266222341,-0.02946312674460489,13.826656353335048
82.13667265058267,-11.031419631220551,-0.03449294808168853,13.49184670859874
81.70694253154204,-11.168913146127602,-0.030495767620313433,13.858074649485683
82.07526011079902,-11.12738733770639,-0.0247796846886222,13.87703799466007
82.30659453206975,-10.982855747556243,-0.04834240854828842,13.661888878135077
82.09632797969212,-10.773283315129415,-0.05675653426928583,13.0372008025439
82.68825563407654,-10.702470928129078,-0.07693736978019297,13.032583830321592
79.90992158791423,-7.986742939396472,-0.027443943050634082,13.03718818046908
81.14304554027572,-9.919117861032802,-0.04911269576431438,13.091647885610792
83.3496033300721,-10.433257396854291,-0.09157237931049458,13.323735693673719
83.69583456728216,-10.627127092167909,-0.09451854939145868,13.470962200553183
87.09408140488219,-10.077562610812553,-0.2639796017676841,13.520700180314204
86.84123918917587,-11.116790116384472,-0.29508415473461447,12.971313802689798
88.40955986057685,-11.041898396815835,-0.28477551520673755,13.551428478304459
85.41877592360204,-9.791127715783558,-0.17863114865146007,12.82675954049277
83.42631516094448,-11.289753968613935,-0.11943325347713377,13.124194345690334
83.30213956203056,-10.72086829930933,-0.08750973384355452,13.5237667119447
83.17751436372217,-10.477978019181165,-0.07666919841224953,13.010242398128364
83.49732143296087,-13.005825255964794,-0.047356473803563545,13.089327381135362
83.49732143296087,-13.005825255964794,-0.047356473803563545,13.089327381135362
82.63929651733318,-10.386255315065243,-0.10321428392657446,13.463040478751926
82.94738909388833,-10.62901373656383,-0.1047913470432055,12.539492901057251
83.7339591817101,-9.93254098079606,-0.09049892291583946,12.888454875070028
82.55267963695614,-12.14454528800164,-0.066519790383314,13.385240181430323
84.89790141301403,-9.506084141694847,-0.17534012682041472,13.695548530690933
84.2565257765297,-10.246912078286602,-0.15309079322362026,12.991715459726452
81.38575677350617,-9.26343577980953,-0.05563728263337371,13.28106563089577
80.53335181395532,-9.479428229244213,-0.012969493676977976,13.342233743890274
80.02635177669089,-9.918302208940922,0.003926589818093015,13.574350414686362
79.67499648576432,-9.935941059487133,0.014823527652480777,12.533469439549604
80.42653238971316,-9.189390688632603,-0.027283666306501683,13.5340492820132
80.18702019382246,-9.197207512176252,0.0023675810604821754,12.525224377984637
84.38137833095524,-9.493802295546455,-0.1371636969974247,12.935297455294856
81.88475170926382,-10.682125420681595,-0.042647713077943766,12.333660288269193
81.96418608901095,-9.987842682334978,-0.10210963304554399,13.678849204964447
82.29307729311111,-9.231489216628773,-0.07282647854456098,12.905047074228738
82.677314370047,-9.936032794614578,-0.10004173968330092,13.211713306284757
83.58128653151722,-11.427745593518768,-0.07961850780044695,12.943380509980216
85.51256439178424,-8.207807703069069,-0.24423313721208645,13.73113098511761
85.28059174851838,-9.147352357398209,-0.2233960140655919,13.074676386744573
80.64790638671924,-7.993711592935461,-0.03937757110236074,13.40981723840831
79.82576553379235,-7.854729150314505,-0.07815027327855253,12.803615030189286
80.58969892639375,-8.59655261819605,-0.04494484482797663,13.528081542484205
82.29455342833384,-11.47323162486429,-0.051047644148766204,12.273349296934853
82.22631225673567,-10.241518126439717,-0.0882789868715892,13.751724432622234
83.06691997649219,-12.37822021040817,-0.06412991348362002,12.20154890143651
82.72004359444117,-11.518103058207254,-0.07228579661243745,12.761667408862078
83.1846942439642,-10.287906327900485,-0.069473697250593,13.300732904795709
81.75161173366574,-10.641209473526459,-0.07316976106076412,13.619550240845502
82.21187931840475,-10.19700877597698,-0.01844479584029083,13.862358851820238
81.77666558953084,-9.900945084997966,-0.045586151122681,12.363382304510917
82.70304484028152,-10.819151520087685,-0.05236347592078621,13.736307021444862
80.23541300384845,-9.924561432064085,-0.0824400783146012,13.631556556231702
80.59714538077642,-8.661332519015772,-0.07910467603274962,13.15041898489668
82.80737534448615,-7.299040261047617,-0.1367701763499711,13.956446453253497
82.701315879819,-10.380332573416752,-0.1148417716378371,12.484639412908463
83.07319422852588,-8.765890223507967,-0.10211159619202237,13.526004418765215
80.10694056397912,-10.071562532294449,0.05775516783454287,13.516071188721721
80.33732920214248,-10.60901916419959,0.039160320401806566,12.879349791843156
80.19896754255244,-10.11317957842342,-0.012966833822328026,13.134775605686285
82.18764482987902,-11.459906669991286,-0.051374265430934846,13.111481804492968
83.12480325929091,-9.446899118897475,-0.07211444450797223,12.939480849993497
82.8323946625408,-10.593709553621743,-0.09304883687421836,12.75676962373051
78.99479458190089,-8.526653159458466,0.01900472148962069,13.151370187389034
81.47140645662476,-10.51759782824571,-0.01576801691572163,12.827008899798852
79.08225981937636,-10.306290368235688,0.03186024386491408,13.252079244146902
79.7523959708686,-10.687531899351058,0.07482552559355425,12.987415839191383
86.11025698145765,-11.17145367274754,-0.24662526732220744,13.090581336452043
85.44137440629635,-11.592115610581105,-0.17711938607741806,13.598227029889324
83.01827797945863,-10.387777110660133,-0.035756013026908166,13.705589871124173
82.71070076586707,-8.796424158321667,-0.12111210634493372,12.777863411785633
82.71070076586707,-8.796424158321667,-0.12111210634493372,12.777863411785633
82.6457863847271,-10.060294460004744,-0.14569955875720506,12.869333359218041
83.25663023330372,-8.233044109251296,-0.08031154912117672,13.13615519267713
82.44809982995547,-9.10153165212841,-0.10654557704395598,13.032399156411422
82.44809982995547,-9.10153165212841,-0.10654557704395598,13.032399156411422
82.44809982995547,-9.10153165212841,-0.10654557704395598,13.032399156411422
85.20770673344587,-12.813622225594381,-0.1535596464123849,13.092606349368339
86.07809713182425,-12.196807352879638,-0.15166957766245728,13.139742147660787
83.05346561281019,-7.312543192863787,-0.15566924755875308,13.255399316634943
84.07377296891697,-9.484510370050115,-0.19003146827035566,13.297328068658233
85.1548459881016,-13.108972383538324,-0.08831748118625055,12.909344078745104
85.19045321414605,-13.56456485399041,-0.09610539799413213,13.234471049393719
83.18697228450984,-9.68564383179844,-0.09972737509461642,13.106073714982669
83.43771236212964,-11.384994741753971,-0.11185002767433887,12.81117622184179
83.79364660685442,-8.451325042027026,-0.12363001164279597,12.437486793974237
83.19802018092459,-10.105293261919105,-0.17158705351519266,13.74738449387882
82.36606276430764,-10.81661206418753,-0.13015228139541826,13.742217190845707
82.59852680420255,-10.486308808090548,-0.11917239218587171,13.734860365458891
83.68246939374866,-10.098218908343418,-0.115622577616706,12.259632197378313
83.7623555520498,-11.34595848931406,-0.09924246992306224,13.295309655694668
84.24355867145678,-12.019063998457522,-0.13591511628462094,12.998572324328455
81.12788551686751,-9.108535608566056,-0.07291025339281834,12.798229003240015
81.42002011932068,-9.242773594581793,-0.051135462009103475,13.154969091018394
81.02970902530349,-8.296502150462405,-0.07913809019228764,12.832821026110926
82.20367598553558,-9.47106090260758,-0.0601831160473629,13.297843046196432
81.52773669194674,-10.726624510376233,-0.06275836541933773,12.636214724758474
79.08381670913971,-8.426834227282646,-0.011562241772310305,13.899293085755177
79.15617713033532,-6.987871667985643,-0.022420125525113584,13.902063681360598
82.25391602726285,-12.906936705197978,0.009175349138627147,12.486667771026589
81.68037210225609,-12.87898951050504,-0.00896628928769657,13.242164555454224
81.68546573739621,-11.153834556853285,-0.027085379000759354,13.520686303925402
82.82318822712628,-9.75545725912012,-0.12077441947020529,12.567468170767446
81.52700293208949,-8.41225004359487,-0.0990896732097664,13.39269972037072
80.7019364378395,-8.50271534884387,-0.08208665522148434,13.468375311183715
80.4816648481049,-9.163826573913338,-0.051306103144419565,13.35421123127166
81.19502527864928,-9.651436329901134,-0.02971859106914111,13.008250235696375
81.94128741290628,-10.78792494117507,-0.018001100306368187,13.667897123614551
81.51763607564743,-8.115147287697136,-0.0743626418433373,12.224455716301462
80.29356402610992,-7.676861334440938,-0.10083774053924317,13.506091196006867
80.44651716391708,-6.417514255863852,-0.09388561694518051,12.900327955782291
80.17867037648246,-9.617911991350406,-0.006075982436327031,13.259783384491012
80.38920883109326,-8.742070759745857,-0.04012019976506905,11.87723380974998
80.38920883109326,-8.742070759745857,-0.04012019976506905,11.87723380974998
81.1210161932545,-9.338057994614362,-0.04514034197029796,13.163055031799866
80.76005382179552,-9.413113365210355,-0.058031058001037666,13.515967025837249
82.2412164810969,-10.14205885526156,-0.10917736029953709,13.240257462190234
83.94831018570967,-9.739124939820114,-0.09818752921370935,12.939355476628757
83.54550168963333,-11.913114672104214,-0.10739473529115534,13.027450923156488
82.39673480308097,-9.049988827020691,-0.13701676315904582,12.585597802034266
82.57898126439605,-8.659236219360734,-0.09554382072616871,13.623231988983596
84.69979094566546,-10.173839331490813,-0.14508850154554043,12.897716897633604
83.93352980788846,-10.163130740089224,-0.15532547322185147,13.084227191426665
83.67636378128648,-10.101874235676135,-0.15573726531652185,13.062770024619185
84.50899990193385,-10.92703634910234,-0.09933939377525894,13.217531376971449
84.24839729769695,-11.735409243992866,-0.13431438531781653,12.840028065865486
84.80459268265936,-10.064904347328785,-0.14187723660659657,13.261245149414833
82.5092030484722,-10.467218728197354,-0.09991563112903086,13.150781852681103
82.93202438944571,-9.731384477512128,-0.06398200139519397,13.478677383521422
83.63468635126065,-9.402779278081246,-0.15279033275594056,13.210919312948
83.19272729029274,-10.90241166580135,-0.0702164742646115,12.969550735322823
83.79284751818662,-9.388655520871103,-0.14703350794238837,13.223318106028689
83.18889496708877,-9.623917295867308,-0.11026737457352322,14.104031853266132
82.31792640298619,-8.569637611584694,-0.09099962546898906,14.125432681379433
83.66057596527214,-9.922895071798843,-0.14505486367291717,14.081559325143363
83.94792117490599,-12.155597848158083,-0.13553783970506336,13.942806872626203
84.1410577980201,-12.057672202143037,-0.13711293740984257,12.93079668829018
84.2210532540826,-9.191587479763005,-0.19278924933770747,13.073477316803597
83.24233904336708,-9.936247103877308,-0.13661868065454294,12.94356803358767
83.21930571113042,-9.455813463272921,-0.1624689328500493,12.208402977383324
85.45756823135125,-10.40679744876399,-0.1701217496878603,13.470612381634599
85.30032539902255,-11.441566109968953,-0.2288901106215348,13.17854698143776
84.00069483545947,-9.65862444765513,-0.20591116545271226,13.139994758311799
86.38126713710356,-8.394018597644507,-0.2583829400250146,13.120107789931916
86.22487051168694,-9.966416381981063,-0.2776484654549948,13.20582738658556
85.70371930508915,-12.834274372512478,-0.1762551020975209,13.718722987139497
84.9112825079149,-11.575142363660666,-0.14955640014435045,13.8401937682442
84.89084442303219,-10.892527889367742,-0.20070097015583574,13.838355295542204
85.52481752349362,-9.914931592779082,-0.18351711499685078,13.603907687812278
83.98126373142982,-14.085127702257546,-0.10279699379998991,13.362729005427099
83.97934031104373,-13.78962590173804,-0.10226888495986848,13.50590899581259
83.3771102751872,-12.032739761489609,-0.0789200281438134,12.916340081516475
83.41988072861453,-12.154891022074075,-0.08984402139461149,13.544603689783157
83.57219862693366,-11.249553204918552,-0.09058956718861216,13.765678458339407
83.23635568792228,-10.529879381381003,-0.06315009616502987,12.722643951201862
82.95439271439784,-11.472849989401961,-0.09333467943131696,13.419069619581729
82.13913032227613,-10.201171665979572,-0.07008143225161735,12.926349620720995
81.83384034386329,-10.189275643076192,-0.087139867084124,13.51569238010993
82.53734159269403,-8.093612647038995,-0.09994873445725355,13.76226103456863
83.06067097599127,-9.31700922468138,-0.10769856352685678,13.50815102462759
81.92467158806906,-7.562625597894245,-0.13809955271131075,13.570649177634033
82.23667047855267,-10.771047861005936,-0.058716417275373536,13.63834399146829
82.18888688450197,-11.153834778527095,-0.09456542814237015,13.595354926282342
84.89455051866436,-10.825514117795008,-0.20813351458005264,13.426296958722096
85.21677050909537,-10.612735955687457,-0.15051158166006406,12.896157545343605
81.3739749377325,-9.202705544254293,-0.0807204083771671,13.14713942790732
84.59461317755496,-13.418222134207786,-0.11052082086611195,13.532861297305702
84.82747484144537,-9.216345669476457,-0.2060066554739766,12.825910182278399
84.86742538220152,-6.850249272976382,-0.2661920635947196,13.808540966223937
86.0066863817235,-11.127361419280192,-0.23664762186131819,12.826382343823902
86.36433923085065,-10.782716601476597,-0.2277816790583844,12.414604146172296
85.59535610340463,-9.562807196725833,-0.2301102575937115,13.44130159238132
85.44522203488091,-10.332467321114942,-0.253324170368189,12.802266506640613
85.44068614925729,-10.069792152705334,-0.24139117621176132,13.01992598711244
84.82801289396336,-8.717183482522822,-0.22270177943062117,13.360383558642667
85.10451178945914,-11.404330629451866,-0.1547594197363084,13.31930023553295
81.58771308521109,-10.951545598051467,0.01594219632544017,13.16531318822465
82.88805083031806,-8.296320922666286,-0.11988488484402574,12.606217538138752
83.3546021315151,-9.196150169686366,-0.1033722977622046,12.894329825537758
81.27178347912553,-10.670529693821301,-0.07487924034514941,13.40690115524235
81.07013125467842,-9.184730261356254,-0.07449113123413623,13.389667257364595
81.07013125467842,-9.184730261356254,-0.07449113123413623,13.389667257364595
81.81937352617521,-9.334396598410576,-0.061339492702132174,12.41633709062005
82.49856711425561,-8.889904634309676,-0.028427574257331494,13.303113928964239
80.45148200709525,-10.438535264093055,-0.06057888780975474,13.772959195139174
80.91994813508117,-8.837808562921474,-0.030628913705957606,13.77154116628092
80.98027056889275,-10.000749781304078,-0.04968250200484918,12.748901817567955
83.23513057726501,-11.068550868148552,-0.048331700079195634,13.56776597342416
82.85088438105207,-12.663431323577553,-0.08473458718916707,13.15971473687339
84.9355999258256,-7.514423824880746,-0.23050073010234023,12.541800741037125
84.48241167134107,-12.216385827213207,-0.10462972268638969,13.979883462877318
85.04255264516725,-12.392826006855488,-0.1406876814076792,14.10394598327511
82.6233377958999,-10.35624385046978,-0.11694392083572763,14.1066085355404
82.5483415673226,-10.718518960688696,-0.0738526317781689,14.076387901744438
80.82808323145905,-7.923515015069879,-0.041297897336554645,14.108335927291531
81.16826738075562,-7.832849413113231,-0.07553780706948991,14.149346039168446
81.81687860364559,-10.929666515808293,-0.04428246514950189,14.132507504781445
81.12227869028116,-7.110061532822837,-0.08760189635305327,14.060084549244513
81.44616349486047,-6.808251949056696,-0.09313214856079796,14.078842634667618
81.96019445285685,-8.874730679115512,-0.11577547911053783,14.098249144022558
82.62563664452742,-11.00103804038146,-0.04052184245835423,13.919313228283297
82.62080404118436,-10.518653021269602,-0.07555486797416429,12.78691740346516
82.1807829310096,-11.43360896072699,-0.06638626683655352,13.504134306750872
81.02663196728827,-6.5375832136637815,-0.10058528985776566,13.771271272233209
80.76409711754556,-12.96415647918422,0.06077166431968094,12.489497153936117
80.83460408673903,-12.784647469433562,0.063439343131535,13.162778034889605
78.52915155395067,-7.50450810143643,-0.015918563752502515,13.242836316465558
80.53226078503076,-11.860964325499049,0.014123455106352944,13.574381679616415
80.98340207792677,-11.595010902263615,-0.00786025046124239,12.513478161911218
81.05831222379834,-10.936291308122021,-0.00796487976617843,12.445077463506706
80.93993422865591,-6.961861941760656,-0.09910203764103917,13.716036415849905
82.2744827234384,-9.0641542838999,-0.11792937240814833,11.999736875938428
81.02628107582494,-10.034778861192114,-0.026748292776692526,13.815146318689656
81.73521434160757,-9.952908217106797,-0.0724837609435776,13.8876240783962
83.32714949216911,-9.580640598999496,-0.13625030981599306,13.296266450083925
83.5375209058049,-11.833880025010991,-0.11619325792711477,12.87162358054611
83.62056026267491,-11.183622685018127,-0.09365441126522203,13.168121405735128
82.23003644887234,-8.993224656555375,-0.04727687867982528,13.637569960459738
81.23996836849996,-7.1800450389282995,-0.1711285518775978,13.027406991087046
81.85232535134143,-9.157327866482706,-0.03542439701376687,13.752077504726097
81.48487251797849,-10.79325556037532,-0.04651125257994956,13.890811748986986
80.65624672670026,-10.321667990485215,-0.013774277880939084,12.821625962269263
81.9345001807302,-9.253391224696863,-0.12515915973827157,12.826408837498184
83.09079755573356,-8.791654251630817,-0.10633692718445512,13.651001232426665
79.86559660959239,-9.158206521289504,-0.049341656805570705,12.386650854067302
80.17603139108829,-8.978431914670246,-0.021137863178237824,12.561607437562117
80.82191398275975,-8.4987370303226,-0.008764000221846285,13.359890331446804
84.49081274295477,-10.812858625219187,-0.1782426616471612,13.227184734454436
82.63967915145291,-10.277675919101394,-0.11282198826484834,13.519701278854244
81.26271309900046,-10.444552100133036,-0.019366394381920726,12.98170340166099
81.26271309900046,-10.444552100133036,-0.019366394381920726,12.98170340166099
80.06489274401767,-9.895851494824461,0.04349639019750984,13.28800763955726
79.30952715981473,-10.736366009422909,0.02922437632557602,13.202220798831029
79.50243241085835,-12.121244632135111,0.09082866794961941,13.446327679640644
78.98834026929863,-12.54068463189252,0.08345049453322533,13.726747486124193
77.67177309310723,-9.188898298150669,0.1195056111940011,12.547007198582321
77.67177309310723,-9.188898298150669,0.1195056111940011,12.547007198582321
77.67177309310723,-9.188898298150669,0.1195056111940011,12.547007198582321
76.78879040966996,-8.533693453774708,0.07819228304949787,13.451206070848896
77.40226362602863,-5.752757274045826,0.04832449337546129,12.99798380414971
81.9852909494882,-12.29589935121473,0.02834277690719037,13.158729722021027
82.78038299237058,-6.770562145925896,-0.19122587882480147,13.316167101952262
81.64959696985188,-9.455556787158995,-0.08272835586190319,12.773235655854624
82.9430491807463,-9.343756825407302,-0.11739360793285103,13.337220764309073
81.83034364657827,-9.691476041741396,-0.08537940352115346,12.47349596603653
81.83034364657827,-9.691476041741396,-0.08537940352115346,12.47349596603653
81.46728639673228,-8.782014951858898,-0.06861530200809815,12.519000481289197
80.9854783938669,-9.993118492737652,-0.0610896374632624,13.426669679803775
81.5885470742978,-8.384696870534318,-0.0652651079482251,13.000628761534571
81.17912686426772,-9.96499286140921,-0.08217132621134819,12.995822015326633
80.84588563555171,-10.28270101496136,-0.0872693215755654,12.949284492314803
82.79071549848899,-8.81410526158057,-0.05505718360276972,13.149506457298783
85.29969824239438,-10.4205195804148,-0.14329337838926054,13.27802104771145
85.83890674325032,-10.833366639060646,-0.19671218451409977,13.471037805980249
85.25264499537015,-11.41908674434824,-0.20066094933203243,12.507100950720217
85.82422689254993,-10.049411924040877,-0.18946583973267725,13.50574339120441
84.59858066707608,-9.389844559605187,-0.2296759447445535,13.23939681349024
84.44578014005307,-9.449515258595216,-0.23541357574002394,13.594771105782952
84.4638741608014,-7.544117438787676,-0.21337716299348655,13.448103750150732
83.49222761294995,-10.627828443013467,-0.0829424257639073,13.553343468094356
84.1179332797638,-10.920444908831003,-0.09718646777210786,12.419930934376032
83.97960130586334,-11.421826450553946,-0.13082484117145685,13.651129164269623
84.04716314865595,-9.936275734464829,-0.13963160656939644,13.817091786410318
84.19256968225602,-9.685662029841772,-0.14622509350565369,13.121336105038749
82.52241982015936,-10.607367463506073,-0.04995097169896752,13.013629454584025
82.68069270684992,-11.03673953094547,-0.08531530856254826,12.952051691688517
85.35080801752514,-9.881600264784241,-0.23768157506780224,12.99299718208845
82.50446622694308,-10.742411080946617,-0.09301845566894305,12.65085349609077
82.63207965715473,-9.40547121119963,-0.12129899725862042,13.271598455303295
84.07106675590975,-9.463029948803367,-0.18131536330946424,13.076386340319827
84.99306534587964,-12.582983309111675,-0.11797182832698763,13.097431797949199
84.92028982040402,-12.775792908351523,-0.13391780399003958,13.592308286650562
84.40878792891102,-11.874235793574654,-0.12005653215464551,12.768452025577934
84.40878792891102,-11.874235793574654,-0.12005653215464551,12.768452025577934
83.44092498486808,-8.480797804355909,-0.16667622698824253,13.14168337439536
85.99906705396486,-10.648117641841727,-0.23120977252821584,13.482531366015124
82.11890321587336,-10.390884149626402,-0.07912856606672869,12.623279185982955
82.31525995002747,-9.108761444298155,-0.06517558834484355,12.283823174397948
80.9592450837333,-8.295834520312976,-0.05315733635768681,13.640395971354424
81.66909947653247,-9.106098890312936,-0.08480288083512488,13.40126765907698
81.46375422754102,-8.851474533266456,-0.08207640934082625,13.281855375419081
81.59973643292066,-8.599446669254208,-0.06957805250487697,12.866510701447998
82.07834976478125,-9.618001017612453,-0.028042608587310808,13.5419798792545
81.67452984576704,-11.078116868405335,-0.05985186076732808,12.7095804863285
85.79558651047324,-10.182156951762064,-0.19958601761203085,12.798756770329943
83.2709173619696,-8.15499925423598,-0.13245350620198623,13.3470148881714
82.92057434430848,-10.021128186747234,-0.1609794507977862,12.80955746964907
83.34667393119632,-9.6090415291577,-0.16180783863111528,12.867526035985449
83.6984225498561,-8.968646844186084,-0.1189682992208387,13.100874396549552
83.63975442510804,-9.018846849488567,-0.1350545385198657,13.609500535249564
83.28936743875579,-11.37177794175475,-0.11384798322769896,12.96396926308599
83.58822949190477,-10.418232484237329,-0.11109257041202351,12.109194271487874
81.9697143010351,-9.393197965904209,-0.07829340975545879,12.162522303884254
81.90273783204066,-8.779839899016684,-0.05758581172553706,12.785372265792745
83.91007019212168,-10.784285837915595,-0.08540936009646183,13.554001610909578
81.0159415631193,-8.527309093657115,-0.09820952307858653,13.635438626922179
81.483287622471,-9.682103088729903,-0.050522495533212856,13.667026622961787
77.01253161973767,-8.602532367837354,0.09804243366058969,13.776839813154034
76.76883485710728,-8.064721223365302,0.09532974317649869,13.722960585825819
81.47215498163224,-9.692567808658476,-0.06705968394459635,12.975163002286365
83.48049847225815,-10.107106706133955,-0.12825583599075221,13.143503542844375
84.41090994943505,-10.876781551769716,-0.13072710604760068,12.849640228221965
81.83561601147555,-9.64494678844614,-0.09989407608225731,13.086091188481165
83.12458557221724,-8.452486127493847,-0.09716141146596832,13.08444649556929
81.88699241315761,-11.063087791434619,-0.08714643368207342,13.022091712662723
84.86646662811327,-11.973503106993842,-0.08831723218939619,13.692055856769954
83.70692132777019,-8.460838654643988,-0.13792109235759029,13.43086738713607
82.68248843952505,-10.182402191843693,-0.13327973879861013,13.204289979882201
80.73710384573845,-9.043844340677431,-0.03801064289292143,13.223005245065291
81.71220280267961,-8.977839039766007,0.008638881111759096,13.283116775087006
80.504880463718,-10.48706630398056,-0.04595934317740095,12.72857215531563
82.1383163106052,-9.502335846501904,-0.028498571510993873,13.225508584657304
81.35864360678828,-10.180825057313532,-0.054947644083755576,13.579245003958874
80.29785160206941,-10.258478258525045,-0.00789132390553341,13.86873821995664
81.0815032779168,-9.507202394900892,-0.03798335626637337,12.72490229244106
82.95649237376439,-9.719446757448027,-0.11513312155070345,13.728683569599175
83.19242512964057,-9.482908453257885,-0.07304088992086817,13.612646859074815
82.6072632750931,-10.250382098217601,-0.1551520470132192,13.439906918299359
83.51515000858205,-9.54329827289761,-0.1039365346047143,13.083973152944877
82.54552871754201,-10.258020506114079,-0.1042376862388326,12.878207601883917
82.27832420092392,-8.935239133918522,-0.1244626453346289,13.280367870642117
84.28580627359027,-10.006896360676961,-0.15955970904867725,12.897785334573268
