Intercept__0,predicted__0,setsize__0,p_choose_best_sd
86.05786807369047,-44.481631142466455,-0.26276777887409264,14.06882812926785
87.17152455279931,-44.042497387620124,-0.2925990229108954,13.983317361093388
84.73976854365233,-42.06924356239289,-0.22492023117507703,14.5795318105903
83.48353352809036,-42.542998136404535,-0.16644999823997556,13.12780326461398
83.83055257139684,-41.77856217888001,-0.2102318866520238,13.316371006596691
84.17306029595555,-41.892626843379844,-0.21304925957047238,13.443366564525272
86.67565973590187,-42.36827551740792,-0.31279780929575574,14.362165482447029
84.61579164195142,-40.09488516353225,-0.2715542190790836,13.375461343785574
87.90718421122851,-43.489564824701105,-0.3667095325365474,13.885102245278791
88.29488984746946,-43.675510655478085,-0.37658996608876305,14.038122948742023
88.23790804804604,-43.58036598089923,-0.3612242091797158,13.75325394071857
87.64244679991452,-42.340256100607014,-0.3636706678736049,13.447150875720382
86.06497199327055,-42.569494902946786,-0.2869476943898891,14.254134779947229
86.02907168708151,-42.89432994574842,-0.24337431920350489,14.488060625151652
86.6946740287703,-43.97658662517154,-0.23679594148180078,13.798153563122037
86.38231079808544,-43.577639934576275,-0.22953192545995363,13.318027133080571
85.36280751099987,-42.39279387944808,-0.25306361715990155,14.099433290578428
86.10386051918523,-46.55628398936231,-0.19436179432546064,13.65183159117985
85.57204140820008,-46.44026314009605,-0.19197341166654644,13.768394469241562
86.14134356835032,-46.09106442965633,-0.15258760791516326,13.919040066773247
86.38210416216721,-42.64939036175821,-0.29140475507652586,13.49255710909473
85.41386245385716,-42.679103978081685,-0.22358498491471096,14.164976982166541
85.48323749254777,-42.66333816716303,-0.22344387288842388,13.54883808777296
87.00276984832848,-44.094871938049245,-0.2979336851773096,14.698800770683675
86.51436177616014,-43.814713256950846,-0.28650431083639627,12.784776626426
88.45751897386562,-43.538482119600914,-0.39244042471622564,13.062085939469542
88.56459157005509,-43.53297306786982,-0.385921962498195,13.414416961111511
87.40521220504024,-42.131381051032214,-0.3181839709955236,14.250745686981361
84.47807277780797,-44.441497863128596,-0.16872994324623355,12.973133221517207
84.54940556801184,-44.59271394590251,-0.1409509606205958,13.840180846517608
83.9451774549324,-46.29502846258825,-0.14272618823860975,14.755964512618638
84.97337768361814,-44.439925390326806,-0.13749123134767283,14.136256032585752
86.22424163516935,-43.38416666840831,-0.3000271568718209,13.377964073089428
84.99851039524135,-44.23233414860031,-0.17141275965854974,14.01703254703543
85.45203279219595,-42.21917786415232,-0.22681866754479693,13.609092820919903
86.0575223031973,-41.63243470705289,-0.305467336129714,13.742327159529857
87.18366691251786,-40.75886636093559,-0.29014239236095457,14.57563499840144
86.74581162460693,-41.330094971092066,-0.2984612340163911,14.383122488267556
88.28230258799566,-43.59695007020121,-0.35926462762090544,13.082185856839148
89.45893198961687,-44.78431605590929,-0.32859774436688555,13.545114982189373
86.15717410654175,-45.37273188944261,-0.2462500087055001,13.48375603644503
85.58929890901099,-45.05279285537668,-0.15691188548958693,13.242994312499533
85.47903470726507,-45.132484599572216,-0.15652754090253446,13.727361911158033
85.90981625225537,-44.22697676539871,-0.21665958370072919,13.84043322676715
85.41659572338914,-41.877004817840245,-0.25499646974569173,14.052448553901915
85.44867039142785,-41.798546709796454,-0.24928513722194226,14.10697541337511
85.44867039142785,-41.798546709796454,-0.24928513722194226,14.10697541337511
87.03799360131109,-43.417302357779135,-0.3008401834617876,13.59682911256082
87.55749429109585,-43.7661028851792,-0.2851408233012486,14.271306661032607
86.84176195653572,-45.38240620040644,-0.25411767659091844,14.336643955268858
87.34703319319947,-45.47203681935744,-0.28697499938881554,13.283850271244276
87.43065776816461,-44.66338159093628,-0.2919515355586122,14.264735022295362
85.58031578688762,-43.021199691459906,-0.22046834318532438,12.744005737808703
85.64385858357153,-44.0049809867411,-0.23528601924301262,14.119518019346856
86.0728088024315,-43.93009279126345,-0.20380459949590599,13.18123860639025
85.50239584892908,-45.77113209585059,-0.20804926298804274,14.147942525196449
85.89391859711876,-42.125357931196476,-0.25969926659203946,14.09918695138084
87.08896346025769,-43.68062572387701,-0.2896941198204064,14.123450121769208
85.63406920811157,-43.86891731669155,-0.22834432245864056,13.773304338269927
85.63406920811157,-43.86891731669155,-0.22834432245864056,13.773304338269927
82.89791448988325,-42.632144483171686,-0.1758048488713687,14.085107664002395
83.242124513425,-42.16049662910101,-0.15478725403979665,13.518001738999295
82.5937951007917,-41.61763791581051,-0.15605601364253027,13.539004160672103
82.53589180298229,-41.182338549182575,-0.15616999851684596,14.35415636327102
86.07298709725151,-42.005803411185525,-0.28458773513073227,13.551869644438165
84.68250485127444,-39.60552026647573,-0.28288234306745397,13.345441943839447
85.93382967562327,-43.83830190997494,-0.26322118607929224,14.14616792695277
85.93382967562327,-43.83830190997494,-0.26322118607929224,14.14616792695277
84.07482214994988,-41.66667425077497,-0.23719020234305196,13.904086592059192
84.07482214994988,-41.66667425077497,-0.23719020234305196,13.904086592059192
84.02036981669211,-41.476207764992466,-0.21255768284219512,13.985016777582032
82.83730724653236,-41.72196258923638,-0.18051683229757198,13.82654060734907
87.48348250768301,-44.38363318527294,-0.29496771311210684,13.695360456455056
86.78837921475221,-44.181218736468445,-0.2555387341283701,13.791472334659744
88.13845735058311,-44.62035955554393,-0.3273006030584672,14.309883707323225
87.8481900080867,-45.14656893674886,-0.260509748211018,14.508071770732318
85.74352591894629,-40.834529646166814,-0.25495056112891556,14.149683810548904
85.60756221700723,-42.59832916611411,-0.2945049816123215,13.35022559752995
85.95131508168866,-43.52237929393639,-0.27503557997523265,13.185397383235303
87.46093635134093,-43.210440538191996,-0.28571276842956767,12.975839785641682
86.14915430115246,-42.813319093722335,-0.2804636725496711,13.354074502786364
84.20407549517252,-42.67909409638636,-0.1444325530568208,13.788496229441424
84.50599397199717,-42.825653242466615,-0.25730885046844565,13.821352777775486
84.81222627448305,-44.196364593744605,-0.1710852051061038,13.570209310850547
86.14682894693642,-43.391830501455686,-0.24344085453176448,13.390480325613167
85.8007947953015,-43.17043695155485,-0.24895010005111418,13.92999335489609
84.31837964185193,-41.67651553551123,-0.20537868133547715,14.488059796769678
87.57555879611313,-42.63312882889902,-0.2951437108405651,13.642319712283447
87.57555879611313,-42.63312882889902,-0.2951437108405651,13.642319712283447
84.72557477650011,-41.63726058523986,-0.19210400081070594,13.753187004945064
86.14227475216418,-42.543085416943796,-0.31685632265970165,14.50379774221894
85.72416139815803,-42.33391873274405,-0.27766110115403636,13.01008456487474
86.4662934494435,-39.99008025600386,-0.3230649227865277,13.350088930652847
87.04900066843562,-40.48477862984422,-0.3124550462409015,14.08994129025908
86.39381156483172,-41.075012380372044,-0.29548497876039037,14.336782071996407
86.77201373438507,-42.11884155781014,-0.29949672898619534,13.270020852439918
85.68156885615382,-42.85269724388319,-0.2369949461966539,13.517009013527558
87.69287294593101,-43.648288107833395,-0.3451907228214187,13.72758393732151
88.81333171478975,-42.20782793466546,-0.34575011518378573,13.94062880429038
88.50656736681789,-42.36459595561295,-0.353042525655377,14.588110476234132
88.00039164714858,-45.36995038859128,-0.34271120932865384,13.195133610907233
90.7659881900559,-44.5312812139415,-0.3890811228347973,13.798143034890941
90.29843096224396,-44.30016439904868,-0.4271566360485471,13.507900792277605
85.79146879045348,-44.28489971251336,-0.21603932017936314,13.930698984838882
85.30797612450854,-44.57283523585672,-0.24389897314397077,13.377959142137637
85.49323907448301,-43.25197937946661,-0.15051646610677738,13.694438723403932
84.86084291036741,-44.029758446555306,-0.21668112601433615,13.46223444543395
84.8955680402236,-43.82302398334877,-0.18977528159594578,13.064605643872797
86.99499548321403,-43.55941030356984,-0.2611125833616498,14.049795293176162
86.84216537665085,-44.23207069894594,-0.24473642104049756,14.350293469793016
86.77974433201854,-44.13432977475646,-0.2294157756596557,13.315419406509967
83.90882625755192,-41.42835982030362,-0.22261940361895427,13.867357155228332
83.72463411636939,-43.233480384660886,-0.16469169215816745,14.173821011109027
83.12141308117289,-44.159395915463335,-0.1320337667478881,13.413550659016574
86.048954715053,-43.755467356137565,-0.2836565404035787,12.735924269098993
86.42976522416417,-43.65173040750855,-0.30745946707971006,14.871001136384656
87.7776205113829,-42.470635160999244,-0.3226793903918857,15.10656571005492
89.62798375887878,-42.42790836145649,-0.43473758735713564,13.546824041535412
80.90383045751787,-42.53976412861167,-0.0610621087794049,13.427402773875677
85.14224363874774,-43.33425336442342,-0.23574883545933692,13.559398896765087
86.58729873707928,-43.34898849496336,-0.28702699487608385,13.885372705114994
85.34708196285969,-43.465517218046934,-0.1979631965576046,13.509775404229924
85.12023986965195,-41.254220698375924,-0.29950515869324323,14.538793107139986
87.13593074891523,-44.76490598229355,-0.306442125159557,13.339083219191702
88.41961692307483,-45.19879207339615,-0.2975391158930431,13.814333316064337
87.42505179574398,-42.907417388765644,-0.3524366545026755,13.585086947095268
88.60484190554938,-43.01472226913659,-0.33181310657464536,13.6106142049076
88.0487668868357,-43.16858414141947,-0.31883713988887563,13.926511205104765
87.80692767708575,-43.376340241228114,-0.3026131891006264,14.156907803579386
88.52414410491102,-43.66623507050346,-0.2697420027278402,13.706752400831748
87.73810092372585,-43.46984186546598,-0.28914197701310146,14.616878516880256
84.34968532552226,-42.21054140289155,-0.23223610526965202,13.378408418387297
84.47522806284124,-42.087334266537965,-0.215257633058772,14.343037795217507
85.57149554273835,-42.37993087951396,-0.24289347961131438,14.322137552011839
85.81870313578371,-42.38272848011777,-0.23330012445612575,13.869971227314007
84.79645523723869,-42.90653348100532,-0.22394114502429854,14.148386803426028
84.56054551372506,-42.86779361481193,-0.20091358560331066,14.104656586598901
84.26407672155167,-42.175474725846165,-0.22012596124684877,14.128661548973833
83.61290804649632,-42.25595920129833,-0.20085433089023255,13.420726710412334
83.61290804649632,-42.25595920129833,-0.20085433089023255,13.420726710412334
83.61290804649632,-42.25595920129833,-0.20085433089023255,13.420726710412334
83.61290804649632,-42.25595920129833,-0.20085433089023255,13.420726710412334
85.06600412488368,-42.54626147027132,-0.19567725307803152,13.615601427780625
86.60364044178259,-45.3155785537802,-0.18850528264695773,13.61580537744839
86.13359078742432,-46.00120443468537,-0.2123522801001355,14.628107167764476
86.04236500320852,-45.83620959022662,-0.23103138580134114,13.827172938673364
86.04236500320852,-45.83620959022662,-0.23103138580134114,13.827172938673364
86.30732055290417,-45.712257287381235,-0.19202846222095013,13.869410566752814
84.45826206394322,-44.29474985836281,-0.18126015672078477,14.163336612096431
88.49530132493021,-42.527618387411685,-0.38714118619777743,14.162251152566927
89.04116789916584,-41.63555283613704,-0.3648961077280635,13.717229218517028
88.72631614706205,-41.79756650093611,-0.36196096676954687,14.094371960770424
88.7385472400264,-41.9312587486236,-0.357201759849291,13.547078622982585
88.71906256528469,-42.15657253199537,-0.33782610336119673,14.132310029384525
84.21398689163877,-43.784769556092535,-0.20141441330212873,14.303892370984377
85.35908618516075,-43.75656955343772,-0.11195009237301871,14.29237721180391
85.10259951121294,-43.404758965294114,-0.16819799989071355,14.103326789648873
85.02759357750665,-43.42131169177292,-0.16654068921519588,14.157259167320658
84.04502959558775,-43.722587265296234,-0.2372442511560235,13.807295701727677
84.36254887713153,-43.79111974061795,-0.22153348100278625,14.018908983242184
84.44760385141886,-43.85903543324367,-0.1836634939726888,14.239849885322666
85.2596225527916,-43.85228386665002,-0.20762962755549122,13.642208512354301
85.4767796465783,-44.47595411717945,-0.2181673169340496,13.773505472337334
82.66615208300176,-41.777213215430784,-0.14357595493103506,13.733626260405982
83.36444112340048,-41.25176761258994,-0.10145432236754326,14.419877738438531
83.28464165087614,-41.83991904901113,-0.1459951059858378,13.366597783016509
82.84534729626539,-40.83830313157824,-0.18609951905045893,13.542679177593165
82.32957866838854,-40.98952126615321,-0.13313148070038697,13.596340853746225
82.82913987053664,-41.63771002916445,-0.18370923750510862,14.251558410096207
84.42344103816421,-42.01933247604603,-0.1930087296030673,13.56562401965117
84.69144226704957,-41.692744503232284,-0.22404041158778804,14.726313986838063
87.97422453421964,-42.24372027827831,-0.38307795391996585,13.81083612610531
87.6632545247455,-42.99824891969846,-0.28930617411590126,13.479945677450644
87.61380474796553,-41.97371895855874,-0.35348300829584944,13.511983214349138
84.77639538273556,-45.4645375755267,-0.16005938607927675,13.46246910300086
87.23721204577484,-42.69147783724486,-0.3218901244392347,13.788386391700197
86.08868595340196,-42.704245397691224,-0.2724201076788832,13.58289207550796
85.90609366571954,-42.92854037972988,-0.30402349456267447,14.219304640797098
85.03817103894433,-42.44180883278517,-0.18106202497316606,13.84092564597425
87.49142024097065,-43.252967623292314,-0.3338230656497998,14.129786877585744
87.32806172257168,-43.310673216088965,-0.3135390814442002,13.677901398441326
85.16944379882516,-41.765166994926346,-0.26068359562443194,12.94234466787495
85.61865918022656,-42.654897402295724,-0.2464135939588312,14.615485305027672
85.43891811965103,-43.60534819405864,-0.19585699440462884,14.01941972311061
84.9364766077955,-44.30981833093863,-0.22365840917790425,13.483798337449075
87.00073781735396,-43.47432373793653,-0.26842387614158786,14.262465823661373
86.81039263303369,-43.30990226525787,-0.2994422632351745,13.843341160895193
88.20929931599538,-44.661525714542485,-0.29857086326574245,12.915904871041562
87.38899686594776,-43.57273744566389,-0.2597844363932241,12.75156910946013
86.66234433311178,-44.33064779443297,-0.3116454945129281,12.839799816537806
86.94199675832817,-44.24533735707768,-0.3010540157871638,13.127972413142086
88.81677048572577,-45.95980188668193,-0.27918077535348074,13.666100013329059
86.58646896171982,-42.101994159087674,-0.3451846564888497,14.508194260341966
86.58232969770313,-42.819863845918135,-0.2511842213357752,13.087926400285532
86.58232969770313,-42.819863845918135,-0.2511842213357752,13.087926400285532
86.61285914274607,-44.38665914423156,-0.2783699100668025,14.48000847193836
86.27107714077299,-43.24419522026232,-0.2750302861586775,13.482323965434732
85.35213912723782,-42.17231968248707,-0.28360080753151906,14.035021821560303
86.07743327018447,-42.274658107774215,-0.24289525232860454,13.898963377045307
85.86952545921822,-42.11167039635719,-0.2602217991889117,13.602644183504063
85.90444507975475,-41.81281671052293,-0.2664329161432513,14.331459765790562
85.86808015055256,-41.80889696782693,-0.2685751401838164,14.631250385386233
86.31128902249534,-46.06237868108709,-0.21013121802873444,13.215324356684278
86.25472353943337,-45.52235753837417,-0.192529037196014,14.489972738028719
83.61224670388157,-40.98987564372067,-0.2458866446179512,14.416443011412287
84.05105416486995,-40.23588975832404,-0.210824357312407,13.178739442096745
84.00958093329129,-40.00885955455044,-0.2058054131399274,15.045909068494765
84.37909429440619,-40.39919956358173,-0.22512197749689833,13.668018568357027
83.93792881974795,-42.28596419998058,-0.13957036728416033,13.779313372022756
88.20531234636931,-40.5552768191528,-0.372686898196842,13.78397010524679
86.50928757479048,-45.173314843614556,-0.21486190167194838,13.79581504723679
90.12978780023118,-45.816705284369974,-0.3622742739595508,14.114680163116097
90.2537896780924,-45.78627441112204,-0.36549555816596174,13.825635027595945
90.21132370218311,-45.37522021474815,-0.36918686596388656,13.61444693651218
85.8809776929665,-41.71997554858322,-0.2960329106629962,13.6893897852194
86.048955512637,-41.408321389389485,-0.30470165643199154,13.80609047230697
86.11329823964947,-40.68279531659277,-0.35154416247021014,13.771610226235124
86.06338814595534,-40.77841587176476,-0.33780844551622585,13.896403028843743
84.79212511654822,-40.81260095555314,-0.2404334092732131,14.03457062351129
88.29902400050351,-42.65070530627526,-0.34696263528012444,13.463510908511896
87.54390029004186,-43.88112980513999,-0.2866378158973497,13.85593577890271
88.09723846607221,-42.724361171702014,-0.33160699293129436,13.414938345681742
88.05528970794064,-42.72041154666553,-0.34390480390308104,13.301862475020215
87.30322744484617,-44.33277502766083,-0.2719460103889333,13.201298118482699
87.01126060922638,-44.46698162377731,-0.2603592736391756,14.173270255311197
85.65162213039271,-45.12051108749628,-0.21987231985398212,13.86129145773631
85.76761031518326,-44.2957780529938,-0.21402604549560453,14.95743668415104
85.88149937371912,-44.974101174356306,-0.19055892124885582,13.984479257414474
86.61976799961857,-44.31871396739775,-0.2298247200939229,13.697332879922065
87.34014022883004,-43.202055565270946,-0.3121194177218553,13.645838904402552
87.34014022883004,-43.202055565270946,-0.3121194177218553,13.645838904402552
85.83184832094021,-43.357657331036364,-0.2327525567616658,13.283409371356372
85.34623941581414,-41.33071358694267,-0.23403047761856305,14.168350378483614
85.0228598402164,-41.6183123120844,-0.2196127236781896,14.13368274264962
83.82075031492467,-42.69961674979899,-0.14379429368567198,13.165509913988684
83.5161302162053,-42.88250801393989,-0.1647514853637963,14.20536550527207
82.97712787273734,-42.67456667155129,-0.12992162277464422,14.163359457817917
82.54006069738038,-42.13438293632644,-0.11236871517970363,13.569800047406972
83.44012705327907,-40.931690215537905,-0.15798392167118325,13.629045531767778
83.27687454216037,-40.811118706472875,-0.15679001427406805,14.955314526393517
84.7550948569995,-43.589113448380814,-0.16150881711662254,12.725599578780663
85.10063817519404,-45.30356032789092,-0.20961219315371243,14.190512045856812
84.16402902005574,-43.78504387846476,-0.12131816303294246,13.770372738056286
82.9606046019058,-43.87093564101663,-0.14444763648765732,13.98122301224317
87.16039191553361,-41.07632614355026,-0.3622711691670319,13.776605696719711
87.5475364024284,-43.08695320790497,-0.33116205326162923,14.078290061686412
85.99290653044822,-42.90010287911537,-0.26104463218828905,13.603797504619976
85.74331597322943,-44.61224804521597,-0.21190372266618054,13.757926328975008
87.37296947113055,-45.08667453957845,-0.2959255884267813,14.217427592675993
84.97609413022408,-43.618942023597185,-0.1558987050570838,13.209152783266493
85.01119203713708,-41.15355636019728,-0.30412685085890234,13.55925108019666
85.43193893868354,-41.52480312619737,-0.2553573830164144,13.875851034171513
83.83014562459903,-41.571229426568294,-0.18459112784554074,13.520878105418957
86.78326171365167,-44.281702551052774,-0.29665154656960946,14.469175700810903
86.7047775641842,-44.13313168789158,-0.2688174921493442,12.610243389364785
87.6553304093823,-43.3537426736268,-0.28080918466325877,12.88278462430876
86.37923884794543,-42.34929577581242,-0.3170551024705229,14.636511407268205
86.3438658641056,-43.01952973410881,-0.23363060043484102,13.368586898132241
85.33980030723664,-44.143425003542895,-0.21842818646153678,13.794038133910696
87.55289827581629,-43.29321464884853,-0.3197217985909951,14.15595492790696
87.39620293870028,-43.22787695794054,-0.3143469049006613,13.522783780974686
86.11757662840834,-41.38860738483899,-0.29969638115212743,13.74764710727566
86.51073335660432,-43.43639133308108,-0.2619680720640799,14.152917197841592
86.30019959326249,-43.093242895867775,-0.27177271621917554,13.647007393184959
87.61975365598835,-43.45510200661347,-0.34276890768915047,13.926390322755738
83.81356983247845,-40.3538958426898,-0.20750159250477562,13.621772081739659
89.20336652415344,-44.64064857448173,-0.36622524383109667,13.683811861170621
89.20336652415344,-44.64064857448173,-0.36622524383109667,13.683811861170621
87.71020418526096,-43.624433212020364,-0.33259982558005413,13.76198760721076
87.53065868107839,-44.26984830502847,-0.30059676072108243,14.232856521241688
88.18322905388374,-45.01648872265238,-0.3145395098951209,13.699054032466229
85.85200354832799,-42.82283269818122,-0.23709117258780243,13.3536296251846
85.09307624195067,-42.02421847375684,-0.24608090185861442,13.817489195596673
85.57779435813491,-41.524963728926615,-0.256695074957228,13.82893464353253
86.70333912275656,-42.55206330022044,-0.296098152377329,13.920936674773012
88.06533002136457,-43.330559935547655,-0.30981649228473745,13.965942758122434
86.13700973182601,-41.258779352317234,-0.29703789784053725,14.03482877633383
88.48762645531534,-44.604834875213164,-0.31157184077706057,14.102735117056918
88.49458340290946,-45.36869882889919,-0.3430940390147761,13.442019291228995
88.49458340290946,-45.36869882889919,-0.3430940390147761,13.442019291228995
89.68304424961536,-45.354784094297514,-0.3760992374858727,13.849176887778752
89.87051330876808,-45.0009626977527,-0.33997802344620315,13.697425104031828
89.87051330876808,-45.0009626977527,-0.33997802344620315,13.697425104031828
88.92726358856206,-44.1886613872668,-0.39700697288392,13.74569781988065
89.0518426714293,-44.092710055348185,-0.3668258448742953,14.056990760217278
88.86886050819989,-43.318985269314524,-0.35976761994822093,13.706169087248325
88.85134580851519,-44.35016122315098,-0.3721179728954788,14.198890249821227
88.48058184602435,-45.158185281828665,-0.3183812678764553,13.074739227810271
82.97874462231873,-42.63092570571359,-0.17385722540207713,13.94818081177475
83.05087581538423,-42.508449290599735,-0.17832245947919503,13.422310708939007
87.49190065901864,-41.635763557664255,-0.3737418321465936,13.041220184346155
87.80921219164263,-45.5661909103786,-0.24395957296294762,13.068096338332195
84.24198027425875,-41.10842136840021,-0.24861054230492918,14.79162899284867
84.13461495026506,-41.12849454559071,-0.24874181649250757,13.448094916560974
84.85635576539259,-42.30565427548342,-0.2596062794732954,13.907031078726002
83.06620936310713,-40.792572465568504,-0.15146343498903916,13.964814134450908
84.17683855702678,-44.55511427631732,-0.17379435228942655,13.724010929525258
84.56325648337011,-43.605789690822476,-0.17181947573427142,14.027351711576207
84.83614883311843,-43.72855178699553,-0.1774865647034357,13.997994871636552
86.54744526575791,-41.91592997454764,-0.31642888813487324,14.664447087017109
86.6154193879019,-43.51519551757303,-0.2771087323363508,13.995570350385506
86.53898058538854,-44.37416611001148,-0.3044482078437288,14.029005046457899
87.58458749134338,-44.03516205903228,-0.2942879654594158,13.48435104215417
87.68312435065207,-43.600305928205366,-0.309102998879439,13.480877569649948
88.85118937331329,-43.77515263910731,-0.35517364601825097,13.805828595885087
86.7595218089772,-42.86288498740815,-0.27920204554585404,13.64017804852789
86.70936664530038,-45.221400084394695,-0.25254940352837957,13.52310164409009
85.76445706205287,-39.87186039991517,-0.27407459563717207,14.439116433766683
85.93454649306435,-40.23059299891021,-0.2860993749087113,15.92515258416842
86.07785036288149,-40.31556748166522,-0.2862505232094212,14.76570983435703
86.18760622255736,-40.24150126702223,-0.2865750701229704,14.181149759047193
86.50185924034774,-40.11746250090959,-0.3007145731465588,13.600063113626671
86.33562168020426,-40.02395500457823,-0.2989826572809731,12.348304316998119
85.57132506633621,-40.524600765307284,-0.33579139468972746,13.851256300108417
85.92242774219693,-42.49924695706969,-0.23772716106889263,13.69373776460012
86.05082920126175,-42.09161537485836,-0.2664315502710494,13.77100829042222
86.40084741114455,-43.32842399453262,-0.27710070960013256,13.694510493914375
85.77030675172921,-42.93280795858687,-0.2906516385925099,13.986869108301592
87.42462063738293,-43.020773454263555,-0.28243549153801883,14.2266729634548
87.29873554713139,-44.46734886128716,-0.3171279775237227,14.641653920605492
86.3564810324197,-41.81753330839241,-0.31518183059506966,13.876588137222985
88.75585403594285,-42.8715387232205,-0.35208227399912073,13.407787090212675
87.07362702078387,-44.36227903086343,-0.29122149571684175,14.01588500225125
85.89011262343138,-43.32412383576846,-0.2717219064467314,13.526968369537347
85.89011262343138,-43.32412383576846,-0.2717219064467314,13.526968369537347
84.94466237802328,-43.72690730221997,-0.1782684108621572,14.21152192263984
85.112994650967,-43.512949466016245,-0.22913012850565959,13.642861951198691
86.00506531126453,-43.1050926201589,-0.2696705995056216,14.122260591490232
86.15440189858026,-43.126680214282594,-0.30174060109379414,13.278108689963371
85.46852343865014,-43.02602749223267,-0.317425011390502,14.656454602985484
86.33636561532947,-42.51167686833719,-0.33955627670238797,13.139851100777456
84.16539163191763,-40.15882487072819,-0.2940392438844682,14.19812236726701
84.09454350862966,-39.4857754724931,-0.23121260897767976,13.85182273310142
84.09454350862966,-39.4857754724931,-0.23121260897767976,13.85182273310142
87.04088680921703,-43.52865728208038,-0.35795049453156247,13.884999643202388
87.41456985184615,-42.9131414802528,-0.2912385496744041,13.564892714779564
85.41399319459153,-42.49975133596404,-0.2672795168285664,13.902319823778098
85.56874013930083,-42.15551730731087,-0.24578369902835637,13.68399886490014
86.59058863298574,-44.73396348380436,-0.2245405871465719,13.94110497685644
85.96889188263835,-44.60765175542744,-0.2330472065767331,13.805010251597658
85.11853902517956,-44.22415350206599,-0.22022081468445895,14.098188227320897
88.80932301821662,-44.41498450835004,-0.29565791330228686,13.972253096835068
88.18399308177253,-44.931425057182594,-0.3226625176952858,13.893602612685997
87.81301648155635,-43.63008830272041,-0.3470032529128287,13.351513240209718
87.94288277295752,-41.36013491235006,-0.39686904523962335,14.329594998737132
87.57343975090957,-41.26989063609086,-0.32155036217391325,14.307468696231375
83.85139033776517,-43.30522125546164,-0.20702647173249067,14.071681963526572
83.45674594712689,-43.22795793936989,-0.22881738996549328,14.19700887866007
88.7151071337951,-45.602757749876176,-0.39243384516344193,14.002847369415178
89.30860268657672,-43.123115254870655,-0.3350116753291631,13.98626168856574
89.15325903650938,-43.42427896667056,-0.34526440558022276,13.74351686466044
89.18512399476143,-43.28298049103653,-0.3492836746006242,14.672708213471557
86.09405149443839,-41.576773255410544,-0.2827052235954082,14.493543049727085
83.77851708380315,-42.23773018619251,-0.17882603383571066,14.115986796696932
86.52131107563129,-42.44705876939382,-0.2831845238501688,14.275285966325548
86.83298239912116,-42.677892315385584,-0.2857624608102048,13.614041127264542
86.49608448351393,-42.11276906496301,-0.2523706593210987,13.956305533850964
88.04389325592285,-44.93006912531956,-0.32348445923879515,12.85940729179515
85.42057963080468,-42.05856999315517,-0.2358829911097651,14.021096291825184
88.138806566323,-44.28778650992298,-0.324667545142743,14.15415941864741
87.4684029889397,-42.87118808279736,-0.35570794278914797,14.236945373020088
87.88639925384652,-42.595724153878734,-0.32390203486564606,14.223198881814664
85.80300665787357,-43.72696926128512,-0.2512592245549714,13.398706348618783
88.0184675157857,-43.18196339267768,-0.32954630132179097,14.561930123272518
85.79914723317873,-43.53021918827679,-0.24128293917449786,14.518224814744446
85.02731952498274,-44.04692669172748,-0.1964701387627746,14.531381130636507
84.91054204800021,-43.76110874818079,-0.22706284655321762,13.107301719538537
85.88018808595058,-43.29039995756689,-0.2931182865921952,14.108820442485994
87.84722954388782,-42.59761929310811,-0.350613553654468,13.149037050373256
85.45047636065775,-44.597527401065115,-0.18313444792081945,13.97366608074371
87.21082747074851,-42.65562152701979,-0.279117786002969,13.711906140180789
87.26467316407873,-42.66575817232123,-0.2795616814848113,13.385311482743758
87.13781756539201,-42.79663417589714,-0.29402823418475593,12.829964865453398
87.55341039489004,-43.09768166654613,-0.3393118321374132,13.997570392459533
88.20025380334185,-44.20114564359701,-0.3056424792576166,13.26469779602376
88.28482016173989,-43.74060153624335,-0.2805396007578236,14.357497675287279
87.32574842286286,-43.32760969915855,-0.3551427972240215,14.335665724697995
84.47603975116824,-42.66499552131738,-0.19708004900319354,13.446555635680166
86.023071073477,-43.616799021753046,-0.2531454452403615,13.801295547432098
86.261665923378,-44.54493194930068,-0.24705635589908315,13.747964466485591
86.01550452830898,-44.676345368810225,-0.23931941395222658,14.444901078531432
84.65150590352602,-42.94980821808553,-0.1815269023736523,13.37794569459574
83.79515104669433,-41.34366502634194,-0.2348950625712548,13.630904750471647
83.74043852315441,-41.33823181729063,-0.2334141164698067,13.683813768175414
84.48387798626099,-42.800776112197774,-0.16034849470720083,14.48339028039048
84.85223074316536,-43.246623746353364,-0.1918990750069841,13.281950444735804
84.8353578723036,-41.279112234218935,-0.23961163410634456,13.268987464629708
84.66870425403214,-41.14213157480128,-0.24387482482319442,13.076720468530743
81.61090067449067,-40.70354115586561,-0.18112752470074986,13.7120620794781
82.65384199518364,-40.65925849306215,-0.16097673377985666,14.811416175287416
82.50693582769404,-40.371222455849356,-0.15551022602644926,12.417184949299752
84.15160365943952,-43.24855163200582,-0.18438377860906757,15.265265321136066
84.1168944686877,-43.14127339133292,-0.18674655332247692,13.38580283111619
86.803636546144,-42.08890316376926,-0.2814110258127943,13.64296414251579
85.68317985409195,-42.298765382791466,-0.2407310654299921,13.82067628768357
86.30071150702781,-42.56341084914434,-0.25731324180447224,14.743801125920829
85.89800143089253,-43.8718360424287,-0.2532820811307966,14.790513054397948
87.25083395747134,-43.2054827130929,-0.27251779209353305,14.158878650933605
85.87776950480072,-43.315421043723376,-0.2752314556378266,13.93462840161549
85.84710571921427,-42.601682586790474,-0.2725283062143583,13.530787876081988
85.32135796749024,-41.37537150230011,-0.23751129868837662,14.204918436933383
85.48796387360217,-40.82123881859673,-0.23837521297728292,14.122529192723452
84.61149173884716,-40.92028968733842,-0.18148438823312202,14.091508295756928
84.61149173884716,-40.92028968733842,-0.18148438823312202,14.091508295756928
84.76768730181091,-41.3948283389898,-0.28834521039479494,13.814596289915627
87.37576903246809,-42.744851291961,-0.2728508302374065,13.663875251012637
86.94755353759894,-41.02294540535587,-0.36384290320171264,13.740582999597294
88.53016457538943,-42.66581148828225,-0.3434276499401676,13.256097489681887
86.72155033146959,-44.103890035309,-0.2975106303227136,13.470184985236061
85.50754494593653,-43.00429358603854,-0.18545099627919864,14.08500248869568
84.67841315254451,-42.01411272785495,-0.2519727531212205,13.816043685037226
83.44159920897059,-41.85177224587304,-0.20516169667432185,13.346581417741229
84.66251022091569,-45.20567251225,-0.20251524766591897,13.045852939926089
87.97870435153906,-43.52932097550844,-0.2925961092260536,13.05541238835187
88.15142580865921,-43.62408771384737,-0.2879182624108392,13.16740520980558
86.28368641205229,-41.93235617014074,-0.32263624215409703,14.337860446675343
85.0447435641667,-41.79449920475258,-0.22874428750051395,14.245155143499852
86.93363590303876,-45.71914974270861,-0.2588578675995264,13.26561332842589
86.93363590303876,-45.71914974270861,-0.2588578675995264,13.26561332842589
86.71319303165248,-45.6568047063039,-0.2609895597963914,14.338595782739835
86.98945761030697,-46.03357447952729,-0.2628982179280147,13.33637061234905
86.98945761030697,-46.03357447952729,-0.2628982179280147,13.33637061234905
88.97017987273841,-41.21174917703143,-0.4407281861063353,15.020277256266237
85.64975440582944,-46.229807456385515,-0.19243579206366898,13.759472469697718
83.88313864308327,-43.211998871883395,-0.18821640892907165,13.563657902611626
83.94272125267398,-43.36678014477832,-0.16699082123344083,14.244266262575122
85.64178948301118,-41.65224712761224,-0.2632110517301683,13.635737991640852
86.9433504956215,-43.125029071955026,-0.3157402463546228,14.151597836605745
86.39614085585605,-44.15348443950964,-0.22722506584355667,14.016115281147533
88.72646944041544,-44.12993428868515,-0.34978344449072046,13.956163124639172
84.59525694820272,-42.61556376923404,-0.19728412935810286,13.439038842324422
86.82652083167979,-43.83285802565504,-0.25256201478247275,14.096310211982287
83.61779593554331,-41.571906224545806,-0.18833902054471816,13.932372725293595
88.24179906682907,-42.39825788475676,-0.31646738499797483,13.336400521937374
88.10778974485662,-43.02726794773182,-0.400763681199368,14.225224085665555
91.67932986381831,-43.75669210936436,-0.47103055878545524,13.335899005131324
91.46260112765168,-45.18151117822955,-0.4138050910495335,13.290074891226558
87.0175120633148,-42.16873765775074,-0.30379131612467586,14.337211029550689
86.28952464207848,-43.061795829680854,-0.2487983301262365,13.493598911131855
86.75378442697236,-42.74314817968167,-0.31995814738939454,14.317986882429425
87.74571080020662,-41.904262779292644,-0.3385702507609104,14.328245381235662
87.74571080020662,-41.904262779292644,-0.3385702507609104,14.328245381235662
88.08804964474446,-41.41778218807229,-0.3512426809842852,13.223128592135224
87.50855609568069,-41.55655555959714,-0.37872937313230504,13.54939537727338
87.50855609568069,-41.55655555959714,-0.37872937313230504,13.54939537727338
85.20773988149608,-41.34652443278837,-0.2749924448957098,13.787220596670231
85.16341435473414,-40.918343997392896,-0.24909136931323184,14.34081580552249
84.7281840840316,-41.002980008560485,-0.28396622515456665,13.760978086445045
84.89984084578862,-40.88138700122903,-0.3022955502214289,14.006548997268784
84.6943240273035,-42.76667807882456,-0.19308777523585863,14.124042064457761
84.34168524054857,-43.22891137427945,-0.21535943336512822,13.421874166402372
85.32485294996414,-42.73094671759572,-0.13627252569913909,14.177919585044743
85.5092858435574,-42.771766195046254,-0.1525531387277959,12.835089509926611
86.30697388039923,-44.390831590318214,-0.2687993415023588,12.89046100941596
85.63889340097585,-44.61381903359847,-0.2451142007951113,14.665592020041851
85.39926006692454,-44.811492956611204,-0.24248839149630877,14.249774478329021
85.65738815970184,-45.06803473989788,-0.233426465626187,13.535265734956063
86.44356188097836,-42.882785306242965,-0.2242506156969913,14.101975851180878
85.26993971306894,-41.823539608682566,-0.30003111360312856,13.58794184253137
85.39078243298353,-43.47013993337473,-0.19295445743507916,13.589437949714396
84.95884717842934,-43.82834582354242,-0.20446994313159272,14.199029500132013
86.44795619950699,-42.378151017534314,-0.28158290191018115,14.585842921327183
87.29297997891244,-43.209028292957456,-0.29100082639229624,13.20610803986367
86.32073923872456,-43.698475740336335,-0.28432757069899556,13.03880068447677
86.49522707458314,-43.73134453895418,-0.2880488055023563,13.187758198651496
86.09342778335377,-43.96527720243593,-0.2911069215561501,14.387175927310667
86.61997132501105,-44.10928454058181,-0.20135200435762415,13.704674871314625
85.81311452973965,-43.4977527282275,-0.24713697191725217,14.344408957823525
86.6568626436554,-43.80708419221572,-0.2176481221495541,13.117066221895481
87.0152824827777,-43.90303487352473,-0.24662021522064095,13.224601452794628
87.15895679559684,-43.80518178878501,-0.23292396398509035,14.255351335668966
87.27299999592894,-43.66673139422131,-0.2891183420677179,14.550786707840858
88.16961114312092,-43.78381136676865,-0.3112021611442714,13.238817509678817
88.3408184445025,-44.11573090316441,-0.3116103204503764,13.961386754656976
88.41926389093207,-44.04705289170363,-0.2740696808306144,13.654793386868498
88.26499415761937,-45.40873999847682,-0.3341586694214419,14.397483559150196
86.5039849754739,-44.462102231903046,-0.20286007204802262,13.75174988366734
85.98670451440822,-43.219008361599855,-0.2819299573842334,13.587616123660517
83.2066819167605,-40.48428813329442,-0.23528502489146644,13.150288692778565
83.02529117552699,-40.53778335874409,-0.23499111756981103,13.812884832080485
83.0638608813938,-40.473463907339955,-0.23731063110036218,14.195175162201531
86.71235714786508,-40.74507036326247,-0.31990480745441185,13.185018072320702
88.01348294196633,-41.71699965802305,-0.3529839228818118,15.12208506320732
85.25248369548865,-42.392486440114055,-0.21910407730811954,13.986366698564053
87.8712835779309,-43.366272742824286,-0.36171636701072424,14.432675050690742
83.97431006682291,-40.531258427189655,-0.25892791877702254,14.447300830336774
83.9314508159212,-41.89932341788141,-0.1778863342388235,14.24978870234819
83.86776749656323,-41.41539496657608,-0.21794384003225808,13.986816970123115
84.06692799912499,-41.31575637816597,-0.2344277525530261,13.80504835241853
84.06692799912499,-41.31575637816597,-0.2344277525530261,13.80504835241853
83.38347906825123,-41.56902635144151,-0.17117425653048854,13.775518339573571
83.38347906825123,-41.56902635144151,-0.17117425653048854,13.775518339573571
83.97179514518523,-42.218138848888564,-0.20903254041789485,13.756356469308166
83.83184633188458,-41.004088786096965,-0.1657507050248657,13.847646191439205
88.67778073801703,-44.522679957888805,-0.28973359126498555,14.608500737407969
85.24011980800068,-40.192696566540604,-0.24081850799938664,13.50200231596066
85.43936752644429,-40.36949983666424,-0.2110734261886523,13.571819198953861
85.13479350165724,-40.78339645954098,-0.22056583304602984,13.380355687159039
87.35057752642332,-42.240280380728485,-0.28485304516242815,13.617890230900121
86.59757199552297,-43.3904160324097,-0.2608985250763848,13.781433535742503
84.49609361073033,-41.89483978313642,-0.20604634239250297,13.48695716997968
84.57973636753164,-42.26350036962523,-0.2430081826200139,14.033819463242018
84.45597825925228,-42.569538715788426,-0.2481396262867929,14.147783810085944
84.45597825925228,-42.569538715788426,-0.2481396262867929,14.147783810085944
84.00865845104168,-42.36473765142938,-0.1406877585669782,14.035801171935313
82.7767492552369,-42.27108269931169,-0.18113503847337797,13.645044447739245
83.65812175964743,-41.97493441419317,-0.14973775866935587,13.589390060956601
83.58067381938308,-41.91725614905493,-0.18916866984334324,15.114824731895782
84.71843468417512,-42.69277767371595,-0.194110812073331,13.2805256832662
84.75769218551136,-42.36769425051072,-0.19438482926864173,14.37664536041535
85.06646597416214,-43.530856293327346,-0.18256541039120122,13.144289349257704
84.63468807316083,-43.2858787842133,-0.16893595742090675,14.224460136098644
86.50323364183151,-43.962656426407044,-0.23016184939230658,13.690188289468267
86.05424674489137,-45.39420406227948,-0.2326955591219542,13.821296052007
87.00586316734305,-45.002308609995865,-0.19726471882399682,13.760416600743055
86.71320377512252,-45.91763587442619,-0.2600177209471118,14.688046251314915
87.1082231080662,-44.35785140030528,-0.265665668026684,13.856390064334443
87.65570201648018,-44.2104981783429,-0.31613878970241144,13.736203163758654
87.2279918275798,-44.29073047369073,-0.2887658047032004,13.340308060716941
85.154063658678,-43.91325542173598,-0.22116586773653216,13.769491865190119
86.9359992118939,-42.130260435657,-0.3012777578697936,13.701714169401905
87.25495605217384,-41.66569123425183,-0.3144077588430508,13.793103449299819
87.25495605217384,-41.66569123425183,-0.3144077588430508,13.793103449299819
86.93517311230119,-41.487709126053055,-0.3200433493973127,14.003811613740606
86.84029727576187,-41.30916092864284,-0.33009948348352863,13.509542442808543
83.67177980267385,-43.75349736280923,-0.16996117001267477,13.951839195538142
83.65689756289981,-43.703098826841824,-0.1655930186781702,13.9172500078043
83.55142541212722,-43.86564082559396,-0.15230705122675003,14.078316953341632
86.0186295547567,-43.21897658269219,-0.2721488281986557,13.841238942846852
88.06410618871777,-43.30497021259513,-0.310251063629841,13.532899138548018
86.7788451545685,-43.31978794145615,-0.30293514305079594,15.255430775713766
86.73355110794193,-43.51427214906802,-0.3029084701502195,14.401239202915093
87.41511171222042,-43.384450069029995,-0.2651038768302523,13.284841450525526
87.58391638889431,-43.60367910590731,-0.33839047243889797,14.100945978209358
87.58391638889431,-43.60367910590731,-0.33839047243889797,14.100945978209358
87.90622329820171,-43.502561313439365,-0.31501096828673814,12.991328314590874
87.75250977685607,-43.64256823311625,-0.33954274219667707,14.459446923072907
88.1969902538403,-44.35689774215302,-0.30555604858308955,14.483601553303838
87.8131222088876,-44.46583157680784,-0.2891933349915273,13.55938844935149
83.72471213677467,-44.141987930783905,-0.13439743447125294,14.281252887614285
83.37285853123969,-43.92259059696242,-0.14655746208047626,13.850946893601137
83.58586183125591,-44.342392992815434,-0.1502085151074822,14.180753288527432
84.99816866438526,-39.92781503458346,-0.25455835839310087,13.572516594568066
86.70866401228048,-40.86646925552522,-0.2971736357133248,13.843133326712874
87.525432144338,-43.62579953773428,-0.2922830055099295,13.26637457072657
88.7427367312105,-43.08814894000338,-0.331182419180896,14.478228453404427
89.33134711427462,-43.3282434579314,-0.3767760824353826,14.15212084677349
91.48614103814592,-44.487648315992736,-0.4490297312047742,13.457058835550933
92.18951613807546,-44.327645463095486,-0.46134640587675835,14.319620294991852
91.72193344727913,-44.58468103227313,-0.4666499120728892,14.243835938368406
91.72193344727913,-44.58468103227313,-0.4666499120728892,14.243835938368406
91.63807848570787,-44.0980440174839,-0.4587594640173994,13.73059664375371
91.48003252744506,-43.98760358903251,-0.41565212788699335,14.065750119471598
92.1018742371361,-43.43963641306315,-0.5134453107946799,13.904396183108734
89.94176546616607,-44.623564876588866,-0.36978716778076176,13.598330042953535
90.59960766625494,-44.29007602712432,-0.38165111666739127,13.058456964187197
90.00912965813603,-44.103732213141875,-0.35768111707560063,13.206228326799463
90.2690633813052,-45.21711282186891,-0.4126132058483598,13.437322005984598
89.54945886323995,-44.33224113517142,-0.3839112183232321,13.313127418078096
82.10920539421436,-42.90686088998501,-0.0879976865729783,12.933494196737147
82.17100021707118,-42.93967416510603,-0.10337126543397941,13.246891398226712
82.7132451753768,-42.8055001454068,-0.11329258753700547,13.36565637331498
83.17136642778178,-41.875244124480396,-0.1874551947448377,13.707095280430169
84.92058825360881,-41.43453228894686,-0.26081473519965026,14.283239402831152
83.99202982505739,-40.42935361049947,-0.20593784778978116,13.813452318140367
87.2037542666088,-43.9968112358704,-0.30201040251481237,13.727057906197416
87.0216029460103,-44.00551632973347,-0.3161603186700611,13.809121224219055
86.36192476677806,-43.757513373225024,-0.18734685389816452,13.927913683596769
85.68798282144877,-45.589281174378556,-0.24307448710300825,14.751306505277695
85.61006151715898,-45.54379992582086,-0.238947283529839,15.044023321213334
85.72855366675184,-44.268419056182886,-0.23051634413454106,13.348144633425267
85.35537944990976,-43.092275415266194,-0.2350924249828485,13.969911008838515
86.18414606370308,-43.320961554254545,-0.23287248450904796,13.292349883927882
87.3659211099646,-43.40448806948224,-0.29477542441020405,13.916495144471726
87.60810093875556,-44.02348425044384,-0.27674519898735755,15.310151062396974
88.86692037118944,-43.383958161291474,-0.3810227858373655,13.422891366828337
84.28853977351919,-44.20268527419043,-0.17016967173085198,14.484121941559936
85.3351268472099,-42.92023440286341,-0.2163475611087742,14.501597047591872
83.65829533714448,-44.13150362874107,-0.16290373820021875,13.3130961464668
86.62251849261209,-39.64512381477684,-0.3210118635461847,14.247968628296803
85.72104525470299,-40.07484139805628,-0.2969937514389277,13.944916600687183
85.66798439142026,-40.1720417896857,-0.2622965295809482,14.099436714225593
84.60590369122558,-42.00782114824476,-0.18845004519006542,14.17706749876525
83.92005853018647,-41.99117201640753,-0.20317300219328022,13.967159132441882
85.27965347459188,-43.54655216671915,-0.17897982722801134,13.938689397076887
86.27180462043194,-42.5074848312916,-0.2904254917965014,14.575814757904276
87.07290635639485,-43.043795381431096,-0.28505706372127254,14.588118681490121
87.23650306438269,-42.87025215986764,-0.3059622104119567,13.799350257553758
88.90212751504274,-43.939753103225726,-0.35183664726812264,13.54201260597655
84.22330398834511,-41.77218360958465,-0.18367211709634618,13.944357102643274
84.43537232296868,-41.9436208778661,-0.21775986845671252,14.615107194138705
84.62032229949904,-41.79963173121513,-0.22291628851004247,12.970863539899257
88.57568901885665,-41.90620071207447,-0.38793921180792723,13.053685125499658
88.57815722353384,-42.033718322273586,-0.4072121004748052,12.978191160970836
84.9758605427327,-40.51609477104341,-0.2826968180854489,13.539964520423254
84.89927260792615,-40.38250406362764,-0.24346360036375292,14.500941712565515
86.52698993078826,-42.27187612949998,-0.2621655323478403,14.506744149084687
85.95532779025481,-45.88969527104439,-0.21317630558305523,13.068840487708261
85.85404900503866,-46.135796436057156,-0.21017685837583322,14.594753341463889
86.55170606694506,-46.14473133036693,-0.18141337536817273,14.620130799445496
86.46943932176973,-46.16212458366615,-0.23356029320883875,13.437029758916491
90.31353972764684,-44.92813049004914,-0.3922158013414269,14.302987416274727
90.04955615511241,-45.59130647206124,-0.36617079552969933,14.655049574899294
88.51735152631554,-44.46726991436421,-0.3171116184112953,13.779066227956204
89.36239281054395,-43.70004988148092,-0.3558914290468973,13.32023460530919
89.50326817796862,-43.84461011075348,-0.35123292344715723,14.05525858554433
88.36490377473307,-44.49745320514663,-0.35107254674312627,13.45081959357827
86.80045395127836,-41.28169726996527,-0.2862207258698093,13.930086831761963
87.00817713091354,-41.73353347170289,-0.3699707071330419,14.389419086994103
86.04191281860412,-43.58281100689935,-0.2001190517394643,13.597331270099133
85.2882466360901,-43.179486950102905,-0.22359881125197373,13.991085119291963
88.38926398021555,-42.30413236799114,-0.3637321066512824,13.59774219996903
87.21368835973159,-44.46349861546942,-0.2829588923868502,14.143365110208299
88.21579886507392,-44.30549697526322,-0.2408951331561613,13.527976243256923
86.5238289361117,-43.9019195941136,-0.2640481961028053,13.880359915298303
86.7673726756455,-43.531304084685935,-0.2656552886960063,13.415117438005801
86.7673726756455,-43.531304084685935,-0.2656552886960063,13.415117438005801
87.10201711282983,-42.27223361757848,-0.3134015678440432,13.499674179447585
87.139597667324,-42.45677387193935,-0.3178131067262902,14.32040005292134
89.37235693172944,-42.60598194784356,-0.4167466378650911,13.740484969496519
88.62116641634388,-43.14180485033482,-0.35334094343804123,14.91385943596057
89.12033936292373,-43.41395140752515,-0.3550712289708892,12.582443862086128
89.72738700359375,-43.766905029401116,-0.35850275662325803,14.993035571229317
85.95172447805125,-42.25611104994737,-0.284686611861688,14.716168634815514
86.88302273513813,-40.39708393823837,-0.3257241573878953,14.814144064546765
85.25985969302205,-41.488766426278346,-0.22942200512032468,13.025381443531202
85.1909777680998,-41.49131033594156,-0.2278539249662962,13.502965150728993
83.44381099028095,-44.171780684910786,-0.17247373199909963,13.147358569348402
85.53120778575304,-44.29936331396445,-0.20890837115842203,14.33552779799692
84.88044049784722,-43.92807329402475,-0.18409089844840087,14.289449456515293
85.10663891274436,-43.18469020591787,-0.21805705844451231,14.26623808140364
85.25802568462183,-42.31270763627106,-0.24224039583001145,13.839650529046787
85.57192645143871,-41.73002765850961,-0.21453852749122895,13.952398130804797
85.57192645143871,-41.73002765850961,-0.21453852749122895,13.952398130804797
85.48778697289873,-41.46760328696751,-0.23669480644996954,13.732872688046857
85.32203983370808,-41.91530220543425,-0.26295525093726396,13.432544142601664
84.0805537336444,-41.55550991186265,-0.21741113302784193,14.073007438045781
84.08697377902669,-41.51066416246724,-0.22989707958703323,12.634276193966617
83.87424935994372,-42.02536225935666,-0.1710113903442888,12.682869452098062
84.44254025402462,-42.87169534103105,-0.21354120552700895,13.799433675120277
87.43539342177151,-42.166151436818424,-0.3095747401895549,13.711112530844126
86.95846587745775,-43.236502499713744,-0.2731949617800186,13.686353322493558
85.1855711217484,-44.58866563133934,-0.1596648604272452,13.780637393336843
88.43220595402413,-42.34781065344961,-0.37909369332005016,13.770314354106443
88.43410263352891,-42.5129626276622,-0.375863874048546,13.448150654293775
83.67020589374603,-41.45793988881828,-0.23050044981416404,13.185074455276315
84.83773762625897,-41.739371599999046,-0.2265592224938284,13.537905449308111
86.64495006698168,-42.463213021752175,-0.3045929599913483,13.536644352280847
86.87325291280382,-42.808505915342465,-0.3188384949001984,14.12436462543643
86.72104169500749,-43.04878470376807,-0.31720433113308893,13.858778414725398
84.90450659273742,-42.902912460275374,-0.17470838299487246,13.464773067629633
84.68366482552956,-41.36842897120048,-0.2738176325775848,14.918428181421937
84.56235872284446,-41.386215584463926,-0.28044412109752154,13.66296657931502
85.69646698629258,-43.83263769619478,-0.2734737694407576,14.004615917164841
88.52073864419543,-43.574121551602985,-0.3073183378600668,14.150652201096005
88.52162753910685,-43.66353663861963,-0.30786773146117846,13.388057076050341
86.89582707204433,-45.37990411355081,-0.2680102060438294,13.556011642352741
86.86728613299923,-45.78342812018021,-0.2832869817806332,14.09340548322512
87.38328234920333,-45.120086723714586,-0.25977967188253936,13.77060636119593
87.38328234920333,-45.120086723714586,-0.25977967188253936,13.77060636119593
86.16399358539768,-43.570135262622905,-0.251661149982223,14.188241159977602
82.88271728325493,-41.53337064112517,-0.18554398612618972,14.04907621414182
85.3959625934265,-41.98600061869025,-0.22333886056566873,13.921523302380011
83.64470986739417,-41.23536840357578,-0.22740071881189713,12.821681678750915
85.00390441070961,-40.85422864306376,-0.2820369502688297,13.96899233124377
84.68421828112578,-41.4482721262143,-0.2712116446265587,13.871921555905802
88.05410081881155,-42.36719518382418,-0.41328308388073715,14.21269348165094
87.35747249445828,-42.26435242708767,-0.2806408877857185,13.94017147211873
87.56535052178285,-42.7032939219233,-0.28423374913337257,13.861445533143236
87.37017734490497,-42.99627789646832,-0.28489718459424823,14.454591082394375
87.55707378753387,-42.65111961531879,-0.3436406327669119,13.680993746795547
86.73315625088055,-44.21657923742261,-0.23946486468059977,13.471342423338292
85.00060365067354,-43.24545616605106,-0.22453192084296966,13.893474752035488
86.44392424147595,-40.939421636050426,-0.3216047708237365,14.191699103606323
83.75404637389745,-40.65447172565501,-0.2121649105057066,13.46016373954565
86.42093112324481,-43.65215035542884,-0.2542603255603955,13.21020312109055
86.19637402390767,-44.345759654385276,-0.23833566355426614,13.553640314206362
87.90933067932143,-41.436968812708876,-0.3443563755448757,13.900144844319826
87.90933067932143,-41.436968812708876,-0.3443563755448757,13.900144844319826
87.26323356130135,-44.83460410502834,-0.30699752634702304,13.629462057011441
87.41263847637947,-44.76475888003769,-0.30006450452967254,13.631020265298755
86.65643155044489,-41.21429738205852,-0.2992668347595269,13.92726516589907
86.69029667643515,-41.469434833884264,-0.33667943429464353,13.925430087271312
86.66332263858236,-43.31448010735663,-0.26254034398177417,13.370623411249703
86.3909086074908,-43.322871517617024,-0.2836683864411825,14.416634077797427
86.19716013127557,-41.51928911373753,-0.25684329856188115,13.170165518832743
85.88028739344651,-43.72545974061041,-0.17704358220286032,13.374064033064881
83.74573153095999,-42.6597628089766,-0.17876723657126928,13.979966646187087
83.98530970932923,-42.52926187713104,-0.18380712136230065,14.242339963169966
88.64416712452841,-43.67998127338427,-0.3597536089478336,13.556540638970125
88.64416712452841,-43.67998127338427,-0.3597536089478336,13.556540638970125
89.51671591632157,-43.650656453269,-0.32271937855371924,13.631887819302444
87.328437218066,-43.9190302865912,-0.339991317758622,13.600772720897835
85.88230521942984,-42.99834702931885,-0.2140248224800991,13.92130211376029
86.01279707898901,-43.60910544873724,-0.27303797467706875,14.014514230961778
88.2900273957628,-44.553220953007234,-0.2819362779243446,14.026053699067722
88.64824438183756,-46.349811715757795,-0.3190938592501972,13.386113154257396
87.0002528609987,-44.2314542995495,-0.24438515057095875,14.362638816294384
87.897869347811,-42.46942611273328,-0.33207876518400653,14.580333305959584
87.31904764632145,-44.37071340068033,-0.26114206071231527,14.02480533797114
86.91817032643442,-44.15771176096391,-0.28923315452381115,13.801404255506721
84.14923846992411,-45.465927316185464,-0.13245121669907625,13.860551619483127
84.10833995855542,-44.005319949659686,-0.1692416041635409,13.760780443864826
87.32273184451243,-41.43600299238272,-0.3536666937630636,14.226237849337128
85.91410433492888,-42.26098914837834,-0.26564122644647287,14.024172738679532
84.07143032111948,-41.693620051476564,-0.21576371528688423,13.91130487693832
85.67225388789045,-42.29708434051136,-0.27111696154115267,13.515005651357795
85.0986241089208,-43.267166012994345,-0.22476430396730035,14.001399988882007
85.85165553593204,-43.60701996139861,-0.23296638464694708,13.425824920028745
83.56148115119545,-43.58490021764436,-0.1774063988027518,14.615227011630617
83.17756226529836,-43.57994409796889,-0.19426609669089184,13.942305014855531
83.49822008726991,-41.760977037017746,-0.1190886167253379,13.943003859452395
83.18202699188694,-41.99466848335226,-0.1485365655847926,14.493121380383176
84.14386184484697,-42.7275563005321,-0.19228884813374478,13.427268151431642
87.4993368579538,-43.897215292694284,-0.28406379775745766,13.254289864460965
86.33284847835932,-43.6651905144278,-0.22276189669322524,14.013611577627003
86.33284847835932,-43.6651905144278,-0.22276189669322524,14.013611577627003
85.13943918532541,-41.93957506097865,-0.2711268530667509,13.760096979225294
86.26099086319923,-45.32986348065451,-0.22566201731883886,13.783365506402566
86.13624066134072,-45.17186864999038,-0.2389826680368874,13.785782418866887
88.20551436135804,-42.642814348097325,-0.344207602865095,13.847141731192115
88.96023399062739,-41.71960178859075,-0.3886792125260099,14.092423398430013
83.7186221164606,-41.01584128869705,-0.1881932069911318,13.70514858449702
83.02327326082104,-40.85723146452685,-0.20132691447072842,13.99633505071638
83.0970286041161,-42.91748346002652,-0.17447654623132072,14.280434116037819
85.43877339831408,-42.81367001479536,-0.22267988317493964,13.573114518124566
86.45762812918969,-44.493225897825845,-0.22728128824152796,13.068188325572395
86.45762812918969,-44.493225897825845,-0.22728128824152796,13.068188325572395
87.22824179661349,-43.941514371309836,-0.2501003201419933,14.236875736095316
87.49002917447152,-43.91968857837243,-0.22302385274027473,13.515073044932791
84.41396845121346,-42.95087123499334,-0.1767828309728119,13.536693404345442
83.63250297519296,-41.65252083534775,-0.17443571317123396,13.202906596231498
84.35294447620966,-42.63249196702649,-0.20764671669145096,13.036525099625058
90.26760853332931,-46.11383901816281,-0.3514481437652926,12.989060640183414
83.31753110365673,-41.019631165785356,-0.21150794791777858,14.372374874224514
82.9984539970508,-41.07374272087214,-0.2279275824766367,15.106293154202472
83.54526417607326,-41.392421266421636,-0.20983189446958345,13.798840388546077
83.54526417607326,-41.392421266421636,-0.20983189446958345,13.798840388546077
84.7903898796137,-40.6680904098865,-0.23616604096069602,14.928617046450997
86.17052548377802,-40.8293336218143,-0.319036521157046,13.644823366617763
86.17052548377802,-40.8293336218143,-0.319036521157046,13.644823366617763
85.9178465421897,-40.73591340508406,-0.337633524073064,15.150120174170441
85.9985641670956,-40.960602310126866,-0.31637618240475524,13.938619874220644
84.39782544691018,-41.368681458240815,-0.19697616636606932,13.810779774548365
84.39782544691018,-41.368681458240815,-0.19697616636606932,13.810779774548365
85.2287477769844,-40.03568869328045,-0.3016663988821638,14.58882184738733
83.39784389129271,-44.1996660805461,-0.10618045651006754,14.6144508388102
82.39523083759302,-43.6741736744557,-0.05524799476860258,14.712375037681168
89.12752962620392,-43.454307441473155,-0.351858864125963,15.313525977572866
88.90721245348382,-43.141531770318934,-0.3791647377659907,12.688626094749365
89.26895477350259,-42.74203113633996,-0.39559569431508107,15.250921421038655
89.23352518003394,-42.287836791395236,-0.31723516085372055,13.418543765452359
88.6188202466462,-40.55795578011924,-0.334661477274517,14.10883901300802
87.34596334851615,-40.61696183010022,-0.4298251025474972,13.884707747500046
90.1020976160779,-41.141978704044426,-0.40651919194522257,14.04882181958494
87.68222067090677,-41.38755713308724,-0.28953255597337385,13.19880828808884
87.29277842417106,-41.68063725262951,-0.29895947267163325,13.45427940312837
85.71287454883846,-43.40556686589948,-0.26227591776040926,13.907689376129143
84.70656503148102,-42.54125771734169,-0.1961352142890877,14.39860902409375
87.78822156473912,-43.29292225143247,-0.30301031954335345,13.210140171187838
86.89931015945925,-45.15654181063328,-0.22974708698293123,14.254485379588793
85.21647817415347,-43.6767040525787,-0.21818729354398053,13.83699470908326
86.04666372629819,-43.87258830105131,-0.25356704813298564,13.950906289336706
85.93819541183822,-44.00602107040856,-0.22749026307554743,13.544131606142445
83.42398884724663,-41.67806923355562,-0.17758156230062522,13.789686983931261
84.58442518557855,-42.97343292993658,-0.207274664050943,14.229227412768864
84.44580071338045,-42.51759688657437,-0.24910622158404191,14.345680858951319
85.1274451849605,-43.35555364072379,-0.2530125754150358,13.939774975239816
85.40179618866796,-43.196648346520696,-0.23557952628757095,13.541742451644444
85.09226534092062,-43.48227629979883,-0.18826624500237768,14.067157560754701
82.86851878346359,-42.60378296395007,-0.17416590319365813,13.618360949107883
83.18639975567098,-42.29697019417628,-0.1537078280883974,14.075951577062352
86.85853311662991,-43.119247826773844,-0.2974552719287712,14.027274061827292
86.85853311662991,-43.119247826773844,-0.2974552719287712,14.027274061827292
86.78025993292587,-42.32444971839594,-0.25421435767540584,13.23245814352124
84.71279609844312,-42.856935716636244,-0.22663364602551395,13.082367448628826
88.80025715718335,-45.051854341696355,-0.3756690082350604,12.969044833699094
86.33252787897558,-42.3948019643484,-0.2815660352911024,13.64096567727799
84.85553551588545,-42.47606913941797,-0.21313653380091951,14.429552519166629
86.33008315089177,-43.68314659834824,-0.2597243471567998,14.377219469310832
84.90893029962072,-42.621518501279105,-0.22950105242745783,14.512765660473994
85.82295923597965,-42.89761958734008,-0.2561661773286118,13.564972487992062
86.09708602632715,-42.66662129515707,-0.2551098060282399,13.627918548555234
85.45687080645835,-43.95928761003041,-0.22644674146617458,13.67408792698107
85.32551627686284,-43.99779739928772,-0.2248220793450585,12.908455436438867
87.53683061268015,-41.96347669342522,-0.34292295508815285,12.743725794543314
88.83136977249637,-44.23282987362577,-0.4011358485486533,13.283815550764796
84.0871776840023,-42.056465363068774,-0.18367536490022734,13.33793575605687
85.54558094600003,-43.545037782265716,-0.1980396462596762,14.036837972756198
85.47293522162569,-43.41142660312335,-0.22457668602332415,13.45740841335105
88.92685719598344,-41.78879039335677,-0.42433695967254503,13.730855797068836
88.96320954740075,-41.82181294084155,-0.4288599229274117,13.3883024515096
85.79770982097286,-44.15030164825312,-0.20869500556957954,13.556095382042761
84.94322898827016,-42.25498560835599,-0.23125105177807118,13.372860243502652
86.37296615859977,-42.23844088335234,-0.2996971878759863,13.070246657570058
84.5965646557448,-42.17716989590096,-0.22898503729427847,13.827610986698044
84.83040635501207,-43.72617487537166,-0.2067052527728556,13.93288663030175
86.98945116256742,-44.18522354260282,-0.2450491122144537,14.09949927082738
86.99771193094044,-45.10988896424809,-0.2590470490571743,13.775133723630642
86.2107165757312,-43.701067601082016,-0.2314329873964529,13.318788919606753
86.2107165757312,-43.701067601082016,-0.2314329873964529,13.318788919606753
86.91138652719586,-43.232738361569034,-0.2808064993208284,13.128842625122042
86.93184361312005,-43.19067515325164,-0.28404218852091295,13.968002132070737
86.44296065517713,-43.18728114740584,-0.2973645875686965,14.310452313771268
86.0516709050471,-42.563657556984055,-0.2735105229122714,13.137563420190448
86.3877725062459,-42.61464042958761,-0.265028751801632,13.49742563978506
85.29724808770142,-42.31743252271168,-0.2477918566447303,13.778219230250478
86.50427196665719,-43.6598663519892,-0.27099568258910656,13.399470429097237
86.79719577217931,-44.87132444495162,-0.2288012949908877,14.408289719411972
88.86187575382817,-41.992533507766474,-0.384817106277312,14.430975885180336
87.43737324137585,-41.182411864503514,-0.3530291024624556,12.969057923841078
86.90609406996914,-42.754811336004316,-0.2876898394558667,12.734261196117966
86.73522792251511,-44.596506900704306,-0.2552896675331881,12.841156782645331
89.03821515795048,-43.22853576357818,-0.3554543443590928,13.118824626117835
87.01435909778485,-44.02396402389272,-0.2909955034471559,12.956758147156325
86.79000647853728,-43.675931900522706,-0.28569847260334497,12.766456003022494
88.09944730111921,-44.06345861895446,-0.3170493671242712,13.5363594874683
88.27628765609886,-44.42373943993937,-0.34243283253945367,13.692000231965222
88.5515393565465,-44.43173928192458,-0.30504845699888455,13.718905328865642
83.3619326961261,-43.65916845746935,-0.15568072373854325,14.087451507164817
84.56735973899664,-40.653243743961525,-0.27488224231261693,14.335256630068628
83.53070086317112,-42.872436399591656,-0.15679986095876822,13.426482185781381
89.01922164377515,-44.48291068024799,-0.31900272765887194,13.419149216209481
89.18622665815235,-44.59176640808511,-0.33398021966223584,14.169114169699752
85.47403076443806,-40.485944168867924,-0.26910509068406385,14.056761116374917
88.73346062213362,-42.71295342863797,-0.3453670478153048,14.104636437470484
88.00471297632946,-44.130096075638406,-0.3391763879160644,14.07821827469037
88.67729767156418,-43.93442909747372,-0.3008149141254242,13.459420234273395
88.36130998408925,-43.86232697294155,-0.3138362006776694,15.148993334229596
88.42658990369627,-43.95496197664287,-0.32227202965229174,14.66492654365314
87.23125148147145,-43.13747300534424,-0.3266516070573259,12.894968082664281
86.0322299727345,-43.920396932603566,-0.16097876174069015,14.69570831543405
86.07189730239237,-44.03475209198865,-0.16675010361854756,13.582922809674018
90.48935374119036,-42.654810268760926,-0.37527172193269603,13.775340271126625
84.7296138422702,-43.57122944522947,-0.14962138902432454,13.610950504944187
87.96474780174103,-45.561584049353655,-0.2715694249044095,13.628504390306937
83.9135657233355,-42.626411706076865,-0.1783881347574363,13.27092678629294
86.09664957914649,-42.41717278521679,-0.269843698264514,13.4682027308792
87.63814559688002,-42.45068561291194,-0.3106291755319403,13.620480769031579
87.66984349836065,-41.779661697893104,-0.36434765553660003,13.619516082634195
87.15424002532001,-41.16511266928682,-0.324900406007384,14.09541238516961
87.15424002532001,-41.16511266928682,-0.324900406007384,14.09541238516961
86.93695570031015,-43.6568285866272,-0.31211455000825256,13.282201870123684
86.93695570031015,-43.6568285866272,-0.31211455000825256,13.282201870123684
89.52345839639283,-45.470663737159605,-0.31173245042910147,14.852536247399781
89.40017560769373,-45.21933032852671,-0.31433373788716,13.791050868087266
86.7795140298215,-44.116864486280306,-0.29784230229037995,13.779070456687327
87.22853431029306,-44.64989226134925,-0.26222496387910055,13.82047863769425
87.22853431029306,-44.64989226134925,-0.26222496387910055,13.82047863769425
86.5046065741312,-44.3430983694691,-0.25269233007153263,13.680566893988233
87.1462312817302,-42.53422836690401,-0.3087621107877729,13.619341582683873
86.4604672871617,-44.368485480724885,-0.24860677299931572,13.724396188728829
86.4604672871617,-44.368485480724885,-0.24860677299931572,13.724396188728829
85.58872184667693,-42.11019688863904,-0.2638066664913628,13.641254736447227
87.026691770529,-44.817286137623505,-0.26230042488888666,14.530901085588102
86.691973768716,-43.74502500309775,-0.25736151946722485,14.472816353551027
85.52112991951128,-42.61573271591819,-0.20630724741362655,14.685897368633885
85.78576181442122,-42.23014309917795,-0.22682015505554487,13.412853059237662
85.26823855260182,-43.66918637485208,-0.25440555657235847,14.895789279641676
85.66761131809275,-42.85490814198584,-0.2174435253101727,12.96751880183429
86.99135585261912,-42.49794273897625,-0.2953683350485073,12.906965021133772
84.55617789739067,-43.10035435095084,-0.19747737450116645,13.912558775346904
84.23136534780802,-43.43951414650938,-0.1772658282392161,13.893556042351959
88.21910564041687,-43.73881765848003,-0.2995851887981892,14.035261395862511
87.78871918278882,-41.24343437285211,-0.32895025923599586,13.625945271366225
85.50817287645248,-41.755799832061754,-0.2551471094685646,14.122307657661846
85.74600943614658,-42.92390130916684,-0.26815795291906397,14.000205177236117
85.99900565730132,-44.35465458241135,-0.2025198675100134,13.97720670073532
85.36384752188434,-42.51506955451249,-0.21091172607563707,13.261998937710857
84.70489437526747,-43.38233790103309,-0.2063606291592242,14.488332036465518
84.72834432349536,-43.31719029683646,-0.21575871989877307,13.985258814080831
84.99767375199725,-44.07777813307822,-0.1742461753823895,13.342080424896535
86.00197271331194,-40.58121668737634,-0.28030692001863294,14.497266202076263
85.72928132963976,-43.4549277210419,-0.27376844756437363,14.042244399885206
85.18701160995214,-43.76133416765791,-0.2533313011410805,13.935296796385854
86.44054770977381,-43.859663625414846,-0.23093810452400962,13.398055874336398
85.81658775700981,-43.54956640066003,-0.2582423045927351,14.168078732807395
85.56660810902277,-43.89418956701928,-0.25462689718119524,13.657059416207856
84.93226484304547,-45.041838636953784,-0.14751131151317667,13.902833928156202
84.14534345225229,-41.72417444294332,-0.22776180264552554,13.117885189383559
83.9745107335357,-41.5577741943726,-0.2516479554587505,14.72423238348296
85.03049664501677,-43.09080223019326,-0.1701310898564539,14.66157186103407
84.90903354865723,-43.028590689902266,-0.17487547255248473,13.788388232372279
84.28696415410872,-43.452043747761216,-0.1598836708118524,14.60220449689839
84.86432497985801,-44.06748756219427,-0.19992196064852022,14.574070626184563
84.41158849141722,-41.408514831285466,-0.22666585488976893,13.709516165571356
85.9691359851575,-41.272657256136945,-0.2888667329260231,13.31143485515032
85.11392745964645,-40.61710482342507,-0.2527931038683866,14.148347419827966
86.61949297168238,-40.81068997755703,-0.3466101121105209,13.583435794725686
86.40275634642323,-41.83403032170982,-0.27418223473624376,14.220124042697023
86.97987426084521,-45.14785239367252,-0.25000510012455573,14.188654931974085
85.96971980325895,-44.217891743098725,-0.20860621443998867,14.345125558216832
86.12373939338757,-43.534808804321415,-0.2205352329004746,13.957283669513362
85.05396557085149,-43.05227160818987,-0.23525962954691687,13.723326681815921
85.33460621009702,-42.71831016034209,-0.2060909323132286,13.82098343054018
85.28131814041559,-44.162721781263045,-0.24888141237970318,13.878980177979567
85.15785694048286,-42.237839211547396,-0.18322742661052752,13.945698260841013
85.77475975897023,-42.90246245068468,-0.3190299177568064,14.068544357298942
85.88428483948763,-43.10073544971071,-0.32031231667416227,13.218882469880697
87.82887887135765,-42.649621404309336,-0.30769552361291463,13.114728049361467
86.28100373578413,-43.94383086362924,-0.20703189714275982,14.08207443619823
86.28100373578413,-43.94383086362924,-0.20703189714275982,14.08207443619823
87.66696892660154,-44.83961711200576,-0.3219329360347187,13.96434027752431
86.39401432186258,-42.73612489168694,-0.3063099758258572,13.519638385090952
87.30200387763374,-42.67671526169854,-0.2830024916190816,14.054111015750799
88.761241574773,-43.767066061529675,-0.3379780902795211,14.01592737345806
88.35277266564289,-43.29005288130434,-0.33523400951098087,13.8488120008061
84.05074980311387,-41.41033827418193,-0.1967405980154196,12.90618511072821
84.40830491157428,-41.97681638409598,-0.2235226784715069,14.826575622064407
84.44397765096366,-40.26579529921368,-0.2517847911348617,14.369227653439586
84.3557477620611,-40.40627205366701,-0.26083102362022914,13.715711760398777
83.90163391145045,-42.31681252648168,-0.1608149322927917,13.651791582997005
84.37591668203068,-42.116419412655475,-0.205469054348007,14.159903095208973
86.97646950388419,-43.435162966177344,-0.27229833195657926,14.172035820928343
86.9720089643669,-43.07984022148718,-0.3151945230375535,14.166730685808846
86.78849274486339,-42.39582045599173,-0.3034489086888774,13.84128779509443
86.95598810321202,-42.7486130067311,-0.3041479739643536,13.409683040652597
89.9503546914527,-41.975269690199866,-0.42242127336259544,13.997224173737017
90.79082764939677,-42.5164041468355,-0.464158982869658,13.64757901832576
90.35397714178063,-42.44888293589978,-0.44306876587688576,13.948043131530465
89.979379597213,-42.15949918754825,-0.37839480656816693,14.766153517068057
88.9021885624809,-42.57187342333365,-0.37176773795013573,14.481399187338312
88.93355342413432,-42.87056677021055,-0.3522846569513087,12.274093125370388
89.65030426860424,-43.448431959658684,-0.3904576874704582,13.656963532468867
86.7986864439546,-44.59585432204875,-0.23011002531586325,13.449853127958027
84.74842327363862,-41.90413320787592,-0.25431126383845454,14.05774994727241
86.08525022176984,-41.85350020254275,-0.22215400637840785,12.953621376310904
86.28837253296007,-44.97153153265788,-0.2716482527847292,14.638494564622784
86.01991078068798,-44.37192125723594,-0.18230667521922286,14.14736890974882
84.43766677291465,-43.049672928397555,-0.19472715969273965,13.613975988870997
85.64706280940364,-44.98841698051088,-0.2041730011263404,13.65647076668419
85.427862041129,-39.78481447372053,-0.2989334748685457,14.151830886944069
88.53185955768065,-44.11937881731177,-0.32252594728486195,14.003870240865048
88.13909371531885,-43.91263770860397,-0.33792862396373724,13.780033019025915
88.44182652930424,-44.42144540031163,-0.315290439484341,14.602629640364299
89.66699089786509,-44.156466555180316,-0.37162378392692996,14.113749310153318
87.26795490082935,-43.926556937010204,-0.2829844538434841,13.799147367505432
86.96864229809152,-43.660595002954615,-0.2174503996868396,13.996218832166914
86.96864229809152,-43.660595002954615,-0.2174503996868396,13.996218832166914
86.46037638003303,-43.412331292883124,-0.255325126334448,13.8499216633607
87.43829660882469,-45.92863479338505,-0.26580582087219096,13.703385909658882
87.38567610495778,-45.75770407470397,-0.2622166349064821,14.998716488450082
87.14076479778727,-45.947626441253,-0.2755319289209988,13.344326172524417
87.88316119401603,-40.483088264928234,-0.34521925592334785,13.418613775825284
87.20507757627075,-40.28227623906305,-0.4293870931056222,14.288845527635953
86.61175627241575,-40.808531139183025,-0.37061348406722855,14.506895872812878
86.76193581214604,-40.20007984931419,-0.3075228156703432,14.388692890156328
87.27934674962124,-40.05016529245974,-0.29033806310425114,13.681310174337138
86.45208139632861,-39.85134152759414,-0.3642086510286663,12.606383541400827
86.09152923360637,-39.91279573898647,-0.37834796073328236,15.259157448348411
86.24338202628424,-39.8605410619784,-0.3635753880105272,14.54114047526939
85.72288921162762,-39.66039111286125,-0.3965443241957858,13.864013789638495
87.57394432876896,-40.51089842371192,-0.3065157982470795,13.442172634962475
85.94964582230457,-43.86714520219007,-0.2684143729149352,14.376315930534039
86.20357345847874,-43.92724507314208,-0.2758345031188446,13.277042818648857
84.34112302934805,-43.73869907925862,-0.20181513317748773,14.183208614545526
87.00144440599603,-43.52178413409919,-0.2445355087991222,14.267084125876623
86.90778590873936,-43.11975645606043,-0.27888937944704517,13.246858344127784
86.68232886727199,-43.14338015886178,-0.3025533664957182,13.275609874355053
87.45740423962609,-43.22274708168469,-0.30925826228171205,13.146893772669227
86.52321960670075,-43.87369282342075,-0.2634377815846095,12.98287185804172
88.35126464637398,-44.48087293052473,-0.3410653146041836,14.54120979544348
85.2491920733,-41.810841701050606,-0.2460219983021569,14.474522586656603
83.73016177358808,-40.881229941770485,-0.18386294619901145,14.572833259343673
84.4036306738954,-40.49210815097038,-0.28202500601201214,13.249516872164522
84.70654464560829,-40.53513302700616,-0.2690255364104213,14.98910582262266
84.73429487248607,-40.220389566630196,-0.2797219052189946,13.781180426725687
88.85734627311348,-45.84640032241358,-0.30301979141404267,13.629768105253849
86.55105648210152,-41.24460502645265,-0.3058633574617402,14.242447293043677
84.25004085745641,-43.00338696045394,-0.20336555261171796,14.20899549685536
83.62353850120839,-42.293128129636855,-0.1653858935614251,13.632674861367125
88.08218352623297,-44.657048962579395,-0.3018115413332021,13.882934266505124
84.90252708059752,-41.32034914711102,-0.2755012304624436,13.676911521532299
82.58985862534463,-39.91420421740792,-0.20909323441890218,14.127341288043889
81.86097877213055,-40.096556383024364,-0.2281725662118343,13.781568447081144
85.22980030482935,-40.8420388965944,-0.3448144270243566,14.219486075382822
85.40885247252655,-40.864291197300176,-0.34202276464622855,14.090430648033639
86.8076914630562,-43.782664503047314,-0.2893534074870373,13.327523141009582
87.50872178959474,-44.51618315474802,-0.33135941871165947,14.32422173469818
85.4470176977474,-41.650463712983736,-0.22939607717199806,13.189663094363759
87.26602000189307,-44.85788538019567,-0.25367534859048124,12.980701551638454
85.43547367122946,-39.882212599109515,-0.25914990271580046,14.00238398856082
84.34963773074263,-40.259788101735495,-0.28350502252372606,13.994563805590232
85.85428659586462,-40.46746288383409,-0.32725224496414823,13.629079800834273
85.3191614381749,-41.349398214705275,-0.3271163079956927,14.296743458186848
85.80798756877732,-41.27879634577092,-0.28530224045098596,13.327293068172057
85.464721397944,-42.6915028225873,-0.21228846184720962,14.002563108676238
85.47065314343688,-42.568876123776064,-0.2240882567356786,13.489140989250535
84.85632630655883,-43.74358052003447,-0.22279895055091073,14.02492018482762
89.31496029817784,-44.01737890220823,-0.3728972890287419,13.699011349747364
89.0750319607977,-45.06533529341606,-0.34013309701395805,13.537437488336813
89.01246968427645,-45.521549140291924,-0.37483564409254355,14.031601874142872
89.57445661805333,-45.734206783305986,-0.3845301023987694,13.82824005095209
89.11182251278592,-45.77103555904204,-0.30041977806445536,14.182681815757588
88.5988389325368,-44.72376824235201,-0.3376176515706838,14.221723871294094
89.21409830948151,-43.85597303051177,-0.3833397486758347,14.296360644112632
86.24415863156923,-42.17261345775357,-0.25052364988266423,13.128579735966992
85.92479518612274,-42.07045282272952,-0.28244452944875614,14.324546753629411
88.53994446525856,-42.7694175430266,-0.3254539473678659,14.734797893101348
88.05766016932935,-44.885055179657506,-0.24902831498130445,14.990448875042041
87.15985040788122,-44.31964038826912,-0.2581556875740736,13.317543414399811
86.74235766671642,-43.28071961474863,-0.3130816015140656,13.20563934506257
86.76042777020935,-43.348190371634004,-0.295446101644681,14.556166269738258
87.78427069926751,-44.47125806577144,-0.2776395127863958,14.507504391982579
86.36790970589175,-43.54096106855712,-0.26891601503794027,13.881566706422953
86.39024118069922,-43.216858255617815,-0.2581496298400587,13.638738643470159
86.1604655823419,-43.49486500509062,-0.2790105038927789,14.209596314507252
86.22960367508655,-43.35665226072136,-0.2604186878461053,13.489426298918199
86.48340608500632,-43.692561398579514,-0.23435879188684378,13.985948048474928
85.48083223447705,-42.018170907962364,-0.289683325779042,14.227617941733568
85.99596449873638,-43.067828094988556,-0.2131819405202447,13.560437010738028
87.98838622295953,-44.02530433448608,-0.2775947938240127,14.200835129595157
91.2407492893699,-43.947179034707176,-0.46203651295680387,13.976351084135409
91.08426787635588,-44.45197192378209,-0.39641551476638237,13.89134206382178
88.07273206082962,-42.70033132135881,-0.3861636820009676,13.849961048380402
87.49810058507734,-42.810265299295054,-0.2782048492410513,13.291549038890834
86.72542363816781,-41.63790870005706,-0.34907425450619034,13.145248201288672
86.7344148277089,-41.28002230612736,-0.35791868501195195,13.298113545808532
87.1768928619369,-43.75377622050298,-0.20895543413395096,14.346748994569621
87.14193302464201,-43.850876179508866,-0.22042736192944368,13.443836439157282
87.14193302464201,-43.850876179508866,-0.22042736192944368,13.443836439157282
86.78266966554921,-43.771243200776446,-0.2847141718701732,14.197466528129706
86.78266966554921,-43.771243200776446,-0.2847141718701732,14.197466528129706
84.50381458794807,-41.50827978263902,-0.23652469019301856,13.540914183675675
84.20125132572073,-42.044797743065416,-0.2407590182234564,14.559183924582971
84.79061966540253,-41.766170057092815,-0.2440136401834797,13.836902383712129
87.5654602936458,-41.190064003088,-0.3832921807211278,13.172892770394414
86.80995611512922,-45.62986830028469,-0.2604724830390902,13.126450380630402
86.81324533009919,-45.32654524726038,-0.2690389254591308,14.70775741617406
86.77939786340066,-45.291740721347956,-0.2707613383116438,13.899423301911103
85.6070737241867,-44.315109080522085,-0.22084423231546862,14.305395008489187
84.59116156687351,-43.834009038219655,-0.19668512464969518,14.114628632609836
88.0029142504943,-43.744758862498514,-0.34972402858807866,14.169600126754938
86.91392312684366,-41.68705385394891,-0.35086293962114035,13.40607729749513
89.40509309753068,-45.82879599591887,-0.3638204166474823,13.59860954130649
89.54775946249478,-46.236195196395585,-0.3457721425965298,13.477954016545961
89.17308098290349,-43.942310258770505,-0.3786233565957334,13.993473240974753
88.18219118572577,-43.62461205531699,-0.3125268132693609,13.903828856092538
87.68419067913857,-43.407385888741196,-0.2810909762143545,13.646530702453049
87.65424679777868,-43.44486433942689,-0.29389873301551545,13.531925203249735
87.69005834801638,-43.773013347227455,-0.2910742479020641,13.57290191285875
86.77764150438942,-44.01484365192593,-0.29696461082908543,14.051017210662847
86.33702003992185,-42.31280881766736,-0.26673696330039337,13.433823329900989
86.91027590819766,-42.601788258110325,-0.25753325563612633,14.208756622054514
85.64924089465958,-42.29013516543997,-0.3076276547096181,13.870044712443333
85.8832064255186,-44.302345728910964,-0.21224388028830765,13.944497000048345
87.4024142104911,-41.44615172467929,-0.34632961478607677,13.661878792901355
85.59210555517728,-43.025281682048494,-0.2546682804981481,13.605003996985976
86.19478083551446,-42.26267813055978,-0.27187050922629435,13.181609333762015
86.87745828634844,-41.36799497514842,-0.27120465449467424,14.622568703357333
86.14429554520828,-41.67059964681201,-0.26887573461398995,13.82346143797798
84.91474268288052,-41.93565362645273,-0.2569129309226633,13.914421811552206
89.25343081591748,-42.97507856516201,-0.37048943386160094,13.268199237940697
89.64803627994345,-42.357335332676044,-0.37635709919209775,14.393906203831078
89.59569570955352,-42.20136777252419,-0.4003963379127723,13.664309255317926
88.13833409657668,-42.77895023603518,-0.3895074274017846,15.018803749172358
87.20320675530205,-43.33497291233965,-0.2876713551740209,13.335429445195881
86.92635693730851,-43.026634740609026,-0.29035131700781336,13.08198843177712
86.92635693730851,-43.026634740609026,-0.29035131700781336,13.08198843177712
87.63450724067438,-42.63948611832041,-0.2915839220033621,14.248355929410968
87.26209538069568,-43.013583451828744,-0.32229981739720215,13.38331850713057
83.4985903836388,-42.87616787415379,-0.14164456123741664,13.047447952713453
83.307342537276,-42.86343505759279,-0.16156521013628275,13.785646612684467
84.65776112508037,-43.453532627870906,-0.1858768095565488,14.35218735117353
83.10695125114495,-40.942349804209506,-0.17779777241685293,12.973047785838903
82.69372324205571,-41.288974799911564,-0.1780086180668148,14.57545688183175
82.37806534643464,-40.80330348015376,-0.17326576790999162,14.088837649566072
82.44916254935174,-42.183791549056,-0.13823713034622664,13.66775599157541
82.44916254935174,-42.183791549056,-0.13823713034622664,13.66775599157541
81.25744174086581,-40.903938874547,-0.14013945109323886,13.443433089149307
82.38348109402078,-40.04036866289424,-0.15704912769356183,13.321963109433936
91.40180728071675,-45.94819974778506,-0.39461446488327484,13.345884670890834
88.0080963124108,-45.92922695191079,-0.2527896855225905,13.00892926642825
85.03516142963083,-40.13440632078379,-0.27033593973018316,14.250515655216294
89.43262263596873,-41.43769958214635,-0.37985144834048906,13.756277947792075
88.39594076401181,-41.71455040390848,-0.37730929855822987,13.711242231234854
88.44102770911007,-45.793114508044944,-0.30220967067926957,14.418749710366821
88.98027211140801,-43.41550496628461,-0.35878674777221436,13.16020843603098
83.55750235676061,-41.380012394873866,-0.21926706924977152,13.942292206130222
85.0219012770332,-42.05580350584552,-0.2546156405603083,13.16913008944767
86.12140812564628,-41.62360763571498,-0.3314128680711615,12.815263503573252
86.53916872186227,-42.22737201607821,-0.33718639911066234,13.233315934536103
88.59309689102794,-41.85091593243694,-0.36605218571237985,14.612383199838092
83.54195918511003,-43.523395362528795,-0.18509745703057848,13.08953513310902
84.1433319012445,-44.290433435024084,-0.12581785612215127,14.126529495351226
87.08747420559938,-42.32640450831565,-0.28491082048213434,13.367240480238904
87.08747420559938,-42.32640450831565,-0.28491082048213434,13.367240480238904
86.60189676119325,-42.938805363787004,-0.2980296466277237,14.074530208649564
87.83773111140202,-43.62908100582582,-0.3111187120416588,13.654339162444575
86.03355680759043,-42.250502472488876,-0.27991715859906424,14.130834037307391
85.64587690985866,-41.8220965254675,-0.2956969074853218,14.16516533147402
89.39493350027081,-45.367393224817555,-0.38763383117338635,14.335595167061678
89.21781850684214,-43.48227180899516,-0.34776563509428826,13.815041803163385
88.6567786183768,-43.3584010533197,-0.33439028786382735,13.799173512682815
84.19503410573714,-43.41995341343998,-0.2294740433811871,13.130204894245445
86.86815403653509,-43.45297635399252,-0.2230907793768608,12.873326195553371
86.13755459872641,-43.334500107485276,-0.279434192731149,12.829114779882186
85.91141158516231,-43.79059511728462,-0.23973485295149674,13.088391203536458
86.81234497246527,-43.22026394186354,-0.28765630897433747,13.533878013184593
87.30343204234278,-43.07272026417911,-0.2972248086393582,14.016469955601245
86.34692451343976,-42.73874496186736,-0.27490191682727416,13.987095763732707
86.34692451343976,-42.73874496186736,-0.27490191682727416,13.987095763732707
86.66254172751647,-42.227644181889545,-0.33780030489960033,13.229991062475808
85.86344793191931,-42.00314366060022,-0.30488143481141605,13.059889535977325
85.86344793191931,-42.00314366060022,-0.30488143481141605,13.059889535977325
86.17976362396091,-42.53445085307584,-0.27783977737384746,14.573522046053215
86.12445921603795,-43.2069444458162,-0.24487822918318294,13.150822657779855
86.09532812201607,-43.44868249018026,-0.2724529869241519,14.276743593015336
85.8925783153287,-42.591519059866364,-0.24263409719687007,13.62412105844324
85.9649291295723,-45.28763089198266,-0.22761181640365746,13.720604095746527
86.38123548875416,-44.74553307033649,-0.25026235624418236,13.56431505776667
88.70101564960866,-43.20107671642854,-0.3433422952469462,13.52939023954678
89.4827345872853,-44.48763721802391,-0.36175999828234295,14.056252623026023
88.80314421871995,-45.086185394754935,-0.3332447328088865,14.026386173148827
88.05136351378077,-41.8815338546393,-0.3683647448120602,14.777328194920653
88.05398261924591,-41.93358272429022,-0.3629441311287231,13.346189842433247
88.14225811713847,-42.23884401062329,-0.3432571897261457,14.197197458648764
88.01656823386392,-42.38760816241908,-0.33937452409337365,13.563727095557796
86.80004452578382,-45.00693512182445,-0.23043614237218726,13.079245731607744
85.2273252500763,-44.689244360752696,-0.16305261201178434,14.339742628779044
85.59060933491652,-44.517765537683594,-0.19290003571179265,13.962233977998167
86.20410226913987,-43.15199041344499,-0.2599655961555822,14.590759191140604
84.25801467327811,-42.52125160746555,-0.21018261649249947,13.598513772197741
84.80102245948643,-41.13232874657644,-0.26239874170792066,13.839038505403998
83.44203790848574,-43.1300085115019,-0.15719497070435123,13.977462553944338
85.03131059484704,-42.53695554818729,-0.21515268444963742,14.630433577117362
85.4649830813135,-43.25850493258927,-0.21477927547800116,13.462999680308334
85.45517192930679,-43.27826938515963,-0.20312083601199482,14.021021371141856
85.29925141032267,-43.517466876703125,-0.195674303257802,14.077426271522162
85.70243885786009,-44.465347089101286,-0.18865559622547382,14.099557119711392
85.98322354212488,-43.854434015019415,-0.26742300722074397,13.670301479521454
86.13491488684338,-43.10996783956678,-0.23061284078670535,13.11992132512279
87.36711255446352,-43.05630499683056,-0.32361438537030357,14.354515466057133
86.2702830569938,-42.574347268462574,-0.2573537149878597,13.958280525939546
86.2702830569938,-42.574347268462574,-0.2573537149878597,13.958280525939546
86.2702830569938,-42.574347268462574,-0.2573537149878597,13.958280525939546
85.05470529230323,-41.93628661164902,-0.23433227305871834,13.868512288738401
86.96553079496128,-44.994884601493986,-0.2437180151137895,13.571985264188925
86.88455942434554,-43.75105482006182,-0.2163347049400654,13.92550027609346
86.6715354666575,-43.73295783929247,-0.34535746675759826,13.82875104737239
87.11157244642027,-41.98281818797976,-0.24783773212996563,13.763051397287128
85.38611535360332,-42.282845939694106,-0.3215622506428198,13.222484500113875
85.50622836719259,-41.98182766121324,-0.3262879017454274,14.65719459764932
86.08838605770302,-41.485420887904084,-0.2517215231379052,14.170105095384521
84.37971466464013,-42.77238488247245,-0.20911038566381054,13.897783375024094
85.40874134250417,-39.92854389204321,-0.31553714903159297,13.555640948534505
84.85030997021208,-43.024008021971106,-0.19732629164248247,14.17519676601277
88.14741157297001,-41.99538313891876,-0.37118443078514973,14.202628163467692
88.14741157297001,-41.99538313891876,-0.37118443078514973,14.202628163467692
88.15664410331244,-41.59300295003384,-0.35416622645358936,13.694384044343417
88.15664410331244,-41.59300295003384,-0.35416622645358936,13.694384044343417
83.77454643235943,-42.159511722554605,-0.15995014041661526,13.921932338127565
85.49621946362743,-43.1186088633466,-0.2655900647379065,13.472125512771916
85.95604587406879,-43.240830598607644,-0.25274384655651017,14.219559073753022
85.51687631422477,-44.99630586945916,-0.21986610202205684,13.110093951120351
86.89490287310105,-44.7501809091938,-0.21392911227871259,13.929758307836329
89.93389171270896,-43.25402988354855,-0.34774732516547047,14.67594082353346
89.87743121806467,-43.42124504073123,-0.3781147959248615,13.855085434342342
89.07649453583929,-43.33823039964051,-0.35593969453139845,14.425608481578763
89.00782149860107,-44.97546406042115,-0.3179873850156109,13.158887472223304
86.99930333513883,-45.075042503899624,-0.23976825185575718,14.297887478769587
85.83987075757993,-42.64880414539918,-0.26026454592064585,14.35186007519225
85.98554141997585,-44.66915957883939,-0.25658626319093825,14.452494201752481
85.25579521415715,-42.71572694122646,-0.19258586496423552,13.531288292438813
83.75461256053363,-42.59119396548105,-0.14163954014838487,13.84544740805046
84.06091951546304,-42.55280532947671,-0.137159907537657,13.933529618849269
84.42620398582102,-43.46091190893634,-0.2047576691736645,13.498211739507699
85.54977431815924,-42.47307441805899,-0.25144064376807673,13.082704611218187
88.68856382462631,-44.81190193221283,-0.32480553289547226,14.586740279060566
87.28589284401173,-45.08901659973619,-0.2546132347280108,13.812387699000949
87.28589284401173,-45.08901659973619,-0.2546132347280108,13.812387699000949
86.83415580370891,-45.741000683529975,-0.22991579257346034,13.657335293388435
87.1346298879266,-45.838210128874394,-0.2172367135289914,12.91121019064361
87.21482769994782,-45.918449046509785,-0.21293884137073577,13.778618164038388
87.21482769994782,-45.918449046509785,-0.21293884137073577,13.778618164038388
86.86759534716928,-45.555747495564084,-0.2617932361158971,13.938263530834966
86.92722884447956,-45.16233181544839,-0.24204655759319368,13.611490408357119
84.98594849411542,-45.43180510407241,-0.15986648041604692,13.53080414061241
86.04685289220673,-45.96978697976164,-0.20920481572375546,14.107859160899006
86.04685289220673,-45.96978697976164,-0.20920481572375546,14.107859160899006
86.49883111657223,-45.84601293654573,-0.23700066823827334,15.267265743530436
87.0497566406924,-44.37130398722343,-0.2589045758558579,13.577918541482777
87.37417392609191,-43.212419799572345,-0.3064891483531174,13.904864650057116
87.15373487072787,-43.639595361036164,-0.3158898196666006,12.628149302767072
83.50337312359693,-42.58339384946749,-0.16509057079373418,12.938282031028548
83.3501985683983,-41.58498069129372,-0.17957345766037835,14.631907068302434
85.86990902074618,-42.61024839920728,-0.2728516964899277,14.172242611428612
85.44541309010732,-42.77492848577504,-0.2278947159362824,14.275181271793288
89.04749351677629,-43.767160379200924,-0.3541874187932594,13.299553235246869
88.37888935102342,-45.051040806175294,-0.3221158210135284,13.249820517897108
85.15033099812635,-44.547100578807616,-0.20069524112830364,14.195402112125294
84.91748570271713,-43.253836704686954,-0.22558302961336602,13.553531610614783
84.93880681154488,-43.069803483199365,-0.24763090849835534,13.81386656430123
86.50766923172225,-42.38596856426764,-0.314526874148973,13.9027463103364
86.50766923172225,-42.38596856426764,-0.314526874148973,13.9027463103364
85.20029386654998,-42.58416038763305,-0.25698668470983466,13.43231126275485
85.14218185322356,-42.55589209604275,-0.281255780201132,13.13328584561195
85.83913353079159,-42.41018443312014,-0.2489361083076592,15.093118038215403
84.80812649505599,-42.63823698438759,-0.24984319044515121,13.10774478800939
88.30328155849911,-41.6755975551613,-0.39785083956736667,14.648325746984167
86.05617667140582,-42.19758798956115,-0.29322851377143877,12.974929460406711
86.07178622128683,-43.467517991111954,-0.23628456616450758,12.836894680373065
86.25371678168965,-43.382791760099146,-0.23635872485994233,13.056089278170457
86.88031135696002,-43.9982557324861,-0.28038507506869154,13.162637626866628
86.10066469743542,-43.317828545513734,-0.25829953582128146,13.480675842967305
85.95212813579806,-41.489376547677466,-0.27289590253933294,13.528881410269664
85.95212813579806,-41.489376547677466,-0.27289590253933294,13.528881410269664
87.09032580573383,-41.61481287558006,-0.32770298993376695,13.55515702806248
87.2021905062074,-43.56718031126515,-0.3385760967089797,13.936419871557137
86.96418963171877,-42.10480915590788,-0.27296694780423514,13.397654225924356
86.9424234112916,-41.33836385935023,-0.36267056041961065,14.521925874199342
87.93312839051632,-41.79431072386917,-0.307824009008588,13.81850983792661
86.29863753256568,-41.77578063564701,-0.3393618401390395,13.74750251045748
87.29179728351487,-43.552977081794545,-0.2479212118969547,14.007436856173195
85.78409170132062,-44.19314501624988,-0.2796178566656187,13.980183358957035
85.59322055818937,-43.24598971114147,-0.26966369249551786,14.35878386997086
86.74283457051814,-42.857771837641046,-0.24112270448689896,13.503738567224618
85.85490687543793,-43.21102564695581,-0.2468780146795539,14.016667060335623
86.37012602595867,-43.101948694661566,-0.25646243774309646,13.893623374274949
86.24410491091258,-43.81395754352575,-0.23427997965949626,13.550118706996162
84.60628882683655,-44.30807389248742,-0.18610572394728217,14.203296225640775
85.42838909619618,-43.59255717082136,-0.21671612366516174,13.728285777902578
84.70846465931287,-43.348672292694864,-0.2082422802395657,14.108841444552294
84.30430111221749,-42.62984718821838,-0.18045120000476167,14.178296496719522
83.42578114624914,-43.453882500446234,-0.17565858418259903,14.082504865515585
84.37154681655684,-41.26124237312195,-0.24165957897867063,13.762589446585569
82.00411052334447,-42.351062096102055,-0.11918956598118721,14.128086077086122
83.33631809017133,-41.997750523041354,-0.15352728262264403,13.619759123768105
83.33631809017133,-41.997750523041354,-0.15352728262264403,13.619759123768105
82.66508101241018,-42.27708913361124,-0.17073180165972263,14.3783408545727
82.87735134552955,-42.35945406560655,-0.13876161158133968,13.239253999802425
83.73807021099763,-43.83299325963094,-0.1772575074411778,14.344231043619327
83.42285128818058,-43.99641626307794,-0.16775887119372923,13.846423895035525
83.75459724893393,-44.01798304323419,-0.1284552077988023,14.286434805910766
86.15893761116475,-43.836718049887324,-0.2257163198325267,13.236445802826351
86.18231813175446,-43.727089607179515,-0.2577772702176831,14.312214947470963
85.53717412135315,-42.00179868283127,-0.2328122556233384,13.925816851235219
84.75182993511272,-41.81232460816978,-0.24124558962773393,13.61787033212766
84.882320498527,-41.931421820627484,-0.2294249685122394,13.959354368822805
84.88638094145524,-41.926991900563884,-0.19024231922965446,13.811220489582409
84.41380117278084,-41.66950605701508,-0.21359585173496334,14.20342846699038
85.68870273354138,-40.687793433148855,-0.29614882095968226,13.642142024135989
84.56895220801762,-41.154780048084184,-0.24189177185515354,13.74308609375613
87.06558727551197,-42.899099181863036,-0.308732981650999,13.342537852362522
87.16559767899297,-42.947571528828085,-0.335658607899307,13.734665862203636
87.25944715356403,-42.90318262095633,-0.3161137409682347,13.016227626432874
85.17237063283285,-41.80346583902052,-0.26423620436277695,13.593437660506016
85.17237063283285,-41.80346583902052,-0.26423620436277695,13.593437660506016
84.60271963007659,-42.551205664739506,-0.23122187414461984,13.960951794489832
84.8396269149802,-42.77919981155071,-0.22963841221772002,13.33514275368076
86.96121569221847,-41.68779466406434,-0.30374800675428587,13.723952734664167
88.85510882059442,-44.6519175896542,-0.3571841081391506,13.763463788873953
88.21820336448988,-43.228049488087365,-0.33378709042233595,13.785099200990647
88.38003103629447,-43.328094143768524,-0.35890404179149255,13.333735828424023
89.0949018448976,-43.13838595318394,-0.3682807985750837,14.165150533526907
89.08010587892929,-43.145335294212394,-0.3691855379617219,13.833009850028526
88.21525099949022,-43.0736985467742,-0.3404508277024772,14.245267329746389
87.15848064540027,-41.82990526603269,-0.3435821316538616,14.47516489318167
87.6739288419412,-44.33009098010514,-0.29203755168923595,12.77350912738585
87.6739288419412,-44.33009098010514,-0.29203755168923595,12.77350912738585
85.23522120910862,-44.2877055195926,-0.20044948404075377,13.775077854320564
84.76588934540848,-44.41937325149071,-0.167961209012537,13.612437183303127
86.82398913195867,-43.42038003348294,-0.2824709153021488,13.860168997172485
85.39336810515312,-42.523568896624596,-0.245731880942241,12.973802761989896
85.6188249073493,-42.242676827480004,-0.2738254549676901,13.615771722952896
86.03454726301288,-44.6091761080669,-0.22490249433084117,14.236278743595319
87.08287664815634,-42.50111536017265,-0.2948239626006081,14.010892993302651
85.81789620392468,-42.50543852444269,-0.26162310992150367,13.48477257488205
85.81789620392468,-42.50543852444269,-0.26162310992150367,13.48477257488205
84.94921311564597,-42.47548694879516,-0.22596628248639086,13.538218927020994
85.35606901308039,-42.37615189517705,-0.20408280540686632,13.784992695850498
88.49033568464463,-44.53853595396214,-0.28296957556404123,13.737362593566859
86.54489269438577,-44.26003499655029,-0.25648462205896516,13.691355239356843
87.68902328248673,-43.38347539331371,-0.31071679799498103,14.027259687810506
86.16389709028819,-43.8941041001678,-0.24814355325179915,13.992159009333239
86.16389709028819,-43.8941041001678,-0.24814355325179915,13.992159009333239
86.00017187914527,-42.75328063589019,-0.26476494610179807,13.29958589306548
85.25724051917486,-42.481657693372775,-0.23249315054908906,13.772554337729082
85.78562765225813,-43.10296953746006,-0.26130799306867225,13.773769379763527
85.53533209790749,-42.70056798153086,-0.24987988808513048,12.89475488480407
84.93856715147793,-43.40196239446765,-0.26729304040741714,14.691871474270085
85.04928524588084,-43.495043992252434,-0.25779838888041995,14.661945714111186
87.93516948844149,-45.32333789623316,-0.3539853289308087,14.173633188284784
87.96945796281672,-45.68591692478696,-0.354292876264355,13.452903755643623
88.46534500022759,-44.457306213509575,-0.2747873944803748,14.597714016915473
88.46148445141176,-44.498790534063716,-0.3113167298329885,13.275943677633858
88.53724067107909,-43.00179448852506,-0.3250473856216741,14.153480793637733
88.08399898365974,-43.49504724293274,-0.3095666550126543,13.5662587243549
88.18702899357598,-43.28936391754179,-0.2538828699147068,14.556804017720523
87.39454322200571,-43.24499216513907,-0.36388131482225267,14.38710601373082
87.26011113059042,-43.2512168229846,-0.3299065256827746,13.281233709540977
87.45771015648533,-43.02864784958491,-0.2778481856296739,14.190032380748866
86.66787475516703,-41.89386994050362,-0.33857647420950077,14.027439828646042
86.5986659769336,-41.96674124466105,-0.2808370424327091,13.603144978182664
86.61690544009961,-41.16555355668294,-0.26947649465242,14.0069398459348
86.62383124870577,-42.07443818774382,-0.3217672105456793,14.366400165484311
86.52938617671397,-43.12923422590343,-0.29197189747993424,14.055921288559873
85.90218912692814,-42.323788984721865,-0.2576405931219868,13.21543800099638
85.34727210570138,-42.48403759795968,-0.27940028999385247,13.336845889766412
84.90913029084233,-42.886989187065595,-0.25287233061314646,14.500460419793937
84.98080354086144,-43.008160678285755,-0.24525931027818842,14.191580562915734
84.73873990673525,-43.924107171166185,-0.23106387492717592,13.371446327627357
85.98042447359704,-44.675517156697346,-0.2732889040278364,12.354924290666517
86.30998786138667,-44.55864423982156,-0.2612759237759824,13.864821746214574
87.44026120581375,-44.69831498970191,-0.25319254616845277,13.350672043606313
86.9733080480184,-44.04722542797718,-0.26403236390646384,14.074037527000812
85.83812560072649,-43.690775047033846,-0.23173412291188167,13.70263397586362
87.87271968069766,-45.5090539396142,-0.3035575967411718,14.565755980056954
