Intercept__0,predicted__0,setsize__0,p_choose_best_sd
85.40464729512445,-15.399412550113109,-0.19000140271803367,14.060353659533874
83.5233749324656,-12.540345515482983,-0.1859940132213228,13.926618214777887
81.74149851564044,-13.532076945012504,-0.0860610578167241,13.857100206339789
77.9088652095873,-14.442314104099843,0.12741002613353622,14.392818169048832
77.9088652095873,-14.442314104099843,0.12741002613353622,14.392818169048832
80.63183936191636,-14.07389420681811,0.005493292455100364,14.403196479591644
79.71195010847954,-13.991188540061787,-0.0007334868350897788,13.886503337904285
79.71195010847954,-13.991188540061787,-0.0007334868350897788,13.886503337904285
79.71195010847954,-13.991188540061787,-0.0007334868350897788,13.886503337904285
79.70452200629339,-13.840287568718894,0.03942392641600755,14.017912347744804
79.82121909259317,-14.980340664702528,0.0606642108713968,14.05360263910231
79.63000123557933,-11.360551707808657,-0.013703967365842925,13.344443265041003
79.66642255603415,-13.090600498137494,-0.007071809868182961,13.80375517027785
81.57383944682508,-13.530428749239213,-0.038367681868781464,13.67049568342757
79.16804997131294,-12.148721739586307,0.021921360948365942,14.216931133257681
86.24903442218846,-16.49953907651832,-0.22308397266904267,14.3897440338368
86.14107497348759,-16.415233902835176,-0.20105865037881895,14.420083314082051
86.20277685683423,-16.155360878137326,-0.23094895071586247,13.699851190414579
81.28263920716653,-14.289788339886476,-0.0694626548679832,14.010384495964287
81.50982742687277,-15.365073763766151,-0.03801687690861233,14.531866809649392
83.95095793040876,-14.560136632299283,-0.1684927709360096,13.8533746410187
80.35419576086271,-14.338489040260455,0.010059970395091954,14.189074126437335
80.15195534858644,-14.400215725286076,0.010572759850096062,14.097049015152072
80.10555738911877,-15.29085791438812,0.030432242642652825,13.869852322946535
83.05943554821972,-13.824617687712045,-0.10423337778121786,14.02815489100538
82.0663250794137,-14.112807837364995,-0.12016882592808886,14.297627553766866
82.01976629658728,-14.546979250851704,-0.11533958268139988,14.138065102506674
82.70469098042774,-13.991471189437583,-0.05597763675967826,14.03232836339891
81.5138710707235,-15.294267096957807,-0.06772224530140246,14.377173832825349
81.37123927367576,-15.238962269864148,-0.07481588918161769,13.227742967583309
81.37123927367576,-15.238962269864148,-0.07481588918161769,13.227742967583309
82.29623271596115,-14.25356999680713,-0.0415185051515828,14.853066904376963
80.89576038121092,-15.515866838891228,-0.08988455316298231,14.48803196711624
81.89866433779325,-15.427581741481935,-0.08124556794965984,14.215191557439447
81.03642841044051,-13.286884459367128,-0.021174727348965104,13.967522428288216
80.48548251480669,-13.291402703146886,-0.06421893028400458,14.86699007376253
81.92448051286469,-16.788591714744047,-0.10743185517443793,14.190750367962751
81.90872870470156,-14.49561044116071,-0.0318565905657653,14.479992846757295
81.42703941871807,-13.728237957705886,-0.05947715639391357,14.33628129484753
81.3000876684743,-12.240218726635495,-0.08536708955030199,14.26053478048781
81.09481527077516,-14.056374751921759,-0.015814751047800984,14.253199530894896
79.84735092397537,-13.960680672217977,-0.024724622307032287,14.172947144814271
83.83812705682703,-14.159788537773562,-0.16538465753488094,13.374003158638844
83.99981421570347,-14.707177262698073,-0.14764631229745476,15.318789589362288
83.92775710506065,-15.927919026020053,-0.09328060336073626,15.53473428134847
80.91532711830372,-15.1520788733425,-0.044293535409415455,13.75034713178966
80.95172514211109,-14.9507837966631,-0.03480361953123111,13.396436917679965
81.35055164294073,-14.231065386469794,-0.049490486671992365,13.965010272229643
83.2166335135519,-15.338254133236948,-0.055791762807394674,14.228107229734745
81.84387604537298,-12.505189656910916,-0.07439739667921604,14.263184236214613
81.70240809386128,-13.147172487277752,-0.0658787436659832,14.815121217191678
82.10991769813332,-12.783832460413267,-0.06171163992989776,14.749183454779915
80.59182691641077,-13.979415254876379,-0.051588925801807295,13.942518268636812
80.59182691641077,-13.979415254876379,-0.051588925801807295,13.942518268636812
82.36639364732635,-12.03942445194265,-0.10969555393752639,14.183951249931809
80.73250625619472,-13.070069433373014,-0.07122765254410218,14.072459045383704
80.54073081574037,-12.906336004341002,-0.0748366700059701,14.005853356144337
79.54666052899074,-15.621766049289647,0.061101968426273676,14.110037386652198
81.20728323679013,-11.30633235016359,-0.06423395209521364,13.999770089474618
81.67448795121291,-12.97584869318564,-0.050151586273838325,13.929432550476172
83.54138996737886,-15.330482456384411,-0.14532609940291666,14.551481919223223
83.02674954421578,-13.206672787934796,-0.0767689218042773,14.42288373035263
81.82332320222238,-14.3426325136898,-0.08393250573837704,13.527085712370368
82.02500437630874,-14.338538368146226,-0.12267698986670361,14.708611779715653
84.68482378208071,-15.929533451676011,-0.1885077999789419,14.795946753874404
85.54388895891314,-15.641063908793397,-0.1941928780012381,15.40191487033859
84.73279415355776,-15.806732960947596,-0.15421151233954244,14.06723497554037
82.65268867630704,-12.52668810883206,-0.08505693067289825,13.962757866872733
82.2158174642811,-13.020183789974153,-0.0901464829951498,12.854530936500241
82.56166177894391,-13.47154766145046,-0.09901196826992088,13.899603365849265
82.56166177894391,-13.47154766145046,-0.09901196826992088,13.899603365849265
82.29801500960474,-12.889490542724557,-0.12376064903819245,14.263522194604308
83.9258947332521,-14.025951567380705,-0.13108383728167144,14.333415245418234
83.34946725702962,-12.772048387718817,-0.17349811414188873,13.628338893212113
84.18452922915452,-12.97993364045437,-0.17981164823647877,14.885548190823707
82.74459304861796,-16.652881802710944,-0.06307476393610066,13.489754881222611
82.83909285000541,-16.504009384301543,-0.07792518076607115,14.52012802173626
83.98272555021786,-16.397611361201527,-0.15450736019217953,14.439546738849478
82.02618616386457,-13.46968522313698,-0.13263114434611864,14.422651131323537
81.95725738800725,-12.631966979429045,-0.060555340776415285,15.054591273675287
81.00100390069514,-13.521577685668534,-0.1073665744153276,14.859552203729926
82.02490704113652,-14.967165796533495,-0.030750273600330835,14.51088482364783
83.55749804166769,-14.834950865449958,-0.10048198639724662,14.227589541004912
83.55749804166769,-14.834950865449958,-0.10048198639724662,14.227589541004912
84.4380058420635,-15.471108518332754,-0.15754114209344966,13.642792966311848
83.96250171367109,-13.710282694513328,-0.1463219947154968,14.310954582288254
82.96909464932533,-14.276600590533466,-0.14474664549690613,13.546868862736194
82.46265350509347,-14.42915883845437,-0.06587840001185548,15.15736832890312
84.87085188424403,-14.085031992503316,-0.1704779412100652,14.865041665753827
82.95020451153232,-17.09611464263779,-0.07125348456117807,14.286173690873014
82.75458372186183,-15.309101725218813,-0.06155453816606301,14.190196416177695
82.75458372186183,-15.309101725218813,-0.06155453816606301,14.190196416177695
80.65280415658214,-13.937037894783652,-0.005988762126380826,13.832722211415135
79.88894471014824,-13.878465906906703,-0.055319651935207145,14.242949833314318
80.7353301108894,-13.538564165782061,-0.02452061584627182,14.743988928299792
80.99215218820936,-14.395764473314443,-0.062085604578876595,14.333217321965169
80.99215218820936,-14.395764473314443,-0.062085604578876595,14.333217321965169
83.83004082424128,-13.996122453235758,-0.138908694712388,13.791535507981639
83.83004082424128,-13.996122453235758,-0.138908694712388,13.791535507981639
85.42382593350823,-14.877489372179523,-0.20260412681060624,14.035556070686885
85.06742361548075,-12.384187646105108,-0.28334720419685056,13.63615375615271
85.3736311777294,-12.172543340439045,-0.2116257726259766,14.618515789563537
86.35188740160474,-15.33490879564253,-0.16648762908614112,14.37593144537244
86.15376105725707,-15.045227563889734,-0.23163088025361414,13.858984485556908
82.62561952991693,-15.854962439985108,-0.13108974103858362,14.25404507949002
83.71008878429295,-13.36191552077845,-0.11685185394432218,14.101117499515459
83.8152884976038,-14.60292340374579,-0.11531572607197306,14.828187580666832
84.57124970495163,-15.14068855894743,-0.14048507929718146,14.42035328404919
87.23037653394366,-16.36669781646883,-0.20398137259747737,13.977383909320087
87.12407607820857,-17.026055079565385,-0.18314202197660473,14.764544942863768
86.59307082081125,-15.823275656384402,-0.2339939395947414,14.115582545939935
83.88767811324277,-15.89108027514995,-0.1286025908215433,13.914445881063195
81.11534450518113,-15.779514898996121,0.01990725549889317,14.646388000948672
80.41068572725247,-11.734779775719431,-0.06853952120482946,14.01221533528428
78.77635726707683,-11.600812121534652,0.006834363441005522,14.025698965985292
81.07644661600442,-14.749610550427423,-0.03567656892131473,13.918598548834654
82.25805058159825,-12.532794008917445,-0.15867091254538992,14.18524010524457
81.80585233724867,-11.681769313883793,-0.1743176414967313,15.01025917034811
82.4412593391972,-13.252400045462158,-0.09030835594015388,14.665908932118137
83.75068283822516,-15.490916138955804,-0.13913009740736834,14.215070668285785
83.66448488042211,-15.719300935955294,-0.13939068895423054,13.384019822408671
80.63722799247509,-13.866730497894155,-0.042480591198691395,13.552757875456233
80.96241517626584,-13.406633284058229,-0.023533675015125707,14.505474241877812
80.95366764394012,-13.909257607423635,-0.011579678856599652,14.652251082348322
80.35606251209438,-15.38419975044948,-0.017916371982376854,13.255683779973717
80.19461843727844,-15.479854054341953,-0.030232869887587437,13.829678503392957
82.10260299338901,-14.822453629431077,0.004890051841675104,14.20643497040279
80.96925979367582,-14.005281712962146,-0.08198542616745016,14.462216755780926
81.2648535290098,-14.13259322549031,-0.10763146111171558,13.696585962174316
80.8372632885284,-13.458093022431843,0.0038191617749376364,14.715589797762757
78.91320108783562,-15.003417415419097,0.012546276978407774,14.52643893473966
79.69837171454247,-14.144663183443564,0.02792850579407004,14.147177022859747
85.96090297576734,-15.551380337594969,-0.20507665989835833,13.995186230358307
84.98379099865504,-16.24719630918064,-0.14199513043730908,14.186742879827342
83.8622802295371,-14.483630003788578,-0.15312339635275246,14.305686515876975
83.08482119999098,-13.169293647007352,-0.1360879708988842,13.86213247227392
83.0098490613414,-15.983103041275157,-0.08470412867173344,14.172308905779706
83.94734733105803,-13.549955462603108,-0.15489608112299064,13.469734829642702
84.4503568103154,-13.590533406106195,-0.17753188003090034,14.514006816774453
84.14388698044274,-12.684553338700686,-0.17646930042742634,14.522281581059454
84.16114333788954,-12.488452676617488,-0.17877654232616938,13.788557440022577
82.70255810341166,-13.112367351892445,-0.07480412620425159,14.210455502794314
81.70026784593264,-13.87586957619557,-0.0514783959849113,13.682496184464709
80.17522285304119,-14.551340622915081,-0.05294190588888901,14.793179006056617
81.22082134415463,-14.434347136494392,0.03622900385262593,14.263934116888311
81.21383666393382,-14.867530820024365,0.006983353914500445,14.55848471045485
80.23539262196992,-12.846952602899094,-0.08879476311991652,14.465144803532858
81.59974263493501,-12.90887752090335,-0.03166068970440128,14.166233478028206
81.59974263493501,-12.90887752090335,-0.03166068970440128,14.166233478028206
81.21333222102187,-14.299614742383062,-0.11423253861124366,14.471201592118819
82.2730731646288,-13.70051872317787,-0.10281193610954313,13.462257801016634
81.8886954486954,-14.843783138700239,-0.10079983373284904,14.97977596607385
82.3050735390372,-13.62368555889301,-0.07161859220721473,12.910123915954323
82.3050735390372,-13.62368555889301,-0.07161859220721473,12.910123915954323
81.56398989150776,-16.775900038357683,-0.030901833890106003,14.949875134861838
82.80817667825971,-14.122480583994669,-0.060978403277573215,14.108433447706924
82.64406507860004,-13.937737331707272,-0.1498541044489343,14.226942968073418
82.05700551952654,-15.978660281227532,-0.04523555812105769,13.804525518357694
79.77099211222232,-13.684575095198936,-0.012794889404464105,13.630452795950006
84.28889901120893,-16.09874863358501,-0.1350555747807376,14.308258803352816
84.45564091511265,-16.950539567912642,-0.050633634772141806,13.965475776279158
84.16234049481378,-13.381355373071372,-0.1812386674176137,13.703361237205272
84.16234049481378,-13.381355373071372,-0.1812386674176137,13.703361237205272
84.08648518680488,-16.06480178491993,-0.09225718374060002,14.304364010763654
82.50169782896891,-10.502478458017082,-0.149440583595755,14.685933473147065
82.41253887781065,-11.066125411876866,-0.19097554255792823,13.719480356919549
82.4258833989078,-12.365905000160136,-0.10725013523003238,14.550201482727934
81.89338497333851,-14.000537907304585,-0.07837245449745919,14.471143035510947
82.2856420088524,-13.477648133971968,-0.0880873719346746,13.621047041418862
84.18792135334485,-15.714358014790642,-0.15898134311430462,14.155534194442367
79.54207656191628,-12.40736271337731,-0.012342955682046533,14.237937747999348
79.20840657539337,-12.552386903271028,-0.03323061765041652,14.327313142451464
79.9078523752876,-12.895315602266553,0.006103046543453328,14.301638585724033
80.59336859352486,-14.381546086456686,-0.042447568099054186,14.285020305986338
80.26582331894127,-13.977579065127987,-0.038177142590441346,14.874446190799691
80.72463695082662,-13.676544378069309,-0.031189511538790585,14.972320570708561
82.74489839866953,-12.175415278656713,-0.170851688626564,14.196154121735297
83.02097909410789,-12.559599063351001,-0.16037700689581472,14.854533881027445
83.2361793132283,-12.350407092497136,-0.14841214716134254,14.825527099548545
82.80913109852027,-12.985519668923072,-0.15974863515554324,13.305434725837305
83.85618993748051,-15.390915859422552,-0.11899307503568636,14.088706013154548
83.21784096319054,-16.424718495645415,-0.13276959970165775,13.9500502302742
84.87059805390848,-18.331805074076616,-0.03609425643173386,14.560945562793613
84.53110821899347,-17.79705451484139,-0.043381216989258085,14.55432490949488
84.24270520450837,-16.998192182626546,-0.14515983968989737,13.49752746393388
84.00253155512506,-15.047970705829936,-0.08973558426663863,14.366190194545737
84.02103277949429,-14.766942550795958,-0.19703142111355093,13.855348999120045
83.75633306243915,-14.55333610581914,-0.08782467920159912,14.022205372848187
85.21409773691676,-17.507417438758797,-0.07539370184481688,13.319826216891931
79.84304056328075,-12.552775349986188,0.021973873620426423,13.365262083761863
84.75343209232516,-14.972776172666716,-0.18821870129312032,13.341401155224323
85.28469184534092,-14.716582494826907,-0.15773862786876844,13.30456915497065
85.28469184534092,-14.716582494826907,-0.15773862786876844,13.30456915497065
83.96311092923108,-13.161691385328222,-0.14163999918134862,13.58882014063445
83.29159824349725,-12.924562086750026,-0.16073003980883369,14.663604134403801
83.24704677126415,-14.82441301697727,-0.14310559815876722,13.813267926731484
81.58889462909964,-13.867023437071385,-0.06163277296523103,14.229299069325403
81.58889462909964,-13.867023437071385,-0.06163277296523103,14.229299069325403
81.92398643424586,-13.477568126990613,-0.025213656182523345,13.259632741688618
81.87707187121707,-14.593125528418959,-0.030288049713366107,14.221048200552922
81.38683846636901,-14.44051159755997,-0.052275906319160945,13.831032981962425
81.26455843572788,-13.62566393237792,-0.01845409093639258,15.280876941583665
83.24385592947357,-15.041310384640823,-0.14565337515102994,12.674291990759786
83.7509592021795,-14.585309752376418,-0.12758588507366825,14.700195487592858
83.81905292581851,-14.476270548200961,-0.14638946263303476,13.279813166831158
83.3867385354171,-16.89591745815102,-0.0517779996501416,14.036130352403658
83.07935774969036,-16.351865527312942,-0.0291204188374911,14.14766245187743
82.70157354769617,-15.617838334416176,-0.06104941180626615,14.892304650392383
83.207950001247,-15.059995688649765,-0.11173980046205696,13.34245635187446
85.50336707795081,-15.037911543625276,-0.1852653876275026,14.484565813098284
83.45517996804868,-13.61521672704111,-0.1617171475745154,14.455833259946786
82.8490287513951,-13.550184257270196,-0.13629347416781223,13.922964007787648
82.82935479684079,-15.719831348443336,-0.0656156287046352,14.179874750476579
78.02926877318015,-12.23014479813692,0.0140906344310836,13.580804897147988
86.27645180685714,-17.293199978525344,-0.17281299637516195,13.409322181634636
86.71034726971558,-16.96055671623827,-0.22086754522401958,14.99236385783094
80.27325132733563,-14.891554541466196,0.0016766855166097314,14.643510486483406
80.66542786271766,-15.18902540333834,-0.016389436635468546,14.522158651162057
82.13222008749109,-14.164560152959863,-0.07900288555845421,14.55296898710922
82.33326562119466,-13.481025912685116,-0.10266562133115223,14.654523973826667
82.04504350655226,-12.9128466629652,-0.08442544499280473,13.684262371148893
81.40439568121617,-13.2806053433892,-0.11238645427300936,13.714613233241385
82.7506801710834,-13.557233380788821,-0.0788586090564858,14.308473047641627
82.26574502103458,-15.331598036507707,-0.09360363310368798,14.052045709961364
82.06615083283378,-15.17683185892511,-0.06413688807584408,14.193723149533147
81.96334255242753,-12.933929711647982,-0.09624494857559039,13.910584345826537
84.41475258048048,-13.32948478594968,-0.19584843926529147,13.767735488018342
84.41475258048048,-13.32948478594968,-0.19584843926529147,13.767735488018342
84.41475258048048,-13.32948478594968,-0.19584843926529147,13.767735488018342
83.87607722566423,-12.515043292114408,-0.24079092686753373,13.886588995203386
84.27695113087675,-12.514939922280021,-0.22803031669795232,14.133606202147313
84.46063514194961,-13.388474026270107,-0.2099641120394839,15.061602545427565
82.11526132719003,-13.392437340814402,-0.10227679612389819,14.7135162241523
83.05546000373246,-14.023634151991503,-0.10812367714487404,14.291327323387765
82.89293874778839,-14.56350718804718,-0.09925882416894903,13.786686228053911
82.89293874778839,-14.56350718804718,-0.09925882416894903,13.786686228053911
82.05544041907696,-14.523096297831104,-0.09472407851714675,14.208860254106277
82.2714291618454,-14.802294719153611,-0.04626489425157833,13.807335833104409
83.12548633639271,-14.983343681976287,-0.08309171437853698,15.114587067489618
79.9609381050297,-12.47965555235767,-0.051265724155169654,14.975998500885956
80.6688528382668,-12.53608932346121,-0.049168777397155944,14.112797560066996
80.52264604861372,-11.703914608867807,-0.12138731221842096,14.480034319969247
83.7773377444144,-12.571939383374904,-0.20351287387835998,14.184415191791047
83.7773377444144,-12.571939383374904,-0.20351287387835998,14.184415191791047
83.7773377444144,-12.571939383374904,-0.20351287387835998,14.184415191791047
83.8125459633575,-12.463689261259558,-0.22757233401756238,14.18827017179823
83.9406858662348,-12.081123971203587,-0.19325299939051216,14.54049241679528
82.84010782136383,-12.764154414563267,-0.14677327737408238,14.035834425308103
81.56674304967912,-13.070407523957892,-0.08790089280152122,14.076260928379213
83.53003644791984,-14.596240900503863,-0.10912733203937403,14.088103287549151
83.4865490715104,-15.851464209628814,-0.12681726685367828,14.229312182504188
83.57054268609383,-14.531464199377828,-0.1526863693228796,13.865451273871415
83.673601555166,-15.049376127557187,-0.09807998134344999,14.21103628596167
81.15444059769273,-12.53036625538205,-0.046872261580408,14.270943389671517
80.52012174701979,-12.135706889517904,-0.0740652798898357,14.10489757584831
81.53691996750295,-16.30399955912177,-0.008219146330096504,13.977268083113703
81.53691996750295,-16.30399955912177,-0.008219146330096504,13.977268083113703
81.7168343870637,-14.17496088979518,-0.04089189535690336,14.412172057479845
80.94453502307745,-14.30295984938836,-0.07314614021413632,14.994953788260435
82.01080278818388,-14.560614464688928,-0.028604111277778597,12.948541618282848
81.72047081793096,-14.327113114191205,-0.07106517267484469,14.03227309665185
80.34977533731875,-12.761785091888942,-0.05074054599584529,14.636678944080327
79.55270049072585,-12.459689945537333,-0.0008599748986817743,13.553921758249187
80.28096986266648,-11.235727303544813,-0.10566434208985442,14.471906488000284
80.89156141286996,-10.897957287946126,-0.0737458567182474,14.47801957508692
80.4712141629623,-11.275594663330265,-0.11401156498757085,13.931199166072956
81.07592319021335,-16.427603401573293,0.012477079901153279,14.576942863981532
78.98721183744814,-12.944294289771781,0.014658038208206471,14.511497989896236
81.64753244174533,-11.85039488387616,-0.1015491865755886,14.49164127403209
83.36102497929139,-15.965570562571493,-0.10375494385912368,14.748737027888653
82.13507509957512,-17.32062861641623,-0.02385250325268381,14.471250783878789
83.9016049722082,-13.452245552654619,-0.1833932808299894,14.182932128361989
78.96742144028674,-14.047679623329582,0.05287589305250319,14.191858687725242
78.81384497010832,-12.34797445220351,0.013654338610211769,14.220515863041387
82.52352547782905,-14.765202228506837,-0.0628409879835522,13.830393950865714
82.26099734746931,-15.582996615389902,-0.07177421745331068,13.849007824851627
81.10240910708727,-13.065761109995867,-0.0787813482030198,13.924742074371792
81.7245822207113,-13.721885946727994,-0.10117110865306314,13.847451368851509
81.82416865613541,-11.952858217993883,-0.10145501282199959,14.786007168151482
81.72252269441718,-11.778006038940147,-0.1203983265692052,13.362805726147062
79.39911366702701,-14.14981354632613,0.017877634821044805,13.128991276171316
79.40927301498004,-14.021809541533786,-0.002226018028071694,13.002312134403502
80.00372388214929,-13.202397302244679,-0.011652192302065687,14.646586509918462
80.84208131816045,-13.035210899825138,-0.05005187132756404,13.459659790144743
82.91842714133234,-16.645319824259296,0.032054472224529534,14.383926623711076
80.07925496118516,-11.244859907430094,-0.0890556012717898,14.761112551020128
81.77022401942095,-11.441659515873733,-0.11850279132081529,14.143964895086054
81.69027163792447,-11.704117994439377,-0.10914044943963963,14.870131860705879
82.50015080450969,-12.800371157103173,-0.13179231090173602,13.402192487974634
80.67914434124978,-14.052384167974749,-0.07166451287443468,13.995204422103065
81.16464693794738,-13.384281468289817,-0.06023276661037817,14.225403224362434
80.6321052191131,-15.043386832088668,0.008352282173862344,14.526272029559776
79.18166890369041,-13.424523808395092,0.020788638135954853,14.585334004057932
82.71783588455061,-13.502395909852373,-0.08071837590469969,13.037422799725862
82.1011080436639,-12.846000302581034,-0.08722659294223627,13.497160863733473
82.1011080436639,-12.846000302581034,-0.08722659294223627,13.497160863733473
82.20210643862069,-13.05676451299533,-0.08696718625405309,13.382815593318535
82.20210643862069,-13.05676451299533,-0.08696718625405309,13.382815593318535
81.420298391263,-13.734258014253154,-0.08489857819969765,14.58953827382919
80.64406825911183,-13.561852148602963,-0.11014466522531005,12.43917351152716
80.77718289826248,-12.832226445693173,-0.10192382432572308,15.03064048749293
82.10070284582822,-13.995695401881832,-0.06489613045408829,13.803597810692105
83.99439434207716,-13.811016398373592,-0.161190615581922,14.220851356691249
84.11018806994946,-14.525979422711414,-0.14833610684629867,13.739345397463522
81.29607665806806,-13.8907252957899,-0.06053198728255239,13.710198352333343
85.42198293422936,-12.475591870056391,-0.26257048941506467,14.446170355909466
83.92078758934684,-17.833065649691026,-0.1227079912406686,14.182989236774421
84.14852411406481,-17.139245325150718,-0.09165454537083634,14.659932498933982
83.96615997204633,-16.670169759427164,-0.11269475804274565,14.596108605491324
83.79997328513902,-15.622387605866999,-0.12462449172240332,13.362997914117381
83.79997328513902,-15.622387605866999,-0.12462449172240332,13.362997914117381
84.08537538848957,-15.322536485365237,-0.10553947707155706,14.474310759330068
84.81370694047264,-15.145294925412855,-0.12040229040920572,14.385492730399394
83.11114946232631,-15.66946754659318,-0.14686987511159444,13.612891587076234
83.57254532264126,-16.032670441278785,-0.11570317297514937,13.073717396777734
83.96127161175292,-14.476930018080964,-0.12714918399946465,13.915031249137556
81.64406385495978,-13.808079940212309,-0.06490896938359582,14.213288062536003
83.19840275267343,-14.297018778180746,-0.12987293267583372,14.791978898766697
84.2898786600074,-14.45310131861854,-0.163729280526954,15.27260675204147
82.7426737764053,-14.24343304397388,-0.0891454230434246,14.532086250049039
82.36905024027686,-14.625339836842326,-0.0426576370603792,13.56728612944343
81.71457904367854,-15.07018572539741,-0.05972139621566585,14.416295031410176
82.86385747193187,-15.160927447351707,-0.04785998827487005,13.713459082280428
83.3705810687012,-14.694290707783145,-0.125024026073753,15.136431985204585
83.7782704056823,-13.965980319194975,-0.11587470698380231,14.27796917556023
83.76444275067152,-13.656829181851737,-0.1049065722071939,14.35457557765684
86.38861655888853,-16.436601374383386,-0.18599357724467888,15.00241766123417
86.45013826576984,-17.08550444171695,-0.16090765985056277,13.364994258801422
86.45013826576984,-17.08550444171695,-0.16090765985056277,13.364994258801422
85.88857368676841,-17.683681436236228,-0.1917386779404118,14.540500128766247
85.41071391935446,-17.28086883626222,-0.17797674317063833,13.751508353399997
85.69054036716685,-16.854270895699518,-0.17087424292534759,13.674794706574085
81.59088127059846,-12.532819341173905,-0.10602071282941847,13.598132064478966
81.87346078259459,-13.227983427175625,-0.06416163142386935,14.59225253313464
83.03377963453977,-14.385287010934208,-0.12412189657600514,15.463475452976509
82.04474179903988,-13.618087553296194,-0.11851567601990595,15.524331255722709
83.20985809763016,-12.597622601926354,-0.19385073301249742,13.738616866140235
86.13294301232374,-14.93027680414931,-0.17728613876529892,14.310793373189876
82.71288049443113,-15.28925271794639,-0.1292504299876088,13.528261100148232
82.91495289257263,-14.918655872358741,-0.13520972080936813,14.965370635556269
83.5085939051123,-14.884582363164325,-0.1404814850852164,14.022176166158145
83.99713936150698,-14.919183302605576,-0.09970163503366075,14.047803257648642
83.99713936150698,-14.919183302605576,-0.09970163503366075,14.047803257648642
84.88135902489678,-14.682088760724282,-0.25495457284921097,14.293919657131228
84.97520183511641,-13.717496446297975,-0.16082419266663744,13.824691077251469
83.71522353617424,-14.148120072067147,-0.1565941938659789,14.293528319612863
84.5738720669041,-15.679974052423853,-0.12333094348389216,14.068999698582322
81.38626586529259,-13.58744908992582,-0.0653648613397372,13.472204411509189
83.83518999066247,-15.304210343291958,-0.11058383344087569,13.82397267082934
83.83518999066247,-15.304210343291958,-0.11058383344087569,13.82397267082934
82.22648565992681,-14.825261711438793,-0.04802852732884716,13.488254769898626
82.61765218942634,-14.108142365123902,-0.037122970290599286,13.914345085561822
82.61765218942634,-14.108142365123902,-0.037122970290599286,13.914345085561822
82.21798699743475,-13.870625403400044,-0.17754092945411404,14.25389315119099
85.02509422639092,-12.16468058808611,-0.19900544750389476,14.01627044294583
84.06284429543095,-17.37716704963364,-0.10867273608623161,14.368720301570502
82.61599430639801,-15.281622458369366,-0.0534101002591655,15.25869043576853
81.08843887967262,-14.67779842260325,-0.021133122745967,15.016770213392116
82.64414976507342,-13.561072296758304,-0.10414468004604426,13.411703589446672
82.64414976507342,-13.561072296758304,-0.10414468004604426,13.411703589446672
82.79806210112174,-13.652144722083074,-0.1323838592740129,14.603710301728093
82.67638813291876,-14.187159905552706,-0.11690524313521033,13.573657252456467
82.51624812234971,-14.67843179019776,-0.08858862474557064,13.379024451062834
82.51624812234971,-14.67843179019776,-0.08858862474557064,13.379024451062834
82.51624812234971,-14.67843179019776,-0.08858862474557064,13.379024451062834
82.51624812234971,-14.67843179019776,-0.08858862474557064,13.379024451062834
82.6360777427122,-14.780535244484488,-0.07159311485985195,13.454743103454547
80.45671443878736,-10.959629665563687,-0.08698890860337255,14.339566881101216
78.57240576898542,-13.686758290302416,0.05116325208092177,14.234040771783642
84.1469700820602,-13.775389773997738,-0.18295022385940105,14.339074354285389
84.67931813125116,-14.555594377210216,-0.14898156200049367,13.648534711686272
83.1664336739644,-15.662855613536259,-0.1000052323184317,14.41828119767865
83.0571052229307,-14.994070646731856,-0.09955441726956048,14.024809566444132
84.67842130270495,-14.440493450354296,-0.1849890555661805,13.771669325092962
84.97763175402349,-14.280084705293625,-0.1724602960175804,13.304922814312501
84.77460549830604,-14.458811848277884,-0.15896338952586941,14.416532406709994
82.49717416716273,-15.634072747584478,-0.09488803089891441,13.889836545026142
82.09834819168817,-15.54006435305416,-0.11163226264208002,13.959582339113197
79.88787214140244,-13.770934882147703,-0.020981094632204225,14.794331885622288
80.53217354075814,-12.94317380999606,-0.02151047928863642,13.26671125689272
82.6102231072761,-14.783888737878726,-0.12072625982683118,14.040778934747584
83.5085429940327,-14.13426922583157,-0.1338407608680605,14.949065324192278
83.20941319295308,-14.0885129840456,-0.1480530674734838,14.801300647205268
83.01804931204421,-14.177500406448639,-0.12597166200787274,14.449423353940354
83.26324036902321,-11.300359711365836,-0.1833420752457227,13.473282139692655
81.71838564763887,-10.450061833824137,-0.1247679111077985,14.429322417340456
81.51216442173984,-13.829704211689416,-0.08787141901102191,13.69881991139087
83.54254367686002,-14.41678440505697,-0.09358743973182129,14.514866929283249
82.46303708402976,-14.355727007010714,-0.08168379428710218,14.080545404059666
82.3043092310437,-15.701745792493549,-0.05222527371353205,14.281018251492547
83.62511932631966,-13.465057545305761,-0.16200903911423273,13.617593131016351
82.82393721506209,-12.119890689075609,-0.12616145344555418,14.837147296631192
82.43592488038725,-14.239382888217863,-0.1267212384180703,13.761440894317511
82.756498586064,-12.613464620205987,-0.1265783950760212,14.286375219379885
83.20336206272052,-16.13527510237001,-0.08263701077364342,13.495511624483811
83.61598435513618,-16.504490181524282,-0.08992235062290914,14.397561089286047
83.94568856410162,-16.362389846306566,-0.069767792231641,13.85827681694862
80.4209385343537,-13.576161507019092,-0.02572100129584717,14.1153388648574
80.17581845507272,-14.423411889535785,-0.004611511693132286,14.783052058076903
80.67629419160419,-15.480982080920928,0.02119376739954155,14.041231630926207
81.53143192685789,-15.970873934164175,-0.009251682834260538,14.424633061336685
80.91732514173077,-16.049558324347082,-0.006995178722605171,13.551463136300884
81.16054791559213,-15.465507723458725,0.007917947790312472,14.37748152914001
81.6886526191186,-16.93466886285181,0.03398886894142716,14.4085460368509
81.14842812518236,-16.383044465445835,-0.033916448168185245,14.261226457706533
82.46737983319343,-16.301812235874937,-0.0035099679302940806,15.083044747100514
81.15073160593778,-15.451878329521072,0.02874381695713405,15.239481542132973
82.3956169911014,-17.1538181120733,-0.04298348687524213,14.522871430181109
82.93911550773022,-11.686721755541697,-0.13417793096845732,14.486384312056758
82.01049131427536,-11.429775512966799,-0.1553194976527117,14.927904760314592
82.02818719418316,-12.892186478263083,-0.1287596907809156,13.707987688216383
82.61294687301688,-13.575347401536,-0.11620002993126752,14.24106402072607
84.33529075402178,-15.559599705251363,-0.14464401466269775,14.301837597405859
83.23892123821729,-17.01417448312812,-0.059876381697148845,14.348805120984602
83.41325656114948,-16.23851655161045,-0.13231599045059556,13.65755893888768
83.91092937209565,-14.277863450808375,-0.11941250779270136,14.291796513389205
82.33374509120755,-11.54709736700846,-0.15077088459864668,13.523639356201198
82.33374509120755,-11.54709736700846,-0.15077088459864668,13.523639356201198
82.33374509120755,-11.54709736700846,-0.15077088459864668,13.523639356201198
82.5489110404009,-11.927235141956727,-0.15594357318047258,14.62643693292764
82.16762609383969,-10.437864400807403,-0.15872897310856326,14.296960371908355
82.73743597249239,-11.525195306934869,-0.13547063476803686,14.56669534238237
80.34473311123682,-13.689861849771317,0.020025195249112705,14.521687730194797
79.97781412704902,-14.065292366022833,0.00496811038694943,13.822847548620814
81.03198641594733,-14.15554011212584,-0.00966205693702055,14.211841355233322
80.1954301334937,-14.800703758153203,-0.021514054919798797,14.4328086353755
80.91408497542345,-14.991935948194811,-0.0163337408670439,14.097932793241723
80.46494970110801,-13.514096505393368,-0.04342273151683032,13.355688972553637
83.25470319489305,-14.561483218858749,-0.10532778864409625,13.908173447170789
82.85870746593557,-15.856184240171789,-0.08681848091736434,14.551005171955092
83.08189349614655,-16.119166066965843,-0.07604917947551755,13.877580429373372
83.57056207634587,-16.738774890501134,-0.08176475783453085,14.465285809439353
81.91946281189746,-16.09761841179566,-0.03767673377886036,14.373583062883668
83.88737836968664,-16.371302425457284,-0.0731793813881214,13.600625436617479
81.6704885499804,-11.74660706805867,-0.11820825641920443,13.818364665111257
83.7790934740033,-13.90632563465964,-0.14198695318836357,13.81820042028367
84.2129394050786,-14.626565009222906,-0.16492747605550082,14.34150956165809
82.21010998952194,-14.969289920777179,-0.05750135555708938,13.698807948878084
82.21010998952194,-14.969289920777179,-0.05750135555708938,13.698807948878084
84.32330306483688,-13.433061605511517,-0.1760523548199365,14.042543734506792
84.11028627147805,-12.940795345082794,-0.20724247895619788,14.89425073389786
85.51218463334718,-14.843556229647783,-0.20293275098214833,13.483390602170925
83.11729162611549,-13.018373488610411,-0.17630346847928943,13.911738750513313
83.64475689956564,-12.376594807630669,-0.14065588557234854,14.221253166806507
85.44676935267188,-15.39098497550062,-0.16005900937655848,14.495297870350893
84.47519116905421,-16.25405724460732,-0.15482407055329897,13.803825800263718
80.06122982573132,-13.92621512456671,-0.02504294023527894,13.713281802229726
81.30876583463711,-13.346753455999655,-0.0941269853046014,15.708596196998336
81.51172008647538,-12.601003315107242,-0.07866246373453395,15.759608391650206
83.13801793413994,-12.977169789295498,-0.16217029614373574,15.81263425504946
82.70913961995977,-12.757656010786448,-0.20509278455175456,15.703124831902484
85.72261922734413,-13.964164627619203,-0.17417831188883776,15.383593802266498
84.71713307189728,-13.522384298440741,-0.22950128898265448,14.409068737286987
84.03391033147574,-12.23380323849775,-0.20557012693311089,14.30674636142461
82.89480334491626,-16.986105104588535,-0.029897694132971407,14.427561143451905
84.82035755923772,-12.600805619351949,-0.24421516791739878,14.491594271075174
81.4065085589507,-15.624960852261653,-0.038932427368038224,14.319483358897871
83.9023807644652,-15.20064336172959,-0.1364873926542427,14.311866963982519
83.22423734864822,-15.283190332151241,-0.11782936737935129,14.161948925407103
84.21323741123837,-14.324220624426177,-0.14435466876747186,13.772036476998727
83.12917259380954,-15.899422460728678,-0.17049848267575649,14.433755540071676
83.89045422395277,-14.050710884266296,-0.10438667844957478,14.916455233277572
82.76692609636842,-15.282048998597869,-0.07662923688367673,15.005882657909142
82.37544188925493,-15.38738174275788,-0.09130740842515359,15.089291442123038
83.6411090861307,-15.8004269030038,-0.1164156712024489,14.843197250487762
83.80001435476642,-14.071453834625686,-0.13825146552461245,14.228301680712983
83.80001435476642,-14.071453834625686,-0.13825146552461245,14.228301680712983
81.87450786481787,-11.528700814185074,-0.08671281772978967,13.622532843323215
84.22757031145115,-16.74193047260673,-0.06282257420357118,14.597584077843507
83.69201235922826,-14.388996953255127,-0.17929067993171405,13.385104332141411
84.7797848741597,-14.660975395733644,-0.16356723718935107,14.01094739848897
84.64925769534997,-16.78285605227806,-0.15244241021383018,13.698863176811736
82.99437017550484,-16.65648648887304,-0.05232562050119371,14.383701842885278
84.31499720632159,-16.254103983872014,-0.08868884830051482,14.372869210741092
84.0365930755632,-14.080487560673427,-0.16510986706496955,14.161564178802044
84.74472870558175,-15.950162818711274,-0.11350345209466685,14.381179141740672
83.99104561702148,-16.014921857348757,-0.1281031332273571,15.368289506423167
80.60947264352815,-13.885253640526694,-0.009156684186133269,13.686764682728132
81.7507698300436,-16.09311256354405,-0.026635023621762507,13.248521265963985
81.7507698300436,-16.09311256354405,-0.026635023621762507,13.248521265963985
83.02773705960341,-16.867402975730784,-0.08034923701770397,14.62834474117921
83.66901098565319,-17.605122119397077,-0.03549804930234791,13.211370674798767
84.29754640190048,-14.160681937518323,-0.15024889685038634,13.863260041752191
84.29754640190048,-14.160681937518323,-0.15024889685038634,13.863260041752191
82.7813830276114,-13.650015802292344,-0.13534839377353097,14.313015102236117
83.50261508070948,-14.316687912780285,-0.12558401457681445,14.560723480700513
84.99546892790983,-15.553105169479975,-0.15544818663981344,13.341890280459474
84.77445479789523,-15.930055413772632,-0.18326606805517473,13.508123404916502
84.71341529459785,-16.181299250425095,-0.1157714768772164,14.492728588225425
84.20080062896666,-14.759332560347731,-0.13804695717977633,14.043565518286302
82.63140034565127,-15.115231202783068,-0.09372464860577168,14.284496987557038
78.9485970404724,-12.216154735349175,-0.023424257112490188,14.236826637058801
78.38445085023095,-12.67136483167855,-0.02390537810147834,15.072230683137223
80.45057531148595,-11.601531970817451,-0.027609868055479596,14.359112991777497
79.08876683466262,-11.418866979317194,-0.04700367189456763,13.68259493517302
78.16951313083372,-14.167530739409175,0.07437123826159849,13.682106232767902
80.1569126901226,-12.672035140497997,-0.061949659487645706,13.525430045015824
79.81891319178911,-14.70789947276907,-0.0028857586614095235,13.621918649601518
82.93747296432103,-13.491852550323674,-0.1635509793156599,13.605553024512263
83.26329259108472,-13.796427428724098,-0.13824872282539769,14.500503255078318
82.06457374347539,-15.273760220125963,-0.057620028120112174,14.05706785139492
83.59239106267142,-13.23616723691865,-0.11851096772748099,14.314303192794315
83.89310504185505,-15.997600306196484,-0.1491606690083539,14.541890593886512
84.90236776842943,-15.210239872171059,-0.2043417197435768,14.069557972230447
85.49851980095016,-15.139119906616465,-0.16825906192860585,14.807745914108509
84.74292871413857,-14.946539789713835,-0.19171602181027925,13.430864397166665
82.38492225839128,-13.590997008059063,-0.07011012448902089,14.538073106709517
82.5486532164748,-12.24500848715848,-0.14936097145019228,14.039449716587082
81.06373072760628,-13.3863887035183,-0.012160799313057566,14.542730243548498
79.58889462676942,-12.322653658890301,-0.04984982885204292,14.347326958591946
81.39226746000635,-13.93459919762074,-0.10786258936131213,13.911982836746072
82.05868176571859,-13.437661860796737,-0.07330879173257714,14.079191080940216
84.36846525309396,-15.886351572030948,-0.11734173705327669,13.942358410900933
84.30464027361465,-15.271003765609967,-0.13069011647767673,14.895360126501977
85.21130236359464,-15.847145487742896,-0.1162215797101872,14.850404389221415
84.48784524462224,-16.774772190437076,-0.15193770273285354,14.694804303112093
81.3022172480924,-14.531776656514019,-0.032762237987851404,14.43427914233508
82.31634125988195,-14.611287338696062,-0.09365227098481897,13.441576714618677
83.34968957499964,-14.977927663593091,-0.1320978432645069,14.860546443776084
82.36434805282083,-13.840753057867293,-0.07493481091471552,12.90427355270114
82.4000579950765,-15.006343518607455,-0.08353413568729502,15.132943806108797
82.49223321809104,-13.950539551718622,-0.1092764916916602,14.902529143000379
82.98617544289688,-14.454910689466239,-0.11208341423651975,14.813839127311152
83.467462002537,-13.451120080345644,-0.15042047842248227,13.549678310036734
84.34054611824504,-15.816870884127441,-0.10591320915266841,13.776659948923765
83.08698856386086,-12.670510447405649,-0.1749247808242661,13.88811122409778
81.9820387387828,-12.699807044858243,-0.10307842876564248,14.167386221102845
81.41082323107435,-12.367477969236592,-0.1001602267329783,13.869112741470227
79.45524428266701,-13.97815119569333,-0.01830696383107175,13.82490681198567
79.70776190449271,-13.710540678735756,-0.01911545329336414,13.977914634629624
80.40153727901031,-12.409994926703197,-0.020637147557979133,13.986346609976797
83.91736885559114,-16.14922165408963,-0.10707499817559432,14.145655275295244
84.09361020485981,-17.026505519426927,-0.08086883973454836,14.584240582323956
84.27286893974343,-16.811571711530597,-0.09463143772952752,14.484199825196225
84.48066733372141,-14.55345495750435,-0.2000470397972106,14.027982335558503
84.0472462007655,-14.853803346428451,-0.21739254939248934,14.491382743656095
84.52121257729048,-14.689886177200384,-0.13141623131912017,13.48371402453151
83.66777824083954,-15.257590510641366,-0.1403737416471163,14.732462947490694
83.27009353928091,-15.189409563076902,-0.17763121861232106,13.898475131669194
82.55266280198818,-12.642362743190992,-0.10390866720368994,14.811153673136964
82.88905286953023,-12.928700972883716,-0.15814689482855712,14.099310191569074
81.83214331488847,-11.39864865112315,-0.16100084642820478,15.18004894395255
82.80310116074538,-11.314142761359747,-0.15380909677940904,14.223265359339027
82.98436044150654,-14.763277742090207,-0.13524932810752474,14.046752782212298
82.98082614177768,-13.79969534583459,-0.12309228993268213,14.323048646410557
83.74325994464355,-14.564895196761755,-0.1122798852174796,13.866979769685418
86.67365655704778,-14.980474813703994,-0.24513993503775303,13.529279688920239
85.49737635827123,-14.644886458698423,-0.18985740569475337,14.918424694618068
86.08765887829522,-15.133911637401749,-0.1691420613200888,13.974237210976485
86.08765887829522,-15.133911637401749,-0.1691420613200888,13.974237210976485
85.28679437905062,-15.297676528739268,-0.2259251051800878,14.294283390782569
85.35599403495644,-15.572042867437167,-0.2250610404379253,14.403647936032723
85.35599403495644,-15.572042867437167,-0.2250610404379253,14.403647936032723
87.07996655194714,-15.069967294341378,-0.22694073252353147,13.867472288066578
84.69681178143007,-15.368004887677042,-0.13123129547790072,14.262022848894711
82.08941622264739,-12.68855153281385,-0.08878733863971483,14.121597162016096
79.64835380932847,-14.993084821873289,0.021899286239801093,14.35111313418821
84.40885654006625,-13.894402122855057,-0.1615672351316985,14.02951489889082
82.82109768748563,-16.8922869293029,-0.06850837373679373,14.3877444731639
83.39720344000273,-13.864978715327874,-0.08678978903687211,14.128705086873056
79.7530763063545,-13.540615489275783,-0.019555188657763477,13.825816285336476
79.81641010618046,-13.37519887855997,0.004369300800605597,14.188664923954208
80.89595377903211,-14.463660557327112,-0.02640074875826337,14.622162804689983
81.90900535559759,-13.81868184721681,-0.08907352380997509,14.297339367643218
81.67364569558558,-13.626736217044048,-0.1264730087020046,14.153612146374423
82.36312698452394,-14.439607877717853,-0.07237513801974993,13.886975952421054
82.30290107917752,-14.546046023642688,-0.0634330405288151,14.129004872933127
85.66322714834264,-15.250518779700178,-0.1927663023803754,14.357807175956884
85.74962997689941,-14.723662226378936,-0.24487374663305983,13.957170561891383
86.40323225420816,-13.781691637982505,-0.20789289395148144,14.95040739078682
84.3512658002482,-14.632215525294075,-0.1730826547587437,14.094920351191195
84.46267832945666,-14.123228860754137,-0.14026373326445252,13.990408389879452
84.46267832945666,-14.123228860754137,-0.14026373326445252,13.990408389879452
82.00744613221377,-15.119526158830533,-0.07912448750843226,13.870094670217194
80.3135064634231,-14.900476835300971,-0.0074818828443250565,13.966942913815307
80.94134076292045,-14.153689652766262,-0.006794498644901248,12.917659405271039
81.01721747961143,-13.95959406320655,-0.02966323553630459,14.80185004874819
80.51121018585279,-12.518688665709414,-0.06327670397255294,14.460155308426682
85.77269487134932,-16.053397461885098,-0.1837295895353108,14.959310277385883
85.18823518203382,-16.370485386358563,-0.12196845018026514,14.061884126129746
86.06713298172471,-14.23924259052835,-0.24915496831163358,14.040395039104816
86.06713298172471,-14.23924259052835,-0.24915496831163358,14.040395039104816
85.40141463292414,-15.169017945682823,-0.20983920284940796,14.56484057828825
84.94074365035812,-15.711869112912538,-0.1918179569430311,13.802059486363984
83.68662991153401,-15.008148653897598,-0.13039569940339785,13.457056901545952
84.06068356258027,-14.965394134089061,-0.13391298095245405,14.37357275102883
82.42492165745017,-13.480271165797822,-0.12362072376547063,13.613112311193932
81.46128032108624,-14.595015190079705,-0.037385349361884285,14.357961560830528
83.45747552221943,-15.912014141145555,-0.1220968024577605,14.596872918406765
83.71006500909691,-15.952170318942759,-0.12363656011265914,14.41926182464211
83.87455694039565,-16.323079957555834,-0.10274749005675163,14.812993416705513
84.73096255052553,-16.642012404423202,-0.11947531739205475,14.89527496348394
84.47768706236978,-16.89002166370033,-0.12127135035422586,13.824660014029401
85.66806707839275,-15.518765676864868,-0.205185252850779,13.803253990697034
85.15914363914641,-14.969800721111236,-0.1804332582119719,13.811870595988307
82.998685274745,-12.646349687392918,-0.16874353618094215,14.089729894476417
82.998685274745,-12.646349687392918,-0.16874353618094215,14.089729894476417
82.998685274745,-12.646349687392918,-0.16874353618094215,14.089729894476417
82.93300327925868,-14.083965001180644,-0.13192109319501655,13.987991778199973
82.76271660835123,-14.543840927705618,-0.11773469738498321,14.019037232725521
82.46957645670734,-14.790171434821332,-0.1294634109764076,13.945332072045142
83.09550937542508,-14.520562148736689,-0.10643818675351369,13.755723153677986
83.09550937542508,-14.520562148736689,-0.10643818675351369,13.755723153677986
81.54308081146922,-14.984007493769305,-0.04165401284596752,14.731548757766689
84.16971366013598,-15.088339306408477,-0.12654500864789275,13.672896719232421
82.32802370196855,-12.709867030229626,-0.12065269237703491,14.076105776519887
84.79790620263948,-16.539930336455612,-0.1546979309055342,14.245035418612748
83.82377490428611,-16.14752446766637,-0.18149744751104063,13.953451507213094
82.22793888339548,-12.168786352358609,-0.16494387573091568,13.806038352527715
82.22793888339548,-12.168786352358609,-0.16494387573091568,13.806038352527715
82.76155300678788,-13.439606946412946,-0.1278129931087938,14.547160763212094
84.33438293640269,-15.40788248764608,-0.15928531802782644,14.41327869941273
83.96482776979506,-13.281132906471926,-0.20691898803832692,14.478044189922244
84.65769545674996,-12.995295005815956,-0.19722885646615582,13.38538425967658
84.59043083217315,-13.134463257905974,-0.1836791141450918,13.543030325010458
85.142192856815,-14.090061434448646,-0.20506001701576645,13.79062582566122
87.15991924745582,-16.340702341659767,-0.23392883650190058,14.758792196488592
85.57632701724086,-18.176932062218373,-0.13575228779505602,13.790470598331098
85.65936571184038,-19.343938662553594,-0.162927469343961,13.913762514632708
85.65936571184038,-19.343938662553594,-0.162927469343961,13.913762514632708
85.48524459349967,-15.11619275681605,-0.10133506488048263,14.551374274767154
84.93751514413727,-17.36199043887856,-0.16917641713469678,13.929067605153765
84.61734062712203,-15.551452469007515,-0.1056203618451983,14.152953059220739
84.47552545736971,-16.191486443878365,-0.1841640904881316,13.78893689233887
84.47552545736971,-16.191486443878365,-0.1841640904881316,13.78893689233887
82.34256988731927,-15.580863564530677,-0.0848852435630767,14.26100062951011
83.31343021479732,-12.880114335777554,-0.10990791547934423,13.904450029815363
83.08600612890507,-14.050459212431353,-0.12547992888884282,13.89476566031129
83.63021281506441,-14.825049353294464,-0.10470460903034311,14.723027782263328
83.10756053616858,-12.595390326442686,-0.17033746035811795,13.768392894545336
82.54220765019724,-12.29712761589352,-0.11798249381034828,14.483430372704339
80.69468177356539,-13.111711642294203,-0.0924391703198446,14.194966302245271
81.04432606343742,-11.992472401584694,-0.07538623735178993,13.886656959656955
81.4036316239789,-12.111525775052458,-0.08883261967188436,14.167491714410517
81.36036082209706,-12.02765596078864,-0.09650983196078236,14.186600630109968
81.50348208658984,-12.513670824427955,-0.1136079669639638,14.692348651898339
81.31391028020492,-12.799785685710527,-0.10251338539871413,14.224419814504055
82.08142057282339,-14.38530778136605,-0.0781904302172921,14.298680815312322
81.77265029727347,-13.925162970999686,-0.08806334103878262,14.909799692784349
81.67797066333159,-13.859779598063865,-0.08909279305259911,14.558982257637597
83.85489021475205,-16.312220319159994,-0.150927273776378,14.545717146715585
83.90439659006907,-15.536353760593618,-0.10135384566323756,13.26471747613162
83.2816876213635,-13.288155681382236,-0.16437452243801473,15.45571040684623
82.83876108864315,-14.502166001714803,-0.13466614964971663,15.655121243873369
82.69879683714686,-13.59282510419899,-0.14610763665623863,15.464178179859235
81.89983050557727,-13.48016458280468,-0.13179063092040488,15.47191546601234
81.68009207326763,-13.679297277849539,-0.02640969889418688,13.193116034671432
80.64473716914165,-12.936648306090913,-0.0645823725698128,15.177506797770548
82.75215663141877,-17.211497136338533,-0.042091240064405996,14.989675986133511
81.87581029124776,-14.971091602410432,-0.05478793544850454,15.127049447176473
80.74171729321606,-16.12993377792762,0.014409557522331931,14.451053162650082
81.04821808655653,-16.111497840347266,0.03316555766928459,14.16592937028685
80.28478760614935,-15.003563801622278,-0.006315215012995368,13.870476891120074
80.30736121837667,-14.238484011794135,0.02791751468921693,14.51571462790901
80.09477738842149,-15.740315842794613,0.07375970144254901,14.265105113073412
79.38871433130114,-14.9612115162542,0.029813959152103428,13.81894759715999
82.96328566390088,-14.434746375725693,-0.13201347397947433,13.749168316992634
82.96328566390088,-14.434746375725693,-0.13201347397947433,13.749168316992634
81.36986565198102,-12.974770589129003,-0.06865760481334039,14.37177076669645
81.53565127388165,-12.098694898300797,-0.1036720261177027,14.581993855521233
82.72308704997707,-16.29507783623702,-0.053111198559033374,13.980313889272644
83.11921985503864,-15.906934384981465,-0.0606666353447535,14.280109327549955
82.81111258291817,-13.327340721572575,-0.10624166099027854,13.931585796268546
82.61416343309533,-13.534401749744339,-0.127509939654615,14.024299014043908
81.96182302199394,-13.171925844488264,-0.09370717774386447,14.62874163674786
81.54448246065525,-12.772600465147026,-0.08261282215307825,14.721039175492727
81.12550279099887,-12.485868439796016,-0.05381569598756484,13.58270188045516
80.4743822634136,-13.050786434068613,-0.05241494667581079,14.382463673089102
81.8968237621327,-13.59220793527201,-0.04317885634160651,14.410453821402955
81.08572586074824,-14.72228179699514,-0.0415608334162148,14.341960341229314
81.7841971721614,-13.843277014027365,-0.08923673519081762,13.623560661381202
82.89685822609019,-14.51329079478057,-0.07270317863381112,14.448104439008748
82.09741242655772,-15.514726507363308,-0.09201634587825219,14.242608573427564
83.25854070444173,-15.099617649281178,-0.10439703008877914,13.97416173418556
84.76402141287817,-14.564995448772168,-0.17009678560205585,14.1694931794124
83.55782602766268,-14.89897171110714,-0.15603635218389653,14.114054570362228
83.55782602766268,-14.89897171110714,-0.15603635218389653,14.114054570362228
83.01073000727217,-15.165363892288925,-0.0845546256682284,14.185719297495266
83.0479797568252,-15.891950753642657,-0.09976728747598004,14.622051138205391
83.5671676988388,-16.464850032931775,-0.07723330967203561,13.572269030298036
82.33026648654305,-14.909386976337558,-0.05883108960905121,12.959650346087992
82.33026648654305,-14.909386976337558,-0.05883108960905121,12.959650346087992
82.18846843853326,-14.464557793431382,-0.08232144865619756,13.106182468430072
82.05882016710511,-13.531535616425263,-0.09380142137492704,14.886479443731687
81.46290957244004,-14.048721449951053,-0.058156398263883455,14.916818080371556
81.73700538396913,-14.763256706613927,-0.05469567521967254,14.32166866497984
81.65429359021104,-15.096836866398041,-0.04009724350264569,13.734786953084345
80.76286811977981,-13.372918562913979,-0.030710944703340966,14.128243092536438
81.35472539991488,-13.402425259189826,-0.012243443737479882,13.804000618382034
82.30545424666627,-15.322863944287496,0.001154560636244861,13.848785529717448
82.39008410118039,-15.649660413056365,0.0007661234107746415,13.586860652165955
81.67802437967065,-17.398947390370097,-0.003390698164544889,15.052832084293506
82.42734237492262,-16.628955168998747,-0.01731263191190191,14.043790851341333
80.81749316040502,-14.484288722796503,-0.056199190435986146,13.942364123057747
82.68629106570492,-17.28032160653998,0.016822116972122308,14.181197815159475
82.27692234029071,-17.752741568998317,-0.05945665077378781,14.934214527283515
82.50465292323761,-16.525600404017904,-0.028396108764505934,14.812148751550602
82.94660909214264,-16.079337584866472,-0.10454616042869888,14.153190166849885
84.09818473443727,-14.81554443646623,-0.11553714106208038,13.915433877810559
87.15599222690433,-14.784198908948772,-0.24703256502710425,14.009904622361443
86.77655607022281,-15.018693543966723,-0.28256792890699456,13.449843497140705
86.82306481359363,-16.024111770831098,-0.2022122875626858,14.86337073756009
84.88484859043295,-17.330779935812473,-0.1780661515127751,12.938747165405458
85.10516921421166,-17.24620077283766,-0.15161816913989473,14.472489604791557
85.93871626667152,-16.603910681482734,-0.12930322964435823,14.558440207705521
83.0395157445259,-12.548565945746903,-0.10489063761683351,14.464607762046155
82.17932492764275,-12.628341546265622,-0.08972993591768386,14.201112817918256
83.2459310807707,-14.409370716573088,-0.15169581527443662,13.66626033692076
83.2459310807707,-14.409370716573088,-0.15169581527443662,13.66626033692076
83.2459310807707,-14.409370716573088,-0.15169581527443662,13.66626033692076
83.28926506296675,-14.571260277015325,-0.15617725207034192,14.08797554594939
79.5640358126642,-15.415215937479116,0.004004891384609778,14.109932246101197
82.02850381978308,-13.50685492815743,-0.0498928948557703,13.82723491296565
80.42351167892555,-14.245242915679022,-0.06401368319707837,14.605745601977887
79.51868307667473,-13.691690070524574,0.019166384297460634,14.77062309459355
79.81220352608813,-12.671786771011531,0.022785551149352927,13.625949858486011
79.15193968664602,-13.291094439818469,0.009403308120515399,14.773952125672507
78.39962643746753,-13.082342938757646,0.021425651519397564,14.391246008251038
78.927836520285,-13.931827703078639,0.0026208275451289204,14.018735326847553
82.01801648230654,-12.879241675878692,-0.11116536599152646,14.261850631955491
81.1940559074905,-13.920855730461057,-0.06592010353412477,13.965581389404454
81.86397631715317,-15.685567670088611,-0.035165039779267514,14.013014647511882
81.78680738136497,-15.406724363654314,-0.04935366059873043,14.424769836059363
82.01724021603651,-13.817169877343241,-0.0620111284106994,14.559773183858272
81.10344694357065,-14.198846606084976,-0.05719917674980111,13.884955369139108
83.95230624518292,-14.272335915188624,-0.15593947961491025,13.682928079186851
83.95230624518292,-14.272335915188624,-0.15593947961491025,13.682928079186851
84.42040079149612,-14.434136923303805,-0.18672671987056044,14.609461503340524
84.40177210623818,-11.993601171020067,-0.1739179683705383,13.67546228347958
85.02016783664457,-17.40156710536566,-0.07322679963121823,14.048695805646403
84.00821781896457,-16.843967861183966,-0.09242958290033873,14.41861737167135
84.00821781896457,-16.843967861183966,-0.09242958290033873,14.41861737167135
83.122099245649,-12.422351361022272,-0.18231467565649076,13.823596511772033
83.20082953037573,-14.524351184753815,-0.08571708283387026,14.55438780668924
82.46316805417574,-14.933091442602919,-0.1348458207367541,13.444792529287247
82.46316805417574,-14.933091442602919,-0.1348458207367541,13.444792529287247
82.54378160644464,-14.70683138634494,-0.12429769246250576,13.999537395671089
82.74484873280679,-14.102633333775485,-0.10939711667332688,14.123464125156419
82.83789983065839,-16.049317739005616,-0.09641899142413064,14.183793516795443
84.44258559847692,-16.348617560860408,-0.10506671830834238,13.841467641111157
85.38935408319392,-15.67238165580043,-0.21669050283122301,14.426110308231449
85.01623342679339,-17.171246899952106,-0.13221378272345996,14.245465534202811
85.79327487340089,-15.60533131446478,-0.14791071116888177,14.430712550871979
84.59146303021623,-16.361193714168273,-0.18166036507058808,14.552295516013851
84.58524867965605,-16.76059796356189,-0.09889763034525499,13.607580043189362
84.58524867965605,-16.76059796356189,-0.09889763034525499,13.607580043189362
84.13036636746483,-14.507787657481506,-0.15110861673592915,13.508575985152115
84.6162578466006,-14.49940768616098,-0.1862471214315412,14.400475728663135
84.47388890645298,-14.405411659759649,-0.11312330140924136,14.381505493070799
83.397598995064,-15.688068227978134,-0.1501407774235084,13.798086998187244
82.95021546822213,-16.64124698378402,-0.13266901188743005,14.63411422751545
82.14880852494562,-15.106653747871185,-0.06538488837103346,15.067523841993697
81.32824219049974,-15.868305414441721,-0.07696331738439285,14.67541962221352
82.75584723024738,-14.263294560610998,-0.0012319660204711744,14.34542532830134
81.54889865453224,-13.96155667823475,-0.044608326201380576,13.761934835993042
81.05563412183564,-14.778114640141705,-0.0770266601561958,13.393201820411358
82.41053354397158,-15.165904684309481,-0.014429429803304791,15.095387731031225
82.17812094462506,-16.085201811150526,0.012225271173605133,14.297759012083736
82.33113245492196,-15.959239246680902,0.021395443276878392,14.776446959868863
82.37669793349349,-15.538121389602443,-0.017877367009627627,14.896897405805339
82.65295752151444,-14.667892553431708,-0.0823639844582208,12.774584441087315
82.58431778897248,-14.389759963195157,-0.07391182944460714,14.62074455950796
80.34514791591232,-13.697859037805822,-0.020958907706016102,14.440726672284521
79.56527328241235,-13.816548269568425,0.002238258943746664,13.459042941932925
80.05322905267437,-14.433198499283389,0.0172533212551288,14.739156736529306
80.73213571255789,-13.225503009235641,-0.05719114069372849,13.130831349615892
80.78453986835693,-12.327980555057957,-0.0370440840350376,13.568881391615658
80.35106047788157,-14.405054558863242,-0.03000071405520553,15.16312302972031
80.65038767063972,-13.445883147483967,-0.015668912251867718,14.792363240944946
80.36948995186377,-14.052869977527008,-0.023325836016044262,14.407154478780845
82.86316943539478,-14.26380282562175,-0.1059080863914981,13.699436985663423
82.86316943539478,-14.26380282562175,-0.1059080863914981,13.699436985663423
84.34265123004242,-14.116749548523762,-0.1647775882385375,13.719422439519535
85.39155263339522,-14.369444934287579,-0.23618034245734051,13.79390791688744
85.39155263339522,-14.369444934287579,-0.23618034245734051,13.79390791688744
84.20583290363204,-13.347079219696639,-0.15199990210355963,14.177800317377171
84.20583290363204,-13.347079219696639,-0.15199990210355963,14.177800317377171
83.87624055351974,-16.467048626361166,-0.1371099890317951,13.802883684669073
82.52955453894833,-13.479769760286967,-0.0838833399490113,14.32021043242378
82.75961651194969,-15.423401427581267,-0.11831413053803622,15.222717717122537
82.912700785197,-14.619823737423292,-0.03799251486197466,13.51005206149054
79.45892727984933,-14.367428716389606,-0.0297039281573993,14.4060862588491
79.69140555018872,-14.196645649857137,0.05797365840801992,13.685772723576928
82.01060838606077,-10.944628124072702,-0.09906905540384663,13.50558342535891
81.87952772050063,-11.23505766522272,-0.10094373737044017,14.094211391629365
80.30640007490882,-13.001342711239342,-0.06969122310321518,14.699919689333537
84.71004130033481,-14.942574443536593,-0.1368160830566953,14.583197968724878
83.99991234344184,-14.8998594894858,-0.143187967174511,13.878293463908525
81.47538593856915,-14.594138237634542,-0.04820611050494057,13.574361872071691
81.59825006220824,-14.674080508699827,-0.09252256503636694,14.701136945505707
82.47533281957335,-15.92577561359172,-0.014215856420940278,14.081523782911567
79.65067163072023,-11.711625278901277,-0.029228750192761867,14.274882086291905
80.36130091646433,-12.211680831876608,-0.03366819424864022,14.20507476536337
80.77661008020372,-12.7233344096989,-0.04247835411934162,14.89329454516339
81.4429597840056,-13.198555907212677,-0.12067320631517545,14.83348399353689
82.29941013776214,-12.848355384327133,-0.0593617143725673,13.794160408484874
86.05961411280842,-16.240449781425447,-0.17309401687725637,14.109375798335348
83.9461543104768,-18.530785930443656,-0.1819482139055616,13.99155151601731
84.34543689042324,-17.746459165021214,-0.19563432896248573,13.785138247017905
84.33061893532408,-17.121421918643524,-0.18520269812907308,14.409076832208685
80.69154282525196,-11.763451666818554,-0.008546072803118539,14.221353711114553
80.26439524374231,-11.235235186746346,-0.047821206014783825,13.350205322016016
79.32295620515075,-14.438524498696415,0.0036952986424178044,14.8910606421511
82.01333278567708,-14.204462996768727,-0.06806139537813038,14.265233169446166
82.44097243713748,-15.227251963003129,-0.06188487828430789,13.639975829691561
82.58585985205289,-15.621852154521171,-0.06672792064065733,14.433759406137153
82.83383491118789,-15.559018969788125,-0.08882090162503312,14.23083576929346
83.52292812927132,-15.495993216853481,-0.08998773310791235,14.10870399644694
83.45768560693583,-14.530248762452064,-0.09853342259291063,14.969682447666873
83.34148339160402,-15.843100570431375,-0.13116070181796405,14.500180610959339
79.84816496787514,-12.456971377946257,0.001936947481142065,13.924522423965387
82.21837259090991,-14.546386043516216,-0.0777901515133933,13.769007154621345
82.21837259090991,-14.546386043516216,-0.0777901515133933,13.769007154621345
81.7489056134554,-13.787328328572462,-0.10841225475188793,14.677443614816424
82.74120941726513,-14.223815927113778,-0.07843476713625797,14.240805956167101
79.92090020648344,-12.864808882144457,0.007602209761828666,14.046267262243685
82.24653093489017,-15.660163082057526,-0.039451357864680424,14.129676447275498
82.59741867361083,-14.936389016947722,-0.12468730738915786,14.19571061303393
82.44566350965215,-14.869041308015978,-0.16162211896888942,13.927491941757925
81.9898603236099,-14.516519969825316,-0.10495155494728448,13.348175358463937
80.9494177459348,-12.715344746423867,-0.07307991563427842,14.058283881204582
82.4546053567119,-16.17784689913531,-0.035234661958617575,14.323170951489056
82.5261256750212,-11.836076036172994,-0.15745237256172281,13.694933704655458
81.60751274354057,-12.865602057332255,-0.09243704402419729,14.270727470752066
81.25077582468514,-14.010715882762296,-0.08115828113959742,14.449498766490528
81.77310400241598,-13.687944005189493,-0.10200706592556189,14.282773222108212
81.74691311491466,-12.571992023965276,-0.07782294282186233,13.853265243408524
83.27418830751486,-16.292758039848124,-0.05834706970672815,14.386365784154158
81.41185064856501,-14.714608929555364,-0.06975814077064185,14.345872702573805
85.16503408771207,-13.005539129695974,-0.2517801918142645,14.56228256858498
85.6692962065807,-12.740738399562613,-0.24931107466773292,13.689363781954626
85.28053100140498,-17.521858074127785,-0.1777450689646711,14.500604142928756
81.6033404373815,-13.364252791372568,-0.09260256713477963,14.3208310607947
84.18022548394885,-13.86252380569924,-0.13381619672844122,14.318590062221626
82.3111237794867,-14.488863985667509,-0.07647473884034667,15.136343851059218
82.08693116576163,-14.854117756350973,-0.037296336769393756,13.308267808829969
83.31491279098726,-16.051938152056646,-0.1346200544377549,14.721213039644056
84.11076340757442,-16.803679096990503,-0.046765748596677606,13.448111724302288
84.11076340757442,-16.803679096990503,-0.046765748596677606,13.448111724302288
83.85024659178893,-16.370449875119366,-0.05815221751893001,13.395532334778107
83.32167452549338,-16.881750271592836,-0.098494198727891,14.214210495411043
82.50403123720965,-14.522919380427226,-0.09585180108163076,14.331778214716902
80.29486304482371,-14.196352886007112,0.01934347150365368,13.82226142230109
79.5862925210751,-15.348354096840438,-0.016872108454005583,14.863482244072953
81.15368781841238,-15.591360288204463,0.0035861300093957098,14.477659904268931
82.11928183077636,-17.11380503781121,0.0042602047471254866,14.222316097931026
83.14258436713438,-14.253287301083846,-0.11186813865548374,13.656703614061662
83.5148465178419,-13.51930600283643,-0.1452382763883956,13.749855703773965
83.31586725229738,-15.587889227331452,-0.10459141291470866,14.385492476035752
83.63232991242754,-15.02633114654798,-0.12054783016520655,14.61212233195951
84.6993749110958,-14.32324435439045,-0.11510947424464917,14.534630550161454
83.65075019859297,-15.618730063364861,-0.1411328074957964,13.964225680430385
80.32899288019817,-12.573017101649118,-0.022473554507681133,14.383174186678133
82.00706770472688,-15.03787396553425,-0.11639638706145462,13.314747769493517
82.49589549767285,-14.533456048532775,-0.11092676184259422,13.406777013783941
82.27952465098019,-15.103926735678334,-0.09393258551648681,14.635628866881099
86.40950683454318,-15.99587767349611,-0.25084438059426967,14.995671282479062
85.8283977561242,-14.825426544594475,-0.19118104312827414,14.394680553578105
84.41149230323906,-15.125092020489836,-0.13828341126535088,14.264315145262897
84.55354874739525,-15.40054865303566,-0.16374481378316563,13.684067814406605
82.25473165073413,-14.71895889428168,-0.07160092281624406,14.08182448194611
82.56462963341794,-15.022478523347907,-0.06481269986501201,13.849398052860874
83.35255825725865,-14.753090573379449,-0.1374081512949968,13.992171586459348
83.07772939746026,-13.482119884886338,-0.13900210762310145,14.342839102874626
84.09490722985362,-13.72943442809697,-0.19368557571995695,13.993641009999312
84.38488007656736,-13.457791647439272,-0.18640359802980677,14.106213740305924
83.82182605929066,-14.28402635969232,-0.16855396557130656,14.002329284237897
84.65269107052414,-15.759562360787339,-0.15357461515836596,14.404323247240981
83.28118598420744,-13.686448424990799,-0.14770426912672677,13.459327488950471
83.33670082716797,-14.182726351369556,-0.14647566387123143,14.43642885703578
83.33670082716797,-14.182726351369556,-0.14647566387123143,14.43642885703578
84.95503013164075,-14.332658479063225,-0.1949214317934144,14.845716157752845
84.65536671781813,-13.830856081778176,-0.18079636733717572,13.68926062691159
84.51565629710935,-13.942369435831353,-0.18845465180931695,14.27932778793445
83.94061948138331,-13.638642603776411,-0.14003252281586764,14.288731505529865
82.360873307728,-15.38722224029633,-0.05439174403030329,14.218252963130086
81.19883201315459,-13.468885402382883,-0.020717241750836446,14.364872345405743
81.20530886376358,-13.588582041399901,-0.02147547956034965,14.202301890182994
79.74171000186017,-13.060097932402337,-0.05709619908737078,13.97577736077946
80.55267754655993,-14.296201891993393,-0.014621431681216674,14.04388834200839
80.37086303701739,-13.355687058367714,-0.01726417196041575,13.978189647877775
79.48655672115484,-12.621700052672786,-0.029778334988162063,14.589681041309282
84.90230471081848,-16.054673287319574,-0.1576701264844643,13.975651712665805
84.90230471081848,-16.054673287319574,-0.1576701264844643,13.975651712665805
82.92198695546672,-12.213010846278511,-0.11892918390796381,13.65841200821894
82.92198695546672,-12.213010846278511,-0.11892918390796381,13.65841200821894
86.53069053527562,-16.166890414041895,-0.1825717860128053,13.664013882345017
86.30750756724562,-16.282160545107725,-0.16698882942198037,13.563253875809306
85.9840332342685,-16.212205874995362,-0.17860217206869355,13.327065014240251
84.30281397875021,-14.459047654100482,-0.15457930790956353,13.75343290634416
83.93101685538933,-14.041842758991827,-0.17737735802271137,14.6947447830526
81.43273308775325,-16.44347547991604,-0.027793030197100815,14.375880830256193
84.38966334084579,-14.174771852671405,-0.1858932319525815,14.043441776842142
83.32749481004294,-13.810213552638794,-0.13582633680625,13.833033788268063
83.83747995352809,-13.449065215795496,-0.12310693994564298,13.678114888526546
80.8331184048485,-13.86878572847134,-0.044140338227641934,14.374675513212878
82.49313274625169,-13.577387891252284,-0.07363431934271847,13.499722484296592
82.60515434493172,-13.515334081065536,-0.0668348905700073,14.337249654829808
79.99036473762352,-11.885966655976851,-0.06194734080124821,15.048116315351617
79.772091977283,-13.924412658885405,0.03477846139441243,14.341853198578026
80.45508611296299,-11.415240999260709,-0.03074293300090719,14.051172247493987
79.97923435722375,-12.14658914154551,-0.06709912693346469,13.69103904176858
80.8347742932015,-12.99122741008553,-0.007722418810910785,14.435000983770587
81.51432052053012,-13.286897269379349,0.0271077536458254,14.32161371925461
81.35327013489211,-14.32094061927294,-0.026523073405073504,14.130504603403073
80.82505112264792,-12.279506627606763,-0.09085995666311081,14.288764985725043
80.72822000963339,-13.53918353832012,-0.031917990605236965,13.911747699849352
80.72822000963339,-13.53918353832012,-0.031917990605236965,13.911747699849352
82.5532267809279,-14.325423290907041,-0.09182656269367273,13.975591637709297
82.63384653668204,-13.035175708335727,-0.13349696624773646,14.008462708826412
82.46295964849767,-12.819690189046982,-0.11851737883980906,14.287357998095139
81.79373140139661,-14.449185859037717,-0.044567183477950946,13.975337830574773
80.87411756172517,-13.317819769480232,-0.06704983455106481,14.157925326587383
80.31694119529818,-12.862457016232716,-0.02359254141479898,14.234852585168497
79.76727472600645,-13.04080184629654,-0.0597845405949377,14.567039737664961
81.78198692004901,-15.529889766930015,-0.04470378267934763,14.733237173520978
81.8154803798984,-13.874013368967564,-0.039071109980856486,14.050558959312909
83.38363369019952,-14.524132830248172,-0.11570125812157567,13.794565605697748
82.04881141947605,-14.699060865958051,-0.03625663968208669,13.865016815974064
82.01532259114146,-14.574731990184961,-0.037317392492602366,13.557655559530867
80.2829534992268,-14.456993689994198,-0.03083444078568186,13.590626372576168
80.70837729567191,-13.43038234394763,-0.050893475323591855,14.4709047093737
80.9772519521257,-13.27046933852945,-0.020638064162096712,13.401141743504786
79.6525273255647,-12.211208873103592,-0.03802098817072663,14.565145235351757
81.6997870096656,-12.900704079187944,-0.10887559454362593,14.484206890906215
80.94347485698826,-13.368031524830524,-0.10602030737071258,15.195743951004824
80.9346953135647,-11.84001778133844,-0.07450758415860229,15.54748315316063
80.66958662427817,-12.362930156360383,-0.0913394132810146,15.565661492618686
81.97173990255821,-14.965292830161683,-0.029040159855194363,15.204991226515052
82.11864174970269,-14.926555847568583,-0.050469146602615846,15.026052660156395
82.7220655403799,-16.61161124386554,-0.04444626985646334,14.156886793008688
84.65053563762754,-15.810438036532377,-0.13706446220641355,14.363063756274368
82.3021719312053,-15.184112222691724,-0.06354249158355954,13.725908471606987
82.89944685369606,-15.363171289866484,-0.06085111663836528,14.762582348014021
82.16792020096797,-15.820178296564372,-0.06922602926727746,14.029598220952533
82.16792020096797,-15.820178296564372,-0.06922602926727746,14.029598220952533
81.47808643154204,-14.862231052831161,-0.05032288879787404,14.080479542510526
80.36070470583883,-13.990882625808007,-0.043106734629680024,13.393951476783029
81.33077300968624,-13.135137491446958,-0.018828655951271478,14.474732660842307
80.90918823334233,-15.631143727859588,0.007454906515062891,14.690735972463159
85.07937276391226,-17.910097809575564,-0.11820927293879938,14.048591852528636
85.41264250513971,-12.29470687152882,-0.24003472915280752,13.946413060943787
84.58887665327842,-13.122417170403242,-0.2214277036824353,14.131535020054187
84.58887665327842,-13.122417170403242,-0.2214277036824353,14.131535020054187
82.06997701562024,-12.434014037913649,-0.10034986128998188,14.325905470916508
81.5659088045292,-14.527330370836895,-0.07085982917202276,13.827608093906507
79.14089008517863,-13.354283609930892,-0.004664194809444532,13.894865802421267
80.09931564844653,-12.331544607462334,-0.03903385792102183,14.140665389250206
80.04281693962922,-12.24862224614603,-0.03894298362304977,14.250626856746866
79.52392715878645,-13.357425358153062,0.021269796700565394,14.116934910398449
84.51151495235911,-15.688223961111392,-0.13947115515219477,14.11595777755704
84.19652319006892,-15.532774975789389,-0.15785907468153001,13.83898194302335
83.04765029327986,-15.29909052677941,-0.09243901260725856,14.420530049293514
84.39047755737231,-17.25228287835614,-0.09360921644354965,13.615042382354863
83.50932816139424,-13.601963427045382,-0.18068549265324604,14.521032182858633
81.89131355456684,-14.296298549952152,-0.10302427473597425,14.181581996970586
83.34926742339303,-14.681282056290318,-0.0631940453127016,13.786047924607102
82.69676621993266,-16.349114943497604,-0.15808625778647367,14.753423597475768
83.87324567509144,-15.760701074463283,-0.1461780518519987,14.377897517978196
81.29978722013108,-15.82931135277196,0.009063680913570876,14.15628873250123
81.5040220702033,-13.437693219630088,-0.08107757678422012,13.709513124863257
81.57094609737155,-12.83801005050864,-0.06595771290327823,14.218713520819685
80.59705345423839,-13.687813568010538,-0.03760148816289794,14.248418136357788
80.54530641032892,-14.42322145083932,-0.032125793105123986,14.193870396911045
80.46262776213463,-12.064000617457777,0.023838249438982512,14.778570631950583
78.60976933320835,-13.652664738386262,0.005935260862331284,13.01118031119985
80.6250887498785,-11.386119989603447,-0.04766909560980135,14.988298364804065
78.69500518208962,-14.767313608054613,0.003558762036840038,13.283128434232625
81.88243705761343,-13.335256919664102,-0.030373858186569472,15.063211717923819
80.95302319532209,-13.701124827540584,-0.06385514457302215,14.560198779772517
82.07523445410605,-14.21657600335485,-0.08007594686444502,13.203111205806744
81.9153296103022,-12.811791818090985,-0.07526239371643872,14.905180403925948
84.22030271481012,-14.054426780353126,-0.14721174708636559,14.784213666506593
84.67831832123298,-14.148332170443927,-0.22006048534435535,13.335270903259127
84.34401873166442,-14.614451754047245,-0.23987926117078703,13.428290839858569
84.97357067171589,-14.548777781764683,-0.16935884555748904,14.258232044797095
81.65111420944729,-13.605122665788858,-0.08828669972873696,13.832402345234714
81.75420494212825,-13.16844261650026,-0.04593146998685723,14.283955512104619
82.08596879785759,-12.865053268124457,-0.03495523885221674,14.570325794330008
80.77400338508902,-13.659303676693861,-0.09923636175398423,13.169941972612078
84.57868985714487,-16.445183630275107,-0.1559690847141937,14.164517700966057
83.77612708130005,-15.887035443170122,-0.1339860205514353,14.079619350486201
84.41993368277879,-15.720073357794998,-0.06960821522324201,14.108201912224215
84.02180891966164,-16.237311631357365,-0.09842269018375246,13.796284777829678
81.43260798123217,-13.722599630929938,-0.04042760724020688,14.018748438033192
81.43260798123217,-13.722599630929938,-0.04042760724020688,14.018748438033192
87.3832490266946,-16.845298977695226,-0.22133490084915924,14.15516387125892
87.3832490266946,-16.845298977695226,-0.22133490084915924,14.15516387125892
83.13920731143605,-14.295033555746219,-0.10446666000652802,13.608254810584498
83.13920731143605,-14.295033555746219,-0.10446666000652802,13.608254810584498
83.13920731143605,-14.295033555746219,-0.10446666000652802,13.608254810584498
82.27710430156515,-14.840643645352973,-0.12774456023122696,13.913390761491442
82.45847259809759,-14.638193586936563,-0.12161059343761449,14.35172051001046
82.86624071807695,-12.73413102135593,-0.11330058425050799,14.434634214489268
81.87157685634118,-12.083361466580648,-0.1790929663343961,15.407602350016267
82.89435497963649,-11.745112369958367,-0.10729504859562186,15.398660097101756
83.61329573851435,-14.636889792249242,-0.1720256390112799,14.824252203177496
83.73028210696252,-14.520777986391504,-0.1655396781874865,14.693494859137889
83.81591933714732,-15.964803107215097,-0.13681559835586832,14.118751249045074
84.95315590988095,-16.16576572583198,-0.1325235521567788,14.309672995052114
81.7867878586855,-13.694423129999706,-0.10330184001792517,13.864850150474306
81.90890123140703,-13.845939142622273,-0.040640407706481835,14.538401889349926
80.99251602730388,-14.52315075919516,-0.06494416393768405,14.694745586651818
81.25063231286192,-14.17110398821195,-0.08051478537898789,13.659375205485276
80.96296896680334,-13.659688912131548,-0.07096974034089586,14.533471140229423
83.38096107350005,-16.876268915098798,-0.020607952480298695,13.40725699743045
82.38433456307044,-17.384579919367958,-0.0686764105474616,13.192677041021737
82.33612701047052,-16.91933077697142,-0.06802781052747955,13.178888298866596
82.56366132045432,-15.51633170672761,-0.0294742369049706,14.771581014155494
81.60162782828675,-14.663515571298108,-0.044116016960393474,13.81087844746344
81.60162782828675,-14.663515571298108,-0.044116016960393474,13.81087844746344
81.43197386424555,-14.715269475327908,-0.015612342893557223,14.256807993363076
80.95241403156231,-12.537296224515279,-0.04903639258227493,14.650486021097384
81.16892837503698,-12.447332227692492,-0.03271603894279391,13.445928456064724
80.37074970951684,-12.681775223850158,-0.049703471648365825,13.825202030109654
80.31673974139522,-13.767528234568525,-0.07034940921521071,14.07242080552147
80.35930564122573,-12.87485114002645,-0.04532312131641113,13.731089392374939
83.28894735214854,-15.57866183737303,-0.07986161228555869,14.255808879251868
83.28894735214854,-15.57866183737303,-0.07986161228555869,14.255808879251868
84.0067973698108,-16.03597793058544,-0.1291106320709063,14.272644684778804
82.47528022284145,-15.190169124586943,-0.06916364225481342,14.238611539919459
81.14563808492674,-14.205806442390386,-0.05257215178107878,14.248307349174738
81.06534417335696,-13.019968157362392,-0.0942182765800331,14.236011528199596
83.57632609932125,-15.846161257659892,-0.14073108109544108,14.07994967034081
84.33265564976206,-15.271172032934466,-0.12072361314326754,13.904113925835405
79.93001674615451,-14.250198970897756,-0.053775091116122685,13.69199710148739
80.91425113250448,-12.09508602656484,-0.017422683544000922,15.160002305767982
80.66161506583433,-12.775059658194365,-0.03457338967044703,14.369937208703506
81.03098582684738,-12.634677705641675,-0.05977395705767803,13.862860887254877
80.22244406016425,-13.497253330459852,0.014854936596318688,13.7363058866711
78.32903613530047,-13.57563931229154,0.05238811232281836,14.225849866303365
82.50241974276526,-13.975928273564088,-0.03086943326913592,13.565147201085127
82.25092383484206,-14.25705894039711,-0.05069686737850447,14.016460463180172
81.72932142428522,-13.941812121922014,-0.0482179549935267,14.186092320647742
83.23624131348444,-15.903486365203188,-0.11842436177806358,13.680983292535442
81.77060586096682,-14.906052963823631,-0.07435360068662823,14.323046376726047
82.09346438159456,-13.112323718892773,-0.08416651800544397,14.733812540703086
80.50430860331399,-14.726160608483013,-0.013914813864581044,14.416280828071587
82.60723567175089,-14.872763994046274,-0.1170594132774554,14.236254517001155
82.79771196858775,-13.663973777752144,-0.08893606470356782,13.567601110846821
81.83443118029177,-14.455915787467465,-0.09752073821725024,14.585552567942878
82.05365520380384,-14.52574225185411,-0.05129167812428205,13.182046869066001
82.56961555807368,-14.392342911711975,-0.09444025140701504,14.310717342104411
82.74613827668723,-13.86034461024831,-0.13462985008850575,14.918796204755507
86.73653472346551,-13.312754671981375,-0.25629636703414205,14.406949239902572
85.88291245032798,-12.993097605829117,-0.3123899675979056,14.403080054089367
85.01934217720141,-15.127164097384181,-0.21538265857630226,15.501520072300506
85.8557508054733,-15.390990057913934,-0.18363660329638473,15.55593855552892
85.86450183967781,-16.670586996473578,-0.24319563247004014,15.330409052207088
85.5460984339436,-16.11805101181816,-0.16820315648205864,15.364817514233664
85.6353447730001,-15.943621369329996,-0.11067976087980763,14.487357105945286
85.6613216996944,-17.89048901246818,-0.18884500025740686,13.843576028920328
85.6613216996944,-17.89048901246818,-0.18884500025740686,13.843576028920328
83.3596106783501,-16.493972572554167,-0.06201814467902915,14.332569008313351
83.75598883439174,-13.95438182633679,-0.18029202534167824,14.24600307736645
85.5971181625604,-15.336163587389628,-0.16752000720981042,14.299355714691513
81.48661360843133,-15.044362981703305,-0.011645584309722557,13.945995512643334
81.32231820338373,-12.552206558718265,-0.10779128507524716,14.916639732930138
81.32231820338373,-12.552206558718265,-0.10779128507524716,14.916639732930138
80.93203070590992,-12.929246105435098,-0.06863414124154807,13.466427725429686
81.21324144129234,-14.530670783961908,-0.026178422783738713,14.405581428807562
82.57213989073271,-15.369186914527658,-0.09058749159967529,14.48782276712654
84.30334836894355,-15.89266925577638,-0.1058766600173034,13.429281188166069
83.28714006526687,-14.79380109005761,-0.13812228539803909,14.543655771972329
83.62688641370117,-15.238878831568744,-0.13356097157786861,14.702598932320928
83.48095325502187,-16.041985981980247,-0.1452690608396964,15.399857987243447
82.28010499221254,-15.412227376501672,0.0008032476467564817,13.71989614907179
84.65402648411374,-14.153497974584115,-0.1359796535290582,13.699223458962765
84.42761493306817,-16.67906854706616,-0.12439444775006275,13.682308372002389
83.95040428019,-14.889918168524103,-0.09196362508456861,15.249724531784173
83.27373669376408,-14.905353592548678,-0.10132518472896858,12.58738253660007
83.27373669376408,-14.905353592548678,-0.10132518472896858,12.58738253660007
81.81362827100293,-15.095597501007802,-0.04690466339209688,15.015069025248932
81.44365236734737,-15.027161248518153,0.011265052186657291,14.103280024476724
84.79818723921063,-14.736251214012162,-0.13864641253861035,14.028162198358846
84.15039907811008,-12.405787794351717,-0.14292848910570577,13.82251463964845
83.815843475267,-12.656946698911405,-0.1595954201363725,13.888338296413535
85.12750507082383,-12.845027151449743,-0.20439579702681282,13.977087351405311
82.37267344241053,-15.644996461445206,-0.016792199743712634,12.973179019363409
83.19944801942292,-13.690730860936247,-0.12127436034439545,14.931148006034688
78.13716764000556,-14.57849220256756,0.00848147006461587,14.268927303793944
78.240219223154,-14.178428880402278,0.08287919552704517,15.096562189595542
78.96076978033422,-14.20561920544976,0.06413285311695838,13.103388148586209
78.55475005384038,-15.04164558862258,0.07739628610975774,14.694743937765802
80.16225943491705,-12.588389329738288,-0.02938624196472535,14.031609368392349
79.70552766215144,-13.328285387202527,-0.05773020508691223,14.468591556566722
80.63444042558164,-14.933737649492892,0.0512659414186726,14.270690096183985
78.76979102073336,-12.776757988751804,-0.024308864938624664,14.699303642047322
81.27311880364698,-15.983792431164513,-0.01871411664764294,14.795649122849627
80.6221735546362,-14.5910075356711,-0.020719484221568114,14.668467385779948
82.33187322168364,-15.469756939001398,-0.06747089825523157,13.266656808011433
82.55788165486531,-14.685965847978874,-0.0789833498776496,14.542089061767548
81.990163533014,-14.026730776744937,-0.0998503482778697,13.826618820238755
82.28204053138577,-13.191152799808712,-0.13249761406655247,14.75701640236561
82.98766356288107,-14.051980483806014,-0.1389675757450433,14.142011190075568
83.58453381372733,-13.164267338601498,-0.14859832028731695,14.27027574736417
83.77762709202882,-12.951316724223435,-0.18526702740633244,13.721216968300569
83.77762709202882,-12.951316724223435,-0.18526702740633244,13.721216968300569
84.20199531914214,-17.469549883532935,-0.12418633267672059,13.952909365904018
81.9494602182499,-14.82574820390312,-0.09003503048780291,13.856710996520894
80.66467516807563,-13.79879053651671,-0.005999347130988463,13.667626849246336
82.54239136202298,-13.483473883164313,-0.10785552416157636,13.570470956749638
82.61148479058902,-13.105302149486374,-0.10935921644621316,14.381765307867708
82.62078728465532,-13.116362993100111,-0.10238995936471804,14.29130405788695
80.75528309997358,-14.104530450013161,0.019012351642908765,14.61599196874483
85.3306401037771,-14.806460199258563,-0.1790636240632777,13.20366986327769
81.92043089546367,-10.847653121725301,-0.12998604873200076,13.474158024787997
83.40505880323973,-12.537206722413208,-0.18744724437693433,14.688391857527252
83.70489749107988,-12.182558529714695,-0.18139231004757092,14.890044755847947
82.30213655309754,-13.400292354743296,-0.13335313327966697,13.506813412516562
82.89318238856909,-13.34543218311483,-0.14380281096434422,13.834548200793964
84.35527910130536,-16.534581449797546,-0.13438295762974392,14.293080452796255
82.75324691768326,-15.152954279062294,-0.06334526531749679,13.75151060938702
83.98262310911313,-14.817931015388021,-0.13217947559005452,14.633303948078638
84.19190921850313,-14.866710011100174,-0.19619274057652158,14.098591270444738
84.19190921850313,-14.866710011100174,-0.19619274057652158,14.098591270444738
84.70644149413272,-14.466317874214411,-0.1738439955801109,14.325894258991518
82.8449010529379,-12.91454739609495,-0.11924997420435723,14.220976237670472
82.87532242046393,-13.1977740395733,-0.16434534272122453,14.367142711033248
83.29620475967043,-12.157414394922487,-0.1567071125314056,13.56531158208657
83.29620475967043,-12.157414394922487,-0.1567071125314056,13.56531158208657
81.4580538414781,-12.834602974974665,-0.11153021277933073,14.860378476256285
83.80734640804657,-15.140222270247069,-0.15312426938869453,14.719580056946366
83.65863578917339,-15.18606289693177,-0.08304316380958306,13.892304165061907
82.78333828589976,-15.265816499942389,-0.10975440726778128,14.124749978041972
82.58700911870392,-14.976032619275848,-0.12902296595628124,13.185731122388535
82.82311642393388,-14.588250874816925,-0.139778075961432,14.04625793186111
82.82311642393388,-14.588250874816925,-0.139778075961432,14.04625793186111
82.97108072962087,-15.546007415665123,-0.10782067053852468,14.012885680305196
87.12117796184998,-15.862914727109455,-0.2782042616502326,14.142314583367154
87.16480082608845,-16.011991084013264,-0.31535246818678897,14.813804083015631
87.64345851034687,-13.641426274942287,-0.25395632138177693,13.789737918518158
87.64457271705935,-15.816722450555464,-0.24740075621484936,14.100490047702532
87.22275842191948,-17.27950357605201,-0.2421587909055275,14.672763944914177
88.35194812203105,-16.834564543757722,-0.2337373868271399,13.687809244686283
86.62889047978489,-16.028502292136928,-0.23262160166915907,14.460911602170741
83.77267210102278,-17.858638518024097,-0.07416366988405276,13.908248396005149
83.66112353828782,-18.497077931125194,-0.04096945428277747,14.609235916197035
83.89403631349099,-18.190004870327733,-0.01824605635088269,13.967642897985066
84.28079973746905,-17.35915521033856,-0.059969507838488915,14.49513777157089
82.91999436671898,-15.871934629910129,-0.09056070654918197,13.477230001024147
83.33121174656272,-15.897636296242801,-0.08673002070368357,14.615657980779506
86.79169201133949,-13.585027831786933,-0.23758702046862307,14.261624008926285
85.29241349445866,-13.98560740125935,-0.22874735243681274,14.023763680753232
81.46966955405092,-12.721984952729237,-0.0712341382780207,13.981507498802385
81.20606610321731,-12.65396807278923,-0.06686166330651172,14.081114614058677
82.8096442861249,-14.707506309656251,-0.11040711765056883,13.97310831818326
83.20156275007967,-14.527018751253221,-0.08713278747562545,13.574634564806038
83.20156275007967,-14.527018751253221,-0.08713278747562545,13.574634564806038
84.53634296339963,-14.52247531504567,-0.17088309891350165,13.745529230203713
84.3863661797476,-15.203156697440408,-0.1442413545973582,14.300625590522715
84.35240900614252,-14.809359176129862,-0.14689155764238193,14.286338157806162
84.18416681214069,-15.400191006283151,-0.18781872000327135,14.277518306767643
85.0403266557988,-14.284492096030366,-0.1485230692365392,14.676446911489117
83.82659393307722,-13.683940895757173,-0.15866791364754,14.646191408391031
83.21818451073256,-17.124953641205117,-0.04421607705836884,13.326938198067642
83.29870459975602,-17.151954490946096,-0.02836658928991453,14.577333500849543
83.04249127153653,-17.589302007378244,-0.0520529862200385,14.195411120402566
79.58838611643112,-10.942835634730084,-0.042709345481597945,13.966035713497483
85.23233623809628,-17.177807575588417,-0.15601507359161576,14.154550155759813
83.60326318808384,-13.806846483090201,-0.1401123854723311,13.850032275540151
82.46627391043238,-13.1087176754431,-0.13489336425387313,14.735211011931407
82.6315420341735,-13.402283295906388,-0.14207108074099803,13.192995244382164
82.52460697597236,-13.544355508986387,-0.12287840311008519,13.564338793446865
82.52460697597236,-13.544355508986387,-0.12287840311008519,13.564338793446865
83.94938293229248,-14.69701161632127,-0.15500996439468473,13.588535269472652
83.94938293229248,-14.69701161632127,-0.15500996439468473,13.588535269472652
83.62285550046882,-15.189249740104717,-0.17380925456423368,14.954983416191517
82.15843493789617,-13.953719519872863,-0.12994705175308047,14.59472039310284
82.74264156185943,-13.121209814802173,-0.1166695682445858,13.675778404581447
81.82130502659331,-13.14166663325599,-0.11992902275187642,14.88862501292551
81.47601176868541,-12.947027016117334,-0.15557175469246734,14.660217590191312
80.59409736515254,-13.640823168684365,0.03869666983705367,14.03329809433853
79.61922883632646,-14.30673003333331,-0.029137257960504506,14.111593920589875
79.8885249007806,-12.986133756158189,-0.02318990348726,14.767055782939188
80.3274439300502,-12.574529520885381,-0.005137673776898714,13.549699413711792
80.3274439300502,-12.574529520885381,-0.005137673776898714,13.549699413711792
79.81852162532033,-13.055247503743741,-0.0312378186426727,14.518721618288827
80.81593474443044,-13.115352728334008,-0.034471505616499476,13.703809413177243
80.81593474443044,-13.115352728334008,-0.034471505616499476,13.703809413177243
80.19088375973226,-13.997304689984643,0.01974225271678622,13.729270337113576
79.45405615029627,-14.245661903708305,-0.0030015645352867906,14.250332721086576
79.45405615029627,-14.245661903708305,-0.0030015645352867906,14.250332721086576
80.48487080047263,-13.674540319591605,-0.003973513522422794,13.3306908834015
81.59172036081786,-14.415981275565938,-0.09264190004257769,14.053577379255131
84.69059125219802,-15.305714500473014,-0.15161858135627548,14.268903994904251
82.5368171705285,-13.987178243110646,-0.10553306543651639,14.040609378903643
82.5368171705285,-13.987178243110646,-0.10553306543651639,14.040609378903643
84.17694350760013,-14.64154249396182,-0.13340744273650498,13.914057452226118
83.59360230719746,-15.23583157073573,-0.12034382400952724,14.152419338210393
82.94112997314652,-15.470821479514711,-0.11187450315604966,13.93992488683685
82.04941667692597,-13.834846691175288,-0.04906854999614558,13.915950458093722
82.53911927734505,-13.462230314592048,-0.0847662435322013,13.98898679470922
79.97727137481193,-13.355237673494472,-0.026086170682268386,14.26567718274985
84.64123276175975,-15.727318560437489,-0.1375168672094189,13.615337896641313
84.72576157291545,-16.381484534098213,-0.1617860106836532,14.827683648577338
84.82631042751699,-16.32978123427805,-0.15224105251729442,14.95883582176107
83.93783254912121,-14.440833014829204,-0.18482593789275753,14.813603993487988
84.33770406008705,-14.560479499124765,-0.13327561188037082,13.23520416394493
83.31343386053628,-15.473427171875766,-0.09812658019104112,14.373069093124624
82.99040301189983,-14.864424437860164,-0.08008599665721167,14.37341025916941
86.82193947181439,-14.691492526395487,-0.28520537134948626,14.705517826958282
85.93768499435978,-14.819278112405115,-0.17083455188418112,13.780776256295797
83.3442290072525,-14.020999482610755,-0.10364675966579336,14.002214857821345
83.21242458857918,-15.122286411545753,-0.12340624995267524,13.909604507723241
83.21242458857918,-15.122286411545753,-0.12340624995267524,13.909604507723241
83.45907905093628,-15.063119129951838,-0.10253518461111294,14.00978228146476
81.6045978445703,-14.224303455100534,-0.043899914465594284,13.998159796919875
85.41367587067516,-13.151088757630427,-0.21873294961055595,13.962994984564963
84.55238071918957,-15.39390281153565,-0.15201688486797035,14.12303692601576
84.47589938819696,-16.296555671835637,-0.11909862576204638,14.430631545244172
83.52715322994159,-15.420865502539844,-0.11461067307434525,14.401788651435291
82.80897794308002,-14.132885100008584,-0.10600643359226979,13.508705184807965
81.63314592075771,-12.941196024481597,-0.08381088564098232,14.896421140706234
83.28285423094022,-12.629112990145323,-0.18590717879996171,13.247166344260343
85.3356605651917,-14.931590833613223,-0.18082243130158226,15.021541282280696
85.32344016858522,-15.95934490484009,-0.15382022737210846,12.815544710897658
85.32344016858522,-15.95934490484009,-0.15382022737210846,12.815544710897658
85.04263529979848,-15.65090191554297,-0.14485614428072296,13.677650333112329
82.19960971499927,-11.71865137448122,-0.1403409036132414,14.067817083284961
82.19960971499927,-11.71865137448122,-0.1403409036132414,14.067817083284961
80.09135271945546,-12.620059413513964,-0.06470775255873192,14.230148701726508
79.47961535653828,-11.062291541887245,-0.027217348208155905,14.018343224684598
79.93321544714362,-10.856928034237018,-0.017421827083325854,14.400118879157096
83.5378315230704,-16.38000925318291,-0.07613332743395695,14.056356115038684
82.111721853305,-13.077361188426039,-0.09252041338330094,13.92709259916533
82.111721853305,-13.077361188426039,-0.09252041338330094,13.92709259916533
80.94578680262742,-13.553665080742514,-0.041666203456924886,14.103503074418564
82.49302357018783,-13.284269373458676,-0.10427301907020185,13.976460067623377
82.1082159453452,-16.58892312631447,-0.009753582248036833,14.077835924710273
80.63518759756818,-13.25750997294901,-0.05846045131882723,14.303146810831965
81.4947141112927,-13.534235333485286,-0.040344049936548394,13.7143979765967
84.18528453523327,-15.479113023897245,-0.04532664390884694,13.998689544435399
80.9850231724136,-13.601286244568731,0.020811821659735948,13.723651202911247
81.07805181657552,-14.213462946494708,0.021974529524538395,14.77345848696619
81.80543560032054,-14.483279469846504,-0.05638390102157157,13.385899369355874
81.80543560032054,-14.483279469846504,-0.05638390102157157,13.385899369355874
81.80543560032054,-14.483279469846504,-0.05638390102157157,13.385899369355874
82.0170299844848,-14.333143773015262,-0.03491287803342674,13.070986297341989
82.18238544085803,-15.144323387127715,-0.09046251480428802,14.818746909958453
82.35942474981063,-13.708344772061567,-0.08235313330944086,15.008379770223529
81.62375771228619,-13.918642755810032,-0.06273815539058138,13.658865819477278
81.9676832339172,-13.902415391872434,-0.11731450534868375,14.584213733645317
85.60457974155815,-14.899618945338599,-0.22377222653689843,14.461910808284332
81.42903029765702,-14.394414591396641,-0.0665442798618893,13.15964557668291
81.79824290194989,-14.197322137536466,-0.0804743021015558,13.73423200473591
82.47041202076285,-14.008828897320793,-0.09080758942558484,14.328844448993644
82.56964917158102,-15.124985908977063,-0.03057208949712171,13.802452594945017
81.20183317331856,-14.090277895918266,-0.059621914153530436,14.263557377780131
86.27001910455171,-15.964993926640705,-0.21102719535038877,13.757283354163004
86.46481714533631,-16.313403182193966,-0.20041545683638398,14.371439053209501
86.34270480601896,-15.46389621467145,-0.23546785068370776,14.626014558669606
86.27330871878797,-15.120844019341181,-0.2413910297711198,14.35265948646325
84.94654339697252,-14.414318503019416,-0.20299818382378843,14.57747585823879
84.15460260889165,-15.68827791036044,-0.11728413863915134,13.436371289450456
86.82920899156511,-16.400144880607566,-0.22677902495914234,13.351550470975262
83.66700411870885,-15.482693682477557,-0.12163746138895226,14.03037230706761
83.66700411870885,-15.482693682477557,-0.12163746138895226,14.03037230706761
84.06042563146735,-13.902296340960302,-0.14878752113178395,13.291825526956398
79.733179613107,-14.341374703795692,0.00713561458197377,14.64911384168843
80.29178773763044,-14.569925798000037,0.02628307030167981,13.485364748903134
80.91059258839232,-14.497808755857145,0.04040511524374617,14.466533590162937
81.0816941262051,-14.398774904810306,-0.008568157450488827,13.728250753654219
81.03421570977436,-14.49596385485434,-0.00571943475286444,13.493550805231719
81.03421570977436,-14.49596385485434,-0.00571943475286444,13.493550805231719
80.03876361021726,-13.240165029670392,-0.01029008801724416,14.565278600823538
79.1648216316315,-12.883498724986703,-0.005330895393534999,14.118188057343161
79.0066826482374,-14.37373024396061,0.0488923412574108,13.400429007434461
79.47466596778071,-12.28090634469947,-0.0012116580140003642,15.112736551106865
79.47696213740689,-12.295929426708984,-0.018889440761289813,14.993761109435171
80.25979509886682,-11.965942007346646,-0.05363338803072103,14.991976693132894
79.98338057718696,-12.366987551414857,-0.06430173864532458,14.98419698876391
79.9850643000112,-11.871577831268226,-0.04158876649324768,14.330424701590381
80.05489260518448,-11.526839573999455,-0.025996056037969822,14.11761319591373
79.82061725443396,-12.062885320579255,-0.06243549509597136,14.787668330214228
80.07357601559883,-12.00105958833915,-0.07789548215824714,13.972034385116286
83.3989132745582,-13.962273940450368,-0.10004921255571403,15.189988798770125
83.22722961237953,-14.774696397765553,-0.07796140782957188,14.799911655778704
83.09337518385288,-15.074565707694683,-0.10488835711376604,14.815130314264659
83.13988565419862,-14.55793996607146,-0.07412733574808793,13.44376388469752
85.1686161757938,-14.414793979077205,-0.19229291557965303,14.368263955924197
85.48979836028714,-16.08209286911944,-0.14998388554481557,14.170294608767646
85.48979836028714,-16.08209286911944,-0.14998388554481557,14.170294608767646
83.77741602385434,-13.870896458666941,-0.18049604749404852,13.910636972226113
85.32213921555599,-16.483433308720663,-0.22662024429907027,14.361874146697957
85.30483116384991,-15.732844241895197,-0.23734749955305084,14.486860402397367
85.59519474966321,-14.831444527689456,-0.1887757569836056,13.430107231220516
86.46182432877139,-15.201334916425228,-0.2286245908588792,15.268613739762351
86.46182432877139,-15.201334916425228,-0.2286245908588792,15.268613739762351
86.08093957666567,-14.664621895116587,-0.24047983915170668,15.296794233440034
85.15498340675545,-14.073999099910814,-0.1848697928369725,13.340507688063935
83.94032636402753,-15.585711284878581,-0.15041956546578142,15.007677293387077
