Intercept__0,predicted__0,setsize__0,p_choose_best_sd
84.10925160885381,-11.471666785923082,-0.14416490198604687,14.084432215357507
83.31040376883146,-10.14924475884835,-0.14550050806725018,13.653441976865093
83.31040376883146,-10.14924475884835,-0.14550050806725018,13.653441976865093
83.76146807682423,-11.111466861309726,-0.1135779172697031,14.311121392599341
83.11835570256743,-11.263256187400161,-0.13907430049794442,14.259157594355635
83.17759329846024,-14.039325051408174,-0.12035831762551133,14.76253553967704
77.85983830482421,-10.92153947079744,0.009539301635253725,14.157976325822736
79.68191615071969,-9.873907330124418,0.018175141271283272,14.41429964030706
78.73649797230283,-11.525324986587863,-0.01935268119456623,14.231489580737342
80.24179471294735,-10.920495118652061,0.040968418062590814,12.715183158111508
79.80047334792044,-11.83546903316266,0.018797774145822104,13.924270809880626
80.46544336344861,-14.585289518423375,0.026689880307932054,13.455310582828092
80.43405371654255,-11.846755654202314,-0.04761679129511087,14.543953636416562
80.22675867179844,-10.85009226274859,-0.022609896590785196,14.626440452538354
81.957084039262,-13.757708719863722,-0.021853786097388143,14.39854387518669
83.19018579490235,-12.352460400423297,-0.12837916461166404,13.315837432140432
83.63203020849895,-12.69870363581916,-0.10487314408097226,14.338185842293067
83.54732866440592,-12.472730727948308,-0.09335906714943476,14.174373678246697
81.33005578496173,-11.800756052117364,-0.05547502343315321,13.196334826333608
82.6793081534167,-11.538812620224395,-0.07941266148278589,14.139068095701312
81.58291765856683,-12.432824227109418,-0.08295129006798768,13.895242187251753
81.38803585330758,-12.178325502403222,-0.10850894374215572,13.901112962104456
82.75879275057424,-9.822267624619355,-0.13023207659603128,14.279249445676719
80.24756936284156,-11.29641039930811,-0.006251783016988574,13.959165274765258
80.74303578011127,-10.891019890596317,-0.07270799868616462,14.363549202984952
80.72937635002523,-8.68736635608316,-0.08625197860137523,13.35742144146248
80.61654941534641,-9.556939994897741,-0.06694312120501056,13.958020286763519
80.57831301448986,-14.449973076386085,0.04253056737937348,13.993263701340105
81.53139530609042,-11.905176920205717,-0.06551862960615387,13.511717051720218
82.36094796666038,-14.145528333216394,-0.04201986185403982,13.914819678894107
82.6712989096311,-13.812677875310568,-0.0267121053346805,14.336518176138911
81.21738036908192,-12.040627459083707,-0.11051321787999552,13.407299159744927
80.73517531062915,-13.572210179471027,-0.042805051524792886,13.743675443375839
82.00199698907103,-12.657756891414381,-0.017426685020667958,14.185831990940558
82.30820459364206,-11.052636387792985,-0.09837505760448964,13.60272566765533
82.80136046473588,-12.13393838040189,-0.11591887510726834,13.686628279327659
83.34006006103458,-12.679543016350792,-0.10524256224595381,13.875305914871571
81.32557869023935,-12.39901230407497,-0.032433045747013806,14.068315214471815
83.37901803434885,-11.476107444418737,-0.1713968102186494,13.232763983524075
83.13979040258867,-10.909205262733442,-0.14007847861978803,13.929791242846475
82.94600749566567,-11.279329323991504,-0.110433852705147,13.706198324554766
82.6901128866593,-11.931523518061912,-0.12340038333265967,13.317486918427432
81.9841187530711,-12.31214797931327,-0.06334499204887384,13.989103066979409
83.0875954085391,-11.735952030533735,-0.13150941464399885,13.575532394741433
82.65665181581804,-11.202960183829065,-0.1378393497192741,13.92910030124866
83.1395984770885,-12.201908423145523,-0.09988960045043249,13.391566735478879
83.67038745348482,-12.482374410115964,-0.07640770013797693,13.89356471909936
83.15086980291532,-12.742494046401049,-0.09885619607992321,12.424191443513568
82.66332391753666,-15.116261548791767,-0.04268702837374695,14.65331064366777
81.83843066382352,-12.412616327960496,-0.06867696197758412,12.673530190879815
82.05978122263923,-11.082693739310798,-0.11341715556284933,14.218193603986785
84.25838499793228,-15.431539709452487,-0.08492486680624271,13.48687329940408
83.40951488660843,-12.776737536286543,-0.10594567311449271,14.409521176481551
82.2802410308056,-11.828076684321502,-0.11975253289659193,14.232423944236418
81.9146209967374,-10.740422571358586,-0.15740109241385988,13.577912203667013
82.30976822810688,-9.766794514246426,-0.1051700943300802,14.092796236523935
82.72057031750649,-13.392212863502387,-0.1387229579343641,13.766222819294786
81.64679209092562,-11.689791215091786,-0.07102694162417804,14.054545841091548
77.3853065137883,-10.698338062552974,0.08162701692330493,14.7021243936197
78.94572181971711,-13.852720262268102,0.08741758922057358,14.565319866432885
80.18285069156263,-13.976202552503326,0.054734074483054285,13.619341832046453
82.6542810253148,-11.43531804498835,-0.10658177634719247,13.137419368624078
82.31488386320949,-12.809394648667311,-0.04848605936299053,14.158779489674853
81.88815832535121,-13.049062809422956,-0.026583149613853187,13.803970611702425
81.28147438285444,-14.008046347719494,-0.06625848428415539,13.720893092712389
81.24720277082997,-13.824970718515555,-0.06534614475933269,13.890124093936294
82.08864458189935,-10.544735363922909,-0.04752372606014152,13.347586609145443
81.77510574492614,-11.461684619213983,-0.05672357133757924,14.151869356607767
80.98547405895413,-12.433940878558913,-0.05186453790910703,13.20650380199831
80.35521654326331,-11.690229031834912,0.024392292084128627,14.690476011286817
80.0907800557945,-11.25907843784784,0.022072367802892782,14.714761184456075
79.5036490634845,-11.395320375721463,0.027913598818736313,14.700373789150712
80.33549224299469,-10.42035264326786,-0.04171560113624445,12.949715019488748
79.66980702303043,-13.237632623229986,0.0707617952536175,14.558898994685181
79.74618353782793,-13.231040347380059,0.02967038953050509,13.29642283415246
80.42307283457147,-12.184339201121652,0.02340846036235371,13.95460724071832
79.12186022320996,-11.753823138097145,-0.006048133496369299,14.375275038438057
80.04449785347798,-12.185307655877006,-0.041654419715556786,13.900824504985339
82.19908786642837,-14.290252138964508,-0.05357747630962728,13.91358325230916
82.43954847112802,-12.047576917239933,-0.08815270801913565,13.918567757905121
82.86825317983121,-12.41329915665091,-0.053527665013041056,13.870591260327894
83.18503880811042,-12.899062839595622,-0.07990910427124615,13.421106841619316
83.18503880811042,-12.899062839595622,-0.07990910427124615,13.421106841619316
83.18503880811042,-12.899062839595622,-0.07990910427124615,13.421106841619316
79.93745657491868,-10.245990638839261,-0.045641690929734316,13.284999346741278
82.93877730618642,-12.016034146095041,-0.09954285113195536,14.136284366732331
81.73700662443908,-11.329253380975535,-0.11267588743330012,13.565622248522958
81.96125179352076,-9.568974654962343,-0.10338531010830779,13.994275455688584
84.1981200538366,-15.18596994683767,-0.09775885707351285,13.618525219373415
83.8620508518084,-9.965761479493734,-0.2545108887130814,14.007295200232772
84.21717888342539,-9.434444157359778,-0.22810171796646259,13.463051754582828
85.58096170082547,-11.859800233058198,-0.17061134555082158,14.229007561310937
85.11329358361195,-13.350134492274456,-0.24004480411841184,13.997371729076335
86.31036512843461,-12.98891874189395,-0.14229786749008852,14.104637930826133
85.00588958916154,-14.64139285867866,-0.12406130785493993,14.08972191247857
83.64347620545848,-13.059648892817718,-0.15098132119839128,14.147901288192337
84.25639176460064,-13.613351111468049,-0.10199895187368449,14.001535013382426
86.15213124934023,-15.10408583801002,-0.16823770605758018,13.548412497381241
86.15213124934023,-15.10408583801002,-0.16823770605758018,13.548412497381241
85.60442200553379,-14.465637027712145,-0.1820003257469331,14.081760787898443
84.03388527723664,-13.299585991315816,-0.21732947677261394,13.458102775650879
84.88760060267528,-12.330897972384394,-0.09934466766668007,13.896486991636138
80.64574335103376,-10.890610508957787,-0.015898104457866675,13.859077673193877
79.70588162832317,-10.575154325474148,-0.04016288239558098,13.428530835144944
80.13434172826668,-11.258160452744896,-0.021012892859699435,14.236239253906483
83.28225589253225,-12.248064976907767,-0.12510368561736823,14.079421950180574
83.59482858820256,-15.54901149072091,-0.06477302739250326,13.052224075008208
82.52129929850403,-14.62259466346631,-0.057729817551712866,14.567351214908882
82.90223582529407,-13.462518801061849,-0.04925951279582228,14.184376579533277
83.22067241812914,-12.253959611248906,-0.11459461776117354,13.939527401789915
83.12410124808841,-13.064505253520133,-0.12257659732335538,14.286974996086188
84.01423125028673,-14.243626218845598,-0.06914453736333366,14.970512420488342
83.65775895741729,-14.857707333590355,-0.0919230250521451,14.64572470598774
84.73080477619932,-14.27503085803021,-0.11927342260093934,13.381692601664692
83.9232287968611,-14.284762399141425,-0.1493129262454105,13.50611113756714
84.43474798181663,-12.368513885895657,-0.13497172898577484,13.788039236833479
81.98598546642532,-12.993711628223583,-0.007731824129212396,14.7093836497743
82.76912302515161,-13.480936746710645,-0.0861899568389208,14.02941568329537
83.37634942608558,-13.391374278865968,-0.09390826639508851,13.615491589009604
84.77720289205635,-12.524798575080718,-0.16017408555839502,13.963638080695624
85.59747920005564,-13.396981494190543,-0.1763184533814212,13.551043255319913
85.59747920005564,-13.396981494190543,-0.1763184533814212,13.551043255319913
85.59747920005564,-13.396981494190543,-0.1763184533814212,13.551043255319913
84.76681503234317,-10.950824459470782,-0.23200780624668405,14.402265456798297
85.11812766243841,-12.504744682471216,-0.20182900894483777,13.041101976588713
82.27052044884385,-13.627675465733073,-0.05064771908332967,13.699090866919855
79.4190324337213,-12.58650682104282,0.04657709422738491,13.634197012493638
77.58010710237457,-8.853904339833722,0.021044685415689126,13.859192906150446
79.0834699492268,-11.289184155739457,0.036161262465031374,14.469372718827405
80.48534534854453,-10.0529127368033,-0.027404625843953062,14.14305613021031
80.23594918725416,-9.996100694800935,-0.0179699234871801,14.291398143315268
80.17209814520292,-12.937189313425554,0.0052532543040608275,13.591332682371075
80.0000600597147,-12.50856942768328,-0.0013091136524922484,13.921016722073757
80.29211416234168,-10.784766976765397,-0.039468680582227696,14.238214475810691
80.69434232256671,-14.13401612847,0.03446067291707423,14.303605271840576
80.28899972132066,-10.405227559482405,-0.08906966258107096,14.33575481976139
83.57018198833127,-14.565265056846787,-0.03392188111366732,14.478765809105893
82.88070280523381,-12.101608925283244,-0.1380559255233146,14.246007028338461
83.0939604864916,-11.688191408439144,-0.12335481074976536,13.319933912373338
82.75030709292096,-12.352846944527418,-0.10979162519476021,13.978935928683832
82.57954169935365,-12.374450943556443,-0.08616186543268267,13.988918236374396
82.63702723747649,-13.308583523088961,-0.0746967447521256,13.971094229131593
81.39675909179535,-14.484999046220043,-0.04564784449449205,13.441419987569978
81.39675909179535,-14.484999046220043,-0.04564784449449205,13.441419987569978
81.40530166174148,-11.92485423705186,-0.03637119342025193,13.99020786064225
81.37987756425686,-12.985226387253844,-0.04678229152954265,13.54025820067093
83.1604552315128,-14.014791595484844,-0.06988313618011391,14.133944569482587
81.64732170240752,-12.650206414405783,-0.07987365975779671,13.205961481480395
79.98427310710183,-11.468004990561079,0.03736555526086384,13.352294316907539
79.52869859866846,-11.526589388894138,0.04013484519886674,14.196693998167426
79.44902972839135,-12.93857491890395,0.05183475783703306,13.810638706304498
82.3751817430177,-12.170884593106198,-0.12235764810622216,14.048773215363678
82.81069671500582,-12.450928791876624,-0.06065872686436241,14.085137603647004
83.8833156527075,-12.73689341055012,-0.16193627209767655,14.083501810190548
84.8126544760619,-14.117636448753437,-0.10313740918435334,14.857944674473911
83.56928524224767,-14.317924019401246,-0.10848465567333614,14.317962936893517
81.4721205950752,-11.155098306916132,-0.07293581367520814,14.77895108004867
80.9349067105086,-12.099371477836572,-0.06211932775736176,12.494692912557968
83.19822691218337,-12.644171199353185,-0.09178870073520516,13.803955397154231
82.94096675925014,-13.519865085871501,-0.11101360739291316,13.906527135880102
82.88107371332688,-12.372329959286228,-0.11648640596583054,14.013823099800058
82.88107371332688,-12.372329959286228,-0.11648640596583054,14.013823099800058
82.26802027997648,-13.758056071917949,-0.008167899611606456,13.881614395481668
80.6799544035041,-13.364240740591342,-0.0054533928005306796,13.520021835836202
80.6799544035041,-13.364240740591342,-0.0054533928005306796,13.520021835836202
80.98881626188808,-13.38884831092465,0.014863312079228473,13.67901964525182
80.56225720247173,-12.786105549392584,-0.06405308721286512,14.30547074314212
81.74881643613153,-13.12502267671732,-0.05821914798449182,14.228893666843474
81.59009224917389,-12.706202652466299,-0.004664506965779074,14.843439499724658
85.51480728434198,-14.697997119110205,-0.19978486434600712,13.151248961758526
85.01428360980188,-15.012178757630991,-0.13042110540764223,13.209187026346362
85.01428360980188,-15.012178757630991,-0.13042110540764223,13.209187026346362
82.0119223148234,-12.19320332679362,-0.049159567886044794,14.460461649792217
81.39240671111318,-14.725815286010878,0.02722245565775129,14.05350268155365
80.44267170611054,-11.797239545253962,0.0014534365553533907,14.599591228908377
81.39846986845488,-13.670008560970233,-0.042023151388436486,13.598507702530414
80.98379139321213,-12.652330966592313,-0.022621059334762134,13.842312521590907
81.29352727116483,-10.71702697768247,-0.10935348492059342,13.333495346152622
81.16356372184958,-12.025105189399287,-0.009358001540163544,13.854068447890835
81.353145143459,-14.719412405725043,0.009922426716294539,14.06113890431073
81.65870713514063,-15.40036764638615,0.004160443773220479,13.72109021273941
78.20955643792098,-12.563624055970344,0.05925559494424913,14.752409290993873
83.31036281458323,-12.327168924653778,-0.12218437929839662,14.116669353962363
81.79040534927377,-13.161948305913244,-0.06978307669077413,14.26304758048132
82.64687204797777,-11.20590814431563,-0.11269083218991999,13.316710284559262
82.73600160279499,-11.497402789050925,-0.1409769779154252,14.224909853980343
82.51162287928219,-12.159166572835735,-0.12040183796089243,13.73573027813026
81.76526833482451,-13.032068707437103,-0.03422702167384621,14.193518967993752
80.21188481652153,-11.66271464775883,-0.0211838620045032,14.829946917964488
81.04054617447048,-13.666869193936709,-0.04770687056087844,14.744977206367016
81.11110099780952,-12.127244225410442,-0.00621838552652899,13.163369990152448
80.9370182737179,-13.43241329548206,-0.034071612223710676,13.932725760162924
82.20657773387931,-12.842407280191738,-0.05158431104237908,13.485853152066902
81.17926693336472,-10.66167967134337,-0.09683268191104344,13.70180507545397
80.04552926745544,-13.845225843389269,0.043494378290238334,13.594024042790402
80.04552926745544,-13.845225843389269,0.043494378290238334,13.594024042790402
82.26644202433506,-12.036469306904603,-0.0759669890640227,13.236725421716178
81.8276339938189,-12.335027799227056,-0.08681041997726154,13.88249103271458
82.47249430362919,-13.06602358176685,-0.043810531851914,13.233469374810293
81.72321803742602,-15.243728133577024,-0.0012901872235777916,13.99058946689268
80.43117158811269,-13.338697169084957,0.011406207396685889,13.444324351061075
84.07600726779683,-12.228266536503504,-0.16475849261519587,13.972844604368948
84.55509099174279,-12.103037045820436,-0.1950597442167464,13.149342392498067
84.67948370588867,-11.239243144588484,-0.1797623796482724,12.972178001898735
83.75117022869853,-12.291526136222801,-0.16054477175102072,14.236924247869016
82.85857499139009,-13.06563470693869,-0.07116038335130764,13.274428297308265
82.85857499139009,-13.06563470693869,-0.07116038335130764,13.274428297308265
81.39437070910417,-13.623498112519304,-0.07623249014558865,14.443833863277856
82.7616012618692,-12.13430951330456,-0.0881880257080661,13.71167512957479
83.53399022776891,-13.074120980523686,-0.15350723897217727,13.847955892293864
83.29441174135988,-11.817064597157714,-0.13224098752912902,13.770866877071454
81.49189598059962,-12.941604848186328,-0.05191287971263826,13.437357752809044
78.81078137481427,-10.495008155324768,0.00981297121173378,13.718631951899729
78.82692223346379,-10.430726504946094,0.029056462638585565,13.526446882245219
80.71566896596242,-13.250691104837621,0.016916413176677726,13.502276837151355
80.64747626940004,-13.220106145140067,0.022965355418178256,13.659270450044485
80.48870827281606,-14.42812127515352,0.06780931439359152,14.265667347892085
80.50341466641574,-11.626563975670106,-0.0038790493733320656,13.020252766808818
80.29761522109297,-13.493661426361372,0.004228668135733192,14.10438840123049
78.94153122323361,-10.433701980681137,0.020495014527706537,14.090723366186118
80.85203249811977,-12.290743925918022,-0.02938178138290024,14.502608398420914
81.63306982780796,-13.983952186485961,-0.021662137608864398,13.786182391126383
83.09385666009102,-11.842202151589339,-0.18080462983871445,13.839970363037493
79.99246660256611,-13.265263400606448,0.05299163429219149,13.947317608715142
80.91777979578053,-11.870831473503452,0.005496657453914281,13.987437943466523
83.12182567087272,-14.716930671896753,-0.0323164405383238,13.530478887391132
83.09938754410592,-13.41485867257972,-0.07884324461133442,14.137251628169658
84.85360379082854,-12.25845140972085,-0.16680568626433404,13.810862720877603
85.29648777719771,-15.126177458805024,-0.1324114400871246,13.782856947863932
85.76700610965709,-15.431288339742354,-0.13727847991184777,14.199576069618555
84.51708634196281,-16.30095856552769,-0.13035730181113006,13.3766438394553
86.20870654251138,-14.000065613660322,-0.13287355213370225,14.5276893975208
85.33362388369704,-15.513270922189076,-0.1993812156375214,14.251229906197246
86.99825652994164,-15.263925151968959,-0.16425097243115355,13.981603549538756
82.99842265901852,-11.645318296779744,-0.18361314627445835,14.202160690241522
83.15214677640417,-10.970372607753982,-0.1623882325514889,13.92453478137039
83.3952327330552,-11.725033598576244,-0.15466990483268095,13.256356370954798
83.3952327330552,-11.725033598576244,-0.15466990483268095,13.256356370954798
82.13613501001564,-11.54394781796349,-0.14481562403613765,14.51677682278278
82.60232463362392,-11.311647939966317,-0.15721746726471375,13.571521210904189
81.49873071616676,-12.307308134902094,-0.08647925287669261,13.873965173622821
83.54956097152348,-9.195856888568956,-0.18855621425292585,13.622723663722317
83.35731028584974,-9.617934836575461,-0.1818507176829988,13.71090102642791
81.05853602390228,-14.843127362520177,0.022474768376373168,14.039249898028602
81.22572049633938,-9.586073693308409,-0.09460578690496747,14.000006369164726
82.64658944085629,-12.601431847099875,-0.09751297446714878,13.186343054727269
80.44365075477077,-10.048721580349879,-0.0357243086944166,13.919899038415027
80.27001509543493,-11.290474945289821,-0.06663963837889043,13.62076246257745
83.27622309464837,-12.894719591921271,-0.07091165483458423,14.097897094599904
82.25040621499735,-14.606097763788657,-0.04298375351455253,13.851943089506861
80.48062630289914,-12.460368920210113,-0.02733216609973038,13.31228745111459
81.48527342352922,-11.611964531940597,-0.0555067012119696,14.547882136830419
81.34032551533174,-12.303204523633788,-0.04673760491928493,14.551301199127957
81.91411524826235,-12.38376447362638,-0.053465392905275785,14.76642746375253
81.54812705802883,-12.26817886304341,-0.08472202821014577,15.0475393989967
81.54812705802883,-12.26817886304341,-0.08472202821014577,15.0475393989967
78.57947896515903,-11.111686048111412,0.07611661243973512,14.098299954094806
78.38999645233731,-11.852297097487384,0.06794489599286706,13.727135218707776
79.44727474372263,-14.304970392251034,0.05744314177031629,13.898346502466485
80.22455862692716,-13.983630906197115,0.05174997670360267,14.024616061856792
78.70455360577112,-9.879126355274497,0.030848218233923017,14.225447510899231
79.18009029887406,-8.934455102897056,0.046842969775226354,14.24107819196914
79.20785029458646,-9.90848390922341,0.03546176657611027,14.185705387236547
81.72501252509765,-10.047398660105854,-0.09167968655405205,13.841884115281877
81.13215846801175,-11.06226399035957,-0.09905800723044778,13.883147407438507
82.01779473336106,-13.394919415648742,-0.05819062134833139,14.195956385096164
83.04163415098816,-13.360498973523796,-0.09704981747066424,13.188192993874996
83.08751557502227,-13.048334344525152,-0.10758080742302675,14.133823540515827
82.4323808410983,-12.731020443848509,-0.06984744003911006,13.185054240515264
82.23031164234003,-13.750049664782553,-0.05237683517188539,14.017160979283329
84.80583270463569,-13.197022674680438,-0.19595980363153337,13.466410402639806
85.13389791993035,-13.039265228081476,-0.15882811263794785,13.989066889545615
84.41285475511461,-11.46255236331266,-0.18118818969786335,14.39742013877572
85.69897622066875,-14.646216165158933,-0.173772593660321,14.516883424079403
81.81015182212249,-12.095736211938824,-0.06903307943772319,14.681948314984448
79.50307245106363,-11.534680668228892,0.016822704475785016,14.708403357097525
79.34555951728281,-12.33025657541634,0.03926765112497767,14.076376709710773
81.40453719291294,-12.183997287228381,-0.059932927110987244,13.650016391401165
81.53862731714362,-10.833462660304631,-0.055803762795298764,13.801894419244677
85.29326774472712,-14.678150851300034,-0.12861797275128592,14.229611663263627
84.75517958562024,-14.978791518874308,-0.15047897777846256,13.791590400779079
80.37390046540595,-10.76838343174428,-0.0698753388575556,13.748883611636101
80.47899190006426,-9.522202927456572,-0.03345086223890161,13.740407377439192
83.37167880759871,-12.92982565504841,-0.12205820268620113,13.549912031908143
83.33422437759626,-12.925444979799591,-0.11199183877431276,14.348335660824151
80.23363385347108,-11.593341379087422,0.013355653968384125,13.369345256520953
80.1448445099648,-12.843304762761926,0.02610125220217205,14.007128241198924
78.79644224085125,-11.403872033151917,0.05098257418410424,13.526291437228137
78.33590471683318,-10.342019588158571,0.01801790196556978,14.255403827263443
81.22503589132188,-13.456801145710942,0.027091342584021808,14.288762940861163
81.53412966118549,-12.45956652754357,-0.06958718150967708,13.954579248759035
82.63205539925018,-12.163178490105324,-0.05118729868206106,14.470457827092476
81.93714851808309,-12.394334728315469,-0.09282409481367374,14.312241673411668
83.63081026459065,-13.156302011646218,-0.13939616118597903,13.897235701052333
83.4728896027209,-13.47851170654438,-0.11651844235037608,13.930216009949952
80.39568413204194,-14.075905811881434,0.0006433014259221072,13.582047058840615
79.51886850851177,-9.627715045139288,-0.054297784485278375,14.849848342394605
81.02281160726947,-11.49351473923922,-0.05057721264742868,12.66889788591186
80.91908095266336,-10.938401566438355,-0.04124040698565955,13.595093627265753
81.07749660161954,-10.901320137387549,-0.03156245073450567,13.34886480229901
81.0421889238729,-12.696737727351167,-0.03631412048611401,14.334167484616362
82.81303359021302,-12.141784981902923,-0.09219065600187104,14.368012912758589
83.4628504210443,-12.493954527936527,-0.13282150460200898,14.057328611140923
82.31053475847267,-13.314766159812935,-0.05579397438210103,13.091451241439996
83.77565529662051,-11.71446456195038,-0.1710769338908911,14.285953364062198
84.76040413808997,-13.837443710869683,-0.16942200865458865,13.913632782331359
84.64348919253929,-12.703578798166854,-0.18396894518504442,13.427290055721649
86.7469059455819,-12.804809245523774,-0.28353180472803347,13.750077172194333
86.19671793245382,-13.283943838603195,-0.27267455022254466,14.020429725152582
82.45374869848781,-11.938746542455105,-0.06860048787877661,14.051934138264516
82.36471052476743,-14.832931351361742,-0.03885558186389769,14.294540322618959
81.04456245651348,-10.895316176757646,-0.022629892452629453,13.579151849982715
81.36236735979031,-12.400040969741434,-0.10735840039832606,13.67803290131261
80.97142370848765,-12.11758577715617,-0.09528040668918634,14.065942004376518
81.50802321012432,-11.949095839950784,-0.0644741912596513,13.39340607852
80.89703802283015,-11.340444314075183,-0.08560996553795729,12.965241469338213
81.67630959603986,-12.040543002404904,-0.07847735566793658,14.324637373133887
82.26572363913444,-10.614543884031763,-0.11641013187692933,14.746331510938443
81.83190707954643,-11.543105185354733,-0.11880724691691602,13.466191991557599
81.83145734554637,-11.143928493355876,-0.06257367137117738,13.909276549228835
84.79006765573084,-15.651093757192342,-0.1463681036243099,13.511996806730165
85.38200517835445,-14.909216324634654,-0.13283150378452846,13.505759521199986
85.12152340890856,-13.41146097580187,-0.15340726626912735,13.550096014305579
81.0868053660922,-11.322905698232736,-0.034603146642520136,13.585894424661454
81.0868053660922,-11.322905698232736,-0.034603146642520136,13.585894424661454
80.50809163261675,-13.027981863899921,-0.06867307062666883,13.61285758096264
80.50809163261675,-13.027981863899921,-0.06867307062666883,13.61285758096264
82.05532133125597,-12.37529042301058,-0.008867966434936418,13.973619449876692
80.74791508467312,-15.26409112420225,-0.01689314796490431,13.43121816240937
81.42407886105353,-14.785545496256262,0.007586628066130786,13.417709129743876
82.26009651437793,-12.786045021857191,-0.044878675799689516,14.32875493306458
81.43318735899777,-13.0988113990899,-0.009716894405682297,13.038171697611869
81.43318735899777,-13.0988113990899,-0.009716894405682297,13.038171697611869
82.88189303693588,-13.324755279270411,-0.07580291584688661,14.43296314997612
83.97240028418697,-13.626105873285269,-0.11441911338834199,14.98371004120771
83.09600688259422,-10.787564067587162,-0.15302114917451043,14.68094887849134
82.66406949269461,-10.861451737246721,-0.17385650063629132,14.893736620030863
81.85942980610822,-13.755192150327986,-0.07093921600005076,14.8558701867104
84.89284032672825,-14.462138278774928,-0.10712506942656828,14.713538341015704
84.86821152101592,-16.150974131016262,-0.13184131304495778,12.475434561104416
80.26611403338846,-11.382919655917215,-0.01346041256402189,12.950372100679704
80.52999624016667,-12.413484230366254,-0.01713185454137431,14.188471749631285
80.28805372123387,-13.222265266943037,-0.005078146718966893,14.160322123520908
77.3873301734171,-9.290431209314516,0.06489103946288574,13.52665987280365
77.3873301734171,-9.290431209314516,0.06489103946288574,13.52665987280365
77.96537911027278,-9.034029837149243,0.08716333466702658,13.003889795414967
78.27423153707336,-9.707036871162902,0.07696401540360717,13.198238297456598
82.00209113925422,-14.00455868147471,-0.0960068545154368,13.070231438356862
79.03916632451114,-11.071640473816212,-0.0027849514460315875,14.19255555036359
79.79255640049178,-11.647847715864007,0.014457277492299693,13.607098998682106
84.95039635627238,-13.560761953922515,-0.18408654097130764,13.428676488376235
84.47558272364907,-12.877586098794922,-0.13344876036753422,13.95449743124867
83.11057021426063,-12.205540577286751,-0.10265314683327531,13.91319300128526
82.29753292359023,-12.608815078832048,-0.11002798915872311,13.24157615571398
82.00439020252284,-11.910217028766732,-0.042542073427899785,14.246560201074244
80.2853150707121,-11.262398014228351,-0.029473921128584164,14.71865207288657
81.30972679259523,-11.743834876467227,-0.04222001266714986,14.49850630253788
80.29953059983016,-10.457452610651584,-0.08947069892341285,13.751322640829256
80.37189935883619,-10.487049954325862,-0.08378196338360572,13.539122374118811
83.02790050536376,-14.508673564168456,-0.04585256053693595,13.676559376706045
82.71143817194954,-14.771556456510075,-0.020180905891715534,14.309523790312548
84.93493377215728,-12.236670814892298,-0.1684890658358648,13.238950630531965
82.00298241187947,-12.617531183499382,-0.12455873526238335,14.124002542270242
83.42984747427846,-12.074137253970484,-0.06907726986589452,14.064305453732901
83.14432943707283,-13.019057109981414,-0.11772949929885658,13.794893256389125
83.06688525172686,-13.131679437636581,-0.12996490892654297,13.671499791065497
82.77466514643686,-12.890923802162458,-0.057247366261393165,13.64183566419495
81.50890095289286,-13.080029239175998,-0.06895205157484588,14.31299208595903
82.84417074517735,-12.785961455465069,-0.07176091687194364,13.7810854624801
79.01294010266885,-12.01812825163187,0.05009004658388741,13.889488711117984
80.54747880591849,-11.414465174543599,-0.04312941153148616,13.864978102026171
81.3557734130224,-12.453977164912112,-0.05954621030980299,13.742970868702683
82.33705419326554,-11.571837078413173,-0.07984309646365967,13.97204012791556
79.31968806362158,-10.191435174012858,-0.016443642656853004,13.553021399422642
78.1951844499711,-11.728147752257062,0.08187400306598079,13.784207676314306
78.66748419904548,-10.87432147481887,0.024611338144168275,14.242679189710714
78.94184832713091,-11.541739565316238,0.014501571498858997,14.242800770535663
81.6487389958917,-12.960376068272732,-0.05325562137776947,14.305537462416567
82.681555695782,-12.735076788584767,-0.07830616973993279,14.293779991274853
82.98730805598052,-13.051287710393044,-0.10967373321424052,13.809693281274882
80.00267769775951,-11.864124394859495,-0.0007050900104807497,13.882629716266246
80.4346973062044,-12.006073049918223,-0.039113855374851896,13.468217386907495
80.97184004308406,-11.734626526977918,-0.07112449131972956,14.00357275801883
80.62218217406298,-11.667549574692854,0.03214438911016109,14.135978353796123
77.75898901079908,-12.268188960255587,0.08407153603808751,14.208958322396466
81.42650152203733,-9.859529654978193,-0.032511816622892716,15.002051523809746
81.01559930773331,-11.519555205619726,-0.1331422181968115,14.877766553125655
80.88353108080021,-14.19547740755071,-0.013734934859712661,14.105891830885334
80.75019396737272,-11.623036820971762,-0.05230739874732712,13.33952033419697
81.0637976510615,-10.920173264033535,-0.04462508362395882,13.893267134665553
81.14046017725245,-13.150673695052342,-0.05403905541038425,13.616445009519023
85.07902057091744,-12.332161371514179,-0.17200781346949376,13.609626689347484
84.58652346042189,-12.24033319830602,-0.1879671006132391,13.84067455596931
83.15266454534819,-11.964779912122882,-0.15369967348373303,13.67285021450213
82.47833994201193,-12.965190256115084,-0.09142359540959945,13.915399986802038
83.63368806146231,-15.117648586805563,-0.08417602942859376,13.846937689685953
82.87869197430987,-13.451932304199685,-0.06083004620209519,13.36599618901325
82.38712157415708,-14.83201471170502,-0.04269195810057012,14.010191393723398
82.9846068527784,-13.302478644544525,-0.08137246463795189,13.376205222103424
84.11273676902626,-12.166963732602134,-0.17078931615767248,14.29735133074663
83.3401424051666,-10.236572495972485,-0.1692973898597659,14.503038335509979
84.58728028042515,-12.723711926365429,-0.1794170268372532,15.01402016977435
84.16116678279563,-14.680898815087708,-0.04521969368954709,13.718774559251774
82.43184348475452,-15.633279067054934,-0.10423015918065315,14.24092971557053
84.40512521915579,-12.622223418506511,-0.09332153349082857,13.27080226277366
83.06671064379037,-12.635456051716677,-0.13989347779589892,12.85757392421291
83.9635241669305,-12.771494006962826,-0.0690058672433469,14.773974819468878
82.31763112600596,-14.451741787241788,-0.10507926129334218,14.68016519518259
83.99647610064653,-13.391009854341753,-0.1351742518426245,13.458538019330794
83.68340385880998,-13.996676609774637,-0.10436955807291035,13.86261774823721
80.54657583766691,-11.20921315390979,-0.008065399075940394,13.228442520737824
80.8663588142111,-12.91451243454761,-0.019667674105325498,13.062356036212387
86.28384203961907,-12.647759572615522,-0.22472090692202595,13.383915847283362
87.01040858907825,-14.502062073128581,-0.2239364514486134,14.899979179485033
87.3920704109017,-15.39550293434389,-0.25229386371787244,14.92887495206057
88.0303487055921,-14.235039945119928,-0.2855496375848245,14.118025206350366
88.05557665576477,-16.00213417882512,-0.25591264717804785,13.762066857852265
88.07214754533183,-14.935149944761434,-0.2289740137350074,13.770889993321886
87.629253899131,-14.417452913967587,-0.252500789138735,13.236233866813837
84.19830685300312,-11.891921952518265,-0.18764331255048422,13.622620255393874
82.20357086297896,-13.062035474267681,-0.07284899685506803,13.483397227738635
81.22990885680692,-14.074335296915903,-0.03291028142763334,14.718222758186014
83.78464091899198,-11.987789637742303,-0.1779970849927263,14.16785691213103
81.37696798213241,-9.554887330793841,-0.15194813440337024,13.41353339334321
81.37696798213241,-9.554887330793841,-0.15194813440337024,13.41353339334321
80.03265958593475,-8.239780373952378,-0.0812133938921686,14.807002212384102
80.19551586551941,-8.726894560135827,-0.07822579298356926,14.81473484131267
81.56925827599741,-12.511394914329266,-0.04701630788527294,14.863027699622172
83.8192168241115,-13.830143374836831,-0.13665637922018353,14.227751341001621
84.65634831766845,-11.373112394338895,-0.1764687731950492,14.15520090890919
84.47967304329948,-11.441983613086473,-0.22307240207067747,14.078236661830708
85.1790246155825,-15.453269413070885,-0.15371361942470907,14.565253122614672
85.61007135972643,-14.356319743601667,-0.14502897871364775,13.524306349547084
84.45558208032377,-10.510205895500425,-0.19516300404279796,13.429140394819155
83.9303937807247,-12.075978132565906,-0.191795817277536,13.69380909586991
85.06234703984111,-14.64124948750961,-0.14099476288912324,13.987325117056221
84.60063081211707,-12.080005219002818,-0.18914223979794637,13.753937928888496
85.18291978640133,-10.52547588921004,-0.190705528109117,13.704073969831407
84.0801068685988,-11.969331462720897,-0.22300390966233147,13.654460470221206
84.42635225426336,-11.37777781862956,-0.2243054453907639,13.423789171268636
83.28190787330266,-13.171410614368673,-0.0789883928857804,13.921251125559275
80.99247201973401,-11.92184196761247,-0.020573487999064187,13.414922770345521
79.22964160880886,-12.524188125067909,0.08627960503778843,14.087851844049544
77.21380645757111,-12.724308729577949,0.12151812037523557,13.687817786408118
77.74412701244825,-12.646996080198441,0.12198939222836336,13.956871662230188
78.51104470312787,-13.366822634850301,0.07227520809217283,14.150109204347938
79.38585556705783,-12.932974687242556,0.08916231665914137,14.090942267529638
78.88893999796726,-13.628605722780808,0.052192087824387494,13.541336596032918
79.94763581887254,-12.535577374581987,0.05456696888661177,14.00318649185773
78.47673168685525,-11.200166459611388,0.022709381094309512,14.299459817736134
79.00900253313772,-12.354907251787315,0.03903122396963821,13.283054185413096
79.00900253313772,-12.354907251787315,0.03903122396963821,13.283054185413096
79.21502000263705,-10.427217299403654,-0.0043535787476186825,14.11456527736786
79.58810191038249,-10.310526526116316,-0.013421573808686952,13.67766919825532
79.58810191038249,-10.310526526116316,-0.013421573808686952,13.67766919825532
81.0885710073609,-12.543237303594262,-0.054517688794107316,14.348100114488831
80.86029380275482,-11.855420254717256,-0.044550485006187295,14.338693445230488
82.57850629181998,-11.531736607118598,-0.14243705768924664,13.384552529255595
83.09474505847024,-12.321964462420288,-0.08731338598105048,13.794154515352112
82.84879636056016,-12.022808996504772,-0.08594534419208939,13.416852597234367
82.49906004383476,-11.63025370268624,-0.11050523763211602,14.284306342933657
81.05804085767784,-11.544316225519566,-0.05912124537915151,13.01135230625495
81.15495856949791,-11.65830891172242,-0.05766734577272612,14.214179458457265
80.59141490876999,-12.209474946752305,-0.01435607192561127,13.294026817812261
84.79326405635264,-13.009409133992472,-0.20600195283250697,14.686475365665201
84.81019199409543,-12.913157324781121,-0.15808082384918726,14.829665273303988
84.86924594167645,-12.5949562022314,-0.22247578724949868,13.673004500420648
84.74540490570566,-11.836511926739268,-0.17325859840708188,13.556683408723192
83.7675382988599,-12.501485476345291,-0.20079285225356566,14.199233796369363
84.78364473440038,-12.67798764612131,-0.11510405332873656,14.223164250015122
82.25182482586798,-11.518893674214318,-0.10902272510724516,13.839867013687899
83.72049847313394,-12.186205192982472,-0.10021614308702781,13.627514554614175
83.26771523116966,-14.422066783569853,-0.1087849664381598,14.780368243113632
84.99176419926715,-16.885933837819046,-0.07597752093153312,14.622702785999516
85.19412760872018,-15.13379607159827,-0.16090148515519184,14.653972469826224
84.85955189075749,-14.134754890633829,-0.15407307986092952,12.54421364945786
85.03656735358366,-11.950355787949672,-0.2031982561925701,14.377073754765695
84.49010771196924,-13.943966712234783,-0.1155999309811692,12.852175850180123
84.10259685757045,-13.792159466349291,-0.13396629603463064,14.60945112206083
83.54097752196867,-12.323045570666038,-0.10381031468167043,14.756641026369635
82.48837384005245,-12.199850729086883,-0.09399057938372744,12.712884765360876
82.03998012920871,-11.975175745423156,-0.14177648522838546,12.74997094143761
83.1992528648114,-12.132843637618052,-0.06950937230630509,13.19735678227282
82.81942305129158,-13.550054592221425,-0.10351330398248591,13.945919800907307
82.67179092566333,-13.272763735187086,-0.09684004204284274,14.256207442494896
80.67207470320332,-10.580254621130383,-0.03666458261354665,14.394687445084319
80.97325013046397,-12.990381713456427,-0.040630560344695796,12.752623472721384
81.38372268425047,-13.954695702836602,-0.014007123249809735,14.902586210541177
81.52414805307357,-11.73105479214675,-0.0150045830470137,14.527185679776201
82.17249757470508,-13.938351986198807,-0.06253947061325944,13.561693188503549
82.17249757470508,-13.938351986198807,-0.06253947061325944,13.561693188503549
82.79800635596551,-11.495372130080344,-0.08495506607174827,13.74064302839005
82.33420754670907,-11.579588391411393,-0.155734001197054,13.25439636413552
83.02020628341158,-10.331247159959506,-0.13762035472281273,14.484372831562501
83.20790835957351,-11.183598497260713,-0.12950733558992786,14.610846885670343
83.27249625719784,-11.134824184102888,-0.12948375266450107,14.606218804363078
81.8276029407474,-10.936502553795174,-0.12212316528553548,14.074186940395798
82.23794197185897,-12.205031860667505,-0.0968567243672718,13.354432085449032
82.3089651831968,-11.384431166044452,-0.08394922101480581,14.010255954594788
81.94368524763401,-11.65464619900143,-0.09031131078702902,13.554635668573715
81.99962989971323,-11.743426221664613,-0.0790674842462972,13.835338840711183
84.01597695527127,-13.15166153555948,-0.14462713318173687,13.305714922869539
82.17979754434572,-10.285545987917317,-0.1588649034132131,14.40586046701547
82.63956726379159,-12.519182069294995,-0.10224858320143673,13.312436658770796
83.82639141382208,-15.614140326080433,-0.059251442448939685,14.48395178846615
85.73696710454196,-13.504822868826041,-0.19528311466585918,13.606693941118987
85.55171419506789,-15.522250535838939,-0.15269693859194294,13.909109252186095
87.44830455951758,-13.679863980405074,-0.2498780178105381,13.792701872045027
87.44830455951758,-13.679863980405074,-0.2498780178105381,13.792701872045027
87.20954286232373,-15.203591912676178,-0.264587263110875,14.168658900791119
81.31861600878655,-11.909452017809043,-0.10640138727000895,13.843590987686435
85.65655793613111,-14.643630853086979,-0.20543008714175143,14.125380233714711
83.19584608854478,-11.664548609205383,-0.12711594097692708,13.92498946760859
84.80326701852614,-13.63008887448298,-0.15846337178990932,13.384064273397282
81.50863978500018,-12.732100816284024,-0.0337496393909869,13.751752445269721
80.4794860007455,-11.499829588893334,-0.003229751094420561,13.677502751190339
81.37027208730376,-11.598422148486987,-0.05403561635563202,13.917351410373627
82.26411633892816,-11.181966172360202,-0.08183210247683777,13.583937064546825
83.05639146541276,-11.523853944823822,-0.15125374433946281,13.776250957805713
80.26731303743027,-14.248068232193885,0.008311455422690479,13.478940800737139
79.6865607011057,-12.104708473923175,0.0685833968863915,14.022827899308854
78.10882123344038,-12.151607662441906,0.08898528871858338,13.626833200781393
78.38994334309463,-11.531435365421721,0.0836656578644043,12.763698589027975
84.18513349947773,-12.493829703389121,-0.13804160983360753,14.156039214549354
83.0488079442949,-10.64507351696859,-0.10814348761558076,13.832384889568475
82.83065868126313,-10.57768655068365,-0.11585811823647638,13.984685386051714
80.8444819327796,-13.373907178385258,0.02752875134932687,14.362991561291107
79.4675061012563,-13.450928262174305,0.026557715274156977,13.363576568636978
85.15363440602907,-12.1526048664939,-0.2164339326727777,13.39519883776604
85.07426787141539,-12.710534637987667,-0.2135423311973512,12.96503749745171
84.10748993244461,-13.09415788526534,-0.08631164756350145,13.266180616068395
82.00456754113621,-11.405848375769272,-0.1584033113348459,14.455122520358131
82.3694205843936,-11.33349815455553,-0.13936586986242508,13.890136315239117
82.62868484700982,-10.68092813421151,-0.10880156629902182,13.550445328504512
81.92401786324871,-12.185519909862885,-0.09791677022640576,13.66708690343008
82.19127223805893,-12.451336277205916,-0.09742174120085652,14.083597119614724
83.04142834576646,-11.89620853386123,-0.12900301764651764,14.314259400071618
83.68498964854926,-13.070263874489681,-0.08903357598267288,14.111613489019204
82.00231301494047,-11.585457674690357,-0.06721431222490429,13.360568520430434
83.52274810281682,-12.56673927839806,-0.11638181574294619,14.035918658290807
83.488935054893,-14.032108825777694,-0.1037846809221917,13.610116588761676
84.24977992990365,-13.755705608708753,-0.09946255448837263,13.822136214138286
83.18495864588756,-13.151210761384526,-0.0925093272836536,14.404814950084633
82.88272333574855,-13.912189074252314,-0.11879470202163339,13.679698446722746
83.22894893025223,-14.204248778200434,-0.10891679718436954,13.783672601969664
85.44524149639176,-13.915072158964426,-0.19076650214931512,13.81171334875415
85.62376344067678,-12.680548679296463,-0.21566435078397134,13.98596822065868
86.23781208340027,-13.553879379908107,-0.2095191662062047,13.363093517975813
83.41738894467211,-13.74531108942805,-0.09626196393749384,14.08095041071788
82.71006999527971,-13.20211044266644,-0.0811874202453659,12.893020485651327
84.16968120240178,-13.570537871401212,-0.0922456840062324,14.426591978625265
83.65932459352118,-14.442629962436914,-0.12090922691802874,13.877857937610287
83.48535329613264,-11.858786101657353,-0.1742033562984168,13.82786974813828
83.29879142408049,-10.887428652611204,-0.16730435225331577,12.988515018255947
83.92658433327064,-12.970950899155204,-0.14503050406619827,14.10096145104231
82.18689025443186,-13.144365386883758,-0.07155429780865215,13.324777964363314
81.85796091825416,-12.830413073925559,-0.0719740323483706,12.804704736468173
80.80376464249375,-11.640622864138441,-0.019189233280213974,14.222678350893617
80.56833051663428,-12.919144793491144,7.248527644052212e-05,12.765588408748192
83.80037128120257,-12.189611258405264,-0.16630330093023216,14.341941300929115
84.39223545293378,-13.682772497818739,-0.1761229093798994,13.194832615789975
84.40402679256024,-14.279399690096822,-0.1297217899138232,14.127935189719595
81.50466650158897,-11.329783791883038,-0.09399406797929723,14.09219086534199
83.40266141361803,-13.561439632320909,-0.08436039235409197,14.263303341292845
85.19851742181741,-11.136584146849659,-0.23245963251754753,13.685127532411533
84.6178323555113,-13.073263751512918,-0.15906968745363373,14.11102830187462
84.41911373669193,-11.59954747117198,-0.1648569796354437,13.624388547807188
82.90741587876,-14.329546182989883,-0.06613228950594033,13.994252332564667
82.84022030655304,-13.697903367630573,-0.052752904800597196,13.451219879380659
80.1955981994652,-11.615039450875521,0.02253040593602382,13.69074208216522
83.92072497916975,-12.934242706357788,-0.1486236444735941,13.46524931914896
81.66021677546824,-12.803692022789399,-0.056806475969584075,13.523010246120736
81.92685740340201,-12.351241583603143,-0.07165553584966104,13.729665423837957
82.4246624133045,-14.451590733732662,-0.06601909482663147,13.666229668098902
82.03468047841385,-13.19488725985909,-0.046280074319861066,13.926101444525983
82.36695394157125,-12.726639938787514,-0.05315448399753462,13.876361952465375
82.50463916291253,-13.88956344557992,-0.037784206076705656,13.41234245273243
83.02984618487638,-12.161836154913548,-0.10850107333680929,14.671638679760749
83.95023572756163,-11.069849071861261,-0.11522968788722916,14.696468738511054
84.04181932429728,-11.20908994098583,-0.13464391893223288,14.75812371522823
83.51263531955318,-13.51695987183561,-0.14041370202285625,14.88092199794878
83.5985946044294,-15.176656063912734,-0.07303239665921718,14.983033595309102
84.11937359640986,-13.69433108853925,-0.06247960545424196,14.629762164615627
82.53446492935778,-12.938856751187512,-0.07585644017960902,13.763722441819612
82.26363194679648,-13.034552551574151,-0.046073598189878676,13.663116306299635
80.53776455562819,-12.674320573929377,-0.029421516985524938,13.543615882872187
81.11276512823851,-12.730506493292943,-0.016938086869646627,14.544552049405103
81.53904822387342,-13.146986845225587,-0.03194320811576737,14.322356951141266
81.20677769091301,-10.569707729511574,-0.04913065236802179,14.167154157793247
80.83994855138597,-12.306039788601879,-0.01451329357070006,13.903460449790794
80.8210724869628,-12.683113951631686,-0.023251554356882337,13.217498618062116
80.15021045204526,-11.21224695225347,-0.0363424044380773,13.586291345520534
80.15021045204526,-11.21224695225347,-0.0363424044380773,13.586291345520534
80.15021045204526,-11.21224695225347,-0.0363424044380773,13.586291345520534
78.65261191875892,-12.513148494171187,0.07977374152766196,13.335204790445513
82.60692728853279,-12.039443181587691,-0.12526440238509268,13.071563476773258
81.1469518590471,-12.423558928236027,-0.011496312044293643,13.801299466249876
81.85577727540742,-11.332978615587677,-0.08895546094605072,13.999714764289786
83.77170199918524,-13.777557089288736,-0.13376281208795052,13.304024644469713
83.39688298224186,-14.27228184782279,-0.12338902528027122,14.186520247607067
83.21039245690508,-13.895759243034894,-0.09634196499926662,13.85576033056124
83.29066946010589,-12.767189197919684,-0.1265699743573641,13.443547886970137
83.28183417614419,-11.255590364627196,-0.12476099122673988,14.006068791909396
83.19987010225526,-10.924933032861919,-0.18455162948629508,13.461205619804902
82.61335692947979,-9.2104998657436,-0.15283232558826218,13.865993686420296
85.96532226649147,-15.560221036006276,-0.15403027782348902,13.185487294554653
85.74956607729276,-15.88915826064455,-0.1561416868775901,13.126960278150383
85.6490881450898,-15.407291777814374,-0.133432582662321,14.074354772880458
83.22426284103727,-14.653627391954421,-0.06677259038585462,13.454102244631374
81.67596821822193,-11.950794340518316,-0.08160563746653876,13.77592408944249
82.922409865845,-11.899508558831823,-0.10684577955923699,13.36593262200274
82.8914559972272,-11.922481316100024,-0.13499834350582673,14.05947378930938
82.48661400747879,-11.144576674552981,-0.11195576719959585,12.96151550516664
81.21128298132611,-9.97515281782467,-0.10458569981192511,14.357365324656708
80.49239355950364,-9.229268220360062,-0.1145348700213446,13.181865822002969
85.81949897630811,-15.824861011139056,-0.09540848835294762,14.17111011525303
83.83199221917748,-15.278957201025703,-0.07829984278647599,14.40338981284972
84.16032739897692,-16.081921935618457,-0.09841427465046107,13.539955186525653
83.84492218196183,-15.555656914664405,-0.08442993534742464,13.684244289070747
80.34436520778411,-11.085127413870902,-0.06277937532510616,13.397408620037105
83.39369256339697,-15.453542338165127,-0.06029240699605283,14.382166453133506
79.57598192009438,-9.764864077545367,-0.006428299637439735,14.071503079873505
82.2097184613482,-14.234046413770988,-0.052681870940962425,14.096727491086213
84.91808641659262,-12.213349848595275,-0.1614503561352709,14.083371336984072
85.36157900439517,-11.93982113273474,-0.18446510501673935,13.850766029305989
85.33017930981892,-13.601126592958016,-0.1682645669766548,14.1468140370757
83.18693429680636,-13.79400147179931,-0.09306482525698932,13.48225808741434
82.87093254596472,-13.379059178126655,-0.0942897041158492,13.869179384620328
82.24369037809332,-11.140827444437425,-0.10755665584289041,13.662737642473429
82.42959168517156,-11.242397112550073,-0.08918356210677267,13.719094091864394
82.82024344106493,-13.839117899301101,-0.11435472181445636,14.410947657379138
84.15013390117464,-12.024983735681374,-0.11238583162100302,13.345973068868508
81.94457999082674,-11.423017519191594,-0.06787721582698905,13.535060728117644
80.4341792508628,-9.409174027643306,-0.07975239139650803,13.936660903461334
80.4402101351305,-10.582458509406912,-0.052075191713557886,14.118088068457395
80.26452053902788,-11.777536835543636,-0.04111124864965868,13.354809427605383
81.52378885598095,-13.802439639751539,-0.01046513668951661,14.335448853820486
79.59346204267192,-9.440976444123526,-0.04319217801170093,14.04643434805787
81.50205008045661,-13.94048425711363,-0.015389662330055927,12.976892397927223
81.48267719195483,-14.28203460317419,-0.018777073860719914,13.496667341018085
79.6858740092858,-12.373827087618448,0.0018427508094339476,14.769938558283078
79.9350181114855,-14.802823010028945,0.08704664646013369,14.263478273875249
79.3558850907395,-13.34100716030324,-0.01124778026813826,13.827612646958714
83.55888724241578,-12.266582678150334,-0.12295690841847237,14.73108807420267
83.98230542296353,-12.122908953984807,-0.16827978195517646,14.872081254521218
84.78163407465281,-12.74057735498865,-0.17026808082033412,14.894322094842911
83.2852285398805,-14.2545458264043,-0.0934686752764789,14.775353800781986
80.1376930389146,-9.096237305865687,-0.07148271818866887,14.334924236724541
80.1376930389146,-9.096237305865687,-0.07148271818866887,14.334924236724541
85.01011829215403,-16.207149066918426,-0.11268660822624821,14.392758526836683
84.85842247442532,-17.026820305286364,-0.11797395709354379,13.52103111694224
84.39516244858241,-16.536952239320666,-0.10570811517299125,14.040696203149983
84.24310052205405,-16.180253036733355,-0.09929944814368917,14.173256706045425
84.80317891477488,-16.25012805132499,-0.10012319079760917,13.350355989688113
80.70023050084264,-10.37613861806889,-0.09616448816903225,13.518300091307054
81.11882912583872,-9.046280544110786,-0.08368561787436263,13.872775384792806
83.22614718299474,-9.44250970287677,-0.13813182632476573,14.119246580629424
85.48948936987712,-15.58136165231514,-0.13438500775174406,14.092166343071582
85.67852294852773,-13.958999479731478,-0.1888373022253892,13.538626265692503
84.50985330291068,-15.367571021114879,-0.10895742130271979,13.808348276933703
84.50985330291068,-15.367571021114879,-0.10895742130271979,13.808348276933703
79.58112664168092,-9.865794909230393,-0.051099058921747036,13.692442691725304
79.96704420084527,-12.946327571251821,0.030483750271642573,13.92519919073303
83.85873527215603,-12.024149306838533,-0.16999155631848598,13.36986320897503
84.42918099787184,-11.87955439997285,-0.14765968094977747,13.800426090497128
83.28852354476183,-12.032616639112383,-0.13469160827222348,13.445478641168075
83.73774638949742,-13.426555076806707,-0.1241214327854208,13.036051391735276
84.2208450321085,-12.125438816518873,-0.17425687344334087,14.283409161559723
83.16520935491388,-13.762526618132604,-0.07394723703979961,13.971148066572496
78.59792596305955,-11.089973108800303,-0.005929611799856644,13.304261330264874
78.72168567722142,-10.622193081011782,0.04653246194473859,14.165541715698536
79.15975846042033,-12.883118989543842,0.0517359275892271,13.977845171789081
82.75149309469924,-11.761130234634603,-0.08925354308167643,13.854624418443782
85.01832320186418,-13.972434723534315,-0.1357772128569651,13.621129113055119
86.02714326759538,-13.316168149003296,-0.2510972062784017,14.186942734976462
81.81507429264276,-12.587204509321065,-0.09543364342717861,13.22881641187812
82.53450701311738,-10.64209840751783,-0.09219990837995848,13.428518493402068
82.5693215559432,-13.905710246027564,-0.10970865752957688,13.905218693061292
84.30530027460637,-11.826866879957304,-0.22191735621133524,13.557542581564023
84.56693233943795,-11.939448340184228,-0.19009226631193346,13.592835215695514
81.6593854381923,-12.279117019126259,-0.06900856725919416,13.664920917186338
82.92415332886931,-11.061622061816065,-0.134961895670791,13.586924384590327
81.72475256549946,-12.984728265086723,-0.07825582183356494,13.75314066228127
81.72475256549946,-12.984728265086723,-0.07825582183356494,13.75314066228127
82.07551077276797,-12.85461963680733,-0.06358687914403761,13.657247747344028
81.75958767796963,-13.317511659100715,-0.07871882668855394,13.50600456114181
81.87140576388296,-12.430051808034818,-0.05204829216042103,13.078532945446614
82.75711315788912,-12.58091215370641,-0.09302331229595065,14.089315512589705
82.16662970758216,-13.939487709061014,-0.05393352571101863,13.888142882323498
84.19260112453364,-11.207738774231546,-0.17260154557039645,14.153009896677288
83.93271572721538,-12.079816907599366,-0.157348913424615,13.265360173245456
83.45386093140199,-11.977158420036405,-0.15299638938875998,13.871384088268517
83.42105158671473,-12.261046453893451,-0.09543489776650392,14.643475932144307
83.29584232850962,-13.449896935012308,-0.15277883247625418,14.865192291787805
84.49561689424036,-11.527041467146079,-0.18330469021447363,14.002007562746192
80.34448579416521,-13.863624152681629,-0.001351228992854267,13.978329986107337
81.02530386454652,-10.172427505274817,-0.11762231361851291,13.620534650008754
81.02530386454652,-10.172427505274817,-0.11762231361851291,13.620534650008754
83.85747841422747,-12.419305506517283,-0.1479255741065523,13.878873342982534
81.86821762990058,-11.237733615339987,-0.07525256426213132,13.851022252395817
81.86821762990058,-11.237733615339987,-0.07525256426213132,13.851022252395817
81.8765164591594,-10.504790371334147,-0.08600370205402236,13.671402375899852
82.04770847812038,-12.961245296314116,-0.09525635123484877,13.70469035252835
82.29199287338588,-11.969294303723844,-0.07490981245367076,14.419865882210566
83.8368126058445,-11.919627625952632,-0.10749733021014327,13.167742603134023
81.6697763789055,-12.765372571902972,-0.05632952002260177,14.249433220882699
81.13853773050201,-10.38951167375584,-0.07318922606616916,13.563072083262155
82.71901883167808,-11.008956236056633,-0.09086799191184113,13.893772596689137
80.51402595982329,-10.499039527211757,-0.07167055940864561,13.590637680516313
80.4738079009284,-10.705977353949592,-0.04461548634964213,13.93609443703818
81.3454482794437,-13.373531023883048,-0.005050861412674763,13.90670818752072
80.9032632915025,-12.753182304341193,-0.01809087385226331,13.929480924804055
83.01092289966734,-12.009878889855733,-0.10812340314333393,13.96949104810823
80.43583282876317,-13.5802040020332,0.01741121203525909,13.89553840485226
82.79704025270325,-13.79510563716499,-0.08508995699425831,13.513421416604505
82.07048125997572,-11.087051382202768,-0.08762849022648253,13.670764370270838
82.07048125997572,-11.087051382202768,-0.08762849022648253,13.670764370270838
82.13904304242088,-11.897085601159887,-0.07966614654319623,14.107262246095896
81.82122759080774,-11.671144546842957,-0.1101654532830612,14.250622211600136
82.70920403043219,-12.14792966360377,-0.09533055898627363,13.512741587231787
84.52033945768646,-12.896310281239515,-0.1496942065523856,14.501857939020201
84.50273776613267,-13.633308680074762,-0.15750286207938746,14.443776070920537
84.50273776613267,-13.633308680074762,-0.15750286207938746,14.443776070920537
84.34393780003958,-12.54684626764353,-0.12342635710857783,14.25771535588176
84.45286479022317,-13.234188649937378,-0.17561430366215297,14.528008751699696
84.45005338283764,-12.64892813863223,-0.18337215169793886,14.414226226043372
85.09942412059411,-12.692626790250854,-0.16734013480080415,14.391580355846216
86.88014136949477,-14.276547953649464,-0.24813243477115882,14.39125188939309
87.04424788543479,-14.172590187353691,-0.2644805687272992,14.571197216348475
85.10855170666659,-14.550658482992468,-0.18939404303920812,14.667548210315582
81.37174880099177,-12.201340032151716,-0.1100203657218494,14.339029239380565
82.57259086561854,-12.888265382245278,-0.041286981084847234,13.164216185389103
82.52696247305593,-11.874018039416615,-0.10406000467539697,13.870953087446845
80.9569078835099,-15.358865872935052,0.05287763234290313,13.53787051685829
79.61515301385896,-12.063909271643425,0.015069108831039353,14.019585320171563
80.14017234067988,-11.772630293129929,-0.026097811984080593,13.938759424019
81.61063198855682,-11.754364971371531,-0.07917882078280311,13.1984057300925
81.32353280258452,-11.680054924392458,-0.06459274644767077,14.344093522552757
81.47821926423062,-11.186520186589629,-0.05999693449955765,13.132549670487164
80.9477828391253,-12.177131547271882,-0.055203585154372105,12.70861766466495
80.67069949613692,-12.505029149143864,-0.05515106025156856,12.935048035431432
80.97560372764084,-11.994868756044113,-0.06248185343398585,13.298314022219929
81.35186960947152,-12.14750899373212,-0.07020716132099117,13.791185765721094
82.5118615344045,-11.912823395160942,-0.09980676184892294,13.723667573123093
81.79042437716176,-15.64214366908023,0.01649253878118736,13.576835828797467
80.09877641239702,-13.24745673339938,0.04278355489991928,14.536694588900698
79.76050230276488,-13.303520953831711,0.033759558779803814,13.708588366742218
78.09967687530018,-10.043992282575921,0.07141308012261698,13.630321865840104
79.2865071887347,-11.340339451796476,0.002759989198638159,14.017697004878917
78.48071116883266,-7.938502227547503,0.01632187785508668,13.659059289612765
77.34462836119152,-8.183040574827173,0.005423200782691772,13.95569768697254
78.96187621816397,-15.682284960982992,0.11006711201076222,13.762764037501594
81.10485775852722,-12.338074173141143,-0.03311376825487587,13.782862533539141
80.97882466831747,-11.51120891351152,-0.08621536722894993,13.933657355684748
81.13033083842521,-11.411536791586483,-0.07766842965833518,13.952108668259305
84.34471132853521,-13.801214949352447,-0.19850880519234607,13.90844978784841
84.28227834982252,-14.588816205579452,-0.13610716543638005,14.089107487791916
84.5875994624655,-14.291492567329858,-0.16365704078085697,13.898246210984876
86.62670724839394,-14.181639372596734,-0.26625652356116225,13.726428221013677
78.43804757910165,-12.231937264209623,0.05548580270251521,13.09038561233147
78.43804757910165,-12.231937264209623,0.05548580270251521,13.09038561233147
80.34808149083408,-11.85365438383727,-0.002736203002996967,14.062058256416277
82.19471728244902,-12.394575313976153,-0.06507183996640092,13.256101621476551
81.20038229952476,-12.36684726643637,-0.0068429231795266166,14.016762904378925
79.83644766406437,-13.172661293674812,-0.04568757809020385,14.0249660733826
80.46694516811974,-11.738619945223492,-0.012272384363905812,14.513877993004423
80.11055009712058,-12.797454918990509,0.03355489376505307,13.328288795551476
82.74552590214596,-12.35757506521617,-0.10395668811736448,13.523397340195341
83.42460479644238,-13.02991962410997,-0.13610610478829765,13.347404309029248
83.31539524077999,-13.887290805227337,-0.11899760564853666,13.357752610088795
82.78610812406228,-14.725539617224587,-0.02925772282259683,14.014484547501768
83.27036260685982,-13.966805439484812,-0.07746677424264031,14.352545845272832
83.72192461578253,-15.250612237991863,-0.08385706133250276,13.338590815193779
82.84821667776927,-13.898750568234725,-0.10193351426754782,14.22324651900126
82.69510508946675,-12.057528763912359,-0.07714737717681946,12.821816017586231
82.41669494517433,-11.673560247416969,-0.09331240587537533,14.16076210973081
83.46480221471447,-12.25669891612152,-0.13868332739734304,13.430688301359845
83.46480221471447,-12.25669891612152,-0.13868332739734304,13.430688301359845
83.68292061604632,-12.349330480704962,-0.12377082498155603,14.034682674718692
83.59703095696125,-13.339913288803736,-0.138829423224062,14.032036168828553
80.42564665829805,-13.259637699133224,-0.023401496567436286,13.108839427766268
80.89195827507889,-12.7782634303157,0.008730366101859802,13.820086655036036
80.12246204810971,-9.45300496731022,-0.0884897846355825,13.582292543403119
85.23902432553531,-14.780900210402404,-0.1849855506474595,14.405839865568748
84.96621608378464,-12.504939979372963,-0.15016497837377282,13.312107316064257
84.2867633141275,-14.742181810975834,-0.07625237574851662,14.414692393367403
78.49271544897044,-9.952487550777256,-0.012963805510160098,13.423723650402628
82.67376290178082,-14.41426719365032,-0.05863038137937812,12.918332115140377
83.10921984617185,-13.033152296947073,-0.06847394142093675,13.198835386004335
83.20679414791978,-13.384595576437603,-0.07616625394117117,13.614196618455713
83.05772069456211,-13.415515441237346,-0.10303342349819905,13.568474239000999
83.05772069456211,-13.415515441237346,-0.10303342349819905,13.568474239000999
83.22871911791134,-13.972071845586276,-0.07854775416868458,13.700394284371898
83.3828180611485,-15.45773551042262,-0.09825130522804743,14.449914029655412
82.73937033782644,-15.40294294856628,-0.10008554274495772,13.893869286033484
83.46821485639784,-14.911338778502051,-0.0765519478933038,13.996511925071735
83.19912619469419,-13.101046275519726,-0.07631168663738178,14.141148671261732
81.94668270286384,-14.021386874536399,-0.06184956896329674,13.874179472011733
80.88872546892459,-12.660594654214702,-0.0005843811422771156,13.426826842781761
80.88872546892459,-12.660594654214702,-0.0005843811422771156,13.426826842781761
83.0555600290652,-11.75967339678101,-0.11580865592287205,14.223713265778807
83.35987218718799,-12.874546026068852,-0.1364558692811695,13.070244971915994
82.32026309594644,-14.218834090897445,-0.06021412577974325,13.610015188635488
83.31346167887955,-13.724459907327878,-0.03706692077648001,13.449166812942252
83.54937247645206,-13.433903552265571,-0.04312006210133674,13.434902728097526
82.81093942570928,-14.344574495495227,-0.1170141948676591,13.952059458358201
84.06851543406884,-14.164352957682508,-0.16763223190644003,14.318213102021364
83.84959802502499,-13.22974417053696,-0.1151925260870097,14.343817020192818
84.21620575496274,-12.710864361707271,-0.18517994817313282,14.457033775427066
83.21880977143844,-13.306582574752646,-0.15540897297173445,13.279114171436253
84.11639471097673,-14.03300639088113,-0.12004766947765297,13.430959424029876
84.5052215100699,-13.602559641655189,-0.160218084151745,13.920431044526014
83.18975523962278,-12.191924980509059,-0.09801904957666466,13.421557414151843
79.9238592901719,-11.520159720932542,0.022071982922600458,14.202939235163852
76.45397146165628,-11.991294299234255,0.132174630870373,13.504968413625381
85.3804554073659,-12.67042710805845,-0.1976060149188836,13.285446217189783
85.3804554073659,-12.67042710805845,-0.1976060149188836,13.285446217189783
85.3804554073659,-12.67042710805845,-0.1976060149188836,13.285446217189783
83.98735770193011,-15.381147396954354,-0.07329223332426497,14.311467221129066
82.51227573903616,-12.412941708391678,-0.07425053901371317,12.994134637599178
83.03745879482695,-12.368565307546673,-0.07182081902357856,13.2159417413449
79.64272725208704,-12.767743381135778,0.053418135556555606,14.098997111126181
80.54872182738154,-13.636376861644568,0.011439265183807265,14.43080789757316
80.58193520240741,-12.688791725073868,0.014306347743930766,13.698394726521197
80.65184179536328,-10.673567374968192,-0.03150111341789521,13.558303508751022
80.79374775843281,-10.755675534658732,-0.00934749017559431,14.583070024120182
81.9660181458456,-13.465497409722017,-0.05333939978907953,14.817683159701092
81.15964290628192,-12.439385578037875,-0.0536611778317786,12.852836186937447
82.03569069038721,-10.869601588960549,-0.09737954711970168,14.150598859463159
82.2429872800456,-12.900966998704698,-0.060306390483012354,14.230901310099746
84.06291430686804,-13.27476803386456,-0.2066661817360428,14.281654775220908
81.2396816553181,-12.566927652550602,-0.017217518266579773,14.264853020248909
83.39283473528103,-12.596757402343425,-0.14118527720383967,13.909544974235184
85.36721694800191,-12.259019315043666,-0.22903361215620688,14.057523443922694
85.38201521677237,-12.898372304749055,-0.22029840980741985,13.921294565015423
84.6437922637199,-11.578919149368923,-0.15390410598596468,13.882143735201861
84.59606602059314,-12.373379981518607,-0.10519977748962991,13.182874280914241
84.3626971714815,-12.853397384108629,-0.14345999973554502,14.290118062697472
81.57970629971152,-11.81047299488213,-0.05513655476427754,13.89444625639168
83.21523268332574,-12.596225959321826,-0.10239165818744342,13.858210760169525
83.53787198341426,-13.116769245032254,-0.14849729126378322,13.425347872952932
80.04711600341795,-11.591869553626692,0.035033902666927186,13.519780325292102
79.08374316499122,-12.371212153817678,0.04698692356266814,14.015522363077318
80.16366083725995,-11.403163953682078,0.002932338467606592,13.173341179072354
80.37764673358217,-10.192069200401354,-0.03269245104972822,14.374150916588977
82.24065075495989,-13.171613627274198,-0.019462579006053006,14.11693412326583
81.80658943747503,-13.667966599978499,-0.005902783903050256,13.026976988404664
82.3042798579875,-12.67020269848586,-0.04669648664619493,14.193156298353758
82.15825638659983,-13.599600638108935,-0.09329715838386778,13.716860283510075
82.78225556914678,-12.903907434363347,-0.11933341314646327,13.791694583018252
82.01924098134606,-9.831437165374059,-0.10275139024924457,14.09597569763011
80.74286434543241,-9.268763674609671,-0.16158868627540468,14.515541951350471
85.06728204208325,-16.033926980214055,-0.2058685722512591,14.421004135224585
83.38411671243931,-12.305995337561619,-0.14542955059972157,13.246284115499659
83.06846469227989,-11.929107110134945,-0.11752627693023376,13.866347971918481
82.89701776616636,-13.4411319978449,-0.07607569697742063,14.026698315220942
83.54770350651017,-14.607022285540795,-0.09884720229686964,13.340161387444493
82.72882075847268,-13.516177747890705,-0.08471764693297668,14.13004587585079
84.9970931439457,-11.720811596113624,-0.2277595601402332,13.805461885883414
85.74502157284643,-11.992637132921312,-0.15683974976606951,14.01094723783058
83.93559624755328,-14.002386019467842,-0.18980909740405166,13.29903945170337
83.42897012424123,-14.495369710882247,-0.17848566423033838,13.248455708571333
83.51059515701812,-13.42681116252758,-0.1897953297550405,13.265916011268457
84.43443287963511,-12.624699475490429,-0.18176540277529019,13.08484383603594
84.43378727800662,-10.961582767645837,-0.20450401747778618,14.20954036919467
86.1162474436898,-14.654192278609546,-0.21861778943100443,13.18205833929441
86.1162474436898,-14.654192278609546,-0.21861778943100443,13.18205833929441
82.29728818468365,-12.754409781895637,-0.08696320650355059,14.27647674656166
82.20939144895377,-12.435182216153004,-0.06418811934234163,14.483035853588603
82.80714208858646,-12.591130204842965,-0.061469574948769076,14.742926555304866
81.27849007059297,-11.634517149933044,-0.10248238378942223,14.532905410048139
82.02012021707466,-9.978330443278194,-0.06244576560126608,14.599089730643568
80.611361006331,-11.038379548527981,-0.08367300266081015,14.307481936015824
86.07536199081386,-14.245529187701504,-0.13637726098498243,13.880479948411052
85.86451825473941,-15.509441177477829,-0.20191023867149177,13.57686466762495
85.86451825473941,-15.509441177477829,-0.20191023867149177,13.57686466762495
85.57671370752836,-13.669894566453896,-0.1860237770249279,14.05973216016338
85.58505156399738,-13.320688322588646,-0.18138063346532057,14.273474121579897
85.8422005045937,-13.088587419055301,-0.19634476617522734,13.388452152310629
84.6072290419163,-13.252636937593739,-0.1934512759825805,13.841230414850246
81.22798093074243,-11.955634284372008,-0.011342724315705856,14.560487219243539
82.29252349302644,-14.344902157638085,-0.04350125355848958,13.98692489871721
83.63709436211272,-12.26762843932883,-0.13894027513131385,13.802985956876173
84.16997260438387,-11.711421427087918,-0.11708050908153553,13.570003920153955
83.4402181166575,-13.890020876396665,-0.125339788559764,13.180914191204577
81.00282677353078,-13.042663899836581,-0.0528353429314819,14.202680321945
83.88216057718485,-10.450787050404205,-0.17927909850365809,13.409227859481863
84.05629750041702,-15.176465978512233,-0.05867184630810759,13.43636858316305
84.28207999347019,-12.33267189155349,-0.1337306081254223,14.017184856038453
83.49595063406605,-15.638147157227914,-0.057956416998346534,13.800227929950829
79.02662636115713,-9.330473400464138,-0.03600141190046382,13.880249400700617
78.70093893680101,-10.228243610336149,-0.03506049888843008,14.224823091682103
80.64089808073793,-14.85548813570796,0.05086838196346735,15.04905801549924
80.27321187060669,-14.403973043154009,0.009731780881639868,14.6938645428842
81.29549457952548,-13.938477976370589,0.05731800599345102,14.881551118494604
82.13577371108019,-10.785629548040808,-0.10576170116083575,14.006296479261788
82.76048285206514,-15.874486426969487,-0.0019110222397383664,13.722043174274752
81.22007344109646,-14.050861994035673,-0.007989415928914344,13.648752393123198
81.23960352197028,-12.690568205188269,0.028002765706431402,13.832901357242964
80.15005697250443,-11.283658759500709,-0.04440462825401354,13.863429266028227
82.7606507384838,-14.547500306876978,-0.07249670137020603,13.923434829593253
81.84782431853094,-11.662300704610777,-0.060905693133664646,13.245511334670107
82.37230398556964,-12.79738902036511,-0.10082290573198327,14.02684713049526
84.17963605118912,-13.260601419227784,-0.1175440913937951,14.488408857879605
85.32970517945031,-14.089230862842705,-0.2081809370457389,14.831568014276035
83.62271233889811,-13.309015774728723,-0.08084849092598184,14.479246039862511
80.66505415798056,-11.342500059681582,-0.028722381413941893,12.863611086576174
81.52098521664193,-11.04714626775365,-0.08712286374071171,14.235176359399475
80.5299696976587,-10.835417995238583,-0.06575186507977798,13.516944022605095
82.31146607546603,-11.475892860781872,-0.094568411564675,14.047390566631812
83.48326884109514,-12.361177102328218,-0.15147795579821854,13.85993242500223
85.94566484890916,-13.762729355366039,-0.21878267992900996,13.717389421239496
86.08283434074096,-12.248743714164814,-0.26417479249957093,14.23092683916312
86.24731866977244,-12.233279720519683,-0.25471322445458155,14.454673260788839
81.4113539558034,-13.163201064460635,-0.01028697460334356,14.338523636525197
81.48538461507285,-12.134390397685772,-0.005933562568692692,13.286705498368507
83.7438630737893,-13.403751856101463,-0.14698936784066066,13.29381460457593
83.60190690104919,-12.963278190282038,-0.09932063643278789,14.025402462383738
82.58544815880592,-12.10429471860475,-0.12397752250809349,13.440057547694161
81.6399191726996,-13.0302303019314,-0.0541274615997195,14.535740542687794
81.8515107102817,-14.684044282425711,-0.02501645098950608,13.353996536421175
81.8515107102817,-14.684044282425711,-0.02501645098950608,13.353996536421175
81.07062773881972,-14.308339514161085,-0.006434345736381495,13.637410827485489
79.27300171198185,-14.097314504059588,0.0435462710590188,14.183030504240987
80.21576812465712,-10.027030620559247,-0.06802112900463185,13.888048314167532
79.90785428801527,-10.486191158997444,-0.004478598190572138,13.99193810513447
79.90785428801527,-10.486191158997444,-0.004478598190572138,13.99193810513447
79.63117900068852,-10.149183484026883,-0.018817116628835777,14.547695944987623
80.82622744048322,-12.873568671440996,0.017619339276826032,14.11353894157817
82.74605323867715,-13.114939641736914,-0.09539913621744646,14.440319510775643
82.03334231360563,-11.383833594768904,-0.0746623318455235,13.073271752595113
82.54849867631246,-12.27835650519154,-0.12111288404348483,14.66328642938051
82.65211049775607,-12.788121810631237,-0.1041992066916181,13.946208145241359
82.1317800179102,-9.621800222693116,-0.17702683007043404,13.65552604639306
82.1317800179102,-9.621800222693116,-0.17702683007043404,13.65552604639306
83.22755139665112,-12.016990811736093,-0.11503834313234523,13.601168849701963
82.03316036063218,-12.763527151553337,-0.027272363841475397,13.674495740507203
81.42967279834848,-14.121235910595615,-0.03806551962496387,13.502099977547259
82.32857085044307,-14.120416696632109,-0.036363975300733535,13.898075542624436
82.6819283178978,-12.311227614553879,-0.11887610571303339,13.860245318724418
82.83793741117317,-10.947378232371989,-0.13566336183850056,13.28723975528109
83.3586286889919,-11.411503616937187,-0.11465632810272076,13.300622151719068
83.3586286889919,-11.411503616937187,-0.11465632810272076,13.300622151719068
82.62495198069381,-12.292800459310591,-0.12155898430141404,14.173823359920839
83.67093220400666,-12.177410730615229,-0.12316194447192332,14.332981342335296
83.67462784508986,-14.29417677020784,-0.13010536657312563,14.194753554999947
83.91412435856047,-10.949212020288513,-0.16800258405331817,13.6283230734692
85.32141367528338,-13.219583312349993,-0.17630202403939801,13.665053894770494
84.25100832164847,-14.424938169687788,-0.12383499688721275,14.154365734879024
85.18380950510684,-12.418730049270875,-0.22054352013125683,13.67353704692571
85.78507246239526,-15.036214509848076,-0.1976740774831676,13.33705162126611
85.25918980076511,-13.18791736016506,-0.2410652975161776,14.370471845126932
85.55371361669916,-10.892154873717232,-0.2553456761993866,14.128650130393149
85.537563358457,-14.44393436704712,-0.15081843394609784,13.98144499278042
80.25481723741723,-10.714012110088198,-0.07728090618750488,14.127205986131015
77.84631640945949,-13.009780104893823,0.14081709508577533,14.279746660513773
78.13602554194635,-10.156649928645091,0.023666734671034917,13.562264228979481
79.58153913589533,-13.464924126876364,0.06145233361261042,13.84776747147662
79.78436393695839,-13.130015708082247,0.07166814863745621,14.200821976239228
78.65012912474776,-11.423439623178789,0.030408140297572998,13.349561095165578
78.47900207312193,-12.362104853135895,0.03484551502914051,13.695078389676125
79.95274846537534,-11.746419619650313,0.02967799418530635,13.95748277705005
79.70623582223507,-12.088481449522257,0.0037469809826231534,13.251450461375924
79.70623582223507,-12.088481449522257,0.0037469809826231534,13.251450461375924
82.63613087195563,-12.598547191386661,-0.08936383638136104,14.503568774468462
82.53804572979881,-12.040751762864527,-0.16370618064011505,14.54200573553435
84.04106720037615,-12.733766642961314,-0.11603288033530879,13.00256834372048
84.04106720037615,-12.733766642961314,-0.11603288033530879,13.00256834372048
84.28202186116556,-12.26959999639392,-0.09699043186073754,13.304170512851796
84.50337491598073,-12.038587751486457,-0.13645411174351504,14.190504852560418
81.09158106704204,-11.620595193175935,-0.11369123973886897,13.481101494548327
82.72842939606518,-10.543540912163024,-0.0968774229472782,13.733507428639973
81.31007658248386,-9.952295783869207,-0.15824032367079627,13.583981271536652
81.31007658248386,-9.952295783869207,-0.15824032367079627,13.583981271536652
81.13463030034275,-15.268633995896634,0.00021620444340573683,13.797885604047714
82.37385626142974,-14.620419320526704,0.014106222077098579,13.52469626468587
83.05647891677064,-10.524611121375697,-0.20104957885729446,13.434792663714669
84.58731446361568,-12.451043547124387,-0.14224134642469635,13.787812552584741
84.2392114011448,-13.197324717184229,-0.16347355313388692,14.005493111454394
82.42722765889793,-12.657945392799542,-0.10092787506180456,12.770272694091101
82.28240021885767,-11.764286906102845,-0.0946986348240996,13.149808428764208
82.28240021885767,-11.764286906102845,-0.0946986348240996,13.149808428764208
82.35598110008647,-11.788559194898829,-0.10702554069175024,13.944283086814734
83.18419452947421,-12.279221226263656,-0.1441998338163599,14.310769926203976
84.28978162309099,-12.035282658003377,-0.15742308961485676,13.908387058724509
84.41318280649436,-14.498232133654056,-0.11723204664226497,13.522070388048652
85.00220702842819,-12.169765421440248,-0.22166480256083682,14.212885351470307
85.92943716819202,-12.084708818564236,-0.21198440597920826,13.161259950628919
85.0806283343427,-14.829462730666274,-0.13380093655568795,14.162423375746565
85.0806283343427,-14.829462730666274,-0.13380093655568795,14.162423375746565
83.53112924877301,-11.737814534063364,-0.15017692511211772,14.164013756625385
83.19427602111709,-12.329534101446631,-0.12187637508760188,13.728035294623586
81.09772120906301,-11.137272165596158,-0.05836122873911177,13.85055535969567
80.86626267199222,-11.075307729101784,-0.057892097956065355,13.588993751121322
84.18032917170802,-14.020853112234448,-0.11561448235432238,13.009169007508982
83.90534400480757,-13.249174547994027,-0.13015490884841677,13.75954837136054
84.33434074531081,-12.331946258925246,-0.16763787232310437,14.443982345437373
83.06836290946974,-11.05652300807246,-0.15716420821376945,13.258146876765666
83.38100628115781,-12.23343690410558,-0.17538397311392936,14.324079818821957
84.45895928319923,-10.813105100000097,-0.18031212441924555,13.211312893916093
82.83645594357556,-12.031786664925157,-0.1463334419158863,14.27150946092044
83.76124215384114,-12.494543444359046,-0.0871252256714435,14.35564636105594
82.75268978638636,-12.94782386490515,-0.12074544574592724,14.750646670972905
83.53692208585048,-12.276541417326582,-0.14237292943649257,14.621046024563583
83.15863016981673,-13.566746825820061,-0.1159868366803079,14.415605957536716
83.5052399527514,-13.767097205240436,-0.1031231981116815,14.000534010824946
84.1897108287907,-13.48846771200263,-0.15399415394985855,13.277089370451128
83.63442713866974,-13.433401563247498,-0.16561467079604408,12.784874184034186
83.91754490899196,-12.082885330339238,-0.11029373257835018,13.139639603150421
81.78649545878253,-12.340203420772914,-0.0964746345981648,14.021112306911167
84.62854037863674,-13.903168215582067,-0.20047658264431178,14.42838085619807
84.62854037863674,-13.903168215582067,-0.20047658264431178,14.42838085619807
84.17547266263013,-13.687732742801177,-0.19981042444177377,13.95066120776678
83.21075523517966,-13.212363612628689,-0.1488688628564905,13.818630448544253
83.07345984020264,-11.228682676474504,-0.10775891682504991,13.358248312089419
81.39514438603737,-11.543720866443556,-0.07576690461102234,14.35198309275985
80.54264000810214,-10.003838472221823,-0.11995410458463024,13.339769972552908
84.30950527092672,-16.131649144082676,-0.1255434577601671,13.403248312133538
80.239171831475,-9.6411403506165,-0.029348415451142463,13.764186248605577
80.96303498465238,-15.098750601720724,-0.014537031052967872,13.817597160467088
82.6552578404952,-12.760271515206405,-0.025888252289412664,13.94095169796637
82.0577999690152,-13.811119082892242,-0.09314606432215045,13.428933940754167
82.0931721828615,-12.985394260174765,-0.029070580788197777,14.022047494520145
81.7762638446837,-12.719926267962991,-0.025916680673596988,13.633166846553685
83.11630278352482,-14.079066530073698,-0.056293639911616594,13.821657937528213
83.21934316636114,-13.379499850255806,-0.09981832143412378,13.49834479728182
82.13123953393534,-13.112763780838133,-0.024097147808757362,14.060098328968493
82.03417666678187,-10.895783804681061,-0.10554832782132563,14.085297032838678
80.68441905421942,-12.310967734046951,-0.03018221685400932,13.137720770754134
81.09888345803259,-12.535286992056633,-0.06700271484172957,13.683952779945377
81.23727625717919,-11.84851306982222,-0.019431718883822374,13.983763894708558
81.24334544193451,-12.932213786867877,-0.08758891447038901,14.127172923540837
83.00591983813392,-12.539575601227645,-0.09423902185718555,14.830431706769838
83.85302634485761,-9.770205869199081,-0.1699005624550421,14.493634571210173
86.95709227602318,-14.522175571632673,-0.19751437197900779,13.88474098932871
86.51382617575376,-13.856310466603095,-0.2527286407712679,13.389411860833032
87.2108396534508,-12.943566082652671,-0.23100503176593207,13.518278558737327
87.2108396534508,-12.943566082652671,-0.23100503176593207,13.518278558737327
81.85993155857663,-12.594677097639854,-0.07673239655203812,13.366863030561735
82.06052001728148,-11.385870251928278,-0.07682891359102172,13.906271185904354
83.13142231091557,-12.703196477152193,-0.10116256909807611,13.845233129913751
82.64908000657687,-13.321682440827377,-0.11735020444123523,13.473523701928993
81.41285586923375,-11.965882046538587,-0.09036615266885725,13.683449949370953
82.42268135918317,-11.702998505245796,-0.055981554826338195,14.213971739039723
83.17030878968528,-15.874046264052717,-0.053717747729599086,14.257064195852626
80.16458966893012,-12.537417082212357,-0.01736817373644943,13.342533218617081
82.96031113053432,-13.19194048707018,-0.07075670257767613,14.472528048570382
83.67362066884334,-12.668635034240754,-0.17668466122193224,14.187735029168365
83.66119683883372,-14.197950920019913,-0.132791991320731,13.674983101441965
83.74973961865686,-13.017465461063916,-0.11138998741539895,13.833858501210663
84.61068692938284,-13.222035401219516,-0.14176799096918954,14.515994013160528
85.05610036648976,-13.193562980579312,-0.1253468266352201,13.542517128738286
85.32533418384344,-13.302558204504829,-0.15795009426497147,13.445923642558109
85.32533418384344,-13.302558204504829,-0.15795009426497147,13.445923642558109
84.52748387083955,-11.741359197032281,-0.16200807253077937,13.842501920383137
80.66761167461564,-11.742800674922831,-0.071385888232983,14.32856505064129
81.9730496835635,-10.499443929030932,-0.13204359675138516,14.928076500651496
82.8184292900111,-9.51931364402998,-0.1558989977288665,14.328352296631563
81.58015360614135,-11.012941976351838,-0.18194911516260898,14.399041351703165
81.65302012205252,-10.806038827333962,-0.1548684026850464,14.296925586556542
85.57548312368203,-13.00463917754552,-0.165553648726458,13.494732042678857
85.57548312368203,-13.00463917754552,-0.165553648726458,13.494732042678857
84.65936295054173,-12.578785704685842,-0.1638202971281001,13.5008619862624
83.80180766167301,-12.149242406899624,-0.17891180044175725,13.248368318032067
84.88565408109955,-14.95409812158427,-0.1080403618596671,13.893024815514122
84.48976223651688,-14.264217771145997,-0.10521334635280774,13.882929359424772
86.3515590501025,-12.715737762462808,-0.17473395378250395,13.697365693180796
85.53297973062159,-13.206611619472929,-0.20238345882763945,13.21577644188504
84.8913318087998,-12.134628417543805,-0.1860850627021114,14.343045544416395
84.42111513292906,-12.108337817798878,-0.20096435879702335,14.006091865229097
80.4448785419266,-13.455174927808388,0.008535963258445554,13.926218400072951
82.90964968435564,-14.535865808927003,-0.08621014071686643,13.378705894581552
82.07658900823436,-12.58877044383824,-0.07199269962787873,13.835354593343551
81.87245055752378,-11.735098331413742,-0.05443200359504969,13.807449123092775
81.35996035962675,-12.90183178852342,-0.09794884746020807,13.657195370454112
82.71182832156764,-12.405414517832282,-0.057379391430366376,14.190712709763108
79.8479822321414,-11.639465780613948,0.030968247744542966,13.59769791665778
79.8479822321414,-11.639465780613948,0.030968247744542966,13.59769791665778
80.24946663520521,-10.060647979605305,-0.032790988119171756,13.890549467111958
81.63239370504584,-11.587470459050444,-0.03369040483142342,13.849871265998297
81.39753142563916,-13.22575902146051,-0.07475333447270147,13.291772785344785
80.16978184303743,-9.567964308209314,-0.06760005659175485,14.530806023406965
82.98359973871625,-10.459542674756273,-0.16256443994473674,13.202872017835926
83.38462229328293,-10.904045303027992,-0.13403853835788174,12.772928196643022
82.91469170898901,-11.661285337104339,-0.13212942475593634,12.96677899997668
81.49822503675144,-12.768094377631392,-0.03547712625429353,13.869966343205231
81.49822503675144,-12.768094377631392,-0.03547712625429353,13.869966343205231
81.6465513576915,-13.371340523186136,-0.06312439130125225,13.87201393672795
82.10550276889789,-14.016040426597161,-0.05619658843171199,12.553684912911288
82.10550276889789,-14.016040426597161,-0.05619658843171199,12.553684912911288
82.02684990400577,-13.951054307005073,-0.08150561417168621,13.53585270743379
82.00105758397594,-13.042448874377683,-0.06630427117526347,14.19515438001227
81.71641207687196,-11.54195541359897,-0.09373706337171035,14.367660105553291
82.38160649983345,-11.836363553045167,-0.12892081728960705,13.748220153036566
82.49437680189438,-12.223923854412497,-0.07641241931205808,14.219331560793925
83.22546107538585,-12.621520418653684,-0.1346598430504842,13.999868209997429
82.95274203470849,-11.180423233966007,-0.13276796488914647,13.17758963436845
80.81397488199056,-13.542905442608047,0.01135119740369889,14.313478155050959
81.23288587008703,-12.155745522649003,-0.04729449069754199,14.452896482231697
82.00425861681424,-10.767490244282515,-0.11293159163392903,14.815386939421172
84.27673693392471,-12.063253264173094,-0.17332439980496656,14.462656507580807
84.3466064584047,-13.07603043114085,-0.15777498587323158,13.165130226497709
84.3466064584047,-13.07603043114085,-0.15777498587323158,13.165130226497709
84.23835419263848,-11.386442189795693,-0.1593594916269371,13.70071058415024
83.00842643414241,-10.081525969238339,-0.22151323723160254,13.666851756902517
84.22514856449774,-12.338109388903337,-0.19079477905234624,13.924523958052934
84.5976121326189,-13.40841391059894,-0.1286452218267566,14.167309108050063
79.76113647947707,-11.494811036541972,0.012782947108171102,13.684143226508013
79.70530437192127,-11.79995137651175,0.02545218427397724,13.794491773235501
81.02046504591158,-9.988674051690507,-0.07454395229267305,13.82721080123142
81.46707266694365,-11.358329691398268,-0.10355390837174608,13.45948714502557
83.8075890436598,-14.758855010795632,-0.1059926550593075,14.165164635004478
85.76896222485748,-13.370361624654178,-0.24881711252270786,13.999078610964448
87.9533897859971,-14.030967530434525,-0.21571363591687515,13.585359844534585
83.85146805611959,-13.531125786412579,-0.18242059775139302,14.732409751150113
83.98884187428949,-11.986905053372885,-0.10865568578637844,14.430698090251989
82.55634719153342,-14.413442845258269,-0.015966962832771436,13.195973092686884
80.44695589549262,-11.388214056862571,-0.0642033486696439,13.920773829142943
80.74163505736992,-11.334672108315587,-0.024531547072701256,13.830194469316652
84.57751842689085,-13.14898244528854,-0.145528648661165,13.688309282768799
80.97697687345847,-12.193816297143613,-0.048716501306862565,13.4889154112066
83.55966745196397,-13.9229130623508,-0.12311709002436075,14.020962595309731
84.38781243850245,-13.684049346519576,-0.09861843709080416,13.578617786243154
83.79110757965206,-12.36150059437736,-0.12073146876658183,13.847393151544596
83.75366183395401,-14.20958303745133,-0.13513875141550197,13.72315083507555
80.91136599958118,-12.544861708720111,-0.03222846337626065,14.54565493388573
82.74765677538367,-12.386886661081537,-0.09745289085358805,14.65545622965402
80.74212506883872,-12.03270785291749,0.015684927804205266,12.687773138095075
79.63871558106658,-10.327132423129395,0.012698866546114842,14.66537604293814
79.46790985689103,-10.30050290522824,0.01991580930898998,15.078662382587039
81.78532787075375,-11.210639913121804,-0.05801918128822278,14.911124332176863
81.1832281486356,-11.940628790264695,-0.07301712326083817,14.887365505824388
81.37260555844212,-12.145700691602944,-0.06455889000106962,14.753276808810066
80.26580599311089,-12.078830664539376,0.00601607766781085,14.771488853802975
80.18536732484851,-11.42768430053929,-0.03897657001176355,14.512401902033297
79.08624175895206,-12.645815589609512,0.03871557142412876,12.722276434522744
84.07101229787772,-11.698204603832982,-0.15680161264615816,14.487145747444604
84.76779897485466,-12.040503606691942,-0.14989920504137205,12.953344506982608
83.26582149317329,-13.00544532241603,-0.1489118802273349,13.128442604129841
81.93476779162705,-12.071372027236773,-0.04242071382184444,14.199743910837512
81.76725464922363,-13.1238231756408,-0.07195300082904302,14.481066048286205
81.42620185979335,-13.759388744885793,-0.11158371929580746,14.55409729074821
82.78467771765408,-12.970657013139542,-0.023287376521293087,15.049805146620933
81.75657549577721,-14.408539717665281,-0.05162155774065856,14.999085827346853
85.06317186911109,-14.675810612116333,-0.06967991633320844,14.841654405530752
83.4965462699895,-12.33942963170384,-0.17659871723336162,14.115624062512092
85.37254270604987,-11.911671202547483,-0.17593069771897074,13.833117630273978
83.11182106471257,-13.297633303000953,-0.18668593289631935,14.484303436276496
83.44037544255423,-13.983358047116727,-0.17319771526105268,14.316551675797072
81.41389994497472,-12.020616750700372,-0.09198156001989884,14.23078523291497
83.16629573505612,-12.472283033059512,-0.11445019198562362,13.50868231312195
84.73296192456708,-11.234288567026267,-0.2643540404069593,14.05930881959874
83.79113775635832,-15.258356621537079,-0.0483682562808875,14.374032289581727
79.44146415231137,-9.291645425978519,-0.06556097882524443,14.389762140722189
80.62136554255348,-14.333078128481812,0.046869890033401876,13.202426452241735
78.42363984286061,-11.140242215891803,0.0185556978813316,14.171926054348756
80.41738306476748,-11.598548184915936,-0.011537816101205162,13.20242724657957
80.17889045612382,-12.27644681838452,-0.010966546458609892,13.644717288454316
84.83090660726835,-14.429805056427172,-0.1574297060805424,13.069147743390054
84.58422910827859,-14.931491275296793,-0.17264628653845776,13.23093739448609
86.26293495661899,-13.832020437971117,-0.18000946156325415,14.274125146966295
85.23484939843831,-13.777716657872014,-0.1695678594537061,14.055846302494475
86.16131573330952,-12.953181544696639,-0.16877892059169627,14.01983657176533
83.67427133287998,-10.259321278780543,-0.27992412908720604,13.727835784052473
81.11181760700647,-14.985023482406184,0.0046637535584877,14.151509595523452
80.7770510750401,-13.098987411955587,-0.017485668938724174,14.02757615116972
84.57185609066691,-11.93715279741221,-0.18055263902151308,13.904162098407784
84.38322041699607,-12.487753657527499,-0.17786834718176234,14.612292992624592
83.64625448063448,-13.391707140643083,-0.1307756197937967,14.708692585638381
82.57584408360222,-13.284920659082958,-0.05354649568294547,13.127305751033003
82.57584408360222,-13.284920659082958,-0.05354649568294547,13.127305751033003
82.76174121991443,-12.103793677719136,-0.0716222741265784,13.440692475731126
82.577250635545,-12.722306213887514,-0.07732509255984928,13.940091879134817
82.48647141668516,-12.843618742404683,-0.1125742728667167,13.857612270261187
83.806649211869,-13.08506168884858,-0.10295114340331274,13.624875881770729
83.17345080387854,-13.945005231259653,-0.10450919048188476,13.576857927932583
81.08356655845301,-11.361267864484748,-0.04703406107764124,13.552532374712339
83.96587156556527,-14.175491423311357,-0.15085566250123442,13.594553416910042
83.6882441960933,-13.94290330532866,-0.1471934671841954,14.445956247416436
83.60420363953337,-13.30945883602099,-0.14474083664078172,14.212554729961969
81.0948551994606,-12.089839999158194,-0.015448959548444753,13.975670031347796
79.81332564663283,-11.088654591362593,-0.03561075595300342,13.230473471831267
80.4464273243681,-10.992956614304433,-0.03458393419653901,14.13406959915506
80.96272226992714,-11.910224986116539,-0.0336213302002651,13.527967519008307
81.48399815827668,-11.550086393146303,-0.013664511648969462,14.429948989711148
81.20443774543405,-12.470542576253882,-0.073662828203964,13.439250662758031
82.27196439865291,-11.04679428196013,-0.10007878300719751,14.371016869871703
81.97646766513502,-10.129792358843513,-0.15217684979352145,13.815237049249797
81.56721224513076,-11.731862760091943,-0.11061833934603803,14.024541236653176
82.46432863370774,-12.061544558080916,-0.14861503209233512,14.003853192058699
85.5059970760429,-12.448109589947922,-0.17383250861047414,13.238191953002394
84.85743588293698,-12.122346918862137,-0.2096340597582663,14.020083468953397
86.39577485897152,-12.615579326509966,-0.225557713210493,13.296800166236872
81.71777243851565,-11.910514868515518,-0.01633282329055466,13.516983734177051
80.6278026066059,-13.30907157342839,-0.042965612382017376,13.68164411167047
81.60050613788991,-12.087116035716123,-0.006750077857276521,14.068397617486633
81.86329635222168,-12.122473002148306,-0.015439289867997825,14.01911192171828
82.00694540558491,-11.021712705506241,-0.11795730796430308,13.362015103698
82.2560126391338,-9.234629016546599,-0.16316607890488335,13.909128121153728
82.14111581951339,-9.443215856992582,-0.16217781728641373,13.746641001277535
81.80353999397383,-11.199558295107884,-0.08778192769883388,13.948759241237653
81.99397576716152,-11.126216099420887,-0.10155811840334744,13.377028401426907
83.08584533978339,-12.434224930296542,-0.13743301973446984,13.89864751116157
83.02062415157154,-13.91825247533466,-0.08827235428466948,14.844017690800367
83.11614933786105,-15.81942879877012,-0.0449780732101667,14.841823934267001
83.16165951044171,-16.124284221396817,-0.01218788834916196,14.821674138918759
82.56132998837772,-15.111539044038075,-0.009228405320783773,14.847980341942705
82.55507048192929,-15.364488499389541,0.007601070911972926,14.649780845915512
81.42159484314324,-15.836398310431491,0.023884408963658343,14.682047931723568
82.06301300604069,-14.953057673718455,-0.01345992731162859,12.906111920698692
82.06301300604069,-14.953057673718455,-0.01345992731162859,12.906111920698692
81.63741957117446,-14.880735948204855,0.0012922643750570475,14.088959255210646
80.91252459613712,-12.798245476748448,-0.02948635650028266,13.210560811780159
81.51937341750153,-11.240254877425619,-0.06313620175788381,12.760925050959003
82.40521083327066,-14.068153806890761,-0.06719254780549674,13.386056568030122
82.60655286587269,-13.658345562231196,-0.07361910334752009,13.696979089343232
82.45727951896869,-12.604885847934185,-0.07977162614196989,13.621192604742197
83.04131902758297,-11.690993716193544,-0.07229518544158957,14.233737209775478
82.5030361034767,-12.074917829756656,-0.09409358325948618,14.286169627020485
82.40698777439376,-12.161067598112377,-0.0748805837317355,14.546158702270663
81.17009916361336,-12.613839088884742,-0.04438624041211103,14.377047217304094
82.09940276296312,-13.757249585588955,-0.042608429098684605,13.350154752557236
83.8318940155961,-11.692429003185229,-0.17289462108857578,13.465518485220526
83.79678514888327,-12.156687755631197,-0.159632351209376,13.491496096913439
83.79225761727061,-10.696586166568295,-0.1716806294084058,13.90988751377943
81.1528644824841,-10.500634903440432,-0.11997952871124531,13.941342436754544
80.86725341214478,-13.231478775347552,0.04152598382475836,13.741604210560114
79.69504091209103,-14.54136840554338,0.03962653906549147,13.674827621395107
79.66172641756339,-14.066824030782621,0.04368987250154982,13.46900842235234
79.45270426449517,-12.485603549156423,0.05348348365309499,14.017936575075353
79.61457370446817,-12.793986720786254,0.04337352994482287,13.185988632111577
82.1387362749794,-11.441754493631464,-0.07262145544585427,14.104384435663906
81.3456936414007,-10.906972442166088,-0.10425552592673834,13.30797158768901
81.64550398814576,-10.39566784506592,-0.08201913605500939,14.162770991118437
82.63788684196889,-11.121720117989387,-0.10316787347597982,13.112270945942697
79.46912201654256,-11.661945704734585,0.04402651985302082,13.605732630383963
79.39110098016086,-12.690946640071438,0.03073662846485059,14.272370132462806
82.04931661558905,-11.476336195691438,-0.08184478413055707,14.08848555336696
82.39742583853517,-12.33432039149519,-0.046367559344171104,13.762304196678615
82.27776796439193,-12.976789716750611,-0.047363242403367374,13.34140379155227
82.27776796439193,-12.976789716750611,-0.047363242403367374,13.34140379155227
79.82212133990673,-10.13457039260495,-0.006045815354415788,13.819964926819324
80.15823832338137,-10.783916183014302,-0.04320491515992533,13.81222194661695
80.53190277119771,-10.953612590969612,-0.029616252766017082,13.93185469301056
81.83411047412694,-10.746335350053613,-0.05154038316828159,14.127226622363889
80.69015939497245,-11.65484643915055,-0.10013912725861118,14.437718374957049
83.40094030790308,-12.340599700306736,-0.13715978181980504,13.036621995379187
82.58593098573508,-12.439179175861957,-0.08650925724551999,13.999955502329405
80.51690995294632,-13.017112117623324,0.00396795553314986,14.071671214430008
79.94411361809043,-10.925423588564605,-0.02507708013711792,14.363035054213094
84.52904094858624,-14.105156087643133,-0.1474906690640657,14.421362619060364
83.78654719086737,-12.189251476531647,-0.14633320849852965,14.379647453717915
87.10624479806283,-14.258371562266774,-0.20979317883135182,13.738449920760795
83.04828681717872,-11.454389578234569,-0.12720292647910372,13.073171378725723
84.09004139723778,-12.656808376303413,-0.15325056935975234,14.356053803977732
84.36202466434314,-12.88954232464608,-0.14906993387207984,14.457957097464831
82.96685170937042,-13.477028102600428,-0.07444747792244627,13.036103191701978
82.96685170937042,-13.477028102600428,-0.07444747792244627,13.036103191701978
82.35531271354478,-12.089400465855212,-0.0741721409015751,14.29138893630878
83.05105700497661,-11.144398385619425,-0.1507969327210455,12.973678827463006
82.89882524050219,-10.524756228942122,-0.15312720725995374,14.138165831426571
82.90315653522647,-10.889575341188689,-0.1666278643163823,13.393232833358757
80.91121627096858,-12.889532021056006,0.07515198690044399,13.479423901681441
80.153093846651,-14.187133690770388,0.06323734115161199,14.054297211439419
80.32444101434193,-14.193838221049294,0.05369185289831008,13.657390617170112
78.98502854514372,-11.497297949007795,-0.008038693133041404,13.795867380946444
78.46896634753925,-11.849043753628704,-0.004641055670242793,13.705534304984264
78.61677474699776,-11.378679328884747,0.020142751085776383,13.881026815240679
79.13437135933611,-10.455737390551036,0.02559235911272506,14.51396126538853
79.45605931950207,-11.695861435738099,-0.019025561639393108,14.314585328703355
80.30587356777278,-10.645218123542707,-0.02726576388331773,13.443213985398833
79.61122643627021,-11.123533889661667,0.017197366943108056,14.320363777817786
79.91075015786954,-11.344399979614137,-0.005293253550468297,13.370877179727644
80.83687888049965,-12.680996372553576,-0.004430640166625841,13.846881566136469
83.22017496050204,-11.730138821957555,-0.1262508722926038,13.13406660138518
83.22017496050204,-11.730138821957555,-0.1262508722926038,13.13406660138518
81.89871172502751,-11.270515025931232,-0.09254298879607226,14.168678981710396
81.10325156400572,-12.190732267803934,-0.03386604490231577,13.126158050990384
80.94109177335875,-12.103473020559898,-0.014591981949978957,13.330142858881967
80.98017100955028,-11.744515806444433,-0.015064677681139189,12.843467999845473
80.9514770480463,-12.073969839351058,-0.006351811042093338,13.450775067023256
79.83986247822304,-14.563822914902916,0.0609731540486559,14.565221461863592
80.55427503493027,-13.17362271722827,0.056491475070994814,13.861645199124691
81.64558966098771,-15.536764393099542,0.019105242666656745,14.064332344833888
82.56137833520731,-15.587847672888115,0.004652584187925662,13.227643081431983
80.95336617358471,-14.25889999696395,0.019978083164733457,14.09742890495754
79.5091451196547,-11.007291971762879,-0.005981997502586642,13.807483089699385
79.80656331782613,-11.23906647836713,0.017221632877020353,14.074335283728997
80.49584018520986,-10.081621743072464,-0.09928730362465117,14.162536710108988
79.48960588099195,-8.605541626063888,-0.07892760864972653,14.101461365191618
80.51052012112615,-12.222331812029632,-0.03528905609627693,14.066877462901656
81.5276724610617,-12.101219113415874,-0.004218977260565353,13.837427896830222
84.81447297810438,-11.708190867382989,-0.15361015131342007,13.89012438801565
