Intercept__0,predicted__0,setsize__0,rt_sd
3562.49049324355,-516.9971286583478,90.43340992726196,2244.299721688897
3561.9192580360227,-515.0028647343072,87.74194628977628,2078.1957650072095
3546.1617495538744,-523.905688874922,83.57067989309971,2116.2249469558196
3545.4858398779515,-531.3837371338466,87.05786901258125,2126.0832158343806
3541.7747628206685,-539.0261553149037,90.65211189233376,2163.0046972850673
3545.1630383220245,-553.9969561590195,83.21661930598609,2122.4496229667634
3606.2108033231602,-424.87233767707085,87.12158947986883,2148.1509418797973
3603.792848126071,-435.36272632720636,85.21019688278338,2121.976679549763
3620.3026045904753,-434.0345550788563,80.635472196792,2163.2086261900217
3776.0876754408996,-591.7364423017458,80.5433183452417,2121.2389864113666
3738.0273578392976,-572.1055869906454,76.2809617279125,2182.3168524991756
3723.1558845555674,-568.8028622457895,76.78657254741772,2272.2334193644683
3707.093195026747,-575.4012373296185,79.44687167237534,2184.988045058215
3707.093195026747,-575.4012373296185,79.44687167237534,2184.988045058215
3708.462245472141,-569.9672996280798,86.77433766709085,2090.032782429699
3538.3270189636687,-200.47719380905212,82.88544359940667,2064.568817457866
3538.3270189636687,-200.47719380905212,82.88544359940667,2064.568817457866
3533.3214624738926,-203.0306636866723,84.05340698483336,2048.367798985452
3542.102332885493,-192.78461725470487,74.93558688407562,2181.5482754110217
3542.102332885493,-192.78461725470487,74.93558688407562,2181.5482754110217
3542.8110351616856,-192.0681374928719,82.45433348737677,2206.931499207356
3558.7040305041296,-167.83004444090756,74.50557562048714,2304.6588511566347
3547.4403653407308,-149.9666706793219,82.53356466683276,2242.0600030715955
3558.7776915651366,-137.1594663055099,75.483208203419,2229.6710010896795
3559.3235147190903,-139.29174430566292,77.46597942625912,2089.0501262521357
3638.323061641447,-293.4185891413227,81.27128283581764,2167.3319397198766
3651.8750624449617,-312.4609894785344,77.48397573189311,2133.1313827970826
3644.468968452589,-294.9427094914573,70.57015357469344,2136.348325125377
3619.3575912669157,-378.38538679558303,83.12012368802286,2176.5511940324063
3620.930992092379,-376.56121959252954,88.17600870391712,2262.3664935082375
3607.0528204871334,-374.4020930151461,87.83177422460857,2269.4923609061016
3608.6232739019338,-366.37281650457913,75.8156023626115,2171.010571194882
3598.6964295438415,-360.5054276009362,73.1302735260819,2128.6340331478677
3686.9113803679625,-396.76986790678643,75.28749614604213,2224.0535331115148
3701.810120026523,-387.55420428551537,84.48383228688807,2294.797712252765
3668.964533787613,-415.3543361128276,70.88010421072671,2295.2102500900237
3670.6767363786935,-413.70190097623555,69.86136860251396,2298.2324379498236
3662.4500906118697,-402.66542397037955,75.26684017137823,2304.755051775552
3683.1959499008562,-402.1071973173752,82.86744694276203,2136.261035304535
3687.805507289051,-385.9200750218503,79.79774033327983,2125.4364810114525
3707.152010179088,-359.16689227840953,74.75369374108139,2193.2426663842307
3657.4652498604814,-452.322040287583,80.62227074022344,2168.3043717976
3439.523002640331,-246.0808577008883,82.55344096014481,2124.0846977339475
3449.2514394499112,-256.4989773880011,82.77355039954475,2137.0166496002075
3792.4125830770677,-255.63801126925668,71.84441459650452,2156.487785867859
3724.4833878572153,-285.4512827896494,72.12248481319715,2121.5408436264756
3738.586132592106,-260.88861418560026,74.69090388950687,2173.4442222496837
3281.132523479101,-386.42037239018333,89.70392379311359,2157.3078944676513
3341.5082248502754,-496.8939330346431,93.83866678902761,2165.3802068248515
3335.495954435004,-500.1529275573251,87.87989584756988,2111.212245364852
3130.647895143285,-110.24378371344606,88.01656447806805,2123.1818026725095
3160.7464385212265,-107.37435275806111,88.16376270704399,2127.2382900937805
3160.7464385212265,-107.37435275806111,88.16376270704399,2127.2382900937805
3185.688202916913,-118.11251789122822,93.13759135797224,2231.714180911378
3170.4472240715636,-101.94832649838936,89.11200397005221,2102.2528015550533
3218.5448204085637,-165.969422078362,94.99026454041902,2152.700280363264
3218.5448204085637,-165.969422078362,94.99026454041902,2152.700280363264
3248.5653950124374,-441.2122223303674,88.39296992512872,2124.1677905305214
3250.9255528262283,-443.6547758946102,99.09874156852784,2208.917769815302
3280.84654848681,-396.52737519578784,93.15543612921388,2179.323700147918
3246.6539068310562,-393.3538154516774,91.68371898063025,2103.769241867317
3249.943766230543,-391.6547665212997,96.92841289266788,2186.7526303095183
3283.0072295721884,-426.49846122261334,94.25614078627603,2218.7936460452693
3282.515738117416,-421.13277229716186,92.1643149403104,2247.719029240352
3285.980477373997,-430.18193872335155,94.51135279263359,2225.7591250415135
3293.4921548925095,-428.32863090223384,90.0705428253109,2138.235585047796
3287.6522138498053,-403.94571493450496,97.78415445550874,2274.6164084898624
3266.260332301173,-411.70170117393496,94.89884272051505,2285.3124322219046
3268.1230588004587,-421.6263054621037,94.27992531030921,2048.633418643651
3250.3011222718965,-439.0893800273216,94.46431774816747,2202.329642780039
3249.460257862603,-441.47917631322724,96.48431536867831,2044.4789230146696
3177.1685960374834,-291.7826060575703,92.90359757586623,2299.040010556053
3173.3956174589052,-294.67515037742317,95.03933141026322,2276.0454234197828
3146.1835634779686,-309.56760570198037,92.61209761989086,2041.418724373371
3146.1835634779686,-309.56760570198037,92.61209761989086,2041.418724373371
3144.9299096991103,-305.88149878219195,89.40264065671809,2106.0607551554926
3263.6152931969227,-256.62884638644374,98.5360314257723,2213.101412042092
3270.209323408933,-248.05210144198827,98.42311822104364,2207.276878956701
3313.056334053663,-380.6400603769198,84.76327529350492,2191.362747253176
3290.385788075918,-371.64116822794705,91.10578798958967,2082.8961707585045
3309.6077744561526,-349.9613194540772,89.93143047052426,2044.8273678675428
3315.7634250538617,-365.0591982129176,92.15250998355775,2188.095458815081
3289.723886436616,-413.4859418983869,93.39938492185568,2221.0526995639143
3295.8441552512813,-434.4376778585691,86.28307094255608,2136.478587710563
3399.7764503852527,-43.48620217250851,88.34696191733302,2117.0763417680446
3446.319557693861,-6.78422623878467,87.38620040549084,2195.7362611660874
3451.220635002408,-32.864884156149074,71.92551519501974,2171.8163636904783
3451.0634195593875,-6.808148698384583,83.68484994111614,2130.0961629707726
3451.0634195593875,-6.808148698384583,83.68484994111614,2130.0961629707726
3451.0634195593875,-6.808148698384583,83.68484994111614,2130.0961629707726
3406.7420889031755,10.821291796124482,84.60460082020028,2034.4339220670597
3406.823298096323,12.126324501186437,79.79097352981027,2041.496632365926
3337.508691240938,-57.94032144336993,82.88338486301133,2244.727514725756
3333.982131330732,-71.36301589724428,82.94776346919518,2304.1065346162413
3335.6721867383253,-78.4922500712405,86.01656935130882,2305.3622894880373
3324.467524359501,-77.72821366939758,85.1528031015105,2264.128770974383
3325.2478303530606,-84.95194116181811,83.10886112071609,2314.2935569312604
3320.330473047977,-78.60479528108837,88.66125128904743,2311.9411404274992
3512.912727104781,-187.3689375442663,81.58042688028165,2185.9664807675126
3840.827303971373,-305.64072457251655,70.55551378546134,2196.9373931974746
3844.8631130193944,-278.53682005714,73.4311069499527,2271.9283776080697
3825.710441228427,-255.8513513536562,70.45223339374257,2069.7058182770447
3835.417004231721,-207.12429647581092,73.1227985719351,2231.3680325086157
3834.0086939441003,-208.48441303296755,72.73339565583757,2173.524759213978
3773.9921575324624,-274.80590686992895,70.9474654402376,2185.312531158941
3753.554651194591,-299.7672904980721,70.70349266537468,2158.77763771724
3760.150328433047,-228.10107630742579,69.88315779941183,2114.877457370474
3784.748527795928,-239.09726674953941,71.0216410897925,2257.6621141697847
3791.7864448348405,-213.58902256873355,69.82500567088186,2215.499158693777
3795.3909745022684,-206.34392541326568,70.4173725169628,2028.1241878492206
3813.9566662951347,-141.87516879591163,62.87343092967084,2112.7287874257495
3881.034947747374,-223.37671879608072,59.997298993676544,2169.4611705379407
3859.0767859821267,-259.46917159346754,68.70257817597428,2175.9476972709417
3836.2216803423134,-247.1969975466463,68.4466591280011,2271.189209676426
3834.2887262454415,-245.40588958368429,69.48185373338866,2262.2966929654867
3869.055407730382,-255.8663984435228,65.35235632169321,2220.7619614234113
3880.477815490324,-261.96577807018593,58.42310533201497,2147.142179693778
3828.7585878919595,-414.27962331425533,79.45227448984024,2147.6640240399597
3830.6757073914564,-417.4159122439947,76.40085794445908,2218.6811161127052
3831.7328904848687,-420.4176328822038,80.05972408261594,2115.840891825032
3777.0970918826897,-385.8953679342913,78.53082567912871,2186.499172970877
3775.4898841518893,-385.1886674205407,71.74815150719434,2152.1653802697283
3952.9362088089256,-453.89819909199235,71.44469763692967,2114.6413909136927
3919.847660416645,-457.2912411926996,75.95722467119049,2145.379225602738
3919.847660416645,-457.2912411926996,75.95722467119049,2145.379225602738
3919.0533340111197,-457.61026524443037,74.69374540674623,2171.0118761857943
3918.489791870601,-462.22219088796396,69.58136235508485,2211.5943942126673
3913.871152270598,-480.3442651900034,77.96366668645358,2144.7775900341535
3907.34626179089,-479.44116175631996,75.581495376572,2245.1249748538617
3907.581891351412,-478.4449811717058,74.35748626285795,2244.29408008136
3903.046659555299,-482.68985279730555,74.27847674661709,2241.5579406475013
3898.3323752683814,-466.8854469511154,71.17467772171725,2228.31023374824
3828.879125843309,-432.1164979032726,68.85715396386456,2146.5657824580107
3847.0366990395974,-476.1076668086244,75.9235056003524,2137.3254872882767
3854.322479020826,-425.9920972362295,68.9209742762463,2200.730004952058
3838.759726648188,-430.14514415633016,73.5814661874795,2218.2346624882666
3838.691168252755,-433.95818138072394,66.29261401877385,2214.5456690285537
3531.527810072011,-660.9283197120824,85.00763778232802,2200.6002155563415
3534.0383636368542,-668.1123838928013,75.18917043939837,2123.0988293270625
3542.2696573920716,-653.6036226972449,76.50635998707773,2260.942201957432
3539.5357424734366,-655.7050114675251,77.67419969508143,2189.5801058701013
3535.6325234018746,-623.0108520556038,86.44214186719405,2106.1762998980576
3525.8942163581023,-618.5902674527034,85.61066903909277,2224.4890821165445
3526.02575822296,-616.426431115092,82.26767011005334,2225.064295785039
3498.3575704054324,-605.5365837941617,91.37934293483997,2214.9538493586933
3478.4944312885605,-597.7578557973926,95.5136094940417,2295.57936380249
3499.852104013245,-581.6662058363236,86.98423264789079,2289.5369419358553
3500.860363368702,-577.2880081873448,84.35932386327731,2305.1701158914493
3501.933846212411,-574.2864481111498,85.87394065152354,2299.1715363747207
3492.108136811021,-579.2886480323693,89.18186706267723,2298.9399683395604
3505.1905626899925,-579.3658027271241,86.13971479599653,2282.493862463857
3492.6014708511116,-593.594432633515,86.68808624587692,2072.3130454061147
3488.470212304501,-549.7758267767507,90.52082041648889,2130.127812366601
3502.957783933958,-523.9047636978829,84.47732927567324,2251.2615425875197
3481.617190801293,-527.7801537382039,88.1496805275528,2085.911600535499
3481.617190801293,-527.7801537382039,88.1496805275528,2085.911600535499
3808.701875132423,-422.4931773505592,72.38330844582083,2182.18038780172
3590.7086579130028,-290.42769327162256,77.71161721212361,2085.479661678131
3595.1608085998923,-328.20312794473244,84.32602637314388,2144.307773598251
3591.7098689761706,-312.427684652487,85.53988841693882,2198.79833815874
3631.6763645273045,-314.6932209579299,74.85579467497845,2129.957671524826
3627.80231960048,-353.3772658522144,75.17519629989097,2237.896333501843
3648.570684639362,-352.15693655557766,78.57789740819592,2213.0514328332565
3656.7928214718936,-338.61383597898623,74.97038446407896,2097.3374988935448
3656.423545050872,-340.73612778650255,72.90551765199037,2072.2463407799046
3661.188022728599,-343.47444056663517,86.31297019100836,2202.8173746538278
3664.703728972378,-362.11099895885036,77.34338998290161,2070.4485430085147
3658.7754228706644,-362.087208863759,71.50698947379254,2073.3597567239754
3636.535982821927,-337.6528217137082,72.41899777394636,2108.4979814371445
2910.348037792249,-270.57649673670306,109.87907451252575,2185.769776540383
3103.23499177555,-228.23847388840682,100.5883188934002,2090.041790256481
3103.23499177555,-228.23847388840682,100.5883188934002,2090.041790256481
3109.5507815275155,-250.70999918745156,98.76110684874975,2238.1493754499825
3102.814945140948,-259.30477927589953,93.5782601094479,2127.11566076546
3110.1085003010353,-260.3932246671242,95.89740701342521,2199.5710674207266
3106.5710317970543,-268.44510877151697,95.48645355436972,2149.016695142589
3820.9598130939667,-484.3580242560897,73.03589063917462,2167.8059649998763
3477.5506696413577,-568.8978438841287,87.17894737679859,2118.7602702235954
3477.5506696413577,-568.8978438841287,87.17894737679859,2118.7602702235954
3557.53609933439,-83.30597640343828,75.25534288288625,2166.2710220255008
3613.681668257746,-187.39313033285651,75.98649484572456,2075.0213684297205
3540.6521630338075,-126.07458471422888,80.32944970873133,2147.359413773105
3544.075574638616,-126.03481643485395,74.55798533227681,2227.074319028675
3575.512278494735,-146.82934621844382,78.66779679611537,2195.466140063579
3579.921622105335,-130.3093663836733,83.61409965329558,2123.2233224627375
3578.8503249399355,-133.58509902696272,85.96267378759899,2188.916822635145
3591.238023061825,-109.97042719999948,65.38435191109578,2255.5504663673414
3589.8066277253743,-96.820509998215,69.21856152544116,2222.617664795703
3568.1402712320955,-67.09747430061734,74.64552141129516,2204.8399366263584
3573.140051901015,-60.22279183283432,74.44762188072778,2190.3286388839206
3573.140051901015,-60.22279183283432,74.44762188072778,2190.3286388839206
3570.5218101457062,-57.94817682089998,74.60645340467431,2101.3398543335206
3316.3754607320975,-473.62305223187207,94.07382186565496,2065.1540855712037
3383.6749219086787,-504.8690857944497,89.89511142041215,2186.136607362069
3389.3615098966507,-517.024108874115,103.67667524754522,2223.434603440984
3386.6366642682206,-513.1408033876928,88.29206248420431,2155.1093267693136
3386.6366642682206,-513.1408033876928,88.29206248420431,2155.1093267693136
3421.4846968954685,-549.6096261402255,93.35306853330529,2158.9201019848592
3430.188597321686,-563.4181041942726,93.57630963681856,2216.360239736175
3422.4537898182734,-553.9080780722516,89.82947135743632,2084.090663386329
3431.018630447449,-525.1875555745937,86.21195141607926,2134.909759372538
3432.4538340995555,-520.9470315753628,86.72082786769118,2017.7668209348392
3432.4538340995555,-520.9470315753628,86.72082786769118,2017.7668209348392
3440.95009067693,-526.6683454175696,86.29149709999585,2015.3280925334684
3447.233187115135,-550.291250520787,94.14470440591438,2213.8836289082656
3477.3741600863586,-516.7024702935136,80.8512735394548,2256.769031632475
3467.2761798949114,-491.9664701171102,92.20520444314926,1985.5873120344238
3467.9072128305493,-498.7554044933739,84.00813135300328,2047.893351307635
3496.093592762769,-495.9874599917824,92.43329891793196,2132.471464510882
3513.7781507154614,-463.6246460429619,81.80555184980406,2141.0955638681794
3513.7781507154614,-463.6246460429619,81.80555184980406,2141.0955638681794
3512.6575348951933,-479.63491289612955,84.20448124675788,2168.5057831901754
3508.3781979504934,-477.4622731017224,83.97190210992129,2232.821038491056
3498.7645034808925,-496.36382799031554,90.82612242672998,2223.7108361680416
3482.4119114377754,-449.9969276517595,89.934344362957,2022.3342746987278
3482.2499895388664,-454.7880784083456,92.32478973671104,2069.646834974406
3500.931395257348,-430.709566376292,73.76807440523898,2242.021649498669
3488.3317297716717,-410.74255438375985,85.1112449331949,2113.630745980988
3842.1533044186294,-437.09654358832597,72.10478127820404,2108.456512306196
3858.354033294292,-427.94859769429354,76.04626367014743,2090.4543246914554
3858.0774702585213,-457.80082711505526,67.85819902371628,2211.7884482061695
3865.050128543926,-448.55339032182667,71.21203419545253,2130.7250595924343
3911.1004128701707,-473.2103961856552,72.72789093539511,2065.2056558020868
3906.0726054301667,-466.49442837122626,69.60796411062773,2241.6642176581154
3911.9647195331545,-460.157494355318,76.86430432968497,2239.0741340162863
3912.49175686425,-466.4618715139094,71.2792918496231,2072.0360568593383
3911.5263881986966,-448.80111884845235,69.06187166158324,2156.211187358062
3913.176651911523,-439.9145742587131,71.34387258615291,2220.484654773133
3895.126442724834,-521.3212543762912,70.53969347708792,2074.633852274487
3786.4227430487235,-438.1425771746861,75.83380180474094,2106.1081035480547
3807.825918471401,-556.8935862645714,69.57070043122992,2178.5289748503724
3829.836405286293,-563.5883433611868,80.14398925188894,2281.506403984865
3825.330785470056,-568.652860359247,71.14876338057122,2072.6777419417735
3833.9281793038467,-560.9697432203636,70.84784744964682,2269.8672674572013
3838.6377270694775,-563.4035840558248,66.01915977864161,2165.104361822911
3829.4651306306046,-527.3673783923773,81.18411219237161,2126.4721874704137
3823.014203089984,-529.7294848305112,82.4496962151176,2189.051830608183
3868.1446013021036,-774.6321654242973,67.70024753675584,2179.173286871707
3872.097996907981,-773.5064641900397,66.01460136886129,2211.0591637165066
3884.092244421423,-777.6829390851186,80.20159905453727,2164.9077572920432
3954.508134638588,-749.644725162912,76.66352659601701,1968.2499271530342
3962.370796191555,-769.000402282569,79.63213574599654,2278.621207948382
3944.5356896719895,-757.3349630719962,69.91651598299241,2148.0732231991155
3941.3179172805762,-755.8483266912783,67.14252512958868,2125.563395540561
3941.3179172805762,-755.8483266912783,67.14252512958868,2125.563395540561
4189.66455887133,-520.401726882105,68.70750855414789,2121.2341620538014
3705.021676605332,-443.3846381338416,80.79730332636777,2206.566990800366
3712.7683923978784,-438.4483589962981,66.8364504615455,2185.0207681583724
3718.756525478077,-441.4857345734284,75.50827834448336,2182.093271200846
3718.756525478077,-441.4857345734284,75.50827834448336,2182.093271200846
3859.440536156749,-158.25540441274742,69.09686653573684,2069.6058310927265
3859.0754899154795,-162.7329185384406,70.45499291187238,2083.4331311988467
3858.4063014025105,-158.87925621795324,65.83500144579028,2262.1648694169353
3859.454288654948,-161.29984498860952,72.54025692100129,2248.58591251863
3863.898661042766,-128.66988312474882,58.249222045894726,2265.4491016816523
3861.783637813578,-133.43759003451552,60.546035271717635,2245.8065376005748
3866.1189818261537,-126.49464505464613,64.6357222448757,2128.870386014982
3866.6831631884847,-307.2477550287322,63.71273172005158,2085.1820835056715
3866.6831631884847,-307.2477550287322,63.71273172005158,2085.1820835056715
3866.627943931515,-306.58987498008673,62.21462964249358,2236.28898411866
3862.3665032026033,-319.5561013739585,66.85877860620552,2068.122487584051
3861.2831067391808,-354.81601953415463,71.40861638474165,2054.082507087737
3857.82398027994,-359.6601490445419,65.17650282716922,2057.7602659784384
3826.3245576065956,-375.906655953692,75.73085266845294,2103.348088228196
3822.8126324047653,-374.0742111405787,77.36362204357451,2170.0425756395593
3824.9233569280677,-374.13087942419764,75.39475734095848,2197.0479288438614
3832.6889958599063,-501.5931882509463,78.44559402736388,2112.8226864300063
3831.936941105727,-480.0698516274732,77.81041742111705,2265.5900473899196
3803.1783411685856,-471.8298280929725,71.29352923293972,2071.029601485567
3719.973388800051,-344.0293117547423,70.2351267852268,2133.0840508726137
3899.895280445553,-195.22340597059,70.49712072385147,2138.488641691212
3853.3786798521146,-320.2713717459186,64.27985353118187,2149.1587585699235
3853.3786798521146,-320.2713717459186,64.27985353118187,2149.1587585699235
3851.0807729008093,-317.65341868836293,67.15115662000524,2039.3730930959666
3849.021657137221,-319.01762293099245,63.27191033891306,2204.12767167075
3841.5339359325817,-334.38961386897296,69.64584134925863,2051.5308782584007
3845.5535196353726,-336.7935326811146,66.64625012192842,2066.722321892043
3828.698990165069,-320.3685005331039,80.84936976242676,2263.9448165021304
3850.8572079166597,-333.94983871859796,62.781208394518124,2185.5680933603
3838.0612054520643,-341.14094156740293,72.08541498204396,2248.8143448065557
3825.8568632690444,-350.2153813857048,68.93307342396074,2131.5973800509287
3825.331097683381,-319.1223652963001,79.060727568215,2120.745128720126
3835.6364239545746,-330.55967960496383,71.73454191679765,2216.353487768535
3849.783860385703,-316.9901477876586,70.66300134873698,2027.7343834752412
3843.7590656545535,-311.6327923812279,70.50795713468132,2121.9074368894294
3977.8724641377858,-240.38915259367087,68.66753722158427,2151.5721129383833
3994.0413120341786,-275.38932870187773,59.134526824215236,2129.240130947395
3994.0413120341786,-275.38932870187773,59.134526824215236,2129.240130947395
4023.080176284302,-294.4087451075143,67.03664345341626,2128.0613281317824
4022.157728590363,-293.0721501964035,64.92090646307864,2119.6886657818054
4054.4921921774494,-269.81029434909016,60.924605816838096,2173.095601461363
3954.033846946192,-334.7962035499926,66.56577588616804,2152.0998153972873
3954.033846946192,-334.7962035499926,66.56577588616804,2152.0998153972873
3927.8326446917717,-330.3714337995458,66.56112114504307,2111.547840719451
3699.278822315826,-564.5848391884632,81.05226712681078,2130.186650016527
3699.278822315826,-564.5848391884632,81.05226712681078,2130.186650016527
3522.6894305440237,-156.73707334299013,78.99696760875176,2098.5550854536355
3522.6894305440237,-156.73707334299013,78.99696760875176,2098.5550854536355
3522.6894305440237,-156.73707334299013,78.99696760875176,2098.5550854536355
3527.6886947115727,-159.20504259966947,76.1878773312505,2235.228224787997
3524.4711870978927,-162.7755140460198,73.9128158014064,2151.992130158594
3524.1835202038583,-163.3260348932831,84.18175552809123,2140.7234670804364
3563.033416778135,-80.0307419728579,71.93250362605573,2178.175491278969
3896.032918860929,-500.9558994794926,65.66265659104124,2155.3292767162466
3889.343731786632,-653.2527594370221,68.05969399992384,2120.4747351337523
3860.008678939497,-588.4230392463342,76.24329322483719,2215.3868009517337
3854.7418956349698,-585.8377927106297,76.95144079881813,2223.4174405338767
3852.8648299465576,-590.7214029525253,79.72635558229803,2085.9388702002366
3829.186630392594,-612.5131295635381,73.13904323501941,2199.9310030596143
3837.4945292508096,-447.34945484451424,74.93099524126944,2288.375533946627
3828.923786230568,-451.1158537637209,69.59690498446611,2210.1342609356548
3834.3185215520634,-449.8457284390321,74.83575921892111,2221.728743798818
3778.4034652589676,-463.7699234070547,76.93895035251406,2302.811745699159
3819.384876501126,-434.65696579508136,69.52570698605908,2105.122689393127
3845.6816956342673,-466.0535064654354,77.64486047661035,2189.085345825586
3842.9876031510876,-489.8179199522289,72.8831739341563,2121.2174534080636
3842.9876031510876,-489.8179199522289,72.8831739341563,2121.2174534080636
3842.704062624871,-487.76538790837253,69.34115532632028,2186.979989278727
3821.1101779989795,-670.0152230788801,82.45100164468157,2180.4389241033796
3822.7007986033814,-667.3470748397319,81.02800417208188,2236.4654407348517
3737.1445525863082,-259.6171970980719,75.25220385623446,2104.195282170627
3812.58610048807,-262.7639750340282,70.66345874784993,2186.953358014303
4078.2252439604927,-336.6659845690393,60.59249404822013,2194.7870543362737
4017.8328120475103,-366.4496889532292,66.87449697397366,2028.1760196839496
4084.6200980149697,-443.9027833496555,63.98619768731554,2057.4822558074584
4099.938372711817,-430.78538475401245,61.30763992591147,2158.679609109907
3822.3441539946966,-3.2186398762585204,63.8790520625679,2108.751371317092
3985.1332901617625,-241.30758271249712,67.66809417509522,2080.483396269091
3987.63763527023,-242.996454651812,61.63696638274176,2115.199405137985
3999.368783605254,-241.74776036972702,68.30004060828745,2258.1176738060453
4014.559888146504,-259.08928072991074,60.575291217389164,2064.358947713772
4019.360367504312,-254.33486506316612,61.57144154886543,2194.3572983691365
4019.360367504312,-254.33486506316612,61.57144154886543,2194.3572983691365
3879.7325847336288,-104.7589237207181,62.065727247735914,2121.979344326325
3879.7325847336288,-104.7589237207181,62.065727247735914,2121.979344326325
3879.7325847336288,-104.7589237207181,62.065727247735914,2121.979344326325
3878.5192577972307,-102.90864225585906,60.24911838041903,2162.932844356777
3893.5937409194667,-110.16760293825378,69.09630879040019,2155.7062443062655
3907.7929556061076,-57.18609645781392,60.77976538350778,2112.01336597863
3907.7929556061076,-57.18609645781392,60.77976538350778,2112.01336597863
3891.2680231817226,-77.66495767838309,64.79652526477958,2098.011361203208
3924.3327028658377,-69.80899986908831,60.21248074460244,2229.711293837869
3946.148610613007,-67.04620571084867,60.28087820292954,2125.3281983519355
3513.7003528253717,-138.852969115565,75.90597050881557,2122.8094328580346
3515.4646400734764,-132.34771200440477,75.58651824623055,2131.3267842790706
3515.4646400734764,-132.34771200440477,75.58651824623055,2131.3267842790706
3500.935610571655,-143.9754627759168,74.8111040651495,2255.004946518525
3522.303831273763,-147.41979707345118,73.42493307139264,2210.107011497651
3520.4574384429934,-140.43157382545655,76.11193706960486,2213.729327410451
3489.5256380152036,-187.54804650395812,79.63798349568246,2198.201396251204
3382.8154079863984,-445.51345128928585,88.97419369277965,2183.708411440806
3384.299083649994,-434.3778942098045,95.39081688960763,2210.834984383039
3386.3432722172797,-429.6621027460036,96.84352431342792,2250.1039381765077
3386.9166846898156,-424.9451973779896,100.33870024861125,2243.228482562456
3387.257469902043,-390.55297393376406,83.54126316859029,2191.478630079621
3397.0239044549853,-392.0591916967911,86.10970011289976,2192.997572550546
3382.59065128804,-397.9980260881814,90.74004769879099,2234.026242195963
3376.8917093510963,-397.2663102503954,92.14539519887447,2117.610499244211
3363.3761268406906,-87.23509140748989,84.7334287691747,2169.921923091736
3427.6420281993587,-144.74041214879873,82.26490122225889,2175.3623782289083
3495.217806383639,-82.36104838855456,79.31583666456983,2185.900357217358
3459.014307502633,-73.43717160919934,78.354055175246,2141.6294033671397
3309.6819650658786,-89.97066183898032,86.84345563762457,2056.2495130810585
3309.7271198220537,-89.97628406613491,84.00845980224763,2144.5914845191696
3303.777806826453,-92.44903310224399,84.00276332723553,2230.018405054402
3150.6452095881978,77.2672715793418,89.65692028556738,2197.036960502771
3247.578930408186,76.77154890810782,88.10021626723494,2224.3959618089275
3097.467501729692,136.57500916478665,93.92447356632685,2135.5897023209404
3140.401184272255,81.86534129407426,91.80333390833364,2127.9831212927547
2903.2537622624086,-62.24468194722243,102.92697942142253,2167.8867273449005
2881.7872005871977,-76.18379380659061,95.8236436200332,2228.3686785763894
2876.531905124549,-58.0445485936729,103.42250921973948,2200.6388603586224
2906.4259477412293,-81.97693465934334,100.15562565262768,2226.017637879334
2927.206318126344,-49.40310823533052,97.81623757593246,2231.6641505980974
2912.7318181171727,-85.67757281239611,99.23362622342468,2235.073642693435
2903.099466225736,-17.35463281989135,94.81856429294035,2288.959287589839
2920.2150818728805,-26.55769017263463,100.91137006927109,2216.7530199853845
3064.3230369292783,-264.2009991949345,99.5064224165783,2073.106280358212
3064.3230369292783,-264.2009991949345,99.5064224165783,2073.106280358212
3064.3230369292783,-264.2009991949345,99.5064224165783,2073.106280358212
3064.3230369292783,-264.2009991949345,99.5064224165783,2073.106280358212
3198.221228754733,-419.4150480518134,96.18439758498056,2188.2300277732497
3613.8001394916537,-342.08625074329854,79.18811546150378,2115.9390434689067
3588.494105910124,-333.37100104067815,79.59049113872595,2172.0447549969394
3593.0129729366377,-336.80973059654167,84.4930214697645,2254.2153957482587
3792.219446871934,-350.6236737286556,79.041486667084,2239.228747022257
3795.2981615408535,-347.53251585950903,76.0833745187131,2071.0048008790845
3762.732978504978,-201.99756806845605,65.9311632585935,2199.6929810598667
3765.7652038168267,-203.2552564308406,70.96854609416474,2067.323548814427
3755.1373800679976,-201.2286523700455,72.96316206061542,2081.002924426179
3809.851295956602,-126.47538610541123,66.33194444719774,2058.556968882355
3820.4110967643996,-132.55911415447434,66.37179744166068,2229.6371501490203
3819.4628404889017,-153.85543907455656,67.30628276393693,2195.425915985763
3485.1010414987472,-625.6623064986798,93.27579938368159,2129.1497370600405
3484.7036793726243,-626.0588483859749,86.19809845629023,2115.909742332367
3468.1323994784498,-619.3911029394521,94.8105508542769,2160.5884161081935
3468.1323994784498,-619.3911029394521,94.8105508542769,2160.5884161081935
3470.5682689476653,-623.5780211480516,95.21413537133141,2156.103952063289
3470.5682689476653,-623.5780211480516,95.21413537133141,2156.103952063289
3470.5682689476653,-623.5780211480516,95.21413537133141,2156.103952063289
3435.624856992117,-633.0117789635168,88.82205812179755,2151.3093053075577
3323.442543500503,-299.72230553946474,92.75890204894114,2106.378862752361
3320.245174030171,-299.21822669738253,82.51445291267562,2171.998893877565
3249.6144511927846,-361.8863867228615,87.13193905042012,2187.3194728874287
3253.0822470472986,-367.7594183098035,89.34088437249736,2197.5253840745677
3246.937054289619,-347.87056505027897,95.48887898647082,2207.0066865943727
3250.7999140472975,-338.464942222795,99.34091443219336,2163.77296148224
3250.7999140472975,-338.464942222795,99.34091443219336,2163.77296148224
3175.8070996110687,-162.79187660467946,88.23645501290241,2179.2165827876274
3378.057983446516,-205.84480495095204,85.1439988547875,2106.8566107398206
3378.057983446516,-205.84480495095204,85.1439988547875,2106.8566107398206
3373.9426103303017,-205.75979795762598,82.02948262853226,2157.56257429401
3264.3639168815885,-332.0458881244103,87.18130050224511,2142.9025981119125
3266.7899187695143,-328.8394187778106,88.91893324014094,2006.5890286812185
3282.2800605218877,-306.325929928795,96.50818044931431,2170.524595165809
3219.8695458625425,-315.4976414849168,87.76152400323448,2189.4786991244664
3223.212130280454,-315.7658729046828,94.12784535439195,2156.4691826032504
3676.1405341684786,-288.3063426019816,76.74526020558905,2085.5761906300327
3676.1405341684786,-288.3063426019816,76.74526020558905,2085.5761906300327
3676.1405341684786,-288.3063426019816,76.74526020558905,2085.5761906300327
3629.4049424910318,-244.96962970273563,78.25247768146735,2207.946462207949
3584.944230367738,-256.93658350886733,76.55604240670569,2183.483401324483
3587.3988353415943,-257.16171756074266,82.74054920024331,2272.987222721848
3591.504258723717,-240.4194786121457,70.98821497179122,2176.376923448588
3588.1635814075457,-239.1943914810094,70.5404231131881,2114.686559312145
3442.964199899375,-297.4519689541611,79.65012904487783,2173.201589900846
3394.1575311749557,-342.96906847711927,82.67320563741981,2157.6100088354838
3302.6756811359874,-386.94968729408464,92.0373994780159,2128.3320588087413
3356.7676881141447,-426.94009601155955,81.64361518980363,2229.644938868206
3365.0262208146964,-421.8268183597183,87.49926131304954,2084.8402393741817
3299.3479702060617,54.73109230311371,85.68648010811707,2109.494353801374
3225.09350203696,107.32195272030611,84.48896112027896,2126.973821299527
3205.4357050594285,44.438942184146306,90.48148488210907,2200.0780417980873
3202.9474272174684,51.09307852656908,84.66254673310938,2151.3201704121702
3615.316671293426,-231.346180772539,78.8488468058323,2184.1077531711244
3557.599562669357,-315.3796606805437,81.9650760902882,2312.5590983488287
3547.0818573549655,-319.72107162753736,79.09682340513034,2305.6988542879058
3554.2310576465275,-282.4877156859408,82.87449594520535,2179.938779569722
3557.86254446476,-284.5411388006933,77.71990507201106,2263.1808536240865
3566.2759006883125,-280.59027181895414,80.44617189825402,2286.954299889582
3557.906891339872,-278.82892085371253,75.62853537761183,2303.2210467173563
3578.349843865155,-302.7573490539143,87.02041364609688,2294.2445242083845
3585.0151873662726,-299.6780835759207,80.60522843409632,2283.1055138016045
3581.2162541246535,-297.1687194305691,81.43399904879281,2249.0457074817396
3580.203925652698,-296.3365173636001,86.57724704852609,2125.111262337637
3604.607794661278,-210.65525428010844,71.71022426565783,2127.2783246105964
3604.607794661278,-210.65525428010844,71.71022426565783,2127.2783246105964
3595.802840265067,-191.7044860761282,84.32416792406994,2163.253848303626
3579.08331618578,-194.8569674907758,79.7387662193767,2275.0651464103707
3583.0348619146553,-205.0093598451998,79.09953252811998,2304.566826270217
3581.398062572944,-195.24091252156967,77.97905332669251,2304.199404672677
3575.381630188826,-196.46648185145008,79.65559794190652,2319.7631289689853
3575.2843939261684,-212.8098622523126,81.19962044157185,2318.742030607821
3584.347940708016,-279.32226391787964,81.76291099533836,2051.8510684463085
3584.347940708016,-279.32226391787964,81.76291099533836,2051.8510684463085
3584.347940708016,-279.32226391787964,81.76291099533836,2051.8510684463085
3568.5289387215876,-281.51589486491713,83.86151520577609,2296.145526902652
3575.312178483232,-283.631413792772,77.41139864210972,2225.9140951074846
3574.939312653167,-280.34143378483117,70.56967397404605,2213.19307939941
3578.8129304304166,-283.48519949552264,70.97954814949958,2100.0174016129768
3586.294399893958,-498.8183789491073,90.84284977283785,2187.0470894182713
3599.876447394258,-494.95436657661185,88.88995190716226,2021.7968849679282
3603.36186857733,-494.78291747672046,85.43278957530293,2042.9580575547598
3605.9323360912067,-498.15928561119625,84.13884261363202,2104.623464690273
3613.4438627835284,-487.22145406094984,80.09464550019833,2251.8813449188483
3612.998825828294,-488.87887340571484,81.728099312303,2200.036638043883
3636.048256567575,-492.1769815301266,82.78631622197415,2039.734903536807
3636.006567494016,-494.00535868613576,81.06813442545457,2176.8312394821337
3673.4984095497202,-509.03563666466243,82.12365618610431,2231.384894470209
3670.484231649762,-501.69209311230463,81.72565215661747,2110.282137825429
3579.616433470122,-469.56407485284853,82.04129088226144,2145.0138275838935
3307.3829434652944,-666.3212203227054,98.34991980444572,2123.9487460876667
3240.1903219355727,-649.6429729842579,96.1068295654661,2053.5355119529513
3218.7037956155586,-625.8561347079902,102.45148488525294,2161.9709523904785
3107.859226675036,-329.4244580959813,99.02309903305269,2148.5213276900763
3107.2649410696663,-328.1807870154374,95.47218306148002,2215.0071424482735
3105.1819882210025,-327.6330767692042,99.89940852214866,2214.5908285241558
3107.804223687872,-331.10570324574155,101.85901908344069,2120.824388683888
3785.6315445970617,-235.34540187203817,74.74238416621529,2134.248678776537
3783.006117294984,-238.45087260079075,74.70044653456478,2236.4784089980467
3780.7614216165957,-244.80452430289336,74.54315995341639,2081.6553607279297
3782.3515209684997,-251.59794427832279,72.42136275476275,2224.3489267453824
3764.1959082876247,-232.76218356964705,75.0243685862556,2099.231304698554
3764.2160580954082,-233.01696247610693,66.20144760888657,2140.6116535103565
3774.789926924823,-252.085745222897,74.53005919888632,2112.7125069385024
3783.4983739015943,-216.26176736715954,72.56091506274579,2165.8574273339727
3961.5408296757128,-155.32002623148992,64.47625935627995,2123.8162325779913
3957.973601919051,-157.90777773993238,65.12330602524077,2240.2259718144
3929.554408077845,-163.66788253450997,62.63629919519913,2197.426123283051
3939.5384514657794,-174.07889291979475,62.7589631436019,2199.759136990684
3871.0240110208583,-292.30470266841553,65.83712662780238,2225.839385652241
3866.727131024266,-293.91412035836805,66.71254175309932,2087.177793502946
3866.727131024266,-293.91412035836805,66.71254175309932,2087.177793502946
3862.7089368197358,-317.8769320693966,70.39809847717639,2178.4012997797413
3906.585222580249,-582.0705357987107,72.30560695670877,2127.4052183033746
3623.9907804920153,-503.51254800152054,83.09221995127619,2169.5160565245383
3825.8066216885177,-437.5991438772804,72.18937554229548,2180.2765520530215
3868.713355408201,-464.3427928260077,64.8219720698541,2105.1144356186483
3488.4904613764024,-121.00652803351578,82.38219715144983,2189.619873383996
3477.8798156133475,-116.43414728040875,77.00099838325548,2189.790727367992
3434.119269018043,65.174141432829,74.26299121602317,2158.2717450284713
3459.5112661773524,65.38430483422414,81.17856428117021,2275.528752925936
3427.0454152839984,81.97797285457011,74.82134138704022,2230.833885596519
3422.7520467134277,77.45234578801258,76.07150807908592,2240.4793264428295
3412.0898922801157,76.86260014571928,75.3549426719373,2137.8136609041208
3427.247500019688,41.44520342988587,75.19952240784008,2133.5623925430373
3445.2768375914015,24.334914442380303,81.10175462098682,2054.5933129499235
3438.981884127003,6.6992475900147435,79.74683825094644,2206.709020238696
3438.981884127003,6.6992475900147435,79.74683825094644,2206.709020238696
3442.593370493078,-0.465173916695925,76.19552638870216,2051.2133060050824
3329.855544295811,77.07459023342265,86.75511770260735,2123.3818451032826
3336.652191776206,99.55412241323457,82.9611956410016,2260.2291975887274
3349.528013339465,94.93463735316891,83.29609034013819,2085.8995465219655
3356.7991252142633,98.38300698282544,78.35654681925962,2080.129785531969
3359.5362204432486,106.77222807521169,78.61710866945396,2236.0168822423134
3357.034670338986,106.10297209844413,83.32352712191398,2116.5518730320705
3357.034670338986,106.10297209844413,83.32352712191398,2116.5518730320705
3354.3771006952934,106.19343320226395,87.94183441461094,2138.6907714903527
3372.065014113182,89.43144438573354,70.2330746263343,2279.2856244556197
3382.2979249571586,95.05250805250016,76.64639704196348,2035.177868346679
3381.5656218350127,88.82217167826597,77.98940810841917,2091.630982066074
3345.830332546563,78.33895521632765,84.87126400421039,1992.4390813930902
3324.608592823373,51.01386565958764,79.93588938472831,2241.8795115572516
3317.525104424167,44.41297351879845,86.27048086211407,2192.6637073247134
3315.611372220516,30.969579635327097,84.1586606566069,2195.871201232046
3322.5714116715258,40.92868967269871,81.69221356694871,2191.5882099890737
3138.2763816429306,121.23015923823301,83.54783294954383,2235.814791719971
3138.712006451286,120.16176947746867,87.31625905231381,2253.7581341384116
3132.4421089770362,124.74793230386703,89.89332264894882,2170.3987577886733
3124.680243431558,121.67687827604426,90.54702811398349,2211.3585453217715
3142.967097947365,96.38438593583045,92.08624728835267,2245.448422030782
3167.4264974976586,124.91942297600626,82.99430745252594,2158.4545068024017
3170.0207740950514,123.62169616399898,86.10872552236228,2273.902566892044
3166.2083868072696,132.8677865331454,89.16737694385826,2301.761999871979
3155.9626592286722,135.08656998871524,94.79785292731643,2284.625523821025
3161.27636714638,133.9953618632505,84.97735822951412,2222.64435672613
3160.500373685961,135.780019743903,81.8820227935429,2131.983325992049
3069.344436325772,156.87290974690217,90.04898485436333,2296.3720407524643
3080.4832969560443,168.62632863079497,87.04837867284407,2050.986690757485
3214.9709317300094,195.42733890351525,79.15852989582422,2203.6834304839704
3196.6266571118454,168.59443945707505,89.73889329680395,2194.7706917675337
3167.151004195391,135.98920069398923,85.26234305127787,2153.670660644117
3231.535221797269,-169.47459958145174,95.58750976255439,2140.752785297714
3090.8641004955957,-131.3728450146871,101.2038909891995,2104.5688250305393
3067.07914932754,-139.19209771770892,101.07186877223545,2251.2212962198437
3244.311350880666,-123.92895269320293,85.27972631426863,2106.4153230966976
3244.311350880666,-123.92895269320293,85.27972631426863,2106.4153230966976
3356.1987789094383,-158.12282575707422,81.77841243089944,2078.9037657987083
3431.4582673452337,-174.1525024862543,88.2279883237081,2142.090344350295
3431.4582673452337,-174.1525024862543,88.2279883237081,2142.090344350295
3566.3581335369186,-178.2838120620211,86.43077902594415,2148.8516524653696
3608.7017353975984,-271.7816305535054,69.37423969298365,2069.275642209607
3609.0979843311316,-275.088276798827,69.81153490175285,2071.5958602004075
3617.6380649856183,-239.6353680180017,85.72485207015536,2083.4752293579036
3619.610172172537,-244.8222599661185,75.12858775784457,2111.6632288099026
3530.334515285524,-500.83112289485234,85.76962216134906,2149.8172117446757
3418.210041658405,-560.7069327949743,94.32119811066569,2138.532364449421
3489.0680521310796,4.591585908995857,82.14201193002822,2081.195549218038
3486.5774002352578,1.449819586947263,81.14644335637105,2247.617810317778
3492.7061446097946,-16.487313098398563,76.42943242157502,2083.3366428253016
3489.7807585033834,-15.059402102595465,84.22893649449618,2199.882420356286
3481.426775919737,-12.218265704931293,76.80073493070424,2197.4090310413458
3499.367703568828,-80.41091785090288,77.73313827685783,2014.5314829332249
3500.492628618731,-78.38202342841737,75.1257941113215,2171.0320641240733
3472.546372770529,-77.37221989444713,78.79957982861501,2095.92726216257
3388.805410219505,-36.43674754650431,81.46108239415105,2153.288270098508
3388.805410219505,-36.43674754650431,81.46108239415105,2153.288270098508
3306.636321468033,162.1170425857077,83.88174360883903,2144.714520508325
3102.212346602795,-415.17435637947585,98.1436258398684,2154.176651791089
3087.0926774478007,-373.3634681329422,103.29306667972247,2283.3000891946303
3085.6730521968248,-406.50947769874585,99.0757827389476,2039.5684684168198
3137.4905461363433,-397.4167741320988,96.43337052433603,2052.6552868065796
3174.2143363636396,-397.6265831609705,102.19833766383539,2217.6393790804486
3173.9458061313317,-415.8044348075082,94.237841907537,2200.3186769109507
3176.034223077399,-413.7527140564903,94.09519990832945,2106.784199869598
3206.683584776974,-411.43332072418826,100.88195013679399,2121.281972924138
3059.7248910059725,-220.79760083775503,101.99682458478512,2137.071256663844
3072.699852089776,8.505956777306764,90.38914344317577,2142.0470171872757
3449.142564764874,34.43701564048807,74.12470798006039,2165.6102166792025
3474.8889061099476,66.02789234068538,73.90965088414879,2141.8487391814415
3263.147655509301,-520.0706801236269,91.88265399249596,2140.9705520998723
3077.996582648436,-589.9065256435472,100.69590322523395,2138.693025339784
3054.3127720866214,-591.9165970341699,105.14580857608024,2198.5467470487865
3040.492755620977,-597.658965731582,102.27881340146234,2117.233566102365
3061.412977586002,-557.2874848781054,103.79110960077867,2043.3627920740673
3047.759314119466,-571.1572156881755,111.50207120655193,2154.565137941861
3053.838399660034,-546.7051324846606,108.87877999890856,2255.194846823569
3045.9636959452873,-532.3067171754287,106.54673606450086,2119.2147605032337
2983.9240507281,-565.4912551235502,108.48146198239448,2174.647712763087
2978.3383640618017,-568.7682518232929,110.66360855735526,2124.8134852889684
2974.433325170643,-575.0726368299942,109.49995556241619,2240.275855633061
2988.7748442896864,-566.6814931275093,111.4166937811588,2157.0856040837266
2978.3447878062093,-525.9948969220544,97.65433728819391,2244.3318045742135
2979.6408981830446,-502.0009523591751,100.98665732135663,2139.2575003572365
2970.476805427208,287.95504020974596,94.71400754844855,2183.9081362311176
3690.547971478809,-547.6287012676922,84.3096462453986,2183.32952697726
3690.2287557121213,-549.2554593778966,83.68377992103956,2109.3861069452087
4203.505536842393,-590.385538120633,62.39523380426709,2139.7529631058524
4254.992806903878,-723.7928750749802,67.30096849329061,2117.973363480925
4228.63969007925,-728.5330816109846,51.2562696030771,2312.5875307985107
4346.60522877771,-781.1163925190158,48.29743685094377,2316.2880999599206
4346.0525637369565,-788.2839523221597,58.6995904792997,2316.9080673789626
4344.126013283379,-766.5014184435522,56.944207159100465,1996.1110001156294
4373.0219843670075,-812.7430491717298,63.358829006501885,2212.1106662705747
4365.575190706061,-810.7165644522586,54.89019153549106,2262.8748953528275
4347.571183598871,-798.482736741283,60.584194627642546,2244.4536462175183
4350.953517335354,-800.1742758849495,51.583452097071785,2229.1203458278324
4390.989954623153,-809.1329174594306,66.4705596636446,2189.9380131135613
4415.004492332375,-823.7648629544732,50.348772992369476,2174.204637351304
4386.886001139379,-832.8099751107354,66.76739971615572,2198.6894756631086
4324.882019007436,-919.249499059892,69.8975971068071,2064.6166132012872
4211.396792751062,-906.6194689153446,74.91322620711335,2159.4680401244555
4205.440270989379,-910.7061660245417,73.69215506161859,2233.1566930136155
4202.859750879302,-895.6209150133083,60.8104791072669,2134.809812150132
4210.325267280382,-881.4859931420085,73.0598405602911,2220.4088250340064
4211.723976511955,-880.6925374247346,71.90043668670799,2150.079734980302
4238.312910110334,-879.9549507495766,59.43855060109511,2227.5582300417677
4235.05667877568,-884.4276229565597,62.9144934901245,2190.9629734869036
4162.236183901206,-834.5728699891675,71.44646102253824,2217.655138544701
4147.337364381588,-884.5628125678195,74.02495460959736,2227.3477939136515
4184.138088304725,-918.103048467157,69.95681463432389,2168.433663556044
4018.317874062718,-852.9521470481985,75.17700163726978,2181.009429778608
4053.23455528876,-850.762923546679,74.12380706646162,2149.9433636979843
4053.23455528876,-850.762923546679,74.12380706646162,2149.9433636979843
4053.2906426767054,-852.1174254352358,69.52103997455225,2235.040374330986
4027.5550828509213,-827.1318942459666,73.85197700894543,2096.512755133238
4027.6754271711434,-827.1309161589484,69.69303760663504,2091.768999018826
4027.6754271711434,-827.1309161589484,69.69303760663504,2091.768999018826
4101.141393971475,-845.2413195404004,62.079521020200396,2114.0345108573074
4101.141393971475,-845.2413195404004,62.079521020200396,2114.0345108573074
4069.74081894813,-605.7093438663035,58.136091199794876,2163.196723561477
4069.161842695993,-591.2409317322883,61.241446641661945,2216.9077829547095
4070.5437862047083,-593.5108980317593,57.31384980035489,2278.1054315376014
4080.3580752787584,-617.1964100786531,64.64973098449026,2095.555215978728
4080.3580752787584,-617.1964100786531,64.64973098449026,2095.555215978728
4080.3580752787584,-617.1964100786531,64.64973098449026,2095.555215978728
4080.3580752787584,-617.1964100786531,64.64973098449026,2095.555215978728
4080.831736779737,-617.8043731996843,65.63977641573597,2007.845803282022
4076.3817121047696,-610.2640468303479,66.33020017456188,2293.1047238994215
4085.9141098095483,-598.6126450582505,68.25643442167078,2114.5448252370225
4086.4113227679322,-610.4354585560737,71.2274724658939,2221.0362982878096
4082.3927935168344,-603.3153493006195,72.20014258575284,2247.550260893268
4040.348182712272,-532.9848690653679,76.33256004337433,2178.751659450534
4020.055733531074,-525.4064369287914,63.30524927943139,2203.0789194804142
4063.662161542914,-685.4802455582001,70.25764906423667,2109.845007917136
4061.2050080264135,-683.239493925956,64.84998398390107,2103.8639202504187
4062.337214712597,-652.538073298595,74.08488238498693,2223.9932523041034
4065.1901665052656,-655.077045430617,74.5691440706277,2232.21396946036
3926.8176787213893,-545.2643527147768,68.67994592172964,2115.6679869544023
3917.9173578692585,-527.1313465873404,70.42099071162066,2245.6114013766037
3940.711805708895,-555.8209264589593,75.5731593075303,2254.56312223713
3944.9092597740887,-550.5705071632559,70.77082611446612,2259.3557050538043
3938.860670366368,-564.4777672683474,76.26363457747026,2200.8816484596045
3935.4805928318756,-563.6748692625157,76.08292855283648,2034.7602775064115
3895.79858958936,-556.9492944921819,67.64169187761074,2208.6265670777143
3907.773385463507,-555.8864350727144,73.49667184046547,2071.3100322575615
3924.5570484584873,-525.9531814502182,71.0260896403962,2090.34852292658
3866.0024555703917,-546.1327434364442,74.3636393369757,2239.436850555064
3842.928934545554,-517.2421684613454,75.78299460789083,2201.413661055099
3548.1266512769234,-289.0753825358376,85.73196391865451,2184.770849320288
3490.7927316870323,-271.17251631219773,82.47622501196355,2117.3519000463916
3496.9143155264637,-278.83300174225974,77.65373463160812,2203.370920721779
3493.4254351682293,-281.23735925354475,74.65444631351937,2061.6053034253537
3480.580946466824,-252.56966237309135,76.95979736948478,2204.1383001264003
3483.652698973208,-262.0438441278442,80.94158520375443,2108.405028200775
3491.1221664743193,-266.12632530421376,81.51929864057752,2233.9874804739247
3487.2219669367837,-261.5992568946077,80.08953479013313,2132.3594934534067
3425.735123358338,-358.59846334179673,82.40420846744492,2183.917325532001
3470.147580484836,-331.5820563219209,84.74098154893531,2057.270524559474
3470.147580484836,-331.5820563219209,84.74098154893531,2057.270524559474
3471.242633091093,-333.0558320190336,79.10360893697596,2146.56941507172
3402.3049213855475,-266.6153899705003,84.00501431795045,2099.305542947408
3416.6905866787447,-246.54237448508883,78.01092484240408,2158.9047124026088
3403.1685654668718,-254.18046683326668,76.1669482538715,2066.761913758589
3547.9584784665594,-426.4258663509512,91.94736036866533,2093.8557734157457
3547.9584784665594,-426.4258663509512,91.94736036866533,2093.8557734157457
3545.353918615801,-420.15088182232824,85.75337203847923,2205.8547513393078
3603.1082511471027,-477.3263309496708,84.9160458741646,2309.8998987480722
3601.8393928201212,-473.78372377010345,86.56164330569653,2312.9303899503657
3611.5698049379403,-469.8742045747592,80.47843230671111,1980.855057913714
3615.5730490505794,-471.1586786793924,81.24196558457527,2173.596908898754
3470.9790010236684,-221.70527793328026,85.10067578469746,2179.1155487278006
3491.70578984023,-217.28898236789567,84.40894731624813,2176.3135814632524
3491.70578984023,-217.28898236789567,84.40894731624813,2176.3135814632524
3424.1197392056656,-225.81481711043614,81.73539781145905,2135.7812502105267
3427.1291815016734,-228.82719106810913,81.3903643484586,2196.6142876700137
3429.615751884036,-251.0019367124499,87.41539076443206,2033.7413010155446
3405.048108039528,-247.38965032039465,82.86233136209952,2198.9315149472022
3384.628035928874,-244.09030998976306,91.24104146785655,2217.82343360978
3383.848703692737,-243.4634385774781,91.82832158988063,2214.376941136228
3379.9704418969786,-247.04803741841155,81.30994413624398,2306.975208232665
3411.7005444935594,-251.22273292480224,88.3262665274003,2251.521843079018
3414.597253831608,-246.5693385493123,90.9496671554385,2268.34087713226
3412.7909431548173,-238.3839897892575,86.1489163904547,2111.5829300495216
3502.810716717976,-204.6140560275461,83.39237342030603,2144.689243863156
3511.6003892347353,-208.76865328046233,90.00472022437245,2242.480859161758
3474.1318537125258,-209.8796160546026,72.91942113704117,2133.466931342758
3478.0771267575947,-231.17953131285094,84.71087824554023,2241.276468558515
3480.5490108500353,-235.17459512661782,77.98734253804467,2193.0493949314346
3478.427654876054,-253.55944953007707,79.33038819473857,2123.56646250199
3447.9655528483718,-150.9338350941231,85.66286368118001,2215.509281237033
3455.524528128445,-151.77511550058276,81.65116147109157,2141.8802447670364
3330.4250607242584,-187.71544317399528,86.81926772964455,2102.179046042465
3410.5898594069695,5.737039327746025,79.15372867417537,2193.9422003289797
3410.5898594069695,5.737039327746025,79.15372867417537,2193.9422003289797
3411.8071377609217,1.981206390643699,79.20918206707833,2115.143631404672
3590.840555326488,13.031023394948242,75.45487361420331,2188.6977840270647
3571.0684708369427,-0.29053409541445196,71.71799769343983,2001.2122189902884
3580.6745184863166,6.8668599560806936,70.62904223681552,2167.326063364547
3574.0145300003123,-6.054676701717697,74.54940581478955,2188.5873370074924
3582.276218438303,8.757664322361283,72.67362579522685,2194.284589194553
3572.399327427783,7.638102881691833,77.84356357246175,2073.3860056574044
3547.3422144565498,-950.8614232163801,89.47112303939525,2172.7537643659957
3547.3422144565498,-950.8614232163801,89.47112303939525,2172.7537643659957
3550.413003572097,-958.2640575492043,98.19435694039545,2088.8021810133578
3603.3927575211424,-931.1278568833759,95.51165213478693,2177.60382365485
3575.7671647044167,-935.9893783736302,92.10582722632574,2187.4991562959694
3678.5141058955237,-862.3604546353615,87.04613091947914,2193.5999638762632
3640.5425209355703,-863.6043809641037,85.91381230777053,2280.1468331684405
3627.833496988069,-861.6044106854163,86.69343324798386,2293.0184938671473
3627.7067727880485,-836.3453988970917,92.40590278602966,2235.0279735339077
3601.921242517585,-847.6813295674906,97.58741367154357,2130.753858466781
3591.5083871848024,-877.0644411407856,84.17725518622602,2164.9911094738313
3596.32941482523,-814.5738194995031,86.97232204872067,2154.5421082897983
3582.678764635679,-761.4468186051998,93.00864662911673,2115.849331406237
3582.678764635679,-761.4468186051998,93.00864662911673,2115.849331406237
3730.6690865977625,-644.9163390872437,85.43176508346761,2132.532089237467
3730.382533030885,-626.4658989591904,74.2924597626143,2137.672590305521
3814.252355040148,-674.593041541507,73.20484007564575,2119.83126046942
3817.123882370856,-680.1901553305817,77.88821752057831,2151.5524569848512
3812.924849099305,-664.1615488721823,78.8311502738202,2121.1856860676303
3731.452325218998,-663.2671076242076,86.34083846864476,2226.6245832810973
3724.6622619413683,-660.4430564088555,82.95487930711141,2240.033357987506
3732.1733210141388,-653.0815858818917,84.8548200410645,2020.102754306545
3722.636708652436,-658.7647847902228,77.84797931318711,2048.572183547959
3722.636708652436,-658.7647847902228,77.84797931318711,2048.572183547959
3729.465385822649,-647.3433920056167,83.66839154755559,2150.3714118943967
3735.0454896543324,-645.372721955251,72.82190764434124,2131.428790274182
3729.799643715499,-645.5194192407577,76.85624854962703,2157.076895494727
3660.740348596736,-192.57736972410697,74.48627525836578,2104.223796474134
3685.482103164199,-234.7151694410438,74.26520621892456,2200.6308624290214
3685.63861794876,-235.20830851851193,72.39454568380081,2272.912202507871
3680.7033702127874,-232.73770652024865,70.36241559076666,2271.074867130854
3691.892590926087,-222.10084335599774,71.49106431491418,2281.598478740332
3694.3147228030903,-218.26709872946816,70.92821167465861,2255.0463052637606
3686.8002758251037,-218.00559029010762,73.95882477563612,2040.7305850431774
3686.8002758251037,-218.00559029010762,73.95882477563612,2040.7305850431774
3677.8556098288,-213.4219358896515,78.8266091586458,2212.9961912622284
3664.501381142913,-200.22586124488765,78.13356071715167,2162.578343293166
3664.501381142913,-200.22586124488765,78.13356071715167,2162.578343293166
3663.950078577685,-194.7683820526694,70.02225287705066,2105.2151741874836
3977.6005526124804,-324.1327954361906,68.89247039007162,2129.6359073195526
3906.2473065267377,-327.3648418791362,65.5180581522801,2143.2755352422955
3906.2473065267377,-327.3648418791362,65.5180581522801,2143.2755352422955
3958.8665151352893,-324.83108603560817,64.52918386356667,2078.4700410658406
3958.8665151352893,-324.83108603560817,64.52918386356667,2078.4700410658406
3938.756535317901,-353.15528213486084,67.95552332388426,2171.4914617455097
3569.9949559639663,-100.65912839621367,75.78254121375987,2077.030547838459
3569.9949559639663,-100.65912839621367,75.78254121375987,2077.030547838459
3639.095952586861,-96.9157790580247,70.4399387291155,2175.008859672129
3428.8362722647807,68.01218798714697,83.10720387211109,2148.5368987084985
3413.240410103126,-10.074684448915942,87.35252613940708,2096.2990524062343
3411.6657456114594,-12.929791290800054,85.47129401053708,2156.699230527355
3411.6657456114594,-12.929791290800054,85.47129401053708,2156.699230527355
3410.8714784157014,1.8781024627027119,81.74656406017559,2034.8744133784794
3390.2544860121516,13.84048323088886,79.42849916758452,2204.254034583052
3439.465997361506,12.312816199966072,78.12876947766817,2080.350652412088
3439.465997361506,12.312816199966072,78.12876947766817,2080.350652412088
3442.174784630646,6.873670467863993,83.15989002626728,2190.403331822644
3447.497280555394,30.082845649883833,75.67970003202775,2082.930365563994
3446.5275501773212,30.15934437404789,74.99442042391581,2215.895798474244
3443.946589751548,36.40301251231327,84.87833523217797,2149.6234643365487
3445.83390004523,32.44054276330787,77.46550789327456,2117.9272795160095
3465.207063673453,92.13041726285252,78.44708184113355,2117.2918046651052
3465.207063673453,92.13041726285252,78.44708184113355,2117.2918046651052
3465.207063673453,92.13041726285252,78.44708184113355,2117.2918046651052
3546.487805867484,66.81062547920313,76.52477640327045,2167.086690733169
3569.6318027818193,72.42022713257444,70.38457659404236,2166.28484676388
3456.8919385505897,-87.36214885303258,81.05648243395255,2169.373121366937
3452.1203347892065,-88.56566137138132,83.00129578646022,2234.3081113077387
3454.928928764335,-89.69347697467636,77.83672768181496,2252.6964426270124
3467.189474946351,-80.70375431381065,84.76798919242718,2229.6729821248377
3464.4537909493215,-93.34591422726632,86.14149936705157,2231.7963548183156
3504.594866450845,-85.7148592215385,79.69971634748829,2250.7755748741083
3511.7206910236564,-123.71094544964285,80.97841830216298,2213.863209001923
3488.4482772305105,-113.02417791422559,73.07528668890157,2016.06472382504
3489.2056106923005,-112.97651826176069,76.13907756072814,2145.10658477248
3489.2056106923005,-112.97651826176069,76.13907756072814,2145.10658477248
3663.7161692521067,-192.53209999380132,72.53446308099286,2078.903643591564
3644.5809228963367,-80.14486936710807,75.87977514705048,2184.196190149931
3641.315959293929,-87.45286886446864,75.45944782930327,2183.2011109144887
3755.828772624776,-110.05820387495841,71.03997824700464,2082.036534564512
3752.134083943161,-117.4595505240582,71.70761971884708,2057.977186991777
3736.3150258968763,-127.53893594658281,68.38280061744754,2159.4581105336324
4034.9910271916183,-476.3720616630653,68.2698706187317,2192.326751694663
4008.590916080997,-490.82085168844253,63.09519720939952,2225.1507765191855
4002.0502073764696,-482.03822494696817,64.65775014249512,2107.945030508664
3809.809308743082,-649.1480760682289,70.67618588204479,2141.5589480249714
3835.2166534949065,-673.2495521219556,82.87740031712634,2034.0567468381316
3781.45901475025,-662.0998357199891,82.87428668212925,2195.599267612042
3796.7039652470544,-686.4630281992368,72.83371854062105,2226.8860796343847
3807.1074177565324,-690.1816000628237,91.04140817521233,2099.9947321249483
3826.0334913236247,-699.6256183911454,77.11941366573623,2204.564917563939
3824.7097430862823,-681.1908000868588,83.71325852032518,2094.805044687839
3240.5671669161525,106.4103013963524,91.24667879019607,2129.6669459180494
3211.6208863679553,98.63916686607976,85.97266104172643,2204.971648729613
3236.680961533889,94.06561713390818,88.8476254106569,2258.547698456155
3259.2339494819166,86.13762009343351,86.76696469164344,1987.4290720505794
3254.34072300783,89.95195454386888,83.10636027072194,2228.414442855635
3252.9907911167766,86.6320211023927,86.01461118992431,2103.65842524933
3260.613414165216,-41.95628947672466,88.50663691660199,2153.9628154688553
3260.613414165216,-41.95628947672466,88.50663691660199,2153.9628154688553
3300.5102680933323,-289.5358904479386,89.28241222008616,2137.8469689661015
3576.4196310390553,-413.77038197245406,83.20804327259997,2195.0490215480895
3528.262219215964,-384.5611045838936,82.89711344576865,2088.7603308390844
3496.7349150377313,-446.67337015660695,83.51263141941317,2091.567683887476
3227.9774745366485,-338.2373491475313,97.12292202655253,2206.1780996232105
3235.286849259545,-330.680495459918,87.62069236476569,2082.2024557728932
3233.0419054471427,-329.8456082522401,91.2671387563371,2117.6576620053693
3230.8379713182994,-326.60550014628006,98.81672718206075,2027.9631376734903
3221.0897812835387,-305.15872280877306,93.91269008788603,2215.804061628185
3212.3931154990087,-321.4568243177674,98.91257956403548,2229.828433750807
3210.687661362039,-354.8538997936912,91.03266575342727,2260.818036307746
3209.79269502881,-355.466783279455,90.95166455999757,2255.795213802735
3219.0754139195324,-397.3622519680298,92.74203108573977,2227.0722005130574
3221.725188806166,-395.63717597202435,96.18826097739944,2152.639539372954
3326.7265587121346,-208.83191745841032,89.80298070410903,2152.194221928863
3279.7351741484154,-378.81031782563844,91.95472928842152,2150.6850324129787
3295.7743399101964,-388.94641895411195,91.66035783728795,2078.2842327341928
3295.7743399101964,-388.94641895411195,91.66035783728795,2078.2842327341928
3259.9051177240453,-312.32346165860645,93.90976092704511,2127.1767021391274
4057.038086877969,-482.32843300061387,65.96561651869266,2166.572572023159
4022.5231995661075,-456.6672658617801,68.36344042070417,2141.8043169816797
4022.5231995661075,-456.6672658617801,68.36344042070417,2141.8043169816797
3953.8544763792875,-475.6549724515391,65.6336961556852,2116.6282692911336
3848.766641625924,-188.8428631855162,66.02406778641968,2143.3541273293304
3862.3460208447495,-184.6444810034792,66.95161117238997,2140.348434453096
3832.831881690066,-187.0215024653022,71.47764713518026,2228.418097963773
3832.767436620411,-195.0557932388401,65.33601598877172,2216.6315706252153
3830.7171957915416,-193.34723757592033,69.29896924926966,2173.2459792756817
3720.4782637259573,-298.525507065679,74.64446194405949,2162.168704940533
3865.3643684525828,-666.6610868884384,76.50312506172953,2109.5613705342225
3924.665026544047,-609.9470460254222,70.9505733567885,2182.021411511662
3912.295345425103,-628.6686388078948,78.86484963436395,2196.2633708607973
3912.295345425103,-628.6686388078948,78.86484963436395,2196.2633708607973
3882.247085166333,-609.5472603877539,69.06438805464262,2206.664374347966
3884.790766066011,-605.7547095043345,63.91890975250937,2236.6103908632585
3887.970906941351,-600.5485728254512,66.38772856933969,2254.3161376709704
3881.6803425009375,-593.9504058675933,72.90972709169483,2234.6931771135087
3900.625263551648,-610.0881518381108,73.48856216832262,2191.3734355992456
3886.358445410735,-578.016255939961,67.76834601778543,2107.1961913266045
3783.0680314377605,-507.5154007098222,82.79653519485818,2132.8694439033543
3783.0680314377605,-507.5154007098222,82.79653519485818,2132.8694439033543
3783.0680314377605,-507.5154007098222,82.79653519485818,2132.8694439033543
3444.1729590898767,-50.37715286456129,80.4056597482575,2231.875640208011
3588.42151204133,62.74207633644015,78.39314644261262,2182.169662182919
3586.360297887276,62.64757689281083,71.58595969672149,2263.2209417259974
3584.246027075489,68.14750445309818,66.07186448334326,2159.8746056519326
3584.9644261020303,64.2024886814359,70.35947660803599,2227.8291191821922
3581.845705263179,56.43612022538081,69.2527511865878,2030.250752553823
3595.556680423834,29.443781703426694,78.10256982044295,2192.7151409084963
3588.2792671409334,19.53627264152462,74.1360269304215,2237.764892409904
3584.9573786835276,23.2086758090897,74.72766690130621,2196.5651478965137
3589.3164407290374,17.00657924970154,68.9993009603752,2060.4594783464
3598.8643972979585,6.582954016206159,72.67019712241091,2223.82412640166
3582.973730828648,10.212334998850363,75.6914445998559,2160.9862223613795
3589.2495960886367,7.974935260191761,70.69605610138753,2204.9909451998324
3589.2495960886367,7.974935260191761,70.69605610138753,2204.9909451998324
3582.164784141483,17.47186225188695,67.48570332868455,2155.2891725905274
3581.238337447031,-0.6573242970983935,75.46659994257304,2012.6467951971824
3600.933207062674,131.5146453155433,63.43699689897143,2227.604640338346
3615.032003192492,132.25340085442613,66.46083921202113,2215.579519415057
3615.032003192492,132.25340085442613,66.46083921202113,2215.579519415057
3603.7140905209603,127.15995256323481,69.26964241882942,2240.6210776624202
3599.24673802727,126.24828465516313,62.70280239088016,2106.8773972763615
3607.550720686127,131.13197531024994,70.53533645621022,2180.6348361177356
3306.133120548912,-219.86747666875152,92.25331070960728,2148.1857057295833
3453.1982473786675,-122.44674162580674,82.7702063644294,2156.252879777459
3452.2447563530045,-122.02882036241195,83.95328813248432,2153.14353699953
3424.8200102127144,-97.01742086316891,76.99819073856514,2148.601782674626
3730.383725830019,-594.1930868173365,76.3537852764192,2122.9314421096815
3775.432582141475,-577.8100064915322,81.91123848863147,2099.6174680747326
3774.1760400055778,-577.8726875438524,79.57595412696658,2064.53803925946
3812.046026617977,-597.5861995438711,70.95165314946847,2101.299777415602
3150.243288441292,111.8766479704548,93.59817676026626,2161.2497422176043
3558.7745451635888,-273.4834885738519,81.24418538536534,2173.92662474347
3558.3007946633074,-288.68635095112467,88.30980935830429,2223.6412537963
3590.3410547346325,-293.9011750444848,70.70315436440956,2198.2715288223903
3602.915416164559,-312.8817551413442,91.09352677547092,2102.5570038836827
3611.441662419099,-312.254360067811,76.03542281362976,2196.791554321728
3599.2882573464744,-305.89444523051037,81.49413005548617,2105.9742728903343
3677.030602352681,-311.39155702271853,72.67762405233289,2176.9532482939544
3675.857559780271,-348.2862257277694,82.02427638706178,2124.2114198086056
3769.5279062759737,-325.9815843501371,66.966602199249,2188.144123148621
3797.1299246870144,-318.58188371472437,77.3793112043208,2278.1231747581583
3798.1881466929626,-320.81794814988996,79.72537036886405,2228.330444054908
3825.9260751854813,-349.2048597591064,63.67033938734885,2204.627587743752
3833.9642876211706,-324.6130870895192,75.32504912157331,2213.25995246565
3821.5483010308462,-364.50026955751395,74.23186845296617,2033.8995913607498
3821.9718961066146,-361.5479449334665,77.30394150663513,2207.3154744003677
3833.045097279671,-363.7919040474062,72.1368498184179,2149.5644108216693
3855.523208664768,-720.5977055388631,78.31826719050795,2191.107157054222
3855.523208664768,-720.5977055388631,78.31826719050795,2191.107157054222
3977.4283158766334,-584.3241742408155,71.11763116117358,2039.3307457430521
4002.0109717460114,-594.1404499215005,69.05995000351021,2044.0255616605718
4009.452379988599,-595.9184257697385,66.93154249145653,2070.2744816512663
4009.452379988599,-595.9184257697385,66.93154249145653,2070.2744816512663
4009.428018092139,-605.219996235429,61.48467527054842,2285.0165856430276
4019.402695643244,-603.1721737199739,68.25996148445573,2036.770348197866
4006.6905800476666,-565.6322871972745,70.59955716745823,2218.4391929437675
4006.191914386414,-567.5268216379216,68.99068789753736,2067.7864219178655
3992.472178501867,-569.9810769237924,67.60052678488043,2269.799679766116
3918.0175749541754,-447.420263405005,70.57873681510405,2091.0490818664134
3918.0175749541754,-447.420263405005,70.57873681510405,2091.0490818664134
3918.0175749541754,-447.420263405005,70.57873681510405,2091.0490818664134
3874.969954855824,-430.22153298815687,70.64966370360003,2082.1738465443327
4012.623439412296,-316.9024682759993,60.97159923329997,2142.4477108905617
4012.623439412296,-316.9024682759993,60.97159923329997,2142.4477108905617
3599.8261066794544,-326.1963420897027,77.39433762993856,2196.4846255438847
3588.1440570892187,-326.10809893573463,78.0636789620987,2199.7951103275022
3604.066426208017,-368.63512596221636,81.38610922030317,2016.608903286167
3623.356694854821,-362.97358617755305,77.56284800759647,2118.4948854740946
3751.043247648356,-304.24611687627834,69.23427405291575,2180.9526892759554
3725.721880271363,-250.84004643140705,79.32226837048394,2146.9271900470876
4026.236421424832,-518.9961762761475,71.07986966731441,2183.2649364121357
4025.6670186185033,-520.8734820915935,69.48606906650346,2193.733613940658
4030.534015828062,-566.0409866706916,62.797823040312174,2204.90083037267
4031.0720682021224,-564.6673774102978,60.3954422887799,2233.7881355699
3959.545400177428,-561.462540446564,77.8373825092996,2173.8309097789443
3963.3642651841424,-562.584651747831,79.8151560022162,2235.6068902622715
3940.448844225068,-538.6363676299873,62.204719871749454,2220.1818275969404
3932.6497568298964,-550.7216881439753,70.034526232375,2051.202684952201
3925.1798588590686,-539.8573418501973,70.61317659394307,2124.3233810849956
3925.1798588590686,-539.8573418501973,70.61317659394307,2124.3233810849956
3834.8984253738668,-396.7853141540297,71.04738331947026,2170.149718147877
3765.152323389134,-417.2245473984226,72.23976759816405,2097.9316084981397
3768.2072785352707,-437.2078061005685,73.10753041350581,2157.6732048653375
3768.2072785352707,-437.2078061005685,73.10753041350581,2157.6732048653375
3756.9832207979243,-436.8937142934854,83.43600799221949,2189.057026027691
3753.8016678274785,-428.0531087859897,81.60949781349562,2246.5223377397087
3754.431977741225,-432.7511339820103,77.8669407405699,2182.675961169704
3789.005007498711,-451.9486642760152,69.01797377415801,2136.8691704046737
3772.7725699642924,-455.0705810911467,68.39996230299835,2254.556585369813
3771.4309158252013,-455.7706267447346,69.47205012266114,2249.740844801439
3763.1675268146078,-463.4443163729922,70.17738038147016,2118.6830973875926
3763.1675268146078,-463.4443163729922,70.17738038147016,2118.6830973875926
3758.9884999287665,-458.1612087192571,71.46625001090675,2193.956245108849
3763.015248789072,-463.7701707069781,68.54494195613269,2101.5595090141146
3720.49359865869,-512.0234641589225,68.22445926169986,2196.9364671177364
3718.792019265446,-510.7373056758383,71.1380104714067,2224.335150716722
3716.529278085189,-491.6508249462806,88.74331969841735,2285.507450895642
3701.595474918408,-393.4506265840931,69.14141654022717,2098.3733045589565
3701.595474918408,-393.4506265840931,69.14141654022717,2098.3733045589565
3662.297387667449,-390.67842916249884,78.67293560434307,2258.75715216688
3658.5252215433293,-386.0979274910413,81.80482572151277,2166.228649840511
3658.5601225650616,-385.97767056560656,83.89926911879735,2027.4355714685366
3630.273748002738,-381.6896598057146,82.40462847534289,2237.3111581125354
3616.904247691695,-377.17975057550694,72.20093858061237,1996.791141530907
3611.4101551604263,-373.84881248224696,88.61689429093447,2261.637929518248
3626.7246556605983,-373.0677451955104,79.20097254830122,2159.3925199813616
3344.2452415481607,-91.20786657509656,83.73301899468396,2131.9371708869394
3344.2452415481607,-91.20786657509656,83.73301899468396,2131.9371708869394
3343.1289366422066,-91.10396205732533,82.67292167334861,2078.530539430245
3265.5991944304815,5.643866651878825,86.04572220977933,2098.8097851806747
3264.6275122943875,-7.524692277604582,85.75913291195151,2229.279947126751
3264.113113528173,-7.744610358484069,83.93343474689217,2217.175706793189
3251.550727862619,-9.368484671335517,91.82835733165477,2268.3972809565953
3253.7643864998013,-18.817139089898195,86.99948170432421,2127.1298952870916
3247.852400197122,-31.788017205901532,86.2672421274314,2203.41373692074
3260.175358377829,-11.073395701148566,93.39495676066785,2135.3619813207724
3246.7919776352933,-11.642082233476904,84.28004977208799,2145.9107978236752
3687.3574768937788,-276.62646780128074,82.99748552787321,2093.067158846889
3820.675718214457,-475.6698443478278,76.8551781309234,2163.4406996331336
3508.7245663771373,-141.44217437861928,84.20911338437637,2155.7413950594955
3517.9540532950737,-287.8745396972971,88.17026840848446,2078.9342349494214
3510.152340784245,-283.61953906496785,88.30859980323626,2063.986879182943
3552.0030251269955,-271.8899673881387,78.51417759404326,2200.326267192224
3552.0030251269955,-271.8899673881387,78.51417759404326,2200.326267192224
3552.0030251269955,-271.8899673881387,78.51417759404326,2200.326267192224
3312.159544227043,-244.15590059522526,83.80840938746633,2135.596802949031
3334.2777633816795,-257.5573591384611,87.5855289787865,2156.888094259657
3869.1396332055015,-262.6192988500796,68.4765380423836,2125.67179899441
3831.2593267146854,-645.6842535899916,78.07480132572209,2105.646689958125
3831.2593267146854,-645.6842535899916,78.07480132572209,2105.646689958125
3821.2980773922486,-603.5664964821553,69.89817298010959,2167.7200055631856
3816.149008779047,-605.7750268706767,81.38723700049906,2315.802145113082
3820.929225938216,-608.7069535262591,82.41370495163287,2314.99691847751
3811.44402282043,-578.8941819542714,77.99631236359393,2299.1899338720787
3786.4896372153476,-585.6950939681524,80.18101281969797,2077.902896990549
3954.3359050996955,-503.5530413790517,73.16711056987852,2176.992708240038
3960.1692207052765,-492.09348099766254,66.17149556452988,2124.13430312344
3864.7113136394187,-614.4163415475496,77.68107003106265,2129.9062253717498
3864.7113136394187,-614.4163415475496,77.68107003106265,2129.9062253717498
3864.871504890572,-616.6093681956073,77.60195640386638,2166.061801221096
3863.2244064407305,-612.4730778315546,70.55348308105654,2155.719691949281
3865.5142129737214,-642.2916743391115,75.6541129378654,2148.108584335329
3845.4931690995413,-645.017083802264,68.33775229617433,2164.39094598096
3849.7033014736357,-677.4847842427008,78.8346987489391,2145.619714547463
3514.847740292707,-299.2419303818189,81.5979400980075,2111.4384080241693
3514.847740292707,-299.2419303818189,81.5979400980075,2111.4384080241693
3510.2195925115057,-304.80819858177705,83.13041077817262,2210.690225238885
3492.365513534505,-171.12902645525534,73.60119708078363,2110.379300382953
3492.365513534505,-171.12902645525534,73.60119708078363,2110.379300382953
3470.614748592012,-110.99446292029668,78.60919369746675,2136.033738858102
3475.242942890359,-107.47160730472011,85.24555535796367,2236.153559849482
3474.199224369238,-107.42026231581283,87.60367448282423,2290.2345173587737
3451.772490676867,-115.07319804823038,79.9102034762429,2088.0679692000285
3412.024629573084,-257.18464981940167,84.45725094480734,2111.3503901380172
3584.732304338748,-120.15292150669237,78.34844075907364,2107.750629677704
3584.732304338748,-120.15292150669237,78.34844075907364,2107.750629677704
3625.694203983776,-91.45501077902117,78.30087488268391,2196.676690694094
3571.6161151735423,-106.41869773758958,78.72327758460213,2142.136473277897
3622.591728223528,-461.155357581923,79.9613814954796,2145.1944687988807
3598.673768552405,-500.9832888286148,83.19098042959965,2264.518290161736
3641.827164570373,-486.1368906950026,78.27981598442908,2154.0940577504552
3641.827164570373,-486.1368906950026,78.27981598442908,2154.0940577504552
3771.661302162195,-13.089341135181545,66.78905607937347,2185.3681112646573
3806.649813789416,-286.42177401420554,69.14372422715347,2187.939960591135
3851.9941664696266,-277.33298683217936,65.99473953991412,2209.4308728919573
3569.2446114890463,-159.924090209648,73.50997348054744,2114.243549264863
3564.4097993601777,-275.6567815011758,74.156358108831,2150.3178138195362
3562.398018181364,-281.37137646533733,86.65723411780986,2165.9737172830755
3564.5569314631116,-286.7878647094289,86.68595936997133,2128.942940477863
3577.0252787203294,-298.0141837114083,81.76890541329709,2219.53726042949
3574.9199452434427,-298.29324725142635,78.24019675690428,2230.5006693444248
3580.774933539067,-297.79820756449953,76.36947378313164,2240.731230454426
3584.493081818474,-295.10084342968963,80.98993390373717,2183.6210499651334
3587.8857489443917,-298.7518467333667,73.06038008771523,2055.921560343912
3579.6156742830153,-281.0448433343194,86.2090965763801,2109.7974797327506
3534.5124620886313,-279.53839059185685,75.29907816320915,2090.0666422122345
3534.5124620886313,-279.53839059185685,75.29907816320915,2090.0666422122345
3534.5124620886313,-279.53839059185685,75.29907816320915,2090.0666422122345
3558.878471689126,-203.3777079648579,75.39653939409251,2133.9869445956792
3561.5516990036162,-210.57287547477358,80.102523732281,2248.494550414596
3556.8431696048083,-212.12011775005917,75.60740759797463,2248.0855536583467
3547.357187565465,-202.61860699517132,82.5422562200755,2114.3242844863526
3545.979534021717,-189.56067614360586,70.64291557984284,2144.610709168873
3544.483850259519,-192.33459484277046,78.50221636396016,2130.856621860664
3431.5487251666445,-141.04050610772208,83.30668280060416,2125.3780350964857
3398.3399911283495,-153.57662011338255,91.6426045086993,2211.6621970100446
3448.758857571003,-134.97718912286305,85.61623111288107,2105.4288095304473
3465.035303967357,-101.63281371623295,74.79869743314936,2158.284969326556
3516.7298326595946,-142.42795932786717,76.21746230293358,2128.5765776323065
3487.057180952546,-115.74949830301404,85.78037057225268,2133.4835303401333
3499.9104011962527,-131.05332915809032,88.16046035739623,2279.4402815464136
3496.0021914544463,-150.7661109342381,77.40962348280873,2216.0624907916535
3496.0021914544463,-150.7661109342381,77.40962348280873,2216.0624907916535
3514.516930538112,-167.0810688602503,83.1756693048359,2134.753748616375
3527.9106286108063,-154.88779706590267,72.64370895596475,2105.344832079814
3527.9106286108063,-154.88779706590267,72.64370895596475,2105.344832079814
3509.9748168352817,-149.99092343476528,75.83791828068394,2233.1306988954466
3534.8044748184807,-150.3198156977173,84.62046566178641,2130.946734239831
3506.414940967872,-149.54551683566058,78.81651110152148,2126.8913574086896
3506.9635290411015,-140.30881791789935,79.92400193453024,2085.4603274798046
3503.5113662024132,-152.9311165998494,78.50587125665135,2211.4151024289686
3501.8628622050633,-164.46268855984545,83.21361639705616,2220.0067317357652
3444.503381621131,-157.92083353642892,78.37240519274471,2231.0436159939145
3518.9030755325057,-137.78884586509935,71.94641945571848,2173.93923406654
3500.1950650918516,-154.24885206201208,86.67673440858992,2017.0621360781704
3469.897201165349,-170.18569733935897,76.42297711658468,2139.317381817258
3466.639594175708,-167.0660352387717,81.37693887493458,2249.1939811685093
3470.0896924238928,-163.0212456052251,84.66285185703319,2276.5118961910644
3450.215306740259,-141.4207389977375,80.87413265859881,2222.427794815901
3395.1579591955533,-155.69030600897744,84.70018258281212,2086.615402988367
3393.537165273698,-152.8183594556553,82.16855469724642,2244.550906243517
3391.335066300873,-157.64408256246278,82.34889323625015,2301.2889270616997
3382.2730636526016,-151.30642730884534,82.21299401607064,2302.323305511272
3355.3640199102224,-147.15754580538274,82.01267534838735,2306.6716445506245
3367.5996956056574,-161.53843768967982,81.5850021306571,2098.1699307748477
3305.4138024309486,-161.3078736415171,91.34465419603065,2164.606065572283
3305.4138024309486,-161.3078736415171,91.34465419603065,2164.606065572283
3663.8726189329855,-317.88949213086494,77.82432164785081,2194.332389071042
3653.1197406526003,-325.19693375731214,80.17503860119264,2063.6909030537286
3653.1197406526003,-325.19693375731214,80.17503860119264,2063.6909030537286
3649.7199204870517,-330.7172711828055,77.03036584078282,2200.364916150797
3604.7054494884514,-324.03726633530476,69.52416462031566,2114.1441549930914
3629.067613392908,-362.9040240718166,89.8357414171429,2084.8053136090557
3594.6271250214986,-382.6665551480495,70.17472370845438,2151.014772505429
3566.6491526904792,-387.86178855242264,88.78781332101374,2187.2977069585777
3560.8436878849147,-473.2337420751322,88.88315150985822,2202.0906983155223
3548.724493657821,-451.2588533921491,78.42447033411743,2188.7631745712392
3544.645116370113,-448.77349092912596,87.20556010636079,2080.957427924894
3640.419126638596,-449.8122958501707,75.94779912142607,2067.9073826007957
3582.4076503491788,-481.849013907376,84.45554199487174,2226.4601195440364
3610.057322535375,-494.7205171374104,83.0484243926932,2314.893766372909
3610.5434871605075,-499.8566445007591,82.12535526609781,2306.2314743428947
3586.6808094071566,-484.5945886291738,80.492723890447,2299.6993140839104
3588.511467151969,-478.74608530444783,75.64643723469516,2276.278530075475
3585.0954060070867,-480.8255047506855,85.15448625404392,2188.962745873594
3559.347632284783,-521.2716281894831,87.05695260505058,2164.0075779977105
3556.1595360930355,-504.5351996537567,83.22548612743236,2247.2725469271886
3555.071003277644,-501.8849905012134,87.52968816110592,2176.005650415821
3567.7329824832973,-343.38587400541763,77.85851536229009,2182.0935677171083
3555.590547717643,-352.3044289164891,77.95796333620166,2309.072296502558
3549.7665146776376,-347.95571268688326,78.41500184142582,2313.6695392272613
3535.886333054173,-344.4588897928684,80.20488890697091,2313.0919399690138
3526.1519707342313,-328.24427749215175,80.15375716817893,2279.935231847079
3524.167443056936,-330.47795599151834,80.82440161719057,2251.24483559978
3524.4259902651543,-321.24843276599,79.28599015082531,2247.979843482534
3517.232919332649,-306.95526810263004,79.62744059903382,2174.297294816686
3373.636244991377,-293.8792124658031,84.81619228875077,2176.9045016882374
3302.9091738010025,33.29955637978216,83.93160011735536,2113.2478005250796
3373.9189863973,-53.274248860139785,75.6082370865877,2205.2975549383364
3377.320128613983,-71.5572841355187,74.06456285731586,2135.073761232181
3467.681624068026,-34.12265608469842,72.47401911481937,2113.4162621648848
3878.113053437413,-598.6357808951445,76.98482829139205,2167.0448794506096
3872.389488610266,-592.4274519986973,76.27924198262838,2215.4958800746945
3826.8002886646,-654.8125906017052,76.4549859491995,2195.1495625278085
3825.1136628251347,-650.4257793309492,73.50993925807892,2199.7400757346013
3489.9041570977774,-595.0091296343078,83.6969079480418,2192.030135328798
3492.7266031059585,-608.0238410929483,80.96003698653188,2125.639839846095
3492.7266031059585,-608.0238410929483,80.96003698653188,2125.639839846095
3516.1740787328313,-549.306775653502,77.02131450452424,2144.883376964799
3516.1740787328313,-549.306775653502,77.02131450452424,2144.883376964799
3639.527302303524,-452.4064822873958,86.98981514879912,2173.9825995937695
3621.27614616552,-465.99119324213603,74.35068222307186,2180.2102428820854
3618.161437605537,-461.8218764978493,79.7074415356129,2111.1839982636493
3586.532982790701,-559.4716041234209,87.5097936670927,2161.75788978584
3654.8518117329554,-559.3972736735657,86.51025897782982,2202.945964838279
3631.519281032894,-586.7696859269906,78.60784503202426,2081.2257919174
3573.9755028282925,-529.9220456950197,90.14317864274183,2149.513001242037
3573.9755028282925,-529.9220456950197,90.14317864274183,2149.513001242037
3573.9755028282925,-529.9220456950197,90.14317864274183,2149.513001242037
3572.1849440209803,-531.9743945037692,87.71092232183038,2137.128956876041
3607.484532985368,-561.8912687920549,76.14812982380883,2318.817903657067
3603.8395252147666,-561.2383546347953,81.50479453783491,2319.2178161036436
3669.7887592255283,-435.71985055652533,83.80197825550943,2270.607434663087
3644.970889305409,-450.75194374988575,81.7107629522441,2246.1239090544336
3635.4769473587726,-451.37843692302044,84.5556430994134,2265.4471182203574
3633.455427781083,-451.6699195248632,83.91751043130013,2247.151275731731
3635.8130910403265,-455.0524001978302,77.39434471526282,2193.0518245505455
3693.5387926774065,-448.7491292441074,76.55362819223704,2182.5704173760523
3681.0701165351375,-434.86270527592717,79.1421742682817,2143.716526835711
3822.538384642315,-635.854732984465,70.91897569966054,2132.989847034594
3588.604315269115,-324.17954926733626,83.26387341127253,2177.7090779354617
3617.6991723597635,-266.50602740416394,75.26056972199589,2175.7618229631885
3613.355108327071,-264.2441736734645,75.52253300956676,2236.0322472820735
3593.5517865805955,-257.0423386599424,76.72596022851386,2275.0609127793095
3601.737900343787,-258.88004950695114,77.10455693684116,2289.6033984832225
3602.218943145966,-255.84297235891225,79.15025985405005,2293.854880449334
3608.338045438437,-255.01522924751075,69.7557402848546,2279.3543515576403
3606.15206066506,-244.9306429327982,73.15108799133695,2252.0282475287063
3624.195553443537,-235.2494869139309,76.51661070383186,2225.8862708811275
3624.241849716777,-234.0531046905583,75.82092488388818,2149.0589584417125
3527.4201363644393,-27.66095906655076,74.89591973069689,2147.6331439804912
3527.2960534937224,-22.58853809914554,78.73710118273901,2169.0248232357835
3573.041207738844,-348.993005721341,81.3653398830068,2117.772657094746
3573.041207738844,-348.993005721341,81.3653398830068,2117.772657094746
3409.311234952392,-276.70807694513724,82.83338419574365,2103.6155959480006
3411.0356817740694,-268.92007743648486,90.27753281863158,2202.3388999559033
3405.5925076521676,-267.71965296256394,80.49791385495179,2108.610608965952
3446.4375744621652,-213.77273733868552,89.42339415111356,2178.517860838997
3430.2661877631504,-182.51948678371923,75.73079450420497,2192.6366646730835
3415.7313662397296,-207.96327619369097,87.74228487244639,2168.1349794769226
3409.839537201267,-244.55557774192152,81.3198394130957,2150.0671089203934
3409.839537201267,-244.55557774192152,81.3198394130957,2150.0671089203934
3406.4938841609473,-248.68448240365973,82.03966259964166,2136.3463462899063
3325.6295515127495,-146.2924297890502,85.59887963490398,2241.6640211018316
3317.2043330972433,-128.7528248321134,84.40752936989384,2239.3231528554657
3327.8875679469666,-124.20945468574773,88.45869665498361,2126.434944240923
3324.5743263702866,-129.87144308922117,87.08746152310567,2269.09962970669
3332.846728236549,-141.57682342280984,91.68863100627411,2261.5369052672036
3329.858900554917,-139.7934501692684,93.14580804470324,2226.419664933955
3330.5644613679187,-149.15841386534518,94.53853228238084,2284.2377839833944
3311.5805632340757,-168.89885766784124,89.04429071457895,2267.63484334549
3294.7997120969817,-172.25702374775565,89.09846684640605,2046.6636763372285
3294.7997120969817,-172.25702374775565,89.09846684640605,2046.6636763372285
3299.7716042083366,-170.55709170811556,81.90333267628577,2106.4435741902594
3338.2282948969596,-218.41000439987783,90.60535625840828,2192.410550477192
3367.944365664213,-232.72048244808352,86.12643246783054,2196.1825095713675
3379.7201888530312,-226.57306030859797,96.05839221369179,2058.217971463636
3400.132557847113,-285.2455043546149,94.76837179115944,2227.889044792945
3412.565137148062,-254.31987442867967,85.57717496653633,2109.00834838583
3431.5556959067944,-229.620314702068,86.48228104674861,2088.4676746072873
3285.162806079388,-18.71695390476667,83.32464991039754,2189.7580441748487
3380.2367140534207,-51.002288720888586,84.49160385795417,2181.869271069865
3384.817605821487,-45.491843305107096,89.2449233421536,2219.0293967294087
3393.8592872095373,-42.051443151143744,88.04259999887766,2117.1459399615874
3397.4810937980155,-43.44116036699496,83.39875858211413,2220.3566490651547
3347.1356396946317,-28.47024196193871,84.50046935511536,2238.384741372007
3364.230265579404,-19.28975675566158,85.46818693434298,2083.7683330541295
3368.9899230150504,-25.784914114267934,84.8444544593976,2210.7441660011477
3389.203547459635,-30.967526863327883,79.90458056831734,2016.2422256148907
3377.0915106786624,-26.68453764766948,79.05787895724315,2229.567829488747
3410.327609746445,-92.68999433430645,81.60284881405234,2208.0080461181747
3414.5631109633578,-96.51863294809084,88.12894564154784,2204.3493906125423
3408.325669370639,-77.66193464432274,91.32397044465269,2065.1395151280444
3408.325669370639,-77.66193464432274,91.32397044465269,2065.1395151280444
3377.754587901109,-101.4824941970636,74.86334041698112,2282.4491341141957
3370.9717778914105,-100.87920762945929,83.97969511851588,2016.2712250066504
3370.9717778914105,-100.87920762945929,83.97969511851588,2016.2712250066504
3371.1612958830506,-103.34045007240913,87.71667502164384,2043.3559067932597
3392.687882878842,-108.98011694805781,81.05664481652843,2239.928501766118
3398.6851263555977,-115.59075209907347,80.2662106096181,2192.3136924280184
3381.488291346555,-118.41134682056409,81.47796874349848,2163.8865497765223
3380.7198647284304,-119.44750260964202,83.30814141956498,2256.191929789287
3361.311935670073,-105.79481211003637,88.03434786600646,2272.7224173295926
3346.06266228494,-114.93859958855731,80.92169852983068,2231.2131156899027
3368.0235883499226,-131.93765215074094,91.31548492612023,1999.8233132564358
3371.9767333960986,-134.79626268126754,88.6429557710865,2181.3713868006134
2918.0971357497874,-74.23567594590804,96.81897676410667,2092.3560612873403
2910.155124758223,-117.5299090647185,104.20207652192113,2266.5420989077425
2909.0758630402347,-116.5310356843259,114.26458935681039,2253.2014463124215
2901.08306899462,-105.19390716046703,92.19554727550016,2277.5544116675815
2891.68187837288,-106.33177035515136,89.94770460561018,2273.5506870344393
2882.450430646216,-97.85761514846871,104.74585035494368,2291.2809391361284
2871.0794672936954,-87.70438640621934,99.71112761646543,2196.791600568744
2850.458510645522,-130.7392760056967,104.88010405286224,2114.1246370460694
3082.7842198886515,-78.93459066248994,93.52134494636307,2182.677040178518
3249.8736674506677,-122.78905768564671,90.02676140272787,2091.283210852604
3004.270808668403,-534.7601204395531,103.35791384290214,2228.0647982692935
3007.979082560396,-550.8708658777881,109.15618253147333,2283.2253111763384
3013.4550341541544,-567.6484691428275,108.0063828534579,2070.735230903484
2999.9484595148706,-557.959301337452,103.74480230414143,2061.3869776286133
3002.167473841381,-554.4263646431008,106.32704081718998,2112.1805493378256
3002.167473841381,-554.4263646431008,106.32704081718998,2112.1805493378256
3002.167473841381,-554.4263646431008,106.32704081718998,2112.1805493378256
3488.701834377591,-715.7984348959291,90.45417227570327,2086.4800943885225
3431.995796488709,-690.7597289943179,93.26397497520085,2067.639135104571
3432.3434866921652,-683.7571087458687,86.74559296192078,2202.181359868327
3373.6684250646695,-550.4820590273581,86.79066552696497,2046.0932070720812
3319.9894183730758,-568.6893047193528,100.86716868541046,2125.357738930538
3317.4365736437917,-484.47657877143837,90.71324841914121,2207.229146371318
3385.90125530232,-455.0843130735026,86.62060053159406,2053.233438605381
3385.90125530232,-455.0843130735026,86.62060053159406,2053.233438605381
3384.005539729601,-480.95021384553723,93.4676387757705,2111.618999988762
3641.6641705563356,-366.1977553305962,82.56111315029726,2225.102229141833
3667.2733490430924,-286.7581102998903,74.38738943329668,2009.0467990958432
3614.948440760553,-148.77434733597826,77.5980572720198,2081.6372190681113
3614.948440760553,-148.77434733597826,77.5980572720198,2081.6372190681113
3626.6133333753087,7.210405984500277,74.53127435128384,2215.895459485532
3626.6133333753087,7.210405984500277,74.53127435128384,2215.895459485532
3648.3303511697472,-12.233775655721125,65.73795932762097,2029.6053232052739
3587.062754875678,-80.65715848335927,71.87630601025192,2122.6028737573406
3718.526696847806,-466.893942313078,80.62493619282165,2124.6153204495517
3721.624584861549,-463.82100320364003,77.13484847541687,2054.9168606518024
3769.4357238192156,-435.4276945850796,75.11016931658219,2116.2282343285597
3769.4357238192156,-435.4276945850796,75.11016931658219,2116.2282343285597
3841.477795044803,-376.1768946340656,63.847231249748546,2136.1888278622832
3844.2254888899847,-375.76701834763173,64.44605583999125,2209.888245864982
3830.8808165604905,-375.22426789662734,71.32054887770119,2025.7602047517091
3826.4867176517387,-379.27786357425515,73.35691830101203,2249.9868908949875
3837.2477040939903,-368.1062175822313,76.93359302350885,2210.444983985929
4008.686800247185,-422.69727425328796,67.59380755257588,2226.2068939300866
4009.0209945550596,-423.31206826831857,62.64739000861153,2192.7527034965015
4044.433319501744,-463.68949741568247,66.43744429365617,2161.372213829375
3806.8207464141756,-626.8627558102455,73.65935265441823,2142.868354866748
3871.8997815772086,-736.7668649393809,72.84008306260321,2190.558104239775
3842.8453252173304,-720.0703312950051,81.8581485630451,2070.404340884712
3830.8748013166582,-714.5393419595965,69.96112335979099,2265.3092185712926
3847.489776946438,-709.0641753992738,84.83116345151234,2048.6280143933795
3813.7415254260327,-715.1213918912235,69.89062092741784,2319.896689232468
3818.01407563994,-719.4087044845786,79.22315678318178,2318.715826393335
3801.6088807213937,-784.582977654272,82.66301803189756,2181.755436334975
3590.057776602784,-704.5931882473933,88.40820179038903,2113.543626792702
3389.3473666962536,-470.0981794231399,93.99468923085333,2178.858062380858
3400.2763857905875,-451.65191361341834,89.27965303481277,2194.392448838545
3260.724168697064,-435.33828595132707,93.64801278249409,2090.047848512369
3358.494413966601,-272.22259264021494,88.34488932461112,2153.362826216772
3358.494413966601,-272.22259264021494,88.34488932461112,2153.362826216772
3660.3892669111674,-146.14940000801758,76.26545560240717,2098.091898841725
3654.2932077954642,-199.33106121622237,72.60708838680074,2189.4042402133414
3654.2932077954642,-199.33106121622237,72.60708838680074,2189.4042402133414
3656.956878772069,-200.3941148723685,76.8665883652699,2200.957928285561
3678.039683574427,-199.55775857575102,73.47822070841293,2066.153464441342
3678.039683574427,-199.55775857575102,73.47822070841293,2066.153464441342
3641.1604310778757,-360.7154374637481,78.42745500912831,2148.0255531806597
3638.084888102128,-367.57671515513476,78.08224130845406,2225.515502755294
3655.482652894445,-382.9360215875823,77.50056756048212,2140.0669790974744
3914.358321347215,-305.7865045952241,68.97386655163233,2140.135664414041
3462.2570800078115,-308.5325903805952,81.14007548277935,2119.8056472656494
3438.365804829475,-315.61988766884747,81.74405481468392,2136.6557222230463
3606.3854500290054,-459.8422746364913,83.36412975894099,2177.078095952082
3617.997834882549,-456.90575075600907,74.67907949268016,2234.84022052467
3615.9145074574217,-446.95718206492523,69.20709910629643,2246.6529868961406
3615.8698080856248,-454.8716428632478,70.72219331960294,2118.8487467131654
3611.207778470032,-452.2882546780306,78.4650483733509,2060.9496267097584
3697.8141646907884,-539.8971904288371,76.71214296061356,2183.481786394909
3719.0442539545083,-538.3766612695847,81.14652464171193,2154.6317277097473
3703.006517831393,-578.2313189217426,88.47145185342961,2124.936712997346
3703.39253039723,-582.0737209755256,83.67973089173111,2150.702313890097
3866.7905190520014,-410.90388076974193,75.00792040441229,2123.125437932547
4113.435006329155,-301.01321017759136,55.047858412016225,2144.0116694393346
4143.725035085816,-312.77256345692024,58.84180699038312,2146.0811825722144
3770.3453746820073,-703.6627233174578,81.22484740210717,2142.679513749198
3810.5507968852876,-713.5391739511055,78.8607559763328,2288.3079184441435
3861.1335082669584,-686.1229101208667,77.86843566862434,2148.6655247277904
3861.1335082669584,-686.1229101208667,77.86843566862434,2148.6655247277904
3859.393524877672,-683.5018759430741,76.47674868146956,2213.6210958254214
3859.8066059415996,-657.1898605259587,78.66330447151735,2068.656941567968
3799.215004670632,-645.5643462141697,80.32238841602667,2190.9252224825827
3566.9917704934414,-705.5583770050702,83.99824056251488,2158.978650484539
3612.547004872524,-272.8546294573267,71.89278411326956,2039.6196772595515
3617.877962013543,-275.6506602398125,82.13069828480457,2213.47426444552
3581.565410397719,-249.46370477399083,76.28672770855404,2004.1268138886724
3620.3927649750567,-250.60723090708876,80.2806888537302,2265.964995072876
3606.9611497920996,-262.41650147679053,78.25193236830872,2209.926171762248
3611.252561425316,-264.55803818694955,78.91009981123189,2146.872456274868
3515.602826431318,-306.7811117390132,80.76316351466367,2092.0702966202816
3503.779183716199,-303.49294749124385,80.61770225251266,2156.1429104936437
3645.1525921852494,-99.08551102702539,71.75778749165521,2169.590071889965
3749.0379738602396,-255.28003576580562,78.56701867576243,2149.6178541396157
3777.054664177528,-248.94810577316107,68.13155583576987,2131.619111068577
3900.3504616693076,-206.77223321002512,71.83096235508515,2114.230186567383
3705.695275839338,-653.2472092872434,75.74228695991948,2117.852631271602
3705.695275839338,-653.2472092872434,75.74228695991948,2117.852631271602
3687.608070220737,-634.4628655691785,86.63538174062815,2006.781910991876
3694.740826285425,-627.1275802112477,83.13654021524351,2273.2960955455333
3685.517550839929,-653.2444152255656,83.96568522077064,2074.3028045998526
3707.010798098829,-655.2112280785834,74.09457960945583,2290.542416525362
3699.2178753849666,-653.6802541968713,78.00492133111078,2238.0671479024577
3706.073059530281,-663.4037366744542,78.17855578953629,2076.0019442118814
3706.073059530281,-663.4037366744542,78.17855578953629,2076.0019442118814
3492.6836826606036,-426.4918628764092,82.76417486356384,2159.04301821732
3423.4962244802355,-179.79341093436196,79.68733216771206,2119.338436652733
3360.2233918882507,-127.51775671118524,91.93007222537355,2138.813502067158
3365.9165641855043,-255.24314464453332,83.50579009628949,2057.2449454211305
3366.7917989048537,-255.41543329769786,89.16032597574923,2199.324103961269
3366.7917989048537,-255.41543329769786,89.16032597574923,2199.324103961269
3227.970555360207,-14.672186810174185,85.77423380371027,2170.3547735138827
3133.748253375197,54.28651377095968,88.10946095514302,2167.4356012844846
3380.187412098458,-513.0970809647414,92.80361622897934,2094.20207000412
3387.4561415210064,-504.1379287886397,87.56371234168671,2181.1940918724304
3395.1570945343933,-518.0000634034641,90.22574305237595,2224.989630409467
3394.6841378585973,-505.92455430182986,92.58018897296117,2227.7121197938236
3406.1065662831516,-506.3727583864147,93.77872341879068,2164.031120338253
3395.511071978534,-532.7932384648929,84.65939993303276,2149.250634356501
3515.4647065413296,-422.2123853300514,78.34248196856188,2106.7111208876627
3515.4647065413296,-422.2123853300514,78.34248196856188,2106.7111208876627
3505.6870285455275,-357.46974415822757,80.35684092792414,2103.690964084573
3615.813688161669,-327.585634824844,75.46468161952188,2178.0370443882734
3636.812879431049,-318.9967794249614,82.11045008430531,2179.72000922782
3632.305176658382,-315.823802465506,75.87776894231433,2251.005581023474
3615.5761824834435,-311.64493188805426,79.33453472481713,2219.1447373353935
3620.294613765964,-311.64571594483056,81.50761248379659,2162.0941749017807
3604.3908260414214,-398.92951777875044,81.60548977620849,2181.571819171646
3527.3217423471474,-438.27920485501215,78.70227796130997,2078.266094241601
3428.6650653588363,-548.1536002259418,91.0011135282738,2108.673346919192
3433.0801711261465,-546.0394730737871,96.59539785664272,2167.603184238716
3435.453881858408,-558.2143740929548,91.2890611222862,2228.249390705524
3411.6912206618317,-571.876854429092,97.28270653627172,2046.9728327928713
3411.6912206618317,-571.876854429092,97.28270653627172,2046.9728327928713
3411.3098360087565,-568.3976739184973,97.44070442981437,2174.366809806087
3412.9172277115476,-569.0736564815488,102.42435194548378,2243.267518571543
3409.852476976567,-564.5287679574114,97.56603451713576,2137.946839693841
3411.746553515032,-563.2877825305628,93.25796232592086,2203.3079528845687
3304.8473803864426,-567.6735797153937,93.75799670272576,2175.19786036287
3367.6565919405316,3.525812595302483,73.24958583729591,2190.273302755303
