Intercept__0,predicted__0,setsize__0,rt_sd
3271.348339722634,24.28655650118222,84.37864473658952,2199.0764609071557
3304.067153204113,15.591998640101213,82.39023136563193,2120.5854737034288
3597.65672304551,-145.5369727419855,86.01243099655468,2190.0471196850795
3605.8644343819847,-145.4695760172089,85.69193194633425,2185.8705863430746
3614.3279801702834,-144.1927427535934,78.9751408115055,2247.702313047196
3614.004871835816,-145.12248928266212,78.69310289723563,2257.6695144702358
3621.332628531389,-160.0003277627328,78.40138880630502,2240.960228133944
3530.6236941769976,-103.38855268676986,82.13225902346464,2224.607792024601
3513.6780729987327,-93.2709869524017,83.00052739515827,2167.5629471754437
3551.9935030795086,-146.64495029532455,84.25965345231528,2194.965940667022
3543.691610767033,-142.94961980407783,83.53368541478322,2096.671513153127
3534.5230307211705,-142.8139511276413,79.32840802236409,2226.4476870189565
3529.9373927529987,-140.30401673016266,79.85954968017614,2033.2545634227151
3578.521847255951,-135.65816723845,81.36899445395578,2275.588778244078
3598.986659179474,-117.90297234505117,79.32065611442107,2253.8078261994606
3588.539382174508,-117.30484163140352,78.29317797914,2275.692320056122
3590.445504909561,-110.39992380128118,77.686504215679,2127.9799097343125
3590.826786691947,-75.40063892148558,84.97092628207777,2157.4803868661456
3586.603003475341,-73.81041231183553,83.65408143970328,2188.412704398937
3587.2972023699463,-65.64688443601268,80.15052728258993,2262.8566240656783
3585.0062930453546,-66.79117690738244,81.98880501188152,2098.080310634691
3648.049192007789,-54.812896873173344,72.63856153189954,2241.5997357799693
3637.2457240602535,-72.53268142524153,79.40206425970958,2291.229088577696
3628.847644499885,-72.96049297310836,75.48517162793812,2276.1287624467755
3569.64934751895,-24.192719393349638,76.85218387973617,2117.6831147267094
3529.7814014146866,-14.564173470419039,73.83550775705912,2257.7377052349234
3501.9469930909027,-26.408531296844618,89.79618774731037,2236.097955754356
3419.4175103940215,-107.9850534679545,82.01822365770974,2256.1794229973902
3362.2617325851297,-43.30785349399464,81.47277510356041,2199.6961214447397
3399.541253116253,-90.92899780365589,84.35012472345672,2248.7661991949794
3399.180711973593,-115.34384339782844,81.48613308190228,2132.011527442346
3399.180711973593,-115.34384339782844,81.48613308190228,2132.011527442346
3396.1413641438335,-106.72454000748368,89.38166387321667,2216.323887197147
3415.2835837809635,-101.52775604884377,87.16210678928495,2215.273642015897
3437.9557497806736,-96.12291559191357,87.23456740892642,2158.1119068305666
3547.2330051724934,-172.73129527120378,74.00684047960131,2192.3971650028507
3248.0930628880396,-223.64850961096954,96.51348135986046,2184.7846514364123
3248.0930628880396,-223.64850961096954,96.51348135986046,2184.7846514364123
3394.5639454024777,-264.81306273094145,94.32389730671551,2174.4649220550396
3412.786713301916,-262.48209300215774,98.0453425090932,2330.5935605022814
3372.5378819420525,-257.0403736501392,84.10822813233011,2350.8402198427757
3352.342966513816,-238.80101301356427,90.87641810467656,2360.941905169167
3285.9261550446695,-240.3987836886893,94.60802015409554,2142.6301167951624
3229.9924011915105,-238.8228041111194,93.53489989946834,2244.183147757679
3247.908143674443,-213.20337677841601,99.62655853691552,2150.5525181915896
3518.5488611820047,159.59190232620762,80.74503584811096,2202.8140033723835
3420.090495798998,-113.0003874557134,83.95274458253867,2159.0613354378042
3611.1212246958266,-189.48789489767205,79.1106622843109,2151.4266320068596
3332.1869864499354,-60.84226855099904,86.53329592765613,2192.302353566861
3363.6832596300874,-61.58930900464734,92.55818676055954,2164.1245634811003
3445.75491851159,-347.06412601941065,94.93837359416972,2143.111240172514
3458.1149485113674,-285.80312548758957,83.20276199801174,2077.463737005729
3451.399362117462,-302.64425350443867,95.51482304452095,2157.388311721209
3451.399362117462,-302.64425350443867,95.51482304452095,2157.388311721209
3279.4771004718664,-219.32995185074506,98.59926633989349,2231.041313331382
3292.54577167374,-216.54044697348579,86.79502431492841,2235.496772940073
3335.608282577868,-209.43302234343562,90.84817491420135,2169.4456046979517
3443.264057971364,-164.50445517441787,86.28827061452184,2139.753998661604
3445.400564404572,-161.98485211619976,82.62243683956997,2267.883403024427
3232.2621068659405,-4.58804003406558,90.63343618217363,2188.4388938288694
3412.1168494966873,-128.91487403487028,87.21300079625948,2208.9460558610926
3523.034495065897,69.61245037874272,76.27202333721074,2194.310062108917
3417.2522747390512,207.74543247383184,76.51617483189594,2138.781536473567
3398.577480191902,195.3833796105883,74.57004678936465,2282.414615177033
3310.90965154907,199.05290551791757,93.44800613859785,2102.382766983001
3236.499904663524,16.35305661687453,99.95074613413207,2207.2852245497256
3238.706277847644,21.504970971606415,91.45007307218187,2160.3626882323993
3238.706277847644,21.504970971606415,91.45007307218187,2160.3626882323993
3135.038954741606,-65.92202630841585,96.95082367211715,2201.1178095466926
3109.4252361623876,248.97645951926665,94.33316648040177,2177.8455435192277
3055.4075227044864,516.5872999205603,88.96499749383383,2242.3376690202017
3202.3732923636876,430.9452913056697,86.16129312108464,2233.4465666426368
3194.907065824489,446.7718126409816,79.06170653699935,2154.2799214826696
3218.6424558316144,426.88734728726985,95.29551917156226,2312.4772667729367
3260.4052787105647,469.8065001034665,73.26014582129801,2339.244645482482
3242.4639086925613,488.0280775372619,75.75937580949925,2047.5512405428703
3257.7836448005023,489.28691466717385,79.38853623434622,2305.8331677023125
3261.571916712355,489.31185983464366,75.97147308134268,2242.5184767948012
3427.5797871739833,199.81506743940542,78.67360921023955,2113.5579385678916
3429.5317946889963,193.62226595057962,79.70195577358892,2291.571077480094
3407.682099866828,203.65699436369485,85.96408995967853,2101.3597056338112
3468.3509173792213,13.936600075192562,81.89406947278597,2108.8912934411774
3473.314274504367,-9.75677150324923,86.1216523108129,2232.8449579566955
3454.421208547938,-56.56326290991559,88.34682259242553,2202.5564037901067
3452.854193910062,-58.51548424357975,90.02578559762567,2213.8011621336036
3413.46197799214,22.72976152310715,89.46135046508952,2164.3827936716157
3414.965326629467,49.036452789356936,83.20350983788408,2125.7426064003616
3620.957680679099,13.979487741474976,78.15677588524493,2212.450390296702
3518.1978644770797,89.597665563349,79.76328815151025,2196.751928296826
3712.401715244385,-12.147191501986898,63.00277049854342,2268.3967253213777
3709.518175713394,-3.4922993670455886,64.73169824652342,2156.3653787046824
3706.9434125900566,-12.118448559183754,68.53096142339776,2205.140250128052
3704.389635161475,-6.248848840297368,66.675960792536,2152.1348976377794
3700.8706934182687,35.56513046973109,82.39347007772932,2111.3255739306114
3712.3195586589177,36.3593423985875,72.13229260331717,2190.227771034968
3715.2665666880407,32.375353045780024,80.1860469284406,2170.171256414392
3635.4571867313134,-27.543496403009968,72.01285477481841,2224.9867082584665
3635.1938623326673,-21.947390622881077,79.03382423042022,2135.1819893673382
4038.890664402722,-73.49825245399035,63.1005030361896,2148.677724833215
4071.6956149238918,-190.95969416167273,63.35450432175451,2176.643679977935
3097.9885222524513,-92.76704457675851,99.72654974667647,2170.9617855489546
3449.3151968360235,-92.32534904019113,85.59053507246387,2173.3913207945643
3865.3605887108897,-238.24201674389946,70.95094446890378,2178.7241627474923
3865.3605887108897,-238.24201674389946,70.95094446890378,2178.7241627474923
3897.587356949953,-254.73879749263835,68.97247361990269,2188.7480747463765
3896.302387800235,-256.48580446879856,69.69282560137668,2178.682813430158
3895.2906811985476,-270.2156283063973,75.67987490122636,2306.173791241864
3894.714819538409,-301.5224625990482,72.53936771341031,2125.7319012071457
3895.938194325248,-297.72768469569064,65.89782770591965,2276.317400288091
3907.208842417846,-208.41144593273353,72.47413625849549,2120.1780721537107
3839.4335316812185,-299.66134779582916,76.50910355694282,2113.6526200737517
3834.5024950683714,-341.9244806977923,73.06147945635296,2220.2468204723027
3931.5854074470535,-327.46256659917947,72.94222911654113,2273.5781797705285
3924.6822012063158,-321.7595487435861,67.6106770120481,2245.1596861884336
3720.2536648776004,-407.2870699481421,88.10554733698545,2243.8289243290733
3297.143617065885,184.90920062791167,92.30987185918596,2118.6402063493692
3366.4120789087033,185.99514340739273,90.46686704184242,2181.641533506594
3317.5014928231117,299.52574672060666,88.57406694642016,2366.3941489948525
3319.4379456817996,303.0476435226994,87.47884879872335,2366.747312738824
3298.424004284905,309.13629181584406,84.9850562057226,2359.5946630342255
3285.9963238966643,284.0988172253323,95.99501481840863,2350.0677194056484
3288.2266975074613,280.93560611990364,92.33483185282931,2342.2923109189896
3294.9760897986707,258.3232427691446,87.86478704768231,2334.068890098984
3294.4225214899816,250.5603480437367,87.04701262474278,2337.6176003542378
3293.9360879873843,245.99385720064447,92.01542716903268,2256.4352239305827
3303.2697970167956,258.19166113716324,82.76704174819852,2105.44402465168
3295.4662885897,250.76268179402948,84.78243455915901,2296.1866957275047
3331.6276109765568,314.86014568938384,83.53302377624999,2176.8175997998615
3238.1977197343917,293.82204501380073,83.44146236221954,2311.955079959801
3199.215008471287,293.95886020802703,84.91412131192358,2317.547417700591
3212.8846050275583,286.60519903838065,81.1993292398399,2286.25874690659
3217.622140312216,278.56865745521674,78.96905991240381,2013.0376865658893
3369.4110592134202,239.01101149824527,69.17586833429453,2176.671729525804
3400.4287009726,193.1796390284336,90.56627325472819,2193.7391709349517
3377.507541392538,215.0427370494821,79.25709462426408,2264.8521443946943
3386.4526057124544,224.244797112528,82.97217350277474,2137.141443366184
3396.627931403274,180.60678671449583,83.27671417990291,2136.0498424201087
3395.980901473039,181.2033410373223,84.68957419929322,2243.2162895267065
3395.6304787886165,182.77893421100603,81.78148361566467,2238.69961599593
3401.5672942104156,165.81158728035962,71.50838007478856,2239.67120639326
3405.269582413722,165.6637762630276,79.16848923522394,2294.804351787224
3336.4986194156263,90.37692254760424,82.88332738929142,2180.869043934286
3224.413759962047,37.03266729472062,101.75723424904781,2215.9719990264575
3337.8661665715954,-13.844927240282022,84.67626812120353,2157.6012958211318
3336.7302685285695,-30.42706427543854,90.91986705849476,2197.976942875945
3507.6176084470653,-49.048222180929265,80.35172078145308,2153.68893824072
3486.980042782544,-42.21590413633226,85.6173927692443,2320.794505252163
3487.529322058379,-35.82519474234922,78.46223272876993,2124.486145345147
3492.919406770228,-46.79893132669643,74.65694210650702,2310.1977928385645
3492.7892653748854,-49.858559586982594,76.04351271566198,2208.2634968930042
3492.2852628449027,-48.212014436038245,77.83832936988865,2166.2328444399946
3528.7811190305724,-112.82799114422755,87.24914481160378,2227.920950645302
3540.787250023323,-124.17883851117782,81.78484281997015,2296.550548932532
3536.9610712073504,-117.86651675451705,84.68389450062763,2196.8420296125078
3391.128736196685,-42.77647317962311,90.28351674742008,2220.856970613503
3391.9061060736717,-41.75054335827742,91.08594243670959,2169.337113636804
3381.4179371699533,-49.97788729024073,85.02147568670178,2188.987161990838
3385.1254163734725,-49.53448673779908,84.26724414058032,2281.6338957718626
3527.0018208887873,-67.75995244700742,86.55458454041248,2084.4356561051873
3602.032570048045,-16.037021887799355,83.86792414901832,2171.5997310806197
3602.032570048045,-16.037021887799355,83.86792414901832,2171.5997310806197
3672.012616725439,-20.56104839598248,82.38355957028189,2117.3538607815703
3561.490992820315,-144.96538045471902,75.68139484390758,2171.6241509941106
3570.3555018954903,-166.8323009978638,90.40289891094176,2275.180196434477
3256.7317461858197,-134.26558929178188,89.23310280573246,2093.7218029046967
3392.221856765527,-185.67209193021017,80.78086449787195,2216.9484297012477
3429.573597612164,-91.09584678546307,99.38181416069489,2240.0322481316766
3424.8763064966074,-93.23037178077763,91.8330554344355,2251.3291966305637
3180.987632719514,-169.1883789163546,95.8086200450115,2253.815865745704
3167.659389661327,-8.410854116287808,94.00684773839556,2140.0599034630523
3312.790186562722,-119.97274215989502,90.19026881780619,2207.271249861211
3295.6777615158276,-179.94985784454582,96.27763727520556,2175.1059614357346
3267.6540469734873,-214.52664588232565,97.64186871894765,2121.2390218684614
3269.724212156801,-209.59349946191838,97.34541103332512,2284.3014621966227
3267.995702642871,-206.20526146016056,94.05751607779449,2263.3476883676008
3323.019243260336,-226.766931839478,94.43694207385845,2236.069929831986
3322.3500019019693,-311.7541214949182,98.94221194496028,2254.7889814240425
3131.595614159753,-382.02040659019,107.88271612455412,2211.7373918754083
3138.1083204088477,-356.16061398277066,101.05762745041149,2033.9713671469563
3148.5649757400192,-344.70066177502235,96.51035168402436,2307.8559005809934
3149.342563919716,-357.8885044515785,100.30439516715543,2281.3963316736595
3167.3736232749743,-348.2556620998987,112.96577780574084,2144.052777752465
3161.9762356050687,-340.90682807911236,103.55468702662137,2218.5040962912426
3252.219981577989,-325.3985180229953,97.82274083113033,2103.408597714729
3374.9606103433402,-152.6803428510341,91.47953120713491,2040.9524149844356
3369.9407829222687,-165.4726711892711,88.02603873069553,2284.6569933330197
3374.0635788450177,-163.9184516323112,87.47375559695895,2261.943849284259
3375.433712074754,-193.5310805370079,87.0264244542443,2055.793422749726
3375.494797847641,-179.65309988790784,94.37554985111537,2224.895140741739
3402.2221677621924,-93.12044799622609,85.94639945362428,2278.8890045002295
3418.1647137603786,-92.09901234965453,91.59255391409361,2130.128007615747
3422.765265256987,-95.55536868146986,91.49175830775404,2288.407045890833
3422.4419268009,-92.74359515422687,83.14496727424198,2301.7311251244
3410.132215843454,-103.37404162535067,92.35051427387005,2324.045279214955
3419.779721904333,-114.53042869936641,87.24992002500383,2294.181452679858
3414.1054370894144,-121.86172514607105,87.79317858252352,2295.560080818632
3412.8752541199638,-139.83445521201324,89.52338101780292,2311.7332905871244
3426.596038251578,-139.7613415226158,95.08046796948281,2088.8120323356834
3425.314177972405,-145.71972573827134,88.41463038023123,2247.569012352953
3424.030808734922,-149.4438413889625,84.95136857561224,2052.201065375611
3405.3482138868358,-172.63776026051596,92.03102267781416,2147.418423065185
3405.3482138868358,-172.63776026051596,92.03102267781416,2147.418423065185
3407.62044608601,-175.83226888004486,90.50591689084219,2254.102396813497
3382.85905678862,-194.68358390891052,86.8048970037187,2201.0499579516986
3374.4803069179775,-159.4188225482427,83.94562735353296,2189.8620591363447
3305.3186092686046,-115.7696296075769,91.07099196510957,2135.461283984544
3305.3186092686046,-115.7696296075769,91.07099196510957,2135.461283984544
3280.692273792574,-160.90541384812008,95.45999245048156,2210.2619329950644
3413.194822000055,-585.173881296155,97.25808376598147,2117.9591721162724
3416.4315653614008,-591.0314307549655,93.56634765006623,2294.5363833743963
3383.242105921015,-605.3422976150305,100.45464725859397,2289.9477194940464
3367.3260060135817,-611.2219592947216,96.059393968394,2325.5637338950364
3394.701658585943,-676.0174924863423,99.24500248323368,2313.3398125052813
3388.8819157696717,-662.4184335635373,102.24494595407917,2286.775787170004
3394.6474990327915,-655.6391850415631,96.83901790805729,2270.363824457954
3392.889737956218,-658.7620781604637,96.83753797784296,2129.879243146265
3398.2231779158783,-637.1511118080175,102.53719275149308,2237.170071631798
3409.0002350549057,-245.78904286885899,92.05621775337657,2222.637522511263
3413.512054507925,-239.39190956623665,93.35703688304889,2114.651198181172
3458.1657376176486,-245.64781425734338,83.75395856843117,2095.0838073012865
3456.1867449213487,-243.1963706493881,83.74122627010671,2302.1714230412085
3456.569017964824,-241.18997995756303,90.33661366391046,2148.2792672227934
3689.751269740729,-35.58087929677154,75.9470491927087,2158.686714766502
3520.16323463462,-211.31552268947763,85.5656059600351,2171.687741836809
3385.549106440796,-97.91909050904451,89.77825924122789,2165.6014122138563
3413.3759606448684,-169.29591410271988,86.96082713932016,2242.8507577946357
3411.210450770506,-173.40768336651942,87.04060526048404,2246.5521932287447
3403.2130080663337,-263.42772178192183,90.45080904221055,2174.3360827836327
3859.1132445237554,-396.56238564797235,77.0274008577176,2180.7554163263535
4016.8572837073652,-61.524152611636666,66.72114257365678,2192.4605590751808
4053.698855064902,-190.54843379014295,65.21618448481766,2219.0997251594736
3816.1435316626084,-299.1365706042829,76.0327888994772,2082.590258050876
3703.0235795297076,-360.89363786368625,81.28584139816809,2224.3817734813656
3646.426357823439,244.5086939167936,65.68901097813144,2199.885759048054
3595.836319818351,213.6561123222801,66.98010534156904,2202.217373415138
3594.1532044984815,-406.35936301169124,94.96746332929925,2215.4026922965286
3628.2891063594516,-443.25828634289564,88.74617069306929,2233.787985529289
3136.15277919835,280.75728703983543,86.62526871535252,2202.9831187675304
3136.15277919835,280.75728703983543,86.62526871535252,2202.9831187675304
3139.874176708498,196.98385538135358,88.99403434907784,2266.043312012524
3164.8747487330215,193.7344569534302,92.57392274066112,2265.353462690914
3161.790222638454,197.98621027441817,92.50676422718374,2106.127524212642
3160.713691997671,195.44815606824812,87.5577233826611,2058.5968093042006
3152.205681921027,192.15085237857048,92.50515144316753,2154.329430718109
3154.3172809267207,190.79840169758884,89.77754892598473,2034.024863131818
3232.022113162533,139.8432740619991,96.81817722653061,2002.7749015577156
3251.689538284453,146.8176005020171,82.74899106894861,2237.6796345669895
3258.176820103202,155.87960613747603,84.6326317889325,2294.570577909955
3258.7338423413153,154.22039191705915,86.7511308855814,2289.780470162274
3248.9504226594117,145.94952473857003,90.73517030944,2019.8784049342034
3249.1970346220573,151.8687206686438,90.29923360512643,2154.5998314023436
3671.056962491065,-337.3025694984764,78.29038567375044,2192.8655064300865
3624.5549872754596,-188.9430348643871,82.30965476643587,2172.0304314667624
3535.775819494421,-272.9641437874387,91.3017281784659,2201.737152150521
3748.00692036193,-159.10045078313644,72.85504339651736,2164.9137797840426
3748.00692036193,-159.10045078313644,72.85504339651736,2164.9137797840426
3419.7809223476083,-312.863026435393,90.65954345206349,2218.910396505822
3138.682277857609,-230.02911237146526,107.94293220517118,2177.1074107300747
3144.0972252111806,-235.47040177544756,107.17433963628582,2260.0614670530254
3137.8082971966305,-241.3502018926417,103.60577944394508,2152.9460586192954
3152.5142596103337,-249.28335772024653,102.42255799310945,2309.3489531333244
3163.4432083545153,-261.61090198164044,110.3400114655816,2271.562622668949
3153.034679770781,-284.8175766225221,92.72199419137051,2223.8062848362392
3147.1462036177268,-268.8356028298605,105.14439248561017,2158.3408990399753
3147.1462036177268,-268.8356028298605,105.14439248561017,2158.3408990399753
3184.7006371866287,-231.38688788064277,97.55094688389543,2185.817790673427
3184.7006371866287,-231.38688788064277,97.55094688389543,2185.817790673427
3187.416151579651,-227.37193424063852,93.35491208737665,2169.351358455573
3183.1090284822917,-231.89382286813594,95.0648709334565,2186.824735611594
3777.166292451687,-135.66028493032468,71.55948395677864,2190.340797697433
3771.3600144327556,-120.49655485283698,78.58888792128721,2258.5495521361067
3779.565863302767,-120.26037754880086,69.20542299737696,2174.9536780921676
3782.962267462545,-118.85093369861755,73.09613753546289,2191.7488387093927
3784.7471284045596,-115.44131393820383,73.9801543557387,2253.8885988942116
3779.000287432846,-111.35321066448707,61.721307170804565,2159.4952728717903
3781.802910532191,-119.31309503820499,74.41850807570363,2214.735793436377
3744.2475998330037,-98.0094822610193,74.11303026927023,2214.310828255968
3658.052498688949,-123.39757163126099,81.79626586820658,2281.061969944062
3579.8497717696537,-111.55004503457873,79.66505421960747,2163.3216255689736
3635.382935623178,-80.92485039994389,77.28105839025729,2210.4536360148118
3629.984085333145,-76.19763226218167,79.73014484935523,2210.136121880699
3629.984085333145,-76.19763226218167,79.73014484935523,2210.136121880699
3544.478700019703,3.2057398579317913,76.69770543593152,2225.0347273294474
3437.105126005401,234.13202152421593,76.96193541810321,2236.0139965630146
3378.4360795581783,523.8129988540842,80.46311563443636,2105.089801184544
3449.1013312111168,492.847752550087,76.96263518480856,2090.5109112313758
3421.8117647035906,492.4656993449981,72.59473295146078,2084.2145994288503
3394.5379231301777,514.026494820314,79.83851184704895,2137.202264644225
3076.674837297679,589.7952011000849,83.33572578022805,2165.3257164185734
3641.1298291079283,-67.43263467370849,81.96560196146051,2177.3839033504055
3152.6791483438324,-32.78955605052462,95.72652771450554,2243.954366565799
2977.2318470777486,162.14809661654755,102.72146244039239,2172.405159745531
3036.635131368225,93.48139579076806,97.95929283603964,2170.6986055699
3246.002734653066,-147.09457879480175,99.22290469876665,2231.865155776227
3257.7058273311786,-174.27122007738691,93.24618696049403,2342.950679801345
3257.0975558281784,-176.31788763285726,92.47874382501932,2301.7340098030327
3230.828056990742,-196.41483368215665,98.04477019153344,2239.4202709722117
3217.3305415700916,-166.57674925467828,93.95511984734893,2049.8161826943942
3185.9864841994963,-174.28158318095686,99.340710389777,2269.916699375855
3097.890005178957,-110.9569684857865,101.9756459102268,2140.602987228995
3101.0129544006095,-94.02785435901379,93.05349600063674,2222.676827924946
3094.2946421067127,-99.59517589180265,92.93577884271582,2177.319266148354
3052.488888274331,-89.55318873509214,99.55658025392636,2016.6620528128715
3056.0973355278716,-104.82755755115674,105.04171672691197,2319.2797413696703
3041.0868791624966,-16.900808129022234,107.6896112719262,2216.0873966030667
3047.3119205449325,-24.047233275388578,110.56549681299488,2149.858313811947
3109.5799107102357,-167.8081184907924,106.14977893667806,2193.897201683926
3113.6535683458806,-171.16803876330795,100.61646567897012,2300.9020257813168
3147.8677990226656,-165.44616718862153,98.54421478327882,2223.5307691272915
3548.9086008828394,-203.5412369193671,82.58382294117645,2174.913625145872
3488.872571164119,-238.4395942670398,90.81455571190439,2158.9059277690767
3491.569208831985,-234.7026622792391,84.61996954824954,2153.386718093358
3372.7389313286035,-139.23474806564778,85.49255094557921,2268.004942874628
3371.263518788426,-145.91948758586423,88.77576981396348,2286.559063429558
3364.771764289896,-142.34777743478642,89.79912159844311,2214.3985036613176
3365.9841335215337,-144.43132683762923,87.17740643585746,2117.2619930663295
3371.8660731634473,-136.4866154483868,82.91853247594645,2250.9526408952506
3408.1065069396986,-183.60286506011187,86.1519038068546,2241.104526213113
3421.7467936168805,-162.9240765918734,95.12162606851602,2141.7052185610055
3475.8573801898037,-279.20089132856884,92.8999567957293,2172.591272737953
3352.1132514012797,77.15275904332574,90.52219375966807,2138.478501800715
3423.57307566226,-0.26903337187963405,80.2609687411497,2233.7925721174497
3426.092780285306,-17.923761539664486,82.39014974899878,2336.710257504987
3444.17598789095,-17.73802665747453,87.19915087242528,2326.3629675295592
3426.463470077702,-24.195165722069294,84.19692058770596,2209.246169378741
3287.856776998911,-195.04435897556084,88.19878408235257,2210.5428744539627
3397.0435039314557,-328.8803730240948,99.29380895460817,2080.8012809342863
3370.484714956168,-327.69024063239146,85.85662473977558,2159.8159344950604
3370.963038933806,-269.1115121597914,92.36780910001296,2194.997935264609
3369.4120546930417,-315.81064796066437,96.37638749816703,2217.9615133578236
3258.109179075927,-259.7789526559197,93.74378656754659,2277.592370421926
3245.0561749217063,-256.5088669893952,95.2239109357623,2240.5155601266024
3332.4817854366543,-266.22243644587786,87.39336090468032,2220.1875468859225
3328.525542952037,-267.99808284954753,84.27261350266691,2143.37379625743
3328.525542952037,-267.99808284954753,84.27261350266691,2143.37379625743
3333.283267175757,-252.43898944240465,90.39957931616298,2294.296964480195
3327.992480013976,-261.338600624839,94.3290628930122,2298.549046324125
3319.5487610596674,-261.1291542358438,99.08157894711941,2212.4906765976216
3514.689222942334,-243.68024650682486,78.38169345219531,2162.783951023402
3501.738770580486,-243.2335132594406,94.39431162742527,2210.2200398726222
3502.5140242901093,-241.120948176978,91.312972726085,2151.1181189731487
3377.233417072713,154.65095882919834,81.8738105172785,2182.247392890982
3395.388732337665,151.68372122076516,85.61347490363048,2204.673243352689
3388.9964837336743,177.04243931278853,83.35071525247302,2165.456013690458
3389.925326683666,175.23187948284541,89.57908684151731,2263.774036998428
3382.2886811638273,173.65627429865395,81.7753784246478,2181.207752276712
3422.0248187034895,116.11916223589738,86.85606770672216,2208.1076500483987
3404.3685630172076,124.10751959403768,84.7952101707021,2221.3474679242368
3641.471606785223,104.94773646357125,78.80966234013214,2254.1512697667968
3689.074039186159,108.74868268467725,77.95148703572262,2248.62896143228
3688.5847079930995,112.21438180411302,76.96066089986928,2176.6512276178764
3683.532477698661,89.16733342576133,69.59677228910773,2165.0021467684765
3722.1922097691004,75.11073609809353,76.4089347915293,2289.867528000374
3815.90369779722,32.04618457107026,70.83074648509198,2128.920962193148
3826.0613323260063,38.888092529814514,70.58659293498162,2297.514297743937
3822.057434262888,44.895748648796065,71.71401514263283,2330.1974288058195
3822.521644788956,45.244419201075125,71.02491720793002,2302.5735982526526
3836.196547843725,68.71116794809764,67.94303147094188,2153.9996990845534
3793.3873104128925,72.9503106429184,64.19015951696545,2213.5549095230704
3381.2988783927453,134.64309415987103,79.8635529418213,2210.067881281781
3099.2431172737965,13.747388027785723,93.12339357404687,2188.719449636244
3105.4595138513623,53.35855228996522,100.33493687640787,2074.4646997032983
3120.063556141644,70.67028971011938,89.63641156510404,2300.7957423150438
3176.81955408559,108.35503579489522,81.87679523521845,2284.4403354140736
3181.694081744362,110.2094190989443,90.97873944513232,2319.5276809894153
3170.338930316982,123.68576227064068,90.00124019886951,2155.5987710476074
3304.5835260429553,296.7467522978275,95.70550257576055,2135.8267136058603
3297.0649154844123,297.60030267779274,78.15862031159716,2218.785228260062
3362.8011531471675,316.61984062275224,78.30432445927663,2156.370324628176
3364.0160483841128,268.1283828205826,87.11527753343117,2199.45781394714
3027.881989609919,-2.915723228165657,105.12973500344482,2146.231180262176
3032.1273530379053,-1.894900118114164,96.99433967741777,2216.5482924061207
3413.9173900849564,332.1694365960706,81.07662598260295,2200.1207292575073
3013.299098120885,302.28925682970424,96.85498517181802,2245.852911985936
2967.6359553664183,358.9206550815845,101.87516195087265,2265.562444500052
3009.4437948462855,296.41202892611875,99.93461974430292,2296.0798203209215
3009.3648093192273,289.0133497124267,105.32160714813634,2257.140805754173
3150.350699630606,86.28362794768282,90.29861567803874,2263.741665497387
3146.5247231321655,97.56527973262126,96.15218031930675,2133.2906123246225
3142.299263337379,105.10338869507213,89.44340080717743,2277.1964475420796
3020.3996756572533,98.35220069544407,95.71408359361438,2320.304638954536
3018.0063744721974,98.79697002122421,100.003548748633,2318.1264985926837
3029.7187231416347,96.26637880980266,100.27825044462556,2155.798568113716
3118.184362242214,3.334749687452332,97.20495003642154,2224.255721692433
3096.8793172108876,7.199238264124699,101.22928641065609,2230.2594813024257
3134.937646286161,-36.07714337102442,100.73132570920143,2319.4021609588813
3157.474830106907,-48.80250679108019,92.8297197638799,2106.252470767815
3184.0820408872123,-56.03570300314899,98.69312882558414,2163.715048178563
3562.4372337953246,-154.78239271791583,86.2992592270989,2147.0245360625418
3619.065662105571,-112.6014222863998,80.90105693337397,2218.075561206872
3592.5318474764827,-108.661744235331,78.94141676019703,2082.9139349858015
3602.555545744108,-136.35485037528917,78.58547407021445,2285.4040970936962
3599.953063566313,-145.35116943461983,78.87595364364692,2195.996580487408
3496.278493286004,-90.09519823287108,84.14973846620894,2306.812410044802
3497.5567976247276,-92.56760319716157,88.09721645970052,2329.9153801614175
3488.931699074065,-93.94962282387493,86.94828145272002,2327.312511439549
3484.7449467236424,-104.9241429093618,86.55669753122459,2291.2155579120126
3496.3594037359962,-104.03417923960114,86.22857897274648,2201.397197272619
3554.6455020043572,77.73771646627323,79.39087378690932,2210.7977841205857
3602.481479983985,229.18603237450844,75.27130989728542,2222.1687281203626
3610.3685470766404,236.67278712395668,77.88333519874776,2230.528623835037
3612.4618210793737,237.8446967381864,76.7589935275645,2132.58207597979
3473.08338772671,22.800714826314227,87.20590560587401,2189.784643340697
3471.0986833133015,18.837891859041,79.2784878463505,2189.595504643671
3536.641777475265,108.04251016002152,73.36892818032555,2151.6506012459877
3596.329246261145,58.37798089279673,83.3127272551966,2185.6075566566037
3560.1245698700095,32.115903278467755,78.19199298683482,2164.3063740484054
3401.1439433009173,159.38585424050783,81.70153453362568,2176.2557064690986
3246.478409445889,33.06838605985596,93.51674155461593,2309.443337230419
3243.4244225169487,38.96267554528096,95.54034145106222,2344.301325640343
3244.1439564211123,32.46984032714483,93.75537594928369,2104.8800183394433
3244.1439564211123,32.46984032714483,93.75537594928369,2104.8800183394433
3297.9631091977544,-50.12130004972942,92.11449040533046,2351.177576212975
3292.3151772361766,-48.65205035934342,92.32472678506011,2313.465558461412
3291.1876110499056,-44.107459799348014,96.05861156176057,2282.364939635441
3287.51744805869,-40.38535094940968,85.23588664293726,2295.3041724181076
3329.1821697154596,74.57982242084404,85.95763230920875,2235.350492402201
3331.1917783467106,74.11239100725535,78.69212888061035,2243.4576610119366
3355.8749662371188,65.02161359639015,91.20620188063828,2156.320078501916
3354.4908042334723,67.36837546160442,86.49829934894363,2199.0561530799787
3148.847670396376,217.14204918105193,92.50133381488959,2189.7962810585404
3387.3600296836444,-272.67479348917834,88.92199730598095,2176.9384718923
3420.454892000911,-413.6017004434282,93.04160823560746,2195.3827927101647
4027.6933147466575,-157.31643809968833,67.36403749703915,2193.4900161282785
4028.761124479295,-158.0244702194567,69.37588455269864,2116.610239999769
3998.916958792223,-162.10799540122616,72.31705033129994,2227.2726464945654
3993.433559349501,-161.88983434308122,74.39032265420775,2267.712619823441
3994.5615557189885,-152.2552731426015,73.34869838155376,2278.5303503756477
3982.8402520090094,-149.05711997440395,67.29185670563051,2218.2742074920966
3943.3146695411488,121.48030964469784,70.83806010375444,2173.3717299324157
3151.031616809417,-64.37820779927186,95.13290217856465,2169.3397034670734
3122.7206941301697,-75.90897464462253,99.45096480470855,2143.46250025977
3093.6758373128923,-92.67113684674133,99.33486143806202,2150.5637646611717
3089.0384374189293,-70.47598085393533,101.24806818086562,2267.0356271286964
3088.15344352828,-69.64718589556144,92.9097243223393,2308.068229003867
3083.933004377521,-64.2598548247369,86.90309575163307,2308.5743621344
3085.97110088605,-64.09236965828457,86.69649757295285,2294.68260545144
3091.815133543815,-63.905435734944156,93.10618748583012,2296.691531626012
3092.8036668013206,-56.950029171042026,90.99844320949269,2300.3141052815604
3098.060112939603,-70.7995478975103,89.35582675042922,2302.4016708515555
3101.1542954993756,-105.35692067636839,110.24779571276004,2186.17121296043
3336.9196299546616,39.10258366173852,93.28431370401412,2242.3171116641633
3376.7780850004733,-128.48730088330075,90.83620367448789,2230.3427094339645
3179.7353349692503,-112.35288454232776,94.95652796105045,2209.5344714228468
3179.6786719840443,-30.73464758770184,93.26039315591217,2253.029846565713
3168.322392580586,-21.84402252887696,91.85579305894346,2053.0165838679604
3173.108620439668,-19.60800942404202,93.15102086530037,2081.171685653038
3209.7552199986235,-11.890348253149934,95.1119671409483,2256.3113548564356
3213.3998463424614,-10.983861025516081,99.14989009034602,2174.256316812002
3178.9784726717803,7.693730656668985,91.69720998200282,2146.168733113839
3178.9784726717803,7.693730656668985,91.69720998200282,2146.168733113839
3441.9693779988174,6.618750781791004,80.83280731915156,2152.0568688767107
3441.721175397347,21.916887981680148,85.52368915259854,2222.3506088245013
3387.73258987001,-226.04616340168835,92.43103695818114,2172.500282425613
3428.068130615674,129.6378673755947,80.23024895358287,2153.647879635405
3407.2968514948675,123.24303640008443,83.52961747450308,2283.7634825413916
3383.3645119009407,102.66892549833018,84.2914406945501,2243.307152497572
3388.7885059628575,98.37567944037703,89.94632330114901,2084.6035451348935
3378.306140739687,104.34928385021377,86.91543148812116,2269.8101509993567
3399.725827489019,257.17494107312694,77.2927579769318,2217.3075308825437
3688.722235327516,21.173613653263935,73.92463876153222,2264.438390492985
3687.4713178004054,19.298841660354494,75.0864029077825,2279.4362620859806
3695.755620467013,16.87454391394785,66.26988691447204,2147.291041483145
3701.0919756880617,16.538332771446118,71.95784027421199,2282.269507534861
3688.782620048177,15.52615253325682,80.45278243025157,2149.1662411267394
3690.5556727268918,9.981561633675398,77.90181003779276,2283.994665501137
3745.0298380876256,19.69664204698021,69.90910334879696,2104.4941886518345
3721.206214628547,-34.97325290637746,70.64029924369783,2177.9602151414847
3500.6874610587906,-334.33721582278315,86.9929293806187,2205.2142243896633
3523.368797724525,-373.53892416960616,88.86092879258628,2161.433260931145
3403.3532334018496,-300.10598038302624,91.02885717903544,2150.2940483097245
3276.8417578434005,-231.2244206725597,92.06020680700345,2220.1155982486775
3277.7044600803283,-229.21235849311384,93.13738145709459,2129.7925026615453
3362.7456468235487,-292.54926863706766,87.79429896583696,2262.0883447724354
3343.8262261954496,-424.1084822488518,90.33720382163632,2298.8306780229186
3350.373498997887,-409.16797122564594,101.64576965590068,2125.7591458690604
3350.373498997887,-409.16797122564594,101.64576965590068,2125.7591458690604
3279.793076658766,-360.1502628903529,100.9185827774486,2243.617381535225
3143.039149743368,-183.33983217150674,97.72170992042015,2293.43719642728
3158.6172311186842,-226.42952333383812,101.89240475025166,2228.248897910598
3164.989160885324,-222.81793197730886,95.73744693986711,2206.932911184563
3186.125432098898,-158.10750624576164,100.76956496873409,2159.022996848595
3816.5083379308257,-299.60677936867205,65.49218195743276,2174.262877021948
3533.050940240641,-75.78591256634765,78.35403951005317,2227.6209780736717
3529.314248304883,-70.97725714563234,84.3172546802423,2309.7488145152847
3518.617740043537,-83.7728170379027,83.93798011786579,2066.1951907680655
3519.482893128543,-80.8284368481974,88.54567926461756,2243.514270905128
3533.945041424361,-213.84947866557494,75.75236173717225,2190.911071855073
3478.2298838698584,-260.31169680344215,96.09958781859463,2164.3980637792383
3417.8026250953544,-235.765242959153,84.01452171279834,2205.287725559175
3415.392886497739,-228.30549307556217,90.107735847825,2229.414881266007
3511.5571000508126,-272.9428807721448,87.5532556324165,2145.085835823606
3526.630662047782,-225.5464350334811,88.59499747672984,2229.5255001974315
3509.44688417948,-207.1836388431504,88.90653010898907,2217.3208995522814
3501.360783462143,-189.9673613836364,84.1127517252079,2313.0917103580136
3491.1708761534264,-193.79331068063945,91.5608796926875,2101.841022130772
3614.3602974462347,-100.85925897020981,79.46036537330585,2219.423722997528
3523.9414035149653,-82.2668877755567,88.66877990593282,2206.0324788195853
3653.3378563532056,-260.9900621214018,78.19742545798817,2204.156949172399
3417.5836623184496,200.11477617005224,75.21579929807444,2219.699531450083
3416.138159408058,198.09738905190696,76.23706012324993,2133.248316628721
3408.968347562421,206.06191060559055,78.9503455707516,2247.2501721177473
3407.075018400632,210.12925575221848,80.23271214636823,2123.1765823196065
3406.624682945624,200.4596549631154,81.92563825989644,2240.007886218851
3104.1022757571604,211.25141969173717,92.42118021769701,2176.7784987085915
3344.3068005432083,199.33656354006132,79.32822565062129,2218.099300468507
3645.1484359325887,-10.054109654968299,77.40339378495003,2168.999832738173
3645.209508218439,-11.973836186622474,71.21224855748343,2188.365300145623
3621.380566352022,49.934058085855916,74.58711818236078,2173.380599660827
3620.7693353126006,52.87833336214672,76.19934026768249,2284.1240895152837
3619.3505579940847,47.150169976779424,73.88836423037321,2188.049970487013
3621.3710942339058,48.45162807945554,76.57818277867847,2182.5220562526633
3608.224652864521,82.2871432381091,76.32384898308983,2238.0820549589776
3628.065288146257,72.81924596500156,81.64079974560043,2262.052983636357
3635.4460102822877,86.26894838932924,71.01143940365333,2302.87609601961
3616.3035974714594,86.38046512868365,76.60978785458565,2119.686674866429
3616.3035974714594,86.38046512868365,76.60978785458565,2119.686674866429
3517.542363523016,-100.16498801542167,81.2203382612606,2245.3038292003607
3517.700375520079,-103.18510146504987,83.17207659828563,2230.234889341305
3466.5388155492474,-122.48421998910351,84.10261420952655,2253.357342474949
3451.825454999246,-136.90136796684823,94.87684544113402,2095.3334822066076
3613.7784774142533,-176.01185729309503,89.83345444422685,2152.2235813623397
3586.0293919771775,-125.47544239025923,90.10536462662478,2194.4146078604094
3406.5029391225826,-319.4208165274509,96.07401981464895,2180.2901287251143
3518.192327749003,-328.4562460466382,89.76100704677724,2188.487748935655
3641.9313640583546,-147.02772748811563,79.68539001752873,2209.9259153040375
3629.5710018563536,-151.51845740128016,83.26678535746704,2159.241568651141
3624.6675630555706,-185.9878393586249,77.94259740642948,2137.7911793497287
3624.6675630555706,-185.9878393586249,77.94259740642948,2137.7911793497287
3617.9391677566505,-201.62692370202706,84.28357808341981,2229.5397200975
3101.8921184560004,7.571121687883882,93.37889669374297,2194.6185841266642
3139.456119195179,268.2241667987867,97.27297883814687,2224.9587913265354
3138.316447622441,269.2451796528165,91.21601418216132,2221.044251711851
3156.4847085593924,226.77491005064715,94.35218703973118,2216.2764954961476
3166.418809344304,234.1098881327822,94.59901703247702,2310.228006539373
3154.387567206984,248.53630319166726,88.39953671463526,2212.6891258392284
3147.764574027208,239.78923265572672,94.94845121222248,2207.6496942699337
3147.5068554102595,239.420286135883,91.59073717744927,2232.9601234070115
3159.157035623157,212.33585688389266,91.21393333168903,2345.7929667007797
3119.95866901805,218.7077366740276,92.97698998010692,2113.732307147169
3157.783427076737,192.11463735138463,95.04810313697332,2196.437333051973
3190.9985250525865,287.17134251232574,90.13364492394864,2141.7953226160653
3197.8800432555286,177.09388987866146,91.19861529784357,2089.9102053087818
3203.672712386299,205.80053161243606,90.45513763451862,2290.4676673202616
3214.4016615696078,184.77331789592392,96.96025235988765,2304.7167380150568
3212.500392984166,179.79664860113485,96.0089250745262,2136.3054011947024
3218.1979420317753,182.66498998685003,90.38892514060784,2256.00973688572
3215.1915410520555,166.62569589744174,86.39162421248989,2252.6345716811074
3851.471726902127,-46.3413631814134,70.48335859596034,2239.3265619036342
3900.7380384926214,-109.11142580807781,73.94817831038394,2181.0482950320356
3874.3604967532374,-117.91847224437397,63.13241023160827,2222.610678321205
3857.754517996079,-77.84858409912331,74.58214658477549,2321.080012949183
3863.8594937097337,-102.2288477022399,66.47526368206236,2212.5896550358902
4014.6185639242544,-322.55851878553545,65.4230456489201,2210.2981477458416
3821.05351665618,-411.6924319712796,82.55800761841473,2201.901328405172
3832.539065872596,-397.41728877700695,70.70656467495023,2186.68299179807
3815.508611301816,-428.3755552847734,76.402032438493,2134.4471261120284
3804.3517462032623,-436.6944333995143,77.53792061866923,2260.7136394111894
3768.969819607,-398.53927457375295,78.21022389165329,2257.528326554573
3785.6054052182603,-448.6110985566293,81.03212287633022,2291.4078690981146
3792.0588356777703,-442.8756060158151,79.8007469217433,2172.6887902519775
3511.001114634704,248.68552539688866,76.43718177122517,2246.940319411632
3509.018419881312,248.21629475556065,78.48934050418424,2213.0274223433225
3509.7151470943663,243.48941079165277,83.54021467707385,2214.0915103524385
3225.7520422164225,45.61292644908115,98.60887778763099,2212.555409628716
3386.676105357321,180.7902843789172,78.34328531291074,2131.206963768047
3382.576342768732,176.82835546300396,72.30361041074636,2149.4773633989284
3205.4115476103966,107.08796082718713,90.65944338851658,2255.3060485145934
3237.872249524444,130.5946610870581,92.49702146727101,2226.523142774785
3257.5728813313426,146.56925127838664,89.63456898256821,2225.8860177797137
3213.279547686577,175.39494741392124,92.58210027929992,2176.223059405671
3294.89784192576,-100.49331258019475,86.75195557945302,2130.5256194827534
3308.3735244871004,-80.45938415758138,100.10723519599603,2148.3350134420366
3679.9022033470364,125.92661894714699,71.6178632688297,2104.4112561044667
3679.9022033470364,125.92661894714699,71.6178632688297,2104.4112561044667
3702.0154024465696,163.67245970873802,74.39942293812491,2225.641565760572
3730.8230684373775,142.9304083807401,68.29109165834228,2323.156190862192
3702.1732278168315,145.45995570724506,72.66600402860448,2312.5298730219024
3708.6245125688065,142.15295579009475,76.42311035094617,2275.795579904539
3778.4100724304444,168.73633219855827,64.21296833172318,2142.8084711993615
3870.375245505901,205.30500975209947,70.99447237276199,2280.5808636683187
3867.8732722802347,205.14823014587873,72.8500451478405,2187.9892990730464
3720.79966495508,-127.13544962628737,84.37012025928776,2200.907544767941
3755.7878256075946,-19.743024776752335,65.24079219369769,2185.2612111659996
3705.593042446009,354.46118801471533,63.55524224382971,2210.291684332689
3660.6462500428693,311.7512305539895,75.1643097320118,2161.0589305414624
3660.6462500428693,311.7512305539895,75.1643097320118,2161.0589305414624
2880.5994382703393,9.388904052511915,103.02125306716425,2172.0441079057296
2896.247408759436,6.100926246093258,113.27871617771106,2171.1491018354436
2885.809713613072,16.485291125772818,96.31989785592238,2147.728251473286
2897.8947559560293,-10.472041076605969,111.15526070126309,2151.9167822477275
2920.8185821750994,-16.753861808585583,95.73593574855248,2208.7858094002736
2927.8107536449456,-13.949862235077909,96.70508207657521,2203.786000126333
2929.5565811845554,-10.178976286236185,104.24639771813126,2251.2844719826185
2916.6358472413144,-27.486941892161905,94.60665940473095,2220.7646868621446
2828.771527835416,104.62261149695362,98.89181463303207,2273.182357226601
2847.821270324668,99.51281221006916,114.67611217782222,2185.0061336036056
2853.8748770978314,123.79777445274875,108.62270236200102,2244.7902400825897
3511.710564443119,-200.60583080461097,82.8503953427671,2144.116279723711
3511.710564443119,-200.60583080461097,82.8503953427671,2144.116279723711
3550.738721248293,-219.58353127741395,82.06941762727972,2263.7342374814843
3532.165979397591,-262.19068681877593,88.87803988763191,2143.797201268051
3556.228533511142,-259.1853261694643,82.88631745790028,2204.177242681052
3725.8795071352693,-521.72084675621,81.27253597624996,2181.4045601936587
3295.435229074757,229.18575401797608,83.41194275189693,2181.174205973255
3293.194573880144,181.4473667337578,85.93818132851183,2188.846243548446
3433.347052898786,-54.50638555114559,80.36299615584572,2099.8540058759427
3433.347052898786,-54.50638555114559,80.36299615584572,2099.8540058759427
3432.8674036321695,-51.30473321219239,80.10500506799937,2258.7479877935834
3425.578246138739,-66.21829808048614,90.91130389192541,2122.4672010447334
3419.9529284362134,-63.4195809342891,94.43930398587518,2287.2173323756892
3469.3976386515396,-93.24644620045893,75.09044539756042,2265.880207723206
3473.858296955623,-95.44724424059699,78.21940416437425,2216.860839678472
3478.04078228406,-99.87179833781148,81.74788271758338,2253.7844216499993
3433.747298313871,-96.91795538450324,92.87687540272164,2185.3630984864317
3452.9363700673466,-143.31755587498793,83.12999704935031,2181.1054037961653
3424.7244798050797,-159.4343543164032,93.4330222225032,2176.501002769785
3382.940544149604,-27.67534764499596,85.34385403763063,2170.4756660974003
3359.3041072769893,-229.94492964364667,94.94113805166852,2253.344045903159
3360.1956763352196,-224.4963233542056,95.90078829706165,2150.1224169841753
3297.9865507717122,-361.90927544149133,103.66234794019726,2291.712843773146
3295.647667648299,-368.8316809262192,96.5196397139914,2248.213986243985
3298.8646181498148,-1.5345028278180237,91.67174942536022,2272.3423880552436
3328.0157295025947,-6.082437628980447,87.61140990546517,2202.7265012930434
3626.2419434962762,-132.0786800502931,77.07024947053469,2190.9217985214527
3626.2419434962762,-132.0786800502931,77.07024947053469,2190.9217985214527
3515.1516825447943,-45.58877324954108,82.25540796513847,2158.3668831183254
3527.3196410574315,-4.637248514216525,83.08191667894539,2052.9085758649644
3523.1399599897704,3.6561425885885592,89.57726280243747,2293.645427722456
3319.4967816858834,-120.27994080802755,95.09011289260819,2268.6212992625324
3383.82190252694,-77.13814077954196,84.39033245719996,2313.928307418322
3393.1207802386725,-81.94619630457663,89.03329219661988,2324.7225603907814
3397.76651824894,-87.21794703946777,90.93341366583404,2262.573339566364
3398.5561284160794,-88.40082738423699,90.65278983799472,2148.8945053867988
3398.5561284160794,-88.40082738423699,90.65278983799472,2148.8945053867988
3409.2102538007925,-86.32324921686251,85.3955666391459,2040.7284642507216
3402.3966106696707,-94.3934035984986,79.95409410927462,2268.488222719822
3530.0800464163062,-173.35402073300023,92.1464461693577,2265.715317543423
3708.6996126647487,-89.8922747424552,85.01989474019223,2210.0210269372774
3710.507215356076,-85.71948262886396,80.37426064888373,2256.382086328152
3707.9370565624254,-82.92173680680557,74.08099420525913,2134.865322527011
3707.629900251798,-102.12233033029186,78.58183565148136,2154.0922239148595
3706.523873527177,-129.6759289384134,75.34133498353827,2091.349144819539
3706.053945239827,-93.99536942717496,77.38345268481662,2230.9584634706716
3709.008870633633,-96.14191422755047,80.71528917315214,2176.362442836472
3599.8630430865173,-73.00910509887284,83.98022158254115,2205.398528377601
3551.1615832073476,-127.19994702661816,86.3010713766689,2215.3223446270736
3692.1104309956836,-253.33892088659172,82.43493831504479,2292.0853004395713
3688.6008609521955,-257.33613380469063,81.13259062534311,2183.014559436479
3282.492385397213,6.752346257938703,91.15688358543004,2222.7927311094304
3581.9305858887897,-212.0046409110371,78.04020505874949,2235.280877410952
3625.655662548145,-233.587677446179,81.5138235100261,2221.8110197775404
3624.938521015217,-235.50718517924835,72.95214712392813,2256.971417606155
3634.320557041301,-238.27637061394873,74.29228921698375,2271.380562355267
3639.7950689087957,-220.33612023458522,86.22466966227461,2229.69194111121
3639.345865678883,-219.4254600614497,87.02562915150348,2144.770651610796
3635.21854310465,-223.9034857098966,88.21583786702159,2032.4910501785446
3707.4021381404796,-295.23917836922874,87.69489156166135,2298.158949586761
3712.2293755361343,-296.16569747635367,84.4291313886185,2285.36225843758
3708.4998240828027,-287.23654758167936,86.67103186872382,2184.099629115724
3702.0904076809175,-289.69240258478845,79.75494842958317,2246.418170399721
3735.734850391004,-276.28992092360284,80.14654132147261,2239.7625673783505
3743.3990978999495,-341.88445744442174,83.35757485018718,2184.5480557826213
3741.133233444315,-351.71286730582807,76.31661807276768,2166.10128434213
3523.1662485768265,-365.25377977658275,85.15530412907482,2194.4833460178147
3528.911569903483,-329.2235365803765,97.66503356267906,2219.4951238098333
3529.9704938956315,-334.2754814088329,89.41857691386257,2214.7347689008725
3600.441737547809,-312.2227413704111,83.65812231783767,2140.1068209871805
3600.441737547809,-312.2227413704111,83.65812231783767,2140.1068209871805
3600.441737547809,-312.2227413704111,83.65812231783767,2140.1068209871805
3607.487353990505,-228.50713964014523,85.68290153022788,2241.9999922656425
3599.2199144705914,-231.89729952559946,79.86955370101902,2268.566330453888
3597.9951131470443,-244.7583988262423,81.13320372921599,2152.347632076405
3695.229516944756,-184.19781778135882,77.96495302624403,2292.970829200888
3707.4962437150402,-180.13666575017157,78.22488187099425,2343.696891953603
3723.1403561412335,-177.06732759797268,76.07406372701186,2348.674576906732
3725.4539182478698,-178.58926950433798,80.90378312561869,2322.5668766892773
3733.223366202289,-194.6254495207453,83.60580236193483,2277.823079227434
3717.905747145121,-212.03876286085557,72.41979742424557,2284.789547443993
3719.324322096979,-247.2311962651147,73.09497205538909,2156.159749705323
3066.129452561927,199.5601549757798,96.22592516646517,2117.383021730374
3097.6962128663054,226.36048552845227,90.77122186759718,2088.944545936732
3094.003967836558,238.07485644217644,82.99177552713714,2316.8393136789323
3087.9683588387875,223.3624726241381,92.26184262512187,2083.1106183353536
3361.879068710209,41.78238706703404,86.2111579487065,2270.464670284039
3227.703206607701,120.49838566107765,89.71358025128329,2162.5921518083073
3227.703206607701,120.49838566107765,89.71358025128329,2162.5921518083073
3556.845333200114,286.4268267992403,73.18994263396102,2213.0855492582746
3847.4812306601466,186.62035526218511,70.29054191393139,2210.8006712985866
3796.9050132594334,214.70030552625036,71.11494811917153,2226.9895870003324
3745.9435282404384,176.56271456082834,72.76759763871054,2225.8373689410946
3730.0368673095913,165.46539007241302,67.52391751267764,2281.3232880195837
3729.3347179493053,164.30439055662555,70.1555308951033,2219.590620755049
3513.1712812187443,66.00759689924136,81.91912868871795,2155.150947667243
3746.8958870038814,-119.31111522520297,72.97672839935073,2134.113965494748
3560.064524632285,50.45399109673837,77.66874798326127,2150.3467399592178
3395.3757366990444,-42.34680009544166,86.10168895124586,2192.9334424339727
3405.739450053738,2.395744878624196,84.74854353443573,2162.152431235933
3405.739450053738,2.395744878624196,84.74854353443573,2162.152431235933
3443.074799213537,-283.3234791024432,91.91566050568272,2154.623227509551
3701.229480261879,-220.98949086249908,76.071400603562,2184.3724996864294
3163.8114592190327,-186.57555402827916,97.93159360414242,2219.880737654515
3310.0976665502017,-179.40839153893387,94.0889420676049,2201.0130784481244
3305.2024780826473,-181.13370015005486,89.17818507259089,2269.014348516085
3305.618479017251,-185.46836756504263,93.71790612736996,2132.4489609392676
3300.1994529699637,-268.9083681972068,95.0505517163108,2209.479597161239
3292.6739571901185,-293.098368329315,88.79606326395916,2128.263339940135
3305.719457972125,-10.919379833241923,95.93896444292024,2193.87767056336
3305.719457972125,-10.919379833241923,95.93896444292024,2193.87767056336
3460.0731277824084,37.23136097417361,88.73251485285564,2218.2911151148824
3562.266023509732,78.93897591482053,73.78594548838652,2101.342036598895
3562.266023509732,78.93897591482053,73.78594548838652,2101.342036598895
3559.2311400653734,79.09579438504863,77.88478213890295,2301.964587337104
3553.3750935940952,73.74866795970938,73.79928213329099,2353.517183680555
3556.125810505008,44.72559378319151,72.48850407648261,2068.951954254159
3556.125810505008,44.72559378319151,72.48850407648261,2068.951954254159
3531.300284022044,45.50305308808142,87.08848997352867,2331.97380808084
3533.769767931558,47.809993681849775,80.37939141104548,2332.8653793877193
3814.2085896801545,-39.31962533328178,72.7248954288126,2250.874393908362
3857.910615514101,-286.99717206712705,72.90128019987361,2231.786680621068
3748.141690313933,-255.3295144052689,75.12285834990688,2158.203932060689
3729.981324426715,-108.48684129407908,75.46755922815579,2189.5890925049052
3716.308514486568,-63.941110600391376,72.70301103388805,2247.0586316109907
3715.146637310968,-66.09502685306826,78.08026196613565,2068.118347535684
3715.146637310968,-66.09502685306826,78.08026196613565,2068.118347535684
3711.2687758520906,-58.532584638978705,78.81724537520081,2054.2823580131085
3709.894170410918,-57.9492340309184,73.66828588861787,2080.771290333831
3679.4780582140716,79.4219701767948,74.12723385851795,2196.08696658666
3560.131524912796,-35.97166594015774,84.10421967274482,2245.1023852488333
3517.6919879884867,-78.35416954030555,81.72070018028192,2168.7875655234648
3518.7375948405215,-79.59591513955507,79.29653553468084,2205.939383856314
3490.290539225331,-120.0134998111107,87.0340353642589,2203.0762873955373
3482.5902489578925,-53.860562367894396,86.33775101216656,2216.1153150824744
3350.3638891998307,35.665116556049554,79.24999877398832,2187.5368917098453
3230.8345675350956,102.21514965707301,95.70703395746082,2242.413648789023
3732.569854017712,-13.325946090632215,69.08334913988945,2146.5073486004776
3042.2389219515776,-152.2817813358687,106.14640350285292,2163.9767594811346
3607.057993271619,369.27727574581166,76.1446265223497,2230.222680360892
3666.7658442439797,340.00337497654783,75.94635811658888,2116.103818422343
3650.715848695769,334.92686159957856,67.1551898795458,2264.0046345478004
3689.8163305301887,331.9963580690072,68.13120819863398,2297.2751226584965
3694.680444775563,318.38447570940633,74.97476363563955,2322.046107951178
3700.604796215717,308.03253359830745,65.21151244550455,2132.4136794857654
3708.391930046448,266.6383789544137,72.96788528164299,2170.1622572686347
3718.3831493522894,259.5515629090017,63.234939480744934,2215.191223109218
3673.118315011162,208.82446852248012,67.0480397404368,2227.8222697602273
3667.1886586881283,184.46139485361454,74.30271930755332,2240.130258024372
3621.2942156581976,158.68611444183242,76.99613586339176,2074.9351222402315
3621.2942156581976,158.68611444183242,76.99613586339176,2074.9351222402315
3636.0468851025807,150.83532897154495,71.20480336247985,2140.0460278018845
3642.1700078675017,157.31324488084908,67.94351512409453,2258.1394553242367
3521.454823394503,95.90253864785473,72.25510776959489,2205.4208974802355
3467.6696446012907,-72.18440488018108,91.97287884200577,2259.469554631552
3475.581588913672,-0.19283089897312955,89.6647844984802,2166.1936344830906
3496.178098323006,-149.29310245372906,78.97659381556403,2259.3620599665264
3577.810828100397,-220.24614199179845,83.8340397512024,2113.5352036234985
3617.809280340136,-248.6167548822903,85.30088455402601,2325.9317956724535
3612.9577801503,-263.618802696233,73.3915461965449,2194.159009935157
3604.916962871676,-266.247042775487,78.39716907763426,2238.7173580337053
3623.900718600168,-214.53405042428315,77.78281540174494,2255.9863680919675
3654.069113304832,-200.38344539189382,87.83502220067967,2136.8970116976507
3437.6875207515454,51.30610721045383,77.87099078872349,2157.0147204563973
3480.4759299418547,20.96075256586939,86.39601649278696,2207.9180919105183
3431.728663513443,-159.1780483016852,90.06450484652578,2276.692196696326
3421.4100439411964,-174.96564840745103,86.96332081529359,2349.045169554708
3427.0537353043055,-172.39114446725344,85.86900236386248,2347.5243159511983
3428.848685720441,-171.629603519244,87.72949754978399,2350.3927754557285
3428.2154414034835,-155.53082624494945,93.73124642594614,2348.064743208993
3436.6380659679444,-149.72482961516826,93.17312703705082,2350.7198503451186
3417.685923706098,-88.93636321696827,85.79238964023301,2221.725703005816
3421.3585575150637,-89.05836837754487,94.1715903824807,2247.987304050928
3415.6055940098136,-111.87413696544681,82.85585604106554,2228.8850694456764
3415.0435911515565,-114.02031142008697,88.1958172338592,2141.932107263892
3447.4506398579356,-56.00816788125012,86.10312801646862,2163.1922468393523
3447.4506398579356,-56.00816788125012,86.10312801646862,2163.1922468393523
3459.524960374841,-26.02427229123053,82.52680184644333,2194.6904344283366
3457.380557049062,-27.954736651752693,80.08746930344672,2287.730347097219
3491.0444726948576,-64.69432566020356,86.57896895112964,2256.325300800214
3578.158940258035,37.85178054965556,76.37307105049385,2083.194136454033
3582.437611130995,33.575740856758586,75.26406803657547,2042.5710350007569
3574.7180375934627,56.8985143959702,82.58463960793458,2321.266746708398
3575.9234194329515,55.37585173812243,80.18338351219374,2323.61686764774
3595.7431388865334,43.69104723714683,70.44674980420265,2187.2682158851267
3588.8467895837543,48.71384589802682,75.15008549067716,2174.0855388736018
3591.109934713638,45.24772655568232,77.19188582136994,2260.3281742543495
3577.861850417964,26.3584520421308,80.82178190848727,2126.487908775146
3590.7467913137516,15.4680226468533,72.64055079527203,2309.453596968425
3608.8825981601713,0.8447693432001868,84.9414143597248,2302.7478472146104
3627.933445019794,8.786128259927985,74.18215594051945,2265.298038793545
3629.9839330320688,12.200838124105067,69.20190524735294,2095.100474683792
3631.1451443157557,15.261511788801798,68.63933056136729,2177.316497555146
3560.889011928795,69.80947520426753,78.47885159074688,2215.466466500863
3540.2390107871684,45.54070668909136,81.08894374684621,2230.7032590627923
3557.8968998871887,48.100457208808805,79.9942444173314,2266.3907400860558
3683.1061561054617,-50.268656071383674,70.37081376135818,2148.834337059173
3738.3902024591207,-29.969194741584566,82.01499040919337,2185.5994177114494
3709.1624921731623,-14.07830338509223,61.825630503393135,2183.0175916809535
3709.5863231803337,-22.868773404380985,75.38400531561459,2220.7425876686934
3826.131942432335,-44.167932206621494,67.13765892138832,2311.4184162318934
3917.6224210177843,-97.57977790022763,67.98674515576464,2102.5947212465976
3916.3097257426143,-99.80785210230685,67.56615950500967,2062.1154947919144
3912.5091385788355,-98.68435602250558,65.0641877596744,2064.4130365597107
3894.5800708896795,-42.41385575774122,71.76701186510142,2363.88106347758
3894.2930593937836,-52.78034912721067,68.05510245393691,2348.331103912682
3902.7198943565345,-89.59206973386972,64.68410735938035,1974.1267878648337
3896.9742739882504,-96.2205773005135,62.339760778905635,2246.1812241635857
3880.135981747243,-77.1043088851264,82.88364146292963,2272.73813992965
3875.0577039815835,-55.83442804153791,77.05739557805538,2280.295020742236
4012.783975041215,16.723348248507552,69.79973815342524,2277.854651481969
3977.2425430710896,58.49959011669458,61.68152940548355,2244.6124139672
3876.762873135403,-144.95709758323727,69.05941496501684,2117.026293281823
3798.612775864454,-238.5682399325289,85.63748154070147,2200.62180020074
3662.3521125804027,-179.00104700796695,69.49759852772424,2207.9782280187173
3660.24156388437,-180.53030848063466,71.63073709579609,2185.6014912423616
3675.858669314121,-175.4001875881091,78.28592897733401,2317.6376340956967
3685.371383466691,-175.76737744525016,74.21604683300099,2316.316904708558
3685.58860635186,-178.65519824442762,81.24744887544031,2170.427756216893
3586.268107283808,-127.35990994313445,80.39587064069293,2150.0267700324785
3541.077738352288,-190.8583566618227,86.22973725374281,2202.1392145120085
3525.505189695874,-182.93236845291344,85.58210139223345,2240.729131850317
3486.8723698311865,-225.52145112373404,88.86585393048948,2253.6358793649138
3485.3063253956707,-214.19905293650314,89.4157577131576,2102.74298899938
3472.592325502346,-215.777720349046,86.08095783871408,2254.2918415458107
3652.832364346269,-203.79314085386608,83.91762883674573,2094.7926949362677
3653.6309484775325,-211.18474031705784,77.56193558561337,2268.419450475633
3660.086419904374,-206.62849709598473,82.45909148775704,2180.779654188453
3660.086419904374,-206.62849709598473,82.45909148775704,2180.779654188453
3659.4364880027524,-201.0386741500396,77.30006746847204,2247.4458484176444
3633.700143935824,-151.31810837661655,80.7222571824749,2282.5922080416203
3641.2475863687964,-144.17442689593156,81.19162412505797,2222.547865868855
3636.799232656201,-148.40704693550606,79.83740794958865,2282.821886879052
3642.450643433333,-146.15182038742535,81.87200617664278,2154.111155486429
3642.450643433333,-146.15182038742535,81.87200617664278,2154.111155486429
3269.2993137746976,-295.9114323673247,98.44840322305785,2120.6830072201865
3269.2993137746976,-295.9114323673247,98.44840322305785,2120.6830072201865
3219.26529871796,-223.38943671524783,102.32039461695769,2251.0275632322746
3231.6945874866883,-233.94088174020393,92.03524684717149,2210.113147011503
3259.0425859089482,-267.9422100432052,99.28330457297615,2219.6073615884156
3266.644538858004,-268.9545894378133,97.71986363644783,2344.0250525412876
3257.513840023865,-275.51810444423745,97.59913445681329,2257.773406675594
3221.276629823121,-308.0838905215192,103.61389642982036,2216.352818851061
3166.155771163419,-354.77462575491074,107.49587609419156,2218.602355163675
3194.147216874503,-364.04670057914836,96.61349767433262,2236.5231261920308
3120.062398583395,-383.019413529053,101.67538197449358,2141.137021726766
3120.062398583395,-383.019413529053,101.67538197449358,2141.137021726766
3058.8232810025356,-238.59579523920323,102.81388611037774,2195.944250752863
3112.7494953954447,-178.34052054283435,95.9228947336295,2215.6126612271796
3112.7494953954447,-178.34052054283435,95.9228947336295,2215.6126612271796
3128.4894871435295,-139.64789054967048,94.24082241047095,2226.068597663417
3120.908079502757,-221.25620733136896,103.70600793370619,2157.1908361623355
3091.996487872459,-153.65027669362442,95.92961518428572,2225.686507991997
3107.4832749372854,-164.7962242192359,106.28282254561968,2224.3304218806697
3123.95878266285,-202.61963162921236,94.92529940919971,2156.7456645446205
3076.9589778984546,-272.3359539649332,104.48432539303356,2212.8747153124204
3082.4293081886617,-274.59273751376054,99.98597679072908,2161.6216824189796
3083.485023487002,-268.86767559278525,96.79474293825577,2184.589923899264
3342.6404445198386,-319.72786053105375,87.01735004877492,2172.292134028659
3296.8888577223424,-301.0672797047176,87.55798390852635,2137.116076645053
3295.5658663219474,-296.3800479088647,92.52124030936464,2257.5797492181878
3354.489770520868,-434.7276802627692,96.34176664657394,2226.892966467291
3536.0029271901126,-532.5776326608553,89.3177258174888,2210.9053107427467
3533.3947298343496,-384.72430663590427,90.35092746010993,2229.0341098227454
3605.643961784191,-430.5020785888704,86.12526719694377,2221.868441908094
3704.994368458528,-449.1384115781756,83.94771506952333,2116.927839181381
3772.496826062894,-475.5591985485587,81.73539243134626,2148.6792697546957
3777.3298493026828,-475.92838550344317,86.30336389059862,2240.206168069637
3787.125206501732,-482.02744097425875,88.47503260501814,2144.6586073988515
3784.500077529544,-482.0343133465905,81.7391966745268,2263.6357558888308
3519.360879309488,-356.2214911517385,89.93575637215406,2253.94106354576
3288.658071838598,-149.98087945635393,94.68921869837408,2236.8193166897595
3297.7304749574882,-151.24939139896674,98.85603780963297,2108.6840755467297
3297.7304749574882,-151.24939139896674,98.85603780963297,2108.6840755467297
3758.276742848716,-226.6715709199015,80.68008534479604,2180.2824865987172
3757.2586862981857,-227.0370481156344,82.92750086642879,2256.498575999233
3754.6135413732827,-218.76877481648032,69.46214295470719,2270.82111937325
3745.03864100198,-224.97272873350198,78.29819706977293,2136.43775539322
3683.124151325727,-251.30474063624496,79.05537210355946,2163.4664038202313
3680.4535913279456,-256.91173746663213,81.71112581154938,2181.2075711018147
3686.6608336427744,-253.1861103425355,80.51443633952285,2270.2325011207713
3711.3072451261232,-271.2468722513972,78.62204038805865,2193.122167766966
3608.402356284154,-329.6385364284548,84.6015621854329,2185.1896785730814
3660.624625720457,-393.7243926380632,85.10482987515769,2131.089995003296
3660.624625720457,-393.7243926380632,85.10482987515769,2131.089995003296
3660.624625720457,-393.7243926380632,85.10482987515769,2131.089995003296
3627.5669303319214,-342.786014836479,83.82298575984477,2329.1106018819123
3628.60414969553,-347.2204025843617,88.32894921572756,2294.14774803312
3626.5922143438543,-348.42191118993406,86.24951294615754,2293.515878500707
3641.435590985121,-353.1300848701658,82.41541793374995,2204.5926589675073
3616.615469990468,254.485011843954,75.88855302692942,2225.476860051454
3267.9394927014014,195.51128166032038,84.62842017147958,2183.3606837409993
3261.9241819892936,151.30466407898248,92.35695404755062,2224.8655612092484
3261.9241819892936,151.30466407898248,92.35695404755062,2224.8655612092484
3203.4337280411514,203.842037431321,88.69102008292249,2296.0216958514316
3201.7178878100235,204.24367287073338,88.15056950029044,2329.390818035726
3201.250537023718,201.83285033104718,89.28756717889966,2310.4395641181613
3193.8290262030328,139.0935084862373,92.63877462901249,2252.894131072303
3191.3111195741953,140.62676653060808,93.35498663386072,2183.31138934652
3234.383050601478,54.9207975055162,89.80900249103594,2169.723459914461
3253.841623138187,268.5484383651138,85.13210726852634,2168.6986415579636
3249.939966738436,246.30893398655522,88.14581639284967,2146.830142236511
3248.1381918742622,252.18829213891047,83.88710465369674,2268.531539892495
3238.199441552688,250.76300953189642,84.58862279698033,2255.4589379931913
3356.627312564821,279.18992300459183,81.71021762913601,2344.683033211422
3330.0456603783555,228.81095642020352,85.08174910305036,2271.0849798054114
3366.0031834835813,170.68405859418698,79.68393922938492,2276.6927412515915
3327.7566621733936,301.8460591611726,78.40484283777836,2220.7945056323397
3307.2366778752685,266.53780488544845,87.44488135758313,2155.815212380563
3411.960941762791,285.40782740169817,77.0779656204378,2319.2164923671703
3413.80715296746,285.40945615045723,77.13604989418336,2284.098128654515
3411.2437627750724,277.0995444824375,78.28416039597441,2167.53043815003
3416.9086160557154,266.7247247510758,81.17799594646965,2265.933833216479
3390.44441092547,263.9632828394014,77.55512702383064,2342.4227816441326
3395.238595345016,277.3104333245661,85.2448994086578,2180.6969895287493
3397.0890843507095,267.1791412062649,71.75865276224002,2250.4364878133924
3396.558619202628,268.85249504167865,68.22465815274974,2152.8127198202324
3399.079161432778,269.2894402227658,69.26957952479307,2138.3805720147393
3419.4159371884803,284.81598928279936,93.21518312524698,2127.415528117148
3418.2461941412334,285.63543370576383,92.69646551718444,2126.602142796248
3454.129755302346,190.07829026065144,68.05852223257524,2202.871748484362
3445.8996498040137,165.6870652291456,92.59357115293086,2113.516122133932
3609.0905398899677,15.405958312027266,89.21409502059382,2189.2519403189212
3447.8642734604605,140.2598224666362,73.3338855709782,2239.051716223578
3443.7037968451195,142.25430583941977,76.75357468578574,2125.795763584346
3462.645553913831,142.74137544155997,80.53224816962623,2250.0451409704124
3505.007886557764,157.66677415339197,79.48910043879573,2311.251388683456
3507.8922133100514,172.3349763287076,70.32095456760088,2307.676948946136
3542.7189563133993,52.86146532064121,86.39593906765296,2313.3771014314884
3531.354426660587,56.53013557860605,83.23500174388845,2203.885044187458
3528.9308066538974,-97.28754380767857,83.35118557816025,2239.2366143787103
3529.214351261109,-83.66744571407331,87.81658833005974,2163.4375480396534
3462.9141328443843,-87.75708486107173,80.85750404462541,2209.008029375939
3462.9141328443843,-87.75708486107173,80.85750404462541,2209.008029375939
3386.4584161235425,-94.38899846813543,93.05539378955069,2253.810613093997
3383.5930402474733,-94.21713572486935,88.76137021231682,2157.826806279165
3642.4606276333016,-53.244766225734594,76.09138318271577,2214.1241119734027
3649.7917937282828,-55.596381539672365,78.73069275263074,2183.046027495197
3689.1862165149164,-50.855278013423515,75.50819389188915,2185.1815542760896
3704.8493513118037,33.574750868682244,85.10010572389618,2233.5212081355494
3697.334167181159,33.67489034661496,84.77899125984314,2157.1947568654364
3699.403801817155,30.09557306101423,67.62035048867585,2288.529899790465
3703.4125979956616,21.95157309856569,70.46881161622066,2207.4910353974155
3696.4129267556978,22.7928275331882,66.98883456451156,2301.163034292
3698.7597589604966,21.557114122197458,71.43338801920366,2200.4811066487127
3453.9013723217136,90.60479504492342,84.04884955968521,2211.395866364552
3606.899069739991,64.39607509792944,77.81763590407043,2201.755730284607
3517.420413542446,57.88587545288583,81.36488674369258,2143.0428531614766
3517.420413542446,57.88587545288583,81.36488674369258,2143.0428531614766
3517.420413542446,57.88587545288583,81.36488674369258,2143.0428531614766
3803.988578841096,-124.735621872183,76.25153135798135,2137.0078590039843
3803.988578841096,-124.735621872183,76.25153135798135,2137.0078590039843
3776.3842225719377,25.827371314413536,75.16493082383492,2247.396532870136
3766.788367426189,7.283027441137509,74.19902166817586,2067.8194552238356
3633.518829510836,213.2584661513094,75.3581388420725,2079.00604615035
3632.4338397503966,197.5873503185747,72.24693364838951,2247.4048883537853
3633.456035143668,194.27958200835494,75.28232314876416,2206.4920563106944
3158.9758328545454,190.6689504891679,94.36775419607746,2153.0579980685243
3141.2984260575577,168.60416743578247,90.05548252431632,2035.2267545093705
3135.4430768250927,169.75889733022882,90.34291421517419,2182.1027590603353
3261.678512478681,190.62481645870952,84.71675875262011,2062.372674963734
3247.0010346166323,209.63766931211708,96.6439520640795,2244.5975904240463
3246.7185257691544,217.12398812439866,96.36612635787166,2098.470399095712
3063.2664308829994,35.2221469600012,89.56802180572076,2142.27582952591
3102.314894093394,3.309677226510937,103.32147600657878,2229.086173887478
3082.4954462462642,4.517762581380759,93.467748816024,2248.1930674211303
3040.570356838928,30.633673940288876,98.48703780708325,2152.0820377758146
3040.570356838928,30.633673940288876,98.48703780708325,2152.0820377758146
3265.3438246154487,-82.29458598573078,94.10926178012842,2144.9447131688926
3375.115213918309,94.9204212439257,81.33546511300932,2211.21519385389
3519.018852437049,44.69176241382031,77.75525459142592,2209.7796914967744
3498.025490972136,15.474438527886884,80.96335827508437,2213.978756619854
3408.020755139648,-29.053503341340168,94.5106785282558,2066.6215139166047
3429.386140615549,-25.337577462668385,73.72789038132879,2239.652704941905
3429.386140615549,-25.337577462668385,73.72789038132879,2239.652704941905
3405.362505148908,-13.910002022625632,92.9349596946768,2163.8903454504402
3400.4147380518066,-4.157292094337749,87.47762497334976,2217.3925860013205
3389.6095460884176,-53.16007488478694,90.06261190198941,2143.666983000906
3382.1548827443753,-45.869223000091026,88.64438018922868,2238.9157734143514
3469.526117350974,-58.230151977023496,86.20564584619737,2208.1591884205363
4020.590753636046,4.16708685176396,60.81589453991747,2236.488944351666
4031.040455065625,6.084329827380755,60.29220099351305,2170.0105984928937
4121.531470043616,-31.776819990202114,59.80033190060992,2244.0924681047213
4122.707461433019,-30.23588982694184,57.40913309221126,2110.826139278725
4120.552272386826,-26.7590882027119,59.02821976848139,2292.912725846323
4119.126139563533,-21.98378060310707,69.72295404136248,2278.5492052138284
4129.8528419905215,-112.44665474959302,52.613223716789406,2164.8438015463234
4134.831282852699,-120.6620532452989,56.59298118626341,2177.251276354477
3884.520971458514,-247.92801181123335,68.53165147268862,2219.2379599845844
3825.735271063298,-214.46256059983637,81.86841354151869,2267.40418219704
3829.673407072816,-215.78093047459922,78.30043645143566,2317.9613308335306
3818.7257613274837,-227.9382430777951,75.06733324127963,2283.7221293297803
3822.284503765823,-229.94965052504295,75.2391484828854,2243.0898994868894
3911.832105084518,-212.48820854758725,73.00386611248958,2240.2760588096958
3718.4343753352055,-148.94910554984475,76.72251579814908,2164.701292327095
3709.697107790465,-156.9695458644423,79.23742894102408,2192.878188015443
3569.444009681349,-116.63671788669042,79.25158113537076,2198.206756925608
3635.032611051206,-19.976987302619975,74.73297815444884,2256.340213813046
3669.3604643787767,74.71273044035208,74.56534827001428,2168.749404722675
3302.8346135507163,-48.47696387938051,86.0590257190384,2114.3026007609983
3214.42179809954,-52.46207798212301,89.24227651394521,2109.295908931226
3214.42179809954,-52.46207798212301,89.24227651394521,2109.295908931226
3241.229023139412,43.0166533879312,88.41995582381983,2174.2262674501835
3216.391775689672,74.12502348978984,90.97510559893334,2223.130598808779
3254.792891766852,348.3853854926737,84.86642992305016,2232.5680250780424
3715.9891216475726,-27.313055165069446,75.27353914788448,2172.5886603947883
3802.901275368965,1.861122837705683,74.63004487176903,2254.53199665435
3800.5593164437096,-0.9926152783154509,66.58351415105109,2166.9161900016948
3788.7002535554607,-10.735814773029446,76.33210143418732,2117.7794272032497
3703.6974502944186,-37.51295376545651,80.88099678171132,2253.4732109235933
3771.7925860276882,-242.94935122678493,67.31923070998253,2200.895426980469
3771.7925860276882,-242.94935122678493,67.31923070998253,2200.895426980469
3349.469703205514,-334.62665998494185,93.72892643686384,2260.1888113196715
3336.512274194871,-324.33517397255923,93.85843406734564,2130.723917449279
3336.512274194871,-324.33517397255923,93.85843406734564,2130.723917449279
3268.727301185072,-180.8850772299514,89.7529031840208,2151.1752759004053
3253.385366823939,-199.7280068220591,100.51112311388275,2137.9308095741203
3396.128877601888,-42.31937142981525,92.62035317748554,2147.8877145001056
3535.400422840737,-138.59945852692996,87.13882001698364,2179.1854370886676
3526.098570298026,-155.54092673264284,80.02608881099118,2130.268730319293
3537.2240749843795,-144.37490439562976,91.04359935736238,2252.9929773061917
3454.456502564076,-110.00327375202856,79.16403527449596,2197.542005577507
3411.489208187947,-209.486427117781,92.74144631270092,2206.075801006189
3677.932038395384,-145.66612204125022,80.70670367788615,2206.6435642543674
3431.6055435730545,-124.60583741169707,89.57199483129767,2174.870138806669
3408.234083276457,7.471920272968211,87.41380051745895,2195.438107309722
3400.449613903104,27.26950994530435,79.4201265908297,2175.9485839986214
3400.449613903104,27.26950994530435,79.4201265908297,2175.9485839986214
3400.3020556772694,27.705194017819828,81.433214079778,2174.3456534535035
3389.813097296055,-28.186319083198285,82.12563243795444,2191.4096949344835
3380.981397711161,-37.220197341553074,84.70507605924556,2264.167732787435
3381.2220514923447,-34.58392182877324,87.98531615603193,2241.45410060165
3374.4646425433725,-54.185961885797745,86.7224813910092,2277.0859805880646
3368.408081653541,-64.96834708685827,87.5616346519624,2313.0402662828346
3373.3021438169635,-71.42550475621711,87.87986811977571,2311.5998018284376
3374.6728366230127,-106.2920016361668,90.04292266319023,2129.1120369496257
3374.6728366230127,-106.2920016361668,90.04292266319023,2129.1120369496257
3393.6647092589246,-137.11731395619674,89.17007946341461,2070.876019931405
3762.9165783442927,-244.94219836305376,77.25352713861596,2275.78383123453
3764.6149086058917,-244.75163341735626,79.1120037092066,2303.4905771450153
3763.0142197269233,-257.39818136309964,81.32369604461358,2247.3883692527083
3771.828858061512,-243.71471403207164,71.23799944410491,2240.8884413634078
3769.427920365698,-233.871117243551,80.79603135922663,2272.1056560013685
3931.1452386697533,-311.75732569287817,67.53199544617993,2258.1803118775365
3930.419302027539,-311.40073629473665,65.7388699246422,2241.5439921656653
3917.98848956185,-315.5314310693585,79.58385178736368,2214.799499200996
3908.384291440433,-301.07822954020986,66.6721150889801,2305.3581639737013
3915.292803290213,-305.8172737951944,62.045449535400735,2148.2979745214716
3619.4352576635793,-46.72901900785325,75.51453431031896,2250.3329302364205
3620.745425695631,-50.23676042765443,82.46508712318203,2068.700473354146
3620.745425695631,-50.23676042765443,82.46508712318203,2068.700473354146
3564.9285523918497,-153.86142375287778,85.49433559891212,2216.439984717225
3505.137104617597,-163.44428258211258,86.92257634309699,2239.981439220413
3468.3323929424,-178.69816476409275,83.65870007563217,2168.6994932875623
3451.8636915286793,-193.44625510365626,88.76552373648185,2091.336052788374
3428.025366681264,-175.22052465998254,86.53028061186777,2308.1799691990336
3429.547204712361,-175.0858370019825,82.55341869549518,2165.7088621889284
3343.9681179301247,-141.64967449325331,90.29253150708765,2235.2837233204536
3338.935815337439,-139.52851480674252,87.4818382617316,2186.1326148290836
3182.1978684353053,-126.04389507057871,98.14217309872932,2202.997292581457
3191.3277326363777,-211.17339898255526,100.18775370163115,2210.2819890479295
3217.462310215151,-186.41277769533954,100.7252501385988,2216.103520448285
3238.439975531384,-188.970087252372,93.01632028262664,2233.2908750448105
3264.465969576438,-198.46924314207524,102.39211481096008,2306.249438054737
3265.133274216891,-203.18686320290428,101.62014314047049,2341.471530654766
3276.463605262981,-203.08387458650418,99.99672603023795,2306.8264591314514
3276.3580757929194,-200.2417221669758,97.20576305549756,2268.0248550954357
3264.5740696947696,-188.68920805475352,84.80009457862498,2341.9407036412213
3263.374395238211,-189.95524397105746,88.94323129083855,2348.963861002359
3290.7253267324622,-181.01604349057317,94.43110120111449,2352.2560554449283
3276.029992909234,-169.98965189429222,92.1921470669504,2330.522004271675
3282.769714564744,-165.76991756063273,85.61697040171556,2332.6050489030736
3298.9673418198527,-200.3771207101348,99.67460515469361,2292.0557265182965
3296.078171278504,-202.48902275470746,100.13234798151765,2308.362881231321
3298.7898222718372,-204.38695184505374,97.65320263699807,2125.3729813093164
3291.1251663176968,-205.491254509976,90.71004063735863,2186.9181318573724
3106.269455001282,-232.97609188037444,104.70702300764553,2235.539135819628
3054.3776242960466,-286.21493321007785,109.16567142474412,2146.1620544781963
3046.389847773687,-286.986339355815,111.42884250942348,2243.9293735017677
3063.423024246195,-297.4818308302102,98.7758926883174,2234.0082927611443
3368.967629923133,-429.4613237476166,90.0227083225025,2233.8175105700107
3368.967629923133,-429.4613237476166,90.0227083225025,2233.8175105700107
3359.457214401545,-323.99407943593394,98.82430018397528,2154.8313658514544
3418.906827956163,-367.53897401660953,87.23337985250345,2162.2846734442205
3418.422701152254,-384.893351822882,97.9110566698869,2305.645906802047
3420.8813951920174,-384.449093153519,95.91159695544007,2296.829092425106
3405.2406857508286,-394.4393489367339,91.28914609892506,2163.4948280335907
3392.4930919111644,-448.23709866482375,97.32244500165307,2215.8845872242346
3489.3119468666055,-577.5428995111718,91.9774136069202,2215.811640023821
3489.3119468666055,-577.5428995111718,91.9774136069202,2215.811640023821
3485.019677295342,-582.8827493939532,89.44534554822314,2165.397138593226
3611.6595327313926,-371.4390960874491,79.88819001054637,2217.901112549782
3626.6410647212265,-361.327293554749,88.74860044271472,2289.8589834191425
3665.0709912482616,-372.3894999320348,90.03509491254361,2112.5428245435555
3639.8445304210704,-461.2237949634313,93.54066291174593,2216.001005361624
3611.143761848622,-97.48029137046967,83.73524761720876,2213.7003298777636
3549.4214188376027,-158.45654500650994,88.51072370700489,2217.2970018022497
3365.0803420579796,-52.71851378894755,79.79065129417837,2165.9288640638633
3314.4905603474276,-60.87577943916594,91.29958543041657,2196.7369619083092
3329.5206754678143,-71.21359003767427,91.19114376857823,2124.6876074780394
3283.8472693469994,-207.99991785365657,93.27893263622816,2212.8750033462616
3225.2893178164322,-240.04606650039597,92.58643959900974,2197.17581598645
3202.992330389398,-284.89974246267286,94.00301356685395,2238.7925043515393
3208.656918554587,-297.89148135358744,103.47276535319592,2248.370361176188
3206.617566569873,-297.0951599412142,105.61438441328636,2124.2273692743406
3206.617566569873,-297.0951599412142,105.61438441328636,2124.2273692743406
3339.364050655562,-148.06435491166852,98.26144659581483,2204.4924531581955
3360.1637157120526,-65.48157199518688,88.82219123235392,2307.668013271684
3367.242206217662,-70.75138345006756,91.76760929713143,2345.098818182247
3400.9028049038816,124.27317109773523,81.62790860495521,2182.927260659718
3482.0767337053107,61.223182143061145,83.63745103230724,2157.2792847568376
3576.2922000146127,-24.5136882751146,79.06859476594913,2174.2278636367037
3381.4913429983208,-3.4593941716014944,91.79745001678981,2152.104248545727
3394.9131654689118,-47.61395211131476,92.12308654132185,2200.3113412723224
3393.4063025305813,-49.55378605127876,99.93689587074074,2295.73332288365
3409.4832289189108,-70.15829788501787,87.49433458312038,2214.318844382966
3407.047006011697,-70.21232665730031,93.61999927855379,2318.0912339570573
3395.818491726523,-80.04680091213413,83.52828358174334,2191.503120724698
3395.818491726523,-80.04680091213413,83.52828358174334,2191.503120724698
3527.0949595686398,-133.60967280734025,87.90248372095148,2210.905793028665
3613.3397077376408,-72.74695808151901,85.87799659687656,2153.663050875167
3616.5484020480094,-72.80824010449535,89.37994500230607,2287.9057823159833
3603.4798305719255,-95.9028263398675,75.57437236789531,2255.472135138667
3589.4099057532803,-97.42915300452697,82.92517398460431,2180.324307664817
3208.910106042515,-21.00494433980792,95.97188384022652,2262.9281113351644
3199.8012283460066,-21.743513466694726,97.08957219557482,2246.4806279739873
3199.8299809704913,-23.72757758914682,94.25822771107461,2057.747424227528
3184.76589855536,-32.67650470557795,85.88358341550726,2281.6120517352583
3192.4275408075746,-24.340815548618647,93.24813440441879,2269.7844095036066
2766.203608634632,287.4431854878346,97.77681334284308,2220.152106669641
2977.0532457744284,319.3518009877058,89.93082331503209,2192.0340257413677
2830.7480499835697,330.09032588743526,93.48128071322184,2156.308415131318
2831.760703244912,332.1818055317929,97.53947036872044,2153.082389976431
2887.7186987331943,248.99454739765306,98.2415652381839,2203.6533703203568
3257.813776662835,-101.50518530271411,91.59757351557272,2199.95416010053
3278.849820692454,-76.74023199317114,96.18959246954064,2232.7095987878497
3409.2674592225185,10.674867563861497,85.89635346308786,2289.119705249446
3442.496569386563,-4.651607015056792,85.06518872095333,2324.330329902013
3459.0567274179125,7.979546284670856,85.16304259644467,2281.1415556057345
3507.5929986169053,13.390861250820002,84.36000674658939,2088.7046016334475
3552.3852958257803,59.45222673546833,83.641885557914,2054.046052239106
3567.4939010115645,46.72989795612762,77.8909681914432,2296.897310910251
3557.564086839635,74.20496591968515,77.73202450139418,2254.604645495333
3210.734815324249,129.0688728165277,85.70362272563312,2259.968818771278
3210.6237974744045,103.78519282435869,90.6584632396138,2157.766838852287
3209.028375094277,131.8125775113944,93.97651656841106,2162.837761580535
3285.785315083116,57.88993111954128,92.24144600554786,2092.706666113494
3322.6941181229295,74.06314215060763,77.98738773354717,2335.7763891152376
3329.625422249857,67.62844441124577,83.58048395180364,2344.8119191886362
3334.8503457618795,73.78246265861755,76.74566660569415,2107.528972067993
3545.1302516078845,115.28020076824512,84.06015346687023,2335.8815253771654
3548.8799989954086,124.37399198059867,81.60948094017965,2341.2969135173353
3557.0880563232913,112.88855620705458,80.62296871263526,2363.5606318861865
3564.655683186158,123.89628386302529,77.56752947724337,2357.8944272114977
3566.785704765865,118.58060856166448,81.31312747371513,2357.961566834756
3552.6463341630383,132.1748226183091,76.29873725613008,2360.2077845127255
3520.5452515471957,121.30808853661843,74.03229203085894,2224.6450193727565
3690.319377404688,-400.74608123866864,87.55766029249664,2232.2221149526686
3724.789972547737,-377.0474424708917,79.4082552708458,2229.841643386932
3725.1077317736954,-302.9820436438378,83.4753425306741,2206.6003664155783
3704.5223010232658,162.87756377772482,65.82720817795965,2160.5479364856687
3673.429587413969,141.5921250791733,68.93900204717873,2198.1234609448315
3419.966223514133,54.20700743188943,79.66797394609527,2164.155644168314
3507.071052531126,61.301122988719534,79.21923324347492,2210.231181511163
3522.224686376455,90.81768719178179,74.65308641930928,2174.145749874866
3516.5717880453253,79.60817738432269,72.24715550575901,2288.0879317944386
3518.3597577469154,78.75904434820728,73.3309135763447,2225.551430179414
3341.303367552101,69.06810809750245,97.35483714291712,2125.0875803886634
3342.8344545461127,72.42147093485605,100.66076422959397,2276.367821641604
3330.268551010991,81.58784244641556,87.95212187558667,2138.2089286216665
3332.4797353367258,79.68095789722508,87.93659049565957,2063.3065379326513
3296.496472243879,100.59739084246485,88.37921403937344,2288.129444115303
3292.822849287416,154.6529151699022,87.13597512130288,2034.9732941689049
3285.8113973603836,122.9789357175128,89.05829492069562,2303.990578041479
3283.0950869653752,131.21943775094536,96.93579930359198,2214.782587441483
3281.6522586499004,129.81655463059357,97.1901226132412,2307.006172548333
3306.286299028608,127.28306417273171,85.08193781838621,2056.8220588905483
3164.9694560208245,-26.190645677566437,94.79151457920231,2235.8988986645013
3156.2109310614933,-42.587089312746805,100.79771530317053,2244.5602103937713
3179.043206201117,38.783628608467794,86.64049331494331,2290.3799517811663
3191.728835279742,58.0857635192448,95.3260241307895,2166.9917644978773
3233.6655631792637,126.56985319292028,91.2966206747438,2200.458729315755
3235.065533793869,131.75206549947129,91.52382033819238,2187.4327931386633
3239.250664132169,130.2312935757162,92.82299533385549,2199.479394334571
3334.6257297648276,-101.61980216124887,93.85206256516574,2127.9702411086428
3695.7332891555247,-279.5512492727603,77.46032917378304,2148.3166637847244
3710.4078682690506,-309.10764799722284,77.7058614147829,2119.4802030868714
3762.183833096529,39.57749959216433,67.9030125104815,2193.6919236830645
3555.9842731594895,23.650511870450938,79.24923021274655,2227.997952541718
3554.696481262169,-29.01431506124683,80.2772322946048,2140.3680352823453
3550.559956078547,-48.3635052717503,82.19548455943801,2047.1851788163203
3586.7374565674068,-25.665355883025736,80.31307001200334,2129.3501255241626
3581.342644175505,-32.052624974268106,73.4693109014925,2273.2399668552325
3577.7670720594842,-31.777899650910754,89.39945186868172,2260.23028444721
3570.9332259417756,-38.36192117871246,91.3923440992661,2276.2899003712773
3593.9959416677234,-111.22682193726104,75.95989603930455,2299.8485632161496
3583.971847013904,-107.78216411353506,74.55574726413765,2126.418747152409
3564.2304921069785,-62.47185472251843,76.04897151926238,2171.068533437464
3564.2304921069785,-62.47185472251843,76.04897151926238,2171.068533437464
3576.014266673034,-108.06291527550202,79.62639009875362,2228.343419787216
3568.435914810373,-106.08118819275266,73.98088899653527,2121.636643741391
3701.5453379108594,-118.63333458887554,80.31630606128732,2181.1600786537474
3701.5453379108594,-118.63333458887554,80.31630606128732,2181.1600786537474
3449.4868213864847,-72.08058113051617,81.34131006597559,2149.7543179247914
3467.520682981132,-66.71027455386823,93.18839432375253,2184.194843445256
3470.784237111473,-62.058871419221155,88.66046842900622,2325.4749460097137
3469.1548447682626,-56.21092965722441,94.66440029465353,2149.2656346678878
3481.837131350015,-36.100035205382234,73.55819752016991,2141.6100455965993
3418.1937183930804,27.545251444356822,83.4784778230419,2123.8515010812016
3356.4609981343583,127.75528642382793,84.93822428124322,2130.8856665564763
3301.7508637050882,143.93134352488474,87.60445565003653,2198.46027482448
3310.2111361846223,217.30030140390218,87.55128197635099,2228.844137501383
3380.150648525191,157.52060324497444,83.2234151567021,2227.404432249368
3381.0225225144427,154.7395473418435,79.02770190098758,2244.946117712543
3421.3650845363204,69.6839104893374,93.98582321153172,2296.650009226513
3425.1901698650354,69.70916204475424,93.41204733190432,2226.740858295259
3422.1041278185,69.57366022773897,90.03832838067595,2213.5706462087787
3451.3165938842935,73.2655243307945,84.03375937100873,2295.477990472224
3503.6374236099364,109.06908688125391,85.0015494719822,2236.3986357049484
3518.3548279480356,124.01970932111175,80.47807207866306,2272.9385098599337
3526.959262347217,96.51868265901935,83.72904183570729,2306.3720835432023
3542.496740850219,116.62805290739082,75.84258522045327,2252.889280415859
3589.1684495012196,-49.990556491214164,74.86122171051743,2291.928397275625
3591.12469934774,-66.50244710974961,76.08642058548365,2267.483150285198
3586.138170862237,-65.62080284469617,81.699337698385,2099.599585652132
3609.2600033676763,-63.03326576313851,80.57929819801167,2169.7941433941005
3628.496211004744,-89.78894268237379,76.93958474992051,2267.460445832115
3628.496211004744,-89.78894268237379,76.93958474992051,2267.460445832115
3610.404741706822,-90.12411613910275,73.75994184982088,2265.445837653666
3610.1459269756347,-88.84332610078316,82.42369659619033,2161.7299429256723
3610.1069992825232,-86.95903704989024,77.2170160884575,2127.434779367562
3608.3864344737526,-86.46232204784904,76.46326630080753,2082.703291451739
3627.4647245128417,-113.26496711381549,80.14155219291861,2214.9693355247396
3602.3229947582013,-164.37637132434187,81.73461322269956,2214.6534779550143
3589.4377293236016,-182.17570405271994,76.56037405387126,2300.001786380362
3539.359286227278,-184.44176058008185,86.59286704080893,2132.6143658660144
3541.5039596935558,-183.20854637443406,81.9484250585632,2103.2087680445215
3498.687470809982,-205.43116985119775,89.12907484229163,2157.2502165551746
3479.3415924476167,-200.37201370393493,83.84283682368769,2276.6204716456486
3140.3655801038194,18.491562051934654,101.92096462468905,2203.2226966807416
3178.4281168805205,10.020781708381376,87.75780125005396,2188.483164755748
3179.487798169136,11.290694117502994,94.67025527679964,2243.986150016882
3168.9908911959446,23.839509092735067,91.65447514600481,2349.630695828968
3171.2220706072617,17.876602939743204,94.40266529389629,2328.9283985127545
3172.187596261435,17.251240351070937,93.68232650969372,2243.2886958587883
3187.2026034702203,85.13632048851039,92.8764615524904,2272.5247553709182
3209.888952831631,48.188870168872484,95.2975559142158,2080.091314731318
3237.636515480527,140.4120470097969,90.55548394296677,2205.46684944165
3290.1815594983186,109.94094844744808,90.71757238603205,2208.5505031375683
3344.219911354957,141.14713493072318,89.79506472220734,2065.65991663991
3347.37446863313,147.2335216185627,94.20272225910537,2046.8036453011312
3350.0831956768766,142.14616848518654,92.15586027257486,2055.232897211981
3331.276342503883,109.42206796717667,79.88618060595358,2122.512648652441
3365.755972622836,83.28099583756247,91.1038662691457,2175.6287706086114
3359.0694045683745,51.24961118210622,84.57579491788766,2170.3631367114626
3359.0694045683745,51.24961118210622,84.57579491788766,2170.3631367114626
3337.864969926703,-198.54433449736064,96.97099933609177,2253.389869808246
3170.468380959238,-211.4309463120939,95.12011961632898,2168.710123953736
2818.5143318593055,-198.22243302291614,117.89394127401927,2164.033240417487
2818.5143318593055,-198.22243302291614,117.89394127401927,2164.033240417487
3257.30175316897,-239.13634964835788,89.55106745307194,2193.1822318642417
3007.6821612722456,-77.52545780671919,110.0614618162182,2120.567218600819
3003.6385018980563,-83.42327454460047,107.61898129734932,2132.7682308081658
2932.4838527673633,-67.1584453863133,105.6080489594522,2177.825882975672
2932.4838527673633,-67.1584453863133,105.6080489594522,2177.825882975672
2666.6211309762475,-304.58783978081414,117.71467872580033,2164.1319002063983
2685.1783072454555,-239.77137389339066,120.14195683922932,2222.044828272675
2811.669079063085,-281.0247261357354,109.12873671844625,2262.883689523506
2805.90818256246,-272.1806625340765,109.24029359572842,2280.088465434741
2816.1562536417987,-279.30309197370264,112.07542361933037,2261.6870300553624
2798.7819039147166,-320.9825991510863,112.50573269976191,2125.848655853343
2798.7819039147166,-320.9825991510863,112.50573269976191,2125.848655853343
2780.9846128866848,-339.3494724499448,118.31482715035199,2111.719530022574
2863.1087663502612,-223.67816797820817,116.35356124128288,2276.694939250423
2860.8126181422795,-223.68160614369992,102.44118478142305,2208.141156377917
3527.364461509045,431.19117822080693,72.25430237910402,2199.2415050238915
3199.800840275286,6.192298048546828,95.586079119627,2194.8882076189752
3199.800840275286,6.192298048546828,95.586079119627,2194.8882076189752
3073.1021578537857,-52.20346748302969,92.97014650014886,2178.01219481171
3224.060536429527,49.677148291328365,85.13866438712117,2205.073385524666
3225.3566052046003,47.097682137860886,94.47587555478987,2136.065174779092
3226.4610047637807,66.94948336212015,92.23100738660288,2238.04519411223
3220.434347920806,49.988647871761415,93.05331655005013,2299.9245341740702
3215.0057474592386,52.7640701621914,90.72598193512881,2289.3887811059335
3226.467277856505,61.39711703492635,82.82137267171713,2309.7787641708533
3217.549408185383,58.05731663341608,94.64036818481381,2129.626445999028
3412.8020769353025,-68.0939135805743,82.56076600518466,2088.841832284805
3251.708874692248,143.91022218104243,82.7748516516247,2232.1344420375503
3407.6959730649264,130.81683627213792,78.99492700708556,2239.1783255114824
3438.2964133733317,237.3866066173947,85.15303312722169,2229.4418923856365
3470.7006344234114,213.25811320380888,74.44559894550028,2125.078620191477
3450.7077564170554,193.97469798152255,76.84569278098495,2219.8614079463555
3450.239361108267,214.68062434081077,84.21277779424413,2223.858576241888
3520.063192609514,181.5377502563446,74.9846488380565,2184.3350885461855
3498.6311725869023,58.84056868377851,82.98996274474192,2207.7108682216667
3498.6311725869023,58.84056868377851,82.98996274474192,2207.7108682216667
3534.2434095105205,-1.2575527224918952,79.76671907689492,2175.1977356133953
3748.5942594866797,-248.14079207219007,76.27460746086535,2191.7433042192547
3736.7117760200003,-236.41009519191041,84.6784673972426,2128.8109328654023
3714.732084140874,-236.3391158321209,85.97802133138079,2310.522350544803
3709.4543582812707,-209.49568662662915,88.24462755747663,2342.2342360279217
3713.4189954574854,-209.6269534769782,88.40071288896625,2270.57610236615
3710.2870128133295,-205.8612001160692,86.48951543131818,2288.994196779208
3702.504960566911,-200.27137977965208,81.09698689840923,2182.2756800193283
3673.3162309823715,-165.2483829765728,81.27371925487428,2095.553272683384
3488.3847498666028,-81.84984230015245,86.9797068860829,2146.9165249604675
3521.241720884682,-74.55821760912592,79.54853138562252,2127.924002640715
3527.8113025219614,-80.74101801758049,80.36311914835125,2058.4501457780134
3489.257107141058,-102.0352735459289,89.55357679562879,2082.912691531655
3482.324473993158,-108.69822862741185,86.59887535583907,2291.5506410149014
3482.0310186574297,-107.77821875562067,83.50910885006518,2199.8476769470303
3482.758608692208,-107.9775320773099,87.4326260697578,2201.7234039650957
3506.6077873961267,-58.28472271577412,84.00990561499925,2078.1689954202807
3577.8323839707523,-89.39483583360334,78.43735782030683,2048.754718706581
3590.752012002596,-79.10235317004424,79.23674235725623,2354.4291024947543
3586.9587730342564,-90.45382459197694,74.1458348327558,2326.3843048526323
3586.6995529943647,-79.98511811283028,69.1451912703664,2243.1833417988646
3505.754134223465,111.83112698635213,85.0191309057367,2149.8026613076195
3649.8227555661238,147.09112202653137,73.90615345247012,2237.031170643463
3675.165923966424,133.19801116146377,77.39969259283401,2164.502359135788
3640.5094011131287,216.73531965398797,78.17658965670343,2193.6575659613313
3878.921593954913,258.2001811278298,59.89846130498477,2187.0033048805117
3595.449666380092,283.6670911778047,75.46820866766174,2165.301713607226
3595.449666380092,283.6670911778047,75.46820866766174,2165.301713607226
2991.5761679850266,173.92482591635348,96.28700543268016,2162.0101265386343
3126.4141844040482,-57.73420802486931,100.33625145091074,2206.3382271638584
3070.611756463592,2.9730018819969626,97.61558765546846,2098.368061893812
3157.1629994668783,57.25449416381627,96.05368445584345,2224.1356999365853
3177.689127570911,-14.150371175375062,83.82773803186764,2180.603697454694
3300.53017400699,258.23550568526,74.04425038771535,2183.4912883867773
3320.0595020727947,279.58408080015107,91.33595516027972,2276.795249258743
3279.189320979121,258.20144215307425,79.2171450328184,2223.10430300739
3274.425724602026,264.1644526136901,77.39662995001996,2226.0139782023307
3274.9135201274576,262.01068704695905,79.36713416896258,2149.2853145802806
3248.1760945926394,295.83941021889046,86.50269589265254,2257.1973951483387
3256.6106224997548,283.02659814059115,76.45796301785762,2294.7845666761414
3259.5397888545363,277.583689998487,83.39283629862882,2199.707263080109
3259.5397888545363,277.583689998487,83.39283629862882,2199.707263080109
3249.089713414029,287.37713778047913,89.17592947983876,2288.154602899261
3241.1301312189676,329.2794934151506,81.48859763042277,2359.060985367706
3239.4683375546556,331.574596636685,79.71334907299389,2359.437969910132
3176.387998519786,383.2238044545096,81.31442812736694,2300.451220408454
3174.6775113057374,382.00891803953783,84.93434298448302,2320.4721257631786
3176.6216665357356,379.34920794564675,82.98558949719985,2326.397108585047
3163.70792087287,414.96890063424223,91.89094780491568,2130.179569080244
3152.541424689455,410.2920986074503,80.61588298834313,2238.723833836571
3160.1548717006235,408.91877170035116,80.74522761366522,2266.5303449117177
3148.559678642934,450.6181553899283,88.02977049828783,2278.4266681878757
3162.9142020946,308.8068341783618,84.91280146916736,2309.4407202585458
3169.8203785060828,303.8709140261814,91.82789402718885,2154.7204178871825
3181.3505321635566,300.50423636158564,90.35772003259282,2278.5131009768006
3192.088982751818,316.987077198846,95.2524012255593,2284.297938698607
3193.405934814732,322.31963481043823,88.44443409299568,2160.2085098882894
