Intercept__0,predicted__0,setsize__0,rt_sd
3431.500399680492,-4.566087376419013,82.21795492087365,2152.5779695997667
3431.500399680492,-4.566087376419013,82.21795492087365,2152.5779695997667
3324.38142126628,-225.7458821121851,92.12202686250306,2165.2798200645734
3342.2985603216603,-314.0035847692085,95.82054024967387,2243.8740513312537
3276.077632706371,-319.60629089424833,86.16384804232027,2185.861800385426
3252.4761883869487,-310.16683158456675,99.6819006648845,2147.8288488616163
3275.7836779363042,-306.40719590284596,88.68137503841196,2131.384520588009
3517.1114938123296,-285.2101951458992,80.17360512054628,2077.379526189809
3503.3318744891926,-275.58486411862515,86.8120240828515,2196.176209495003
3503.3318744891926,-275.58486411862515,86.8120240828515,2196.176209495003
3861.656553520205,-260.5760443781146,73.98819657755796,2204.0487914542396
3749.0275375314845,-154.29948926287213,70.50370432890455,2251.009134820712
3721.9525244850915,-125.47741744694304,73.81136830524969,2178.788480941582
3721.9525244850915,-125.47741744694304,73.81136830524969,2178.788480941582
3737.2918174412243,-114.2229233830814,72.9458032289662,2121.5002973091464
3812.488553049013,-51.905596327520456,68.92772908698814,2111.7303614221614
3812.9629251135,-52.05514385724083,70.46540237815536,2148.649774308204
3829.537426455071,-19.648954928438325,64.71690453393538,2188.049896094412
3094.231875717489,-333.24750811569714,99.40260373611177,2113.22065473258
3093.9265870486415,-335.520542722711,99.28852480992961,2064.2264651675728
3093.5295670855003,-334.6272409906603,96.52054734143304,2196.9670186177996
3109.924052670137,-318.486668355835,102.7038298155365,2093.1051997342875
3087.1727421489154,-293.6811128455648,99.09528951280133,2299.9201324669893
3087.9145388477955,-294.7371772415465,105.65306455554878,2151.8022065111822
3211.50762041624,-248.47196662681318,91.01039500238059,2212.6605562289706
3245.2267481922363,-224.14230922573117,88.7781659797369,2116.6225017765873
3245.2267481922363,-224.14230922573117,88.7781659797369,2116.6225017765873
3300.2952798427796,-210.7766974944319,93.67977255109876,2066.434558267536
3363.6502350255705,-274.34842173632984,86.64163965187505,2085.3459155567675
3379.238136702965,-266.27615691994157,94.77292842618468,2254.012652709684
3364.458909168679,-280.2033854733095,89.57414182737908,2205.3052530105083
3292.954761510865,-234.13220543164064,90.37704912552724,2166.760678250689
3298.027406898083,-236.58831352059585,101.33828413060142,2147.488452336957
3298.027406898083,-236.58831352059585,101.33828413060142,2147.488452336957
3298.027406898083,-236.58831352059585,101.33828413060142,2147.488452336957
3425.917664690944,-263.5881535606496,84.1082108721553,2184.69860849367
3395.125030796479,-315.341446518554,93.97587877365422,2077.9488571015595
3436.4855390455728,-240.6504302494888,90.93964969584576,2092.7662189446287
3436.497203679151,-242.37586597623553,85.12438139846489,2256.3599908762885
3430.523441594217,-235.78189354771112,77.33554170054421,2155.9026827455536
3427.050948779539,-235.1303226946605,84.79471901204192,2144.828955648736
3432.0510280531425,-197.68460744255393,84.57605483678486,2106.202016009443
3326.15476365377,-318.42878137531807,96.45578211680336,2141.655630677706
3399.3289770942606,-222.42373870363267,80.56512153481069,2067.6594260282645
3390.0521394722505,-219.80927952229945,84.36126258155275,2238.1870122653877
3393.1236315069523,-210.88339500690196,83.31038364635434,2236.9111968167977
3391.5974427026754,-205.49881553577924,90.93777187470423,2091.6727940284836
3378.8545904515695,-228.78562027374858,87.78274893745609,2107.998054249759
3420.4423726995574,-246.6565077942437,90.7216927283998,2221.659668210742
3460.1640614704816,-206.8952978373627,85.53558044336502,2155.8585732493593
3457.9609720141707,-207.15169865741,86.38248095408294,2214.084151597975
3482.09531096739,-214.8592963706218,89.3952785869468,2157.815681073095
3451.0456655772728,-186.5051260288638,81.81488593009931,2144.5392939588946
3460.7451037375436,-185.99608013239506,76.98249671100012,2200.780922962273
3449.243373116976,-189.57055527112362,92.38281261218373,2096.5090533776233
3457.1777294121034,-161.8391216434805,87.01056522935528,2288.9092011416174
3432.850583057974,-141.4236329666728,87.32509980255894,2124.5356293407744
3576.476453834662,-124.40810808169222,80.7013782176333,2119.3847856091465
3570.2747461546887,-128.733709437922,85.37967169403447,2175.1545468585714
3403.5405854126325,-563.544711600354,96.58943716262557,2122.329499818466
3472.85015316924,-82.14866070952122,85.0413451015237,2148.620555093094
3612.626072853227,-123.20996978680998,81.85620362077296,2116.8000556636603
3612.626072853227,-123.20996978680998,81.85620362077296,2116.8000556636603
3599.323635791676,-112.4558537211076,72.80686873316526,2057.15188953061
3599.969818610353,-104.66527228853047,71.39971632072572,2253.832449843025
3655.712350808177,-131.24356748074572,70.28050263651299,2293.145635750054
3662.814623251371,-135.32946567427277,72.21098767884115,2282.4757766599405
3651.009699389968,-177.43045260457578,80.91333831853424,2224.506477492705
3678.58607603901,-171.5123621166442,75.320869290434,2026.548587937167
3622.8558775723923,-187.8259486242647,76.07420001670376,2087.9850766249815
3624.1605218627046,-189.6385592933799,81.2060296031635,2206.3986452768163
3698.3881850916528,-381.74550737229276,73.25828350371819,2219.0773190083746
3701.908712635056,-374.6228685014724,78.66109345474713,2141.791852621785
3702.615967531291,-369.4689404425443,80.82193466094625,2234.4450327088025
3712.433830870176,-362.444616944064,73.62259707632101,2215.4349959299584
3777.6682885936957,-308.99337875013555,65.04559444241286,2089.0022738484786
3763.8872030758066,-296.68750195313334,86.2838950207297,2335.948976209782
3803.3207996002347,-347.61557086393736,64.39808801302148,2338.344648213901
3811.5412601374805,-351.89316609980506,67.81800964762432,2334.9381944046995
3797.537745768949,-319.56239070665964,75.63755228655056,2031.9206342211905
3781.1137555619644,-311.20367271324244,72.97951767657301,2221.766745798414
3778.3998612644336,-294.8527883874254,66.90745207890059,2136.9093697462336
3708.332082653574,-274.88984464746795,71.24532910642895,2172.128584241358
3711.146721194091,-274.24237347789864,72.42690322417596,2174.1801860576984
3782.281837379096,-199.4091243111479,74.42150066966965,2102.1686327304947
3770.8947682364064,-357.35024153849605,76.0262462501986,2173.8758379936626
3770.8947682364064,-357.35024153849605,76.0262462501986,2173.8758379936626
3740.9923758925042,-353.14474610766473,76.84864884741397,2190.355680286668
3731.172691377036,-355.2083980466017,77.26826644701868,2218.252990335722
3762.3634475381414,-365.5038248893069,75.74759376173994,2043.1585209464708
3748.171395767974,-386.423427918088,75.41109104928027,2223.6596720841617
3748.2379386592274,-421.948794887442,76.67657660656948,2230.7411379081764
3763.7768011751673,-419.46126513537513,80.41213456569334,2239.739626286429
3761.3951061888333,-419.7804402790798,78.78658554291526,2251.775944278317
3756.2172300287016,-414.4758129826867,86.25863344580871,2127.068369636997
3754.375740416851,-414.5114624189096,85.22763641769555,2113.717762250538
3894.6436618916587,-312.493928166815,78.43748902876995,2099.419403648754
3891.7803206701965,-315.1814810822,76.7425107753608,2254.8355048021454
3889.510326381192,-324.3840916982316,71.64165912501397,2226.337238112909
3887.600057166963,-323.4457446582013,74.28635341561004,2115.8558924034924
3730.2616923989667,-239.58907976504912,77.7674072819144,2207.964721684377
3729.7191945643945,-242.53575613217356,80.55463195392774,2269.524807903914
3719.4129207463625,-243.72075232752547,75.75845950095632,2088.4064958129316
3741.6071852689915,-238.6332108393869,74.46718608940795,2301.316620614118
3744.447611129575,-234.91019833396885,72.94750551563708,1981.9239879203371
3739.6111224203164,-235.1877129120691,73.7669939423683,2130.7456022713122
3104.5769678773268,-93.34686040183588,92.81994326929062,2172.4409749620263
3147.3951962857777,-251.08598006329123,97.65890803198332,2108.316222936122
3396.97577100023,-467.37604396177454,99.61798838322807,2132.6331221290625
3398.2277971580575,-464.1607729372597,100.95206536527024,2211.616480721431
3386.306645814957,-482.8953566769585,89.74740334366352,2159.1777994849376
3386.306645814957,-482.8953566769585,89.74740334366352,2159.1777994849376
3381.5502285195366,-439.395694310981,97.22266856504964,2214.158239556101
3386.5011957571955,-446.9658258582356,93.31572050415845,2104.0447645793492
3394.3258372516625,-429.1280956750699,89.31109695239978,2223.6546167583856
3392.256634044919,-417.47499389777005,98.34188207588349,2211.116854367686
3413.2047852720825,-383.6185655068969,85.70708390135843,2078.3865671650206
3413.7956137356837,-380.3633571226432,84.70584069331352,2103.3689676884483
3795.399994627374,-662.2133666689275,85.14106180304522,2189.162685913439
3795.399994627374,-662.2133666689275,85.14106180304522,2189.162685913439
3934.2577123566098,-810.3891788321899,82.06651498128491,2114.4494130963108
3949.462771673,-807.5227239288034,75.33613917019741,2127.906160676468
3815.379377749072,-609.4087073871943,75.97866359968556,2189.8026879509916
3809.8241057287546,-608.6787286714014,71.53342464597903,2276.355489891967
3852.0286722230276,-589.9295594815109,78.29122035245665,2121.2862554746744
3689.6184123688067,-714.7170848268106,83.61190981053008,2180.374950615923
4005.90885453482,-111.23546507168803,68.2700709959779,2108.597084240334
4012.361553901745,-109.91742511863971,66.56755424884287,2099.4208183946203
3991.075396442317,-93.96180366493863,58.956619261808115,2242.746621272841
4009.541044904177,-140.05171413931896,69.43647190461913,2132.0087303023056
4096.769110373149,-117.42409853418603,61.05915383709986,2185.0117212300765
4088.7676609742284,-126.46082527144114,59.73459171020331,2164.1289567984513
3115.6134495653064,-241.8609569075453,97.82936384082788,2146.3940048261484
3120.973840716458,-225.83275851333892,99.59294277224903,2045.5386986811686
3128.7484497663118,-241.0675090721785,86.63365521076811,2259.828625581719
3122.771508744013,-222.36488595994197,91.15780734221087,2147.693735536797
3077.0898069367927,-257.92976424950854,93.31254540524994,2129.782705377765
3076.1579716602273,-257.8366743996887,95.22782081885069,2163.572797758213
3069.5404724206364,-234.57013410587558,99.6486593263742,2227.8768956290833
3074.132078203362,-240.25262422628956,99.42133267229224,2067.822350315238
3068.903500649329,-250.5459142050476,97.93718914482332,2050.166528752614
3062.2392987274397,-247.13665681130666,96.56530561736054,2236.4301404991766
3064.5294100076158,-265.8030996949921,105.09631216464669,2231.349243494687
3046.820144608375,-267.00881555924957,95.5088685053602,2124.1853867309487
3046.820144608375,-267.00881555924957,95.5088685053602,2124.1853867309487
4141.333874843126,-461.03210629926286,60.34504525660006,2179.253295513991
4127.814111415913,-469.24075621425897,59.48807750274115,2301.104490525897
4113.483451285648,-471.34032903297833,71.64724445038573,2082.335738665866
4102.892756100364,-489.15941866260016,56.811143386087714,2322.8484169381104
4089.5974183976027,-473.3678313091885,67.44088372986411,2284.101339532246
4084.730060962555,-467.7571747616757,61.93411990613454,2185.4895247155077
3776.6364029167644,-578.274653128275,85.47855875019276,2175.9981514182655
3776.6364029167644,-578.274653128275,85.47855875019276,2175.9981514182655
3672.232998332511,-640.9166544753496,89.44879535494941,2236.8005537561394
3668.604519377347,-651.8228879729638,85.73579067467011,2154.737071644875
3224.9731403869846,240.50520134810114,85.19829305584037,2138.307279636316
3348.2487130618997,-53.205296914405025,86.98214735308596,2153.9896847098403
3363.8363040693876,-64.85484895584202,81.57791993469587,2176.2707346873126
3598.3272549297385,-673.7637050945642,85.00865423066423,2184.684408073275
3445.4335728176375,-526.3008592899133,99.52481513193186,2191.2743852661415
3431.549891466945,-526.7946932520874,93.59655402608053,2232.428783768013
3426.013556736557,-572.4019517132083,93.37577611515093,2122.9113263215177
3425.954696497678,-566.313588390135,94.8384515254984,2253.5173761530896
3419.448385265882,-559.0961979727862,94.76575336639439,1991.6447392613204
3397.593592501589,-578.8495753558672,92.64551526008428,2309.678100587182
3390.980652138212,-596.9051681844153,96.10551723377098,2332.2626456826865
3375.000125850273,-581.3736122246318,94.9404339110979,2331.8493492859466
3398.323611950706,-582.7167700103637,104.60668503101955,2332.1873887699935
3395.2817726115977,-579.9564086780024,102.84269411211325,2335.2702423611613
3400.1207219803505,-576.8790393638109,97.96963379569125,2338.815809237789
3396.736966613832,-589.4395893137233,94.00866677400965,2335.817659811805
3402.105281712531,-599.7142838956511,104.55870750585638,2047.6451696689314
3395.131233232798,-598.1951469659465,98.11373909463141,2115.217745507527
3919.1663641819387,-149.79441330224662,69.97166799795751,2172.20718001775
3908.6098543845064,-209.302770377445,61.62523299492039,2172.798818352194
3883.674637557203,-262.97961131751583,62.12661192121057,2205.3181760283273
3865.844401488822,-385.71423856647505,74.78278669568476,2175.5233010718375
3744.789156852295,-305.6629000627099,83.09126065424398,2156.1260763843284
3748.709449857494,-304.4745543672416,83.35733284633646,2262.3702057991804
3732.022039272445,-377.19687838603767,72.76808646165796,2226.6348859277596
3686.395633002936,-288.9233119241587,81.80267328080059,2121.329445707594
3686.894527771176,-291.3424545589318,81.85729336471925,2151.230169697547
3693.1653559013193,-301.0897959097603,76.58563942046055,2144.888145572673
3690.135599072473,-308.0257938571473,76.4789650786789,2310.0947342237077
3690.337881263566,-313.4546180070235,89.39832691825062,2289.369083147714
3689.0667444138553,-315.3814890784573,68.61078254783692,2042.2577869285522
3693.004589574777,-290.30021651617034,74.7729722898741,2238.27653187641
3679.9095535576744,-318.27321746567077,81.51123952754409,2201.855726067942
3483.7010084579792,-495.1868606001141,93.69245978632756,2165.4837300297872
3428.876602148307,-546.3135007367453,97.15875750616833,2169.105174003833
3433.710066277219,-548.8912627689082,91.06602309907072,2238.096895512534
3430.7625183996875,-554.5764532126941,95.30390238765214,2236.960255371114
3435.473134439105,-545.5399610282873,89.70801712209132,2188.937661133162
3444.2544967261692,-503.4997443503743,88.88018986581528,2131.809014328946
3469.95255027865,-486.4349933566407,89.9639488381095,2093.604028410039
3469.95255027865,-486.4349933566407,89.9639488381095,2093.604028410039
3469.95255027865,-486.4349933566407,89.9639488381095,2093.604028410039
3469.422334635217,-486.5226100713728,92.56840922471979,2141.5568279396393
3464.2321371999656,-484.9903135073346,94.60983830158278,2242.347769742095
3506.952738340613,-549.7474427427015,94.34467730060005,2248.0822776440023
3503.1676419305995,-552.9934555350289,90.07782317053011,2111.191677095929
3602.0129839821184,-650.7717724491064,89.08668965143936,2238.6070619807883
3557.3049611950482,-642.4432024487485,93.12755456172414,2013.5732767945872
3567.04922488955,-645.0386176160533,78.1758770070528,2260.3625490805093
3551.059768695594,-668.482318746411,84.6438339618847,2125.644256516877
4213.0179567085315,-1021.1499859530325,72.0765222985305,2204.37821187311
4568.976848529014,-633.5408967671898,50.868874166188604,2137.0313078720837
4564.851973026702,-634.6686519876679,50.56337567010008,2249.576843935406
4601.960805122373,-608.841273687978,47.5739742229798,2218.823685547309
4525.722557862214,-510.04238169074387,45.87761049896019,2117.564493280292
4525.722557862214,-510.04238169074387,45.87761049896019,2117.564493280292
4428.2773991502,-542.7369697004575,54.25275503488165,2134.037383727271
4447.4403549142235,-519.296340135699,56.133606654563486,2314.419972070034
4458.549081479185,-519.3339647415987,54.258050839978125,2085.925803760192
4464.843700914759,-511.3641543656789,52.79432724981072,2251.7649797053996
4410.469460262738,-514.0783209701492,57.53863647072844,2311.6649014615236
4409.546478947654,-514.494991416972,56.88048082944417,2311.2879306440673
4414.71024596489,-512.2115155811232,51.79784292261455,2313.388255759765
4411.816359268329,-528.5679357936126,53.0176225158137,2314.9425636113133
4406.59084161407,-532.1657222698313,53.28922661427695,2308.0701912633945
4399.9586816232595,-492.0497178301788,57.48966113310766,2252.588961796582
4364.9387916967535,-461.07421554739943,54.014273681306136,2242.5330930897485
4348.006229065061,-466.93661879102564,52.79249323713075,2101.810001696956
4348.006229065061,-466.93661879102564,52.79249323713075,2101.810001696956
4403.472193655292,-186.41988809534104,45.41178753701038,2102.0418369106674
4403.472193655292,-186.41988809534104,45.41178753701038,2102.0418369106674
4442.508157038248,-305.4006812243218,52.35596307803583,2172.116677427329
4407.414775790927,-221.21921319343056,54.47032250778845,2207.955967610649
4100.351311921658,-163.50249246212485,55.95727996829042,2173.363666744498
4100.096869565325,-161.05190173735397,59.72469497613595,2224.030835412198
4096.683802115171,-159.21796818018552,59.522482809083556,2072.06532721157
4137.206455538396,-187.53820843698185,53.87916639198045,2246.1737377480977
4139.167053273869,-185.38499720034588,57.174801984384324,2236.9046619214823
4235.372062379015,-273.9174562154996,65.81870765141164,2160.0258531316726
4245.893738630399,-252.2929766443923,48.583701514514786,2096.3666754867836
4247.473195158994,-254.17682910884096,46.295487295705236,2251.9738706978414
4189.152135476396,-248.65793562549038,51.79032584124648,2249.9870097398425
4189.434780017064,-244.8739747736898,50.12227649753344,2181.936909141603
4186.890832647977,-250.25446515428914,56.59944162811793,2216.5709216081823
4185.168052795527,-248.66807786873508,59.8840081556695,2095.4096659360152
4186.629816492882,-248.01501941109805,57.83042954734365,2206.4354499324745
2809.8581801537402,-125.95257952154736,110.90529326205595,2124.9016401367558
3446.055578304899,-181.90893668165714,89.29570712932127,2054.132095886339
3446.394463058476,-182.3350986589773,89.00853465436981,2199.2966579269228
3519.5142049680644,-127.04181286581264,77.30657191958024,2101.773655711105
3392.476233475489,-88.63938094366867,92.25227041556556,2017.8619513305036
3402.248005844499,-78.03035786110578,75.15746279614629,2239.865833314778
3395.2208783644205,-74.89635831477858,79.15055919949106,2113.4308178792576
3395.2208783644205,-74.89635831477858,79.15055919949106,2113.4308178792576
3393.1361428373907,-73.60620361286233,85.35929012531854,2269.165130503436
3401.978615938774,-70.31597144899293,86.0856623496372,2278.653482356042
3371.559677740285,-93.19372443415722,84.93306549782673,2087.579992568747
3251.778610290538,-171.4857696552931,96.80956785672747,2174.301901325781
3146.4110517205986,-155.67413251132885,96.41516850584227,2152.4461104148904
3224.4945699837363,-174.74360958950456,94.70937268565815,2140.6763584564146
3535.642076504138,-189.87942020859498,83.88334108577347,2151.0293477835903
3522.4684701654837,-231.77886916200842,78.97554777886035,2070.6511282941246
3522.4684701654837,-231.77886916200842,78.97554777886035,2070.6511282941246
3541.95127604992,-248.44483941244215,84.72344596615989,2211.5409894030254
3545.7393908940603,-251.7433289140189,82.50427785481779,2128.7795772239365
3549.4137518398643,-221.76772098020854,81.34755833664731,2270.4633310893
3555.2226307506103,-201.04952395565923,81.47446506984126,2270.234878669337
3553.8674106279,-204.78003307866604,84.67215387140426,2316.393131608471
3541.902106433735,-202.43839451178303,78.73894143406898,2151.8660228314543
3444.9236600535714,-146.39308253806925,89.68941292732721,2176.5609594808893
3272.1301179725465,-266.1509551677922,97.12173406730757,2164.503507635051
3080.2619919182675,-369.14404644199664,100.8661052261226,2161.8590086194813
3257.062620913258,-370.0921612635282,94.09353787296422,2173.4383274551624
3260.6223505685243,-362.94845624473766,92.34728185774314,2230.896485037168
3274.0304240685377,-354.0579817018042,95.98103276215139,2266.772992096001
3280.468828770028,-358.8312129956006,87.03971478677394,2089.7304494200143
3290.808643062423,-357.54452400959735,87.49988736469675,2245.89422776867
3295.5571197580366,-355.12734989226516,89.32191066566467,2126.50157713655
3298.0162052734377,-358.90954619676825,96.33227990470604,2192.3297012662542
3286.1535945559363,-362.4367615073931,91.29404981096967,2211.0717783848436
3063.017476497092,-451.43078340103347,101.13152238117772,2186.943674253707
3282.624668431011,-374.89571557814236,99.78089337591526,2167.689863933183
3277.9910413989874,-383.3504034866499,99.39650748599533,2226.2338893549595
3268.9752258209523,-317.65088543309145,87.50042455044118,2164.496881275803
3265.195968704093,-321.2028029653907,87.14715667118753,2235.080209191285
3265.440129792864,-322.3852417113585,101.14354384190341,2157.7969065610955
3278.2947437394246,-295.15900417243864,97.17974621137822,2227.616419638107
3280.7240794526697,-317.18566676234985,97.06283373187705,2179.9550153193522
3365.2378672806135,-124.92771102127833,86.85480737231688,2076.6888680703123
3269.348410067116,-30.89582511419684,88.68449911494203,2082.765457295975
3071.64084321436,203.44973096100028,95.02907722588144,2076.8953370792237
3074.201693853104,203.57409418880627,93.0608977376246,2254.138001203712
3077.5285089561053,203.65377015869356,92.70865747435235,2245.2818907838537
3073.1945110143597,202.10569860133856,86.41748112085641,2066.289506754527
3072.519682913896,201.8694146347161,91.54639727296185,2199.4520179503947
3072.719159913396,205.73922138625235,87.34790926854603,2173.534563256102
3072.931418279367,205.81926630697347,86.80854356206257,1998.8831894515163
3073.976468411748,208.32675060929546,85.5881823283543,2243.0311342826903
3048.6340223534976,179.19325586513247,98.96701371902223,2253.775669312013
3051.341989673131,183.74791943319283,94.76054481496178,2232.584192762453
3053.8566438499342,160.24991249612964,106.14599007738346,2251.7409039264953
3059.0571040468985,164.36341213530966,107.11679109278239,2145.357451330836
3049.5155483805133,175.1716302242482,85.42446488588389,2179.4921543375244
3048.7871263197235,177.65174673893853,91.33205294873886,2195.2885661050727
3132.502711467485,58.11916498198398,90.13452925184976,2187.774845691035
3108.509548996211,94.38372684738397,96.00999651302155,2176.1559351097967
3110.575921642633,90.20780495587536,98.57048658597472,2178.355213325607
3456.4220781641598,13.791016485814275,79.4158048307064,2117.7618479128496
3494.948319281631,-37.456140502051056,78.7991876522818,2126.2698092487844
3475.433701855803,-159.69052185712303,83.9516410518984,2105.8034124626115
3481.6921172885964,-179.94393916372925,83.07109509730877,2238.24555646468
3489.925024242562,-174.4666510850076,88.81863154116526,2233.886297101826
3491.1609766676183,-183.8801170222918,81.45739296186447,2182.720471237591
3511.876439530823,-122.84477692876143,83.63700727473258,2211.799617241551
3516.093058194103,-47.858541936057186,83.5455897150619,2221.7977558410025
3517.293300615078,-48.67391457173995,80.95881133997108,2232.958521469432
3519.8548871325725,-48.265883703755286,82.4214717843137,2157.078598935358
3543.03960419183,-75.473234672112,78.4933372259925,2317.538296636754
3530.7064623577085,-78.02045469619762,83.18017894360864,2222.540584926405
3528.809810548867,-76.11869094308268,86.66113871880238,2133.3537595837433
3600.299548059193,-258.26189008975575,73.53776254122751,2076.9203230351504
3600.299548059193,-258.26189008975575,73.53776254122751,2076.9203230351504
3585.875388486503,-244.4973440283452,82.4369180408614,2269.0394151896753
3597.425659588656,-238.40885312191614,84.32701526816906,2247.5056418222875
3585.948660883501,-245.21457088099754,78.31419394896032,2213.8924399405655
3590.4818905723146,-244.8270946352055,79.09839330503495,2158.140219200282
3577.3507501781182,-290.194572586713,74.73977609455945,2122.9299880678614
3564.1295157774503,-267.5468979474373,79.89184582639001,2220.323601233089
3523.5985143936255,-308.9659020781373,87.03238787308361,2043.643411650636
3536.1253004130167,-186.59235779150544,86.29500632199242,2217.025093896826
3548.780571046674,-176.41385872139156,76.99155324847291,2249.563307415066
3538.3536967772866,-181.42908347902394,81.09446821381498,2230.341328664033
3538.232131607602,-192.71127046532177,85.58914631440267,2116.7866644403084
3342.8299639380957,-23.468805843962244,80.87052095830357,2202.4013123703876
3343.097747889893,-19.942522172657572,93.58243609086011,2106.1925148676573
3343.034891812472,-23.79633490447869,93.59395326862976,2073.962333315867
3353.5503702903093,-11.512175813456778,75.44365005406733,2241.11226445019
3355.43731263613,-15.033858764604592,78.44668562962036,2216.9701604344496
3258.4011070339334,-176.17479916259694,85.49743474994668,2156.0355014295465
3262.8621007981546,-167.29821958010476,92.43117779991556,2207.926570688586
3137.112955230582,-102.6235812136014,98.08869982604456,2258.058056555838
3123.0174415891047,-115.36252723087284,103.7883076369126,2230.4292011481334
3125.0817106172044,-147.78273981710706,92.19458592278633,2215.2073011180987
3136.5035186201317,-146.46888575649308,88.80611354973847,2096.823090118205
3136.5035186201317,-146.46888575649308,88.80611354973847,2096.823090118205
3151.8429384561923,-145.21147773915789,96.90981533748192,2232.121643564882
3185.99044925843,-182.2212163294698,91.63417645214211,2149.5490035083753
3241.6961310446686,-210.9603227773702,95.92066786327678,2140.5541037511116
3260.36014652996,-206.40533138711314,95.84050299648051,2181.643816032905
3264.024017098154,-217.22519448800074,93.43798998818541,2297.5732657086724
3265.6292442924228,-223.19633672699223,84.62835400315744,2299.4169227015004
3270.6846894222012,-255.70135196440424,101.35248998650512,2219.8744254047283
3297.647559187328,-221.53269280894312,80.82805775387243,2199.0321347823183
3295.77229671845,-233.4349501753592,89.86377929075941,2092.2801646106886
3422.7927480151657,-164.26414271843652,82.99611276549392,2182.2667556717956
3419.7368919669866,-167.69938604766293,89.09169069584003,2232.3499493701506
3415.7822368950306,-164.35924324911008,90.23478766341483,2237.556146337615
3413.6192474296713,-156.41179761947126,85.00176963985031,2035.4938635460694
3387.792758604734,-163.04610986871884,89.41090964038139,2139.400092698417
3372.0707405906896,-156.39958519130695,99.75640211243581,2162.03834698495
3374.852987732556,-154.8631038288432,94.79103678789922,2239.285573243588
3378.0169448144443,-139.6449461823551,81.29337769316169,2219.5217231116562
3388.912960922968,-134.5818933691179,83.11632142114826,2302.7541585227764
3386.191808797394,-134.407314438657,82.56049068008846,2302.1280128559683
3386.054142987072,-130.8652576217247,89.4213990645546,2267.6514382661494
3384.360157822141,-136.38581989327494,83.75333619573746,2298.4591899519432
3381.1480668784516,-135.52720524285192,80.41633433276479,2226.768172148067
3398.638195557658,-125.87662723897452,80.93430692895852,2170.917115136627
3438.202903805476,-106.39605527801585,85.97981787057608,2176.7674060609183
3438.484115214875,-101.15850204248643,92.17635840276147,2116.614980836174
3452.838496552787,-78.58570677599671,76.23184688656441,2082.5871118377636
3490.1194116374845,-61.07384118521677,85.29587589320671,2233.2528339056335
3441.857802028436,-74.59018760243808,80.43956191198683,2229.5675940401106
3434.4733260321686,-84.0562956772651,93.59127161088419,2126.9054076263374
3392.86946367081,-101.14961863713343,77.74405106199247,2196.230801498575
3392.1010068273367,-100.24904060477074,77.48143449042293,2198.3748373547182
3389.327715574286,-140.9400840202731,93.79468918509208,2197.563950102902
3384.1731752087157,-138.72952116635037,87.26469947439534,2069.7707048178286
3393.6096598495487,-148.69969639693275,85.27539985324422,2197.1289413468894
3393.6096598495487,-148.69969639693275,85.27539985324422,2197.1289413468894
3356.6616211029936,-145.18080618833307,88.31162652739253,2107.307782471011
3397.5228732678647,-128.01504735519677,87.93998913669643,2136.341462237031
3489.186395096279,-153.44593649582137,89.96342331866742,2232.140176988871
3505.003098710731,-188.34420024054236,82.4835667025374,2121.3326043760394
3454.599072919253,-62.8465506395564,84.71849348221639,2150.9074966901035
3454.599072919253,-62.8465506395564,84.71849348221639,2150.9074966901035
3467.1324276331125,-47.099433162643464,87.23329845494042,2234.682406513901
3560.5767023624667,-103.52442917333184,75.48464656874297,2113.4385805215925
3573.825501393386,-433.72271113429593,84.63713405469889,2166.7644875038254
3581.2544241655582,-441.0346714649056,81.40470666278445,2230.471827099062
3575.6344137369206,-442.3533471290783,78.58840558753175,2160.022334554864
3574.4208052953704,-439.8200580587944,82.17785111243438,2136.9935261081278
3505.265614317707,-365.27194531716583,78.27484951747067,2136.729022765346
3508.376155417588,-379.72550425471013,91.97143846867627,2149.425801801829
3348.6209507488024,-318.12729016066106,95.62681409312974,2201.853347101422
3328.3963745163155,-330.816878231014,94.09099551240101,2290.5790444529807
3322.153770150747,-334.52299138466503,91.17218149342554,2084.565375353588
3332.621932859336,-313.12664206829993,92.50750283025724,2261.6344772767084
3334.1360553046275,-311.4353683041496,88.40886837350116,2168.2786190720803
3323.525641711727,-321.4447534448146,94.06384044900231,2277.664509040542
3301.7048585895163,-309.5498112725155,93.43106023599252,2222.6873870745576
3299.135113555202,-308.0736186328227,95.645580662672,2088.9524996515584
3205.187736940356,21.652270695133893,86.59288161661324,2172.669542739819
3564.5126173974486,-174.085852848753,83.61942169949825,2183.9187470536444
3581.9606740181143,-307.2257967151779,85.62587876647605,2133.0375515070145
3582.127038214402,-315.1461218296737,80.13589442023203,2243.370810525564
3642.1280128494295,-284.10155175744535,82.45399249053038,2214.7941559276333
3639.9142831870104,-211.7450043278543,85.13700874500374,2180.861734956273
3385.620287547547,-96.98393734092122,93.67737974558939,2186.0017158878245
3437.802850482156,-261.6867495561077,79.61897079698343,2110.6880448798784
3434.6889048970797,-293.3170840929062,98.70455587692369,2154.6320147032366
3479.3895892670403,-287.9433291881188,81.66731594189547,2205.187111235285
3541.9066290010796,-344.91726043800776,89.02263228393278,2159.0555322745317
3401.8784393885326,44.09969172932237,87.8031356958554,2168.9394581796405
3270.2605343867276,140.5515554145526,91.18752597989423,2169.4887171913733
3262.3107331398146,136.02034810042767,86.984879911481,2173.346214834735
3255.089867303895,158.49602463504277,90.53252659915077,2270.0257475068975
3259.027491391322,154.98721881462225,80.5529002804476,2234.9816314386567
3265.874319750522,146.09068349212265,84.73086702632847,2264.50862038896
3279.662196807506,141.8596172263906,86.5474673836256,2210.756582202683
3314.0646357357286,81.18285170611446,85.58392554557989,2218.308776732755
3316.8581566239636,87.50562881755054,81.84089479171733,2097.3673452713756
3314.0370431928654,83.02096085705972,81.34326692793078,2262.84936366531
3311.572026738959,94.08003803829862,83.04176686270083,2278.0274350616087
3331.5132869861472,68.26974872140244,82.64226102144615,2199.999459067538
3292.146362959971,83.84610437085992,89.84699983068498,2167.4646972329006
3419.9863222624203,256.94838444306055,78.11631147137051,2132.5559594644596
3122.9657409500437,323.4236746999558,87.77058906724533,2146.868749226314
2879.2551164201077,209.21524557464974,105.1734797911187,2200.1427363235016
2940.353447433292,156.48538914960454,94.01822155665221,2088.5621964406187
2940.353447433292,156.48538914960454,94.01822155665221,2088.5621964406187
2940.353447433292,156.48538914960454,94.01822155665221,2088.5621964406187
3004.3140096441884,173.3763917291018,95.5606401483431,2153.304532968849
3134.0376225862587,335.6814056561018,91.69060909005951,2177.764348797428
3133.864340311655,332.9512307003466,84.94456767437921,2188.8895223329405
3131.5339351550015,380.52661910200874,81.35106961907927,2146.5188381026546
3130.9542231910623,376.2888581092994,83.4217576081187,2232.7840557464965
3033.6485129007106,341.16694824647493,91.75989447354685,2222.1656241881014
3030.820424897626,335.49688994289556,83.28042199063141,2136.780469582223
3025.0445867150324,331.03818473002207,82.57564939541582,2237.6449537217877
3050.4785906484653,330.0948588587513,99.67353651280808,2246.468012141003
3050.4785906484653,330.0948588587513,99.67353651280808,2246.468012141003
3015.606808902409,209.0056671530914,100.73380782032096,2247.8775725215373
3019.5612969405142,228.69620859538335,93.41766576646576,2282.8202911921626
3032.517324541297,231.53614796446337,89.34459381394089,2213.054241592233
2947.4247594937415,238.47357040650476,99.38656661887828,2225.9113118623973
2935.5437074422607,229.71042716428175,102.21994954166418,2231.7780739633035
2944.6475088503407,225.66709377728483,101.08073438997081,2256.003719278477
2947.336484655079,227.13185308784404,98.52731153089347,2281.7190434566364
2940.890187528502,224.02830279656897,100.30653152359653,2159.7155876520437
2970.3772116487435,184.92060351580994,90.9608221807096,2170.0118088114095
2955.7794582107317,193.395290121481,99.22877932395988,2166.6507443344753
2955.7794582107317,193.395290121481,99.22877932395988,2166.6507443344753
3295.4311358126024,-89.06328652524046,90.53579835681464,2145.58937926027
3278.0485419956494,-9.873720687482516,88.47536809869567,2154.075085453197
3289.7256228823426,41.36100530983094,89.26303531907686,2215.395258347863
3361.948051912672,-35.923230487986764,83.73378880045951,2251.7568162809534
3397.936292186939,-31.417247953075933,85.78946062647145,2231.4198198082254
3399.980284967049,-15.532700772203302,84.23685421522694,2251.843352592849
3400.663405898104,-20.439975863814425,84.04856930047474,2270.0662413033033
3411.8274131661847,-33.34137431255049,84.71392924384372,2081.938119005062
3415.0879319237006,-25.20858374362792,74.1093112924399,2280.8174305520038
3408.2499623668614,-28.71976605376205,69.55735664841586,2267.9734918301365
3434.680853667596,-16.936578268176525,86.18390481579756,2182.561121770693
3436.1646424816868,-24.173554752795013,93.70092074105517,2203.53805740193
3432.1252928454596,7.532891918882328,79.12272414819179,2065.1309389170533
3460.743415913587,2.1130401105319896,81.82920616954223,2233.0515197077716
3455.749267650905,3.55184636262664,78.6418252093281,2141.045784185222
3415.1856225665088,49.518362853264996,85.07843382298216,2072.597926289505
3415.218926723971,47.87761019856827,86.74861695028216,2068.912989292641
3430.1995608236352,-0.0785699096929875,78.25853839133883,2073.6300526378254
3257.0843380107544,-157.35927095405196,88.4129055545018,2188.1423482951586
3344.0578903873215,-115.52472984013612,83.91123020459737,2132.740292922309
3311.8229572005953,-54.32588974993007,97.429286299004,2200.6198819501064
3305.5358449232126,-56.87273539373878,79.55662486086996,2216.2074396379676
3302.4382379521257,-54.142040064449425,78.96280630490642,2288.6541894815864
3289.949473942431,-55.537783084359674,87.68425214353778,2194.979924116041
3322.5075787134347,-58.6711948836917,87.6433333671338,2192.8624064465166
3325.3907229407023,-71.73239279163492,86.89575948206965,2243.0912318889214
3323.9202363684117,-80.43644518056041,91.95734593900274,2135.2552696183084
3306.504010304499,-57.230233137280095,86.54724280117748,2286.458627115929
3248.08071971907,-52.28408622649326,89.63998641739894,2228.1447760209207
3237.4910172901464,-44.897019900385956,92.88561258734444,2139.4751749986144
3530.563676844805,-248.11644907786874,80.87536266235502,2147.36051071738
3530.5434915775736,-249.65987544285156,83.32289133337095,2206.0558193917973
3519.9733958883585,-227.80671012838232,85.83275210345946,2141.7704737752138
3523.9831812997404,-273.17218574779434,84.83216028022673,2141.6788771600277
3524.7556007173275,-266.8697077043203,83.08357481686386,2130.4819806925466
3490.6446244713716,-282.54484822452633,84.78576089399778,2159.062677913671
3748.500622533217,-350.5514960702175,74.26324526182174,2172.7925991854268
3744.3407704239944,-345.86568751304327,77.13719752110487,2212.4730364725824
3743.4327818814454,-349.45098356846864,81.9572775302091,2175.554459050413
3742.0343128821332,-348.94792809107344,82.26306772656743,2147.211171220306
3779.383737622335,-353.2794196197839,65.63372344497739,2154.5267016957473
3781.5251825920814,-347.14860908396327,69.04916825691592,2215.9784841853866
3762.3406997200814,-334.083417546398,83.82132910323142,2126.9845557639956
3718.2445726073297,-300.61839297487086,70.48358912950448,2063.7277305371667
3718.2445726073297,-300.61839297487086,70.48358912950448,2063.7277305371667
3725.599016531261,-300.948361712414,70.38155550541799,2126.654847440069
3774.179139472549,-315.2580668217525,74.70601665977557,2135.7139213354603
3778.284836522064,-323.70509798162385,61.96913710615904,2192.6945276706374
3802.022178038714,-349.71410327314857,78.23794763018095,2240.8837492130447
3777.080201454559,-368.9900511642566,75.25055440613019,2145.111784538279
3754.843291446896,-349.956208348383,80.28443333068651,2124.6199120736615
3754.371984594653,-350.3139226730816,83.03599369778787,2219.4304099931273
3755.69098416265,-353.1490828308488,82.34629171816043,2231.9112281268294
3755.888828001703,-356.4134243903404,83.14028722057799,2147.3600616647504
3831.220827302927,-470.3442554287919,73.32894608634138,2129.8503034996843
3829.239195484762,-472.97072203044496,75.02866684893921,2025.6668638871554
3829.239195484762,-472.97072203044496,75.02866684893921,2025.6668638871554
3829.239195484762,-472.97072203044496,75.02866684893921,2025.6668638871554
3824.2469870602345,-482.84210312741095,73.008093815937,2201.9183410044543
3830.7583807091883,-487.37546803467524,77.64027032922198,2181.114824449585
3502.0003973781354,-72.94250668291065,84.65052417732568,2197.9706044699
3508.413338747841,-85.10251768052746,82.6961363567476,2312.1401394144855
3507.5764766895168,-74.27529983097544,81.06192026813332,2306.779185438471
3342.0848679493656,-69.07497000429814,86.40569980774428,2056.8501402262314
3356.0945029486593,-72.24068887027892,96.25756524840894,2239.5922067167035
3357.232524619118,-75.15255008844869,90.75604078659049,2051.748096548894
3374.7995610790017,-82.48111615129625,91.22921520796422,2259.4072276303846
3393.0338657526377,-74.7436359755535,96.40853385652402,2287.3570109016687
3385.9983962757497,-79.16713977649675,89.58257839235293,2286.7708418627903
3403.4870096484306,-78.25363524436669,80.22633084120127,2215.3773305696045
3405.863428407395,-77.2936736422151,84.12139400923733,2124.6516632024263
3403.3352277459576,-80.41005482674169,89.70375159055662,2212.97222310497
3307.6759688025154,0.33604996450597024,88.15486901892294,2223.045526966505
3289.3688539527666,34.286558789507765,83.52132977727432,2049.598344499332
3328.8476690794705,134.57746822135744,90.51689864704615,2217.5302292167194
3327.333731891756,131.6553940727742,91.82927429527147,2127.382779581026
3433.4290148834757,94.65399527517579,90.02863787441797,2173.5502396079723
3444.51718671036,96.83785643331831,93.43333346858253,2246.7573906252687
2980.972136609106,20.146472850533712,88.45820479381808,2190.432930797721
2992.2185872972263,-22.209997439023134,91.57709365029423,2248.42237445785
2981.112104028107,-29.618957984063165,92.59353127698735,2165.88159800603
2981.112104028107,-29.618957984063165,92.59353127698735,2165.88159800603
3030.766683007164,-100.17889679494408,107.25438309305007,2166.438019889293
3006.6164317236344,-97.02893063236934,90.958315494493,2193.055713204653
3026.5672810457254,-96.75170901835759,100.49300685353731,2096.511487816958
3013.4109418031308,3.9773028881947825,103.03258774936857,2160.424725572776
3013.4109418031308,3.9773028881947825,103.03258774936857,2160.424725572776
2979.026802950701,2.1470029131399917,95.9715349629248,2314.976007087112
2975.013824709271,-0.6853640506105259,97.52981937842696,2327.2792374990127
2946.489430030479,4.974641394282245,97.73887001004215,2303.4695134756794
2938.8411436169745,-6.913573495429082,91.77196897810262,2286.4863512594297
2936.7772134006827,-1.5392785103631437,85.71086958277137,2099.715221819355
2933.3791037113483,0.9669734928750842,89.47811027152963,2230.892024323447
2984.357436151565,11.865819410465729,102.47425818533097,2152.2207781169677
3105.906174557298,50.35411802034519,98.45691339257154,2140.5687324420296
3105.906174557298,50.35411802034519,98.45691339257154,2140.5687324420296
3105.906174557298,50.35411802034519,98.45691339257154,2140.5687324420296
3305.85234787617,1.6565023034540962,85.56194192331193,2091.539050312883
3311.5720950169753,-0.7371958112977199,80.50337624090754,2073.7462987258737
3257.7541520975624,102.00225105040037,80.39590840676902,2102.442651159058
3145.7262191287277,121.69230613851283,84.94051082547824,2175.347423046872
3145.7262191287277,121.69230613851283,84.94051082547824,2175.347423046872
3178.387734274278,-253.9454018627062,100.86374452286465,2082.667351490447
3189.8583102885223,-256.9004587000416,93.9460636156441,2252.5057406468404
3177.6994930823107,-271.2310073203972,92.79318183086855,2257.0640011047226
3203.726132204195,-290.3906213506925,98.81246570087345,2194.7819709697396
3301.4116109334864,-388.9694757388281,98.82829296848071,2135.6640478196746
3234.6511424328387,-402.76798861877074,103.53369686432795,2191.57225903073
3165.6464062515215,-193.78024305377585,102.47103855005221,2172.946776679357
3162.977903628816,-200.58366974125371,99.12147766514869,2247.4788738410093
3171.590185295736,-212.0168430004331,109.1193258905759,2102.1855574613305
3189.669479458755,-304.79308268786576,93.51538653126903,2205.4426007183497
3186.7762354447987,-310.12004822464274,101.56879837276168,2106.2178761279342
3179.816332745634,-316.86571884797456,94.40464447819531,2247.458622615688
3176.0846748241806,-321.49134978160686,96.656649559335,2256.828000750502
3182.1295111425366,-325.1170528252986,99.44046021922463,2117.9632810692237
3278.655968373903,-669.8226276920691,98.14820896790356,2238.2782972578175
3270.1451716402967,-666.3796868731806,99.31086537618141,2247.303994110745
3204.5221761935386,-591.7493341129856,100.80116772467262,2038.0073265805088
3234.6087670133343,-644.8737963695572,102.10466825806654,2257.543777295623
3234.439820150959,-637.6148219096815,104.07925720670637,2159.8305273735446
3231.374742811274,-641.2595049885518,103.28919824167298,2194.458952990083
3231.0372772181577,-634.8968979572035,106.86837242502858,2108.5971883814864
3231.0372772181577,-634.8968979572035,106.86837242502858,2108.5971883814864
3204.8100391661783,-640.3208113123134,98.54933546456812,2149.457845580452
3215.4218341458927,-651.7221735557721,105.9650467305152,2247.2870946157477
3212.691787114435,-652.3363463808148,103.68030823012421,2172.040565331809
3188.9463861686404,-692.7280812336161,105.48120903207756,2146.329608927011
3259.731007172793,-669.6425334082682,102.73116244650012,2169.7829826644415
3180.738280797969,-560.4242911048588,99.82341677344931,2118.65964479085
3155.088295059831,-67.461105468496,92.08548415139376,2163.7557130939517
3176.1468581702325,23.811045347617167,84.26199945952635,2202.0102994842973
3088.088165067944,55.57721015689335,99.2287091594486,2066.336432895989
3077.917543031963,29.527787209068364,87.35384028405424,2250.459272993878
3071.142872452722,44.364771521696085,97.12307525006536,2276.920168759712
3145.7487209242336,28.581502974870347,99.71779306190595,2215.7169192649826
3143.6118712461007,31.693788109118785,94.93930384897588,2130.858283417084
3082.901494847126,121.55491586645981,95.13435992071001,2137.1825430091403
3079.130015980445,126.60363978045582,100.84130160619239,2229.8824121171688
3035.123116613889,113.89365296787365,89.87432521951207,2293.846972910765
3028.6933067781006,118.10537592618265,93.00949280076337,2316.257162737759
3025.5473683282144,115.3189681108774,90.26429258555937,2288.991134192133
3023.7341139406963,108.04095769354988,98.63720029480903,2172.2463760718574
3005.872079879313,176.25502652475754,102.44937640033599,2170.6180427197855
3007.7219961230703,178.11342229788116,90.96774656075347,2254.539595069253
3007.92982243584,175.41067564708473,99.4132422688048,2155.3326948220792
3001.083732496526,171.5147307829894,103.86304041417259,2233.0521009415475
3055.2178099347757,101.41029360216055,97.48485089767553,2284.361983248392
3062.3660622667967,94.06685557944826,96.56922290124216,2268.327969195173
3181.797834890498,-87.82018657755805,91.02816654064019,2240.590039399198
3167.9915894061783,-89.31447250905586,93.68614685423859,2071.600561240431
3060.866545027937,-7.7324976346945675,97.93943215405227,2293.357341831606
3062.8811796067735,-3.06643835885637,100.67254636306936,2315.5060311549496
3066.6829766852848,-7.947162460270464,100.9199065804465,2282.8646037365183
3073.36340000266,17.912478195429436,101.91510627180809,2299.5586614702543
3065.733901990402,23.51628073414147,94.0072925443692,2086.6617342662066
3070.794051040359,21.5482702573177,96.29151568584011,2219.5664819419057
3063.277667834556,21.678652614877173,94.78848128956166,2064.3330975626272
3074.415797538053,24.082799619366654,96.97899762412972,2334.84782713038
3073.532985429076,27.89163347705778,101.80785709286546,2332.386479294736
3073.7697459280444,34.72696438217665,98.46632100750215,2338.4655469389
3085.5004853504665,35.45818303323495,93.2668991266956,2333.452709396528
3099.671605607977,0.7146717486436174,96.9279153242915,2214.1127725494584
3106.510967996883,3.7321689039672683,98.21664301729474,2089.0989799114113
3550.068560184356,-362.9345530001691,91.48454658185396,2116.119606569183
3550.068560184356,-362.9345530001691,91.48454658185396,2116.119606569183
3634.6998243733665,-329.14430608292093,75.94336804541385,2158.588678302223
3701.570148114177,-391.1200836428601,84.10047162078119,2111.944135072786
3507.221876209062,-206.6390381452563,81.6232235967664,2187.6205107008577
3512.221743491303,-206.43613044080126,80.88646480795397,2244.1519938988927
3506.905202371704,-188.75743208543847,87.97776904882329,2116.8750582430057
3506.905202371704,-188.75743208543847,87.97776904882329,2116.8750582430057
3402.7352155269837,-39.89943738351047,79.60071114928672,2139.5436255357336
3320.775963491182,-46.735664249183586,81.02024358884496,2140.7836280236393
3325.820157541482,-51.11850470990543,93.95352646287171,2248.7755044988266
3323.47084670808,-61.46259096469398,84.86489016298711,2219.4582866817905
3381.03002841887,-157.56068062316987,77.17769641703993,2175.3638504479654
3407.341541260493,-126.30630601948081,92.18662893890638,2024.3418149317647
3412.257961031849,-145.03078973671407,88.53281688461604,2241.309593368901
3439.6168887687304,-138.5815935244232,82.30921965106782,2204.1632570693223
3390.8799647606293,-101.5748984361371,84.45265049528943,2234.2344010201996
3388.1797434492737,-105.5331521457922,83.87510906847352,2176.309052800034
3321.507151571351,-131.55981733218715,89.55373133695996,2095.0206301518774
3321.507151571351,-131.55981733218715,89.55373133695996,2095.0206301518774
3274.4075347060616,-122.83500726337797,85.13779147145294,2154.2867398632975
3383.124851831855,-312.08587224934206,87.98613480016982,2119.6287571605903
3264.387609185797,-93.32600018167147,88.23243790024448,2110.078591818738
3760.3797985832666,-409.1809864782726,80.62450479326355,2124.1449450656537
3671.2618087387796,-376.12227872351303,77.06169930007341,2115.674579589041
3667.8413397610093,-381.9050821424519,84.72961216690186,2241.2849855481704
3670.366749585616,-381.1221434629148,82.77161792422383,2174.492473622544
3143.380083090145,-23.909521257393855,93.61890973252844,2168.6179923065415
3165.719124425815,-16.621506639994408,91.68228718620627,2032.799107176433
3144.090491904312,6.1185131959231125,98.24151059550863,2260.1165919874416
3101.8383981049105,-21.5912176185231,94.21601821048257,2087.021593020112
3122.4487592069763,-38.2359494225267,95.48436791985215,2249.7800685829875
3125.1727246439505,-32.838590795170134,95.70127929439441,2074.626583104203
3264.7923119156053,-227.11569956197113,92.51330545997241,2192.7109602005607
3260.5871698364735,-225.83039949765669,93.13649557441603,2251.8673136822144
3264.3590281447364,-241.00919002268745,101.64418043354326,2200.308816713242
3335.3898632838245,-373.86276344346606,85.31434718645714,2210.172554937695
3299.5974460557463,-382.04883182639963,102.55888584624904,2252.038648019937
3291.6534121550303,-377.0712879157221,104.81387507243558,2159.554472245962
3293.420583517057,-380.13102791587806,104.46245322130525,2077.233624192247
3289.2811460741805,-384.25298842618236,101.3358477297852,2052.2923064640654
3287.6219846192603,-379.6907835255068,89.8582965106181,2129.5246702390523
3259.2783290708553,-383.99620553172053,97.35568294950815,2187.0124241329117
3242.809803957709,-166.53575965856072,93.59252880998304,2184.684486946097
3545.0766050078882,-294.77714949507003,85.11778740990326,2190.0126153031338
3492.940983508106,-298.0364736341842,86.95203235926424,2252.324438060558
3488.477224581023,-293.1580554406558,88.6360643070549,2147.6361523590404
3489.7548326077813,-291.5205719880525,88.193781759842,2233.6541386281538
3496.3363772679263,-289.8033896874408,89.44267341665093,2139.0128776010306
3500.466405025227,-299.0905020716484,75.95912314969601,2157.3852493960035
3518.644858661661,-221.1057632619493,90.18080762288389,2202.9527870366906
3518.644858661661,-221.1057632619493,90.18080762288389,2202.9527870366906
3313.5804013643356,-198.73004279770961,96.45143407943777,2227.849564198044
3298.905747838076,-131.88386391740838,89.51284357602393,2082.9430317176484
3402.5256586057294,-134.42044209109685,88.45098403585379,2178.1503317547927
3410.84095767013,-129.66624558701008,89.8862361457206,2264.7906256986034
3397.9237364036794,-129.19688708016105,82.04289929712975,2121.3495681518557
3411.9142084925033,-118.57570907200049,88.89505765333702,2071.0508961465443
3412.5299455222244,-116.39498410320371,89.36458241095738,2096.5054963101193
3410.909113290839,-125.14667082054027,91.46395982080256,2150.799329379444
3242.5183209635006,-319.06581854940646,101.16144034769458,2166.278429221522
3221.9630125051685,-347.0984732932619,91.68977719355844,2200.275360671302
3651.8229157427363,-277.0203221796203,79.63114830018537,2177.473642801747
3645.732322508839,-255.00843594604905,78.32177352194387,2240.94230755865
3648.2109970527163,-272.0354958483838,71.03771001613067,2097.160888240057
3648.2109970527163,-272.0354958483838,71.03771001613067,2097.160888240057
3667.4039491864196,-287.0476121709876,82.88752617318706,2111.6305987624614
3673.3055918543964,-289.06906189060254,78.26266817999047,2221.1500403265854
3669.9972333194683,-291.9146981879782,77.90709269691668,2048.1590150788397
3675.1833116410357,-284.9133242285171,74.69369877518565,2233.9362618403675
3707.659378158553,-322.2940864894759,83.14573690531756,2227.6166804558516
3700.800611922721,-323.1086564961791,78.69391393114755,2166.9980098166934
3700.800611922721,-323.1086564961791,78.69391393114755,2166.9980098166934
3700.800611922721,-323.1086564961791,78.69391393114755,2166.9980098166934
3492.8373485070683,-332.11192253304216,87.1702505381021,2122.381303960842
3215.7519080505526,-315.7725813648403,95.50764311148266,2179.5933006994214
3214.0819500203247,-317.11012121365997,94.14048286521862,2014.9034943813292
3222.743307448955,-280.3857776617717,96.0525895638331,2025.8891362517045
3222.679707439661,-269.9254696330321,95.01142970363837,2252.6981738473287
3192.3618529886917,-266.32147243429114,98.17432307726226,2007.4062518811045
3161.461573380938,-273.6122064214554,95.67069122737055,2277.59422149433
3149.5318833841316,-265.20215348784126,98.64508949703576,2255.311272751476
3165.199969294974,-277.2939717211776,100.07033589356836,2021.9365270290486
3155.7369465682805,-280.36409369565865,99.55158813641768,2192.685098177846
3150.4625657877436,-242.237292446272,95.04940756585138,2144.1656355632754
3150.6529315439293,-243.39656722653163,99.53026955147972,2232.9463658294535
3148.234216816029,-253.60663623117262,98.09435855497891,2079.2736500543288
3151.4051405588066,-261.618528010342,99.70815047193702,2056.5204460688606
3179.1044416461814,-250.8037270604553,93.6581464117613,2147.0525008232153
3147.794593622634,-247.39119349329388,98.01631989229121,2159.8031582612402
3342.0567451473876,-27.08457060866463,84.60665546748086,2109.11608702286
3339.6347683616673,-23.379685742983106,85.63434497597092,2068.7560146987
3359.4833866429626,-3.421008898447934,86.51681274592246,2139.88432750216
3272.192920261651,-97.16008304401905,89.24852654766624,2121.825665971548
3219.960955653438,-26.53799111239602,89.7697278297493,2150.901464271704
3223.8022064451006,-23.900800110623976,91.32201851273706,2219.7257522860377
3239.360551421926,-64.77544162472043,89.0777418921082,2218.0056827603044
3265.0918212017073,-81.46881802987933,91.86232125333925,2203.5329320384576
3264.646178827385,-43.258240058745805,90.18599759860861,2196.282394359468
3283.855106228843,-311.94395240316976,92.96647484535171,2196.3790093093126
3450.4788632953064,-295.45050296284415,87.36055184773167,2169.1494785665946
3423.5793563214474,-332.52689529393393,97.56822020133458,2173.8392998015825
3440.923868793382,-333.99791946285274,81.457675409046,2173.1614132985283
3437.8039255295557,-332.26898532302687,84.87859924875174,2238.1824373333866
3431.16924354439,-329.2259294639755,88.89266004976542,2133.524610913398
3431.16924354439,-329.2259294639755,88.89266004976542,2133.524610913398
3431.16924354439,-329.2259294639755,88.89266004976542,2133.524610913398
3288.244873904267,-76.54976968244381,87.7499864772765,2177.963267235124
3298.2747714161906,-102.40927859065887,91.64285107822937,2192.3748126253868
3300.716713828498,-102.66090833558573,93.00955056185946,2040.4200097319097
3300.716713828498,-102.66090833558573,93.00955056185946,2040.4200097319097
3296.7010319459077,-92.78546734341163,93.22588401168072,2091.109707230861
3296.7010319459077,-92.78546734341163,93.22588401168072,2091.109707230861
3296.7010319459077,-92.78546734341163,93.22588401168072,2091.109707230861
3290.432038082964,-93.48501561342181,94.50261429665137,2239.0089181177023
3297.1010597014165,-92.97519283426115,91.72754497014469,2269.213769019966
3304.7757153664256,-94.58231346144967,87.72990564334857,2299.632953788927
3306.380340896743,-91.01187412206697,89.79965524538174,2284.4991520471517
3318.1484406640143,-88.2144386223898,96.7301710225011,2011.600736163979
3308.593862227297,-78.75238044447791,88.97834972205756,2290.760428009898
3415.730522064604,-31.771208144733404,87.57754496919607,2221.891431100027
3407.425470215519,-15.154424375138026,88.7408063520023,2273.416768027514
3374.2990390610053,-1.3211009796919022,88.19282682737426,2292.742583286869
3352.2611021224097,16.26241064512736,89.08315279927292,2256.918946626633
3327.5203983067518,26.897276806897516,87.3395214741837,2214.7687811254486
3325.0996998601026,24.533446952609026,88.1070226195888,2146.075207132658
3269.7692213934843,-224.4214065267739,91.78815513747188,2116.6512881226586
3283.2858343594885,-232.04205598015608,81.72642761915228,2235.5611921807704
3429.6404634937107,-242.85654907504787,80.6418148993623,2008.881479733809
3402.6943895438426,-248.46391088755055,96.2978715294288,2250.066357150826
3344.8735989270394,-291.7049189741263,91.182577366004,2312.4944022000973
3359.8290584295173,-342.9113373187848,90.46109925363801,2167.9734857141066
3220.674696936353,-204.3589951730646,92.06431925015812,2116.7010397111126
3775.5615973402323,-196.0467748718732,73.49699160677663,2208.4831805193353
3780.539233876558,-190.40576035570768,78.36695402668546,2142.9941426891824
3774.53557380748,-183.28981289109475,75.97585580549175,2251.633367651938
3778.663469352846,-183.72202306048294,75.30183629722175,2078.5965983036467
3791.538788221694,-174.88210648739468,67.38822243615638,2105.467114371652
3809.4848532163596,-157.6526706501043,72.31025951195801,2124.8881577712527
3806.647858385615,-151.10181634349934,70.60672967155216,2228.1094390955786
3798.1768076696676,-193.89112490843124,73.0964883204841,2205.822914214529
3694.511654540252,-190.2127922687337,70.46084813369856,2179.375428933322
3761.2937033645994,-81.93955939946164,71.45034379573816,2234.084623327462
3644.9265816322827,-109.78014823917496,76.09324424010961,2202.322744471137
3391.3021497008026,-325.53774795334334,89.74366003226048,2198.66974746009
3495.135076560803,-382.36337793010426,86.6601315304813,2307.6420829437925
3494.429981442182,-374.8958095854058,85.39300443160641,2313.3119251779635
3498.505452203482,-387.083446662082,82.8901095483256,2220.5074247707234
3500.0619106840545,-389.38888490975853,82.30051241718243,2133.7977821836416
3500.0619106840545,-389.38888490975853,82.30051241718243,2133.7977821836416
3500.0619106840545,-389.38888490975853,82.30051241718243,2133.7977821836416
3495.3081509931008,-373.59261576329993,91.85593945406252,2131.3520686444144
3507.5701894090394,-383.1098024309484,85.1848580866699,2213.650537040313
3496.489168271828,-383.3447488910662,85.33413869550759,2132.7850295278377
3496.489168271828,-383.3447488910662,85.33413869550759,2132.7850295278377
3477.650731027381,-392.2227563161436,86.78581559700262,2166.936367368353
3455.2793903344327,-299.16780625743604,88.83970557610915,2096.6851521061417
3441.818527471555,-274.91373967237513,100.19362667551437,2295.379442798461
3439.762179616593,-279.18451716243845,100.43634260103315,2263.199262254695
3438.5013693401756,-280.65878522156316,93.73385463898047,2160.388432050715
3340.3099537825515,24.10981254554823,87.15285557419297,2123.1132027628714
3343.8578515538466,14.356853362554038,86.84418399393383,2219.9101016658
3346.214211799068,23.728544081168973,87.72307933718308,2079.342195619554
3346.214211799068,23.728544081168973,87.72307933718308,2079.342195619554
3346.168999465418,24.924648754886107,88.17501334354398,2147.185414322459
3346.168999465418,24.924648754886107,88.17501334354398,2147.185414322459
3346.168999465418,24.924648754886107,88.17501334354398,2147.185414322459
3572.4415496352694,52.18685367718912,71.82256945043338,2150.418628787624
3422.106710671474,99.07694066600129,78.3932150559926,2123.352641112335
3376.281795961699,159.4992920748701,75.23169706717255,2203.4309584482276
3382.1609378064827,156.43025762696473,70.98840152443792,2228.0893304823153
3378.258683276288,161.32232962892152,84.6925225972781,2086.597355484002
3064.823242269443,-337.5386061568554,104.66706349142697,2173.212429219304
3700.570569199761,36.01542419151675,72.74851872040573,2148.6264044512827
3796.5338378612287,10.887633059693307,65.06019904840358,2152.2237225799286
3796.6639633776567,2.22681447703925,66.95083346662096,2236.4761438553182
3723.2445482990624,-46.28165740390026,69.20987718559962,2119.0693097182666
3723.2445482990624,-46.28165740390026,69.20987718559962,2119.0693097182666
3723.2445482990624,-46.28165740390026,69.20987718559962,2119.0693097182666
3729.169818729232,-44.878545737894804,76.19499994103361,2271.380542813319
3732.022898943262,-41.58122294952789,74.08465654844375,2200.9354713612083
3720.3559311021218,-43.46914593448745,69.04445795558324,2198.697142434778
3835.765410016467,12.70900334548353,67.97512574876761,2101.9558506995413
3835.765410016467,12.70900334548353,67.97512574876761,2101.9558506995413
3851.479454488509,-23.163042540566906,66.38580528497685,2079.0276189388005
3851.479454488509,-23.163042540566906,66.38580528497685,2079.0276189388005
3851.479454488509,-23.163042540566906,66.38580528497685,2079.0276189388005
3835.9521245566984,-66.62444504514725,71.78045056319169,2225.674106734513
3851.1628696417692,-58.5620263148255,62.75211659032786,2250.3163918817468
3863.8475085529094,-60.05651512083957,65.14904761970429,2258.3582395365906
3862.5084781099895,-55.78717566996332,64.65327701759331,2096.3130045255475
3898.8195661367813,41.71500845762152,65.06001287544261,2114.6705179793057
3882.441497346061,60.10942275642275,61.06027514251627,2177.918494283801
3919.7930218480315,11.549645797336508,63.06153163394276,2192.9528004129857
3952.2411241022214,-32.87867500660771,62.62585756742173,2266.4181239359436
3950.906528553617,-31.295980408947873,58.35024982153267,2253.6713234866456
3962.608518065022,-50.17470476516128,58.44081705227339,2233.806684519956
3919.9021072134215,-90.05148379795287,71.5830478529488,2191.2425288291433
3970.8806723375947,-51.36824618148659,65.94735592689058,2193.7727541149316
3973.506905476871,-50.08385561510901,60.18666948394233,2051.1972986323294
3967.6593675577114,-41.53687189289382,67.56663704953891,2263.5493227958127
3964.8654342935138,-41.05044451075253,62.98669868904445,2170.15322207274
3693.1490390309214,-168.72894380674967,76.43527082038807,2131.106956276477
3018.159488073628,-56.16376758810054,98.59265525418195,2131.8959519059254
3016.51186485241,-45.07504725585378,99.88528844987295,2180.570390526228
3016.51186485241,-45.07504725585378,99.88528844987295,2180.570390526228
3613.1334164150876,-48.85289401318031,77.2069405663456,2181.016755690717
3616.823644926423,-48.85793176023782,76.12625589946936,2213.5465916793337
3632.5577252367475,-80.59840203811635,76.10566500885001,2189.726822066819
3634.6295702054285,-80.36173639819776,79.3845367686678,2001.2052495402006
3631.9343830676357,-72.86771012606786,77.39738445119774,2296.558018492315
3612.4644598367495,-91.66933500001991,77.538285291447,2240.3135716492925
3632.156644485723,-93.01695572436087,79.66545071103798,2261.493072358682
3640.2230855676908,-98.61085532556912,73.3476022541847,2121.1167516633104
3640.2230855676908,-98.61085532556912,73.3476022541847,2121.1167516633104
3640.2230855676908,-98.61085532556912,73.3476022541847,2121.1167516633104
3640.2230855676908,-98.61085532556912,73.3476022541847,2121.1167516633104
3096.1148588428373,-42.80217494280812,93.25374353903004,2115.598736100387
3097.6998587348303,-51.203953911659255,92.66712681061387,2221.743322143657
3102.4238207351914,-52.27868546422244,93.95642120757954,2046.0056196789037
3094.030057768457,-45.04045416528288,92.11924788037574,2220.681047605246
3090.558584006524,-111.92830059731648,97.475999779314,2278.2807102700604
3098.127897828734,-119.31072247691179,92.07704523786629,2226.617660975654
3161.9151989521492,-53.12639292110558,90.7829313742866,2219.133105310544
3125.8102226946803,-46.84593285122534,96.9479311599737,2227.682021411381
3135.6052950859453,-36.3460757625023,99.45132692898137,2144.833866660705
3156.701081607037,-116.62777803006881,103.65607327973643,2121.9686875526368
3163.3043108399193,-93.95786577806469,86.45160805299587,2157.519337189748
3190.749705353863,-179.75619622036595,103.18946276520781,2166.8986792410997
3268.3228685823797,-150.08514597060451,97.41500088560774,2117.204886533803
3280.2266118782754,-153.989671967593,98.46517794670288,2206.573938097638
3296.919909824213,-155.04702273082174,82.30779486707382,2167.804602046572
3359.1214618247177,-111.70314648643208,79.16570511899688,2171.320126701756
3366.600575657826,-102.32512964974877,88.36234028456434,2147.108528664398
3525.540094422221,-347.30897551883464,85.36743422025263,2171.47506237531
3701.529363819024,-642.7418078285066,88.22477070051258,2169.698048541363
3764.6416883689644,-287.8883651518347,73.11756871491525,2135.3287609794647
3750.5155685172417,-282.07960810969473,83.41676744828226,2235.2293703218243
3754.2461862203945,-261.3234885539807,72.06298120362656,2178.68087121459
3675.7202683569967,-388.62906064639355,72.3890432341595,2148.312492970746
3671.3714414914584,-391.5434502428648,69.96382174921413,2144.5584678136483
3670.260258515009,-382.2864505863452,75.0670451494601,2268.9095195370037
3665.1473359712018,-368.8828801130997,75.82606264876043,2270.8424759147215
3668.844344483546,-375.54931713354796,75.02945064926088,2234.280609014499
3676.986768943496,-379.43026831465045,78.43435527441765,2040.652247999714
3665.4053155351107,-387.3368068792702,71.43311072367148,1996.9986609545624
3651.9890055555225,-404.1429227293583,84.09095102266119,2290.8182846755894
3647.9338000723446,-409.00987888204577,80.901473366771,2223.7132503539733
3641.990645121247,-422.7778551208876,81.23559982174041,2182.418764510114
3645.8671236047503,-427.3702735535717,75.8442676547325,2169.4738785152645
3647.9999609110573,-429.76579231205574,76.30342619716848,2223.462547048442
3653.0433430560133,-433.72550186280637,81.8342942570714,2185.430355576668
3603.7381233123456,-523.4421755223378,79.26656273408116,2123.45627521473
4045.089101626507,-546.7241093234743,67.61750974204185,2180.24603986875
4115.515535520436,-531.5985435559234,64.61035782534526,2237.8450820396847
4107.0420416369225,-527.6198279532468,64.73404668143102,2207.539457746113
4087.961995678637,-513.5634968841329,67.124478163397,2154.2571544419825
4181.598946847667,-447.881384843874,58.91043871157854,2174.676532233331
4180.212583094919,-456.4525973933894,62.61857636954858,2167.040000449922
4099.225646175389,-466.55089234380404,65.50837588117987,2194.875423849868
4162.705883350191,-299.4374855187247,59.93581093242046,2212.2581651797077
4105.847185411298,-316.02572462746673,53.97684554455413,2139.108750820943
4106.575763411585,-315.5695392293326,53.780978605443835,2035.52731010733
4106.575763411585,-315.5695392293326,53.780978605443835,2035.52731010733
3951.4261654881643,-291.4364290198216,79.19997103661684,2011.6949249482334
3952.5884260487346,-294.24587075569303,74.12155698108089,2237.456210558692
3949.8097453018495,-305.3048207186631,60.77212166986974,2098.71988195354
3716.9470889255535,-88.05844891489646,72.66694113805976,2208.3190804866144
3782.597117194485,-195.47343099867578,73.49909542738776,2187.9117303601383
3769.877190110535,-174.77818684452447,72.37248551363679,2164.0781284094082
3777.3263600732716,-146.69910618813574,76.77215483165443,2204.3605174051218
3772.241310938146,-151.31133462387095,77.50875784606502,2272.3607338715788
3782.225578357899,-150.31585281480577,74.17242653501256,2278.454377949055
3781.3403558274076,-151.3624665554016,72.95102158205887,2223.1882891299624
3768.679404496185,-162.85748690603734,70.23288149915832,2152.1985062011645
3749.200225078463,-606.7394128648345,80.68352842262466,2113.5089271916418
4046.3662893605883,-304.0839819011167,65.17843961180058,2163.1530837008713
4080.798678972165,-416.3290304259767,63.02609990098878,2166.659841564602
4037.474315607203,-404.31429336833594,64.75118348510352,2152.83576593023
3848.2594358413953,50.91901021558128,64.81911724708598,2188.8608180618994
3868.0115348944773,2.6579337000098793,62.978999366414165,2102.662299984619
3936.9241332957704,-1.5246304042520513,64.22071949949955,2100.3031285881516
4013.344310330953,37.24870194841319,57.00631511596177,2262.650956035641
4025.714945678212,33.35636899322255,56.83718535746517,2094.9876586709474
4025.714945678212,33.35636899322255,56.83718535746517,2094.9876586709474
4023.4444449166585,34.453935373778926,55.697252923638935,2279.1445953621974
4016.6926459243805,41.184427335834,57.77948281316128,2138.2037305887175
4016.6926459243805,41.184427335834,57.77948281316128,2138.2037305887175
4047.8612294980153,49.7770735629866,63.71177913657662,2164.854239047672
4050.41089389267,52.5486915341748,54.72597381124297,2293.817401166232
4037.3290839188776,48.62189126323072,49.64013646357051,2210.073834586124
4033.098796056529,42.069935669923666,60.11601018222345,2103.3381339023576
4033.098796056529,42.069935669923666,60.11601018222345,2103.3381339023576
4036.991300801412,9.417603545700272,62.98714199274438,2231.3811320726654
4061.0257749282887,-6.57610166188322,53.73210107340992,2255.5979415576235
4058.8877327010496,-13.604325184820585,54.877680964102346,2231.139951695786
4071.9426415365883,-20.441860886139374,65.72094342970695,2057.8239860963054
4066.268912173995,-77.22949985389697,53.393990188531966,2176.2930700651063
3826.0532719444127,-242.00502501215794,70.17692859267588,2114.2729903761233
3834.050605863112,-209.9903775289081,69.66148958774397,2124.8285237415544
3834.050605863112,-209.9903775289081,69.66148958774397,2124.8285237415544
3816.9447989805785,-195.3345185541174,77.05922424841594,2221.211892194701
3830.8112318484405,-198.6862957666911,81.19909975171579,2231.1143953747537
3832.175935247587,-197.98845072730245,80.81158991091085,2163.850134179895
3874.7384622409563,-172.23299038510854,65.88793154720224,2224.6483499344404
3877.143009076891,-171.0406053057075,69.2139624364534,2311.9634071922633
3881.432685888063,-163.12364399642587,70.41306469694875,2314.8631928590057
3892.9530898186363,-170.02065119199096,63.96290554479728,2292.846067539046
3880.567556303885,-163.71022605877948,73.79529288358982,2188.822554737064
3259.9096347329946,-264.5204508997211,88.87339287398521,2139.6726935349157
3259.9096347329946,-264.5204508997211,88.87339287398521,2139.6726935349157
3323.7627202503186,-121.44229021757785,83.44541715234506,2149.849214162444
3311.699099887376,-156.63560879746146,96.14146033988484,2205.714735339947
3311.699099887376,-156.63560879746146,96.14146033988484,2205.714735339947
3341.301846379431,-182.1355014740496,85.2259187588385,2123.3833280732697
3318.1564342528877,-237.3182958672719,98.46584996969308,2149.993359295354
3297.800854104499,-225.4618518632777,88.22521984283485,2226.8783038465554
3293.425666664305,-235.10024753393088,84.94467882250869,2196.194716106333
3291.8996602762513,-184.73566986780162,84.61585980899483,2212.421323250176
3299.8745450147676,-155.41914643293046,96.61254326545405,2204.2159696441013
3302.9003082810686,-214.7630291746102,91.11157992267874,2121.1109623079988
3443.618904388788,-278.0303530166449,85.73580061048307,2133.256170634032
3423.3902001164715,-379.97599383555,87.33888084294638,2277.674900402422
3423.0313164125005,-374.9269326351526,87.92746988409574,2220.1156236984325
3413.706474470257,-393.3924950048892,94.60194393806586,2293.0276026516176
3422.4645985954053,-386.4493805455545,97.94621323650497,2324.3366799674445
3430.0319786799646,-387.8816520186496,86.06983691996675,2166.016743854044
3431.85947578543,-391.4681593808067,91.5616696474638,2122.228926164041
3637.11419276843,-142.83374541695073,73.94799657152143,2167.65305460134
3637.11419276843,-142.83374541695073,73.94799657152143,2167.65305460134
3637.11419276843,-142.83374541695073,73.94799657152143,2167.65305460134
3632.6143586439603,-137.88495969840298,77.23406599114195,2120.6947584606887
3593.106412587312,-203.77279467763887,72.96683989924183,2188.867209821767
3521.1797543705075,-242.91020821426915,85.35913523554862,2240.197127163152
3533.2025151162657,-236.97933311389443,92.11031842020802,2260.6903741632204
3559.7091483065333,-173.0182643743596,80.40344827786478,2279.200767100427
3530.73668395704,-164.88948184105152,85.13496215544774,2260.6989694637314
3527.666966284408,-162.67729905068828,86.12561349163212,2068.276628651405
3532.47514351075,-150.02336071259887,79.8242332246845,2253.7597706950432
3506.398112751158,-128.0566892990157,86.33020979213843,2231.060086389704
3502.8627459040686,-133.19041991624172,80.01522374373518,2139.156417296304
3144.3441633976136,-259.41226940909024,98.46690482912285,2160.29847858421
3144.713342168171,-260.2456593260548,99.13486142223186,2033.007394972846
3136.899338905034,-267.9504626684138,102.4799283351265,2223.788436304294
3136.899338905034,-267.9504626684138,102.4799283351265,2223.788436304294
3136.7882892229063,-279.2830588128004,103.42313273443456,2300.442320644118
3132.4017679466165,-262.4002358494809,100.12719427481869,2092.302018084926
3134.12759007521,-263.89268007306737,108.35845371246019,2203.696101611531
3139.453871577801,-261.7291874772517,105.1677343728442,2252.1307963922327
3150.7960276983736,-275.2641482657379,92.69101368443853,2099.735388452848
2971.1237516421816,-84.23790005659015,95.29076541539382,2198.218139069093
3490.6465492167918,-26.417672568650197,86.13618047862963,2192.7028897030773
3459.417205692505,84.54268123596121,72.33936690131944,2079.585676127534
3499.320768601145,101.6816503038134,86.10628172425731,2115.8998449665805
3401.8935134295375,141.79392001619635,88.35411716414349,2124.983568054006
3345.2021043873474,-22.679478509711245,77.25931604600446,2145.5033231219595
3348.446516750033,-21.307015370099528,84.51459355905538,2165.8638349671796
3380.7744147340804,-403.8469685666556,90.22240131094274,2202.9573053729673
3416.0140162429307,-359.5814851669398,90.68184968172051,2205.430127894315
3389.9226291624545,-286.66699299066795,88.39457611109957,2111.5276045182845
3444.8297549464546,-217.09419811282825,88.07810545019174,2061.1464537839406
3448.748316094049,-231.2732129294974,91.27679016947988,2256.2980620819444
3440.653390178152,-234.14758727851327,86.13045947860476,2066.725108982825
3450.821656776284,-231.01015695169042,98.95181314439819,2207.3263016057435
3448.7475650323895,-235.93060057685284,93.53851042113936,2182.239804325359
3431.546085343148,-332.7475880476618,92.96543151314799,2156.88221041199
3378.909271765661,-384.67155766070215,84.65963507303225,2198.7824613478037
3407.8224446783697,-380.67342141605616,94.01479324948808,2193.3248317943658
3442.1710997735254,-307.54461706304994,91.93237331120058,2179.8189107107514
3590.2587246882877,-147.45774741968225,73.1640615391441,2163.3798542367476
3592.929144477785,-145.05820712607976,76.02393982373967,2122.141499640429
3599.305425980703,-135.21533449994354,72.3472088288901,2248.5684455230326
3593.7802492075043,-129.73462091447215,73.09371088116515,2147.7107991909597
3591.258635045105,-85.80545652247591,80.98566383638259,2226.466564703842
3600.0136742494997,-62.705296565760605,82.93459681380341,2027.118163263319
3594.231486747658,-52.22021048764752,70.47660771060482,2183.900221217312
3582.8647926421568,-50.32267446070331,76.5541691063631,2076.1313433662413
3582.8647926421568,-50.32267446070331,76.5541691063631,2076.1313433662413
3584.059310394946,-48.687769242354456,78.01609460254845,2197.1697315551796
3584.059310394946,-48.687769242354456,78.01609460254845,2197.1697315551796
3860.8802735378663,-224.45885926414596,62.815193798361136,2178.857953287162
3451.95006399841,-214.1545853530739,89.8709096818229,2096.730232998104
3452.03637158229,-207.81809406414257,87.11523991255048,2165.9833056627012
3713.1542180974,-421.28155580631085,77.97316805188044,2158.929822897702
3905.6735862094606,-455.5557449485396,73.32417974533539,2188.6909730190077
3929.114503346389,-532.3514502021923,84.16800036380212,2250.328236005288
3913.215044985465,-483.8500609057987,63.314405085788145,2234.2811757840946
3903.432416396381,-476.30754201243263,65.37445762933984,2048.7794127308753
3910.1063748246556,-468.4373545838989,73.42382210502147,2234.1219355251174
3912.8433091339207,-467.8772110784283,71.25179426154824,2264.2587377930595
3914.0228188959736,-472.38795308065386,68.72544684883802,2196.109723165155
3917.6316067177763,-458.2697574300945,77.19135802690715,2179.245646303032
3926.50231844813,-473.76153973526203,69.50220681240586,2192.035643511008
3809.52347731623,-284.83971073112355,78.17795643685332,2183.5339002552582
3796.563310637915,-275.1595979796442,70.66823641970497,2175.5839194283517
3800.2346697157827,-270.9465595214926,71.85735940620155,2208.655935056015
3759.425419973082,-220.01187890635543,71.44618478090075,2067.3665200609453
3795.3234630443862,-221.94904965800936,72.26696614471452,2283.3098730778943
3802.7382881027997,-206.20069743675737,74.09421553241145,2077.941321129327
3803.0257698209944,-213.3942780287662,76.47691764409474,2115.6785830426525
3766.2908256663027,-244.79939855553286,75.17276956891104,2080.5571062833137
3762.792515207073,-241.8650623910417,79.11950184461618,2200.1706428064754
3771.268431473608,-246.41738639305635,73.53579647284984,2210.2437178466494
3771.268431473608,-246.41738639305635,73.53579647284984,2210.2437178466494
3709.7886572313523,-225.00276146403263,76.02644975249459,2289.691134352872
3705.4019967663,-207.74171790155688,72.76260357934055,2306.13465660526
3722.81462000249,-208.06457341783937,73.28551258896076,2304.756411814268
3723.1197392862546,-186.86979286866713,75.37734285588307,2222.2299943687854
3789.9649187749405,-170.60628684260962,73.64795540314113,2016.2190122748905
3781.578193843409,-173.21186362051822,70.49335703139563,2109.4735825446437
3781.578193843409,-173.21186362051822,70.49335703139563,2109.4735825446437
3780.3227156322355,-174.1590346948228,66.47575191358477,2238.461921179078
3570.1808262789837,-327.4324168756008,84.5466425696435,2180.294838188559
3574.3390176360035,-330.3212879390056,89.40395381111767,2027.7138571211076
3548.4061897674933,-357.8300167076687,80.31990059352141,2232.039744419869
3542.391912290777,-392.29275190170426,86.4316460523947,2137.4939086355457
3322.800134882865,-321.7415156290001,97.06344828883148,2137.2479898354195
3407.7327077503155,-546.1937657519262,96.32903024806912,2138.4757014621673
3324.5097194455548,-481.4526782793211,91.6034366054146,2085.238035592891
3302.427018265495,-435.3778822014877,101.83433356669849,2028.7898392420914
3298.2496843216686,-449.76409970459656,83.15944170962297,2232.1318527573944
3300.9286886533164,-448.68715449436235,84.48223009981332,2218.8960867218484
3296.910111429576,-449.0528578073301,87.54114392668382,2195.531370921624
3366.4997797343112,-425.12683761213304,89.02424506478994,2091.3347523210587
3382.6077156218953,-418.39478996335254,97.9883911775451,2264.9565730986346
3380.927540735043,-404.89387530992326,94.33778293374736,2289.013484011957
3362.2408959733916,-396.1560619666127,90.89339559749587,2084.8067550076294
3418.9569424563665,-378.5637309396376,94.72423513048899,2333.16728424827
3408.819943167406,-384.96071922316963,86.14817586214336,2330.886885247772
3420.755823657725,-386.43103940600037,87.15169601503275,2315.7008229931225
3436.275971237428,-402.1830279131413,87.76422741106474,2082.6052691115897
3425.74585868322,-396.89584392580866,87.68454622391064,2259.5090975283197
3425.9574958801513,-396.3459243033361,87.71511451314659,2127.610416003219
3848.153667261523,-140.50936020358867,70.9621338263384,2188.503123329607
3098.807268825611,-271.00358153484825,102.92768102348725,2139.8589302568557
3133.0602266516057,-245.03487412140728,92.43662869291076,2164.608204835126
3363.4230987869687,-316.50822853048766,93.26720377753534,2147.304229918106
3369.762441003027,-315.2007996793191,95.95764265341842,2242.3023264652097
3395.433487035209,-319.524091033276,87.29294236023799,2323.2876878054853
3390.8410452428907,-325.1964518259752,86.56908821616223,2325.930930453494
3382.1344720010707,-328.36846946222033,93.42823687466321,2097.882545952539
3777.383592532319,-3.119243471132477,71.76880529409914,2189.970814841343
3777.3939444540124,-13.501511197157054,68.18696647601917,2199.9828273324865
3776.308141548226,-9.990335008834224,69.36679932379596,2237.9242331660857
3773.297221389663,-10.435326144375829,75.920598755797,2119.043879792211
3774.986472792336,-42.34676919676307,65.65140669654743,2090.2120140915163
3774.986472792336,-42.34676919676307,65.65140669654743,2090.2120140915163
3718.4779451306886,-45.72441303483066,69.20149946571398,2155.267166505393
3717.320983986227,-32.79248369787838,64.4913031150739,2318.8730434594218
3715.050580548618,-32.51162521264378,68.8502635998044,2324.7940974676685
3711.491451935765,-29.096738514185795,64.5276581501443,2318.441523477599
3710.548028024135,-29.66463375004175,63.20377562517649,2322.678500475494
3715.3162285206263,-29.34388079002685,72.10678895092317,2317.8682530739457
3720.82666741581,-28.877709737098648,76.45030907544792,2189.7998666050253
3707.497884359332,-39.98636763824546,75.32312349611924,2185.4150046334985
3699.8654526513114,-57.54418289534071,69.4619504707427,2139.0690997319425
3681.469632914246,-68.85412368812347,77.7960024699903,2223.656052166111
3688.2132650602753,-69.88192527979041,73.42104114444655,2133.490332543543
3491.4222875457217,-199.88507593794225,90.53616357126094,2153.176257047375
3651.9317527911203,-91.18581967640817,71.58641779067906,2099.4224272607753
3650.738443768257,-91.31629677511742,71.7578688331112,2107.4589653985713
3674.6759691731836,-33.36028776214671,68.72500379058455,2175.0849180993114
3711.3388918971837,-505.77115066505047,77.59703560409702,2171.8617297504825
3717.1346667664384,-524.8247915956609,74.39624985166095,2202.528444599008
3743.098482873479,-539.9653862418525,76.26800229461043,2141.66258174234
3009.4162647597273,-175.82906019646097,99.85527100823451,2178.795034772918
2882.203626040897,64.10552526486914,108.27341998115486,2143.069957345191
3440.7504228174116,461.2891315515009,75.83640855538623,2182.3718371657696
3437.4192338313173,316.74317476031285,78.0042161491518,2130.5740578668324
3437.4192338313173,316.74317476031285,78.0042161491518,2130.5740578668324
3455.62014456371,287.9117768548008,75.68627542115257,2270.259160629571
3457.980609800685,284.6517145604721,71.45431874844579,2259.6855931373047
3449.9842644495816,289.7081765586684,75.376152643143,2068.6380174638566
3340.3633556276536,397.9576091067325,73.61327199648882,2227.0809470720505
3334.728311357633,384.9149103127987,82.33987972815876,2202.6611047764627
3336.801292376936,385.43649189289386,79.14392044529447,2240.3470928263073
3348.380941415263,418.5560844246243,77.13359325575325,2251.5658963565807
3358.293283949609,428.4950959779824,83.07639345390139,2054.2697456530536
3355.5715518209795,437.0594358998439,85.359344184339,2262.997147743107
3360.1203333039643,437.9718260464188,81.00187743287088,2057.052903986986
3216.1161699507593,381.8113386980012,87.96675520897345,2159.059155266732
3266.2406580409584,345.7635804785842,76.70717404928014,2157.2872496486166
3266.296192613327,346.3772487584151,79.17731405015049,2113.383353244267
3269.7494268231035,349.1319775495479,77.79905252537104,2281.5003261327206
3298.7378747942726,362.29378618501164,87.3289903653717,2085.040827866538
3298.7378747942726,362.29378618501164,87.3289903653717,2085.040827866538
3398.165064792843,346.9933887430986,80.79866377712689,2186.208383190025
3403.725244535605,353.8085842221495,75.9358883205409,2312.6056031441444
3407.057561507982,362.15328653764317,86.37939576672721,2313.8681830876108
3403.9572118379515,360.15263968262127,85.34661034320618,2305.2573162339327
3395.5120506810854,343.1943969255655,69.4238106474457,2005.9541322523876
3399.6915373119377,347.8842047238737,72.08252844763865,2253.2956636060203
3398.901110242314,342.0137277023537,78.117722203045,2140.2870332510493
3370.092175811184,381.6946203011268,76.69344002183111,2211.8441660499766
3382.8394183038235,295.1813144319792,77.45397629522195,2155.286167574383
3097.1173276755308,71.09083775639732,92.56589916667582,2140.3199902445017
3113.2831757594004,67.62040199042532,91.40299749666335,2228.0552046498883
3131.335555296871,76.98343597553648,90.77009537280362,2310.2290323743623
3130.4738485023963,82.01600802583887,99.08794061284762,2330.6444818206596
3060.1446007374843,63.03587244366325,91.89017184253261,2123.6908575659754
3593.0714424121625,99.90580321050025,71.49938005159635,2148.0544496566176
3593.0714424121625,99.90580321050025,71.49938005159635,2148.0544496566176
3582.185189976427,81.81077686008162,75.26952039870262,2222.831457981629
3603.924708453276,98.77638397486407,75.28647115498526,2042.1103663789359
3603.924708453276,98.77638397486407,75.28647115498526,2042.1103663789359
3603.846812806736,101.15127687244032,81.45590586720104,2146.261959081594
3575.6082441323324,32.65764547343247,80.59513642855474,2103.754853800482
3575.6082441323324,32.65764547343247,80.59513642855474,2103.754853800482
3577.5185575051864,54.89946821887348,75.90262209659903,2166.2072031519388
3736.993578251289,-107.31436628553801,76.46397496038236,2178.775073493512
3816.226994305579,-258.2981961924751,70.96283487655526,2179.546513701828
3818.5013320843927,-255.50556393692773,73.24022885168336,2031.9920777593218
3818.5013320843927,-255.50556393692773,73.24022885168336,2031.9920777593218
3818.5013320843927,-255.50556393692773,73.24022885168336,2031.9920777593218
3789.338142268218,-238.2452892033059,72.24999266628292,2186.538538086976
3690.5276466001133,-210.55701333752887,79.74654665312514,2095.085363192393
3691.5187556323835,-207.05200050351073,79.6283299329609,2230.17350397712
3689.8990614247778,-205.20563761964385,75.42801916844815,2157.2819992572377
3655.8201326182348,-139.21446608208285,77.81983149140335,2072.8641230625017
3680.3705539818807,-138.01600783226039,78.11013933981567,2280.7823373083293
3684.0107313104,-145.00084840169248,68.05557956381425,2277.601638681123
3725.612687714689,-121.7140279492473,75.89524118516053,2263.1335048474853
3727.628813465359,-121.52436906497131,73.60235355349475,2288.8796771920906
3734.6247152837477,-115.35244532397708,73.72042659804083,2272.8156944197553
3752.8603137249916,-109.09882408886826,65.85737600844699,2094.2157178059297
3746.880255355966,-115.10765212376387,78.96624397591732,2092.0470000187147
3740.5769214915026,-123.67451620612059,78.4848760480771,2223.773914359136
3721.5808582351556,-157.7067943515455,78.17396375743259,2093.377407785474
3749.081808468855,-153.08934623126973,78.04192738483378,2082.45438763121
3723.2632951092105,-127.45800552397661,67.41817375066526,2228.0731584282776
3734.9485943555114,-103.3441387598857,73.07635897586347,2148.104059460562
3760.3291845416325,-9.727457929006276,70.55770391997443,2086.9256042407383
3760.3291845416325,-9.727457929006276,70.55770391997443,2086.9256042407383
3773.432172447477,-8.15082231013481,64.578999575681,2238.8963027345785
3717.6684680467442,-218.24266493126012,76.68604900077123,2158.418012202836
3750.992330793508,-223.7248083429064,85.910100681858,2106.592556158064
3868.6410030797665,-230.48730597416386,81.00151504325855,2186.481205711743
3880.5062748999735,-250.06494402520485,67.62826028245514,2132.4033983369704
3674.490159551579,-489.5004732089002,80.4011351891835,2133.075195633549
3671.709881761386,-489.48999553960806,84.16348455098111,2239.783058650174
3671.8338490124943,-486.8304352845164,83.95951026450881,2236.9887434395146
3661.6028361615427,-475.9737430939812,79.85337194090222,2141.982542841455
3649.1650121955026,-461.59121573138873,82.08384263751704,2267.267429231353
3657.1861272566107,-455.0041943497829,81.02893490333994,2168.6523716907586
3234.9167016111314,-284.6322596734749,97.19538511126252,2226.8679009001303
3241.8927024590075,-262.0815980863675,104.845650876719,2182.5198458639065
3234.149284623594,-261.1693532584209,106.21057103578096,2241.168079581654
3249.7484771691966,-253.3075589445892,82.66853190010104,2226.7600839988
3248.6651944161804,-253.09174373073262,80.66396089604098,2216.006808237652
3251.0997971639104,-249.80235528837292,82.54767589862345,1980.7528481246509
3254.8156729112306,-262.16419614225816,98.19372284048265,2279.2521253210275
3258.490615504604,-268.38627149482437,92.50373766632083,2314.676255176163
3261.127636104169,-260.7320421328189,85.76339130634645,2241.941458742158
3248.706077575899,-257.3267312842843,94.62411574617047,2230.2300233542687
3247.254186546518,-264.2320240280915,90.22258971714217,2128.1583571507485
2941.1467054726345,-204.84405580302732,107.67005419122793,2153.248514733213
2940.628299477775,-206.16866731200628,107.9690671955937,2185.8260365938336
2941.2004362641082,-206.9183912270793,109.31533136701773,2187.393496157523
3571.6521673446505,-41.953119685372236,82.61949454343579,2100.4473066078954
3571.963935090016,-41.13474202419561,84.61759819615142,2104.874709288167
3572.712438274522,-42.381068388734285,83.42811491650045,2150.0589425446346
3523.351790195992,-18.07852348044467,80.79681479783669,2238.5962508761763
3522.8065362859757,-23.563015172354653,79.01799672737357,2128.6293629034412
3528.46038545568,-18.501507344794668,76.8592497780848,2322.5239209629713
3495.7905310941474,-10.954729649409725,79.22261289549228,2223.3790587575218
3395.112742926619,256.27690965649606,79.49234644572267,2177.036928993863
3378.1659121564853,164.33452189346065,79.26107346921017,2167.1001417427237
3383.0519314181265,171.3754122361499,82.7650345789251,2137.8910135554847
3412.742099414981,176.64197107598437,75.22856094023312,2177.9064357614698
3699.5610799808114,135.8212420683346,68.9561929984506,2228.982820838131
3703.6623837876236,132.47156615800577,61.706523670920376,2091.885558012145
3741.3469315152197,77.70443433694905,70.97325027640946,2192.9824079819264
3744.775842761605,83.8379990886662,69.29905714426921,2271.765606779283
3733.812036543876,73.68672439313872,70.04733955248504,2025.92062726946
3741.8207294767153,70.54098331531102,72.88176101745543,2170.4802183621046
3570.7994364108636,7.928097039730411,80.1494631308787,2119.396156936324
3423.6579174204685,23.30712224844834,90.48273177106435,2164.5144545297526
3474.215004512664,-29.03260017559363,75.98295863795646,2334.4818142546587
3490.094525143557,-10.313175638726287,82.0787624332642,2329.120317862435
3484.2244717429376,-8.833284098330179,77.83464083588522,2313.074293554607
3481.495214734687,-6.706772381759776,82.77092675273313,2238.1236458225594
3480.366619717323,-9.232774485069974,86.98811630415142,2238.06664367195
3484.0489266180293,-36.088368811784505,75.67426025808503,2002.3142866066055
3480.66626292929,-46.935741728430045,79.50400781389214,2262.011301305563
3558.8602274515392,-70.37580511816425,75.33737270441755,2022.8500988340713
3588.858724368392,-52.29795474564191,77.8180901902833,2138.4112610577395
3601.3496181845794,-53.62726788656879,72.65551996976683,2188.7990858417215
3572.906696580231,-36.04968000888231,71.63064142374064,2196.271635107812
3584.4356918820713,-38.3211324235546,74.08033901989673,2310.326126736241
3455.6137759291546,-107.84215565836037,86.89699956777388,2269.0398161638163
3457.4901636991644,-107.99524590709682,86.72466839294597,2219.054035414952
3895.334947915053,-343.9434290216781,69.53518020391114,2173.0557193960244
3904.484145718148,-340.9895683175149,73.96476134987587,2228.272229143991
3924.2776138090094,-328.2412494271348,63.72240829454818,2236.1744720467545
3952.00161468843,-309.77073937075295,78.07758494833485,2230.351859124467
3947.401344117632,-305.1276584258596,70.60250998136826,2165.8232140618397
4248.694819075778,-432.97707540392616,66.11574392957252,2169.4875178679963
4209.8219167082925,-555.2187099487394,54.65637525350626,2137.5948121527204
4196.417039804935,-559.6526479318371,61.46786754913279,2227.998737959918
4206.314365248701,-560.1450577497362,66.49701923140705,2112.5428308299583
4180.37498651144,-552.5735010692227,68.86986591060663,2203.5359907264187
4189.060502152913,-540.7264369629968,61.79400429969966,2278.2523026206354
4136.013190685809,-572.3384208584232,66.52765268257338,2265.637520818473
4067.0269377462573,-347.89560895806756,65.04612764738114,2252.1250206398213
4059.0770580116505,-370.85088227417975,66.70659326935328,2233.5275797271056
4060.3727606460006,-377.07481952196207,70.17823400972307,2147.10825247715
4045.8729378690855,-416.7949112136963,63.151426263657754,2162.040409429076
3351.4582424361897,-99.77159829419377,83.58159927355531,2171.705771246366
3350.1262448528314,-95.22170019259964,86.7140048652376,2259.0787682382215
3326.9990534410354,-103.79444038501842,76.71980523182208,2262.215548935248
3331.2383346952297,-91.03616325747785,87.1045237144278,2240.7651929535664
3336.5256769599346,-95.03516250330954,88.85741161230408,2167.7706321274145
3347.1600288723957,-91.70180746955604,85.72702792335218,2204.128042094294
3380.3204224348497,-144.32444273089004,87.54383805651271,2067.46713671596
3363.0712741965904,-130.63743312406856,96.52686276151884,2099.3354537746704
3361.538427813541,-129.7239808822366,95.32900538241736,2096.5294681354017
3358.5148679720555,-127.43564609682562,75.89761167343538,2195.851957119991
3307.311092235885,-105.92974808359963,101.19666281252573,2175.257752453657
3349.009234283734,-146.0746090697311,96.99725990284219,2130.4874241164025
3387.4719265790377,-118.89446954113704,92.06857200644924,2120.842041260535
3377.2876811828783,-116.87123426066535,90.38605617071056,2055.5750573704486
3344.1241669438723,-400.34128432461875,96.09613348455095,2071.053045303457
3339.330852367756,-399.90333222574947,96.81592386912064,2238.189326083445
3334.6919336440415,-398.69896235944566,91.26409405359226,2023.7949067103248
3334.6919336440415,-398.69896235944566,91.26409405359226,2023.7949067103248
3329.820749836581,-389.68440105220384,85.34564739421947,2284.41189314257
3356.0170940015314,-369.693284813369,98.62793486763485,2220.1520927577776
3360.0541023244496,-369.8206464969577,96.28220599928348,2117.5447215306876
3360.0541023244496,-369.8206464969577,96.28220599928348,2117.5447215306876
3364.647733551094,-394.22366198820964,98.5956023759923,2269.4783364007108
3341.6545301501787,-395.2575727739233,92.05092792273567,2118.380253285583
3341.6545301501787,-395.2575727739233,92.05092792273567,2118.380253285583
3506.3206375061527,-344.11821343880354,87.48770479403957,2158.9415567049546
3705.4968699841234,-192.8030318361858,72.98282173987374,2171.088810167909
3717.0380602521705,-187.02224157969482,78.85153357961484,2025.9082306805128
3619.4486707093474,-180.51753906991578,80.42136494603031,2175.884739604133
3284.577833967471,-160.57215666511252,92.46447098314862,2159.1263487534125
3695.5571519677565,-343.97206313259954,82.04701657888735,2161.4855302379583
3720.782561064324,-363.27768262160834,73.66562235127431,2233.826504842083
3699.946282923883,-327.0303918478661,82.01880932782045,2185.346054858812
3678.044096113594,-324.0788511081176,76.91677232804098,2270.7109747466543
3672.0799002772183,-308.226878946891,85.06923223538398,2142.539363668891
3659.8715487178674,-275.69527435708875,66.34264429285227,2198.879641793837
3597.6285939437957,-267.80149140919974,67.97072163138515,2189.4465388047515
3590.801886386936,-266.41547743196213,94.84915348659008,2192.3297893594417
3591.9940935665127,-265.40845240769437,82.3091660828338,2269.313536952419
3501.6446034286205,-212.41896031384977,90.51311183344272,2157.559832676822
3581.506804652058,-345.6818379610101,76.16651671600432,2167.678199989196
3742.273723151309,-262.51577496062964,77.06817553572435,2200.2613749294796
3737.3349931752114,-260.9421297717763,73.16812573645838,2196.9027399293986
3743.4617337239265,-260.71347435380676,75.25610958545658,2075.2199662772755
3693.598721369863,-298.1631159010992,77.37571698497824,2072.526924886692
3698.944708968494,-356.64703431405036,76.7040705696781,2191.382116709362
3621.678483444344,-408.51684933111767,83.90613030706548,2193.059952529028
3621.678483444344,-408.51684933111767,83.90613030706548,2193.059952529028
3644.7930843303925,-437.2865308376319,83.76561578317121,2231.3650414225876
3644.7930843303925,-437.2865308376319,83.76561578317121,2231.3650414225876
3621.841178338021,-411.411101199318,82.7435354881201,2082.6540754527086
3621.841178338021,-411.411101199318,82.7435354881201,2082.6540754527086
3607.5440357547864,-381.94072905790875,82.64674524638103,2095.939860914001
3601.8923854115246,-359.2064389523297,85.06111342059553,2213.3663219969076
3601.8923854115246,-359.2064389523297,85.06111342059553,2213.3663219969076
3491.447356353408,-385.548096672429,83.8470253103754,2145.3193838757907
3491.447356353408,-385.548096672429,83.8470253103754,2145.3193838757907
3486.3043393059415,-348.7665223971986,84.44683698755154,2208.95809802268
3473.215443175089,-340.7112489853199,87.38093123181613,2132.050950884717
3450.8658011707143,-343.35066418064986,81.47452358338552,2156.5878723746496
3432.292709353035,-346.34721282607734,90.52006096373083,2264.4340479712578
3474.5430453247136,-395.4985322395531,86.88984950824994,2223.975929812744
3476.3832823559314,-401.77512971816765,85.93968418821036,2228.434950336971
3477.438873366973,-397.8016769341504,87.78884541207269,2146.1400310496906
3479.7395193852803,-409.64128641550326,75.26989741150206,2161.3862548192087
3479.7395193852803,-409.64128641550326,75.26989741150206,2161.3862548192087
3503.4325920524375,-428.09022856918455,76.92643899124721,2286.0669819400628
3525.7062115382596,-445.88049300594145,96.26654627160562,2227.0783738129753
3528.9712032405578,-450.6094059129358,97.67452068377132,2273.590729341647
3534.8361638928113,-447.9035551230168,93.23516961645673,2307.903082912281
3564.036683256855,-447.7320619894289,85.74230838759047,2122.3674081990366
3381.268687213263,-303.4452548013101,87.05626835770808,2152.5894257879118
3363.1999861975037,-280.4866771560483,89.97134162579101,2094.1435444377557
3401.917338423467,-218.7162931589768,86.75995152766582,2077.391688785745
3394.7620717446052,-250.2719857044857,84.99552329152999,2133.9992003311736
3394.7620717446052,-250.2719857044857,84.99552329152999,2133.9992003311736
3359.98740525021,-201.37923247132318,82.94217252928568,2117.11239064106
3349.94254556049,-199.0138068796113,78.30228681860362,2297.802105823057
3338.1430317029613,-197.27106447506304,83.69425880671977,2302.4396185028395
3336.823837794739,-201.93736559161636,86.19545820184959,2300.419728852793
3347.4831783456507,-199.43187942538958,95.13193119829738,2200.224885749889
3344.380691315775,-192.77898570986858,94.38008876766233,2248.089141953624
3349.7647835928433,-207.3488162043912,84.08868190947888,2174.0400177143338
3351.096509168337,-209.87310809679377,85.9841333166219,2149.535764765826
3378.113259515889,-172.5361019924007,98.45890091619954,2211.2965909922445
3441.2657492525236,-248.30505049095098,95.60566735129123,2213.2007477708476
3461.794404444723,-239.72786807010488,81.25152247752665,2279.528695662364
3458.900538491879,-238.36204949244967,82.41252995190825,2319.9385044315627
3468.076865629986,-214.65717645071274,86.40102945790623,2331.143856964867
3458.718075824329,-212.38725757314253,85.51068994316881,2320.5429013954345
3460.9261605463666,-210.66671565192158,80.2099394381431,2288.6483973813497
3436.55624843073,-218.23683918595034,89.61378838279909,2248.4358031034412
3426.7583532376443,-226.1712173631246,91.90909050915229,2260.7144263654736
3410.341852855147,-221.44426135376864,86.72023107675258,2043.9047267689145
3413.973265456613,-216.32625665063426,84.86076561634016,2156.6608956799028
3420.204048138757,-218.7698234949522,87.6423428510792,2114.410580653867
3425.055663172509,-226.18169904624168,84.45223111623251,2068.8837832110657
3429.025195811701,-211.570696816552,83.95935342140747,2198.977569787029
3437.528325036312,-205.3955298980159,81.4907547718401,2225.5652764978768
3423.0680229545205,-199.92359879539725,84.1374304958205,2180.019046768312
3529.016993040983,-364.5814347832413,81.76892720172174,2162.5027850304814
3405.768208171341,0.7315352490853169,79.6777686533182,2218.402111303333
3408.079896686584,2.0589739001571186,81.22037699809553,2154.4005514646383
3469.7222577376956,26.16791345674441,83.3889301458798,2219.6610662406943
3471.4101780690885,16.826781681608466,82.91154507430413,2228.4536787326015
3464.973188150256,16.145676245457288,84.37144185900735,2247.474946667638
3461.355664429703,18.348820756753106,78.51607580990212,2143.067107841598
3482.3885712223696,44.321225532319964,79.77048039957988,2060.2300279063957
3488.5973556454237,-46.20342753658414,83.68434413807265,2244.341535418622
3486.6192783201127,-52.79740088096174,85.53813858020432,2164.0681118047505
3484.9336409543835,-52.73224689585576,85.95997032021789,2194.8097973985155
3485.6672209563835,-53.60210532409149,81.98052302486832,2174.8091145137446
3614.904504281593,-324.036221229423,83.55955770464215,2180.7225695066804
3365.9475370997743,-102.07294925973576,84.3585279978774,2091.935072951912
3361.4327414437785,-150.8526241532465,88.3105906287384,2140.7253408528222
3518.8118899774936,-37.10938275016411,84.78409133549617,2137.4660823124527
3527.4804296618463,-37.20296035616309,77.41531875320057,2209.3076166947653
3523.314350148252,-40.15434348916626,74.39501713401826,2143.89462859683
3475.1958506879046,-116.51358183207994,82.3525739333885,2155.8826116954083
3577.089843009734,-169.5944620843422,78.0109764937855,2097.652585914718
3563.098204900018,-11.908390661660817,75.54908904731441,2079.81353720029
3574.960759898748,-11.491033734000553,78.76290261261165,2269.5981681715703
3574.8314983763594,-13.275911871580325,77.92575961743026,2303.60802208804
3575.9811196346395,-26.517667682969766,74.43153638891523,2188.2177200911883
3535.8177857950327,72.47342002564713,73.05911034253049,2077.644367935521
3478.024195324021,-71.84154019838999,78.30915692663359,2199.92828394729
3478.7193288097506,-71.30906852957817,70.92596295234253,2196.321561061605
3478.7193288097506,-71.30906852957817,70.92596295234253,2196.321561061605
3496.64041690823,-77.15543687571547,79.22341448216062,2188.0061180645584
